[{"epoch":99,"weights":[[1.113553277276468,1.895076317132132,-1.6521513280417535,-0.7526883058692089],[0.905242888905477,0.14773133880846964,0.6168249789472664,-0.54465742401196],[-1.241089379206071,-0.9542500914178932,3.123016810264341,2.282480947558218]],"accuracy_validation":0.9333333333333333,"mse_training":0.0380952380952381,"accuracy_training":0.9809523809523809,"mse_validation":0.13333333333333333,"bias":-3.338699070292542E-17},{"epoch":98,"weights":[[1.110725737090397,1.8887513432719412,-1.644242892287554,-0.7490316618649003],[0.9004786494358277,0.14888621507252867,0.6195196654576997,-0.5395261912333664],[-1.2334975995503505,-0.9490799938217617,3.112413687999709,2.2736930707753173]],"accuracy_validation":0.9333333333333333,"mse_training":0.0380952380952381,"accuracy_training":0.9809523809523809,"mse_validation":0.13333333333333333,"bias":-3.2487120667601995E-17},{"epoch":97,"weights":[[1.1078764837346837,1.882373018735709,-1.6362681700056048,-0.745345405913556],[0.895670775563734,0.1500603465259521,0.6222344324341259,-0.5343521220859938],[-1.2258404723225425,-0.943875800738952,3.1017241987413304,2.264832745676599]],"accuracy_validation":0.9333333333333333,"mse_training":0.0380952380952381,"accuracy_training":0.9809523809523809,"mse_validation":0.13333333333333333,"bias":-3.705683358163423E-17},{"epoch":96,"weights":[[1.1050051489423953,1.8759404015438936,-1.6282259892668756,-0.7416290191973706],[0.8908184472988702,0.15125416300889816,0.6249696096362648,-0.529134407331063],[-1.2181168092653898,-0.9386370000300823,3.0909468408004637,2.255898644205481]],"accuracy_validation":0.9333333333333333,"mse_training":0.0380952380952381,"accuracy_training":0.9809523809523809,"mse_validation":0.13333333333333333,"bias":-2.92073717982595E-17},{"epoch":95,"weights":[[1.1021113548825905,1.869452524649416,-1.6201151467228332,-0.7378819690206648],[0.885920822089467,0.1524681069493011,0.6277255350796133,-0.5238722152409013],[-1.2103253899961819,-0.9333630670760089,3.080080072813072,2.2468894019386125]],"accuracy_validation":0.9333333333333333,"mse_training":0.0380952380952381,"accuracy_training":0.9809523809523809,"mse_validation":0.13333333333333333,"bias":-3.312977273722825E-17},{"epoch":94,"weights":[[1.099194713828662,1.8629083950489218,-1.6119344064734178,-0.7341037083094428],[0.8809770340162199,0.15370263382825533,0.6305025552980283,-0.5185646907968515],[-1.2024649608690046,-0.9280534643544679,3.069122312345239,2.237803616783338]],"accuracy_validation":0.9333333333333333,"mse_training":0.0380952380952381,"accuracy_training":0.9809523809523809,"mse_validation":0.13333333333333333,"bias":-3.1475932635908095E-17},{"epoch":93,"weights":[[1.0962548278123874,1.8563069928545604,-1.6036824988833087,-0.730293675088047],[0.8759861929512821,0.1549582126666349,0.6333010256152244,-0.5132109548531752],[-1.1945342337877918,-0.9227076409984858,3.0580719344379332,2.228639847618267]],"accuracy_validation":0.9333333333333333,"mse_training":0.0380952380952381,"accuracy_training":0.9809523809523809,"mse_validation":0.13333333333333333,"bias":-3.211200091034127E-17},{"epoch":92,"weights":[[1.0932912882629582,1.8496472703241713,-1.595358119343568,-0.7264512919315899],[0.8709473836806112,0.15623532653413566,0.6361213104253969,-0.5078101032653257],[-1.1865318849676927,-0.9173250323355978,3.046927270088021,2.2193966128739615]],"accuracy_validation":0.9333333333333333,"mse_training":0.0380952380952381,"accuracy_training":0.9809523809523809,"mse_validation":0.13333333333333333,"bias":-2.882480614162768E-17},{"epoch":91,"weights":[[1.0903036756302045,1.8429281508475976,-1.5869599269755543,-0.722575965392805],[0.8658596649878344,0.15753447308200413,0.6389637834831592,-0.5023612059809061],[-1.1784565536421612,-0.9119050594068935,3.035686604662245,2.2100723890507568]],"accuracy_validation":0.9333333333333333,"mse_training":0.0380952380952381,"accuracy_training":0.9809523809523809,"mse_validation":0.13333333333333333,"bias":-3.066925124638256E-17},{"epoch":90,"weights":[[1.0872915589911882,1.836148527886726,-1.5784865432737796,-0.7186670854018247],[0.8607220686976921,0.15885616510080972,0.6418288282029679,-0.4968633060915449],[-1.1703068407130013,-0.9064471284648263,3.02434817624066,2.2006656091704158]],"accuracy_validation":0.9333333333333333,"mse_training":0.0380952380952381,"accuracy_training":0.9809523809523809,"mse_validation":0.13333333333333333,"bias":-2.890211036367645E-17},{"epoch":89,"weights":[[1.0842544956393005,1.8293072638666632,-1.5699365506841685,-0.7147240246373121],[0.8555335986770256,0.16020093110470557,0.6447168379681687,-0.49131541884383123],[-1.1620813073404481,-0.9009506304486601,3.0129101738858455,2.19117466115819]],"accuracy_validation":0.9333333333333333,"mse_training":0.0380952380952381,"accuracy_training":0.9809523809523809,"mse_validation":0.13333333333333333,"bias":-2.5826518859488698E-17},{"epoch":88,"weights":[[1.081192030654928,1.8224031890153387,-1.5613084911138977,-0.7107461378672533],[0.8502932297911551,0.16156931594373042,0.6476282164497951,-0.485716530607357],[-1.1537784734702046,-0.8954149404363615,3.001370735833947,2.181597886151655]],"accuracy_validation":0.9333333333333333,"mse_training":0.0380952380952381,"accuracy_training":0.9809523809523809,"mse_validation":0.13333333333333333,"bias":-2.681113023984572E-17},{"epoch":87,"weights":[[1.078103696456703,1.8154351001485787,-1.5526008643687537,-0.7067327612575899],[0.8449999068133691,0.16296188144581347,0.6505633779351818,-0.4800655977978477],[-1.1453968162941943,-0.8898394170716845,2.9897279476034186,2.1719335767324823]],"accuracy_validation":0.9333333333333333,"mse_training":0.0380952380952381,"accuracy_training":0.9809523809523809,"mse_validation":0.13333333333333333,"bias":-2.783282690639034E-17},{"epoch":86,"weights":[[1.0749890123323036,1.808401759397528,-1.543812126513617,-0.7026832116467574],[0.8396525432851433,0.16437920709026915,0.6535227476664376,-0.4743615457532324],[-1.136934768641567,-0.8842234019650898,2.9779798400170265,2.162179975077035]],"accuracy_validation":0.9333333333333333,"mse_training":0.0380952380952381,"accuracy_training":0.9809523809523809,"mse_validation":0.13333333333333333,"bias":-2.941090912537059E-17},{"epoch":85,"weights":[[1.0718474839476668,1.8013018928750901,-1.5349406881513705,-0.6985967857840247],[0.8342500203245583,0.16582189071469736,0.6565067621887499,-0.46860326756043597],[-1.1283907172963452,-0.8785662190670802,2.9661243871324703,2.1523352710215056]],"accuracy_validation":0.9333333333333333,"mse_training":0.0380952380952381,"accuracy_training":0.9809523809523809,"mse_validation":0.13333333333333333,"bias":-3.299223177540724E-17},{"epoch":84,"weights":[[1.0686786028334656,1.7941341892777887,-1.5259849126152012,-0.6944727595293925],[0.8287911853802554,0.16729054925735548,0.6595158697084367,-0.46278962283056085],[-1.1197630012378423,-0.8728671740124377,2.9541595040766153,2.1423976000369978]],"accuracy_validation":0.9333333333333333,"mse_training":0.0380952380952381,"accuracy_training":0.9809523809523809,"mse_validation":0.13333333333333333,"bias":-3.311038172115453E-17},{"epoch":83,"weights":[[1.0654818458475677,1.7868972984192306,-1.5169431140688243,-0.6903103870126294],[0.823274850928117,0.16878581953721675,0.6625505304605906,-0.4569194364200292],[-1.1110499097998072,-0.8671255534337408,2.9420830447780837,2.1323650411097033]],"accuracy_validation":0.9333333333333333,"mse_training":0.0380952380952381,"accuracy_training":0.9809523809523809,"mse_validation":0.13333333333333333,"bias":-3.15863026667529E-17},{"epoch":82,"weights":[[1.0622566746121467,1.7795898296910435,-1.507813555508796,-0.6861088997488424],[0.8176997931077238,0.17030835907411512,0.6656112170860515,-0.45099149709514846],[-1.1022496807439937,-0.8613406242424527,2.929892799592594,2.1222356145210344]],"accuracy_validation":0.9333333333333333,"mse_training":0.0380952380952381,"accuracy_training":0.9809523809523809,"mse_validation":0.13333333333333333,"bias":-2.3426746604707284E-17},{"epoch":81,"weights":[[1.0590025349240149,1.7722103504468931,-1.4985944466625905,-0.6818675057077584],[0.8120647502954614,0.1718588469515575,0.6686984150173598,-0.44500455613746],[-1.0933604982435992,-0.8555116328757465,2.9175864928150794,2.112007279522261]],"accuracy_validation":0.9333333333333333,"mse_training":0.0380952380952381,"accuracy_training":0.9809523809523809,"mse_validation":0.13333333333333333,"bias":-2.215108421502352E-17},{"epoch":80,"weights":[[1.0557188561366646,1.7647573843048325,-1.4892839417756005,-0.6775853883336971],[0.806368421610996,0.17343798472499594,0.671812622873198,-0.43895732588712394],[-1.0843804907717827,-0.8496378045071237,2.90516178007225,2.101677931897863]],"accuracy_validation":0.9333333333333333,"mse_training":0.0380952380952381,"accuracy_training":0.9809523809523809,"mse_validation":0.13333333333333333,"bias":-2.4119044995907834E-17},{"epoch":79,"weights":[[1.0524050505123919,1.7572294093628802,-1.4798801372797221,-0.6732617055129296],[0.8006094653536574,0.17504649737858083,0.674954352860691,-0.43284847822148387],[-1.0753077288901713,-0.8437183422187562,2.892616245588878,2.091245401411455]],"accuracy_validation":0.9333333333333333,"mse_training":0.0380952380952381,"accuracy_training":0.9809523809523809,"mse_validation":0.13333333333333333,"bias":-3.020273281253871E-17},{"epoch":78,"weights":[[1.049060512542773,1.7496248563223544,-1.4703810693355042,-0.66889558848489],[0.7947864973650892,0.1766851343336691,0.6781241311847627,-0.4266766429658559],[-1.0661402229319843,-0.8377524261333176,2.879947399320589,2.0807074491277873]],"accuracy_validation":0.9333333333333333,"mse_training":0.0380952380952381,"accuracy_training":0.9809523809523809,"mse_validation":0.13333333333333333,"bias":-2.867795991903927E-17},{"epoch":77,"weights":[[1.0456846182356436,1.7419421065130323,-1.4607847112392311,-0.6644861406933787],[0.7888980893143321,0.17835467051263823,0.6813224984635333,-0.42044040623347984],[-1.056875920574098,-0.8317392125029645,2.8671526739455437,2.0700617646039]],"accuracy_validation":0.9333333333333333,"mse_training":0.0380952380952381,"accuracy_training":0.9809523809523809,"mse_validation":0.13333333333333333,"bias":-3.054064396752607E-17},{"epoch":76,"weights":[[1.0422767243666085,1.7341794898137666,-1.4510889706855443,-0.6600324365735719],[0.7829427669013134,0.1800559074618625,0.6845500101485215,-0.4141383086914713],[-1.0475127042920445,-0.8256778327529237,2.85422942170687,2.0593059629420862]],"accuracy_validation":0.9333333333333333,"mse_training":0.0380952380952381,"accuracy_training":0.9809523809523809,"mse_validation":0.13333333333333333,"bias":-3.343686693107906E-17},{"epoch":75,"weights":[[1.0388361676929665,1.726335282461658,-1.4412916868754022,-0.6555335202703025],[0.7769190079745031,0.181789674538049,0.6878072369481247,-0.4077688437495258],[-1.0380483886915919,-0.8195673924770007,2.8411749110971254,2.048437581696871]],"accuracy_validation":0.9333333333333333,"mse_training":0.0380952380952381,"accuracy_training":0.9809523809523809,"mse_validation":0.13333333333333333,"bias":-3.431162657541945E-17},{"epoch":74,"weights":[[1.03536226412779,1.718407704742308,-1.4313906274582755,-0.6509884042826668],[0.7708252405583014,0.18355683016251034,0.6910947652525395,-0.4013304556680348],[-1.0284807177102129,-0.813406970382112,2.827986323375584,2.037454077627744]],"accuracy_validation":0.9333333333333333,"mse_training":0.0380952380952381,"accuracy_training":0.9809523809523809,"mse_validation":0.13333333333333333,"bias":-3.308837183471797E-17},{"epoch":73,"weights":[[1.0318543078717315,1.7103949185531022,-1.4213834852964704,-0.6463960680295653],[0.7646598407854839,0.18535826314835985,0.6944131975579051,-0.394821537582211],[-1.0188073616813356,-0.8071956171787569,2.8146607489084143,2.02635282328882]],"accuracy_validation":0.9333333333333333,"mse_training":0.0380952380952381,"accuracy_training":0.9809523809523809,"mse_validation":0.13333333333333333,"bias":-3.471276840904705E-17},{"epoch":72,"weights":[[1.028311570499955,1.7022950248307278,-1.4112678750383818,-0.6417554563303012],[0.7584211307298254,0.18719489410608695,0.6977631528870185,-0.3882404294387505],[-1.0090259142539013,-0.800932354414109,2.8011951833212123,2.0151311034460937]],"accuracy_validation":0.9333333333333333,"mse_training":0.0380952380952381,"accuracy_training":0.9809523809523809,"mse_validation":0.13333333333333333,"bias":-2.891114051244396E-17},{"epoch":71,"weights":[[1.0247333000014218,1.6941060608334035,-1.401041329486231,-0.6370654777938022],[0.7521073761337892,0.18906767693348495,0.7011452672034579,-0.381585415841529],[-0.9991338891593319,-0.7946161732441838,2.787586523452622,2.003786111312372]],"accuracy_validation":0.9333333333333333,"mse_training":0.0380952380952381,"accuracy_training":0.9809523809523809,"mse_validation":0.13333333333333333,"bias":-2.8791138906351806E-17},{"epoch":70,"weights":[[1.0211187197674987,1.6858259972674812,-1.3907012957424767,-0.6323250031094279],[0.7457167840259381,0.19097760039647452,0.7045601938153715,-0.3748547238028079],[-0.9891287168175591,-0.7882460331412505,2.7738315630969543,1.9923149445892763]],"accuracy_validation":0.9333333333333333,"mse_training":0.0380952380952381,"accuracy_training":0.9809523809523809,"mse_validation":0.13333333333333333,"bias":-2.790465003944876E-17},{"epoch":69,"weights":[[1.0174670275266915,1.6774527352470843,-1.3802451311175565,-0.6275328632316395],[0.7392475002225001,0.1929256898080252,0.7080086037644893,-0.36804652039644015],[-0.9790077407733146,-0.7818208605324046,2.7599269885229196,1.9807146013051196]],"accuracy_validation":0.9333333333333333,"mse_training":0.0380952380952381,"accuracy_training":0.9809523809523809,"mse_validation":0.13333333333333333,"bias":-2.930592662111692E-17},{"epoch":68,"weights":[[1.0137773942220196,1.6689841030744885,-1.3696700987799055,-0.6226878474500476],[0.7326976067072783,0.19491300881307894,0.7114911861951319,-0.3611589103096139],[-0.968768213953422,-0.7753395473648628,2.7458693737546245,1.9689819754367006]],"accuracy_validation":0.9333333333333333,"mse_training":0.0380952380952381,"accuracy_training":0.9809523809523809,"mse_validation":0.13333333333333333,"bias":-3.05578665957983E-17},{"epoch":67,"weights":[[1.010048962827288,1.660417852827731,-1.358973363127256,-0.6177887013354962],[0.7260651188839017,0.19694066128820778,0.7150086486970553,-0.35418993328976384],[-0.9584072947353133,-0.7688009495932335,2.731655175600051,1.9571138523023002]],"accuracy_validation":0.9333333333333333,"mse_training":0.0380952380952381,"accuracy_training":0.9809523809523809,"mse_validation":0.13333333333333333,"bias":-2.7209278275225867E-17},{"epoch":66,"weights":[[1.0062808470982114,1.6517516567406814,-1.348151984856106,-0.6128341245518903],[0.7193479826941571,0.19900979336563807,0.7185617176148823,-0.34713756148343394],[-0.9479220428164918,-0.762203885583614,2.7172807284110716,1.9451069037123647]],"accuracy_validation":0.9333333333333333,"mse_training":0.0380952380952381,"accuracy_training":0.9809523809523809,"mse_validation":0.13333333333333333,"bias":-2.346396407435676E-17},{"epoch":65,"weights":[[1.0024721302540265,1.6429831033593658,-1.337202915703764,-0.6078227685223749],[0.7125440715959805,0.20112159559230014,0.7221511383156439,-0.33999969666407237],[-0.9373094148741326,-0.75554713442896,2.702742238557968,1.9329576828634871]],"accuracy_validation":0.9333333333333333,"mse_training":0.0380952380952381,"accuracy_training":0.9809523809523809,"mse_validation":0.13333333333333333,"bias":-2.9579807974817797E-17},{"epoch":64,"weights":[[0.9986218635848712,1.6341096934566837,-1.3261229928346805,-0.6027532339372764],[0.705651183394474,0.20327730523572124,0.7257776754044692,-0.3327741673460459],[-0.9265662600034709,-0.7488294341697002,2.68803577860006,1.920662618960361]],"accuracy_validation":0.9333333333333333,"mse_training":0.0380952380952381,"accuracy_training":0.9809523809523809,"mse_validation":0.13333333333333333,"bias":-2.370334921718731E-17},{"epoch":63,"weights":[[0.994729064979774,1.625128835685877,-1.3149089328396406,-0.5976240680898288],[0.6986670369191723,0.20547820874988623,0.7294421128767719,-0.32545872578253815],[-0.9156893149230731,-0.742049479913058,2.673157281132717,1.908218011549405]],"accuracy_validation":0.9333333333333333,"mse_training":0.05714285714285714,"accuracy_training":0.9714285714285714,"mse_validation":0.13333333333333333,"bias":-2.1154681606645098E-17},{"epoch":62,"weights":[[0.9907927173697202,1.6160378419510124,-1.3035573253128931,-0.592433762024142],[0.6915892685406643,0.2077256444156718,0.7331452541933141,-0.3180510448455025],[-0.9046751989345114,-0.7352059218439798,2.658102532289428,1.8956200245466814]],"accuracy_validation":0.9333333333333333,"mse_training":0.05714285714285714,"accuracy_training":0.9714285714285714,"mse_validation":0.13333333333333333,"bias":-2.312919574247595E-17},{"epoch":61,"weights":[[0.986811767079713,1.6068339224704584,-1.2920646259683066,-0.5871807474780991],[0.6844154285195722,0.21002100517214203,0.7368879222622088,-0.31054871478647644],[-0.8935204086234119,-0.7282973631198962,2.642867164875948,1.8828646799416144]],"accuracy_validation":0.9333333333333333,"mse_training":0.05714285714285714,"accuracy_training":0.9714285714285714,"mse_validation":0.13333333333333333,"bias":-1.7498283233576114E-17},{"epoch":60,"weights":[[0.9827851220832341,1.5975141805066604,-1.2804271492510748,-0.5818633936018581],[0.6771429771809008,0.2123657416569043,0.7406709593092495,-0.30294923987786965],[-0.8822213122882621,-0.7213223576408595,2.6274466511116734,1.869947851156766]],"accuracy_validation":0.9333333333333333,"mse_training":0.05714285714285714,"accuracy_training":0.9714285714285714,"mse_validation":0.13333333333333333,"bias":-1.2367593178517809E-17},{"epoch":59,"weights":[[0.9787116501518979,1.5880756067325452,-1.2686410603963023,-0.5764800034303135],[0.6697692809067937,0.21476136547591013,0.7444952266148265,-0.2952500349353421],[-0.8707741440828185,-0.7142794076857493,2.611836294951323,1.856865256042693]],"accuracy_validation":0.9333333333333333,"mse_training":0.05714285714285714,"accuracy_training":0.9714285714285714,"mse_validation":0.13333333333333333,"bias":-1.0871716317705569E-17},{"epoch":58,"weights":[[0.9745901768923921,1.5785150732014774,-1.256702366879878,-0.5710288100852438],[0.6622916079408787,0.21720945272556416,0.7483616040920154,-0.2874484217231311],[-0.8591749978573974,-0.7071669614043363,2.5960312239577106,1.8436124494854131]],"accuracy_validation":0.9333333333333333,"mse_training":0.05714285714285714,"accuracy_training":0.9714285714285714,"mse_validation":0.13333333333333333,"bias":-8.654242824704524E-18},{"epoch":57,"weights":[[0.9704194836620561,1.5688293268837552,-1.244606909200182,-0.5655079726798455],[0.6547071239976352,0.21971164779286861,0.7522709896761808,-0.2795416252456996],[-0.8474198206838184,-0.6999834101539174,2.5800263806938473,1.8301848156025837]],"accuracy_validation":0.9333333333333333,"mse_training":0.05714285714285714,"accuracy_training":0.9714285714285714,"mse_validation":0.13333333333333333,"bias":-9.449272713557743E-18},{"epoch":56,"weights":[[0.9661983053535655,1.5590149827281712,-1.2323503509213536,-0.5599155718948625],[0.6470128876706025,0.2222696674625848,0.7562242984914408,-0.27152676993094793],[-0.8355044060482941,-0.692727085668049,2.5638165135997593,1.81657755950285]],"accuracy_validation":0.9333333333333333,"mse_training":0.05714285714285714,"accuracy_training":0.9714285714285714,"mse_validation":0.13333333333333333,"bias":-7.763827761567616E-18},{"epoch":55,"weights":[[0.9619253280382103,1.5490685162020226,-1.21992816789978,-0.5542496051915197],[0.6392058456337867,0.2248853053641593,0.7602224617534794,-0.2634008757124924],[-0.8234243866961225,-0.6853962570434748,2.5473961673161454,1.8027856985810509]],"accuracy_validation":0.9333333333333333,"mse_training":0.05714285714285714,"accuracy_training":0.9714285714285714,"mse_validation":0.13333333333333333,"bias":-9.077697623745205E-18},{"epoch":54,"weights":[[0.9575991864561503,1.5389862552569868,-1.2073356366049568,-0.5485079816218014],[0.6312828276313955,0.22756043679548268,0.7642664253613913,-0.25516085402125227],[-0.8111752271116712,-0.6779891275297607,2.53075967241341,1.7888040533200926]],"accuracy_validation":0.9333333333333333,"mse_training":0.05714285714285714,"accuracy_training":0.9714285714285714,"mse_validation":0.13333333333333333,"bias":-8.14894611411336E-18},{"epoch":53,"weights":[[0.9532184613407426,1.5287643716614028,-1.1945678214337665,-0.5426885161912611],[0.6232405412520191,0.23029702396554722,0.7683571481231987,-0.2468035036999192],[-0.7987522156168869,-0.670503831104241,2.513901134480413,1.7746272375682188]],"accuracy_validation":0.9333333333333333,"mse_training":0.05714285714285714,"accuracy_training":0.9714285714285714,"mse_validation":0.13333333333333333,"bias":-1.5296281591450078E-17},{"epoch":52,"weights":[[0.9487816765625728,1.518398871631535,-1.1816195609030233,-0.5367889237232464],[0.6150755664846866,0.23309712170384522,0.7724955995502828,-0.23832550685787304],[-0.7861504560713849,-0.6629384288126722,2.4968144225225837,1.7602496482581576]],"accuracy_validation":0.9333333333333333,"mse_training":0.05714285714285714,"accuracy_training":0.9714285714285714,"mse_validation":0.13333333333333333,"bias":-1.4742190753838936E-17},{"epoch":51,"weights":[[0.9442872960771477,1.507885585685056,-1.1684854525886608,-0.5308068121661466],[0.6067843500558953,0.23596288369105364,0.7766827571449272,-0.22972342468893997],[-0.7733648591571687,-0.6552909048534027,2.479493156613577,1.7456654545321242]],"accuracy_validation":0.9333333333333333,"mse_training":0.05714285714285714,"accuracy_training":0.9714285714285714,"mse_validation":0.13333333333333333,"bias":-1.7551961564328208E-17},{"epoch":50,"weights":[[0.9397337206582229,1.497220157629126,-1.1551598366606226,-0.5247396752767],[0.5983631995488059,0.23889656927333247,0.7809196030921356,-0.22099369328018556],[-0.7603901332311552,-0.6475591623797505,2.461930694738332,1.7308685862339213]],"accuracy_validation":0.9333333333333333,"mse_training":0.05714285714285714,"accuracy_training":0.9714285714285714,"mse_validation":0.13333333333333333,"bias":-1.63892944947738E-17},{"epoch":49,"weights":[[0.9351192843964935,1.4863980325826958,-1.141636777839835,-0.518584884602377],[0.5898082773084585,0.24190055093164298,0.7852071202516006,-0.2121326194468976],[-0.7472207747290787,-0.6397410189916316,2.4441201187580783,1.71585272172631]],"accuracy_validation":0.9333333333333333,"mse_training":0.05714285714285714,"accuracy_training":0.9714285714285714,"mse_validation":0.13333333333333333,"bias":-1.2819077091876525E-17},{"epoch":48,"weights":[[0.9304422509406729,1.4754144439176766,-1.1279100455769753,-0.512339680674041],[0.5811155941401148,0.24497732248808374,0.7895462873275984,-0.20313637663727935],[-0.7338510581049137,-0.631834201883052,2.426054219419218,1.700611274988356]],"accuracy_validation":0.9333333333333333,"mse_training":0.05714285714285714,"accuracy_training":0.9714285714285714,"mse_validation":0.13333333333333333,"bias":-1.4398608250048602E-17},{"epoch":47,"weights":[[0.9257008094548638,1.4642643989858346,-1.1139730922212518,-0.506001163306156],[0.5722810028119044,0.24812950814364468,0.793938073073245,-0.19400100096040165],[-0.7202750252908939,-0.6238363426067698,2.4077254803178487,1.6851373819435933]],"accuracy_validation":0.9333333333333333,"mse_training":0.05714285714285714,"accuracy_training":0.9714285714285714,"mse_validation":0.13333333333333333,"bias":-2.266679648610293E-17},{"epoch":46,"weights":[[0.9208930702624092,1.4529426634773819,-1.0998190289100467,-0.4995662808852795],[0.5633001913778969,0.2513598724563306,0.7983834293602803,-0.18472238740299382],[-0.706486474664431,-0.6157449714110034,2.3891260607196076,1.6694238859653094]],"accuracy_validation":0.9333333333333333,"mse_training":0.05714285714285714,"accuracy_training":0.9714285714285714,"mse_validation":0.13333333333333333,"bias":-2.5152543842345124E-17},{"epoch":45,"weights":[[0.9160170601419643,1.441443744232184,-1.0854405988659703,-0.49303181850798267],[0.554168676343842,0.2546713313857467,0.8028832829156068,-0.1752962863150753],[-0.69247894950993,-0.6075575110952209,2.3702477771202033,1.6534633225000943]],"accuracy_validation":0.9333333333333333,"mse_training":0.0761904761904762,"accuracy_training":0.9619047619047619,"mse_validation":0.13333333333333333,"bias":-2.235399145384664E-17},{"epoch":44,"weights":[[0.9110707172362452,1.4297618702947554,-1.0708301477349305,-0.4863943848059173],[0.5448817957052045,0.2580669645504268,0.8074385254902484,-0.16571830026174567],[-0.6782457259655729,-0.599271270322473,2.3510820834145214,1.6372479027446987]],"accuracy_validation":0.9333333333333333,"mse_training":0.0761904761904762,"accuracy_training":0.9619047619047619,"mse_validation":0.13333333333333333,"bias":-1.3295734295032055E-17},{"epoch":43,"weights":[[0.9060518855275246,1.4178909719685386,-1.0559795905355986,-0.47965039726777736],[0.5354347018961767,0.2615500288681062,0.8120500021841163,-0.1559838813592041],[-0.6637798004478255,-0.5908834363139354,2.3316200495213226,1.6207694963040173]],"accuracy_validation":0.9333333333333333,"mse_training":0.09523809523809523,"accuracy_training":0.9523809523809523,"mse_validation":0.13333333333333333,"bias":-1.3466237792149616E-17},{"epoch":42,"weights":[[0.9009583088262016,1.4058246575819997,-1.0408803747146458,-0.4727960658342905],[0.5258223546992998,0.26512397377749897,0.8167184975995604,-0.14608832923801662],[-0.6490738765496259,-0.5823910668367894,2.311852338284926,1.604019612749343]],"accuracy_validation":0.9333333333333333,"mse_training":0.09523809523809523,"accuracy_training":0.9523809523809523,"mse_validation":0.13333333333333333,"bias":-1.609137077260962E-17},{"epoch":41,"weights":[[0.8957876242093522,1.393556187627314,-1.0255234387106305,-0.4658273745018863],[0.5160395141786053,0.26879245827390363,0.8214447194364749,-0.13602678980660418],[-0.6341203514120815,-0.573791081378509,2.2917691804439944,1.5869893819855259]],"accuracy_validation":0.9333333333333333,"mse_training":0.09523809523809523,"accuracy_training":0.9523809523809523,"mse_validation":0.13333333333333333,"bias":-1.433812056849399E-17},{"epoch":40,"weights":[[0.8905373548345958,1.3810784458695726,-1.0098991653187523,-0.45874006062172956],[0.5060807337152906,0.27255937003126474,0.8262292790696611,-0.12579425502397693],[-0.6189113015740102,-0.5650802513781297,2.2713603474189292,1.569669533322743]],"accuracy_validation":0.9333333333333333,"mse_training":0.09523809523809523,"accuracy_training":0.9523809523809523,"mse_validation":0.13333333333333333,"bias":-1.5506670281867077E-17},{"epoch":39,"weights":[[0.8852049020403512,1.3683839069480417,-0.9939973290143824,-0.4515295915213635],[0.49594035324438457,0.2764288469315939,0.8310726685626149,-0.11538556393415547],[-0.6034384683088603,-0.5562551893569282,2.2506151216216055,1.5520503731325561]],"accuracy_validation":0.9333333333333333,"mse_training":0.09523809523809523,"accuracy_training":0.9523809523809523,"mse_validation":0.13333333333333333,"bias":-1.7236688489821892E-17},{"epoch":38,"weights":[[0.8797875366258242,1.3554645998975712,-0.9778070362296462,-0.444191138003772],[0.48561249281441804,0.2804053013807032,0.835975233467837,-0.1047954052670981],[-0.5876932424643665,-0.5473123367555673,2.229522263931647,1.5341217609479063]],"accuracy_validation":0.9333333333333333,"mse_training":0.09523809523809523,"accuracy_training":0.9523809523809523,"mse_validation":0.13333333333333333,"bias":-1.5748925939946553E-17},{"epoch":37,"weights":[[0.874282389181924,1.3423120669036166,-0.9613166573771807,-0.4367195441900362],[0.47509104662058116,0.28449344785923225,0.8409371406380793,-0.09401832197425704],[-0.5716666488266301,-0.5382479502401428,2.2080699779089414,1.5158730838413303]],"accuracy_validation":0.9333333333333333,"mse_training":0.09523809523809523,"accuracy_training":0.9523809523809523,"mse_validation":0.13333333333333333,"bias":-1.811983045161764E-17},{"epoch":36,"weights":[[0.8686864393164592,1.3289173164629438,-0.9445137491693306,-0.4291092930628454],[0.464369677696348,0.2886983342428035,0.8459583401208167,-0.08304871814354702],[-0.5553493300369324,-0.5290580861830405,2.1862458702183543,1.4972932288834289]],"accuracy_validation":0.9333333333333333,"mse_training":0.09523809523809523,"accuracy_training":0.9523809523809523,"mse_validation":0.13333333333333333,"bias":-1.9120820107364882E-17},{"epoch":35,"weights":[[0.862996503581668,1.315270769946983,-0.9273849654777935,-0.42135446693370543],[0.453441813490345,0.2930253775283745,0.8510385200234022,-0.07188086883158872],[-0.5387315300961383,-0.5197385829526512,2.164036906624232,1.4783705534423306]],"accuracy_validation":0.9333333333333333,"mse_training":0.09523809523809523,"accuracy_training":0.9523809523809523,"mse_validation":0.13333333333333333,"bias":-1.5213541824975515E-17},{"epoch":34,"weights":[[0.8572092218672311,1.3013622003468557,-0.9099159546029663,-0.4134487018900531],[0.44230064260599145,0.29748040473006016,0.8561770530109085,-0.060508933464405903],[-0.5218030774973483,-0.5102850405542099,2.1414293627619,1.459092853031496]],"accuracy_validation":0.9111111111111111,"mse_training":0.09523809523809523,"accuracy_training":0.9523809523809523,"mse_validation":0.17777777777777778,"bias":-1.9457431000603732E-17},{"epoch":33,"weights":[[0.8513210419642393,1.2871806617064365,-0.8920912403544853,-0.40538513507090707],[0.4309391130432243,0.3020696998627242,0.8613729328225813,-0.048926973596173755],[-0.5045533680315895,-0.5006927970464541,2.1184087687017454,1.4394473263441174]],"accuracy_validation":0.9111111111111111,"mse_training":0.09523809523809523,"accuracy_training":0.9523809523809523,"mse_validation":0.17777777777777778,"bias":-1.8934896375442566E-17},{"epoch":32,"weights":[[0.8453282019311166,1.2727144074070045,-0.8738940837593815,-0.3971563433598468],[0.4193499323570699,0.3068000581231515,0.866624698853139,-0.03712897598531485],[-0.4869713473123126,-0.4909569010074507,2.0949598460760837,1.4194205370221984]],"accuracy_validation":0.9111111111111111,"mse_training":0.09523809523809523,"accuracy_training":0.9523809523809523,"mse_validation":0.17777777777777778,"bias":-1.8160284745178505E-17},{"epoch":31,"weights":[[0.8392267097956695,1.2579507950336273,-0.8553063214786268,-0.3887542717571334],[0.40752557024028263,0.3116788486165254,0.8719303464250927,-0.02510888215620092],[-0.4690454930600786,-0.48107207912744787,2.0710664362233744,1.3989983715903702]],"accuracy_validation":0.8888888888888888,"mse_training":0.09523809523809523,"accuracy_training":0.9523809523809523,"mse_validation":0.2222222222222222,"bias":-1.0170053547139238E-17},{"epoch":30,"weights":[[0.833012320000573,1.2428761750022064,-0.8363081760829673,-0.38017014927907555],[0.395458264151242,0.3167140872734704,0.8772872198559196,-0.012860625873267372],[-0.4507637971759412,-0.4710326977529716,2.0467114173968888,1.3781659928293795]],"accuracy_validation":0.8888888888888888,"mse_training":0.09523809523809523,"accuracy_training":0.9523809523809523,"mse_validation":0.2222222222222222,"bias":-1.0203037010105321E-17},{"epoch":29,"weights":[[0.8266805058322522,1.2274757594210697,-0.8168780321567842,-0.37139438970623473],[0.3831400287495185,0.32191452197753556,0.8826918847703155,-3.7818027606751703E-4],[-0.4321137476058968,-0.4608327168759013,2.021876608556311,1.3569077876593398]],"accuracy_validation":0.8666666666666667,"mse_training":0.11428571428571428,"accuracy_training":0.9428571428571428,"mse_validation":0.26666666666666666,"bias":-9.235640681046189E-18},{"epoch":28,"weights":[[0.8202264268507455,1.2117334667531312,-0.7969921706867469,-0.3624164738278722],[0.3705626700778773,0.3272897323982942,0.8881399752843729,0.012344383173337406],[-0.41308230995274925,-0.45046563462872097,1.9965426565722166,1.335207308331572]],"accuracy_validation":0.8666666666666667,"mse_training":0.11428571428571428,"accuracy_training":0.9428571428571428,"mse_validation":0.26666666666666666,"bias":-7.22898574768286E-18},{"epoch":27,"weights":[[0.8136448900402619,1.1956317366677784,-0.7766244522457421,-0.3532248089610905],[0.3577178056516044,0.33285024763322324,0.8936260106433365,0.025312821271118134],[-0.39365590871599254,-0.43992441977829744,1.9706889027722492,1.3130472053670095]],"accuracy_validation":0.8666666666666667,"mse_training":0.13333333333333333,"accuracy_training":0.9333333333333333,"mse_validation":0.26666666666666666,"bias":-8.257385389603251E-18},{"epoch":26,"weights":[[0.8069303029981805,1.1791513079351486,-0.7557459369598962,-0.3438065603952518],[0.34459689189857806,0.3386076855462141,0.8991431745568991,0.03853262787485738],[-0.3738204079208846,-0.4292014289586581,1.9442932235728405,1.2904091501974324]],"accuracy_validation":0.8666666666666667,"mse_training":0.13333333333333333,"accuracy_training":0.9333333333333333,"mse_validation":0.26666666666666666,"bias":-1.7924572416616424E-18},{"epoch":25,"weights":[[0.8000766169332053,1.1622709501935895,-0.7343244259525628,-0.33414744793734047],[0.3311912607571367,0.34457491871307816,0.9046830487482518,0.05200892079431443],[-0.3535610907144684,-0.4182883043839628,1.9173318383741547,1.2672737448200637]],"accuracy_validation":0.8666666666666667,"mse_training":0.13333333333333333,"accuracy_training":0.9333333333333333,"mse_validation":0.26666666666666666,"bias":1.6694002950845733E-18},{"epoch":24,"weights":[[0.793077256492717,1.1449671377389075,-0.7123239046237335,-0.3242314987895704],[0.31749216771279415,0.35076627323066334,0.9102352899793407,0.06574630156005705],[-0.33286263722963716,-0.40717584644686644,1.889779075814237,1.2436204149065506]],"accuracy_validation":0.8444444444444444,"mse_training":0.13333333333333333,"accuracy_training":0.9333333333333333,"mse_validation":0.3111111111111111,"bias":-1.6516464845100869E-18},{"epoch":23,"weights":[[0.7859250324000263,1.1272136498938325,-0.6897038623680022,-0.31404074540491145],[0.3034908541816471,0.35719776843850704,0.9157872368429804,0.07974868145122194],[-0.3117090996057994,-0.3958538538096347,1.8616070866948662,1.2194272816307274]],"accuracy_validation":0.8444444444444444,"mse_training":0.13333333333333333,"accuracy_training":0.9333333333333333,"mse_validation":0.3111111111111111,"bias":-2.690786504201662E-18},{"epoch":22,"weights":[[0.7786120314297459,1.1089810776647782,-0.6664184556223506,-0.3035548534953265],[0.289178627990042,0.3638874080163694,0.9213234286478537,0.09401906529385279],[-0.29008387244391415,-0.38431092115844295,1.8327854881443402,1.1946710058785106]],"accuracy_validation":0.8444444444444444,"mse_training":0.1523809523809524,"accuracy_training":0.9238095238095239,"mse_validation":0.3111111111111111,"bias":-9.776928615659584E-18},{"epoch":21,"weights":[[0.7711294761994004,1.0902362097693694,-0.6424154706964676,-0.2927506606604546],[0.2745469668490224,0.37085553621462986,0.9268250133666033,0.10855928202685734],[-0.2679696560725494,-0.37253418146129424,1.8032809184997067,1.1693265963106334]],"accuracy_validation":0.8444444444444444,"mse_training":0.20952380952380953,"accuracy_training":0.8952380952380953,"mse_validation":0.3111111111111111,"bias":-9.505064920908846E-18},{"epoch":20,"weights":[[0.7634675443308824,1.0709412619732062,-0.6176350285521347,-0.28160159964962966],[0.2595876513174712,0.37812527752746267,0.932269014284272,0.12336964760293169],[-0.24534840867248006,-0.3605089749779627,1.7730564754377063,1.1433671697237349]],"accuracy_validation":0.8444444444444444,"mse_training":0.20952380952380953,"accuracy_training":0.8952380952380953,"mse_validation":0.3111111111111111,"bias":-1.1755597580445636E-17},{"epoch":19,"weights":[[0.7556151323151604,1.051052900893558,-0.5920079539092301,-0.2700769713105273],[0.24429293600239696,0.38572308450112264,0.9376274148002757,0.13844854104220664],[-0.22220128134168327,-0.3482184208719749,1.7420710002787987,1.1167636479453582]],"accuracy_validation":0.8222222222222222,"mse_training":0.22857142857142856,"accuracy_training":0.8857142857142857,"mse_validation":0.35555555555555557,"bias":-9.85187409083265E-18},{"epoch":18,"weights":[[0.7475595432463674,1.0305209953263421,-0.5654537032806458,-0.2581410196755292],[0.22865577098838452,0.39367942744944634,0.9428660064779225,0.15379186777278459],[-0.1985085272588782,-0.3356428582530825,1.7102781579725677,1.0894843695797818]],"accuracy_validation":0.8222222222222222,"mse_training":0.26666666666666666,"accuracy_training":0.8666666666666667,"mse_validation":0.35555555555555557,"bias":-8.844650272593615E-18},{"epoch":17,"weights":[[0.7392860684515744,1.0092870021388436,-0.5378777069867743,-0.24575174365199007],[0.21267009024053915,0.40202967296787046,0.9479429248640058,0.16939237482767913],[-0.17424937171623922,-0.32275911058400847,1.6776252432926115,1.061494586501348]],"accuracy_validation":0.8222222222222222,"mse_training":0.26666666666666666,"accuracy_training":0.8666666666666667,"mse_validation":0.35555555555555557,"bias":-1.0267665623980842E-17},{"epoch":16,"weights":[[0.7307774192827988,0.9872818557789893,-0.5091679229799565,-0.23285935370414265],[0.19633119081905556,0.41081521740686794,0.9528067676289969,0.18523876853657276],[-0.14940182312598024,-0.30953950866315205,1.6440516165208017,1.0327558028446076]],"accuracy_validation":0.8,"mse_training":0.26666666666666666,"accuracy_training":0.8666666666666667,"mse_validation":0.4,"bias":-1.0460924661226385E-17},{"epoch":15,"weights":[[0.7220129442496978,0.9644231739697645,-0.47919031607657114,-0.21940424343339074],[0.17963623753912467,0.4200849702681456,0.9573941451262675,0.20131456468149417],[-0.12394239481294855,-0.29595057971520544,1.6094866321201455,1.0032248964289352]],"accuracy_validation":0.7777777777777778,"mse_training":0.3047619047619048,"accuracy_training":0.8476190476190476,"mse_validation":0.4444444444444444,"bias":-1.0026701691145941E-17},{"epoch":14,"weights":[[0.7129675336837951,0.9406115065046392,-0.44778284981014066,-0.20531428808022206],[0.16258494447850616,0.42989732635394334,0.9616264462858336,0.21759656981676037],[-0.09784569118642764,-0.28195126833587747,1.5738468646941473,0.9728529359405002]],"accuracy_validation":0.7333333333333333,"mse_training":0.34285714285714286,"accuracy_training":0.8285714285714286,"mse_validation":0.5333333333333333,"bias":-1.3484222419202213E-17},{"epoch":13,"weights":[[0.703610061292329,0.9157252212640108,-0.4147473844780753,-0.19050119304118054],[0.1451805113659625,0.4403228336856093,0.965405499159412,0.2340528441657488],[-0.07108378568241776,-0.26749049042691486,1.5370323464885032,0.94158356655247]],"accuracy_validation":0.7111111111111111,"mse_training":0.38095238095238093,"accuracy_training":0.8095238095238095,"mse_validation":0.5777777777777777,"bias":-1.2637460522491043E-17},{"epoch":12,"weights":[[0.6939011250060612,0.8896134105140552,-0.3798385713671798,-0.1748554756454504],[0.12743093623374735,0.45144787259149954,0.9686076421984324,0.2506399202782665],[-0.04362527426393502,-0.2525037185828493,1.4989213903385876,0.9093507730442222]],"accuracy_validation":0.7111111111111111,"mse_training":0.45714285714285713,"accuracy_training":0.7714285714285715,"mse_validation":0.5777777777777777,"bias":-1.733097172718079E-17},{"epoch":11,"weights":[[0.6837897018484125,0.8620858556177531,-0.342748345006455,-0.15823943778526814],[0.10935089828681638,0.46337983797549,0.9710754590855561,0.2672989284043527],[-0.015433813159355141,-0.23690812907053765,1.4593633470907394,0.8760757270579537]],"accuracy_validation":0.6888888888888889,"mse_training":0.5142857142857142,"accuracy_training":0.7428571428571429,"mse_validation":0.6222222222222222,"bias":-1.4209553672595024E-17},{"epoch":10,"weights":[[0.6732080715656693,0.8328985065983755,-0.30308380831564724,-0.14047711240939784],[0.09096453040112637,0.47625461267720964,0.9726059944878862,0.2839500751247417],[0.013534185009078166,-0.22059555475287979,1.4181682749976015,0.841662254961695]],"accuracy_validation":0.6666666666666666,"mse_training":0.5904761904761905,"accuracy_training":0.7047619047619048,"mse_validation":0.6666666666666666,"bias":-1.4988010832439617E-17},{"epoch":9,"weights":[[0.6620638870491152,0.8017319168224863,-0.2603349300133419,-0.12133952521368589],[0.07230962577718725,0.49024763133415195,0.9729335277539563,0.3004845729760588],[0.0433332741495716,-0.20342198363393318,1.3750918634292275,0.8059901699146658]],"accuracy_validation":0.6666666666666666,"mse_training":0.6095238095238096,"accuracy_training":0.6952380952380952,"mse_validation":0.6666666666666666,"bias":-1.6401810465360708E-17},{"epoch":8,"weights":[[0.6502273551086618,0.7681582264457941,-0.2138260488398793,-0.10052247473572772],[0.0534442448007992,0.5055907498850767,0.9717036848894456,0.31675250501843294],[0.07403518706641343,-0.18519141180816512,1.3298128251202743,0.7689051873943338]],"accuracy_validation":0.6666666666666666,"mse_training":0.6285714285714286,"accuracy_training":0.6857142857142857,"mse_validation":0.6666666666666666,"bias":-1.644084174357019E-17},{"epoch":7,"weights":[[0.6375096490459586,0.7315887828758413,-0.16264074361757622,-0.07761193629549291],[0.03445751633347689,0.5225988400926416,0.9684333254463311,0.332543991842549],[0.10573962159643921,-0.16563005844577794,1.2818978793410853,0.7302031621299828]],"accuracy_validation":0.6444444444444445,"mse_training":0.6476190476190476,"accuracy_training":0.6761904761904762,"mse_validation":0.7111111111111111,"bias":-1.163999452380438E-17},{"epoch":6,"weights":[[0.6236247700805968,0.6911875114798572,-0.10550118171227353,-0.05202816263521489],[0.015488142431689163,0.5417133345314579,0.9624462690958463,0.34755892727927923],[0.13859387446358853,-0.14434328148861025,1.230745373786267,0.6896044530329744]],"accuracy_validation":0.6444444444444445,"mse_training":0.6476190476190476,"accuracy_training":0.6761904761904762,"mse_validation":0.7111111111111111,"bias":-8.448103328007054E-18},{"epoch":5,"weights":[[0.6081183786500398,0.6457205850259031,-0.04056627972118262,-0.02293144888798884],[-0.003242134796762646,0.5635766294189458,0.9527665508721014,0.3613564696710934],[0.1728305431225975,-0.12073964992214424,1.1754901900189212,0.646710196893935]],"accuracy_validation":0.6444444444444445,"mse_training":0.6476190476190476,"accuracy_training":0.6761904761904762,"mse_validation":0.7111111111111111,"bias":-9.53230550049256E-18},{"epoch":4,"weights":[[0.590226906438555,0.5932811823671768,0.03492164273145197,0.010944462629252784],[-0.021364198171346407,0.5891651978770429,0.9379347417473264,0.3732674326272426],[0.20884407870866573,-0.0938888157215149,1.1148340766910614,0.6009233224205441]],"accuracy_validation":0.6444444444444445,"mse_training":0.6476190476190476,"accuracy_training":0.6761904761904762,"mse_validation":0.7111111111111111,"bias":-6.565928356572216E-18},{"epoch":3,"weights":[[0.5685820195280946,0.5307573298901703,0.1252844990152154,0.05160169687074259],[-0.03822947043590297,0.6200383683254417,0.9156839232563062,0.3822375861556896],[0.24735423788368263,-0.06223813369290743,1.0467220388983192,0.551295934650607]],"accuracy_validation":0.6444444444444445,"mse_training":0.6476190476190476,"accuracy_training":0.6761904761904762,"mse_validation":0.7111111111111111,"bias":-5.698566618583812E-18},{"epoch":2,"weights":[[0.5405607158446961,0.45276125522666855,0.23762628306225447,0.10237127901266832],[-0.052619062845450267,0.6588137704222927,0.8823835682992442,0.386550697326872],[0.2897651339766283,-0.023017461126256526,0.9676806098083415,0.49621324133749883]],"accuracy_validation":0.6444444444444445,"mse_training":0.6476190476190476,"accuracy_training":0.6761904761904762,"mse_validation":0.7111111111111111,"bias":-3.0964814046186013E-18},{"epoch":1,"weights":[[0.5008365813582488,0.3495483223599973,0.3839033960474227,0.16896794359330514],[-0.062050255097953075,0.7100130646730584,0.8323503670126582,0.38344350227768687],[0.3389204607155789,0.028996177489648608,0.871436698109759,0.4327237718060472]],"accuracy_validation":0.6444444444444445,"mse_training":0.6476190476190476,"accuracy_training":0.6761904761904762,"mse_validation":0.7111111111111111,"bias":1.2750217548429534E-18},{"epoch":0,"weights":[[0.4386401761214223,0.20451617380266918,0.5817501107867632,0.2602071285685666],[-0.06112894565139093,0.7807890762227783,0.7590965739533642,0.3694461612317909],[0.40019555650584293,0.10325231449725664,0.7468437764297121,0.35548192787668165]],"accuracy_validation":0.6444444444444445,"mse_training":0.6857142857142857,"accuracy_training":0.6571428571428571,"mse_validation":0.7111111111111111,"bias":-3.209238430557091E-19}]