[{"epoch":99,"weights":[[2.3334352967218956,4.529713772747351,-4.247322040594699,-2.0238397567710713],[1.5596769969134523,2.2131750280114293,0.32897957080091395,-3.496684471561389],[-3.06912058303509,-4.814750904933331,6.451264048503475,7.5627154034057105]],"accuracy_validation":0.9777777777777777,"mse_training":0.05714285714285714,"accuracy_training":0.9714285714285714,"mse_validation":0.044444444444444446,"bias":-7.425617567550335E-16},{"epoch":98,"weights":[[2.3263463766211,4.516594509932348,-4.231697412089596,-2.0154459648097376],[1.5552469048400595,2.203274952009797,0.33492689574965806,-3.481957030043106],[-3.057601570860903,-4.791731566116698,6.429692095049624,7.539594169926098]],"accuracy_validation":0.9777777777777777,"mse_training":0.05714285714285714,"accuracy_training":0.9714285714285714,"mse_validation":0.044444444444444446,"bias":-7.124334444760797E-16},{"epoch":97,"weights":[[2.319216301445193,4.50339522004789,-4.215970349235515,-2.007001584886947],[1.5508901689724752,2.1932266494192625,0.3408620994017124,-3.467151974501011],[-3.046114759817411,-4.768483973641705,6.408029828543483,7.516344734461208]],"accuracy_validation":0.9777777777777777,"mse_training":0.05714285714285714,"accuracy_training":0.9714285714285714,"mse_validation":0.044444444444444446,"bias":-7.407744279955864E-16},{"epoch":96,"weights":[[2.312044347027614,4.4901147376515755,-4.200139069403824,-1.9985058097888981],[1.5466077459488161,2.183028190883649,0.3467853232964608,-3.452268230734497],[-3.0346603823761713,-4.745005032709774,6.386275324817045,7.492965215596646]],"accuracy_validation":0.9777777777777777,"mse_training":0.05714285714285714,"accuracy_training":0.9714285714285714,"mse_validation":0.044444444444444446,"bias":-6.853001238713597E-16},{"epoch":95,"weights":[[2.304829768937898,4.476751864713344,-4.18420173299073,-1.9899578068410866],[1.5424005721600453,2.1726776633563376,0.35269671600613317,-3.437304672436905],[-3.023238630497683,-4.721291632244222,6.364426595694269,7.469453654351243]],"accuracy_validation":0.9777777777777777,"mse_training":0.05714285714285714,"accuracy_training":0.9714285714285714,"mse_validation":0.044444444444444446,"bias":-6.440643930272358E-16},{"epoch":94,"weights":[[2.2975718015151463,4.463305368771404,-4.168156440345833,-1.9813567164381192],[1.5382695589453501,2.162173176077942,0.3585964330977591,-3.4222601165066147],[-3.011849649860241,-4.697340649023889,6.342481585957752,7.445808008017985]],"accuracy_validation":0.9777777777777777,"mse_training":0.05714285714285714,"accuracy_training":0.9714285714285714,"mse_validation":0.044444444444444446,"bias":-6.766004427403722E-16},{"epoch":93,"weights":[[2.290269656825485,4.449773980945926,-4.152001228507155,-1.9727016504759214],[1.5342155872505396,2.1515128670505934,0.36448463709359064,-3.4071333178970913],[-3.000493533475771,-4.6731489521710605,6.320438170123247,7.422026143446259]],"accuracy_validation":0.9777777777777777,"mse_training":0.05714285714285714,"accuracy_training":0.9714285714285714,"mse_validation":0.044444444444444446,"bias":-6.490395733820436E-16},{"epoch":92,"weights":[[2.2829225235377884,4.436156393801219,-4.135734067731939,-1.9639916906810988],[1.5302395017040125,2.140694910032039,0.3703614974284333,-3.3919229639695527],[-2.9891703146415494,-4.648713408007802,6.298294149013184,7.398105829723894]],"accuracy_validation":0.9777777777777777,"mse_training":0.05714285714285714,"accuracy_training":0.9714285714285714,"mse_validation":0.044444444444444446,"bias":-6.128278497841E-16},{"epoch":91,"weights":[[2.27552956571159,4.422451259046957,-4.11935285781227,-1.9552258868320798],[1.5263421040625538,2.1297175220715743,0.3762271904019092,-3.376627668310323],[-2.9778799591738943,-4.624030885293081,6.276047246120036,7.374044730215645]],"accuracy_validation":0.9777777777777777,"mse_training":0.05714285714285714,"accuracy_training":0.9714285714285714,"mse_validation":0.044444444444444446,"bias":-5.894198210275467E-16},{"epoch":90,"weights":[[2.268089921490723,4.408657185068278,-4.1028554241641855,-1.9464032548664534],[1.5225241459768937,2.1185789716083123,0.38208189912322177,-3.361245963973282],[-2.96662235686737,-4.599098260851145,6.253695103750641,7.349840393912981]],"accuracy_validation":0.9777777777777777,"mse_training":0.05714285714285714,"accuracy_training":0.9714285714285714,"mse_validation":0.044444444444444446,"bias":-6.351633614146497E-16},{"epoch":89,"weights":[[2.2606027016957504,4.394772734274175,-4.086239513678286,-1.9375227748687749],[1.5187863210248076,2.1072775871503904,0.38792581344554455,-3.3457762961063993],[-2.955397312120312,-4.573912425599124,6.231235278942421,7.325490246048423]],"accuracy_validation":0.9777777777777777,"mse_training":0.05714285714285714,"accuracy_training":0.9714285714285714,"mse_validation":0.044444444444444446,"bias":-6.387177191773966E-16},{"epoch":88,"weights":[[2.25306698830784,4.380796420253046,-4.0695027903195,-1.9285833889328952],[1.5151292559575193,2.095811766551183,0.3937591298866773,-3.3302170139201532],[-2.9442045336651135,-4.548470290978788,6.208665239142501,7.300991577926301]],"accuracy_validation":0.9777777777777777,"mse_training":0.05714285714285714,"accuracy_training":0.9714285714285714,"mse_validation":0.044444444444444446,"bias":-6.44278639080038E-16},{"epoch":87,"weights":[[2.245481832836273,4.366726704723589,-4.0526428304631334,-1.9195839988927192],[1.5115535011033197,2.0841799868956206,0.3995820515321377,-3.314566361954682],[-2.933043623339346,-4.522768795793765,6.18598235764067,7.276341535920652]],"accuracy_validation":0.9777777777777777,"mse_training":0.05714285714285714,"accuracy_training":0.9714285714285714,"mse_validation":0.044444444444444446,"bias":-6.33309019776859E-16},{"epoch":86,"weights":[[2.237846254561246,4.35256199426859,-4.035657117953685,-1.9105234639150264],[1.5080595198707878,2.0723808150060314,0.40539478791643835,-3.298822470601971],[-2.921914063831787,-4.496804913449176,6.163183908746921,7.251537109590247]],"accuracy_validation":0.9777777777777777,"mse_training":0.05714285714285714,"accuracy_training":0.9714285714285714,"mse_validation":0.044444444444444446,"bias":-6.192743918038972E-16},{"epoch":85,"weights":[[2.230159238643145,4.338300636838336,-4.018543038872344,-1.9014005979478226],[1.50464767729282,2.0604129185724696,0.41119755487785686,-3.2829833458394218],[-2.9108152053357155,-4.470575659585362,6.140267062704166,7.2265751188604925]],"accuracy_validation":0.9777777777777777,"mse_training":0.05714285714285714,"accuracy_training":0.9714285714285714,"mse_validation":0.044444444444444446,"bias":-5.903906699232823E-16},{"epoch":84,"weights":[[2.222419734088899,4.3239409180095345,-4.001297875998254,-1.8922141670173673],[1.5013182275518986,2.0482750779072836,0.4169905743817216,-3.267046858131572],[-2.899746251040549,-4.444078100091378,6.117228880326208,7.201452200222187]],"accuracy_validation":0.9777777777777777,"mse_training":0.05714285714285714,"accuracy_training":0.9714285714285714,"mse_validation":0.044444444444444446,"bias":-6.449828918531179E-16},{"epoch":83,"weights":[[2.214626651565496,4.3094810569846045,-3.9839188029479744,-1.882962886366758],[1.4980713004269721,2.0359661983174098,0.4227740743069919,-3.251010730458268],[-2.88870624139222,-4.417309359476573,6.094066307350661,7.176164791898273]],"accuracy_validation":0.9777777777777777,"mse_training":0.05714285714285714,"accuracy_training":0.9714285714285714,"mse_validation":0.044444444444444446,"bias":-6.370483363474752E-16},{"epoch":82,"weights":[[2.206778861050082,4.294919202315034,-3.966402877976458,-1.873645417428576],[1.4949068866027926,2.0234853230804477,0.4285482881907984,-3.234872525429821],[-2.877694037052627,-4.390266629570043,6.070776168495338,7.150709117931638]],"accuracy_validation":0.9777777777777777,"mse_training":0.05714285714285714,"accuracy_training":0.9714285714285714,"mse_validation":0.044444444444444446,"bias":-6.300016807616265E-16},{"epoch":81,"weights":[[2.1988751893054745,4.280253427331195,-3.9487470374218785,-1.8642603646237015],[1.4918248217842316,2.0108316470018734,0.4343134549257578,-3.2186296314532337],[-2.8667083004894627,-4.36294717850763,6.047355161205798,7.125081171150169]],"accuracy_validation":0.9777777777777777,"mse_training":0.05714285714285714,"accuracy_training":0.9714285714285714,"mse_validation":0.044444444444444446,"bias":-6.174880821436106E-16},{"epoch":80,"weights":[[2.190914417169281,4.265481725259367,-3.9309480887752852,-1.8548062719778857],[1.488824769560649,1.9980045305203753,0.4400698184051384,-3.202279247918648],[-2.855747476129687,-4.335348359954301,6.02379984907982,7.099276694969766]],"accuracy_validation":0.9777777777777777,"mse_training":0.05714285714285714,"accuracy_training":0.9714285714285714,"mse_validation":0.044444444444444446,"bias":-6.441324428119593E-16},{"epoch":79,"weights":[[2.182895276644029,4.250602004004995,-3.9130027033546213,-1.8452816195471056],[1.4859062029696153,1.9850035143159985,0.44581762711160844,-3.1858183693818667],[-2.844809769013402,-4.307467622495548,6.000106654952687,7.073291164002203]],"accuracy_validation":0.9777777777777777,"mse_training":0.05714285714285714,"accuracy_training":0.9714285714285714,"mse_validation":0.044444444444444446,"bias":-6.539566331487148E-16},{"epoch":78,"weights":[[2.17481644777507,4.235612080578962,-3.8949074085608077,-1.8356848196419975],[1.4830683847151733,1.971828334361345,0.45155713364620526,-3.1692437687277906],[-2.833893121890005,-4.279302519114859,5.976271853624271,7.047119763443017]],"accuracy_validation":0.9777777777777777,"mse_training":0.05714285714285714,"accuracy_training":0.9714285714285714,"mse_validation":0.044444444444444446,"bias":-6.868532548076071E-16},{"epoch":77,"weights":[[2.1666765553021783,4.220509675141255,-3.8766585796914783,-1.8260142128408237],[1.4803103460039522,1.9584789373387896,0.45728859419551343,-3.1525519793111374],[-2.8229951907058886,-4.250850716654594,5.952291564205637,7.020757367225185]],"accuracy_validation":0.9777777777777777,"mse_training":0.05714285714285714,"accuracy_training":0.9714285714285714,"mse_validation":0.044444444444444446,"bias":-6.689317637492349E-16},{"epoch":76,"weights":[[2.158474165069917,4.205292404633442,-3.8582524312855235,-1.8162680637794175],[1.4776308639732434,1.9449554963262166,0.4630122679367815,-3.135739276085379],[-2.8121133184429197,-4.22211000513421,5.928161742058415,6.994198514938023]],"accuracy_validation":0.9777777777777777,"mse_training":0.05714285714285714,"accuracy_training":0.9714285714285714,"mse_validation":0.044444444444444446,"bias":-6.903721524557497E-16},{"epoch":75,"weights":[[2.150207780181081,4.189957775968065,-3.839685007968548,-1.8064445567053218],[1.4750284376993263,1.931258426629494,0.4687284163830249,-3.118801655749162],[-2.8012445072801664,-4.19307830677211,5.903878170295193,6.96743738752771]],"accuracy_validation":0.9777777777777777,"mse_training":0.05714285714285714,"accuracy_training":0.9714285714285714,"mse_validation":0.044444444444444446,"bias":-6.450010083649383E-16},{"epoch":74,"weights":[[2.1418758368764848,4.174503178739061,-3.820952174765909,-1.796541790781898],[1.4725012627922964,1.9173884016109597,0.4744373026728892,-3.1017348159618616],[-2.790385389068541,-4.163753684524568,5.8794364508026895,6.9404677818169835]],"accuracy_validation":0.9777777777777777,"mse_training":0.05714285714285714,"accuracy_training":0.9714285714285714,"mse_validation":0.044444444444444446,"bias":-6.903640927003927E-16},{"epoch":73,"weights":[[2.1334767001235706,4.1589258774129805,-3.802049606845804,-1.786557775126455],[1.4700472046065918,1.903346368328887,0.48013919081339457,-3.084534133707552],[-2.7795321941299225,-4.134134349916422,5.854831994742082,6.913283083907228]],"accuracy_validation":0.9777777777777777,"mse_training":0.05714285714285714,"accuracy_training":0.9714285714285714,"mse_validation":0.044444444444444446,"bias":-7.14602312515859E-16},{"epoch":72,"weights":[[2.1250086588953163,4.143223002955584,-3.7829727786500436,-1.7764904235644043],[1.4676637701249282,1.8891335627622265,0.48583434488753957,-3.0671946429196804],[-2.7686807184200064,-4.104218669892365,5.830060012472176,6.885876241557307]],"accuracy_validation":0.9777777777777777,"mse_training":0.05714285714285714,"accuracy_training":0.9714285714285714,"mse_validation":0.044444444444444446,"bias":-7.010701178487601E-16},{"epoch":71,"weights":[[2.116469921120104,4.127391543842685,-3.763716952364349,-1.7663375490790343],[1.4653480786085904,1.8747515243468207,0.4915230282430288,-3.0497110115184203],[-2.7578262891284573,-4.074005172364064,5.80511550283099,6.858239735670683]],"accuracy_validation":0.9777777777777777,"mse_training":0.05714285714285714,"accuracy_training":0.9714285714285714,"mse_validation":0.044444444444444446,"bias":-6.557447598132942E-16},{"epoch":70,"weights":[[2.107858608282367,4.111428336397716,-3.7442771656733242,-1.7560968579337053],[1.463096831150137,1.8602021094927212,0.49720550268304786,-3.032077518059242],[-2.7469637288322644,-4.0434925500649985,5.779993241699943,6.8303655510661745]],"accuracy_validation":0.9777777777777777,"mse_training":0.05714285714285714,"accuracy_training":0.9714285714285714,"mse_validation":0.044444444444444446,"bias":-6.445353705418746E-16},{"epoch":69,"weights":[[2.0991727496532833,4.095330054391427,-3.724648218737494,-1.745765943439956],[1.4609062793166399,1.845487503686082,0.5028820276848861,-3.0142880282456255],[-2.7360873183696834,-4.012679662252072,5.75468776976227,6.802245146758806]],"accuracy_validation":0.9777777777777777,"mse_training":0.05714285714285714,"accuracy_training":0.9714285714285714,"mse_validation":0.044444444444444446,"bias":-6.252887350679252E-16},{"epoch":68,"weights":[[2.0904102761303696,4.079093197831575,-3.704824660320757,-1.7353422793412712],[1.458772193133827,1.830610231702233,0.5085528596769542,-2.9963359716211544],[-2.725190758663959,-3.9815655337083746,5.729193379353461,6.773869426035645]],"accuracy_validation":0.9777777777777777,"mse_training":0.05714285714285714,"accuracy_training":0.9714285714285714,"mse_validation":0.044444444444444446,"bias":-5.630528787473884E-16},{"epoch":67,"weights":[[2.081569013664875,4.062714080862429,-3.684800772986429,-1.724823212777947],[1.4566898287349206,1.8155731653681562,0.5142182514091772,-2.9782143188265455],[-2.7142671317995575,-3.950149350405154,5.703504100286909,6.74522870667771]],"accuracy_validation":0.9777777777777777,"mse_training":0.05714285714285714,"accuracy_training":0.9714285714285714,"mse_validation":0.044444444444444446,"bias":-5.717316927742219E-16},{"epoch":66,"weights":[[2.0726466762563955,4.046188818685733,-3.664570557268587,-1.7142059567936876],[1.454653896083439,1.8003795282122046,0.5198784514553125,-2.9599155598848155],[-2.703308861739598,-3.9184304510725085,5.67761368452293,6.71631269175172]],"accuracy_validation":0.9777777777777777,"mse_training":0.05714285714285714,"accuracy_training":0.9714285714285714,"mse_validation":0.044444444444444446,"bias":-5.786175342359028E-16},{"epoch":65,"weights":[[2.063640858495469,4.0295133134067544,-3.6441277147127646,-1.70348758233921],[1.4526585272770438,1.7850328962264919,0.5255337038880763,-2.94143168406139],[-2.692307675172278,-3.886408313807814,5.65151558953434,6.687110441473813]],"accuracy_validation":0.9777777777777777,"mse_training":0.05714285714285714,"accuracy_training":0.9714285714285714,"mse_validation":0.044444444444444446,"bias":-5.927419295985707E-16},{"epoch":64,"weights":[[2.054549027636953,4.012683238701596,-3.6234656296664496,-1.692665009722497],[1.4506972460492702,1.769537193844049,0.5311842481684375,-2.9227541619330055],[-2.68125456308599,-3.8540825367202176,5.6252029602076625,6.657610346728718]],"accuracy_validation":0.9777777777777777,"mse_training":0.05714285714285714,"accuracy_training":0.9714285714285714,"mse_validation":0.044444444444444446,"bias":-5.981089215208119E-16},{"epoch":63,"weights":[[2.045368515190347,3.995694023195849,-3.602577349685751,-1.6817349994493467],[1.4487629392062533,1.7538966841009358,0.5368303192885909,-2.903873930385626],[-2.6701397437963696,-3.8214528114713593,5.598668609106806,6.627800104908187]],"accuracy_validation":0.9777777777777777,"mse_training":0.05714285714285714,"accuracy_training":0.9714285714285714,"mse_validation":0.044444444444444446,"bias":-5.8363869367792E-16},{"epoch":62,"weights":[[2.0360965080177387,3.978540832440339,-3.5814555644106365,-1.6706941423920274],[1.4468478308632968,1.7381159518171905,0.5424721482033228,-2.884781381341753],[-2.6589526282808067,-3.7885188884321077,5.5719049949169595,6.597666698806998]],"accuracy_validation":0.9555555555555556,"mse_training":0.0761904761904762,"accuracy_training":0.9619047619047619,"mse_validation":0.08888888888888889,"bias":-6.000029376261742E-16},{"epoch":61,"weights":[[2.0267300389359812,3.9612185493686107,-3.5600925827482786,-1.659538849218487],[1.4449434604763565,1.7221998784965649,0.5481099625763083,-2.8654663550835067],[-2.64768178881211,-3.7552805320397553,5.544904198881613,6.567196379375216]],"accuracy_validation":0.9555555555555556,"mse_training":0.0761904761904762,"accuracy_training":0.9619047619047619,"mse_validation":0.08888888888888889,"bias":-6.015543594712741E-16},{"epoch":60,"weights":[[2.0172659768272063,3.943721753123292,-3.538480308193687,-1.648265339010227],[1.443040665788782,1.7061536075233579,0.5537439878558917,-2.8459181390797452],[-2.6363149320157606,-3.7217374648212296,5.51765789904744,6.5363746531631985]],"accuracy_validation":0.9555555555555556,"mse_training":0.0761904761904762,"accuracy_training":0.9619047619047619,"mse_validation":0.08888888888888889,"bias":-5.952738416521664E-16},{"epoch":59,"weights":[[2.0077010162705307,3.9260446961461386,-3.5166102121106695,-1.6368696269944392],[1.4411295719236088,1.6899824981392142,0.5593744486785365,-2.8261254732311154],[-2.6248388775939127,-3.6878892984599334,5.4901573421417735,6.505186275298776]],"accuracy_validation":0.9555555555555556,"mse_training":0.0761904761904762,"accuracy_training":0.9619047619047619,"mse_validation":0.08888888888888889,"bias":-5.751635059951936E-16},{"epoch":58,"weights":[[1.9980316667178226,3.908181279440094,-3.4944733047960295,-1.6253475113161941],[1.4391995879329424,1.6736920666318016,0.5650015705767316,-2.806076562402445],[-2.613239544050538,-3.6537354502464745,5.462393312928939,6.473615248791863]],"accuracy_validation":0.9555555555555556,"mse_training":0.09523809523809523,"accuracy_training":0.9523809523809523,"mse_validation":0.08888888888888889,"bias":-5.515938818338732E-16},{"epoch":57,"weights":[[1.988254241246981,3.8901250259317073,-3.4720601041580608,-1.613694558780243],[1.4372394121522842,1.6572879131842373,0.5706255819400884,-2.7857590970026873],[-2.6015019427990387,-3.619275043290521,5.434356100927614,6.441644830856156]],"accuracy_validation":0.9555555555555556,"mse_training":0.09523809523809523,"accuracy_training":0.9523809523809523,"mse_validation":0.08888888888888889,"bias":-5.352123676998029E-16},{"epoch":56,"weights":[[1.9783648449370337,3.8718690518891763,-3.4493606018582113,-1.6019060895002235],[1.435237047680908,1.6407756329468726,0.5762467161409627,-2.7651602821852603],[-2.5896101820177133,-3.5845067890106295,5.40603546442689,6.409257546758709]],"accuracy_validation":0.9555555555555556,"mse_training":0.09523809523809523,"accuracy_training":0.9523809523809523,"mse_validation":0.08888888888888889,"bias":-4.91219793112413E-16},{"epoch":55,"weights":[[1.9683593629194993,3.8534060363841625,-3.4263642267932033,-1.5899771604061932],[1.433179829200755,1.6241607101330835,0.5818652136837935,-2.7442668759655113],[-2.5775474815200266,-3.549428850691825,5.377420591819046,6.376435211444924]],"accuracy_validation":0.9555555555555556,"mse_training":0.09523809523809523,"accuracy_training":0.9523809523809523,"mse_validation":0.08888888888888889,"bias":-4.61513130643798E-16},{"epoch":54,"weights":[[1.958233448169652,3.834728188822705,-3.4030598058324975,-1.5779025475793185],[1.4310544621396437,1.6074483943409648,0.5874813241621465,-2.7230652361832615],[-2.5652961997090675,-3.5140386873382448,5.348500060379985,6.343158958835795]],"accuracy_validation":0.9555555555555556,"mse_training":0.09523809523809523,"accuracy_training":0.9523809523809523,"mse_validation":0.08888888888888889,"bias":-3.918987043146058E-16},{"epoch":53,"weights":[[1.9479825091090788,3.8158272146089693,-3.379435521768937,-1.565676727403669],[1.42884707486868,1.590643558893321,0.5930953076963972,-2.7015413757821314],[-2.552837873377528,-3.478332877676866,5.319261792782172,6.309409278259012]],"accuracy_validation":0.9555555555555556,"mse_training":0.09523809523809523,"accuracy_training":0.9523809523809523,"mse_validation":0.08888888888888889,"bias":-4.554751884451594E-16},{"epoch":52,"weights":[[1.937601697097745,3.796694279040091,-3.3554788684807506,-1.553293856546714],[1.426543284197379,1.573750541790907,0.5987074353615716,-2.679681025350889],[-2.5401532706948937,-3.442306925005571,5.289693011828814,6.275166056970814]],"accuracy_validation":0.9333333333333333,"mse_training":0.11428571428571428,"accuracy_training":0.9428571428571428,"mse_validation":0.13333333333333333,"bias":-4.634755691346289E-16},{"epoch":51,"weights":[[1.92708589390049,3.7773199695546116,-3.331176603328491,-1.5407477507971337],[1.424128273904244,1.5567729708949285,0.6043179878794988,-2.657469701305409],[-2.5272224572045032,-3.405955044624115,5.259780194158631,6.240408627175757]],"accuracy_validation":0.9333333333333333,"mse_training":0.11428571428571428,"accuracy_training":0.9428571428571428,"mse_validation":0.13333333333333333,"bias":-4.436245234280166E-16},{"epoch":50,"weights":[[1.9164296992209675,3.7576942564628144,-3.306514696803949,-1.5280318627942606],[1.421586885441845,1.5397135761773184,0.6099272515238469,-2.634892777524144],[-2.514024874062582,-3.369269936814709,5.229509023989739,6.2051158153916175]],"accuracy_validation":0.9333333333333333,"mse_training":0.11428571428571428,"accuracy_training":0.9428571428571428,"mse_validation":0.13333333333333333,"bias":-4.186391676819251E-16},{"epoch":49,"weights":[[1.9056274184065567,3.7378064522647754,-3.2814782793899586,-1.515139258669202],[1.4189037193242584,1.5225739932542528,0.6155355097591029,-2.61193555772959],[-2.500539427130582,-3.332242549693605,5.198864348340491,6.169265991472]],"accuracy_validation":0.9333333333333333,"mse_training":0.11428571428571428,"accuracy_training":0.9428571428571428,"mse_validation":0.13333333333333333,"bias":-4.112351142876039E-16},{"epoch":48,"weights":[[1.8946730504399458,3.7176451696010435,-3.2560515854593293,-1.502062593574304],[1.4160632450911697,1.5053545638682009,0.6211430286081026,-2.588583345470295],[-2.486744584930883,-3.294861837643823,5.167830135560859,6.132837114117803]],"accuracy_validation":0.9333333333333333,"mse_training":0.11428571428571428,"accuracy_training":0.9428571428571428,"mse_validation":0.13333333333333333,"bias":-4.076346351602102E-16},{"epoch":47,"weights":[[1.883560276342721,3.697198277770658,-3.230217893821606,-1.4887940859967217],[1.4130499171988067,1.4880541403921401,0.626750033142984,-2.564821508215058],[-2.4726184829412934,-3.2571145223373774,5.136389439388252,6.095806769284988]],"accuracy_validation":0.9333333333333333,"mse_training":0.11428571428571428,"accuracy_training":0.9428571428571428,"mse_validation":0.13333333333333333,"bias":-4.2951030569973446E-16},{"epoch":46,"weights":[[1.8722824481130096,3.676452857581465,-3.2039594642087965,-1.4753254906277995],[1.4098482937546473,1.4706699026564947,0.6323566718750587,-2.540635531794194],[-2.4581390312674243,-3.2189848644125396,5.104524371043365,6.058152197495201]],"accuracy_validation":0.9333333333333333,"mse_training":0.11428571428571428,"accuracy_training":0.9428571428571428,"mse_validation":0.13333333333333333,"bias":-4.151103610892452E-16},{"epoch":45,"weights":[[1.8608325782857371,3.6553951540597343,-3.177257468579956,-1.4616480693915355],[1.4064431547116785,1.453197196294841,0.637962965262315,-2.5160110611285065],[-2.443284022397183,-3.180454454529158,5.072216082027268,6.0198503055932475]],"accuracy_validation":0.9333333333333333,"mse_training":0.11428571428571428,"accuracy_training":0.9428571428571428,"mse_validation":0.13333333333333333,"bias":-4.144361814997325E-16},{"epoch":44,"weights":[[1.8492033301154136,3.6340105262331637,-3.150091915637879,-1.447752560027004],[1.4028196159615882,1.435629402227132,0.643568734162004,-2.490933922735461],[-2.428031235476772,-3.141502032634877,5.039444760185504,5.980877657835668]],"accuracy_validation":0.9333333333333333,"mse_training":0.11428571428571428,"accuracy_training":0.9428571428571428,"mse_validation":0.13333333333333333,"bias":-4.113858899381692E-16},{"epoch":43,"weights":[[1.8373870082080335,3.612283392810178,-3.1224415664213185,-1.4336291413813647],[1.3989632356808852,1.417957846737298,0.6491735039393741,-2.46539012371497],[-2.41235853328869,-3.102103343722059,5.0061896411915745,5.94121044016954]],"accuracy_validation":0.9333333333333333,"mse_training":0.11428571428571428,"accuracy_training":0.9428571428571428,"mse_validation":0.13333333333333333,"bias":-4.13207046376461E-16},{"epoch":42,"weights":[[1.8253755491404347,3.5901971721095354,-3.0942838383047038,-1.4192673943163039],[1.3948601092397237,1.400171760788767,0.6547763801985726,-2.439365820615723],[-2.39624394777993,-3.062231037072884,4.97242903681576,5.9008243900052335]],"accuracy_validation":0.9333333333333333,"mse_training":0.11428571428571428,"accuracy_training":0.9428571428571428,"mse_validation":0.13333333333333333,"bias":-3.9289153583734684E-16},{"epoch":41,"weights":[[1.8131605111781322,3.5677342140519595,-3.065594694246911,-1.4046562568778165],[1.3904969489353654,1.3822582957436262,0.6603758927937682,-2.412847249646729],[-2.3796657495132716,-3.02185461397017,4.938140380162772,5.85969468159775]],"accuracy_validation":0.9333333333333333,"mse_training":0.11428571428571428,"accuracy_training":0.9428571428571428,"mse_validation":0.13333333333333333,"bias":-3.3982188654630456E-16},{"epoch":40,"weights":[[1.8007330616239847,3.5448757214173687,-3.036348513716866,-1.3897839721419147],[1.3858611447452431,1.3642026005503225,0.6659698059330414,-2.385820607133219],[-2.3626024957690026,-2.980940426142276,4.903300286493453,5.817795754348343]],"accuracy_validation":0.9333333333333333,"mse_training":0.11428571428571428,"accuracy_training":0.9428571428571428,"mse_validation":0.13333333333333333,"bias":-3.1674639989461684E-16},{"epoch":39,"weights":[[1.788083959604256,3.521601656904388,-3.0065179414062038,-1.3746380269377372],[1.3809408022438194,1.3459879628349083,0.6715548937912519,-2.358271866111535],[-2.3450330512478503,-2.9394517239138813,4.8678846263245745,5.775101068122479]],"accuracy_validation":0.9333333333333333,"mse_training":0.11428571428571428,"accuracy_training":0.9428571428571428,"mse_validation":0.13333333333333333,"bias":-2.9749088172126947E-16},{"epoch":38,"weights":[[1.7752035312472818,3.49789063180632,-2.976073709614492,-1.3592050794675878],[1.3757247538869384,1.3275960133204232,0.6771266830640184,-2.3301865119184453],[-2.3269365745339963,-2.897348749301328,4.8318686052600945,5.731582766459241]],"accuracy_validation":0.9333333333333333,"mse_training":0.11428571428571428,"accuracy_training":0.9428571428571428,"mse_validation":0.13333333333333333,"bias":-3.062694703146832E-16},{"epoch":37,"weights":[[1.7620816332686615,3.473719771330943,-2.944984430030744,-1.3434708736843852],[1.3702025401799596,1.3090069898234595,0.682679166285758,-2.301549177153755],[-2.308292462848396,-2.8545888653289855,4.79522684245461,5.687211225911346]],"accuracy_validation":0.9333333333333333,"mse_training":0.11428571428571428,"accuracy_training":0.9428571428571428,"mse_validation":0.13333333333333333,"bias":-2.8567442689983527E-16},{"epoch":36,"weights":[[1.7487075999874817,3.449064550712869,-2.9132163504781774,-1.327420138133942],[1.3643643579738196,1.2902000540399503,0.6882044924875786,-2.2723431551835427],[-2.2890802473610727,-2.8111267089274015,4.757933436700218,5.641954468390696]],"accuracy_validation":0.9333333333333333,"mse_training":0.11428571428571428,"accuracy_training":0.9428571428571428,"mse_validation":0.13333333333333333,"bias":-2.800430179903552E-16},{"epoch":35,"weights":[[1.7350701677951221,3.4238985952410963,-2.880733071955015,-1.3110364667951362],[1.358200974415583,1.2711536518458448,0.6936926449184407,-2.2425497720579317],[-2.269279431610477,-2.766914351261519,4.719962005746194,5.59577741392628]],"accuracy_validation":0.9333333333333333,"mse_training":0.11428571428571428,"accuracy_training":0.9428571428571428,"mse_validation":0.13333333333333333,"bias":-3.238919454270963E-16},{"epoch":34,"weights":[[1.7211573700911675,3.3981934360585444,-2.847495220895513,-1.294302179220108],[1.351703606989428,1.2518459064206862,0.6991311191911433,-2.2121475997351006],[-2.2488692664803693,-2.7219014466538067,4.681285680413992,5.5486409540284205]],"accuracy_validation":0.9333333333333333,"mse_training":0.11428571428571428,"accuracy_training":0.9428571428571428,"mse_validation":0.13333333333333333,"bias":-3.079394690327857E-16},{"epoch":33,"weights":[[1.7069563946492359,3.3719182119490663,-2.813460070901541,-1.2771981569525104],[1.344863772587753,1.2322550337316516,0.704504619525429,-2.1811114987426756],[-2.227828456636765,-2.676035349855293,4.6418770300857375,5.500500830768397]],"accuracy_validation":0.9333333333333333,"mse_training":0.11428571428571428,"accuracy_training":0.9428571428571428,"mse_validation":0.13333333333333333,"bias":-2.8248265495507996E-16},{"epoch":32,"weights":[[1.6924533941595223,3.3450393051259972,-2.778581107210908,-1.259703652760499],[1.3376731114772884,1.212359772327251,0.7097947960577591,-2.1494114851175268],[-2.206134795036588,-2.6292611816278244,4.601707889862774,5.451306312951234]],"accuracy_validation":0.9333333333333333,"mse_training":0.11428571428571428,"accuracy_training":0.9428571428571428,"mse_validation":0.13333333333333333,"bias":-2.539577646390749E-16},{"epoch":31,"weights":[[1.6776332390845345,3.3175198960438785,-2.742807525935189,-1.2417960686748608],[1.3301231950070558,1.1921398243169428,0.7149800530033882,-2.117011423179383],[-2.1837647234913637,-2.5815218245353946,4.56074905164143,5.400998666927455]],"accuracy_validation":0.9333333333333333,"mse_training":0.11428571428571428,"accuracy_training":0.9428571428571428,"mse_validation":0.13333333333333333,"bias":-2.2278473449286073E-16},{"epoch":30,"weights":[[1.6624791995961778,3.2893194182063636,-2.706083658875384,-1.2234506982582662],[1.3222053282823603,1.1715763117891045,0.7200354666713736,-2.0838675503714357],[-2.160692817278311,-2.532757834170043,4.518969770913641,5.349509423702912]],"accuracy_validation":0.9333333333333333,"mse_training":0.11428571428571428,"accuracy_training":0.9428571428571428,"mse_validation":0.13333333333333333,"bias":-2.6173105202173786E-16},{"epoch":29,"weights":[[1.6469725397381878,3.2603928885775697,-2.668348314083087,-1.204640428165699],[1.3139103596410708,1.1506522620474378,0.7249328653301669,-2.049926840814388],[-2.1368911887790327,-2.4829072547995836,4.476337027462553,5.296758444053296]],"accuracy_validation":0.9333333333333333,"mse_training":0.11428571428571428,"accuracy_training":0.9428571428571428,"mse_validation":0.13333333333333333,"bias":-2.457551484024668E-16},{"epoch":28,"weights":[[1.6310920014934347,3.230690082351891,-2.6295340233173836,-1.1853353943106428],[1.3052285056044326,1.129353144299489,0.729641141717239,-2.015125208609618],[-2.1123287964976414,-2.4319053308259537,4.432814460309774,5.242651777993467]],"accuracy_validation":0.9333333333333333,"mse_training":0.11428571428571428,"accuracy_training":0.9428571428571428,"mse_validation":0.13333333333333333,"bias":-2.0397831630076428E-16},{"epoch":27,"weights":[[1.6148131486142014,3.2001545126174036,-2.589566191809471,-1.1655025895463391],[1.2961491896424717,1.1076674867820042,0.7341268962586297,-1.979385539930665],[-2.086970627656446,-2.3796841035739806,4.388360874260472,5.187079304550212]],"accuracy_validation":0.9333333333333333,"mse_training":0.11428571428571428,"accuracy_training":0.9428571428571428,"mse_validation":0.13333333333333333,"bias":-1.0911226186180735E-16},{"epoch":26,"weights":[[1.5981075298378244,3.168722166709337,-2.5483621556144476,-1.1451054238036518],[1.2866608701322495,1.0855876014204926,0.7383555478945627,-1.9426155268351457],[-2.0607766893698463,-2.326171872304403,4.342928186429516,5.129912125712006]],"accuracy_validation":0.9333333333333333,"mse_training":0.11428571428571428,"accuracy_training":0.9428571428571428,"mse_validation":0.13333333333333333,"bias":-1.5042670252355673E-16},{"epoch":25,"weights":[[1.5809416098495022,3.1363199443712686,-2.5058301698690553,-1.124103245504935],[1.2767507892134615,1.0631104235532716,0.7422931021575634,-1.9047052620631417],[-2.0337006884627344,-2.271292472099114,4.296458646421129,5.0709996826412835]],"accuracy_validation":0.9333333333333333,"mse_training":0.11428571428571428,"accuracy_training":0.9428571428571428,"mse_validation":0.13333333333333333,"bias":-1.5545905061560335E-16},{"epoch":24,"weights":[[1.5632754092954788,3.102863744703624,-2.4618683782204824,-1.102450845861729],[1.2664044998221675,1.040238420059841,0.7459088305686161,-1.8655245558687323],[-2.005688198517416,-2.2149642689380356,4.248881126361509,5.0101665768036625]],"accuracy_validation":0.9333333333333333,"mse_training":0.11428571428571428,"accuracy_training":0.9428571428571428,"mse_validation":0.13333333333333333,"bias":-1.325932623510643E-16},{"epoch":23,"weights":[[1.5450608065879845,3.068256173887266,-2.4163638417788293,-1.0800979836296174],[1.2556049160466045,1.0169804006117886,0.7491791725604849,-1.8249199753798875],[-1.9766740120343593,-2.157098678673628,4.200106247927987,4.947209134082702]],"accuracy_validation":0.9333333333333333,"mse_training":0.11428571428571428,"accuracy_training":0.9428571428571428,"mse_validation":0.13333333333333333,"bias":-1.5895529706626372E-16},{"epoch":22,"weights":[[1.5262395163201428,3.032383922577216,-2.3691917021299798,-1.0569889756720214],[1.2443304951103238,0.9933518368311375,0.7520931529553841,-1.7827117187179902],[-1.946578300830236,-2.0975978635829247,4.150020127884238,4.881891869463208]],"accuracy_validation":0.9555555555555556,"mse_training":0.11428571428571428,"accuracy_training":0.9428571428571428,"mse_validation":0.08888888888888889,"bias":-2.195370420046906E-16},{"epoch":21,"weights":[[1.5067409257627182,2.9951150335266967,-2.3202144291651017,-1.0330623633512743],[1.2325520732300492,0.9693739039471748,0.7546593287556579,-1.738690670958577],[-1.9153012883925364,-2.036351041648439,4.098476679119083,4.813944209383045]],"accuracy_validation":0.9555555555555556,"mse_training":0.11428571428571428,"accuracy_training":0.9428571428571428,"mse_validation":0.08888888888888889,"bias":-2.7304404325526436E-16},{"epoch":20,"weights":[[1.4864802715288052,2.956296562979735,-2.2692807075713755,-1.008250515264353],[1.2202280579203755,0.9450699535242074,0.7569133545861781,-1.6926164210523469],[-1.8827166188489495,-1.9732286206785115,4.045288931694835,4.7430581113898995]],"accuracy_validation":0.9555555555555556,"mse_training":0.09523809523809523,"accuracy_training":0.9523809523809523,"mse_validation":0.08888888888888889,"bias":-2.2128711204062176E-16},{"epoch":19,"weights":[[1.4653578633496287,2.9157533641567275,-2.216222792833569,-0.9824787008625864],[1.2072985302450474,0.9204579395025947,0.7589232370699346,-1.6442177510549165],[-1.848664682994444,-1.9080734078338928,3.9902211344732703,4.668887626990702]],"accuracy_validation":0.9777777777777777,"mse_training":0.0761904761904762,"accuracy_training":0.9619047619047619,"mse_validation":0.044444444444444446,"bias":-1.906591663406049E-16},{"epoch":18,"weights":[[1.4432593832042941,2.8732882665060195,-2.160850755374203,-0.9556628356045818],[1.193680583777999,0.8955387276879315,0.760786677699609,-1.5931981589620867],[-1.8129482563820614,-1.8406890983685238,3.9329856563842296,4.591052169639864]],"accuracy_validation":0.9777777777777777,"mse_training":0.0761904761904762,"accuracy_training":0.9619047619047619,"mse_validation":0.044444444444444446,"bias":-2.307440684787382E-16},{"epoch":17,"weights":[[1.4200548276433085,2.828682062071736,-2.102943618311615,-0.9277054224588722],[1.1792685329925707,0.8702847324693093,0.7626147692884147,-1.5392495111395916],[-1.7753316500356473,-1.770828898715618,3.873250427732837,4.5091461086716595]],"accuracy_validation":0.9777777777777777,"mse_training":0.0761904761904762,"accuracy_training":0.9619047619047619,"mse_validation":0.044444444444444446,"bias":-2.8467381813779784E-16},{"epoch":16,"weights":[[1.3955919506640484,2.7816897482784917,-2.042240860004199,-0.898490577672178],[1.1639389375749485,0.8446387671492074,0.7645035298750057,-1.482073553667802],[-1.7355391776387654,-1.6981906196022702,3.8106589088388265,4.422755306413175]],"accuracy_validation":0.9555555555555556,"mse_training":0.0761904761904762,"accuracy_training":0.9619047619047619,"mse_validation":0.08888888888888889,"bias":-2.518222072034334E-16},{"epoch":15,"weights":[[1.3696853980112416,2.7320311808782187,-1.9784365451115482,-0.8678794531759655],[1.1475505319859618,0.8185309054436593,0.7665065062106552,-1.4213996852967536],[-1.6932442193969703,-1.6224241904964491,3.744851617610526,4.331470313545917]],"accuracy_validation":0.9555555555555556,"mse_training":0.0761904761904762,"accuracy_training":0.9619047619047619,"mse_validation":0.08888888888888889,"bias":-2.41396081488168E-16},{"epoch":14,"weights":[[1.3421109085363467,2.67937817799666,-1.9111687075220292,-0.8357044722361855],[1.1299281913254262,0.7919089619235362,0.7686236046334408,-1.356976055455901],[-1.64804738926154,-1.5431492440947663,3.6754666815982207,4.234871702765285]],"accuracy_validation":0.9555555555555556,"mse_training":0.05714285714285714,"accuracy_training":0.9714285714285714,"mse_validation":0.08888888888888889,"bias":-2.066968735210385E-16},{"epoch":13,"weights":[[1.3126093612235514,2.623338761476628,-1.8399919735714836,-0.8017581140916976],[1.1108364987719015,0.7647682731960894,0.7708066204911123,-1.2885221722669316],[-1.599454149395219,-1.4599691388472875,3.602106931790002,4.132471461431831]],"accuracy_validation":0.9555555555555556,"mse_training":0.05714285714285714,"accuracy_training":0.9714285714285714,"mse_validation":0.08888888888888889,"bias":-1.764012028175933E-16},{"epoch":12,"weights":[[1.2808943218957773,2.563434799578236,-1.7643297622549026,-0.765774205376752],[1.0899372196259418,0.7371617667732111,0.7729562879250971,-1.2156633194488662],[-1.5468398309214872,-1.3724586705260153,3.524295053039436,4.023628699898822]],"accuracy_validation":0.9555555555555556,"mse_training":0.05714285714285714,"accuracy_training":0.9714285714285714,"mse_validation":0.08888888888888889,"bias":-2.289963610538401E-16},{"epoch":11,"weights":[[1.2466584008959611,2.4990688008545043,-1.6834108858149563,-0.7274044706381914],[1.066645791864839,0.7091633869289844,0.7748571965940411,-1.1378771179220477],[-1.4893124821605666,-1.2800942919580558,3.441475267930544,3.9074727636334434]],"accuracy_validation":0.9555555555555556,"mse_training":0.05714285714285714,"accuracy_training":0.9714285714285714,"mse_validation":0.08888888888888889,"bias":-2.4195042075357904E-16},{"epoch":10,"weights":[[1.2095774620130848,2.429476776930284,-1.5962052336734915,-0.6861995093098631],[1.0397470535803168,0.6807742683540502,0.7760228114994829,-1.0544420467530193],[-1.4253328049931668,-1.1821131494589001,3.3531040008836372,3.782832731136086]],"accuracy_validation":0.9555555555555556,"mse_training":0.05714285714285714,"accuracy_training":0.9714285714285714,"mse_validation":0.08888888888888889,"bias":-1.923023704261339E-16},{"epoch":9,"weights":[[1.169302605192815,2.35367418830813,-1.5013960711158196,-0.6416142532697935],[1.0067027994713518,0.6518437567480115,0.7755282132911703,-0.964326986743357],[-1.3520136940639313,-1.0773800492307064,3.258789436534279,3.648132415086355]],"accuracy_validation":0.9555555555555556,"mse_training":0.0761904761904762,"accuracy_training":0.9619047619047619,"mse_validation":0.08888888888888889,"bias":-1.9313822890260533E-16},{"epoch":8,"weights":[[1.1255233265599662,2.2705183302273735,-1.3974057457612032,-0.5930646843615632],[0.9622593376391584,0.6220538463387194,0.7716150137662002,-0.866054840460162],[-1.2637909535988885,-0.9644342807406578,3.158712310704634,3.5013106998949284]],"accuracy_validation":0.9777777777777777,"mse_training":0.09523809523809523,"accuracy_training":0.9523809523809523,"mse_validation":0.044444444444444446,"bias":-1.8250794818852764E-16},{"epoch":7,"weights":[[1.0786373720339948,2.179287612923411,-1.2821150780927848,-0.539951137337037],[0.8954267123444285,0.5905806136426498,0.7601679652899489,-0.7576198721131329],[-1.1500723737781875,-0.8417303307406254,3.054868691512467,3.3397621845233743]],"accuracy_validation":0.9555555555555556,"mse_training":0.1523809523809524,"accuracy_training":0.9238095238095239,"mse_validation":0.08888888888888889,"bias":-2.1343892314439377E-16},{"epoch":6,"weights":[[1.0311849787602931,2.0798419873586247,-1.1517506804206448,-0.4811786573204786],[0.8075408862462587,0.5596365749933662,0.7486523831999328,-0.6330217518947381],[-1.014734154406316,-0.7113406665265545,2.936019875930344,3.1563915842884227]],"accuracy_validation":0.8666666666666667,"mse_training":0.3238095238095238,"accuracy_training":0.8380952380952381,"mse_validation":0.26666666666666666,"bias":-1.851679518858803E-16},{"epoch":5,"weights":[[0.9849305528531289,1.9728386757402598,-1.0062965285202532,-0.4170154009242019],[0.7123539771273855,0.52449243484627,0.7536645096233167,-0.490119610336213],[-0.8732928193802781,-0.5691932147610927,2.7855535976065715,2.9493261863336238]],"accuracy_validation":0.7555555555555555,"mse_training":0.49523809523809526,"accuracy_training":0.7523809523809524,"mse_validation":0.4888888888888889,"bias":-1.2178116540428502E-16},{"epoch":4,"weights":[[0.9324147031611941,1.853954125328095,-0.8506781974162173,-0.34867871250818777],[0.5958346398777594,0.47484808665193945,0.7519267410319332,-0.33976826655885484],[-0.7042576324387171,-0.4006643161545975,2.631673035093919,2.7306381541402507]],"accuracy_validation":0.6222222222222222,"mse_training":0.6095238095238096,"accuracy_training":0.6952380952380952,"mse_validation":0.7555555555555555,"bias":-1.6228163417217664E-16},{"epoch":3,"weights":[[0.8750970165847142,1.7222357372370216,-0.6842810309933581,-0.27604688773916136],[0.4710873244798238,0.4341114982729659,0.7620037580912764,-0.1652582993360345],[-0.5221926304643008,-0.22820933968455093,2.455198851611718,2.4834963621484034]],"accuracy_validation":0.6222222222222222,"mse_training":0.6285714285714286,"accuracy_training":0.6857142857142857,"mse_validation":0.7555555555555555,"bias":-6.285551980701574E-17},{"epoch":2,"weights":[[0.8132649493283558,1.5758738142878572,-0.5033311660447343,-0.19763673207665128],[0.3496379748727632,0.4181017302972204,0.7973393191201033,0.04213073378474522],[-0.3389112136008816,-0.0658376487596409,2.2389134256342667,2.1976971733651136]],"accuracy_validation":0.6222222222222222,"mse_training":0.6285714285714286,"accuracy_training":0.6857142857142857,"mse_validation":0.7555555555555555,"bias":-4.9652393741689335E-17},{"epoch":1,"weights":[[0.7457441903755065,1.413117865158605,-0.3042051488381345,-0.11150617174120579],[0.21728197617659245,0.42090334100485793,0.8476937942946394,0.27726026690983885],[-0.1390344559518611,0.09411668966197322,1.9894329332531298,1.876437079904573]],"accuracy_validation":0.6222222222222222,"mse_training":0.6285714285714286,"accuracy_training":0.6857142857142857,"mse_validation":0.7555555555555555,"bias":-5.604783130663817E-17},{"epoch":0,"weights":[[0.6626409712195586,1.2108412827322155,-0.05762019006784358,-0.004143969753803334],[0.0647904906968157,0.441032257892383,0.8890914235869118,0.5271202985341414],[0.0965602486838632,0.2762643552008377,1.7014503451905667,1.519214846292867]],"accuracy_validation":0.6222222222222222,"mse_training":0.6285714285714286,"accuracy_training":0.6857142857142857,"mse_validation":0.7555555555555555,"bias":-3.2005648131772096E-17}]