[{"epoch":99,"weights":[[2.4251844099859574,4.817350980055068,-4.840006129318442,-1.8407020931773426],[2.033379990949829,1.5074802818673925,0.021799624555124117,-4.12260339506802],[-2.8510447139492183,-4.391043800807079,6.468219019266079,7.413742890080521]],"accuracy_validation":0.9333333333333333,"mse_training":0.11428571428571428,"accuracy_training":0.9428571428571428,"mse_validation":0.13333333333333333,"bias":-3.0146744807258716E-16},{"epoch":98,"weights":[[2.4199993428153,4.806401477480037,-4.8263988954451875,-1.8332828757239894],[2.0342046497780597,1.4982424589535532,0.017560662330824935,-4.099802829851715],[-2.846684305606791,-4.370856475318212,6.45885074761712,7.3835231074108645]],"accuracy_validation":0.9333333333333333,"mse_training":0.11428571428571428,"accuracy_training":0.9428571428571428,"mse_validation":0.13333333333333333,"bias":-3.266873987939042E-16},{"epoch":97,"weights":[[2.4147794893431063,4.795367899747369,-4.8126733648975515,-1.8258042517000452],[2.035156731374063,1.4888049588722958,0.013223376181301073,-4.076918641304812],[-2.8424165337305984,-4.350385397504289,6.449462503219002,7.353160294840017]],"accuracy_validation":0.9333333333333333,"mse_training":0.11428571428571428,"accuracy_training":0.9428571428571428,"mse_validation":0.13333333333333333,"bias":-3.4374933362620133E-16},{"epoch":96,"weights":[[2.4095240514617795,4.784248118632319,-4.7988264784241235,-1.8182647295931453],[2.0362385843107553,1.4791637672064049,0.008786975610913099,-4.0539528490505266],[-2.8382429487859615,-4.329624424723348,6.440052017315961,7.322654980478827]],"accuracy_validation":0.9333333333333333,"mse_training":0.11428571428571428,"accuracy_training":0.9428571428571428,"mse_validation":0.13333333333333333,"bias":-3.4816279098906657E-16},{"epoch":95,"weights":[[2.4042321746776247,4.773039903867711,-4.784855058154837,-1.8106627605142274],[2.037452488979584,1.4693147208460382,0.004250864472204276,-4.030907599347081],[-2.834164976670638,-4.3085671635983696,6.4306167081853856,7.292007761696463]],"accuracy_validation":0.9333333333333333,"mse_training":0.11428571428571428,"accuracy_training":0.9428571428571428,"mse_validation":0.13333333333333333,"bias":-3.6662544099055557E-16},{"epoch":94,"weights":[[2.398902944668122,4.761740919027821,-4.7707558049449545,-1.802996736796626],[2.038800646786039,1.4592535021575799,-3.853382377388526E-4,-4.007785171428303],[-2.830183904467591,-4.287206960070023,6.421153657685448,7.261219310060081]],"accuracy_validation":0.9333333333333333,"mse_training":0.11428571428571428,"accuracy_training":0.9428571428571428,"mse_validation":0.13333333333333333,"bias":-3.8852115733319535E-16},{"epoch":93,"weights":[[2.3935353836971838,4.750348717323963,-4.75652529583323,-1.7952649906210387],[2.040285168441423,1.448975633540343,-0.005121776490670198,-3.984587983791338],[-2.826300865152038,-4.265536889748929,6.411659586826651,7.230290376247526]],"accuracy_validation":0.9333333333333333,"mse_training":0.11428571428571428,"accuracy_training":0.9428571428571428,"mse_validation":0.13333333333333333,"bias":-4.506584604771043E-16},{"epoch":92,"weights":[[2.388128446886443,4.7388607373164175,-4.742159981634907,-1.7874657926716067],[2.0419080612980465,1.4384764724706574,-0.009958334267618496,-3.9613186003141156],[-2.8225168211979224,-4.243549748671698,6.402130830405277,7.199221794820873]],"accuracy_validation":0.9333333333333333,"mse_training":0.11428571428571428,"accuracy_training":0.9428571428571428,"mse_validation":0.13333333333333333,"bias":-5.086533716908406E-16},{"epoch":91,"weights":[[2.3826810183410267,4.727274298548422,-4.727656184692272,-1.7795973508287406],[2.0436712156758206,1.4277512071438097,-0.014894611560544207,-3.9379797360511186],[-2.8188325470302837,-4.22123804457686,6.3925633107555635,7.16801448871501]],"accuracy_validation":0.9333333333333333,"mse_training":0.13333333333333333,"accuracy_training":0.9333333333333333,"mse_validation":0.13333333333333333,"bias":-5.421799405846924E-16},{"epoch":90,"weights":[[2.377191907128654,4.71558659710919,-4.713010096807471,-1.7716578089046153],[2.0455763901299835,1.416794852836305,-0.019929899390182974,-3.9145742625147992],[-2.815248610272073,-4.198593988830123,6.382952510700402,7.136669473254566]],"accuracy_validation":0.9333333333333333,"mse_training":0.13333333333333333,"accuracy_training":0.9333333333333333,"mse_validation":0.13333333333333333,"bias":-5.607305236418588E-16},{"epoch":89,"weights":[[2.371659843111523,4.7037947011342,-4.698217777384537,-1.7636452454275102],[2.0476251956121088,1.405602249124196,-0.02506315392024078,-3.891105212200039],[-2.8117653517370673,-4.175609489143025,6.373293445807533,7.105187859462703]],"accuracy_validation":0.9333333333333333,"mse_training":0.13333333333333333,"accuracy_training":0.9333333333333333,"mse_validation":0.13333333333333333,"bias":-5.07896523630686E-16},{"epoch":88,"weights":[[2.366083472631032,4.691895546252566,-4.683275151809251,-1.7555576724812816],[2.0498190784803314,1.3941680581080176,-0.03029296977868894,-3.8675757820494914],[-2.8083828641247974,-4.152276143245217,6.363580636090695,7.073570856365925]],"accuracy_validation":0.9333333333333333,"mse_training":0.13333333333333333,"accuracy_training":0.9333333333333333,"mse_validation":0.13333333333333333,"bias":-4.808227694105429E-16},{"epoch":87,"weights":[[2.360461354046284,4.67988593099287,-4.6681780100971535,-1.7473930346061788],[2.0521593023194473,1.3824867638114589,-0.03561755273352787,-3.843989335487148],[-2.805100969379167,-4.128585233688962,6.3538080773334356,7.041819771928476]],"accuracy_validation":0.9333333333333333,"mse_training":0.13333333333333333,"accuracy_training":0.9333333333333333,"mse_validation":0.13333333333333333,"bias":-4.366914479657761E-16},{"epoch":86,"weights":[[2.3547919531286254,4.667762512160633,-4.6529220058410585,-1.7391492077669268],[2.0546469285378133,1.3705526729395479,-0.041034691914229496,-3.8203494025647875],[-2.801919194679875,-4.104527723984817,6.3439692122580436,7.0099360121668655]],"accuracy_validation":0.9333333333333333,"mse_training":0.13333333333333333,"accuracy_training":0.9333333333333333,"mse_validation":0.13333333333333333,"bias":-4.3289422026176564E-16},{"epoch":85,"weights":[[2.3490736383161455,4.655521800202849,-4.637502655489622,-1.730823998393264],[2.0572827957158872,1.3583599172032532,-0.046541731821950996,-3.7966596776705384],[-2.798836747045471,-4.080094256290736,6.334056901814327,6.9779210778989516]],"accuracy_validation":0.9333333333333333,"mse_training":0.13333333333333333,"accuracy_training":0.9333333333333333,"mse_validation":0.13333333333333333,"bias":-4.522742039499914E-16},{"epoch":84,"weights":[[2.343304675834724,4.643160154577186,-4.62191533798752,-1.7224151424970482],[2.060067497690976,1.3459024574410674,-0.05213554443273941,-3.772924014139483],[-2.7958524865391374,-4.0552751509028955,6.32406339692301,6.945776558471687]],"accuracy_validation":0.9333333333333333,"mse_training":0.13333333333333333,"accuracy_training":0.9333333333333333,"mse_validation":0.13333333333333333,"bias":-4.858585431138662E-16},{"epoch":83,"weights":[[2.3374832246959736,4.630673779146767,-4.606155294805236,-1.713920304868213],[2.063001360374558,1.3331740897947073,-0.057812501769081925,-3.7491464149838585],[-2.79296489808397,-4.030060407826114,6.313980311077063,6.913504121687224]],"accuracy_validation":0.9333333333333333,"mse_training":0.13333333333333333,"accuracy_training":0.9333333333333333,"mse_validation":0.13333333333333333,"bias":-5.258275436481764E-16},{"epoch":82,"weights":[[2.3316073315880983,4.618058717624844,-4.590217630381333,-1.7053370783493678],[2.0660844173126076,1.3201684542252443,-0.06356844939712011,-3.7253310188250506],[-2.7901720619141455,-4.004439710734737,6.303798594281198,6.881105499009571]],"accuracy_validation":0.9333333333333333,"mse_training":0.13333333333333333,"accuracy_training":0.9333333333333333,"mse_validation":0.13333333333333333,"bias":-4.851485022154194E-16},{"epoch":81,"weights":[[2.325674925683788,4.605310849098857,-4.574097312992101,-1.6966629831852453],[2.0693163840155906,1.3068790456876342,-0.06939868139966485,-3.7014820799642973],[-2.78747162271282,-3.978402433671137,6.293508508894508,6.848582464984693]],"accuracy_validation":0.9333333333333333,"mse_training":0.13333333333333333,"accuracy_training":0.9333333333333333,"mse_validation":0.13333333333333333,"bias":-4.836594934221701E-16},{"epoch":80,"weights":[[2.319683813401052,4.5924258836694225,-4.557789176051162,-1.6878954664385162],[2.072696631102984,1.2932992283145677,-0.07529791747825948,-3.6776039413769306],[-2.7848607575174795,-3.951937650868643,6.283099608032164,6.815936809650601]],"accuracy_validation":0.9333333333333333,"mse_training":0.13333333333333333,"accuracy_training":0.9333333333333333,"mse_validation":0.13333333333333333,"bias":-5.41387133100123E-16},{"epoch":79,"weights":[[2.313631673169359,4.5793993582486925,-4.541287919824333,-1.6790319014573492],[2.0762241563265857,1.279422252993565,-0.08126028294877588,-3.6537009992630347],[-2.7823361425093873,-3.9250341501269066,6.272560717275858,6.783170302555537]],"accuracy_validation":0.9333333333333333,"mse_training":0.1523809523809524,"accuracy_training":0.9238095238095239,"mse_validation":0.13333333333333333,"bias":-5.408430795566441E-16},{"epoch":78,"weights":[[2.30751605027618,4.566226632573488,-4.524588113521139,-1.6700695873723788],[2.079897555555993,1.265241278751575,-0.08727929251041247,-3.6297776576441536],[-2.779893918845615,-3.8976804502097187,6.261879920534304,6.750284646851681]],"accuracy_validation":0.9333333333333333,"mse_training":0.1523809523809524,"accuracy_training":0.9238095238095239,"mse_validation":0.13333333333333333,"bias":-4.672071107513874E-16},{"epoch":77,"weights":[[2.3013343518995035,4.552902885504037,-4.507684197692874,-1.661005748591423],[2.0837149928260623,1.2507493983857374,-0.09334783878054051,-3.605838271374207],[-2.7775296577390107,-3.8698648227744306,6.251044550976165,6.717281421800773]],"accuracy_validation":0.9333333333333333,"mse_training":0.1523809523809524,"accuracy_training":0.9238095238095239,"mse_validation":0.13333333333333333,"bias":-4.485784174535675E-16},{"epoch":76,"weights":[[2.295083842471659,4.539423111698135,-4.490570486826663,-1.6518375342492502],[2.0876741695558207,1.235939668792511,-0.09945818668699424,-3.5818870758496772],[-2.775238325040925,-3.841575319375304,6.2400411880164,6.684162011934072]],"accuracy_validation":0.9333333333333333,"mse_training":0.1523809523809524,"accuracy_training":0.9238095238095239,"mse_validation":0.13333333333333333,"bias":-4.0672520511274206E-16},{"epoch":75,"weights":[[2.2887616395698402,4.525782118775314,-4.4732411719750935,-1.6425620175574756],[2.0917722930456275,1.220805146444434,-0.10560197487951464,-3.557928101680968],[-2.773014245628915,-3.8127998041044067,6.228855661357351,6.650927521073586]],"accuracy_validation":0.9333333333333333,"mse_training":0.1523809523809524,"accuracy_training":0.9238095238095239,"mse_validation":0.13333333333333333,"bias":-3.7670064509220405E-16},{"epoch":74,"weights":[[2.282364710589399,4.51197452511501,-4.455690323201211,-1.6331761949867027],[2.096006044336239,1.205338928437226,-0.11177022534198573,-3.533965072649479],[-2.770851067939088,-3.7835259924368945,6.217473063045943,6.617578669471322]],"accuracy_validation":0.9333333333333333,"mse_training":0.1523809523809524,"accuracy_training":0.9238095238095239,"mse_validation":0.13333333333333333,"bias":-4.59695551231841E-16},{"epoch":73,"weights":[[2.2758898705257717,4.497994758467085,-4.4379118915509,-1.6236769852006607],[2.1003715454596037,1.1895341994727928,-0.11795336232915542,-3.5100012854537592],[-2.7687417289988265,-3.753741496824539,6.205877768382806,6.58411567248956]],"accuracy_validation":0.9333333333333333,"mse_training":0.1523809523809524,"accuracy_training":0.9238095238095239,"mse_validation":0.13333333333333333,"bias":-4.1290518972679234E-16},{"epoch":72,"weights":[[2.269333781265828,4.483837055589945,-4.419899710191673,-1.614061227652134],[2.1048643260142375,1.173384285049078,-0.1241412415822065,-3.4860394700751107],[-2.7666784202935197,-3.723433879523684,6.194053466276624,6.550538099562382]],"accuracy_validation":0.9333333333333333,"mse_training":0.17142857142857143,"accuracy_training":0.9142857142857143,"mse_validation":0.13333333333333333,"bias":-4.037613840800959E-16},{"epoch":71,"weights":[[2.2626929528623445,4.469495463167468,-4.401647494284679,-1.604325680745608],[2.1094792888442346,1.156882710991035,-0.1303231904585105,-3.4620816301012787],[-2.764652554720036,-3.6925907130431654,6.181983199245934,6.516844712682025]],"accuracy_validation":0.9333333333333333,"mse_training":0.17142857142857143,"accuracy_training":0.9142857142857143,"mse_validation":0.13333333333333333,"bias":-4.4247582720775825E-16},{"epoch":70,"weights":[[2.255963747323816,4.454963840285123,-4.383148839095087,-1.5944670194753805],[2.114210674377463,1.1400232692777805,-0.13648805910337466,-3.438128863063429],[-2.7626547347147343,-3.661199648447571,6.1696494127012,6.483033284373948]],"accuracy_validation":0.9333333333333333,"mse_training":0.17142857142857143,"accuracy_training":0.9142857142857143,"mse_validation":0.13333333333333333,"bias":-4.176367267427688E-16},{"epoch":69,"weights":[[2.249142385479003,4.440235862758954,-4.364397215807498,-1.5844818324650038],[2.1190520228765766,1.1228000899049335,-0.14262428206182862,-3.414181161784149],[-2.760674721369033,-3.629248491548554,6.157034012372059,6.449100396084289]],"accuracy_validation":0.9333333333333333,"mse_training":0.17142857142857143,"accuracy_training":0.9142857142857143,"mse_validation":0.13333333333333333,"bias":-4.2267524730057973E-16},{"epoch":68,"weights":[[2.2422249574485367,4.425305029597589,-4.345385964516414,-1.5743666183694454],[2.123996133476446,1.1052077182832465,-0.14871994875832015,-3.390237198902301],[-2.7587014039384368,-3.5967252867654995,6.144118427777465,6.4150412191068815]],"accuracy_validation":0.9333333333333333,"mse_training":0.17142857142857143,"accuracy_training":0.9142857142857143,"mse_validation":0.13333333333333333,"bias":-3.7617385736886124E-16},{"epoch":67,"weights":[[2.2352074371469155,4.410164671823265,-4.326108283927817,-1.5641177816610694],[2.129035018440151,1.087241197441367,-0.15476288007088662,-3.3662940981083453],[-2.7567227686005196,-3.563618408149297,6.130883678501431,6.38084928160455]],"accuracy_validation":0.9333333333333333,"mse_training":0.17142857142857143,"accuracy_training":0.9142857142857143,"mse_validation":0.13333333333333333,"bias":-3.989617825909307E-16},{"epoch":66,"weights":[[2.2280857010172985,4.394807963768204,-4.306557217461076,-1.5537316279091196],[2.134159850603021,1.0688961541116608,-0.16074070684694214,-3.342347197133873],[-2.7547258646337736,-3.5299166567645224,6.117310438810745,6.346516226878126]],"accuracy_validation":0.9333333333333333,"mse_training":0.17142857142857143,"accuracy_training":0.9142857142857143,"mse_validation":0.13333333333333333,"bias":-4.1032451681358107E-16},{"epoch":65,"weights":[[2.2208555508393113,4.379227936783491,-4.2867256357045,-1.5432043587832778],[2.1393609015631956,1.0501688876880615,-0.16664094476169364,-3.3183898090991337],[-2.7526967654159655,-3.4956093633562095,6.103379094968924,6.3120315697175435]],"accuracy_validation":0.9333333333333333,"mse_training":0.17142857142857143,"accuracy_training":0.9142857142857143,"mse_validation":0.13333333333333333,"bias":-4.2448800047288744E-16},{"epoch":64,"weights":[[2.2135127399242687,4.363417495038097,-4.266606215571127,-1.5325320671637601],[2.144627467927532,1.0310564611217934,-0.17245105859023574,-3.294412990307885],[-2.7506205208652554,-3.4606864950445493,6.0890697886640925,6.277382459306774]],"accuracy_validation":0.9333333333333333,"mse_training":0.17142857142857143,"accuracy_training":0.9142857142857143,"mse_validation":0.13333333333333333,"bias":-3.9264433679003516E-16},{"epoch":63,"weights":[[2.2060530013166635,4.34736943274111,-4.246191417030528,-1.5217107329158155],[2.149947782980132,1.0115567931429117,-0.1781585080081791,-3.270405323844956],[-2.7484810973102505,-3.4251387647686835,6.074362439541434,6.242553458595897]],"accuracy_validation":0.9333333333333333,"mse_training":0.17142857142857143,"accuracy_training":0.9142857142857143,"mse_validation":0.13333333333333333,"bias":-4.194012989721322E-16},{"epoch":62,"weights":[[2.1984720757771212,4.331076451698504,-4.225473458940285,-1.5107362200667867],[2.1553089116790107,0.9916687518426139,-0.18375076677524954,-3.2463527292325876],[-2.7462613004695875,-3.3889577424257764,6.05923674021826,6.2075263511345025]],"accuracy_validation":0.9333333333333333,"mse_training":0.17142857142857143,"accuracy_training":0.9142857142857143,"mse_validation":0.13333333333333333,"bias":-4.0377536231892657E-16},{"epoch":61,"weights":[[2.1907657363977937,4.3145311776417,-4.2044442962147,-1.4996042762759998],[2.1606966280744175,0.9713922506857291,-0.18921530794539518,-3.222238308817802],[-2.743942677485667,-3.3521359672120896,6.043672118662819,6.172279986928925]],"accuracy_validation":0.9333333333333333,"mse_training":0.17142857142857143,"accuracy_training":0.9142857142857143,"mse_validation":0.13333333333333333,"bias":-3.685989567545432E-16},{"epoch":60,"weights":[[2.1829298058284743,4.297726173291883,-4.183095601243863,-1.4883105355607422],[2.1660952762047825,0.950728349458007,-0.19453954991260047,-3.1980422414265415],[-2.7415053950467145,-3.3146670616345495,6.02764766565918,6.136790178822406]],"accuracy_validation":0.9333333333333333,"mse_training":0.19047619047619047,"accuracy_training":0.9047619047619048,"mse_validation":0.13333333333333333,"bias":-3.4994880322092097E-16},{"epoch":59,"weights":[[2.174960161482782,4.2806539457389245,-4.16141875294876,-1.4768505251673936],[2.1714876182841962,0.9296793644011784,-0.19971076185533396,-3.173741733129971],[-2.7389280927804367,-3.2765458490247594,6.0111420293068045,6.101029660132486]],"accuracy_validation":0.9333333333333333,"mse_training":0.19047619047619047,"accuracy_training":0.9047619047619048,"mse_validation":0.13333333333333333,"bias":-2.7475656787186275E-16},{"epoch":58,"weights":[[2.1668527240371827,4.2633069455442225,-4.139404836906393,-1.4652196771787713],[2.176854677405968,0.9082489935982377,-0.20471593246746883,-3.14931103377787],[-2.736187714456613,-3.2377684780271196,5.994133283876571,6.064968112791762]],"accuracy_validation":0.9333333333333333,"mse_training":0.19047619047619047,"accuracy_training":0.9047619047619048,"mse_validation":0.13333333333333333,"bias":-2.9322107923239265E-16},{"epoch":57,"weights":[[2.158603425353639,4.245677555173127,-4.117044659358932,-1.4534133448620952],[2.182175585699404,0.8864424650665126,-0.2095416123928772,-3.124721526330496],[-2.733259324066505,-3.198332559124304,5.976598786254518,6.028572273027712]],"accuracy_validation":0.9333333333333333,"mse_training":0.19047619047619047,"accuracy_training":0.9047619047619048,"mse_validation":0.13333333333333333,"bias":-3.1048794614156265E-16},{"epoch":56,"weights":[[2.1502081539044875,4.227758065061454,-4.094328776436354,-1.441426822866458],[2.1874274523316446,0.864266715287616,-0.21417374770415984,-3.099941893976502],[-2.7301159192495943,-3.158237319233733,5.958515038643227,5.991806118678082]],"accuracy_validation":0.9333333333333333,"mse_training":0.19047619047619047,"accuracy_training":0.9047619047619048,"mse_validation":0.13333333333333333,"bias":-3.050636301090424E-16},{"epoch":55,"weights":[[2.141662678895131,4.209540636875731,-4.0712475375289525,-1.4292553692374041],[2.1925852682347626,0.8417306041979608,-0.2185975278177409,-3.074938367457844],[-2.7267282601433576,-3.1174837799583486,5.939857579849408,5.954631138530371]],"accuracy_validation":0.9333333333333333,"mse_training":0.19047619047619047,"accuracy_training":0.9047619047619048,"mse_validation":0.13333333333333333,"bias":-3.218856547684113E-16},{"epoch":54,"weights":[[2.132962558233915,4.191017255232236,-4.047791138658085,-1.41689422600364],[2.1976218652304502,0.8188451682177272,-0.22279727483632958,-3.0496750517076734],[-2.7230647364778306,-3.0760749623346197,5.92060092799713,5.917006679546433]],"accuracy_validation":0.9333333333333333,"mse_training":0.19047619047619047,"accuracy_training":0.9047619047619048,"mse_validation":0.13333333333333333,"bias":-3.5621911513780464E-16},{"epoch":53,"weights":[[2.1241030395159672,4.172179670983647,-4.0239496784360735,-1.4043386340867745],[2.202507945739166,0.7956239054033661,-0.22675640089108204,-3.024114326592459],[-2.7190912982685957,-3.034016115271671,5.900718593829874,5.878890362514354]],"accuracy_validation":0.9333333333333333,"mse_training":0.19047619047619047,"accuracy_training":0.9047619047619048,"mse_validation":0.13333333333333333,"bias":-2.3368955265172876E-16},{"epoch":52,"weights":[[2.1150789661589036,4.153019340675057,-3.999713206555358,-1.391583837816526],[2.2072121952303347,0.7720830768168429,-0.2304574545759802,-2.998217311161563],[-2.714771474402705,-2.9913149563765598,5.880183175634053,5.840238550813204]],"accuracy_validation":0.9333333333333333,"mse_training":0.19047619047619047,"accuracy_training":0.9047619047619048,"mse_validation":0.13333333333333333,"bias":-2.140675671873457E-16},{"epoch":51,"weights":[[2.105884701620836,4.133527367377124,-3.975071753532462,-1.378625074668118],[2.2117014831472486,0.748241997353113,-0.2338822670446266,-2.9719443746920047],[-2.7100664977815465,-2.947981903614902,5.858966535079797,5.801006851195234]],"accuracy_validation":0.9333333333333333,"mse_training":0.19047619047619047,"accuracy_training":0.9047619047619048,"mse_validation":0.13333333333333333,"bias":-2.1004063454185162E-16},{"epoch":50,"weights":[[2.0965140825295134,4.113694447437628,-3.9500153312440145,-1.3654575470612196],[2.215941149804933,0.7241232801477104,-0.23701219420161912,-2.945255671872437],[-2.7049355453479063,-2.9040302664700026,5.837040039948343,5.761150620768762]],"accuracy_validation":0.9333333333333333,"mse_training":0.19047619047619047,"accuracy_training":0.9047619047619048,"mse_validation":0.13333333333333333,"bias":-2.4444177098890485E-16},{"epoch":49,"weights":[[2.0869604066343928,4.093510825705777,-3.9245338967087524,-1.3520763749962672],[2.2198953676381628,0.6997529942222706,-0.23982843640850332,-2.918111675024466],[-2.6993360872860137,-2.8594763588127083,5.814374847619963,5.720625451855843]],"accuracy_validation":0.9333333333333333,"mse_training":0.19047619047619047,"accuracy_training":0.9047619047619048,"mse_validation":0.13333333333333333,"bias":-2.0336053383976978E-16},{"epoch":48,"weights":[[2.0772164547430783,4.072966258841359,-3.898617276043896,-1.3384765305370723],[2.2235275563139663,0.6751606974919132,-0.24231240465308163,-2.8904736746456026],[-2.6932243240705036,-2.814339495217931,5.7909421951996825,5.679387607017791]],"accuracy_validation":0.9333333333333333,"mse_training":0.19047619047619047,"accuracy_training":0.9047619047619048,"mse_validation":0.13333333333333333,"bias":-2.25923603692277E-16},{"epoch":47,"weights":[[2.0672745388554197,4.0520499831163335,-3.8722550505060127,-1.3246527571405857],[2.2268008238626757,0.6503793173198681,-0.24444609524356897,-2.8623042215480203],[-2.6865556757315536,-2.7686418393208587,5.766713660252286,5.63739438052372]],"accuracy_validation":0.9333333333333333,"mse_training":0.19047619047619047,"accuracy_training":0.9047619047619048,"mse_validation":0.13333333333333333,"bias":-2.6951504412471203E-16},{"epoch":46,"weights":[[2.0571265633360056,4.030750680458514,-3.8454364107881327,-1.3105994781072352],[2.229678401371265,0.625444867059155,-0.24621243539376306,-2.833567489253533],[-2.679285277720728,-2.722408086402324,5.741661360684603,5.5946043691958804]],"accuracy_validation":0.9333333333333333,"mse_training":0.19047619047619047,"accuracy_training":0.9047619047619048,"mse_validation":0.13333333333333333,"bias":-3.3004665985608206E-16},{"epoch":45,"weights":[[2.046764083539723,4.0090564350635605,-3.818149988268416,-1.2963106987120114],[2.2321240380454213,0.6003960063457916,-0.2475955691211272,-2.8042295429054347],[-2.6713684345986017,-2.6756649802940062,5.71575807189225,5.55097764345256]],"accuracy_validation":0.9333333333333333,"mse_training":0.19047619047619047,"accuracy_training":0.9047619047619048,"mse_validation":0.13333333333333333,"bias":-3.535945540268742E-16},{"epoch":44,"weights":[[2.0361783474624167,3.9869546731215744,-3.790383672163944,-1.281779905882866],[2.234102327329972,0.5752734715057157,-0.24858106433318866,-2.774258509104837],[-2.6627609878058456,-2.6284406835119456,5.688977250999838,5.506475816822815]],"accuracy_validation":0.9333333333333333,"mse_training":0.19047619047619047,"accuracy_training":0.9047619047619048,"mse_validation":0.13333333333333333,"bias":-2.7462444365679727E-16},{"epoch":43,"weights":[[2.0253603105778826,3.9644320801533355,-3.7621244195928254,-1.2669999678524106],[2.2355789432597053,0.5501194170720957,-0.24915603443430706,-2.7436246483640865],[-2.653419566851047,-2.5807640361100854,5.66129296852984,5.461062018051605]],"accuracy_validation":0.9333333333333333,"mse_training":0.19047619047619047,"accuracy_training":0.9047619047619048,"mse_validation":0.13333333333333333,"bias":-2.165995536731067E-16},{"epoch":42,"weights":[[2.0143006212104,3.9414744938963664,-3.733358061961993,-1.251963034384671],[2.2365207781087504,0.524976718240268,-0.24930917806978775,-2.7123003377399164],[-2.6433017123326126,-2.5326637510212855,5.632679754534489,5.4147007739597]],"accuracy_validation":0.9333333333333333,"mse_training":0.19047619047619047,"accuracy_training":0.9047619047619048,"mse_validation":0.13333333333333333,"bias":-1.827643274730258E-16},{"epoch":41,"weights":[[2.0029895821713763,3.918066775059718,-3.704069106826943,-1.2366604363691691],[2.2368959852741783,0.4998882868104411,-0.24903074691367752,-2.6802599760820334],[-2.632365880459019,-2.48416760075481,5.6031123682433215,5.367357814286314]],"accuracy_validation":0.9333333333333333,"mse_training":0.19047619047619047,"accuracy_training":0.9047619047619048,"mse_validation":0.13333333333333333,"bias":-1.8794702301404225E-16},{"epoch":40,"weights":[[1.9914171020580997,3.8941926626475887,-3.6742405305654655,-1.2210825821451625],[2.236673941986106,0.4748964506306494,-0.24831245373952743,-2.6474798291450177],[-2.620571357057669,-2.4353016521628907,5.572565498807695,5.318999813125288]],"accuracy_validation":0.9333333333333333,"mse_training":0.19047619047619047,"accuracy_training":0.9047619047619048,"mse_validation":0.13333333333333333,"bias":-1.4556245580171556E-16},{"epoch":39,"weights":[[1.9795726543794532,3.8698346236781767,-3.643853554982641,-1.2052188471424043],[2.235825152115848,0.4500424402437023,-0.24714733295125857,-2.6139378372042144],[-2.6078781195087677,-2.3860896028065315,5.541013402436598,5.269594086181722]],"accuracy_validation":0.9333333333333333,"mse_training":0.19047619047619047,"accuracy_training":0.9047619047619048,"mse_validation":0.13333333333333333,"bias":-1.186748959856823E-16},{"epoch":38,"weights":[[1.967445262549712,3.8449737076506074,-3.612887401047897,-1.1890574534056342],[2.2343211090394868,0.4253660181254134,-0.24552956536969966,-2.5796134133737865],[-2.594246684602667,-2.336552264660676,5.508429480920293,5.219108268614523]],"accuracy_validation":0.9111111111111111,"mse_training":0.19047619047619047,"accuracy_training":0.9047619047619048,"mse_validation":0.17777777777777778,"bias":-1.5622816047094539E-16},{"epoch":37,"weights":[[1.9550235227523827,3.819589413057335,-3.5813190153217414,-1.1725853361651895],[2.232134133595549,0.4009052773118478,-0.24345427985156246,-2.544487264786097],[-2.5796379693614044,-2.286707229253834,5.474785809676,5.167510002786386]],"accuracy_validation":0.9111111111111111,"mse_training":0.20952380952380953,"accuracy_training":0.8952380952380953,"mse_validation":0.17777777777777778,"bias":-1.0843891653401775E-16},{"epoch":36,"weights":[[1.9422956653624892,3.7936595664786337,-3.549122768237405,-1.155787995406824],[2.2292371957268617,0.3766966285964027,-0.2409173465484977,-2.5085412684797053],[-2.564013174102824,-2.236568733959689,5.440052629288597,5.114766665721629]],"accuracy_validation":0.9111111111111111,"mse_training":0.20952380952380953,"accuracy_training":0.8952380952380953,"mse_validation":0.17777777777777778,"bias":-7.688127897754284E-17},{"epoch":35,"weights":[[1.929249641506699,3.767160205324119,-3.5162701264103533,-1.1386493307745291],[2.225603723239134,0.3527749889974259,-0.23791517946291188,-2.4717584266844077],[-2.5473336777593083,-2.186147733206199,5.404197820375956,5.060845159294041]],"accuracy_validation":0.9111111111111111,"mse_training":0.20952380952380953,"accuracy_training":0.8952380952380953,"mse_validation":0.17777777777777778,"bias":-1.0547161115521809E-16},{"epoch":34,"weights":[[1.91587320807704,3.7400654450060578,-3.482729301512165,-1.12115145754191],[2.2212073978305416,0.3291741776417457,-0.23444456783981255,-2.4341229108086218],[-2.5295609189210593,-2.1354521615324584,5.367186383854666,5.0057117701856315]],"accuracy_validation":0.9111111111111111,"mse_training":0.20952380952380953,"accuracy_training":0.8952380952380953,"mse_validation":0.17777777777777778,"bias":-1.2340847270960322E-16},{"epoch":33,"weights":[[1.9021539754997878,3.71234730237695,-3.448464874657193,-1.1032744995732695],[2.2160219348703927,0.3059275164825351,-0.23050255468342404,-2.3956201802064205],[-2.5106562233836605,-2.0844873577441385,5.328979943843303,4.949332081614793]],"accuracy_validation":0.9111111111111111,"mse_training":0.20952380952380953,"accuracy_training":0.8952380952380953,"mse_validation":0.17777777777777778,"bias":-7.926508522893463E-17},{"epoch":32,"weights":[[1.8880793794841213,3.6839754411698684,-3.413437387936721,-1.084996352483784],[2.210020835372126,0.2830686206364522,-0.2260863735856725,-2.3562371326459948],[-2.4905805278697266,-2.033256600690976,5.28953627602508,4.891670886964884]],"accuracy_validation":0.8888888888888888,"mse_training":0.20952380952380953,"accuracy_training":0.8952380952380953,"mse_validation":0.2222222222222222,"bias":-6.912960840474098E-17},{"epoch":31,"weights":[[1.8736365400912918,3.65491680233957,-3.377602885632926,-1.066292407480213],[2.203177082795021,0.26063234649639266,-0.22119343930021268,-2.3159622111528284],[-2.469293935899793,-1.9817616877206163,5.248808839435822,4.83269202046815]],"accuracy_validation":0.8888888888888888,"mse_training":0.20952380952380953,"accuracy_training":0.8952380952380953,"mse_validation":0.2222222222222222,"bias":-5.4839401665046474E-17},{"epoch":30,"weights":[[1.8588119761764874,3.6251350819914627,-3.34091237973031,-1.0471352247710242],[2.195462732992373,0.23865584717747115,-0.21582136152313336,-2.2747853600701777],[-2.4467550221823404,-1.9300034680535882,5.206746255756122,4.772357986676312]],"accuracy_validation":0.8888888888888888,"mse_training":0.20952380952380953,"accuracy_training":0.8952380952380953,"mse_validation":0.2222222222222222,"bias":-2.8031527620371224E-17},{"epoch":29,"weights":[[1.843591147750584,3.5945900210604176,-3.303311210314418,-1.0274941458544578],[2.1868483164498302,0.2171796678667024,-0.20996791675902576,-2.232697696626451],[-2.4229197772138944,-1.8779822278117764,5.1632916415761265,4.710629244316024]],"accuracy_validation":0.8888888888888888,"mse_training":0.22857142857142856,"accuracy_training":0.8857142857142857,"mse_validation":0.2222222222222222,"bias":-4.137606213268591E-17},{"epoch":28,"weights":[[1.827957801774059,3.5632364735156816,-3.2647382722901725,-1.007334836353536],[2.1773019472488997,0.19624880258104066,-0.2036308768586475,-2.189690750440116],[-2.397740062036441,-1.8256978149813778,5.118381663651503,4.647462988628766]],"accuracy_validation":0.8888888888888888,"mse_training":0.22857142857142856,"accuracy_training":0.8857142857142857,"mse_validation":0.2222222222222222,"bias":-5.364086433222433E-17},{"epoch":27,"weights":[[1.8118930990579853,3.531023223392129,-3.225125083780749,-0.9866187536891697],[2.1667880282620144,0.17591363381928354,-0.19680756893388743,-2.1457551323052053],[-2.3711614403334833,-1.7731493960960687,5.071945167217321,4.582811287829488]],"accuracy_validation":0.8888888888888888,"mse_training":0.22857142857142856,"accuracy_training":0.8857142857142857,"mse_validation":0.2222222222222222,"bias":-6.156884700842164E-17},{"epoch":26,"weights":[[1.7953745027310997,3.4978915240660666,-3.184394673604065,-0.9653025330246795],[2.1552654756008964,0.1562306948278731,-0.1894940516564708,-2.100878534656462],[-2.3431202913454823,-1.720334757778596,5.023901239763218,4.516618469516252]],"accuracy_validation":0.8888888888888888,"mse_training":0.24761904761904763,"accuracy_training":0.8761904761904762,"mse_validation":0.2222222222222222,"bias":-1.0915498680091724E-16},{"epoch":25,"weights":[[1.7783744115552191,3.46377333133315,-3.1424602575666136,-0.9433372749812551],[2.142685471311975,0.13726323998672946,-0.18168386160360697,-2.055043040114455],[-2.3135401958806767,-1.6672491102045337,4.974156633672906,4.448817716930824]],"accuracy_validation":0.8888888888888888,"mse_training":0.24761904761904763,"accuracy_training":0.8761904761904762,"mse_validation":0.2222222222222222,"bias":-1.1053011182824498E-16},{"epoch":24,"weights":[[1.760858519748389,3.4285891865322657,-3.09922364704658,-0.9206676939271599],[2.128988887548249,0.11908168702821816,-0.17336642021460003,-2.008221804851761],[-2.282327720310125,-1.6138834124451376,4.922602581763868,4.379326900614034]],"accuracy_validation":0.8888888888888888,"mse_training":0.24761904761904763,"accuracy_training":0.8761904761904762,"mse_validation":0.2222222222222222,"bias":-7.218450648507039E-17},{"epoch":23,"weights":[[1.7427838728769804,3.3922456692318272,-3.0545732820461344,-0.8972310444227071],[2.1141036719138433,0.1017640902218929,-0.1645253659309234,-1.9603752552405365],[-2.2493678578043115,-1.560222298338372,4.86911116247974,4.308043701498361]],"accuracy_validation":0.8888888888888888,"mse_training":0.24761904761904763,"accuracy_training":0.8761904761904762,"mse_validation":0.2222222222222222,"bias":1.3551407839494087E-17},{"epoch":22,"weights":[[1.7240965685416196,3.3546322846422396,-3.008381705142438,-0.8729556928190527],[2.097942573693528,0.0853968672362346,-0.155137199663273,-1.9114469506996323],[-2.2145194552486327,-1.5062416907631273,4.813531419308394,4.2348400453538035]],"accuracy_validation":0.8888888888888888,"mse_training":0.24761904761904763,"accuracy_training":0.8761904761904762,"mse_validation":0.2222222222222222,"bias":1.041462968364909E-16},{"epoch":21,"weights":[[1.704729044357839,3.3156176074977948,-2.960502201645227,-0.8477591585490329],[2.08040154957153,0.07007596563875486,-0.1451705938748018,-1.861359206947458],[-2.1776109069428577,-1.451906112021201,4.755685310022707,4.159555767331606]],"accuracy_validation":0.8888888888888888,"mse_training":0.26666666666666666,"accuracy_training":0.8666666666666667,"mse_validation":0.2222222222222222,"bias":9.132046322442448E-17},{"epoch":20,"weights":[[1.6845969558546448,3.2750445264924726,-2.91076423785303,-0.8215454358265536],[2.0613589887232955,0.0559084870968401,-0.1345864733064128,-1.8100084714670088],[-2.138436257591432,-1.3971655524739632,4.69536322566212,4.081991309128678]],"accuracy_validation":0.8888888888888888,"mse_training":0.26666666666666666,"accuracy_training":0.8666666666666667,"mse_validation":0.2222222222222222,"bias":1.012242010682864E-16},{"epoch":19,"weights":[[1.6635958355327376,3.2327245797682322,-2.858967244386267,-0.79420143040064],[2.040675617662584,0.04301455919126882,-0.12333864121491236,-1.7572603796047581],[-2.096751766208812,-1.3419516778441514,4.632318400103856,4.001899211840512]],"accuracy_validation":0.8666666666666667,"mse_training":0.26666666666666666,"accuracy_training":0.8666666666666667,"mse_validation":0.26666666666666666,"bias":4.814189477747729E-17},{"epoch":18,"weights":[[1.641598064107407,3.1884316609408287,-2.8048722267196844,-0.765592395912219],[2.018194778928461,0.03152912289975355,-0.11137454926513442,-1.7029445275053756],[-2.052273156049359,-1.2861733227252345,4.5662592904875,3.9189743252527074]],"accuracy_validation":0.8666666666666667,"mse_training":0.26666666666666666,"accuracy_training":0.8666666666666667,"mse_validation":0.26666666666666666,"bias":-5.2113657590031994E-18},{"epoch":17,"weights":[[1.6184511124297456,3.141895754333827,-2.748190663281877,-0.7355563069010205],[1.993742944290304,0.021603414731149753,-0.09863601986705797,-1.646849440736858],[-2.004674369733538,-1.2297117079496276,4.496839197651619,3.8328431494729878]],"accuracy_validation":0.8666666666666667,"mse_training":0.2857142857142857,"accuracy_training":0.8571428571428571,"mse_validation":0.26666666666666666,"bias":2.3883767827081815E-17},{"epoch":16,"weights":[[1.593978448341956,3.0927977540611638,-2.6885701866152916,-0.703897154873747],[1.9671307035112497,0.013406062443467965,-0.08506031836411915,-1.5887190990158953],[-1.953589464866694,-1.1724163553892846,4.4236430194820935,3.743053655724754]],"accuracy_validation":0.8666666666666667,"mse_training":0.2857142857142857,"accuracy_training":0.8571428571428571,"mse_validation":0.26666666666666666,"bias":6.119056193793154E-17},{"epoch":15,"weights":[[1.5679851595803251,3.0407669409377505,-2.625576551861734,-0.6703772510034791],[1.9381537520328775,0.007122956691940063,-0.07058270800080145,-1.5282534163252322],[-1.8986192246266897,-1.1141024365143428,4.3461717743652235,3.6490680691638224]],"accuracy_validation":0.8444444444444444,"mse_training":0.2857142857142857,"accuracy_training":0.8571428571428571,"mse_validation":0.3111111111111111,"bias":7.228583797849637E-17},{"epoch":14,"weights":[[1.5402719417594548,2.9853838086261693,-2.558671211774272,-0.6347089100434519],[1.9065883138263682,0.002951933482356509,-0.05514275321303296,-1.4651149728245534],[-1.8393405685993083,-1.0545482809931805,4.263826479489985,3.5502612847031165]],"accuracy_validation":0.8444444444444444,"mse_training":0.3047619047619048,"accuracy_training":0.8476190476190476,"mse_validation":0.3111111111111111,"bias":6.481682409142612E-17},{"epoch":13,"weights":[[1.5106635319466657,2.9261928171536122,-2.487183825833207,-0.5965466104149374],[1.872162951985014,0.0010833700832764397,-0.03869958373009225,-1.398940620369479],[-1.7753067969451655,-0.9934887261215428,4.175895924065981,3.445924632619527]],"accuracy_validation":0.8444444444444444,"mse_training":0.3238095238095238,"accuracy_training":0.8380952380952381,"mse_validation":0.3111111111111111,"bias":4.252617386201505E-17},{"epoch":12,"weights":[[1.47905569870904,2.862729539716647,-2.410281693437545,-0.5554820984691828],[1.8344730213382716,0.0016572047326779793,-0.02126611911359729,-1.3293485876745572],[-1.7060090330607984,-0.9305992833339797,4.08156032705382,3.3352680879788514]],"accuracy_validation":0.8444444444444444,"mse_training":0.3238095238095238,"accuracy_training":0.8380952380952381,"mse_validation":0.3111111111111111,"bias":2.178359354449445E-18},{"epoch":11,"weights":[[1.4454643010368464,2.794555725622038,-2.3269488720408176,-0.5110471385313177],[1.792787550258317,0.004690675480836886,-0.0029798646738989094,-1.2559286450771643],[-1.6307321643086505,-0.8654589399875305,3.979941251217395,3.217413185443592]],"accuracy_validation":0.8444444444444444,"mse_training":0.3238095238095238,"accuracy_training":0.8380952380952381,"mse_validation":0.3111111111111111,"bias":-2.6977941198532638E-17},{"epoch":10,"weights":[[1.410008088113382,2.7212642021080935,-2.2360096080686334,-0.4627312011028918],[1.7456146377448207,0.009937576852566863,0.015717789244509544,-1.1782344715430682],[-1.5481030388716883,-0.7974143178453166,3.8703043333268017,3.0914030744810685]],"accuracy_validation":0.8222222222222222,"mse_training":0.3619047619047619,"accuracy_training":0.819047619047619,"mse_validation":0.35555555555555557,"bias":-5.917666786308082E-17},{"epoch":9,"weights":[[1.3727211207098369,2.6423880011451715,-2.1362346631887217,-0.41001636556632803],[1.6896499377595455,0.01653927636654494,0.033545986647214456,-1.0958757282683222],[-1.4548513714828675,-0.7251398163963719,3.7527011910441854,2.9563294956697588]],"accuracy_validation":0.7777777777777778,"mse_training":0.38095238095238093,"accuracy_training":0.8095238095238095,"mse_validation":0.4444444444444444,"bias":-3.42576798834953E-17},{"epoch":8,"weights":[[1.3332144303413285,2.5572112853074223,-2.02647802932792,-0.3524043781661972],[1.6191891936632519,0.022975296977183816,0.04821874102553675,-1.0084430534072089],[-1.3448839370180656,-0.6463991211692631,3.628271802805062,2.8112848334085148]],"accuracy_validation":0.7555555555555555,"mse_training":0.4,"accuracy_training":0.8,"mse_validation":0.4888888888888889,"bias":-1.3142182331699858E-17},{"epoch":7,"weights":[[1.2905207499125166,2.4645899723525138,-1.9055649320081263,-0.28936726284138553],[1.532892054100179,0.03011057660838689,0.06128419392046309,-0.9136304687435142],[-1.2158931170261793,-0.5609130878455552,3.4942932525903405,2.6534351334200106]],"accuracy_validation":0.6888888888888889,"mse_training":0.5142857142857142,"accuracy_training":0.7428571428571429,"mse_validation":0.6222222222222222,"bias":2.9857222788702204E-18},{"epoch":6,"weights":[[1.2433268876160994,2.362702115048753,-1.7715820686156105,-0.22007921121641502],[1.4362994786860903,0.04250306953060292,0.07934447619215618,-0.8062399009759998],[-1.0721066793156742,-0.471417723464013,3.342250106926132,2.4767565140275236]],"accuracy_validation":0.6444444444444445,"mse_training":0.6095238095238096,"accuracy_training":0.6952380952380952,"mse_validation":0.7111111111111111,"bias":4.295528520645885E-18},{"epoch":5,"weights":[[1.1890004627442188,2.248004532439702,-1.6215225045536659,-0.14306833734744748],[1.3301733916977367,0.06463060777438176,0.10496705964326224,-0.6806825554387089],[-0.9116541674554393,-0.37884767909874023,3.1665679594130807,2.274188294621265]],"accuracy_validation":0.6444444444444445,"mse_training":0.6285714285714286,"accuracy_training":0.6857142857142857,"mse_validation":0.7111111111111111,"bias":-5.844453224807703E-17},{"epoch":4,"weights":[[1.122925892851637,2.1149162870006553,-1.4518003789718466,-0.05621365510225085],[1.211625658575579,0.1012374432799466,0.13699353745855236,-0.5328715341075728],[-0.7270318644407006,-0.2823662691652594,2.9648193560159704,2.0395225910449333]],"accuracy_validation":0.6222222222222222,"mse_training":0.6285714285714286,"accuracy_training":0.6857142857142857,"mse_validation":0.7555555555555555,"bias":-9.516873618984776E-17},{"epoch":3,"weights":[[1.0450222609836148,1.9614644176742784,-1.2593416296005937,0.04188962817224188],[1.0731287892045507,0.15200312699169158,0.1799302919025676,-0.35649987315210213],[-0.5106313632016513,-0.17968008355062587,2.729423852200703,1.7650476468149705]],"accuracy_validation":0.6222222222222222,"mse_training":0.6285714285714286,"accuracy_training":0.6857142857142857,"mse_validation":0.7555555555555555,"bias":-7.843237762117248E-17},{"epoch":2,"weights":[[0.9608632691440623,1.79279156582284,-1.0466389955758209,0.1491960881707916],[0.9036868802027407,0.208122696071238,0.2447805257466784,-0.1413803659944106],[-0.257030462360291,-0.06712680077873304,2.4518709843318187,1.4426216796587294]],"accuracy_validation":0.6222222222222222,"mse_training":0.6285714285714286,"accuracy_training":0.6857142857142857,"mse_validation":0.7555555555555555,"bias":-1.1675298857045938E-16},{"epoch":1,"weights":[[0.8657674511172866,1.6056303709649087,-0.8138864950361099,0.26545967723250297],[0.7079428601166033,0.27258752010295895,0.3324276309098947,0.10826948974559923],[0.03380937575262262,0.05556957004747595,2.1314713786288935,1.0767082348570072]],"accuracy_validation":0.6222222222222222,"mse_training":0.6285714285714286,"accuracy_training":0.6857142857142857,"mse_validation":0.7555555555555555,"bias":-1.0559858109465693E-16},{"epoch":0,"weights":[[0.7543810757650078,1.3786645840092224,-0.5271205813440254,0.4066612362833201],[0.49636190085448056,0.35253322768090034,0.4303714119923702,0.37769725082783145],[0.35677671036702385,0.2025896494252206,1.7467616838543345,0.6660789147239576]],"accuracy_validation":0.6222222222222222,"mse_training":0.6285714285714286,"accuracy_training":0.6857142857142857,"mse_validation":0.7555555555555555,"bias":-9.501405738576718E-17}]