[{"epoch":99,"weights":[[5.686971018858976,8.14227892301549,-10.702674587678374,-4.405689567690315],[7.804522906474442,-0.7432558365931767,-3.3647349318080084,-12.249641484191706],[-11.832075037175104,-5.412415505981794,14.74360439339823,18.72435243805018]],"accuracy_validation":0.9555555555555556,"mse_training":0.05714285714285714,"accuracy_training":0.9714285714285714,"mse_validation":0.08888888888888889,"bias":-4.589751161851441E-16},{"epoch":98,"weights":[[5.663356830070219,8.116026250072707,-10.656704156053166,-4.388905951675141],[7.841180057773762,-0.7543334643747858,-3.3092991070220124,-12.169512532274899],[-11.845117999685668,-5.375085205257402,14.642198136987027,18.627439870118202]],"accuracy_validation":0.9555555555555556,"mse_training":0.05714285714285714,"accuracy_training":0.9714285714285714,"mse_validation":0.08888888888888889,"bias":-4.629607897001642E-16},{"epoch":97,"weights":[[5.645962230835446,8.103981791888218,-10.620178877172545,-4.372161026394142],[7.961673154636009,-0.7478944291267825,-3.2052646740947344,-12.092848174486521],[-11.948216497313144,-5.369479782320916,14.501638425179127,18.534030587048793]],"accuracy_validation":0.9333333333333333,"mse_training":0.0761904761904762,"accuracy_training":0.9619047619047619,"mse_validation":0.13333333333333333,"bias":-5.070815624633801E-16},{"epoch":96,"weights":[[5.62354082525321,8.079471797221396,-10.575377521727303,-4.355664747703684],[7.7594391695760265,-0.8157017426706803,-3.3484762077595813,-12.055532821696927],[-11.723561106670925,-5.2771624741101935,14.600048603398733,18.480218955568752]],"accuracy_validation":0.9555555555555556,"mse_training":0.05714285714285714,"accuracy_training":0.9714285714285714,"mse_validation":0.08888888888888889,"bias":-4.2041375525521457E-16},{"epoch":95,"weights":[[5.600394774105351,8.063158426959143,-10.536753977494588,-4.337844974726729],[7.947815987469643,-0.8130402267997082,-3.184718071208905,-11.96685102589411],[-11.888791873416684,-5.263510619718917,14.397666922615343,18.373717386788996]],"accuracy_validation":0.9333333333333333,"mse_training":0.0761904761904762,"accuracy_training":0.9619047619047619,"mse_validation":0.13333333333333333,"bias":-5.813845231406195E-16},{"epoch":94,"weights":[[5.587893791577537,8.028273172333769,-10.439874192924396,-4.302891761058432],[8.16502855319122,-0.6918579421760264,-3.041026100446299,-11.84542151780197],[-12.093503456610453,-5.349807649717228,14.157095167282542,18.217334665028538]],"accuracy_validation":0.8888888888888888,"mse_training":0.09523809523809523,"accuracy_training":0.9523809523809523,"mse_validation":0.2222222222222222,"bias":-5.740017503855217E-16},{"epoch":93,"weights":[[5.544851226064259,8.00126065333959,-10.438028445357508,-4.299079820989875],[7.881561001542816,-0.8294135481203765,-3.1831413045534305,-11.851503995516596],[-11.766993339448781,-5.185239524778695,14.297364623822787,18.2196052026746]],"accuracy_validation":0.9333333333333333,"mse_training":0.05714285714285714,"accuracy_training":0.9714285714285714,"mse_validation":0.13333333333333333,"bias":-5.213475397244513E-16},{"epoch":92,"weights":[[5.544028249335956,7.979315935712463,-10.356297664006716,-4.270122810756766],[8.03551127895713,-0.7354760734012131,-3.0623552895642487,-11.738771367128404],[-11.920120640134792,-5.257232281870736,14.094847827482816,18.0779155640533]],"accuracy_validation":0.8888888888888888,"mse_training":0.0761904761904762,"accuracy_training":0.9619047619047619,"mse_validation":0.2222222222222222,"bias":-5.696566640891011E-16},{"epoch":91,"weights":[[5.508797469773492,7.955927104485945,-10.348815759703397,-4.264573697737088],[7.836096998109552,-0.841379264730925,-3.1666219242353613,-11.725338498620552],[-11.68547557972475,-5.127940259314502,14.191632557850612,18.05893358252577]],"accuracy_validation":0.9333333333333333,"mse_training":0.05714285714285714,"accuracy_training":0.9714285714285714,"mse_validation":0.13333333333333333,"bias":-3.723131029403373E-16},{"epoch":90,"weights":[[5.508244936167466,7.937611691598726,-10.275663845976117,-4.239605716607482],[7.691097611023782,-0.8892919543569157,-3.2705121769484675,-11.68318546345466],[-11.53992365903295,-5.061712156801291,14.22237089683644,17.991812566230276]],"accuracy_validation":0.9555555555555556,"mse_training":0.05714285714285714,"accuracy_training":0.9714285714285714,"mse_validation":0.08888888888888889,"bias":-2.670655118200353E-16},{"epoch":89,"weights":[[5.468784699693271,7.912531917618797,-10.272776181873205,-4.235470356482245],[7.803017707474388,-0.8902090703785253,-3.173819827071404,-11.59685082684916],[-11.612383519009372,-5.035715266799754,14.122790882856464,17.90134256949956]],"accuracy_validation":0.9333333333333333,"mse_training":0.05714285714285714,"accuracy_training":0.9714285714285714,"mse_validation":0.13333333333333333,"bias":-2.186036140767079E-16},{"epoch":88,"weights":[[5.470886637025733,7.898521148245561,-10.202914788156146,-4.210398613812437],[7.839497736616417,-0.902267210309082,-3.136156781274125,-11.532238964841],[-11.650965485483866,-5.009646357495962,14.015266443342128,17.8116589648216]],"accuracy_validation":0.9333333333333333,"mse_training":0.05714285714285714,"accuracy_training":0.9714285714285714,"mse_validation":0.13333333333333333,"bias":-3.0585618510005636E-16},{"epoch":87,"weights":[[5.423494968888604,7.869480752415608,-10.204267668510635,-4.2074814423536],[7.747062787137565,-0.973886094814582,-3.2062373236144146,-11.495514546388296],[-11.511138867867883,-4.9089870771605115,14.086699866036907,17.772017374910067]],"accuracy_validation":0.9333333333333333,"mse_training":0.05714285714285714,"accuracy_training":0.9714285714285714,"mse_validation":0.13333333333333333,"bias":-3.5848320560174194E-16},{"epoch":86,"weights":[[5.437854123983143,7.86018913539731,-10.121979080463543,-4.179240988704157],[7.829805254861375,-0.9359378117574885,-3.1462892553553568,-11.413764896999458],[-11.608240490686248,-4.937643743199306,13.944463209730749,17.662027271871793]],"accuracy_validation":0.9333333333333333,"mse_training":0.05714285714285714,"accuracy_training":0.9714285714285714,"mse_validation":0.13333333333333333,"bias":-4.884390937236907E-16},{"epoch":85,"weights":[[5.399629760799773,7.836033888143598,-10.118770019758125,-4.174754497903998],[7.7473160941567345,-1.0017971608122116,-3.210573397625556,-11.37437971423249],[-11.487526966798235,-4.84762914689087,14.00553829129553,17.61815559830466]],"accuracy_validation":0.9333333333333333,"mse_training":0.05714285714285714,"accuracy_training":0.9714285714285714,"mse_validation":0.13333333333333333,"bias":-3.1875270183345776E-16},{"epoch":84,"weights":[[5.369047664367831,7.815063280059247,-10.102108440001691,-4.165740306085728],[7.7080032036008435,-1.0140406091431204,-3.237289844390725,-11.317568839751903],[-11.4176319798104,-4.814415090475612,14.015593158304267,17.55233053200582]],"accuracy_validation":0.9555555555555556,"mse_training":0.05714285714285714,"accuracy_training":0.9714285714285714,"mse_validation":0.08888888888888889,"bias":-5.689314880358191E-16},{"epoch":83,"weights":[[5.346848092762934,7.797586768679422,-10.070059641436123,-4.1513829356890675],[7.681583901088873,-1.0134176113701236,-3.241508800350396,-11.254953096686641],[-11.369013105693536,-4.797561576868784,13.987763315698366,17.475357418543904]],"accuracy_validation":0.9555555555555556,"mse_training":0.05714285714285714,"accuracy_training":0.9714285714285714,"mse_validation":0.08888888888888889,"bias":-6.542761319363769E-16},{"epoch":82,"weights":[[5.332291506773155,7.781916221600121,-10.035058390983773,-4.137043836705341],[7.649974146147719,-1.0045776543664668,-3.240297758296297,-11.186731422763888],[-11.322846764762607,-4.790730986793143,13.951551023191914,17.392796645637414]],"accuracy_validation":0.9555555555555556,"mse_training":0.05714285714285714,"accuracy_training":0.9714285714285714,"mse_validation":0.08888888888888889,"bias":-7.562236520814826E-16},{"epoch":81,"weights":[[5.322834671604171,7.770332092299129,-9.993932485772298,-4.120106504249555],[7.628459065652268,-1.0015139680823777,-3.2391420404907496,-11.121746877518454],[-11.29187484909817,-4.782210543776245,13.909269400174889,17.310874767936184]],"accuracy_validation":0.9555555555555556,"mse_training":0.05714285714285714,"accuracy_training":0.9714285714285714,"mse_validation":0.08888888888888889,"bias":-6.097851859644833E-16},{"epoch":80,"weights":[[5.299208140796999,7.746943522929028,-9.944208438424404,-4.100937363816361],[7.604981431907266,-1.0114562508807277,-3.248889434148473,-11.062432266467761],[-11.244770684546014,-4.748879691607799,13.869292746484717,17.23239101645229]],"accuracy_validation":0.9555555555555556,"mse_training":0.05714285714285714,"accuracy_training":0.9714285714285714,"mse_validation":0.08888888888888889,"bias":-5.349154919860704E-16},{"epoch":79,"weights":[[5.2551828940825285,7.708968898304212,-9.904049682657435,-4.085122640164681],[7.579382544768181,-1.009710641020537,-3.2501649378894983,-10.987728027852135],[-11.175146550692459,-4.7126506768431735,13.83040949445878,17.141872054184986]],"accuracy_validation":0.9555555555555556,"mse_training":0.05714285714285714,"accuracy_training":0.9714285714285714,"mse_validation":0.08888888888888889,"bias":-5.105957121576642E-16},{"epoch":78,"weights":[[5.239020735680122,7.688139810388632,-9.854595665375545,-4.066596597340818],[7.538544240542723,-0.999077002949658,-3.2554783025523903,-10.911255711679575],[-11.11814608806459,-4.702455226998473,13.78626884183978,17.046873695188573]],"accuracy_validation":0.9555555555555556,"mse_training":0.05714285714285714,"accuracy_training":0.9714285714285714,"mse_validation":0.08888888888888889,"bias":-6.247233116451094E-16},{"epoch":77,"weights":[[5.226739800446823,7.669255254265162,-9.798935626915663,-4.045969929695774],[7.500076841113366,-0.9906675705614149,-3.2581917582716278,-10.834935967286926],[-11.067397753401927,-4.691980103263242,13.73332225909913,16.94992728315087]],"accuracy_validation":0.9555555555555556,"mse_training":0.05714285714285714,"accuracy_training":0.9714285714285714,"mse_validation":0.08888888888888889,"bias":-5.081131435771185E-16},{"epoch":76,"weights":[[5.202894521910678,7.6450163687293715,-9.746402702415768,-4.025788723752779],[7.467745903056463,-0.9843381895438693,-3.2572381240222663,-10.758650669346387],[-11.011221536808886,-4.674070598745,13.679835700349878,16.853460779267333]],"accuracy_validation":0.9555555555555556,"mse_training":0.05714285714285714,"accuracy_training":0.9714285714285714,"mse_validation":0.08888888888888889,"bias":-6.175693571374076E-16},{"epoch":75,"weights":[[5.175348626321985,7.619592767732507,-9.696469362159746,-4.005993504768314],[7.434792649149899,-0.9855433540871129,-3.251291420503224,-10.681294182124176],[-10.950722387313617,-4.647441833204896,13.623955656574811,16.75630907306066]],"accuracy_validation":0.9555555555555556,"mse_training":0.05714285714285714,"accuracy_training":0.9714285714285714,"mse_validation":0.08888888888888889,"bias":-6.630856003404181E-16},{"epoch":74,"weights":[[5.147420156427825,7.594457095414455,-9.647429397448285,-3.9861801240026327],[7.401599003508798,-0.9914140438232992,-3.24061835567628,-10.602904343135428],[-10.889600271778345,-4.616435471150659,13.564242627036402,16.658105853306232]],"accuracy_validation":0.9555555555555556,"mse_training":0.05714285714285714,"accuracy_training":0.9714285714285714,"mse_validation":0.08888888888888889,"bias":-8.006434235108408E-16},{"epoch":73,"weights":[[5.1181783018598646,7.569122602196111,-9.599569592571653,-3.9664407999486326],[7.36853371911015,-1.0007016529342294,-3.226089173568434,-10.523855539803106],[-10.827293132811738,-4.581813368821384,13.501853640051914,16.55931772591989]],"accuracy_validation":0.9555555555555556,"mse_training":0.05714285714285714,"accuracy_training":0.9714285714285714,"mse_validation":0.08888888888888889,"bias":-8.934220495589284E-16},{"epoch":72,"weights":[[5.087862732893769,7.54369766183524,-9.553011366154523,-3.946860885481793],[7.335969261004148,-1.012921759686868,-3.2076516759668405,-10.444018783100466],[-10.764413105739644,-4.544168321707874,13.436857916033194,16.45990105475039]],"accuracy_validation":0.9555555555555556,"mse_training":0.05714285714285714,"accuracy_training":0.9714285714285714,"mse_validation":0.08888888888888889,"bias":-8.073706429339865E-16},{"epoch":71,"weights":[[5.057261040056049,7.518576489336544,-9.507686356135554,-3.9274981910894553],[7.304065423085484,-1.027829774817479,-3.1852386904740912,-10.36326334159957],[-10.70190757498326,-4.504139134078567,13.369119920521474,16.359782918857142]],"accuracy_validation":0.9555555555555556,"mse_training":0.05714285714285714,"accuracy_training":0.9714285714285714,"mse_validation":0.08888888888888889,"bias":-7.798814350304034E-16},{"epoch":70,"weights":[[5.026831643340683,7.493997195500985,-9.463628071491343,-3.908446250768783],[7.272931489312591,-1.045136081476085,-3.159017302679831,-10.281633786431861],[-10.640344244494996,-4.462253533584401,13.298840248083001,16.25910142336876]],"accuracy_validation":0.9555555555555556,"mse_training":0.05714285714285714,"accuracy_training":0.9714285714285714,"mse_validation":0.08888888888888889,"bias":-6.83493427905875E-16},{"epoch":69,"weights":[[4.996405371646572,7.469846376886764,-9.421181878924166,-3.889899498011547],[7.243192408230942,-1.0644127502068967,-3.128965998546232,-10.1992349534106],[-10.580178891719235,-4.418826046239365,13.22634275138223,16.15815583759028]],"accuracy_validation":0.9555555555555556,"mse_training":0.05714285714285714,"accuracy_training":0.9714285714285714,"mse_validation":0.08888888888888889,"bias":-7.701393990799773E-16},{"epoch":68,"weights":[[4.9642255490791865,7.444850828137234,-9.38151501650125,-3.872397502437964],[7.219363367290594,-1.0843526383043496,-3.09332858557663,-10.11608342133195],[-10.524170028211497,-4.37389060939238,13.151038475989717,16.05750230993805]],"accuracy_validation":0.9555555555555556,"mse_training":0.05714285714285714,"accuracy_training":0.9714285714285714,"mse_validation":0.08888888888888889,"bias":-8.078385740936389E-16},{"epoch":67,"weights":[[4.9296139870232105,7.417051510697624,-9.342422831626711,-3.8558878399505025],[7.2109596427863005,-1.0949105767851002,-3.0625331380893788,-10.03356844319769],[-10.481154741651224,-4.335533353472018,13.081150843627924,15.958477669316325]],"accuracy_validation":0.9555555555555556,"mse_training":0.05714285714285714,"accuracy_training":0.9714285714285714,"mse_validation":0.08888888888888889,"bias":-9.585812121575187E-16},{"epoch":66,"weights":[[4.915052766844472,7.39843470347061,-9.293519961653734,-3.837503525813752],[7.186113386890076,-1.0874125859566772,-3.059886213658601,-9.952578956272818],[-10.441747265576264,-4.3244145370734355,13.029601049224157,15.859103868254696]],"accuracy_validation":0.9555555555555556,"mse_training":0.05714285714285714,"accuracy_training":0.9714285714285714,"mse_validation":0.08888888888888889,"bias":-9.166369733325447E-16},{"epoch":65,"weights":[[4.889416881787569,7.376344025795682,-9.252214652425296,-3.820567076500911],[7.194327576432065,-1.0842030603840422,-3.046120015864411,-9.880380073799904],[-10.424325570061349,-4.305533384971143,12.974529542201521,15.769968536468943]],"accuracy_validation":0.9555555555555556,"mse_training":0.05714285714285714,"accuracy_training":0.9714285714285714,"mse_validation":0.08888888888888889,"bias":-1.0780684915920348E-15},{"epoch":64,"weights":[[4.882670619459866,7.356001608236389,-9.192781725496888,-3.7992755512432774],[7.153323820597812,-1.105038602564702,-3.053746277901703,-9.80961366863789],[-10.376575551899387,-4.264355425231192,12.922722877310404,15.677910606049291]],"accuracy_validation":0.9555555555555556,"mse_training":0.05714285714285714,"accuracy_training":0.9714285714285714,"mse_validation":0.08888888888888889,"bias":-1.2534687117448454E-15},{"epoch":63,"weights":[[4.856459252093636,7.33588635809233,-9.174054024922404,-3.7897124093144665],[7.197439618240281,-1.0980691190938148,-3.009481632138247,-9.72504173449615],[-10.394479982175616,-4.251209658558016,12.859730530972461,15.583775529978753]],"accuracy_validation":0.9333333333333333,"mse_training":0.05714285714285714,"accuracy_training":0.9714285714285714,"mse_validation":0.13333333333333333,"bias":-1.152825997653752E-15},{"epoch":62,"weights":[[4.838862702160488,7.321528362641105,-9.135015140857748,-3.7722635345863393],[7.222032809259663,-1.0998036186593771,-3.0037922324843724,-9.656762879075044],[-10.401476623261852,-4.235117163541232,12.815002247253942,15.49804779982953]],"accuracy_validation":0.9333333333333333,"mse_training":0.05714285714285714,"accuracy_training":0.9714285714285714,"mse_validation":0.13333333333333333,"bias":-1.2145966141730224E-15},{"epoch":61,"weights":[[4.830306157730761,7.31152286311879,-9.086608148585636,-3.751769743581934],[7.220136456885591,-1.1187537844599094,-3.022744256739044,-9.597045121705728],[-10.391023726458057,-4.206161498218388,12.785547279236491,15.417836251455803]],"accuracy_validation":0.9333333333333333,"mse_training":0.05714285714285714,"accuracy_training":0.9714285714285714,"mse_validation":0.13333333333333333,"bias":-1.3333682742784287E-15},{"epoch":60,"weights":[[4.797786639487613,7.287788241227183,-9.071103950746192,-3.7430710865948646],[7.193109057901511,-1.1557499482947313,-3.03898940038533,-9.532772427265032],[-10.331476809230825,-4.145430712491956,12.786288225043322,15.344864900028044]],"accuracy_validation":0.9333333333333333,"mse_training":0.05714285714285714,"accuracy_training":0.9714285714285714,"mse_validation":0.13333333333333333,"bias":-1.2582153192520074E-15},{"epoch":59,"weights":[[4.757430051410678,7.254486542167391,-9.026387415742976,-3.72299087774059],[7.329816546359263,-1.1416667455404221,-2.9098623851925365,-9.424730460480129],[-10.427827709611647,-4.126212216186472,12.612444674847302,15.216742724388865]],"accuracy_validation":0.9333333333333333,"mse_training":0.05714285714285714,"accuracy_training":0.9714285714285714,"mse_validation":0.13333333333333333,"bias":-1.3919487192768E-15},{"epoch":58,"weights":[[4.718991504049926,7.217379051747434,-8.971595568432766,-3.699700644753481],[7.459012139476449,-1.1143878334424517,-2.7731368446497386,-9.3129677565844],[-10.518584755368082,-4.116383637864484,12.420927286994289,15.081689787506017]],"accuracy_validation":0.8444444444444444,"mse_training":0.1523809523809524,"accuracy_training":0.9238095238095239,"mse_validation":0.3111111111111111,"bias":-1.4081533688051355E-15},{"epoch":57,"weights":[[4.66830414916133,7.180146157322424,-8.934365314250119,-3.680322311496468],[7.331909421503795,-1.1911107557180818,-2.7660124418712764,-9.25755355855203],[-10.34079468250684,-4.002427821163839,12.376572630033179,15.006897256216632]],"accuracy_validation":0.8888888888888888,"mse_training":0.11428571428571428,"accuracy_training":0.9428571428571428,"mse_validation":0.2222222222222222,"bias":-1.4418220117915134E-15},{"epoch":56,"weights":[[4.617627716842094,7.141326243016255,-8.900115361459397,-3.6618059939797454],[7.354657232331803,-1.2190018497699275,-2.63212475049728,-9.161676779534709],[-10.312866061015603,-3.935716812805824,12.208434985868454,14.892504159682579]],"accuracy_validation":0.8888888888888888,"mse_training":0.11428571428571428,"accuracy_training":0.9428571428571428,"mse_validation":0.2222222222222222,"bias":-1.4337381346064435E-15},{"epoch":55,"weights":[[4.572995520947058,7.104765481021664,-8.8585781511285,-3.6373913518956287],[7.444394615216348,-1.2071214393294945,-2.4456782494989384,-9.013772218264094],[-10.35797124800511,-3.9110364612516646,11.9804512745392,14.720184956327847]],"accuracy_validation":0.8444444444444444,"mse_training":0.2857142857142857,"accuracy_training":0.8571428571428571,"mse_validation":0.3111111111111111,"bias":-1.524911853278956E-15},{"epoch":54,"weights":[[4.5837219129619085,7.108040663172011,-8.815470265209957,-3.6182591733716807],[6.87062189645422,-1.5055554373628885,-2.847000696105178,-9.049382500640618],[-9.794924921257836,-3.615877645368617,12.33866583522689,14.736663060180428]],"accuracy_validation":0.9333333333333333,"mse_training":0.05714285714285714,"accuracy_training":0.9714285714285714,"mse_validation":0.13333333333333333,"bias":-1.6068848513547107E-15},{"epoch":53,"weights":[[4.587794467135298,7.109109862434195,-8.774191956568988,-3.6002845422397263],[6.862625533237609,-1.5318939513090362,-2.8539679310272246,-8.94948142667354],[-9.791001112214607,-3.590608330684653,12.304354761507968,14.618787355081395]],"accuracy_validation":0.9555555555555556,"mse_training":0.05714285714285714,"accuracy_training":0.9714285714285714,"mse_validation":0.08888888888888889,"bias":-1.5203197085551672E-15},{"epoch":52,"weights":[[4.605949997635655,7.111775332873759,-8.724518793192503,-3.5807626828940062],[6.897960174176514,-1.5092210651377254,-2.7877975081380915,-8.847970111589708],[-9.84449128365387,-3.6159466872955286,12.18851117524235,14.497754180651834]],"accuracy_validation":0.9555555555555556,"mse_training":0.05714285714285714,"accuracy_training":0.9714285714285714,"mse_validation":0.08888888888888889,"bias":-1.4794970320837035E-15},{"epoch":51,"weights":[[4.6247953432019555,7.107967690829619,-8.674032250694742,-3.5604705712371145],[6.906455707813206,-1.5077770784251354,-2.739451874272531,-8.758473771702256],[-9.871832162856848,-3.6135830319639743,12.089678998879032,14.387965729107487]],"accuracy_validation":0.9333333333333333,"mse_training":0.05714285714285714,"accuracy_training":0.9714285714285714,"mse_validation":0.13333333333333333,"bias":-1.3771019356017311E-15},{"epoch":50,"weights":[[4.618101902210228,7.084399642979301,-8.628068291748972,-3.539869309402172],[6.868370761797996,-1.5261422349203,-2.732979305136989,-8.691471059531851],[-9.827053775849912,-3.5716498276184927,12.037242470797722,14.300361755102136]],"accuracy_validation":0.9333333333333333,"mse_training":0.05714285714285714,"accuracy_training":0.9714285714285714,"mse_validation":0.13333333333333333,"bias":-1.2655706579673846E-15},{"epoch":49,"weights":[[4.596311527034352,7.050579201641333,-8.586241169394318,-3.5198674321224868],[6.845419338575552,-1.5369011828723524,-2.719128708840322,-8.624739715319757],[-9.782311977451588,-3.5270704383284737,11.981564752146397,14.213628533610365]],"accuracy_validation":0.9333333333333333,"mse_training":0.05714285714285714,"accuracy_training":0.9714285714285714,"mse_validation":0.13333333333333333,"bias":-1.1521445971609598E-15},{"epoch":48,"weights":[[4.575595580598012,7.015290176942852,-8.538897274605885,-3.497012165459328],[6.82027099942833,-1.5489895804895848,-2.707356741176402,-8.560217225814952],[-9.736447691868024,-3.4796930160127633,11.922448889694047,14.126250777442413]],"accuracy_validation":0.9333333333333333,"mse_training":0.05714285714285714,"accuracy_training":0.9714285714285714,"mse_validation":0.13333333333333333,"bias":-1.0854813435007906E-15},{"epoch":47,"weights":[[4.554871391236446,6.977972262430849,-8.486451041348422,-3.4715659648720574],[6.796293157338826,-1.559884681464855,-2.6979634154518046,-8.496334802187544],[-9.691745660416958,-3.431480000525493,11.860609330711986,14.036922153227746]],"accuracy_validation":0.9333333333333333,"mse_training":0.05714285714285714,"accuracy_training":0.9714285714285714,"mse_validation":0.13333333333333333,"bias":-1.1918684756494872E-15},{"epoch":46,"weights":[[4.535089650445481,6.936621009356405,-8.420423252993597,-3.439321845911852],[6.772774565042491,-1.5693999150631106,-2.6979995645324895,-8.439610232155623],[-9.648445327329663,-3.380613513852793,11.794617691437836,13.947953464235626]],"accuracy_validation":0.9333333333333333,"mse_training":0.05714285714285714,"accuracy_training":0.9714285714285714,"mse_validation":0.13333333333333333,"bias":-1.1090195854645033E-15},{"epoch":45,"weights":[[4.51028000734508,6.8899664756459185,-8.34721137729599,-3.40316010772247],[6.75366088900025,-1.5754967693731263,-2.7042839443515194,-8.387295762034947],[-9.60452200818702,-3.3278621258322865,11.727690195559264,13.859477255925574]],"accuracy_validation":0.9333333333333333,"mse_training":0.05714285714285714,"accuracy_training":0.9714285714285714,"mse_validation":0.13333333333333333,"bias":-9.648500711380619E-16},{"epoch":44,"weights":[[4.488785640010821,6.8449224412583165,-8.270248366271991,-3.3660408872525753],[6.73243952080768,-1.5816182525089868,-2.7133034226120776,-8.332366364215225],[-9.561806272660183,-3.2766966083088236,11.65974666279582,13.76742863763596]],"accuracy_validation":0.9333333333333333,"mse_training":0.05714285714285714,"accuracy_training":0.9714285714285714,"mse_validation":0.13333333333333333,"bias":-9.946011774783927E-16},{"epoch":43,"weights":[[4.4220550178446105,6.7764122278362935,-8.21626336681973,-3.3353182382315456],[6.706170925999386,-1.58568729514954,-2.7388870165666037,-8.28372421530233],[-9.468807055685682,-3.20411735224625,11.631345257298086,13.688063839702039]],"accuracy_validation":0.9333333333333333,"mse_training":0.05714285714285714,"accuracy_training":0.9714285714285714,"mse_validation":0.13333333333333333,"bias":-9.505691949137987E-16},{"epoch":42,"weights":[[4.393184503999478,6.740914198323527,-8.173260965020317,-3.315368553230254],[6.675050869487209,-1.5912955026764357,-2.7410360886162666,-8.202062834734878],[-9.408816485328376,-3.1630111152065905,11.590491927548348,13.586452774133292]],"accuracy_validation":0.9555555555555556,"mse_training":0.05714285714285714,"accuracy_training":0.9714285714285714,"mse_validation":0.08888888888888889,"bias":-9.892501542168696E-16},{"epoch":41,"weights":[[4.360072732521592,6.7027202956732435,-8.11317567449833,-3.288869326432298],[6.649433200237714,-1.6004600510008673,-2.756048113102851,-8.130031577996824],[-9.350087044601002,-3.1156526642318787,11.545418661512937,13.487922290597282]],"accuracy_validation":0.9555555555555556,"mse_training":0.05714285714285714,"accuracy_training":0.9714285714285714,"mse_validation":0.08888888888888889,"bias":-1.0097812159956474E-15},{"epoch":40,"weights":[[4.316061050783389,6.650446229383275,-8.051876023522047,-3.2642996627143637],[6.59604469214867,-1.5982341147998458,-2.769136941634001,-8.043227911973458],[-9.252686854773755,-3.0656045341429325,11.4972078390678,13.376548960855985]],"accuracy_validation":0.9555555555555556,"mse_training":0.05714285714285714,"accuracy_training":0.9714285714285714,"mse_validation":0.08888888888888889,"bias":-1.1428833262060667E-15},{"epoch":39,"weights":[[4.2731305970203,6.607308552066725,-7.996171382017555,-3.2402446023763294],[6.556777838421465,-1.6110047681194488,-2.7828534323788583,-7.957844508812979],[-9.17048954728346,-3.0096962035067767,11.455219688308162,13.26711049735747]],"accuracy_validation":0.9555555555555556,"mse_training":0.05714285714285714,"accuracy_training":0.9714285714285714,"mse_validation":0.08888888888888889,"bias":-9.868784570133364E-16},{"epoch":38,"weights":[[4.24579735790895,6.580248010914943,-7.954403517053532,-3.2200786469096103],[6.536399794685611,-1.6084073051127075,-2.8043249797205516,-7.855656733018338],[-9.122778264436256,-2.9852331253617383,11.434923370685842,13.144756766096119]],"accuracy_validation":0.9555555555555556,"mse_training":0.05714285714285714,"accuracy_training":0.9714285714285714,"mse_validation":0.08888888888888889,"bias":-8.944392038262816E-16},{"epoch":37,"weights":[[4.211750067737578,6.5520941962795325,-7.893639617264068,-3.1913134656513393],[6.533299312529644,-1.6227712866168105,-2.842323849673715,-7.759543055790612],[-9.08563049210893,-2.942715329222226,11.412158340849535,13.01987790761012]],"accuracy_validation":0.9555555555555556,"mse_training":0.05714285714285714,"accuracy_training":0.9714285714285714,"mse_validation":0.08888888888888889,"bias":-9.025055829254707E-16},{"epoch":36,"weights":[[4.182227645567843,6.526206233231435,-7.8221332114940445,-3.158375906029226],[6.5366176300303325,-1.6351121893631635,-2.878410297791499,-7.666358994638572],[-9.059426387439894,-2.9044864634277747,11.376738383197301,12.893756286835977]],"accuracy_validation":0.9555555555555556,"mse_training":0.05714285714285714,"accuracy_training":0.9714285714285714,"mse_validation":0.08888888888888889,"bias":-1.067605752986465E-15},{"epoch":35,"weights":[[4.142083603522372,6.492359192360179,-7.744556986462007,-3.1220087630164852],[6.541375839980073,-1.653541244318175,-2.9241133866822744,-7.573535226518073],[-9.024040555344165,-2.852210367601506,11.344865247056038,12.764565375702741]],"accuracy_validation":0.9555555555555556,"mse_training":0.05714285714285714,"accuracy_training":0.9714285714285714,"mse_validation":0.08888888888888889,"bias":-1.0171506492100791E-15},{"epoch":34,"weights":[[4.097473414228109,6.4543903272083565,-7.661611869767027,-3.0835010418271027],[6.548549503026118,-1.6711350018823392,-2.974657380439664,-7.470913563025432],[-8.986604029095943,-2.796647744885516,11.312464124118446,12.62343599102072]],"accuracy_validation":0.9333333333333333,"mse_training":0.05714285714285714,"accuracy_training":0.9714285714285714,"mse_validation":0.13333333333333333,"bias":-9.25807273161522E-16},{"epoch":33,"weights":[[4.03152884410222,6.400788948449008,-7.5905070967912245,-3.049857610293838],[6.489323767171458,-1.674317524910594,-2.9521792637233646,-7.3054353152649965],[-8.861433723115388,-2.7398638430979134,11.218881234426348,12.424314311727015]],"accuracy_validation":0.9555555555555556,"mse_training":0.05714285714285714,"accuracy_training":0.9714285714285714,"mse_validation":0.08888888888888889,"bias":-9.37493294489175E-16},{"epoch":32,"weights":[[3.9682330080403654,6.348708579616255,-7.52017057014636,-3.016822547780065],[6.429997148192899,-1.6744921235596921,-2.9227901222445554,-7.125173129305121],[-8.738811268074983,-2.6876088756160623,11.119155566302672,12.211017063253355]],"accuracy_validation":0.9555555555555556,"mse_training":0.05714285714285714,"accuracy_training":0.9714285714285714,"mse_validation":0.08888888888888889,"bias":-1.03074563102696E-15},{"epoch":31,"weights":[[3.9087042429548076,6.298351167879771,-7.449781726215389,-2.984198935209229],[6.368916837175858,-1.6717753861086715,-2.8905709566081823,-6.9368713491315885],[-8.618202191972383,-2.6399682013305994,11.016547556735336,11.990091670508992]],"accuracy_validation":0.9555555555555556,"mse_training":0.05714285714285714,"accuracy_training":0.9714285714285714,"mse_validation":0.08888888888888889,"bias":-1.0252031777172507E-15},{"epoch":30,"weights":[[3.853726434363984,6.2499997909800795,-7.379583919137755,-2.9522705016901454],[6.305772005983247,-1.6655924362434573,-2.857990299319729,-6.742348225450493],[-8.50007955218895,-2.597799774296119,10.913769092369252,11.763640113308814]],"accuracy_validation":0.9555555555555556,"mse_training":0.05714285714285714,"accuracy_training":0.9714285714285714,"mse_validation":0.08888888888888889,"bias":-9.698265586063913E-16},{"epoch":29,"weights":[[3.801818823717667,6.202702836321751,-7.309039573035389,-2.920596994278811],[6.241909971494657,-1.6577066593016918,-2.824689646728626,-6.544866495174193],[-8.38430990705405,-2.558388596579562,10.809924093675784,11.534484875621175]],"accuracy_validation":0.9555555555555556,"mse_training":0.05714285714285714,"accuracy_training":0.9714285714285714,"mse_validation":0.08888888888888889,"bias":-1.1735150209212163E-15},{"epoch":28,"weights":[[3.7517362289706466,6.155509142311886,-7.237297103738539,-2.8886358047819893],[6.177585434826581,-1.6506944586447057,-2.7887607405486032,-6.348481355715098],[-8.26990277563895,-2.5182071032266897,10.702252718198915,11.306138546665267]],"accuracy_validation":0.9555555555555556,"mse_training":0.05714285714285714,"accuracy_training":0.9714285714285714,"mse_validation":0.08888888888888889,"bias":-1.0123016908069607E-15},{"epoch":27,"weights":[[3.70289292965165,6.108103985035067,-7.164125761797558,-2.85621912770576],[6.112565257832187,-1.6453596311894871,-2.749766552472476,-6.156218588477389],[-8.156039299325549,-2.4761367734050883,10.590087188181801,11.081459102351332]],"accuracy_validation":0.9555555555555556,"mse_training":0.05714285714285714,"accuracy_training":0.9714285714285714,"mse_validation":0.08888888888888889,"bias":-7.464371882192257E-16},{"epoch":26,"weights":[[3.6555956390163953,6.061061182952679,-7.090714712151112,-2.82395943721928],[6.046801004338183,-1.638696014676052,-2.710189200715117,-5.967995725630146],[-8.042977755196294,-2.43575758783614,10.477098786777995,10.860976549017611]],"accuracy_validation":0.9555555555555556,"mse_training":0.05714285714285714,"accuracy_training":0.9714285714285714,"mse_validation":0.08888888888888889,"bias":-6.44457129047394E-16},{"epoch":25,"weights":[[3.609413662172384,6.0141865780157175,-7.016864679156522,-2.7917148446252447],[5.980603803712357,-1.6304643244625003,-2.671011107594295,-5.78405687044341],[-7.9305985777264585,-2.397114673112728,10.36407066066259,10.644793101236843]],"accuracy_validation":0.9555555555555556,"mse_training":0.05714285714285714,"accuracy_training":0.9714285714285714,"mse_validation":0.08888888888888889,"bias":-8.390161456504626E-16},{"epoch":24,"weights":[[3.5633584053667566,5.966738780541165,-6.941996240556913,-2.759103132977905],[5.914733062116132,-1.6227749751945646,-2.630968155123756,-5.604960954213235],[-7.818672579324604,-2.3573562249061104,10.24915926959244,10.43308547335933]],"accuracy_validation":0.9555555555555556,"mse_training":0.05714285714285714,"accuracy_training":0.9714285714285714,"mse_validation":0.08888888888888889,"bias":-6.710696250276772E-16},{"epoch":23,"weights":[[3.5177443647379554,5.918945731511704,-6.86598866070382,-2.7261155597275453],[5.849396711181744,-1.6130565117023903,-2.593465228890145,-5.428907141942764],[-7.707722187761415,-2.3192816393688203,10.135648763505728,10.224044087838498]],"accuracy_validation":0.9555555555555556,"mse_training":0.05714285714285714,"accuracy_training":0.9714285714285714,"mse_validation":0.08888888888888889,"bias":-7.497093413740536E-16},{"epoch":22,"weights":[[3.4722208497467206,5.870133264153765,-6.787102446650299,-2.6919717683224285],[5.784222008985236,-1.5994081750561533,-2.560607353146415,-5.254974721973326],[-7.597023970573675,-2.284117508657114,10.023904673708481,10.01596787646394]],"accuracy_validation":0.9555555555555556,"mse_training":0.05714285714285714,"accuracy_training":0.9714285714285714,"mse_validation":0.08888888888888889,"bias":-6.992619300103315E-16},{"epoch":21,"weights":[[3.4260407623675024,5.81926279484975,-6.7049508397220015,-2.6565435581570678],[5.718572164419599,-1.5849044053336454,-2.5295093535564934,-5.082459078249692],[-7.4851940386288165,-2.247750809075604,9.910655067190262,9.808024022574948]],"accuracy_validation":0.9555555555555556,"mse_training":0.05714285714285714,"accuracy_training":0.9714285714285714,"mse_validation":0.08888888888888889,"bias":-5.866587330939476E-16},{"epoch":20,"weights":[[3.3782575354394924,5.765211640863109,-6.618811800960225,-2.619489842509638],[5.652393387644716,-1.5696070484632412,-2.499568400032676,-4.9103474449845095],[-7.371232034925931,-2.2089970119593696,9.794575074904662,9.598858673662336]],"accuracy_validation":0.9555555555555556,"mse_training":0.05714285714285714,"accuracy_training":0.9714285714285714,"mse_validation":0.08888888888888889,"bias":-7.209406475438259E-16},{"epoch":19,"weights":[[3.3270747173884625,5.706942303639118,-6.530165753630179,-2.581185856421689],[5.585348013646168,-1.5498608425075637,-2.4735416024225847,-4.73581384795523],[-7.253003842876353,-2.1704738806910537,9.679902229964522,9.38602109054511]],"accuracy_validation":0.9555555555555556,"mse_training":0.05714285714285714,"accuracy_training":0.9714285714285714,"mse_validation":0.08888888888888889,"bias":-5.999872814261971E-16},{"epoch":18,"weights":[[3.236527062524085,5.617120768609999,-6.43621205561508,-2.5339732214580293],[5.924989620541007,-1.3626424312644454,-2.1986027359937563,-4.458299459521861],[-7.502097794906819,-2.267870756905053,9.311009665520592,9.061294067148085]],"accuracy_validation":0.7555555555555555,"mse_training":0.3238095238095238,"accuracy_training":0.8380952380952381,"mse_validation":0.4888888888888889,"bias":-5.214310754684523E-16},{"epoch":17,"weights":[[3.1940567980324475,5.527663828216852,-6.316165090232007,-2.4765338600779847],[5.894514091261809,-1.2510768229049722,-2.0736721704870558,-4.218135634676529],[-7.4291520011359795,-2.28997942487138,9.066032134630813,8.763690880922711]],"accuracy_validation":0.7333333333333333,"mse_training":0.4,"accuracy_training":0.8,"mse_validation":0.5333333333333333,"bias":-5.833436334779361E-16},{"epoch":16,"weights":[[3.028325700939556,5.390738086955667,-6.2698768752243845,-2.4467137420146194],[5.3513466304527695,-1.3477876752975595,-2.3772597260852186,-4.161073289444887],[-6.720253443234044,-2.0563428312176026,9.323331475221353,8.676808417627702]],"accuracy_validation":0.9555555555555556,"mse_training":0.05714285714285714,"accuracy_training":0.9714285714285714,"mse_validation":0.08888888888888889,"bias":-3.4887136260497696E-16},{"epoch":15,"weights":[[2.946529695907711,5.238023124120107,-6.079006471686155,-2.3596989370753847],[5.246741737758602,-1.2030521418952265,-2.3979805787672333,-4.0442790215425966],[-6.533852545508037,-2.04836340178437,9.153181924365128,8.472999344786173]],"accuracy_validation":0.9555555555555556,"mse_training":0.05714285714285714,"accuracy_training":0.9714285714285714,"mse_validation":0.08888888888888889,"bias":-3.1558840201875497E-16},{"epoch":14,"weights":[[2.9424006305066754,5.065507528643073,-5.693366457467043,-2.1990213283190885],[5.6746985999496085,-0.8025775862150832,-2.177938169581281,-3.783844379283393],[-6.957680342298015,-2.2763223619874795,8.547499500960054,8.051887093770674]],"accuracy_validation":0.6444444444444445,"mse_training":0.6095238095238096,"accuracy_training":0.6952380952380952,"mse_validation":0.7111111111111111,"bias":-4.991015866254685E-16},{"epoch":13,"weights":[[2.8516175660449,4.9691606870503415,-5.646304577832142,-2.1682650351290214],[5.112909279406209,-0.9310017075730636,-2.3629662274832977,-3.6799079398590195],[-6.305107957292839,-2.051551399036767,8.685465679227168,7.917194361156236]],"accuracy_validation":0.9333333333333333,"mse_training":0.09523809523809523,"accuracy_training":0.9523809523809523,"mse_validation":0.13333333333333333,"bias":-6.217600701865884E-16},{"epoch":12,"weights":[[2.778372419883659,4.881984194491913,-5.5908952710520685,-2.136097028968329],[4.983962122359773,-0.8882539288929906,-2.1361912469882487,-3.4534838968550696],[-6.10291565408516,-2.0071226851584125,8.403281391952042,7.6586023119915945]],"accuracy_validation":0.8888888888888888,"mse_training":0.11428571428571428,"accuracy_training":0.9428571428571428,"mse_validation":0.2222222222222222,"bias":-6.314757159133158E-16},{"epoch":11,"weights":[[2.708443762434794,4.800324223810756,-5.538765426118654,-2.1063561331682292],[4.768815961091587,-0.855040547574946,-1.8841952072555088,-3.286749427617689],[-5.817840835368107,-1.9586760957953013,8.099155507285888,7.4621269469541165]],"accuracy_validation":0.8888888888888888,"mse_training":0.13333333333333333,"accuracy_training":0.9333333333333333,"mse_validation":0.2222222222222222,"bias":-6.747675077958243E-16},{"epoch":10,"weights":[[2.6699375466879096,4.739695777729732,-5.4820736708495135,-2.0773328027092397],[4.55599729497788,-0.8760561203907876,-1.7805184029277747,-3.169936741168308],[-5.566515953507506,-1.877032076898432,7.938786947689009,7.316290930045743]],"accuracy_validation":0.9333333333333333,"mse_training":0.09523809523809523,"accuracy_training":0.9523809523809523,"mse_validation":0.13333333333333333,"bias":-6.850500059492833E-16},{"epoch":9,"weights":[[2.646831732571547,4.684415916658038,-5.40703310111756,-2.040646733431491],[4.5440193473310195,-0.7645810190824587,-1.3211471027627564,-2.811844496291365],[-5.531432191744282,-1.9332273171350687,7.404375077792036,6.921512615891052]],"accuracy_validation":0.7333333333333333,"mse_training":0.4,"accuracy_training":0.8,"mse_validation":0.5333333333333333,"bias":-7.07008231751231E-16},{"epoch":8,"weights":[[2.6271439367677147,4.647057723328641,-5.369403792320056,-2.022922845735814],[3.979662848701259,-0.8816423364835196,-1.2938615274764698,-2.6931394631677392],[-4.947387897310693,-1.7788078064046104,7.339460193708242,6.785083695071747]],"accuracy_validation":0.9333333333333333,"mse_training":0.05714285714285714,"accuracy_training":0.9714285714285714,"mse_validation":0.13333333333333333,"bias":-4.873892422996768E-16},{"epoch":7,"weights":[[2.4198358687641055,4.478147620200464,-5.346830648131902,-2.0032530361341347],[4.292033089621999,-0.6360580392438723,-0.6428509275204983,-2.20603764705255],[-5.05245007022783,-1.8554820005160828,6.665876449564117,6.2783120693548815]],"accuracy_validation":0.6444444444444445,"mse_training":0.8380952380952381,"accuracy_training":0.580952380952381,"mse_validation":0.7111111111111111,"bias":-4.333099087161347E-16},{"epoch":6,"weights":[[2.5371426506320893,4.383257649775856,-4.99790979348503,-1.8567135008668494],[4.014362743963235,-0.5170378204848127,-0.6298800036822941,-1.9428208663415913],[-4.892086506437046,-1.8796122488505305,6.3039846710790375,5.868555753376638]],"accuracy_validation":0.6666666666666666,"mse_training":0.6666666666666666,"accuracy_training":0.6666666666666666,"mse_validation":0.6666666666666666,"bias":-9.447448814540603E-17},{"epoch":5,"weights":[[2.163907039623947,4.01423726268017,-4.843342720791823,-1.761960666788858],[3.7798209061471746,-0.36778599746233276,-0.1960940066149598,-1.5688860634961088],[-4.284309057612842,-1.6598436847773266,5.715631601318492,5.399868116453161]],"accuracy_validation":0.5111111111111111,"mse_training":1.0476190476190477,"accuracy_training":0.47619047619047616,"mse_validation":0.9777777777777777,"bias":-5.671290378069022E-17},{"epoch":4,"weights":[[2.0648702296600363,3.6860825949341427,-4.355011315984564,-1.5729360527533172],[3.544419483710477,-0.06878341980067576,-0.25335902617168143,-1.3348754980829993],[-3.9498708252122365,-1.63069159469296,5.284565216067946,4.97683293700451]],"accuracy_validation":0.4888888888888889,"mse_training":1.2,"accuracy_training":0.4,"mse_validation":1.0222222222222221,"bias":-2.566973162668481E-16},{"epoch":3,"weights":[[2.0892307487796766,3.3653498643711672,-3.6958654764926915,-1.2501447512269728],[2.9106231696965743,0.040392264068946374,-0.3000362763969185,-1.005087246744196],[-3.340435030317972,-1.419134547999606,4.67209662680131,4.324253384139359]],"accuracy_validation":0.6444444444444445,"mse_training":0.6666666666666666,"accuracy_training":0.6666666666666666,"mse_validation":0.7111111111111111,"bias":-1.8073189620534166E-16},{"epoch":2,"weights":[[1.9045980326045862,2.8182996982434987,-3.029567476913269,-0.939719485844999],[2.230872345403067,0.22228668350221475,-0.3956942365004969,-0.6422516675137404],[-2.4760514898493726,-1.0539788013052067,4.101456587325468,3.6509925395269343]],"accuracy_validation":0.7333333333333333,"mse_training":0.4380952380952381,"accuracy_training":0.780952380952381,"mse_validation":0.5333333333333333,"bias":-2.62127146956545E-16},{"epoch":1,"weights":[[1.73129785828196,2.3617118283575897,-2.5852272268250145,-0.7323391520557582],[1.656856192615688,0.29829097584684683,-0.05423548227455274,-0.0011804410453602199],[-1.7287351627393681,-0.6733952237639297,3.315657583011269,2.8025409792693123]],"accuracy_validation":0.7333333333333333,"mse_training":0.4380952380952381,"accuracy_training":0.780952380952381,"mse_validation":0.5333333333333333,"bias":-2.3751186100086116E-16},{"epoch":0,"weights":[[1.4988346781980737,2.0002041945575972,-2.1866945568080656,-0.5483760947297132],[1.2011804415225666,0.3701894838443416,0.5813157516941574,0.7344003879633928],[-1.0405962315623583,-0.38378609796142926,2.281573679025609,1.8829970929345115]],"accuracy_validation":0.6444444444444445,"mse_training":0.6476190476190476,"accuracy_training":0.6761904761904762,"mse_validation":0.7111111111111111,"bias":-8.899698067327151E-17}]