[{"epoch":99,"weights":[[0.7544266161976929,1.4744746175311965,-0.7372510829156842,0.37093121533961626],[0.6741771426573697,0.1778280287476134,0.9628282959116431,-0.10645577911215642],[-0.20376049650281264,0.09346406774863855,1.5405202845165584,1.7171499180634109]],"accuracy_validation":0.9111111111111111,"mse_training":0.05714285714285714,"accuracy_training":0.9714285714285714,"mse_validation":0.17777777777777778,"bias":-5.680568862520548E-18},{"epoch":98,"weights":[[0.7528139890836182,1.4708254683394828,-0.7324409406140886,0.3731705420560524],[0.672082767801071,0.17814321446252307,0.9639556083525077,-0.10457359036238932],[-0.20005349453243906,0.09679803122544257,1.534582829774099,1.7130284025972085]],"accuracy_validation":0.9111111111111111,"mse_training":0.05714285714285714,"accuracy_training":0.9714285714285714,"mse_validation":0.17777777777777778,"bias":-5.671353144054423E-18},{"epoch":97,"weights":[[0.7511933312462711,1.4671545866465918,-0.7275996803668419,0.37542398975554386],[0.6699793814098681,0.1784650750165772,0.9650820538731578,-0.10268621673153228],[-0.19632945030388985,0.10014705236427907,1.5286151240062018,1.7088875812668602]],"accuracy_validation":0.9111111111111111,"mse_training":0.05714285714285714,"accuracy_training":0.9714285714285714,"mse_validation":0.17777777777777778,"bias":-5.856046984137327E-18},{"epoch":96,"weights":[[0.7495645303692509,1.4634616162694247,-0.7227267465703241,0.3776918099854772],[0.6678669301821898,0.17879374857465133,0.9662074808561262,-0.10079367778872945],[-0.19258819819919135,0.10351134918337249,1.5226167632267151,1.7047272220941245]],"accuracy_validation":0.9111111111111111,"mse_training":0.05714285714285714,"accuracy_training":0.9714285714285714,"mse_validation":0.17777777777777778,"bias":-6.705356755953846E-18},{"epoch":95,"weights":[[0.7479274708595025,1.4597461903254296,-0.7178215666048902,0.3799742620214677],[0.665745360584583,0.17912937704086088,0.9673317319826651,-0.09889599504526314],[-0.18882956909183596,0.10689114666115723,1.5165873321347418,1.7005470873146686]],"accuracy_validation":0.9111111111111111,"mse_training":0.05714285714285714,"accuracy_training":0.9714285714285714,"mse_validation":0.17777777777777778,"bias":-6.651742958524439E-18},{"epoch":94,"weights":[[0.7462820337002476,1.4560079307835494,-0.7128835501343049,0.38227161318732733],[0.6636146188550978,0.17947210618444562,0.9684546440157332,-0.09699319204035999],[-0.18505339020309577,0.11028667705945239,1.5105264036310884,1.6963469331439054]],"accuracy_validation":0.9111111111111111,"mse_training":0.05714285714285714,"accuracy_training":0.9714285714285714,"mse_validation":0.17777777777777778,"bias":-6.085355743618014E-18},{"epoch":93,"weights":[[0.7446280962955838,1.4522464479918298,-0.7079120883698061,0.38458413919129825],[0.6614746510069318,0.179822085771013,0.9695760475733701,-0.09508529443095119],[-0.18125948495026573,0.11369818026460389,1.5044335383089522,1.6921265095305258]],"accuracy_validation":0.9111111111111111,"mse_training":0.05714285714285714,"accuracy_training":0.9714285714285714,"mse_validation":0.17777777777777778,"bias":-5.984958622445858E-18},{"epoch":92,"weights":[[0.7429655323062051,1.4484613401802828,-0.702906553296679,0.386912124479532],[0.6593254028323565,0.18017946969942714,0.9706957668919447,-0.09317233008560284],[-0.17744767278631138,0.1171259041477365,1.4983082839172506,1.6878855598969438]],"accuracy_validation":0.9111111111111111,"mse_training":0.05714285714285714,"accuracy_training":0.9714285714285714,"mse_validation":0.17777777777777778,"bias":-5.092660234490288E-18},{"epoch":91,"weights":[[0.741294211475657,1.444652192937454,-0.6978662968610707,0.3892558626078659],[0.657166819906946,0.1805444161446527,0.9718136195787188,-0.09125432918284355],[-0.17361776903035137,0.12057010494533921,1.4921501747948702,1.6836238208658498]],"accuracy_validation":0.9111111111111111,"mse_training":0.05714285714285714,"accuracy_training":0.9714285714285714,"mse_validation":0.17777777777777778,"bias":-4.9340956667642814E-18},{"epoch":90,"weights":[[0.7396139994464833,1.440818578659062,-0.6927906501146209,0.39161565663302245],[0.6549988475941371,0.18091708770688525,0.9729294163531506,-0.08933132431413394],[-0.16976958468836892,0.1240310476614988,1.4859587312739877,1.6793410219719844]],"accuracy_validation":0.9111111111111111,"mse_training":0.05714285714285714,"accuracy_training":0.9714285714285714,"mse_validation":0.17777777777777778,"bias":-4.670634538850302E-18},{"epoch":89,"weights":[[0.7379247575655941,1.4369600559669382,-0.6876789223143039,0.3939918195244294],[0.6528214310501504,0.18129765156731498,0.97404296077631,-0.08740335059173775],[-0.1659029262634933,0.12750900649319338,1.4797334590505122,1.6750368853581805]],"accuracy_validation":0.8888888888888888,"mse_training":0.05714285714285714,"accuracy_training":0.9714285714285714,"mse_validation":0.2222222222222222,"bias":-4.721537830848497E-18},{"epoch":88,"weights":[[0.7362263426781087,1.433076169096383,-0.6825303999747048,0.39638467459796545],[0.6506345152292944,0.18168627965090314,0.9751540489677374,-0.08547044576177155],[-0.16201759555515208,0.13100426528016004,1.473473848519486,1.6707111254546774]],"accuracy_validation":0.8888888888888888,"mse_training":0.05714285714285714,"accuracy_training":0.9714285714285714,"mse_validation":0.2222222222222222,"bias":-4.478513913885872E-18},{"epoch":87,"weights":[[0.73451860690889,1.4291664472499095,-0.6773443458697243,0.39879455597300584],[0.6484380448896954,0.18208314879656842,0.9762624693090431,-0.0835326503227285],[-0.15811338944633424,0.13451711798096766,1.4671793740731975,1.6663634486405945]],"accuracy_validation":0.8888888888888888,"mse_training":0.05714285714285714,"accuracy_training":0.9714285714285714,"mse_validation":0.2222222222222222,"bias":-4.244326244629002E-18},{"epoch":86,"weights":[[0.732801397430912,1.425230403915182,-0.6721199979805194,0.4012218090542654],[0.6462319645994872,0.1824884409352137,0.9773680021334853,-0.08159000764979385],[-0.15419009967814803,0.13804786917704842,1.4608494933595502,1.6619935528863998]],"accuracy_validation":0.8888888888888888,"mse_training":0.05714285714285714,"accuracy_training":0.9714285714285714,"mse_validation":0.2222222222222222,"bias":-5.2992549584573995E-18},{"epoch":85,"weights":[[0.7310745562195446,1.4212675361448168,-0.6668565683862168,0.40366679104003467],[0.6440162187435017,0.18290234327605126,0.978470419400713,-0.07964256412528728],[-0.15024751261079536,0.14159683460657566,1.4544836464980195,1.6576011273761235]],"accuracy_validation":0.8888888888888888,"mse_training":0.05714285714285714,"accuracy_training":0.9714285714285714,"mse_validation":0.2222222222222222,"bias":-5.310639081268494E-18},{"epoch":84,"weights":[[0.7293379197917604,1.4172773237955079,-0.6615532420937036,0.40612987145853485],[0.6417907515305032,0.1833250485017149,0.9795694843558215,-0.07769036927559551],[-0.14628540897001266,0.14516434173022236,1.4480812552503979,1.6531858521079315]],"accuracy_validation":0.8888888888888888,"mse_training":0.05714285714285714,"accuracy_training":0.9714285714285714,"mse_validation":0.2222222222222222,"bias":-5.291231862381004E-18},{"epoch":83,"weights":[[0.7275913189291912,1.4132592287237655,-0.656209175802499,0.4086114327342395],[0.6395555070010182,0.1837567549726865,0.9806649511717803,-0.07573347591498046],[-0.14230356357795798,0.14875073033099254,1.4416417221432336,1.6487473974716125]],"accuracy_validation":0.8888888888888888,"mse_training":0.05714285714285714,"accuracy_training":0.9714285714285714,"mse_validation":0.2222222222222222,"bias":-4.6991490559866686E-18},{"epoch":82,"weights":[[0.725834578383874,1.409212693935349,-0.650823496600416,0.41111187078616146],[0.6373104290358137,0.18419766694159884,0.9817565645742551,-0.07377194029667666],[-0.13830174506743606,0.15235635315049564,1.4351644295386763,1.6442854238013869]],"accuracy_validation":0.8888888888888888,"mse_training":0.05714285714285714,"accuracy_training":0.9714285714285714,"mse_validation":0.2222222222222222,"bias":-3.900308895299351E-18},{"epoch":81,"weights":[[0.7240675165654351,1.4051371426852124,-0.645395300585392,0.413631595660254],[0.6350554613650857,0.1846479947780172,0.9828440594477562,-0.0718058222717213],[-0.13427971557826907,0.15598157656421405,1.4286487386501514,1.6397995809023393]],"accuracy_validation":0.8888888888888888,"mse_training":0.05714285714285714,"accuracy_training":0.9714285714285714,"mse_validation":0.2222222222222222,"bias":-4.3848388461831215E-18},{"epoch":80,"weights":[[0.722289945208356,1.4010319775245648,-0.6399236514084892,0.41617103219824514],[0.632790547578415,0.18510795520434717,0.9839271604219818,-0.06983518545599274],[-0.1302372304345192,0.15962678129853264,1.422093988499023,1.6352895075486198]],"accuracy_validation":0.8888888888888888,"mse_training":0.05714285714285714,"accuracy_training":0.9714285714285714,"mse_validation":0.2222222222222222,"bias":-3.43193355678561E-18},{"epoch":79,"weights":[[0.7205016690178452,1.3968965792913646,-0.6344075787326904,0.41873062074541406],[0.630515631135575,0.18557777154356522,0.9850055814371393,-0.06786009740596458],[-0.12617403780116812,0.16329236319251478,1.4154994948080664,1.6307548309514228]],"accuracy_validation":0.8888888888888888,"mse_training":0.05714285714285714,"accuracy_training":0.9714285714285714,"mse_validation":0.2222222222222222,"bias":-2.6541269182445095E-18},{"epoch":78,"weights":[[0.7187024852927317,1.39273030604027,-0.628846076601672,0.4213108179000098],[0.6282306553782568,0.18605767397951548,0.986079025286936,-0.06588062980372494],[-0.12208987831873605,0.16697873400765856,1.408864548827251,1.6261951661945877]],"accuracy_validation":0.8888888888888888,"mse_training":0.05714285714285714,"accuracy_training":0.9714285714285714,"mse_validation":0.2222222222222222,"bias":-2.746609363557523E-18},{"epoch":77,"weights":[[0.7168921835236381,1.3885324919077238,-0.6232381017122608,0.42391209730724205],[0.6259355635428129,0.18654789983057588,0.9871471831378346,-0.06389685865184641],[-0.11798448471419816,0.17068632228914388,1.4021884160869413,1.6216101156354776]],"accuracy_validation":0.8888888888888888,"mse_training":0.05714285714285714,"accuracy_training":0.9714285714285714,"mse_validation":0.2222222222222222,"bias":-1.7505528276950886E-18},{"epoch":76,"weights":[[0.7150705449645777,1.3843024459075208,-0.6175825715837879,0.4265349505010132],[0.6236302987740932,0.1870486938375575,0.9882097340230794,-0.06190886447873815],[-0.11385758138641826,0.17441557428236573,1.395470335073223,1.6169992682685974]],"accuracy_validation":0.8888888888888888,"mse_training":0.05714285714285714,"accuracy_training":0.9714285714285714,"mse_validation":0.2222222222222222,"bias":-1.886186519473026E-18},{"epoch":75,"weights":[[0.7132373421759105,1.3800394506517963,-0.6118783626169632,0.42917988779681676],[0.6213148041405061,0.1875603084667622,0.9892663443098642,-0.059916732555157615],[-0.10970888396416387,0.17816695490888393,1.388709515819613,1.6123621990492147]],"accuracy_validation":0.8888888888888888,"mse_training":0.05714285714285714,"accuracy_training":0.9714285714285714,"mse_validation":0.2222222222222222,"bias":-1.783837834390394E-18},{"epoch":74,"weights":[[0.7113923385364594,1.3757427609919726,-0.6061243080342923,0.4318474392395297],[0.6189890226503925,0.18808300422919833,0.9903166671379101,-0.05792055312261306],[-0.10553809883459898,0.18194094880627282,1.381905138408896,1.6076984681739561]],"accuracy_validation":0.8888888888888888,"mse_training":0.05714285714285714,"accuracy_training":0.9714285714285714,"mse_validation":0.2222222222222222,"bias":-1.690488027339392E-18},{"epoch":73,"weights":[[0.709535287722362,1.371411602573665,-0.6003191956933746,0.4345381556101294],[0.6166528972698557,0.18861705001703355,0.9913603418275778,-0.05592042163444085],[-0.10134492263996567,0.1857380614367458,1.3750563513783105,1.6030076203151848]],"accuracy_validation":0.8888888888888888,"mse_training":0.05714285714285714,"accuracy_training":0.9714285714285714,"mse_validation":0.2222222222222222,"bias":-1.554312234475213E-18},{"epoch":72,"weights":[[0.7076659331500295,1.3670451702991402,-0.594461765763684,0.4372526094957269],[0.6143063709421842,0.1891627234584384,0.9923969932555062,-0.053916439010404736],[-0.09712904173996247,0.18955882026986495,1.3681622700206932,1.59828918380555]],"accuracy_validation":0.8888888888888888,"mse_training":0.05714285714285714,"accuracy_training":0.9714285714285714,"mse_validation":0.2222222222222222,"bias":-3.753507921144752E-19},{"epoch":71,"weights":[[0.7057840073803436,1.3626426266902445,-0.5885507082566074,0.4399913964276812],[0.6119493866090137,0.18972031129207984,0.9934262311956007,-0.051908711905727274],[-0.09289013163710604,0.19340377604511935,1.3612219745735223,1.5935426697689188]],"accuracy_validation":0.8888888888888888,"mse_training":0.05714285714285714,"accuracy_training":0.9714285714285714,"mse_validation":0.2222222222222222,"bias":-1.895185397504598E-19},{"epoch":70,"weights":[[0.7038892314809504,1.3582031001441541,-0.5825846603976172,0.4427551360929842],[0.6095818872334068,0.19029010976260677,0.9944476496230407,-0.04989735299553835],[-0.08862785636210545,0.19727350412068353,1.3542345082870924,1.5887675711934257]],"accuracy_validation":0.8888888888888888,"mse_training":0.05714285714285714,"accuracy_training":0.9714285714285714,"mse_validation":0.2222222222222222,"bias":-2.9902295917149558E-19},{"epoch":69,"weights":[[0.7019813143432452,1.3537256830736042,-0.5765622038284816,0.44554447362457583],[0.6072038158250237,0.19087242503859222,0.9954608259787836,-0.047882481275799714],[-0.08434186781601768,0.20116860591524846,1.3471988753622142,1.5839633619420943]],"accuracy_validation":0.8888888888888888,"mse_training":0.05714285714285714,"accuracy_training":0.9714285714285714,"mse_validation":0.2222222222222222,"bias":-5.219349258345159E-19},{"epoch":68,"weights":[[0.7000599519502856,1.3492094299224848,-0.5704818616262953,0.4483600809767489],[0.6048151154676065,0.191467573654503,0.996465320391842,-0.04586422238185177],[-0.08003180506564053,0.20508971045045743,1.3401140387469708,1.579129495695973]],"accuracy_validation":0.8888888888888888,"mse_training":0.05714285714285714,"accuracy_training":0.9714285714285714,"mse_validation":0.2222222222222222,"bias":6.954072734322086E-19},{"epoch":67,"weights":[[0.6981248265915407,1.3446533550468496,-0.564342095124937,0.4512026583923832],[0.6024157293489832,0.19207588297840292,0.997460674856402,-0.04384270892581879],[-0.07569729358827242,0.20903747600219333,1.332978917781052,1.5742654048243057]],"accuracy_validation":0.8888888888888888,"mse_training":0.05714285714285714,"accuracy_training":0.9714285714285714,"mse_validation":0.2222222222222222,"bias":1.5207019671281745E-18},{"epoch":66,"weights":[[0.6961756060199829,1.3400564304504632,-0.5581413005231982,0.4540729359693612],[0.6000056007938558,0.19269769170723053,0.9984464123606123,-0.041818080854209926],[-0.07133794446158695,0.21301259186975216,1.3257923856751022,1.5693704991757191]],"accuracy_validation":0.8888888888888888,"mse_training":0.05714285714285714,"accuracy_training":0.9714285714285714,"mse_validation":0.2222222222222222,"bias":1.5937771935536968E-18},{"epoch":65,"weights":[[0.69421194254658,1.3354175833629869,-0.5518778052623857,0.45697167533421856],[0.5975846732996437,0.1933333503916465,0.9994220359636161,-0.03979048582716053],[-0.06695335349397191,0.21701578027281246,1.3185532668112858,1.5644441647838128]],"accuracy_validation":0.8888888888888888,"mse_training":0.05714285714285714,"accuracy_training":0.9714285714285714,"mse_validation":0.2222222222222222,"bias":1.5300261058115493E-18},{"epoch":64,"weights":[[0.6922334720667823,1.3307356936477448,-0.5455498641545308,0.45989967143184907],[0.5951528905756823,0.19398322199261278,1.0003870278171134,-0.037760079620878705],[-0.0625431002902125,0.22104779838708793,1.3112603338499325,1.5594857624799003]],"accuracy_validation":0.8888888888888888,"mse_training":0.05714285714285714,"accuracy_training":0.9714285714285714,"mse_validation":0.2222222222222222,"bias":1.1587952819525128E-18},{"epoch":63,"weights":[[0.6902398130130276,1.326009591024771,-0.5391556552405584,0.462857754440929],[0.5927101965861243,0.19464768247204337,1.0013408481274575,-0.03572702655498883],[-0.05810674724689928,0.22510944053063014,1.3039123046256145,1.5544946264049306]],"accuracy_validation":0.8888888888888888,"mse_training":0.05714285714285714,"accuracy_training":0.9714285714285714,"mse_validation":0.2222222222222222,"bias":-9.844555726167799E-20},{"epoch":62,"weights":[[0.6882305652267096,1.321238052093414,-0.5326932753557322,0.465846791825684],[0.5902565355969048,0.19532712142006659,1.0022829340539363,-0.03369149994660726],[-0.053643838471362386,0.229201540513963,1.2965078388143076,1.549470062411793]],"accuracy_validation":0.8888888888888888,"mse_training":0.05714285714285714,"accuracy_training":0.9714285714285714,"mse_validation":0.2222222222222222,"bias":-3.2591117304913702E-19},{"epoch":61,"weights":[[0.686205308742368,1.3164197971372091,-0.5261607353774517,0.4688676905356635],[0.5877918522271989,0.19602194272165535,1.0032126985385452,-0.031653682593134544],[-0.049153898617314035,0.2333249741685793,1.2890455343514178,1.5444113463483404]],"accuracy_validation":0.8888888888888888,"mse_training":0.05714285714285714,"accuracy_training":0.9714285714285714,"mse_validation":0.2222222222222222,"bias":-7.95804394604355E-19},{"epoch":60,"weights":[[0.6841636024760978,1.3115534866919871,-0.5195559551280092,0.47192139936637134],[0.5853160915058171,0.1967325652656195,1.0041295290621552,-0.029613767285919895],[-0.04463643162966153,0.2374806620698377,1.2815239235783653,1.5393177222104188]],"accuracy_validation":0.8888888888888888,"mse_training":0.05714285714285714,"accuracy_training":0.9714285714285714,"mse_validation":0.2222222222222222,"bias":-1.396452398161279E-19},{"epoch":59,"weights":[[0.6821049828093555,1.3066377178562414,-0.5128767579020872,0.4750089114949032],[0.582829198933065,0.19745942369920885,1.0050327863215673,-0.027571957357132342],[-0.04009091939016715,0.24166957247199458,1.2739414690930302,1.5341884001530999]],"accuracy_validation":0.8888888888888888,"mse_training":0.05714285714285714,"accuracy_training":0.9714285714285714,"mse_validation":0.2222222222222222,"bias":-1.2529040305242442E-18},{"epoch":58,"weights":[[0.6800289620583672,1.30167102032058,-0.5061208645857048,0.4781312672062149],[0.5803311205486275,0.1982029692318648,1.0059218028214678,-0.025528467262373126],[-0.035516820254741725,0.24589272447499982,1.2662965592767474,1.5290225543470288]],"accuracy_validation":0.8888888888888888,"mse_training":0.05714285714285714,"accuracy_training":0.9714285714285714,"mse_validation":0.2222222222222222,"bias":-8.161873954470826E-19},{"epoch":57,"weights":[[0.677935026818296,1.2966518520906642,-0.4992858873298249,0.4812895568272705],[0.5778218030061192,0.19896367049196448,1.006795881374789,-0.023483523201779658],[-0.03091356747216195,0.2501511914448166,1.2585875034675444,1.5238193206653805]],"accuracy_validation":0.8888888888888888,"mse_training":0.0761904761904762,"accuracy_training":0.9619047619047619,"mse_validation":0.2222222222222222,"bias":-3.9811903773667257E-19},{"epoch":56,"weights":[[0.6758226361701252,1.291578594875273,-0.49236932273793427,0.4844849238881756],[0.5753011936550085,0.19974201444074535,1.0076542935044577,-0.021437363782607546],[-0.026280567472879816,0.25444610471142776,1.2508125267459849,1.5185777941853043]],"accuracy_validation":0.8888888888888888,"mse_training":0.0761904761904762,"accuracy_training":0.9619047619047619,"mse_validation":0.2222222222222222,"bias":1.9472271017840125E-19},{"epoch":55,"weights":[[0.6736912197368669,1.2864495491080852,-0.4853685445225513,0.48771856853143736],[0.5727692406307193,0.20053850734796982,1.0084962777388609,-0.019390240726533118],[-0.021617198015331768,0.2587786575713906,1.2429697642961985,1.513297026485968]],"accuracy_validation":0.8888888888888888,"mse_training":0.09523809523809523,"accuracy_training":0.9523809523809523,"mse_validation":0.2222222222222222,"bias":-1.1579279202145137E-18},{"epoch":54,"weights":[[0.6715401755741873,1.2812629285682862,-0.4782807955806808,0.4909917511928355],[0.5702258929537961,0.20135367583429978,1.009321037792769,-0.01734241962520018],[-0.016922806175728743,0.2631501096248603,1.2350572553004193,1.5079760227232355]],"accuracy_validation":0.8888888888888888,"mse_training":0.09523809523809523,"accuracy_training":0.9523809523809523,"mse_validation":0.2222222222222222,"bias":-1.186117176699137E-18},{"epoch":53,"weights":[[0.6693688678788066,1.2760168545611985,-0.47110317943271957,0.49430579657998147],[0.567671100639151,0.20218806798580027,1.0101277406247002,-0.015294180747837166],[-0.01219670616570276,0.2675617914804477,1.2270729363205264,1.5026137384587257]],"accuracy_validation":0.8888888888888888,"mse_training":0.09523809523809523,"accuracy_training":0.9523809523809523,"mse_validation":0.2222222222222222,"bias":-1.0855032150924823E-18},{"epoch":52,"weights":[[0.6671766244960997,1.2707093496157575,-0.46383265096307147,0.49766209797759436],[0.5651048148165136,0.2030422545464887,1.0109155143609554,-0.013245819905103958],[-0.0074381769603584615,0.2720151098652003,1.2190146341146257,1.4972090762183794]],"accuracy_validation":0.8888888888888888,"mse_training":0.09523809523809523,"accuracy_training":0.9523809523809523,"mse_validation":0.2222222222222222,"bias":-2.6801477703841145E-19},{"epoch":51,"weights":[[0.6649627342060862,1.2653383306506392,-0.45646600639368795,0.5010621219118493],[0.5625269878633848,0.20391683019538295,1.011683446075722,-0.011197649373686334],[-0.0026464597172160794,0.27651155318142406,1.2108800578304761,1.4917608817527066]],"accuracy_validation":0.8888888888888888,"mse_training":0.09523809523809523,"accuracy_training":0.9523809523809523,"mse_validation":0.2222222222222222,"bias":-7.329206686001957E-19},{"epoch":50,"weights":[[0.6627264437645055,1.259901601555212,-0.44899987241378125,0.5045074132099163],[0.5599375735519377,0.20481241491510954,1.0124305794157544,-0.009149998886544844],[0.002179245035811285,0.28105269755712503,1.202666790510538,1.486267939967498]],"accuracy_validation":0.8888888888888888,"mse_training":0.09523809523809523,"accuracy_training":0.9523809523809523,"mse_validation":0.2222222222222222,"bias":-1.5304597866805338E-18},{"epoch":49,"weights":[[0.6604669546727718,1.254396845125075,-0.4414306943799265,0.5079996004950816],[0.5573365272115398,0.2057296554597746,1.0131559120571094,-0.007103216694149767],[0.0070397804679428865,0.28564021344259805,1.194372279835328,1.4807289704899387]],"accuracy_validation":0.8888888888888888,"mse_training":0.09523809523809523,"accuracy_training":0.9523809523809523,"mse_validation":0.2222222222222222,"bias":-1.3448443747510155E-18},{"epoch":48,"weights":[[0.6581834196473423,1.2488216142846424,-0.43375472349051303,0.5115404021626839],[0.5547238059087772,0.20666922693053755,1.0138583929804412,-0.005057670702488089],[0.011936036796134697,0.29027587281226636,1.185993828022583,1.4751426228306743]],"accuracy_validation":0.8888888888888888,"mse_training":0.09523809523809523,"accuracy_training":0.9523809523809523,"mse_validation":0.2222222222222222,"bias":-2.667571025183331E-18},{"epoch":47,"weights":[[0.6558749387552713,1.24317332252095,-0.4259680028268444,0.5151316328876409],[0.5520993686471642,0.20763183446811262,1.0145369195501595,-0.0030137496941200375],[0.016868954949818837,0.2949615570383829,1.1775285807891944,1.4695074710973488]],"accuracy_validation":0.8888888888888888,"mse_training":0.09523809523809523,"accuracy_training":0.9523809523809523,"mse_validation":0.2222222222222222,"bias":-3.3571236068841123E-18},{"epoch":46,"weights":[[0.6535405551784012,1.2374492334433118,-0.41806635213989574,0.5187752107205987],[0.5494631765890298,0.20861821507229736,1.015190334381602,-9.718646390911434E-4],[0.02183953058482382,0.29969926551183695,1.1689735152708036,1.4638220082093616]],"accuracy_validation":0.8666666666666667,"mse_training":0.09523809523809523,"accuracy_training":0.9523809523809523,"mse_validation":0.26666666666666666,"bias":-2.3527187142935415E-18},{"epoch":45,"weights":[[0.6511792505636963,1.231646449372659,-0.41004535124656155,0.5224731648369677],[0.5468151933024712,0.2096291395595979,1.015817421979032,0.0010675498969326413],[0.026848818486086935,0.3044911250951889,1.1603254267800411,1.4580846395569687]],"accuracy_validation":0.8444444444444444,"mse_training":0.11428571428571428,"accuracy_training":0.9428571428571428,"mse_validation":0.3111111111111111,"bias":-2.8982892474882473E-18},{"epoch":44,"weights":[[0.6487899399115016,1.225761898851909,-0.4019003218818636,0.5262276440113081],[0.5441553850367226,0.21066541467106403,1.0164169051259762,0.0031040342393385744],[0.03189793740403006,0.3093394005044719,1.1515809142683988,1.452293676040222]],"accuracy_validation":0.8444444444444444,"mse_training":0.11428571428571428,"accuracy_training":0.9428571428571428,"mse_validation":0.3111111111111111,"bias":-2.1792463666958602E-18},{"epoch":43,"weights":[[0.6463714659468995,1.219792322954381,-0.39362630783369057,0.5300409258989884],[0.5414837210298361,0.21172788534362819,1.016987441007959,0.005137101977453556],[0.03698807537551875,0.31424650572943635,1.1427363643382429,1.4464473264144266]],"accuracy_validation":0.8444444444444444,"mse_training":0.11428571428571428,"accuracy_training":0.9428571428571428,"mse_validation":0.3111111111111111,"bias":-1.3968860790303201E-18},{"epoch":42,"weights":[[0.6439225929116862,1.213734260250809,-0.38521805316378205,0.5339154272178934],[0.538800173853245,0.21281743715950574,1.0175276170462038,0.007166238214386213],[0.04212049558732332,0.31921501661713064,1.1337879336300896,1.4405436888585885]],"accuracy_validation":0.8222222222222222,"mse_training":0.13333333333333333,"accuracy_training":0.9333333333333333,"mse_validation":0.35555555555555557,"bias":-1.4315805485498563E-18},{"epoch":41,"weights":[[0.641441999705588,1.2075840302764747,-0.3766699782923492,0.5378537149354488],[0.5361047197985837,0.2139349989896326,1.0180359464194273,0.009190897683892023],[0.047296542848083926,0.32424768476133853,1.1247315293854343,1.4345807416715273]],"accuracy_validation":0.8222222222222222,"mse_training":0.13333333333333333,"accuracy_training":0.9333333333333333,"mse_validation":0.35555555555555557,"bias":-4.514617846229601E-19},{"epoch":40,"weights":[[0.6389282722949833,1.2013377153179108,-0.36797615369337494,0.54185851858068],[0.533397339313097,0.21508154584865039,1.018510863249317,0.011210502723640542],[0.052517650744175394,0.3293474528608843,1.1155627879565715,1.4285563329865476]],"accuracy_validation":0.8222222222222222,"mse_training":0.13333333333333333,"accuracy_training":0.9333333333333333,"mse_validation":0.35555555555555557,"bias":-1.0247878934332951E-18},{"epoch":39,"weights":[[0.6363798952952798,1.1949911403131144,-0.35913027091253896,0.5459327438177158],[0.5306780174912067,0.2162581019806472,1.0189507174238577,0.013224441093590162],[0.057785349565769556,0.33451747173368523,1.106277051001194,1.4224681693795616]],"accuracy_validation":0.8222222222222222,"mse_training":0.13333333333333333,"accuracy_training":0.9333333333333333,"mse_validation":0.35555555555555557,"bias":-4.3151246464922725E-19},{"epoch":38,"weights":[[0.6337952426189121,1.188539850629434,-0.3501256105790558,0.5500794874365169],[0.5279467446312192,0.2174657441967128,1.0193537690313716,0.015232063627531692],[0.06310127510212422,0.33976111920129987,1.0968693390601971,1.4163138032268185]],"accuracy_validation":0.8222222222222222,"mse_training":0.13333333333333333,"accuracy_training":0.9333333333333333,"mse_validation":0.35555555555555557,"bias":-8.756016744992902E-19},{"epoch":37,"weights":[[0.6311725670642525,1.1819790874486888,-0.34095500703550374,0.5543020539391178],[0.5252035168680165,0.2187056054873903,1.019718182377003,0.01723268170529057],[0.06846717841998647,0.34508202109136693,1.087334322171014,1.4100906186464595]],"accuracy_validation":0.8222222222222222,"mse_training":0.13333333333333333,"accuracy_training":0.9333333333333333,"mse_validation":0.35555555555555557,"bias":-2.0847039372551242E-18},{"epoch":36,"weights":[[0.6285099887010674,1.1753037604484933,-0.33161080915475866,0.5586039739259048],[0.5224483368947827,0.21997887893531357,1.0200420195526616,0.019225564532626565],[0.07388493675640631,0.3504840746436388,1.0776662871146088,1.403795815832337]],"accuracy_validation":0.8222222222222222,"mse_training":0.13333333333333333,"accuracy_training":0.9333333333333333,"mse_validation":0.35555555555555557,"bias":-2.657162684327471E-18},{"epoch":35,"weights":[[0.6258054818848968,1.1685084174213038,-0.3220848368490596,0.562989024517067],[0.5196812147896395,0.22128682195571395,1.0203232335311934,0.021209936215600467],[0.07935656567772004,0.3559714746504272,1.0678591008303797,1.3974263935582019]],"accuracy_validation":0.8222222222222222,"mse_training":0.13333333333333333,"accuracy_training":0.9333333333333333,"mse_validation":0.35555555555555557,"bias":-2.905228141392155E-18},{"epoch":34,"weights":[[0.6230568607051343,1.1615872104168463,-0.3123683327012766,0.5674612520802201],[0.5169021689665837,0.2226307608950753,1.0205596607560596,0.02318497261619528],[0.08488423268053753,0.3615487427155231,1.0579061694577307,1.3909791295944551]],"accuracy_validation":0.8222222222222222,"mse_training":0.13333333333333333,"accuracy_training":0.9333333333333333,"mse_validation":0.35555555555555557,"bias":-3.2192130905439575E-18},{"epoch":33,"weights":[[0.6202617626387141,1.1545338579277584,-0.3024519080606233,0.5720249975772607],[0.514111227274524,0.22401209602099878,1.0207490131995067,0.025149797976398762],[0.09047027243901776,0.3672207600786882,1.04780039237363,1.3844505587372118]],"accuracy_validation":0.8222222222222222,"mse_training":0.13333333333333333,"accuracy_training":0.9333333333333333,"mse_validation":0.35555555555555557,"bias":-3.8402440949436546E-18},{"epoch":32,"weights":[[0.6174176301419999,1.1473416025604701,-0.2923254828418932,0.5766849248929906],[0.5113084282738554,0.2254323069393215,1.0208888698653358,0.027103481298958055],[0.09611720393640137,0.3729928045276534,1.0375341104890705,1.3778369480989237]],"accuracy_validation":0.8222222222222222,"mse_training":0.13333333333333333,"accuracy_training":0.9333333333333333,"mse_validation":0.35555555555555557,"bias":-3.9790219730218E-18},{"epoch":31,"weights":[[0.6145216898663465,1.1400031635410843,-0.2819782181458516,0.581446052566377],[0.5084938227271415,0.2268929584776854,1.0209766677177803,0.029045032474837442],[0.10182774975876902,0.3788705920086754,1.0270990479405833,1.3711342692496578]],"accuracy_validation":0.8222222222222222,"mse_training":0.13333333333333333,"accuracy_training":0.9333333333333333,"mse_validation":0.35555555555555557,"bias":-5.21241036444131E-18},{"epoch":30,"weights":[[0.6115709291259745,1.1325106832962848,-0.2713984406751404,0.5863137894142598],[0.5056674753496492,0.22839570707805035,1.0210096920263578,0.03097339815037028],[0.10760485787663394,0.3848603236531098,1.0164862461612942,1.3643381667262426]],"accuracy_validation":0.8,"mse_training":0.13333333333333333,"accuracy_training":0.9333333333333333,"mse_validation":0.4,"bias":-6.412839009817261E-18},{"epoch":29,"weights":[[0.6085620691781195,1.1248556672184613,-0.26057355775063684,0.5912939746189653],[0.5028294668772539,0.22994230774404023,1.0209850661290205,0.03288745733163179],[0.11345172629688371,0.39096873906494345,1.0056859891341288,1.357443922340276]],"accuracy_validation":0.8,"mse_training":0.1523809523809524,"accuracy_training":0.9238095238095239,"mse_validation":0.4,"bias":-7.238567384382223E-18},{"epoch":28,"weights":[[0.6054915347919684,1.1170289155676518,-0.24948996153253886,0.5963929229482078],[0.4999798965245241,0.2315346215924215,1.0208997406341227,0.034786016730264505],[0.11937183103576536,0.39720317686737266,0.9946877184109292,1.3504464146124002]],"accuracy_validation":0.8,"mse_training":0.1523809523809524,"accuracy_training":0.9238095238095239,"mse_validation":0.4,"bias":-7.196934020958781E-18},{"epoch":27,"weights":[[0.6023554194811036,1.1090204462750324,-0.23813292081227225,0.6016174758909807],[0.497118884925643,0.23317462406133216,1.0207504821076343,0.036667805864681886],[0.12536895794551148,0.40357164369108106,0.9834799362171519,1.34334007253521]],"accuracy_validation":0.8,"mse_training":0.17142857142857143,"accuracy_training":0.9142857142857143,"mse_validation":0.4,"bias":-7.078972824592357E-18},{"epoch":26,"weights":[[0.5991494456494699,1.1008194071865862,-0.22648645845819504,0.6069750596305077],[0.49424657767685237,0.23486441383092574,1.0205338613285453,0.03853147194435413],[0.13144723902593566,0.4100828930099337,0.9720500946421627,1.3361188227160101]],"accuracy_validation":0.8,"mse_training":0.17142857142857143,"accuracy_training":0.9142857142857143,"mse_validation":0.4,"bias":-7.238567384382224E-18},{"epoch":25,"weights":[[0.5958689187473071,1.0924139760125666,-0.214533212261144,0.612473750939405],[0.4913631496332961,0.23660622251464755,1.0202462412465607,0.040375574584273426],[0.13761119397165425,0.4167465155002322,0.9603844685270961,1.3287760287671933]],"accuracy_validation":0.8,"mse_training":0.19047619047619047,"accuracy_training":0.9047619047619048,"mse_validation":0.4,"bias":-6.905500476994674E-18},{"epoch":24,"weights":[[0.5925086743435903,1.083791245917969,-0.2022542765244959,0.618122352278192],[0.488468810158415,0.23840242518106627,1.019883764847126,0.04219858042378455],[0.14386577785025192,0.42357304292841064,0.9484680091898828,1.3213044215888956]],"accuracy_validation":0.8,"mse_training":0.19047619047619047,"accuracy_training":0.9047619047619048,"mse_validation":0.4,"bias":-6.912439370898583E-18},{"epoch":23,"weights":[[0.5890630167854208,1.0749370942880974,-0.18962902126525058,0.6239304776128318],[0.4855638095842335,0.24025555176657187,1.0194423432272097,0.043998857761616356],[0.15021643598260265,0.4305740679727771,0.9362841755505541,1.3136960189164226]],"accuracy_validation":0.7777777777777778,"mse_training":0.19047619047619047,"accuracy_training":0.9047619047619048,"mse_validation":0.4444444444444444,"bias":-7.08244227154431E-18},{"epoch":22,"weights":[[0.585525647819882,1.065836031715197,-0.1766348853232793,0.6299086507474662],[0.48264844722136524,0.24216829943766208,1.0189176443211112,0.04577467137113569],[0.15666916731100966,0.43776238287458646,0.92381473851468,1.3059420321722692]],"accuracy_validation":0.7777777777777778,"mse_training":0.20952380952380953,"accuracy_training":0.8952380952380953,"mse_validation":0.4444444444444444,"bias":-6.8291726440516976E-18},{"epoch":21,"weights":[[0.5818895831835251,1.0564710276569917,-0.16324713899909388,0.6360684183038471],[0.47972308136574926,0.2441435459570405,1.018305082903199,0.04752417773205725],[0.16323059780298296,0.44515214041341294,0.9110395536084083,1.298032758254967]],"accuracy_validation":0.7777777777777778,"mse_training":0.20952380952380953,"accuracy_training":0.8952380952380953,"mse_validation":0.4444444444444444,"bias":-7.248975725238087E-18},{"epoch":20,"weights":[[0.5781470546972354,1.046823308490941,-0.14943861103861608,0.6424224798789676],[0.4767881418952901,0.24618436409904582,1.0175998127534684,0.0492454210147325],[0.16990806575973194,0.452759041437458,0.897936295797662,1.289957453397172]],"accuracy_validation":0.7777777777777778,"mse_training":0.22857142857142856,"accuracy_training":0.8857142857142857,"mse_validation":0.4444444444444444,"bias":-6.1803860640363754E-18},{"epoch":19,"weights":[[0.5742893948112706,1.036872122799349,-0.13517937383849377,0.6489848383877632],[0.4738441462479875,0.24829403714516501,1.0167967222298557,0.05093633029137255],[0.1767097212929997,0.4606005540829304,0.8844801491211511,1.2817041856117368]],"accuracy_validation":0.7777777777777778,"mse_training":0.22857142857142856,"accuracy_training":0.8857142857142857,"mse_validation":0.4444444444444444,"bias":-5.555885612684724E-18},{"epoch":18,"weights":[[0.5703068997893032,1.0265944676339134,-0.12043637964153156,0.6557709741591493],[0.4708917198437253,0.2504760754669626,1.0158904349865914,0.05259471864007625],[0.1836446427192293,0.46869617092656896,0.8706434421674533,1.273259661491646]],"accuracy_validation":0.7777777777777778,"mse_training":0.22857142857142856,"accuracy_training":0.8857142857142857,"mse_validation":0.4444444444444444,"bias":-6.277530578691077E-18},{"epoch":17,"weights":[[0.5661886667520887,1.0159647681820703,-0.10517303921920136,0.6627980470100571],[0.46793162238230895,0.2527342341677836,1.014875318264667,0.054218285073282114],[0.19072297321785972,0.47706771167759104,0.8563952184670471,1.2646090222075326]],"accuracy_validation":0.7777777777777778,"mse_training":0.24761904761904763,"accuracy_training":0.8761904761904762,"mse_validation":0.4444444444444444,"bias":-6.312225048210613E-18},{"epoch":16,"weights":[[0.56192239855638,1.004954501644359,-0.08934873310159722,0.6700851312776941],[0.46496478195887314,0.2550725317003269,1.0137455021344282,0.05580462059169535],[0.19795608183700408,0.48573968068275963,0.8417007284796814,1.255735602421482]],"accuracy_validation":0.7777777777777778,"mse_training":0.24761904761904763,"accuracy_training":0.8761904761904762,"mse_validation":0.4444444444444444,"bias":-7.311425770373255E-18},{"epoch":15,"weights":[[0.5574941688795214,0.9935317541834713,-0.0729182438471365,0.6776534896387109],[0.4619923396368484,0.2574952692954814,1.012494914397367,0.05735122017920487],[0.20535675383588772,0.4947396905484926,0.8265208269622809,1.2466206444729548]],"accuracy_validation":0.7777777777777778,"mse_training":0.24761904761904763,"accuracy_training":0.8761904761904762,"mse_validation":0.4444444444444444,"bias":-6.0069137164386945E-18},{"epoch":14,"weights":[[0.5528881378106495,0.9816606974808884,-0.055831096227806874,0.6855268924588794],[0.45901570807777486,0.2600070509133364,1.0111173377022586,0.05885550327161939],[0.2129394164638332,0.5040989656332198,0.8108112560380604,1.2372429585603717]],"accuracy_validation":0.7777777777777778,"mse_training":0.24761904761904763,"accuracy_training":0.8761904761904762,"mse_validation":0.4444444444444444,"bias":-6.31916394211452E-18},{"epoch":13,"weights":[[0.548086205597229,0.9693009687246977,-0.03803079070947542,0.6937319903358055],[0.4560366491324677,0.26261280323161895,1.0096064980018498,0.06031484623201886],[0.22072040762256,0.5138529420711276,0.7945217902201375,1.2275785177230463]],"accuracy_validation":0.7777777777777778,"mse_training":0.2857142857142857,"accuracy_training":0.8571428571428571,"mse_validation":0.4444444444444444,"bias":-4.88975179790963E-18},{"epoch":12,"weights":[[0.5430675888669667,0.9564069348240469,-0.0194539145313504,0.7022987482984067],[0.4530573770341709,0.2653177948601831,1.0079561970347997,0.061726631754571305],[0.22871829645111866,0.5240419843432129,0.7775952150090638,1.217599974237893]],"accuracy_validation":0.7555555555555555,"mse_training":0.2857142857142857,"accuracy_training":0.8571428571428571,"mse_validation":0.4888888888888889,"bias":-5.597518976108168E-18},{"epoch":11,"weights":[[0.5378082997272134,0.942926818596432,-2.911449479857961E-5,0.7112609506046875],[0.4500806960030901,0.26812765336603606,1.0061605063650834,0.06308832202542108],[0.23695426662195246,0.5347122420649755,0.7599661056422273,1.2072760816607608]],"accuracy_validation":0.7555555555555555,"mse_training":0.3047619047619048,"accuracy_training":0.8476190476190476,"mse_validation":0.4888888888888889,"bias":-4.390151436828309E-18},{"epoch":10,"weights":[[0.5322805045026049,0.9288016625384938,0.020324083268748634,0.7206567849625874],[0.447110183264734,0.27104837739124277,1.004214046817932,0.06439756499683409],[0.2454525745849169,0.5459166740977067,0.7415593674258313,1.196571004331448]],"accuracy_validation":0.7555555555555555,"mse_training":0.3047619047619048,"accuracy_training":0.8476190476190476,"mse_validation":0.4888888888888889,"bias":-3.1966616853562645E-18},{"epoch":9,"weights":[[0.5264517394712981,0.9139641075475774,0.04169661932933549,0.7305295142266977],[0.4441504285936423,0.2740863377607015,1.0021123841884791,0.0656523461253328],[0.2542410942873156,0.5577162687191646,0.7222884939946966,1.1854434939388383]],"accuracy_validation":0.7555555555555555,"mse_training":0.3047619047619048,"accuracy_training":0.8476190476190476,"mse_validation":0.4888888888888889,"bias":-2.7248168998905726E-18},{"epoch":8,"weights":[[0.5202839822491794,0.8983369799009044,0.06419142953238931,0.7409282438543222],[0.4412073304471955,0.2772482509176229,0.9998525749369215,0.06685119995710823],[0.2633519496558819,0.5701814832089162,0.7020534930432001,1.1738459104794383]],"accuracy_validation":0.7555555555555555,"mse_training":0.3047619047619048,"accuracy_training":0.8476190476190476,"mse_validation":0.4888888888888889,"bias":-2.2807276900405096E-18},{"epoch":7,"weights":[[0.5137326882358371,0.881831749104238,0.08792521907131197,0.7519088051964564],[0.43828838811690335,0.2805410699886557,0.9974338706950253,0.06799348982631837],[0.27282218599951663,0.5833938949345501,0.6807384077461741,1.161723059268094]],"accuracy_validation":0.7555555555555555,"mse_training":0.3047619047619048,"accuracy_training":0.8476190476190476,"mse_validation":0.4888888888888889,"bias":-2.017049721692034E-18},{"epoch":6,"weights":[[0.5067464010362754,0.8643472047211043,0.11303080818939655,0.7635348513141365],[0.4354026528739204,0.28397158755040874,0.9948584315622477,0.06907971663385214],[0.28269420844206194,0.5974479217559309,0.6582082577608672,1.1490107863428807]],"accuracy_validation":0.7333333333333333,"mse_training":0.3238095238095238,"accuracy_training":0.8380952380952381,"mse_validation":0.5333333333333333,"bias":-2.5444056583889837E-18},{"epoch":5,"weights":[[0.499269803834452,0.8457699309724891,0.13966169186877933,0.7758796633988421],[0.4325587831951534,0.2875449089301837,0.9921311341120076,0.07011158170331537],[0.2930146753226525,0.6124518741247712,0.6343046715317244,1.1356341091887105]],"accuracy_validation":0.7555555555555555,"mse_training":0.34285714285714286,"accuracy_training":0.8285714285714286,"mse_validation":0.4888888888888889,"bias":-2.461138931542097E-18},{"epoch":4,"weights":[[0.4912637389286271,0.8259838281725984,0.16800697527885372,0.7890311960277859],[0.42975450294257156,0.2912583045210794,0.9892542607662211,0.07109050113380477],[0.3038250204810594,0.6285245813337651,0.608836261467436,1.1215036571292776]],"accuracy_validation":0.7555555555555555,"mse_training":0.3619047619047619,"accuracy_training":0.819047619047619,"mse_validation":0.4888888888888889,"bias":-1.045604575145021E-18},{"epoch":3,"weights":[[0.48280935132245645,0.8049240913690423,0.19835848624982347,0.8031134892183205],[0.42693300719376986,0.2950776287305515,0.9862018725684097,0.07200989922598419],[0.3151009038360318,0.6457649939278488,0.5815371386942775,1.1065019658465634]],"accuracy_validation":0.7555555555555555,"mse_training":0.38095238095238093,"accuracy_training":0.8095238095238095,"mse_validation":0.4888888888888889,"bias":-1.0178489995293921E-18},{"epoch":2,"weights":[[0.4746595745273211,0.7828653944683605,0.23146050559358927,0.8183975618041073],[0.42388125520233044,0.2988788118475615,0.9828680694589123,0.07284081058948225],[0.32630243262260683,0.6640225077115209,0.5517689224600089,1.0903869818972787]],"accuracy_validation":0.7555555555555555,"mse_training":0.4380952380952381,"accuracy_training":0.780952380952381,"mse_validation":0.4888888888888889,"bias":-1.296705798292665E-19},{"epoch":1,"weights":[[0.471534173288458,0.7621357276893569,0.2706215786432326,0.8359760716970768],[0.420981045727668,0.3027577470317216,0.9797215991665247,0.07375879367343874],[0.3323280433361328,0.680873239306365,0.5157543197027525,1.0718904889203538]],"accuracy_validation":0.7333333333333333,"mse_training":0.4,"accuracy_training":0.8,"mse_validation":0.5333333333333333,"bias":-5.182486384480712E-19},{"epoch":0,"weights":[[0.5069384741746294,0.7598367856495322,0.338071243571337,0.8630622967705759],[0.42797907409753894,0.31106123449639794,0.9845752590606381,0.07744287078482341],[0.28992571408009027,0.674868693881513,0.4434509948805348,1.0411201867354687]],"accuracy_validation":0.5111111111111111,"mse_training":1.0285714285714285,"accuracy_training":0.4857142857142857,"mse_validation":0.9777777777777777,"bias":-4.904930628324423E-19}]