[{"epoch":99,"weights":[[0.41691513859098306,0.9156920363918628,-1.181887318630435,-0.4932781453665385],[0.23380903051418758,-0.11015072497502824,0.19119988117948022,-0.10563019292380517],[-0.4644880163368297,-0.5836158277291613,1.0745794488687872,0.8093793116477852]],"accuracy_validation":0.9555555555555556,"mse_training":0.05714285714285714,"accuracy_training":0.9714285714285714,"mse_validation":0.08888888888888889,"bias":-1.3432451765466074E-17},{"epoch":98,"weights":[[0.415240546314587,0.9119522339502437,-1.176959152116116,-0.490881961978474],[0.23201755206631422,-0.1101240398746781,0.19194486442769773,-0.10324953351049877],[-0.4610219456125597,-0.5799027103878921,1.0689062991062501,0.8046024688464146]],"accuracy_validation":0.9555555555555556,"mse_training":0.05714285714285714,"accuracy_training":0.9714285714285714,"mse_validation":0.08888888888888889,"bias":-1.3099655908621648E-17},{"epoch":97,"weights":[[0.4135572944558722,0.9081900419847233,-1.1719983389089796,-0.4884703970995308],[0.23021972061768728,-0.11009018792416694,0.1926849092019386,-0.10086417172210613],[-0.45754086230521807,-0.5761743703728841,1.0632054411248721,0.799805542179079]],"accuracy_validation":0.9555555555555556,"mse_training":0.05714285714285714,"accuracy_training":0.9714285714285714,"mse_validation":0.08888888888888889,"bias":-1.3322134194415674E-17},{"epoch":96,"weights":[[0.4118652478936507,0.9044050675099008,-1.1670042645503496,-0.4860431604510594],[0.22841553534020023,-0.11004898587277115,0.1934197701892546,-0.09847417842211281],[-0.45404463046550964,-0.5724305979494563,1.0574765057789248,0.7949883122306141]],"accuracy_validation":0.9555555555555556,"mse_training":0.05714285714285714,"accuracy_training":0.9714285714285714,"mse_validation":0.08888888888888889,"bias":-1.2859938808285103E-17},{"epoch":95,"weights":[[0.4101642670871658,0.9005969050238932,-1.1619762950711596,-0.48359995246255605],[0.22660499679463428,-0.11000024473996706,0.19414919323110866,-0.09607962829039618],[-0.4505331111134586,-0.5686711765962527,1.051719113257882,0.7901505541103946]],"accuracy_validation":0.9555555555555556,"mse_training":0.05714285714285714,"accuracy_training":0.9714285714285714,"mse_validation":0.08888888888888889,"bias":-1.2600163967757576E-17},{"epoch":94,"weights":[[0.40845420786569026,0.8967651359650839,-1.1569137761747574,-0.48114046387898823],[0.22478810700269766,-0.10994376958944078,0.194872914968117,-0.09368059998745656],[-0.44700616210004634,-0.5648958826879696,1.0459328726244728,0.7852920372238873]],"accuracy_validation":0.9555555555555556,"mse_training":0.05714285714285714,"accuracy_training":0.9714285714285714,"mse_validation":0.08888888888888889,"bias":-1.3226507562802454E-17},{"epoch":93,"weights":[[0.40673492120590043,0.8929093281400369,-1.151816032378039,-0.47866437534792344],[0.22296486952305694,-0.10987935929184628,0.19559066246759338,-0.09127717632672128],[-0.443463637960616,-0.5611044851605176,1.0401173813282785,0.7804125250320871]],"accuracy_validation":0.9555555555555556,"mse_training":0.05714285714285714,"accuracy_training":0.9714285714285714,"mse_validation":0.08888888888888889,"bias":-1.3396185202796429E-17},{"epoch":92,"weights":[[0.4050062529962136,0.8890290351207853,-1.1466823661084118,-0.47617135698523333],[0.22113528953162442,-0.10980680627562607,0.19630215283288027,-0.0888694444554014],[-0.43990538975949633,-0.5572967451574864,1.0342722246933638,0.7755117747980762]],"accuracy_validation":0.9555555555555556,"mse_training":0.05714285714285714,"accuracy_training":0.9714285714285714,"mse_validation":0.08888888888888889,"bias":-1.304381949673864E-17},{"epoch":91,"weights":[[0.4032680437872062,0.8851237956095576,-1.1415120567538897,-0.4736610679180526],[0.21929937390638404,-0.10972589626515716,0.19700709279338632,-0.0864574960444141],[-0.43633126492524815,-0.5534724156567276,1.0283969753783353,0.7705895373199082]],"accuracy_validation":0.9555555555555556,"mse_training":0.05714285714285714,"accuracy_training":0.9714285714285714,"mse_validation":0.08888888888888889,"bias":-1.3466983604659728E-17},{"epoch":90,"weights":[[0.401520128527173,0.8811931327688755,-1.1363043596634275,-0.4711331558035892],[0.21745713131706548,-0.10963640800543274,0.19770517827416845,-0.08404142748791825],[-0.43274110707589647,-0.5496312410757703,1.0224911928070906,0.7656455566489493]],"accuracy_validation":0.9555555555555556,"mse_training":0.05714285714285714,"accuracy_training":0.9714285714285714,"mse_validation":0.08888888888888889,"bias":-1.2718125164123988E-17},{"epoch":89,"weights":[[0.39976233628180713,0.8772365535148009,-1.1310585050944144,-0.46858725632226367],[0.21560857231999428,-0.10953811297243143,0.1983960939438198,-0.08162134011305183],[-0.42913475583345906,-0.5457729568546971,1.016554422568426,0.7606795697927576]],"accuracy_validation":0.9555555555555556,"mse_training":0.05714285714285714,"accuracy_training":0.9714285714285714,"mse_validation":0.08888888888888889,"bias":-1.2765504799061602E-17},{"epoch":88,"weights":[[0.39799448993690456,0.8732535477709353,-1.1257736971039969,-0.4660229926435625],[0.2137537094584741,-0.10943077506826428,0.1990795127393308,-0.07919734040050219],[-0.42551204662703634,-0.5418972890149989,1.010586195782498,0.7556913064015075]],"accuracy_validation":0.9555555555555556,"mse_training":0.05714285714285714,"accuracy_training":0.9714285714285714,"mse_validation":0.08888888888888889,"bias":-1.384222597655696E-17},{"epoch":87,"weights":[[0.39621640588291135,0.8692435876806178,-1.1204491123806792,-0.46343997486285454],[0.21189255736908572,-0.10931415030012209,0.19975509536649863,-0.07676954021658541],[-0.4218728104836545,-0.5380039536928232,1.0045860284320127,0.7506804884368823]],"accuracy_validation":0.9555555555555556,"mse_training":0.05714285714285714,"accuracy_training":0.9714285714285714,"mse_validation":0.08888888888888889,"bias":-1.2047329280007208E-17},{"epoch":86,"weights":[[0.3944278936800407,0.8652061267745498,-1.1150838990123735,-0.46083779940730185],[0.21002513289431574,-0.10918798644197195,0.20042248977435434,-0.0743380570575603],[-0.4182168738060139,-0.5340926566449055,0.998553420655851,0.7456468298223043]],"accuracy_validation":0.9555555555555556,"mse_training":0.05714285714285714,"accuracy_training":0.9714285714285714,"mse_validation":0.08888888888888889,"bias":-1.2485889058777599E-17},{"epoch":85,"weights":[[0.39262875570258227,0.8611405990908746,-1.109677175186791,-0.45821604840885166],[0.20815145520196357,-0.10905202267787202,0.20108133060196318,-0.07190301430695828],[-0.4145440581362029,-0.5301630927253302,0.9924878560026594,0.7405900360732519]],"accuracy_validation":0.9555555555555556,"mse_training":0.05714285714285714,"accuracy_training":0.9714285714285714,"mse_validation":0.08888888888888889,"bias":-1.191787554061244E-17},{"epoch":84,"weights":[[0.3908187867609134,0.8570464182445149,-1.1042280278197523,-0.455574289042136],[0.20627154591180982,-0.1089059892256898,0.2017312385958343,-0.06946454150676694],[-0.41085417990438033,-0.5262149453311527,0.9863888006417507,0.7355098039063448]],"accuracy_validation":0.9555555555555556,"mse_training":0.05714285714285714,"accuracy_training":0.9714285714285714,"mse_validation":0.08888888888888889,"bias":-1.2869154526751218E-17},{"epoch":83,"weights":[[0.3889977736996135,0.8529229764423086,-1.0987355111066595,-0.4529120728249493],[0.20438542923006858,-0.10874960693991095,0.2023718199960402,-0.06702277464337007],[-0.4071470501613389,-0.5222478858147251,0.9802557025284502,0.7304058208257616]],"accuracy_validation":0.9555555555555556,"mse_training":0.05714285714285714,"accuracy_training":0.9714285714285714,"mse_validation":0.08888888888888889,"bias":-1.2349821686130658E-17},{"epoch":82,"weights":[[0.3871654949699306,0.8487696434402234,-1.0931986449919904,-0.45022893487878596],[0.20249313209218922,-0.1085825868921285,0.20300266588900645,-0.06457785644921493],[-0.4034224742937769,-0.5182615728604222,0.9740879905208144,0.7252777646854428]],"accuracy_validation":0.9555555555555556,"mse_training":0.05714285714285714,"accuracy_training":0.9714285714285714,"mse_validation":0.08888888888888889,"bias":-1.2455965078816989E-17},{"epoch":81,"weights":[[0.3853217201747294,0.8445857654386235,-1.0876164135513158,-0.44752439314672576],[0.20059468431462046,-0.10840462992768927,0.20362335152477257,-0.062129936721251694],[-0.39968025172100685,-0.514255651823261,0.9678850734443746,0.7201253032254198]],"accuracy_validation":0.9555555555555556,"mse_training":0.05714285714285714,"accuracy_training":0.9714285714285714,"mse_validation":0.08888888888888889,"bias":-1.1451560186226416E-17},{"epoch":80,"weights":[[0.3834662095838691,0.8403706639112474,-1.0819877632798458,-0.4447979475657343],[0.19869011875620035,-0.10821542619685304,0.2042334355963557,-0.05967917265727451],[-0.3959201755717262,-0.5102297540267208,0.9616463391013227,0.7149480935804509]],"accuracy_validation":0.9555555555555556,"mse_training":0.05714285714285714,"accuracy_training":0.9714285714285714,"mse_validation":0.08888888888888889,"bias":-1.0234217986959691E-17},{"epoch":79,"weights":[[0.3815987136178099,0.8361236343631883,-1.0763116012810825,-0.44204907919021996],[0.19677947148988922,-0.10801465465869176,0.2048324594786685,-0.05722572921137735],[-0.3921420323393555,-0.5061834960168224,0.9553711532202469,0.7097457817590392]],"accuracy_validation":0.9333333333333333,"mse_training":0.05714285714285714,"accuracy_training":0.9714285714285714,"mse_validation":0.13333333333333333,"bias":-9.800103437096492E-18},{"epoch":78,"weights":[[0.37971897229703455,0.8318439450128026,-1.0705867933486153,-0.4392772492634201],[0.1948627819856294,-0.10780198255580957,0.20541994642423525,-0.05476977946983871],[-0.3883456015143203,-0.5021164787693191,0.949058858342212,0.7045180020907009]],"accuracy_validation":0.9333333333333333,"mse_training":0.05714285714285714,"accuracy_training":0.9714285714285714,"mse_validation":0.13333333333333333,"bias":-9.101009876277836E-18},{"epoch":77,"weights":[[0.3778267146546907,0.8275308353920249,-1.0648121619335327,-0.43648189823291944],[0.1929400933051753,-0.10757706485781107,0.20599540071273784,-0.052311505048851965],[-0.3845306551915225,-0.49802828684653944,0.942708772638627,0.6992643766392136]],"accuracy_validation":0.9333333333333333,"mse_training":0.05714285714285714,"accuracy_training":0.9714285714285714,"mse_validation":0.13333333333333333,"bias":-8.020927672047775E-18},{"epoch":76,"weights":[[0.3759216581096075,0.8231835148591178,-1.0589864839893095,-0.4336624447062874],[0.19101145230981528,-0.10733954367127307,0.20655830675117964,-0.04985109651563307],[-0.38069695765107925,-0.4939184875001702,0.936320188655961,0.6939845145793622]],"accuracy_validation":0.9333333333333333,"mse_training":0.05714285714285714,"accuracy_training":0.9714285714285714,"mse_validation":0.13333333333333333,"bias":-7.52761568356687E-18},{"epoch":75,"weights":[[0.3740035077966069,0.8188011610173802,-1.0531084886853281,-0.4308182843424922],[0.18907690988198453,-0.10708904761379093,0.20710812812120097,-0.04738875383456215],[-0.37684426491024786,-0.4897866297159146,0.9298923719819576,0.688678011534496]],"accuracy_validation":0.9333333333333333,"mse_training":0.05714285714285714,"accuracy_training":0.9714285714285714,"mse_validation":0.13333333333333333,"bias":-8.307807566887438E-18},{"epoch":74,"weights":[[0.3720719558507501,0.8143829180327653,-1.047176854979474,-0.4279487886743742],[0.18713652116185825,-0.1068251911494657,0.2076443065697916,-0.04492468684015385],[-0.37297232424426496,-0.48563224319562504,0.9234245598275119,0.6833444488719698]],"accuracy_validation":0.9333333333333333,"mse_training":0.05714285714285714,"accuracy_training":0.9714285714285714,"mse_validation":0.13333333333333333,"bias":-9.206394327443428E-18},{"epoch":73,"weights":[[0.3701266806418559,0.8099278948427584,-1.0411902090394094,-0.4250533038570583],[0.18519034580010807,-0.1065475738829755,0.20816626093933954,-0.04245911573879689],[-0.36908087367362097,-0.48145483727210886,0.9169159595178992,0.6779833929532967]],"accuracy_validation":0.9333333333333333,"mse_training":0.05714285714285714,"accuracy_training":0.9714285714285714,"mse_validation":0.13333333333333333,"bias":-9.580444076950927E-18},{"epoch":72,"weights":[[0.36816734595529826,0.8054351632481855,-1.0351471215012402,-0.4221311493367438],[0.18323844822811247,-0.10625577980913248,0.20867338603261346,-0.03999227164137083],[-0.36516964141506797,-0.4772538997513794,0.9103657468864553,0.672594394335556]],"accuracy_validation":0.9333333333333333,"mse_training":0.05714285714285714,"accuracy_training":0.9714285714285714,"mse_validation":0.13333333333333333,"bias":-9.719005114594574E-18},{"epoch":71,"weights":[[0.3661936001147142,0.8009037558788813,-1.0290461045532964,-0.4191816164338132],[0.18128089794702903,-0.10594937651455881,0.20916505140791092,-0.03752439712902265],[-0.3612383452934002,-0.4730288956766484,0.9037730645632144,0.6671769869202776]],"accuracy_validation":0.9333333333333333,"mse_training":0.05714285714285714,"accuracy_training":0.9714285714285714,"mse_validation":0.13333333333333333,"bias":-8.917996549562278E-18},{"epoch":70,"weights":[[0.3642050750418572,0.7963326640233247,-1.022885608831679,-0.41620396683367045],[0.17931776983726314,-0.10562791432782104,0.2096406000991939,-0.03505574685458502],[-0.35728669211077724,-0.46877926600782965,0.8971370201503152,0.6617306870456968]],"accuracy_validation":0.9333333333333333,"mse_training":0.05714285714285714,"accuracy_training":0.9714285714285714,"mse_validation":0.13333333333333333,"bias":-1.0297535393832833E-17},{"epoch":69,"weights":[[0.36220138524837364,0.7917208353114578,-1.0166640201130073,-0.41319743097811806],[0.1773491444900124,-0.10529092541404154,0.21009934725559432,-0.032586588182328735],[-0.35331437697004314,-0.4645044262097423,0.8904566842752436,0.6562549925178873]],"accuracy_validation":0.9333333333333333,"mse_training":0.05714285714285714,"accuracy_training":0.9714285714285714,"mse_validation":0.13333333333333333,"bias":-1.054169772307657E-17},{"epoch":68,"weights":[[0.3601821267537819,0.7870671712388848,-1.0103796557884879,-0.41016120634943387],[0.17537510856271774,-0.10493792280965286,0.2105405786941797,-0.030117201868981605],[-0.34932108254815675,-0.4602037647415576,0.8837310885121384,0.650749381575856]],"accuracy_validation":0.9333333333333333,"mse_training":0.05714285714285714,"accuracy_training":0.9714285714285714,"mse_validation":0.13333333333333333,"bias":-1.1463920090992738E-17},{"epoch":67,"weights":[[0.3581468759233844,0.7823705245195697,-1.0040307611019914,-0.40709445563858104],[0.17339575516042863,-0.10456839939257082,0.21096354935934253,-0.02764788278920047],[-0.3453064783154695,-0.4558766414393247,0.8769592231604793,0.6452133117852221]],"accuracy_validation":0.9333333333333333,"mse_training":0.05714285714285714,"accuracy_training":0.9714285714285714,"mse_validation":0.13333333333333333,"bias":-1.2675624438962536E-17},{"epoch":66,"weights":[[0.35609518821922465,0.7776296962529096,-0.997615505133186,-0.4039963047881825],[0.17141118424528023,-0.10418182678263348,0.21136748168158256,-0.025178940708969824],[-0.34127021969616156,-0.4515223857826016,0.8701400348694337,0.6396462188545929]],"accuracy_validation":0.9333333333333333,"mse_training":0.05714285714285714,"accuracy_training":0.9714285714285714,"mse_validation":0.13333333333333333,"bias":-1.1499481922250263E-17},{"epoch":65,"weights":[[0.35402659685652155,0.772843432889711,-0.9911319765050051,-0.4008658409000098],[0.16942150307649262,-0.10377765416668369,0.21175156382781501,-0.022710701110710788],[-0.3372119471646706,-0.4471402950353526,0.8632724240950206,0.6340475153681613]],"accuracy_validation":0.9333333333333333,"mse_training":0.05714285714285714,"accuracy_training":0.9714285714285714,"mse_validation":0.13333333333333333,"bias":-1.1929259663423515E-17},{"epoch":64,"weights":[[0.35194061135725,0.7680104229801022,-0.9845781787927689,-0.3977021099957507],[0.16742682668353032,-0.10335530704214974,0.21211494783462068,-0.020243506074230394],[-0.3331312852724366,-0.4427296322502773,0.8563552423759784,0.6284165894274218]],"accuracy_validation":0.9333333333333333,"mse_training":0.05714285714285714,"accuracy_training":0.9714285714285714,"mse_validation":0.13333333333333333,"bias":-1.1116975395797373E-17},{"epoch":63,"weights":[[0.34983671599169164,0.7631292936847245,-0.9779520256100619,-0.39450411461872564],[0.16542727837533083,-0.1029141858724067,0.21245674761507993,-0.01777771521801783],[-0.3290278415986782,-0.43828962412464295,0.8493872894128124,0.6227528031941849]],"accuracy_validation":0.9333333333333333,"mse_training":0.05714285714285714,"accuracy_training":0.9714285714285714,"mse_validation":0.13333333333333333,"bias":-1.0577476394768585E-17},{"epoch":62,"weights":[[0.34771436809783046,0.7581986070287043,-0.9712513353440727,-0.39127081126302615],[0.16342299028879256,-0.1024536646465631,0.21277603682897178,-0.015313706705812712],[-0.32490120561827873,-0.43381945869446636,0.8423673099329311,0.6170554913262812]],"accuracy_validation":0.9333333333333333,"mse_training":0.05714285714285714,"accuracy_training":0.9714285714285714,"mse_validation":0.13333333333333333,"bias":-1.1164246610517743E-17},{"epoch":61,"weights":[[0.3455729962674122,0.7532168558758113,-0.9644738255103692,-0.38800110761517626],[0.1614141039800354,-0.10197308933561895,0.2130718466051691,-0.012851878323832285],[-0.3207509474791033,-0.4293182828525174,0.8352939903230304,0.6113239592964513]],"accuracy_validation":0.9333333333333333,"mse_training":0.05714285714285714,"accuracy_training":0.9714285714285714,"mse_validation":0.13333333333333333,"bias":-1.0058794075451522E-17},{"epoch":60,"weights":[[0.3434119983862946,0.74818245959792,-0.9576171066940983,-0.3846938595919425],[0.15940077106230807,-0.10147177623615844,0.21334316310401932,-0.010392648634552115],[-0.31657661668025855,-0.4247851996740868,0.8281659550079101,0.6055574815839371]],"accuracy_validation":0.9333333333333333,"mse_training":0.05714285714285714,"accuracy_training":0.9714285714285714,"mse_validation":0.13333333333333333,"bias":-1.0083080204115196E-17},{"epoch":59,"weights":[[0.34123073951539606,0.7430937594122807,-0.9506786760412335,-0.3813478681562211],[0.15738315389481528,-0.10094901019188221,0.21358892490634282,-0.007936458213498898],[-0.3123777406418672,-0.42021926553272376,0.8209817625527218,0.5997552997271615]],"accuracy_validation":0.9333333333333333,"mse_training":0.05714285714285714,"accuracy_training":0.9714285714285714,"mse_validation":0.13333333333333333,"bias":-9.046149246350057E-18},{"epoch":58,"weights":[[0.33902854959704376,0.7379490133562239,-0.9436559102597476,-0.3779618758910715],[0.15536142632718214,-0.100404042682324,0.21380802021440834,-0.005483770976135596],[-0.30815382315588175,-0.4156194869862251,0.8137399014631705,0.5939166202246488]],"accuracy_validation":0.9333333333333333,"mse_training":0.05714285714285714,"accuracy_training":0.9714285714285714,"mse_validation":0.13333333333333333,"bias":-9.701874720269289E-18},{"epoch":57,"weights":[[0.33680472096985514,0.7327463908656735,-0.936546058086425,-0.3745345633098681],[0.15333577450477937,-0.09983608976703426,0.2139992838488309,-0.003035075602609078],[-0.3039043427062902,-0.4109848174109647,0.8064387856554249,0.5880406122699191]],"accuracy_validation":0.9333333333333333,"mse_training":0.05714285714285714,"accuracy_training":0.9714285714285714,"mse_validation":0.13333333333333333,"bias":-9.45207453972863E-18},{"epoch":56,"weights":[[0.3345585056733791,0.727483966920207,-0.9293462321703121,-0.3710645448781992],[0.1513063977406869,-0.09924432987233091,0.21416149402377957,-5.908870688941708E-4],[-0.2996287506457216,-0.40631415336020077,0.7990767495643631,0.5821264053045347]],"accuracy_validation":0.9333333333333333,"mse_training":0.05714285714285714,"accuracy_training":0.9714285714285714,"mse_validation":0.13333333333333333,"bias":-8.482364116657591E-18},{"epoch":55,"weights":[[0.3322891125215967,0.7221597157132909,-0.9220534003185963,-0.36755036472050184],[0.14927350946070844,-0.09862790140639877,0.2142933688811539,0.0018482517062854498],[-0.29532646921396066,-0.4016063306192172,0.7916520428552729,0.576173086371658]],"accuracy_validation":0.9333333333333333,"mse_training":0.05714285714285714,"accuracy_training":0.9714285714285714,"mse_validation":0.13333333333333333,"bias":-6.588479761759913E-18},{"epoch":54,"weights":[[0.3299957039219564,0.7167715038017317,-0.9146643760447744,-0.3639904919814876],[0.14723733822855217,-0.09798590018705308,0.21439356276246796,0.004281768088437946],[-0.29099688938216356,-0.3968601199270043,0.7841628247001373,0.5701796972504914]],"accuracy_validation":0.9333333333333333,"mse_training":0.05714285714285714,"accuracy_training":0.9714285714285714,"mse_validation":0.13333333333333333,"bias":-6.802718111043046E-18},{"epoch":53,"weights":[[0.3276773924138795,0.7113170826831607,-0.9071758083523822,-0.360383315809063],[0.14519812885909633,-0.09731737666484434,0.21446066219506427,0.0067090578168214465],[-0.28663936850463084,-0.392074222330642,0.7766071575751495,0.5641452313496835]],"accuracy_validation":0.9333333333333333,"mse_training":0.0761904761904762,"accuracy_training":0.9619047619047619,"mse_validation":0.13333333333333333,"bias":-6.221585746590817E-18},{"epoch":52,"weights":[[0.32533323689757115,0.7057940807445078,-0.8995841706800837,-0.3567271399217282],[0.1431561436285517,-0.09662133292234945,0.21449318156691569,0.009129482943974648],[-0.2822532277577781,-0.38724726413448435,0.7689830005310003,0.5580686303351958]],"accuracy_validation":0.9333333333333333,"mse_training":0.0761904761904762,"accuracy_training":0.9619047619047619,"mse_validation":0.13333333333333333,"bias":-5.13391412715336E-18},{"epoch":51,"weights":[[0.3229622385204292,0.7001999945177809,-0.8918857489255346,-0.35302017671919067],[0.1411116635913539,-0.09589671942845354,0.21448955846166434,0.01154236961144419],[-0.27783774934343847,-0.3823777914016531,0.761288201881703,0.5519487804651885]],"accuracy_validation":0.9333333333333333,"mse_training":0.0761904761904762,"accuracy_training":0.9619047619047619,"mse_validation":0.13333333333333333,"bias":-5.357693455554366E-18},{"epoch":50,"weights":[[0.3205633361843223,0.6945321791719143,-0.8840766284559313,-0.3492605408901705],[0.139064990014769,-0.09514243152412989,0.21444814862263778,0.01394700564645921],[-0.27339217343074673,-0.3774642639601102,0.7535204912511267,0.5457845086011536]],"accuracy_validation":0.9333333333333333,"mse_training":0.0761904761904762,"accuracy_training":0.9619047619047619,"mse_validation":0.13333333333333333,"bias":-6.0177557381635436E-18},{"epoch":49,"weights":[[0.3181354016324164,0.6887878381609214,-0.8761526800024554,-0.34544624246595923],[0.13701644594350265,-0.09435730561366187,0.21436722051136115,0.016342637962704572],[-0.2689156948075742,-0.3725050488595845,0.7456774709089277,0.5395745778606966]],"accuracy_validation":0.9333333333333333,"mse_training":0.0761904761904762,"accuracy_training":0.9619047619047619,"mse_validation":0.13333333333333333,"bias":-5.43835809718729E-18},{"epoch":48,"weights":[[0.31567723406896997,0.6829640119388406,-0.8681095443236548,-0.34157517926216746],[0.1349663779080902,-0.09354011503236928,0.21424494942249642,0.018728469746565436],[-0.26440745920871533,-0.367498413218796,0.7377566063189912,0.5333176828730439]],"accuracy_validation":0.9333333333333333,"mse_training":0.0761904761904762,"accuracy_training":0.9619047619047619,"mse_validation":0.13333333333333333,"bias":-4.7861020702200106E-18},{"epoch":47,"weights":[[0.31318755425950445,0.6770575656408964,-0.8599426155090544,-0.337645128644137],[0.1329151577925379,-0.09268956555866678,0.21407941111316378,0.021103657408233962],[-0.25986655928369745,-0.36244251639455416,0.7297552158137232,0.5270124445933451]],"accuracy_validation":0.9333333333333333,"mse_training":0.0761904761904762,"accuracy_training":0.9619047619047619,"mse_validation":0.13333333333333333,"bias":-5.367234434672241E-18},{"epoch":46,"weights":[[0.31066499805183456,0.6710651756176365,-0.8516470227786238,-0.33365373854358366],[0.13086318487861925,-0.09180429053464316,0.21386857490017416,0.0234673072748615],[-0.25529203016210883,-0.3573354013953177,0.7216704592962825,0.5206574046261635]],"accuracy_validation":0.9333333333333333,"mse_training":0.09523809523809523,"accuracy_training":0.9523809523809523,"mse_validation":0.13333333333333333,"bias":-4.0974168502572185E-18},{"epoch":45,"weights":[[0.30810810925049326,0.6649833146943429,-0.8432176106159414,-0.3295985176450118],[0.12881088808644575,-0.09088284555525884,0.21361029617379795,0.02581847200048003],[-0.25068284456859413,-0.35217498545140774,0.7134993258599764,0.5142510190019735]],"accuracy_validation":0.9333333333333333,"mse_training":0.09523809523809523,"accuracy_training":0.9523809523809523,"mse_validation":0.13333333333333333,"bias":-5.054116847258431E-18},{"epoch":44,"weights":[[0.3055153317679063,0.6588082360114382,-0.834648917052603,-0.32547682465016176],[0.12675872843347108,-0.08992370268164689,0.21330230827124383,0.02815614666467831],[-0.24603790743303267,-0.34695904964211566,0.7052386201991927,0.5077916513429248]],"accuracy_validation":0.9333333333333333,"mse_training":0.09523809523809523,"accuracy_training":0.9523809523809523,"mse_validation":0.13333333333333333,"bias":-4.5484449540111934E-18},{"epoch":43,"weights":[[0.30288500096506166,0.652535955282586,-0.8259351498982828,-0.32128585651698555],[0.12470720173700578,-0.08892524412880445,0.2129422136469875,0.0304792645289701],[-0.24135604993372298,-0.34168522746610575,0.6968849476691286,0.5012775653454569]],"accuracy_validation":0.9333333333333333,"mse_training":0.09523809523809523,"accuracy_training":0.9523809523809523,"mse_validation":0.13333333333333333,"bias":-4.2604808569990435E-18},{"epoch":42,"weights":[[0.30021533408212886,0.6461622312852753,-0.8170701606843754,-0.31702263555619475],[0.12265684158869342,-0.08788575537209758,0.2125274742704091,0.032786692416402155],[-0.23663602290247776,-0.33635099222550147,0.6884346978317994,0.4947069164972337]],"accuracy_validation":0.9333333333333333,"mse_training":0.09523809523809523,"accuracy_training":0.9523809523809523,"mse_validation":0.13333333333333333,"bias":-4.154662724964457E-18},{"epoch":41,"weights":[[0.29750441964520086,0.6396825443734769,-0.8080474160588845,-0.31268399525297125],[0.12060822263328969,-0.08680341761037712,0.21205540117381677,0.035077225676185625],[-0.2318764895101464,-0.33095364307542363,0.6798840263029011,0.48807774293422673]],"accuracy_validation":0.9333333333333333,"mse_training":0.11428571428571428,"accuracy_training":0.9428571428571428,"mse_validation":0.13333333333333333,"bias":-4.149458554536524E-18},{"epoch":40,"weights":[[0.2947502057187181,0.6330920727728141,-0.7988599663354526,-0.30826656466372077],[0.11856196418860364,-0.08567629951602684,0.2115231430658044,0.037349582690961426],[-0.22707601713897738,-0.32549028956911086,0.6712288346874813,0.4813879553302005]],"accuracy_validation":0.9333333333333333,"mse_training":0.11428571428571428,"accuracy_training":0.9428571428571428,"mse_validation":0.13333333333333333,"bias":-2.7339241981394477E-18},{"epoch":39,"weights":[[0.2919504868537143,0.6263856663849737,-0.7895004108595743,-0.30376675121733593],[0.11651873424870769,-0.0845023481938076,0.21092767391596878,0.0396023988796945],[-0.22223306833407747,-0.31995783450348936,0.6624647483614383,0.4746353256950826]],"accuracy_validation":0.9333333333333333,"mse_training":0.11428571428571428,"accuracy_training":0.9428571428571428,"mse_validation":0.13333333333333333,"bias":-3.1728092375615797E-18},{"epoch":38,"weights":[[0.2891028895593367,0.6195578177890101,-0.7799608598091599,-0.2991807217269422],[0.11447925391864966,-0.08327937926080865,0.21026577940726035,0.04183422014410681],[-0.21734599070964203,-0.3143529548405245,0.653587091819733,0.467817474940277]],"accuracy_validation":0.9333333333333333,"mse_training":0.11428571428571428,"accuracy_training":0.9428571428571428,"mse_validation":0.13333333333333333,"bias":-3.011479954295737E-18},{"epoch":37,"weights":[[0.28620485609843205,0.6126026300817691,-0.7702328919938214,-0.29450438139098556],[0.11244430233606209,-0.08200506594901835,0.20953404214165705,0.04404349570097565],[-0.2124130056661499,-0.30867208044507444,0.6445908612699978,0.4609318590474513]],"accuracy_validation":0.9333333333333333,"mse_training":0.11428571428571428,"accuracy_training":0.9428571428571428,"mse_validation":0.13333333333333333,"bias":-2.281161370909501E-18},{"epoch":36,"weights":[[0.28325362637666085,0.6055137811467887,-0.7603075081563745,-0.2897333505311669],[0.11041472214347282,-0.08067692711982441,0.20872882547345617,0.04622857023653605],[-0.20743219575178978,-0.30291137033928817,0.6354706941007516,0.4539757536520723]],"accuracy_validation":0.9333333333333333,"mse_training":0.11428571428571428,"accuracy_training":0.9428571428571428,"mse_validation":0.13333333333333333,"bias":-1.932481952238162E-18},{"epoch":35,"weights":[[0.28024621765762026,0.598284483879358,-0.7501750792098115,-0.2848629387784898],[0.10839142558502775,-0.07929231406598938,0.20784625583234193,0.04838767531263423],[-0.20240149047430384,-0.2970666861256926,0.6262208347953031,0.4469462368232973]],"accuracy_validation":0.9333333333333333,"mse_training":0.11428571428571428,"accuracy_training":0.9428571428571428,"mse_validation":0.13333333333333333,"bias":-1.970645868709652E-18},{"epoch":34,"weights":[[0.27717940179271067,0.5909074418233287,-0.7398252887618452,-0.2798881163766653],[0.10637540131304583,-0.07784839596111595,0.20688220338567923,0.05051891994722326],[-0.19731865033741236,-0.29113356217453606,0.616835096794,0.4398401697868838]],"accuracy_validation":0.9333333333333333,"mse_training":0.13333333333333333,"accuracy_training":0.9333333333333333,"mse_validation":0.13333333333333333,"bias":-3.616898447411643E-18},{"epoch":33,"weights":[[0.27404967960260407,0.5833747995908429,-0.7292470691853187,-0.2748034822234109],[0.10436772200372381,-0.0763421437991578,0.20583226087644851,0.05262028028434346],[-0.1921812488379837,-0.2851071721040079,0.6073068197267026,0.43265417529650896]],"accuracy_validation":0.9333333333333333,"mse_training":0.13333333333333333,"accuracy_training":0.9333333333333333,"mse_validation":0.13333333333333333,"bias":-4.727121472036801E-18},{"epoch":32,"weights":[[0.270853251985406,0.5756780873371073,-0.7184285303843062,-0.2696032282136509],[0.10236955289786323,-0.07477031264693396,0.20469172046032685,0.05468958826103776],[-0.1869866521149246,-0.2789822910024958,0.5976288213418116,0.42538461331005534]],"accuracy_validation":0.9333333333333333,"mse_training":0.13333333333333333,"accuracy_training":0.9333333333333333,"mse_validation":0.13333333333333333,"bias":-3.670674875166924E-18},{"epoch":31,"weights":[[0.26758598725295274,0.5678081584459351,-0.7073568802802815,-0.26428109938298877],[0.10038216140229854,-0.07312942201071204,0.2034555483532916,0.05672451917094654],[-0.18173199588690653,-0.2727532527475447,0.5877933433448217,0.41802755356948396]],"accuracy_validation":0.9333333333333333,"mse_training":0.13333333333333333,"accuracy_training":0.9333333333333333,"mse_validation":0.13333333333333333,"bias":-3.2161773244609997E-18},{"epoch":30,"weights":[[0.2642433841085011,0.55975511944477,-0.69601833589769,-0.2588303492735809],[0.09840692791150923,-0.07141573409358801,0.20211835709078277,0.058722578016982815],[-0.17641415925166568,-0.2664139016635036,0.577791990224739,0.4105787446140401]],"accuracy_validation":0.8666666666666667,"mse_training":0.13333333333333333,"accuracy_training":0.9333333333333333,"mse_validation":0.26666666666666666,"bias":-1.7832957333041562E-18},{"epoch":29,"weights":[[0.26082052957323876,0.5515082510064259,-0.6843980237608124,-0.2532436898560952],[0.09644535803762092,-0.06962522969355195,0.20067437519240997,0.06068108453907714],[-0.17102973484251482,-0.2599575376251959,0.5676156599862342,0.4030335786744599]],"accuracy_validation":0.8666666666666667,"mse_training":0.13333333333333333,"accuracy_training":0.9333333333333333,"mse_validation":0.26666666666666666,"bias":-1.9290125052862077E-18},{"epoch":28,"weights":[[0.2573120510416379,0.5430559187042073,-0.6724798681207539,-0.24751323523880725],[0.09449909647184375,-0.06775358146282755,0.19911741402458796,0.06259715679835753],[-0.16557499474513698,-0.25337685355370215,0.5572544655139979,0.3953870517978915]],"accuracy_validation":0.8666666666666667,"mse_training":0.13333333333333333,"accuracy_training":0.9333333333333333,"mse_validation":0.26666666666666666,"bias":-2.2828960943854763E-18},{"epoch":27,"weights":[[0.25371206149185616,0.5343854719620845,-0.6602464653095601,-0.24163043827615122],[0.09256994274285675,-0.06579612421756005,0.19744083166051357,0.06446769319755034],[-0.1600458514663681,-0.24666386405684732,0.5466976450668783,0.38763371843604283]],"accuracy_validation":0.8666666666666667,"mse_training":0.13333333333333333,"accuracy_training":0.9333333333333333,"mse_validation":0.26666666666666666,"bias":-1.1067535776732004E-18},{"epoch":26,"weights":[[0.2500140966911413,0.5254831293758327,-0.6476789422645877,-0.23558601905200882],[0.09065986918965213,-0.06374782195375027,0.19563749355706306,0.06628935282070504],[-0.15443781311244859,-0.23980982373440554,0.5359334601253564,0.3797676395887457]],"accuracy_validation":0.8666666666666667,"mse_training":0.13333333333333333,"accuracy_training":0.9333333333333333,"mse_validation":0.26666666666666666,"bias":-3.504141421473122E-19},{"epoch":25,"weights":[[0.24621104301011482,0.5163338482672599,-0.6347567969776665,-0.22936988405560246],[0.08877104153039496,-0.061603231191521425,0.19369972990804088,0.06805853398622656],[-0.14874593177216508,-0.2328051333880618,0.5249490784874571,0.37178232342681794]],"accuracy_validation":0.8666666666666667,"mse_training":0.13333333333333333,"accuracy_training":0.9333333333333333,"mse_validation":0.26666666666666666,"bias":-1.2212453270876698E-18},{"epoch":24,"weights":[[0.2422950541846237,0.5069211759636353,-0.6214577182984797,-0.22297103468824697],[0.08690584248811702,-0.059356460237115376,0.19161928960202435,0.06977135092951736],[-0.14296474390439592,-0.2256392320388436,0.5137304401142861,0.36367065711617175]],"accuracy_validation":0.8666666666666667,"mse_training":0.13333333333333333,"accuracy_training":0.9333333333333333,"mse_validation":0.26666666666666666,"bias":-1.4814538484841913E-18},{"epoch":23,"weights":[[0.23825745502821497,0.4972270798591194,-0.6077573821602889,-0.21637746353624565],[0.08506689903268888,-0.05700112392331023,0.18938729082411718,0.07142360857084702],[-0.1370882012925589,-0.21830047224813293,0.5022621027540027,0.35542482832284056]],"accuracy_validation":0.8444444444444444,"mse_training":0.1523809523809524,"accuracy_training":0.9238095238095239,"mse_validation":0.3111111111111111,"bias":-9.783840404509172E-19},{"epoch":22,"weights":[[0.2340886296881331,0.487231752804908,-0.5936292209025402,-0.20957603661912586],[0.08325711392187544,-0.05453029336875535,0.18699416851317044,0.07301077538837814],[-0.13110959084166335,-0.21077597574847648,0.4905270638072008,0.3470362345881898]],"accuracy_validation":0.8444444444444444,"mse_training":0.19047619047619047,"accuracy_training":0.9047619047619048,"mse_validation":0.3111111111111111,"bias":-7.494005416219784E-19},{"epoch":21,"weights":[[0.2297778915359079,0.47691338978078673,-0.579044161949087,-0.2025523595758598],[0.08147970237931956,-0.051936440292054555,0.18442961914640593,0.07452795451704518],[-0.1250214411468823,-0.2030514658010559,0.47850655422051264,0.3384953784162569]],"accuracy_validation":0.8444444444444444,"mse_training":0.20952380952380953,"accuracy_training":0.8952380952380953,"mse_validation":0.3111111111111111,"bias":-5.134781488891328E-19},{"epoch":20,"weights":[[0.22531333116933663,0.4662479311154877,-0.5639703316830371,-0.1952906254916731],[0.07973823494301567,-0.049211375438039315,0.1816825437102385,0.07596985334763426],[-0.11881541334400722,-0.19511107198977218,0.4661797993906297,0.3297917455014814]],"accuracy_validation":0.8444444444444444,"mse_training":0.20952380952380953,"accuracy_training":0.8952380952380953,"mse_validation":0.3111111111111111,"bias":-1.5265566588595702E-19},{"epoch":19,"weights":[[0.2206816382513036,0.455208766743898,-0.5483727199762164,-0.18777344180848413],[0.07803668776577709,-0.046346180737907514,0.17874099028400878,0.07733075213044058],[-0.11248217324873575,-0.18693710231831442,0.45352374111003824,0.3209136630354859]],"accuracy_validation":0.8444444444444444,"mse_training":0.24761904761904763,"accuracy_training":0.8761904761904762,"mse_validation":0.3111111111111111,"bias":4.0245584642662143E-19},{"epoch":18,"weights":[[0.21586789199402878,0.44376639512208665,-0.5322128005459223,-0.17998163352850502],[0.07637950196399353,-0.04333113495645087,0.17559209848981555,0.07860447242787692],[-0.10601124118967731,-0.1785097764779596,0.44051271347393767,0.31184813445807086]],"accuracy_validation":0.8444444444444444,"mse_training":0.26666666666666666,"accuracy_training":0.8666666666666667,"mse_validation":0.3111111111111111,"bias":-2.012279232133074E-19},{"epoch":17,"weights":[[0.21085531398392823,0.43188802948981436,-0.5154481022279296,-0.17189401975705906],[0.07477165401070106,-0.04015563281568833,0.1722220492565163,0.07978434675825502],[-0.09939081522628439,-0.1698069129864494,0.4271180643892439,0.30258064635624676]],"accuracy_validation":0.8444444444444444,"mse_training":0.26666666666666666,"accuracy_training":0.8666666666666667,"mse_validation":0.3111111111111111,"bias":4.371503159461578E-19},{"epoch":16,"weights":[[0.20562497570168367,0.41953714322843244,-0.49803172654090533,-0.16348716061054847],[0.07321873967501417,-0.03680809798092785,0.1686160250643918,0.08086319149675698],[-0.09260756260835279,-0.16080356155982786,0.41330771289434465,0.2930949424712341]],"accuracy_validation":0.8444444444444444,"mse_training":0.26666666666666666,"accuracy_training":0.8666666666666667,"mse_validation":0.3111111111111111,"bias":-2.3592239273284337E-19},{"epoch":15,"weights":[[0.20015545150104508,0.40667294521601044,-0.47991180784067966,-0.15473507175792459],[0.07172707464536113,-0.033275890937013115,0.16475818829662128,0.0818332861456251],[-0.08564637337806123,-0.15147157059132055,0.3990456309618891,0.28337275896974184]],"accuracy_validation":0.8444444444444444,"mse_training":0.3238095238095238,"accuracy_training":0.8380952380952381,"mse_validation":0.3111111111111111,"bias":-4.857225732735036E-19},{"epoch":14,"weights":[[0.19442240596665541,0.39324977552563734,-0.46103091434150795,-0.14560890455932696],[0.07030381575872185,-0.02954521379658679,0.16063168882708795,0.08268636358886294],[-0.07849006895703213,-0.14177907804137407,0.3842912369322504,0.2733935143279062]],"accuracy_validation":0.8444444444444444,"mse_training":0.38095238095238093,"accuracy_training":0.8095238095238095,"mse_validation":0.3111111111111111,"bias":-2.4980018054065784E-19},{"epoch":13,"weights":[[0.18839810252399206,0.3792164118889255,-0.44132539196169457,-0.13607659121304977],[0.0689571076972354,-0.025601015661027574,0.15621871693462375,0.08341361809412771],[-0.07111905745288251,-0.13168991254022133,0.36899868644490164,0.263133946476364]],"accuracy_validation":0.8222222222222222,"mse_training":0.4,"accuracy_training":0.8,"mse_validation":0.35555555555555557,"bias":-6.245004513516484E-19},{"epoch":12,"weights":[[0.18205081807719573,0.36451527863974403,-0.42072465931402675,-0.12610245698466832],[0.06769626107009599,-0.021426904590377348,0.15150062460202166,0.08400574086908082],[-0.06351092637894697,-0.12116289036169016,0.3531160461298361,0.2525676894730293]],"accuracy_validation":0.8222222222222222,"mse_training":0.4380952380952381,"accuracy_training":0.780952380952381,"mse_validation":0.35555555555555557,"bias":-9.436895709313808E-19},{"epoch":11,"weights":[[0.17534414667426682,0.3490815533483754,-0.3991504726650831,-0.11564680617209473],[0.06653196883215069,-0.017005075978248376,0.14645814793218734,0.08445299725144723],[-0.05563996273807283,-0.11015099368245032,0.3365843361507261,0.2416647822780893]],"accuracy_validation":0.8,"mse_training":0.4380952380952381,"accuracy_training":0.780952380952381,"mse_validation":0.4,"bias":-2.4147350785597145E-18},{"epoch":10,"weights":[[0.16823617457338358,0.33284217370504,-0.376516196413542,-0.10466549598968328],[0.06547656861340877,-0.012316272870396596,0.14107177659529416,0.08474536551205546],[-0.04747659041844773,-0.09860041714696684,0.31933643123607824,0.23039110383506967]],"accuracy_validation":0.7555555555555555,"mse_training":0.47619047619047616,"accuracy_training":0.7619047619047619,"mse_validation":0.4888888888888889,"bias":-1.5820678100908475E-18},{"epoch":9,"weights":[[0.1606785114918992,0.3157147612293645,-0.3527261403152529,-0.09310952446162558],[0.06454435773639088,-0.007339802664725527,0.13532233359328377,0.08487276518289076],[-0.0389867164599454,-0.08644947487696246,0.30129581813979955,0.21870773263617663]],"accuracy_validation":0.7111111111111111,"mse_training":0.47619047619047616,"accuracy_training":0.7619047619047619,"mse_validation":0.5777777777777777,"bias":-1.6930901125533633E-18},{"epoch":8,"weights":[[0.1526151729864851,0.2976065042051227,-0.3276750620225366,-0.08092467638080258],[0.06375196269707871,-0.0020536488596997497,0.1291918499467767,0.08482541292946645],[-0.030130982915219033,-0.07362737165774642,0.28237522349359045,0.20657023680877773]],"accuracy_validation":0.6666666666666666,"mse_training":0.5333333333333333,"accuracy_training":0.7333333333333333,"mse_validation":0.6666666666666666,"bias":-1.2767564783189285E-18},{"epoch":7,"weights":[[0.14398134097164306,0.2784130909686833,-0.3012479814243176,-0.0680512961934082],[0.06311874684432514,0.0035652586296182577,0.12266483995944323,0.08459435512859835],[-0.02086393504762326,-0.06005286591062488,0.2624751528827053,0.19392791442225166]],"accuracy_validation":0.6444444444444445,"mse_training":0.5904761904761905,"accuracy_training":0.7047619047619048,"mse_validation":0.7111111111111111,"bias":-9.159339953157526E-19},{"epoch":6,"weights":[[0.13470213483635224,0.2580178881042215,-0.2733204889843545,-0.0544242823854931],[0.06266717552378287,0.009540497872699949,0.11573008255261191,0.08417223180873375],[-0.011133157591790208,-0.04563290228924452,0.24148241784957364,0.18072302393420125]],"accuracy_validation":0.6444444444444445,"mse_training":0.6095238095238096,"accuracy_training":0.6952380952380952,"mse_validation":0.7111111111111111,"bias":-6.938893903907215E-19},{"epoch":5,"weights":[[0.12469192412786845,0.23629183690713043,-0.24375962374831062,-0.03997338387384652],[0.062422800417796,0.015895060288968987,0.10838289521600046,0.08355429431841775],[-8.785717773196543E-4,-0.03026141350842269,0.21926873995014096,0.16689006291287053]],"accuracy_validation":0.6444444444444445,"mse_training":0.6095238095238096,"accuracy_training":0.6952380952380952,"mse_validation":0.7111111111111111,"bias":-5.828670879282059E-19},{"epoch":4,"weights":[[0.11385644149974414,0.21309554284544593,-0.21242448453768134,-0.024623609146757416],[0.06241235832968055,0.022648805115419453,0.10062716824114393,0.08273946921660053],[0.00996735293892012,-0.013818864273188538,0.19568932771436812,0.15235511328759865]],"accuracy_validation":0.6222222222222222,"mse_training":0.6285714285714286,"accuracy_training":0.6857142857142857,"mse_validation":0.7555555555555555,"bias":-7.216449660063509E-19},{"epoch":3,"weights":[[0.10210820641710025,0.18828946352548465,-0.1791606082683158,-0.008293909055310113],[0.06265263174436027,0.029810532286316513,0.09247255486577673,0.08172998125806563],[0.02147531460688429,0.0038254878758756574,0.17058006482036994,0.1370349011546863]],"accuracy_validation":0.6222222222222222,"mse_training":0.6285714285714286,"accuracy_training":0.6857142857142857,"mse_validation":0.7555555555555555,"bias":-8.326672684688669E-19},{"epoch":2,"weights":[[0.0894476421873265,0.16177995571517956,-0.14375471409739646,0.009116743642398256],[0.06309082660349286,0.03734445700704945,0.08390055744323661,0.08052080692990268],[0.03369768397752544,0.02280107096544789,0.14374616807199087,0.1208334227851409]],"accuracy_validation":0.6222222222222222,"mse_training":0.6285714285714286,"accuracy_training":0.6857142857142857,"mse_validation":0.7555555555555555,"bias":6.661338147750942E-19},{"epoch":1,"weights":[[0.07638419142720909,0.133743059104038,-0.10566711387844237,0.02781652023961525],[0.06326725836864988,0.044994793998771494,0.0746420873814295,0.0790260323480495],[0.046584702972485785,0.04318763058486731,0.11491703791484392,0.103628420769777]],"accuracy_validation":0.6222222222222222,"mse_training":0.6285714285714286,"accuracy_training":0.6857142857142857,"mse_validation":0.7555555555555555,"bias":7.216449660063518E-19},{"epoch":0,"weights":[[0.06623757370687325,0.10580965590483327,-0.0624870500228372,0.04863557737621271],[0.06023171274260778,0.051230234624584384,0.06274199103739372,0.0765953216520971],[0.0597668663188638,0.06488559315825927,0.0836370704032746,0.08524007432913187]],"accuracy_validation":0.24444444444444444,"mse_training":1.2190476190476192,"accuracy_training":0.3904761904761905,"mse_validation":1.511111111111111,"bias":5.551115123125783E-20}]