[{"epoch":99,"weights":[[2.080804318848518,3.9711666187630215,-4.136656382513127,-1.9247115350686352],[1.3433460213773212,1.7291353777374088,-0.004876967975789251,-2.686770999135784],[-1.9396163831597006,-3.719314552932837,4.819429868392182,5.022733173578988]],"accuracy_validation":0.9777777777777777,"mse_training":0.0761904761904762,"accuracy_training":0.9619047619047619,"mse_validation":0.044444444444444446,"bias":5.574266545648616E-18},{"epoch":98,"weights":[[2.0753086016012925,3.9619956415153355,-4.12407405746595,-1.9182569652730739],[1.3416501633981865,1.7229227675601548,-0.0037221088416833636,-2.673739317039645],[-1.9324248079333421,-3.703930965507899,4.805692684210899,5.003246921687286]],"accuracy_validation":0.9777777777777777,"mse_training":0.0761904761904762,"accuracy_training":0.9619047619047619,"mse_validation":0.044444444444444446,"bias":1.2873223172040547E-17},{"epoch":97,"weights":[[2.0697660117179257,3.952741395160432,-4.111379958344092,-1.9117484043956254],[1.339954936701448,1.7166376484265764,-0.002560203901760663,-2.660609535991487],[-1.9251869913532376,-3.688391600019416,4.791836680149117,4.983608579761679]],"accuracy_validation":0.9777777777777777,"mse_training":0.0761904761904762,"accuracy_training":0.9619047619047619,"mse_validation":0.044444444444444446,"bias":2.5076677422458273E-17},{"epoch":96,"weights":[[2.0641756671553497,3.943402337652732,-4.098571990365852,-1.9051848742152455],[1.3382600419593453,1.710279113833845,-0.0013908027928226235,-2.6473803734044954],[-1.9179017520485584,-3.672694007918983,4.777859311061936,4.963815886994305]],"accuracy_validation":0.9777777777777777,"mse_training":0.0761904761904762,"accuracy_training":0.9619047619047619,"mse_validation":0.044444444444444446,"bias":2.2667805858045952E-18},{"epoch":95,"weights":[[2.0585366597289436,3.9339768815957843,-4.0856479967896435,-1.8985653679233978],[1.3365651669680143,1.7038462366036926,-2.1343384313125824E-4,-2.6340505288040004],[-1.910567869630823,-3.656835674631884,4.763757948536035,4.9438665361019645]],"accuracy_validation":0.9777777777777777,"mse_training":0.0761904761904762,"accuracy_training":0.9619047619047619,"mse_validation":0.044444444444444446,"bias":-2.1211751988480928E-17},{"epoch":94,"weights":[[2.0528480540592438,3.9244633924017958,-4.072605756397923,-1.891888848961762],[1.3348699862186169,1.6973380679568528,9.72396939432893E-4,-2.62061868388641],[-1.9031840832117257,-3.6408140167910554,4.749529877361749,4.923758172222737]],"accuracy_validation":0.9777777777777777,"mse_training":0.0761904761904762,"accuracy_training":0.9619047619047619,"mse_validation":0.044444444444444446,"bias":-4.3257537548748004E-17},{"epoch":93,"weights":[[2.047108886464893,3.914860186356609,-4.059442980853467,-1.8851542498009093],[1.3331741604421692,1.690753636543362,0.0021672069360677004,-2.6070835025961334],[-1.8957490898409288,-3.624626379332382,4.735172291820654,4.903488391771607]],"accuracy_validation":0.9777777777777777,"mse_training":0.0761904761904762,"accuracy_training":0.9619047619047619,"mse_validation":0.044444444444444446,"bias":-5.364898572588897E-17},{"epoch":92,"weights":[[2.0413181637985702,3.905165528584403,-4.046157311920382,-1.8783604706564814],[1.3314773361251895,1.684091947427152,0.0033715380464215128,-2.5934436312199516],[-1.8882615428576264,-3.608270032443964,4.720682291777218,4.8830547412510015]],"accuracy_validation":0.9777777777777777,"mse_training":0.0761904761904762,"accuracy_training":0.9619047619047619,"mse_validation":0.044444444444444446,"bias":-2.271984970812746E-17},{"epoch":91,"weights":[[2.0354748622223564,3.8953776309058465,-4.032746318541818,-1.8715063781391468],[1.3297791449928988,1.6773519810234157,0.004585957882701469,-2.5796976984979283],[-1.8807200501491208,-3.5917421683616735,4.706056878562376,4.862454716011645]],"accuracy_validation":0.9777777777777777,"mse_training":0.0761904761904762,"accuracy_training":0.9619047619047619,"mse_validation":0.044444444444444446,"bias":-2.0608418522158554E-17},{"epoch":90,"weights":[[2.0295779259188054,3.8854946495831464,-4.019207493765742,-1.864590803834401],[1.3280792034563895,1.6705326919873298,0.0058110610328985166,-2.56584431574947],[-1.8731231723090607,-3.5750398980028866,4.691292950636101,4.8416857589584374]],"accuracy_validation":0.9777777777777777,"mse_training":0.0761904761904762,"accuracy_training":0.9619047619047619,"mse_validation":0.044444444444444446,"bias":-4.137268910476002E-17},{"epoch":89,"weights":[[2.0236262657336965,3.8755146829447775,-4.00553825150952,-1.8576125428079684],[1.3263771120197017,1.6636330080527493,0.007047470397725124,-2.5518820770126682],[-1.8654694206872626,-3.558160247429938,4.676387299015047,4.820745259195199]],"accuracy_validation":0.9777777777777777,"mse_training":0.0761904761904762,"accuracy_training":0.9619047619047619,"mse_validation":0.044444444444444446,"bias":-3.114870363386189E-17},{"epoch":88,"weights":[[2.0176187577461557,3.865435768882338,-3.9917359231534726,-1.8505703520322816],[1.3246724546423292,1.6566518288196677,0.008295838606220685,-2.537809559194437],[-1.857757255322351,-3.541100154134417,4.661336602450496,4.799630550601278]],"accuracy_validation":0.9777777777777777,"mse_training":0.0761904761904762,"accuracy_training":0.9619047619047619,"mse_validation":0.044444444444444446,"bias":-4.9461001632798845E-17},{"epoch":87,"weights":[[2.011554241761558,3.8552558822112855,-3.9777977539528115,-1.843462948729208],[1.3229647980521513,1.6495880244893641,0.009556849515246178,-2.5236253222282485],[-1.8499850827475748,-3.5238564631330607,4.646137422340807,4.7783389103320175]],"accuracy_validation":0.9777777777777777,"mse_training":0.0761904761904762,"accuracy_training":0.9619047619047619,"mse_validation":0.044444444444444446,"bias":-2.6011306910878335E-17},{"epoch":86,"weights":[[2.0054315197222548,3.8449729318867276,-3.963720899256614,-1.8362890086238437],[1.3212536910032249,1.6424404345463288,0.010831219798435182,-2.509327909235444],[-1.8421512536593458,-3.5064259228654673,4.630786197361414,4.756867557233848]],"accuracy_validation":0.9777777777777777,"mse_training":0.0761904761904762,"accuracy_training":0.9619047619047619,"mse_validation":0.044444444444444446,"bias":-4.661699738893188E-17},{"epoch":85,"weights":[[1.9992493540308556,3.8345847580648056,-3.949502420521666,-1.829047164103793],[1.3195386634722925,1.6352078663863296,0.01211970063050282,-2.494915846685208],[-1.8342540604370146,-3.488805180883548,4.615279237794393,4.7352136501635576]],"accuracy_validation":0.9777777777777777,"mse_training":0.0761904761904762,"accuracy_training":0.9619047619047619,"mse_validation":0.044444444444444446,"bias":-6.294467470465048E-17},{"epoch":84,"weights":[[1.9930064657803568,3.824089128999454,-3.9351392811081225,-1.8217360022779918],[1.3178192257871468,1.627889093890195,0.013423079473152341,-2.4803876445471627],[-1.826291734501371,-3.4709907793220616,4.5996127195382055,4.713374286199711]],"accuracy_validation":0.9777777777777777,"mse_training":0.0761904761904762,"accuracy_training":0.9619047619047619,"mse_validation":0.044444444444444446,"bias":-7.923771608196103E-17},{"epoch":83,"weights":[[1.986701532885056,3.813483737763492,-3.920628341842905,-1.8143540629286465],[1.3160948676792938,1.6204828559432016,0.014742181969188417,-2.4657417964294455],[-1.8182624434982178,-3.452979150139108,4.583782677776952,4.6913464987326465]],"accuracy_validation":0.9777777777777777,"mse_training":0.0761904761904762,"accuracy_training":0.9619047619047619,"mse_validation":0.044444444444444446,"bias":-1.1262793412816594E-16},{"epoch":82,"weights":[[1.9803331881056594,3.8027661987822134,-3.9059663563356852,-1.8068998363493822],[1.3143650572525836,1.6129878549003402,0.0160778739518488,-2.450976779693657],[-1.810164288292111,-3.4347666101149663,4.567785000287075,4.669127255417589]],"accuracy_validation":0.9777777777777777,"mse_training":0.0761904761904762,"accuracy_training":0.9619047619047619,"mse_validation":0.044444444444444446,"bias":-8.144272443309166E-17},{"epoch":81,"weights":[[1.9739000169615892,3.791934044166582,-3.8911499660311573,-1.799371761062175],[1.3126292398585384,1.605402754998062,0.01743106357672153,-2.436091055536621],[-1.8019952997539939,-3.4163493555970565,4.55161542035767,4.646713455973343]],"accuracy_validation":0.9777777777777777,"mse_training":0.0761904761904762,"accuracy_training":0.9619047619047619,"mse_validation":0.044444444444444446,"bias":-6.053605843448974E-17},{"epoch":80,"weights":[[1.9674005555228669,3.780984719832206,-3.8761756949799295,-1.791768221405039],[1.310886836868281,1.5977261807135827,0.018802703584075972,-2.4210830690272007],[-1.7937534353250124,-3.3977234569781993,4.535269509299085,4.624101929806785]],"accuracy_validation":0.9777777777777777,"mse_training":0.0761904761904762,"accuracy_training":0.9619047619047619,"mse_validation":0.044444444444444446,"bias":-3.201036388705678E-17},{"epoch":79,"weights":[[1.9608332880734471,3.769915581388994,-3.8610399443090313,-1.7840875449817986],[1.3091372443298606,1.5899567150732743,0.020193793699855182,-2.40595124908447],[-1.785436575337171,-3.378884852894679,4.518742668512407,4.601289433440803]],"accuracy_validation":0.9777777777777777,"mse_training":0.0761904761904762,"accuracy_training":0.9619047619047619,"mse_validation":0.044444444444444446,"bias":-3.1268006943593726E-17},{"epoch":78,"weights":[[1.9541966446371803,3.7587238897852586,-3.845738986371354,-1.7763279999645687],[1.3073798314987624,1.582092897912196,0.02160538318404552,-2.3906940083814874],[-1.7770425190698065,-3.359829344129862,4.502030121090544,4.578272647720592]],"accuracy_validation":0.9777777777777777,"mse_training":0.0761904761904762,"accuracy_training":0.9619047619047619,"mse_validation":0.044444444444444446,"bias":-2.7382227205316948E-17},{"epoch":77,"weights":[[1.9474889983569228,3.747406806688502,-3.8302689585516876,-1.7684877922387932],[1.305613939228158,1.5741332240873587,0.02303857353564745,-2.375309743156629],[-1.7685689805189422,-3.340552587208267,4.485126902919275,4.555048174769948]],"accuracy_validation":0.9777777777777777,"mse_training":0.0761904761904762,"accuracy_training":0.9619047619047619,"mse_validation":0.044444444444444446,"bias":1.5957859960632317E-17},{"epoch":76,"weights":[[1.9407086627165406,3.735961389583711,-3.814625856705057,-1.7605650623798106],[1.303838878204259,1.5660761416479203,0.024494521364013824,-2.359796832911787],[-1.7600135838546613,-3.3210500876640383,4.468027853244276,4.531612534666125]],"accuracy_validation":0.9777777777777777,"mse_training":0.0761904761904762,"accuracy_training":0.9619047619047619,"mse_validation":0.044444444444444446,"bias":-1.6890569784288116E-17},{"epoch":75,"weights":[[1.9338538885947054,3.724384586568174,-3.7988055282009565,-1.752557882448982],[1.3020539270107503,1.5579200499660586,0.025974441436874975,-2.344153639974092],[-1.7513738585393157,-3.3013171929666405,4.4507276046673105,4.507962161797599]],"accuracy_validation":0.9777777777777777,"mse_training":0.0761904761904762,"accuracy_training":0.9619047619047619,"mse_validation":0.044444444444444446,"bias":-2.0588348606643972E-17},{"epoch":74,"weights":[[1.92692286113849,3.7126732308200308,-3.7828036645447383,-1.7444642525963336],[1.3002583300048618,1.549663297832963,0.027479609916048184,-2.3283785088945845],[-1.7426472340772126,-3.281349085085403,4.433220572531919,4.484093400865442]],"accuracy_validation":1,"mse_training":0.09523809523809523,"accuracy_training":0.9523809523809523,"mse_validation":0,"bias":-1.900038015220718E-17},{"epoch":73,"weights":[[1.919913696443733,3.7008240347156236,-3.766615793544809,-1.7362820974555253],[1.2984512949861249,1.5413041815249566,0.02901136779249973,-2.312469765654061],[-1.7338310343637193,-3.2611407726729884,4.4155009436555375,4.4600025024841115]],"accuracy_validation":1,"mse_training":0.09523809523809523,"accuracy_training":0.9523809523809523,"mse_validation":0,"bias":-5.453364622537318E-19},{"epoch":72,"weights":[[1.9128244380280512,3.6888335835684454,-3.7502372709913505,-1.728009262315642],[1.2966319906371864,1.532840942845413,0.030571124533219023,-2.2964257166425512],[-1.7249224715990987,-3.240687082846267,4.3975626643613595,4.435685618332711]],"accuracy_validation":1,"mse_training":0.09523809523809523,"accuracy_training":0.9523809523809523,"mse_validation":0,"bias":2.644698299545743E-17},{"epoch":71,"weights":[[1.9056530530811324,3.676698328959861,-3.7336632718091716,-1.7196435090528435],[1.2947995437143507,1.5242717671487407,0.03216036195323481,-2.2802446473749236],[-1.7159186397293458,-3.21998265254101,4.379399427759163,4.4111387958022865]],"accuracy_validation":1,"mse_training":0.09523809523809523,"accuracy_training":0.9523809523809523,"mse_validation":0,"bias":7.023140574209081E-18},{"epoch":70,"weights":[[1.8983974284755978,3.6644145816289524,-3.7168887806436084,-1.711182511803344],[1.2929530359636285,1.5155947813532782,0.033780638327088275,-2.263924820900744],[-1.7068165073730892,-3.19902191941464,4.361004660219746,4.386357972078607]],"accuracy_validation":1,"mse_training":0.11428571428571428,"accuracy_training":0.9428571428571428,"mse_validation":0,"bias":-7.235342581021499E-20},{"epoch":69,"weights":[[1.8910553665202052,3.6519785038856383,-3.6999085818345328,-1.7026238523573436],[1.2910915007360784,1.5068080519504883,0.03543359275518569,-2.2474644758617335],[-1.697612910190146,-3.1777991122685374,4.342371506982571,4.361338967593596]],"accuracy_validation":1,"mse_training":0.11428571428571428,"accuracy_training":0.9428571428571428,"mse_validation":0,"bias":2.2522878181340344E-18},{"epoch":68,"weights":[[1.8836245804355014,3.6393861015076414,-3.6827172487289985,-1.693965015251615],[1.28921391927409,1.4979095830183424,0.03712094980172974,-2.2308618241449096],[-1.6883045426434555,-3.156308240958391,4.32349281683049,4.336077478771042]],"accuracy_validation":1,"mse_training":0.11428571428571428,"accuracy_training":0.9428571428571428,"mse_validation":0,"bias":-1.8933250464633096E-17},{"epoch":67,"weights":[[1.8761026895301622,3.6266332150779355,-3.6653091322781823,-1.6852033825361374],[1.2873192166379446,1.488897314247156,0.03884452442236304,-2.214115048073754],[-1.6788879491019735,-3.134543085757501,4.304361125759039,4.310569069984406]],"accuracy_validation":1,"mse_training":0.11428571428571428,"accuracy_training":0.9428571428571428,"mse_validation":0,"bias":-4.0827296492712435E-18},{"epoch":66,"weights":[[1.8684872140542195,3.613715510714871,-3.647678348858752,-1.6763362281877725],[1.2854062572394558,1.4797691189865607,0.04060622720132667,-2.197222297073438],[-1.6693595142275428,-3.1124971861338415,4.2849686395606446,4.28480916463573]],"accuracy_validation":1,"mse_training":0.11428571428571428,"accuracy_training":0.9428571428571428,"mse_validation":0,"bias":1.5498038193596245E-17},{"epoch":65,"weights":[[1.8607755697030262,3.6006284701421647,-3.6298187672526208,-1.667360712141126],[1.2834738399467753,1.4705228023224632,0.042408069919812094,-2.1801816837390584],[-1.6597154525836688,-3.090163828897039,4.265307215236026,4.258793035254705]],"accuracy_validation":1,"mse_training":0.11428571428571428,"accuracy_training":0.9428571428571428,"mse_validation":0,"bias":2.4072159140530998E-17},{"epoch":64,"weights":[[1.8529650617432936,3.587367380040478,-3.611723994712198,-1.6582738739037066],[1.2815206927214242,1.4611560991931023,0.04425217147937343,-2.162991279228044],[-1.6499517973985853,-3.067536035665993,4.245368341136035,4.232515792506269]],"accuracy_validation":1,"mse_training":0.11428571428571428,"accuracy_training":0.9428571428571428,"mse_validation":0,"bias":2.705534958811278E-17},{"epoch":63,"weights":[[1.8450528787296196,3.5739273206159954,-3.593387362030546,-1.6490726257189596],[1.279545466745252,1.4516666725533605,0.046140764206730495,-2.1456491078891906],[-1.6400643884087398,-3.0446065496017707,4.225143115727023,4.205972372982664]],"accuracy_validation":1,"mse_training":0.11428571428571428,"accuracy_training":0.9428571428571428,"mse_validation":0,"bias":2.771702297488644E-17},{"epoch":62,"weights":[[1.837036085776737,3.5603031533144835,-3.574801907527272,-1.6397537452369186],[1.2775467299912844,1.4420521115965284,0.04807620056913049,-2.128153141030964],[-1.6300488587018886,-3.02136782134343,4.204622224861357,4.179157525642395]],"accuracy_validation":1,"mse_training":0.11428571428571428,"accuracy_training":0.9428571428571428,"mse_validation":0,"bias":6.232265781647354E-17},{"epoch":61,"weights":[[1.8289116173491096,3.5464895076015095,-3.5559603598513347,-1.6303138676478377],[1.2755229601881846,1.4323099300427033,0.05006096033265163,-2.110501289720633],[-1.6199006204711612,-2.997811994076635,4.183795917421902,4.152065796742981]],"accuracy_validation":1,"mse_training":0.11428571428571428,"accuracy_training":0.9428571428571428,"mse_validation":0,"bias":2.701788382667616E-17},{"epoch":60,"weights":[[1.8206762695254723,3.532480766720589,-3.536855119491122,-1.6207494772292972],[1.2734725371232372,1.4224375645030032,0.05209765819950822,-2.0926913964932203],[-1.6096148495825775,-2.973930887656015,4.16265397919483,4.124691513097026]],"accuracy_validation":1,"mse_training":0.11428571428571428,"accuracy_training":0.9428571428571428,"mse_validation":0,"bias":1.1885851388682928E-17},{"epoch":59,"weights":[[1.8123266916913996,3.518271052331263,-3.5174782388701638,-1.6110568982517786],[1.2713937342231947,1.412432372928759,0.054189051964516205,-2.0747212258349785],[-1.599186468848463,-2.9497159816924454,4.141185704808868,4.0970287634612585]],"accuracy_validation":1,"mse_training":0.11428571428571428,"accuracy_training":0.9428571428571428,"mse_validation":0,"bias":3.84769659472249E-17},{"epoch":58,"weights":[[1.8038593776078897,3.5038542079178754,-3.497821400893119,-1.601232285181577],[1.2692847093459014,1.4022916331550284,0.056338051235542565,-2.0565884532896024],[-1.5886101298876607,-2.9251583975053235,4.1193798675608,4.069071377845679]],"accuracy_validation":1,"mse_training":0.11428571428571428,"accuracy_training":0.9428571428571428,"mse_validation":0,"bias":2.4140326839765838E-17},{"epoch":57,"weights":[[1.795270655798273,3.4892237808472943,-3.4778758957914917,-1.5912716121129653],[1.2671434947081548,1.3920125415481182,0.05854772676797663,-2.0382906530165914],[-1.5778801934402975,-2.90024887882783,4.097224686926744,4.040812904504058]],"accuracy_validation":1,"mse_training":0.11428571428571428,"accuracy_training":0.9428571428571428,"mse_validation":0,"bias":2.8459390948782027E-17},{"epoch":56,"weights":[[1.7865566791893246,3.4743730029396636,-3.4576325961012957,-1.5811706613537568],[1.2649679858664191,1.3815922117675354,0.06082132046902966,-2.019825283609346],[-1.5669907079896146,-2.8749777711396125,4.074707793535496,4.012246584337601]],"accuracy_validation":1,"mse_training":0.11428571428571428,"accuracy_training":0.9428571428571428,"mse_validation":0,"bias":5.600619897252889E-17},{"epoch":55,"weights":[[1.7777134139352635,3.4592947694002425,-3.437081929585561,-1.5709250110795852],[1.2627559296567095,1.3710276736539675,0.06316225613408907,-2.001189671955368],[-1.555935386525844,-2.849334999486622,4.0518161913547015,3.983365322409451]],"accuracy_validation":1,"mse_training":0.11428571428571428,"accuracy_training":0.9428571428571428,"mse_validation":0,"bias":3.1135322200611075E-17},{"epoch":54,"weights":[[1.7687366273451601,3.4439816159423406,-3.416213849892654,-1.5605300219623244],[1.2605049109877084,1.360315872256844,0.06557415098437075,-1.9823809948917708],[-1.5447075812667364,-2.8233100446315977,4.028536216811513,3.9541616562285937]],"accuracy_validation":1,"mse_training":0.11428571428571428,"accuracy_training":0.9428571428571428,"mse_validation":0,"bias":4.93923573498858E-17},{"epoch":53,"weights":[[1.7596218748251564,3.428425693910856,-3.3950178047167108,-1.549980822666815],[1.2582123383667108,1.3494536670179031,0.06806082808278761,-1.963396258375287],[-1.533300256125735,-2.7968919173611657,4.0048534945371514,3.924627720416601]],"accuracy_validation":1,"mse_training":0.11428571428571428,"accuracy_training":0.9428571428571428,"mse_validation":0,"bias":4.4269061066944826E-17},{"epoch":52,"weights":[[1.7503644857365346,3.412618743192694,-3.373482701198432,-1.5392722940973425],[1.2558754280208293,1.3384378311313272,0.0706263297131986,-1.9442322738465083],[-1.5217059566912319,-2.770069130756427,3.980752889388464,3.894755207318345]],"accuracy_validation":1,"mse_training":0.11428571428571428,"accuracy_training":0.9428571428571428,"mse_validation":0,"bias":3.0096289881851403E-17},{"epoch":51,"weights":[[1.740959548059034,3.3965520626740315,-3.351596868272696,-1.528399052260838],[1.2534911864555094,1.3272650511067792,0.0732749318170326,-1.9248856314221134],[-1.5099167774484124,-2.7428296702132124,3.956218454358894,3.8645353230574457]],"accuracy_validation":1,"mse_training":0.11428571428571428,"accuracy_training":0.9428571428571428,"mse_validation":0,"bias":1.006669032787217E-17},{"epoch":50,"weights":[[1.7314018917356202,3.380216477974354,-3.329348015633249,-1.517355429597309],[1.2510563912682722,1.3159319265695295,0.07601115959056472,-1.905352669495309],[-1.4979243259377635,-2.7151609609762857,3.9312333739459113,3.833958738467113]],"accuracy_validation":1,"mse_training":0.11428571428571428,"accuracy_training":0.9428571428571428,"mse_validation":0,"bias":-1.6999049878655752E-17},{"epoch":49,"weights":[[1.72168607056,3.3636023061531297,-3.306723188943391,-1.5061354546092234],[1.2485675700070105,1.3044349703422988,0.07883980435575269,-1.8856294402622173],[-1.4857196835008812,-2.687049832927832,3.9057799024908646,3.803015534245937]],"accuracy_validation":1,"mse_training":0.11428571428571428,"accuracy_training":0.9428571428571428,"mse_validation":0,"bias":-3.217392402936229E-17},{"epoch":48,"weights":[[1.7118063424512986,3.346699317045947,-3.283708720874297,-1.4947328296000109],[1.2460209768282988,1.2927706088671262,0.08176594182731359,-1.865711670619289],[-1.4732933622134687,-2.6584824823454767,3.879839296950209,3.771695139593794]],"accuracy_validation":1,"mse_training":0.09523809523809523,"accuracy_training":0.9523809523809523,"mse_validation":0,"bias":-3.414421937800194E-17},{"epoch":47,"weights":[[1.7017566479411792,3.3294966908424573,-3.2602901774983004,-1.4831409063071737],[1.2434125666713236,1.2809351830432918,0.0847949519083947,-1.8455947177918512],[-1.4606352575463741,-2.629444430318154,3.85339174349313,3.739986263473521]],"accuracy_validation":1,"mse_training":0.09523809523809523,"accuracy_training":0.9523809523809523,"mse_validation":0,"bias":1.21476049844013E-18},{"epoch":46,"weights":[[1.6915305866769044,3.3119829714674154,-3.2364522995018676,-1.4713526591870063],[1.2407379666159921,1.2689249495798656,0.08793254015632407,-1.8252735189550522],[-1.4477345962267687,-2.5999204774796882,3.8264162772487684,3.707876817516555]],"accuracy_validation":1,"mse_training":0.09523809523809523,"accuracy_training":0.9523809523809523,"mse_validation":0,"bias":7.876044678593572E-18},{"epoch":45,"weights":[[1.681121391719156,3.2941460152674837,-3.2121789376106626,-1.4593606560749695],[1.2379924440386665,1.2567360829900216,0.09118476106811965,-1.8047425339929517],[-1.4345798786916952,-2.5698946546899104,3.7988906944457694,3.67535382944242]],"accuracy_validation":1,"mse_training":0.0761904761904762,"accuracy_training":0.9619047619047619,"mse_validation":0,"bias":9.301498848605235E-19},{"epoch":44,"weights":[[1.6705219013851664,3.2759729344389656,-3.187452981535056,-1.4471570259075366],[1.2351708711144447,1.2443646783900282,0.09455804334192196,-1.7839956804068644],[-1.4211588154334818,-2.5393501692614002,3.7707914560963585,3.6424033456889027]],"accuracy_validation":1,"mse_training":0.0761904761904762,"accuracy_training":0.9619047619047619,"mse_validation":0,"bias":2.100156449291362E-17},{"epoch":43,"weights":[[1.6597245283555173,3.257450034553746,-3.162256281646437,-1.4347334231467073],[1.232267685139674,1.231806755310333,0.09805921727447206,-1.7630262592268395],[-1.4074582564290614,-2.508269346296484,3.742093582275188,3.609010321748052]],"accuracy_validation":1,"mse_training":0.0761904761904762,"accuracy_training":0.9619047619047619,"mse_validation":0,"bias":5.205657890410493E-18},{"epoch":42,"weights":[[1.6487212257259434,3.238562745450288,-3.136569562479936,-1.422080988496137],[1.2292768440610489,1.2190582627812738,0.10169554445493384,-1.741826870596566],[-1.3934641127208638,-2.476633564663966,3.7127705359282253,3.5751584984672085]],"accuracy_validation":1,"mse_training":0.0761904761904762,"accuracy_training":0.9619047619047619,"mse_validation":0,"bias":8.622312500177742E-18},{"epoch":41,"weights":[[1.6375034496428962,3.219295544651611,-3.110372327024093,-1.4091903054362265],[1.226191776496572,1.206115086023799,0.10547474991032668,-1.7203893174875333],[-1.37916126907334,-2.4444231871078137,3.682794095016989,3.5408302622982606]],"accuracy_validation":1,"mse_training":0.0761904761904762,"accuracy_training":0.9619047619047619,"mse_validation":0,"bias":1.2205420218123594E-17},{"epoch":40,"weights":[[1.6260621181122277,3.1996318723493617,-3.083642750598131,-1.396051352032721],[1.223005325417311,1.1929730551588864,0.1094050568453449,-1.698704495747474],[-1.3645334864634089,-2.411617483940652,3.6521342116560054,3.5060064871546945]],"accuracy_validation":1,"mse_training":0.0761904761904762,"accuracy_training":0.9619047619047619,"mse_validation":0,"bias":1.6926953174874287E-17},{"epoch":39,"weights":[[1.6143875655128799,3.17955403684907,-3.056357562927534,-1.3826534473865448],[1.2197096845254511,1.1796279564514849,0.1134952240969436,-1.6767622683947943],[-1.3495632929722001,-2.3781945497329544,3.620758856733814,3.470666355155838]],"accuracy_validation":1,"mse_training":0.0761904761904762,"accuracy_training":0.9619047619047619,"mse_validation":0,"bias":2.4848026136743884E-18},{"epoch":38,"weights":[[1.602469492279698,3.1590431092013964,-3.0284919168012614,-1.3689851919887557],[1.2162963262119182,1.1660755467298851,0.11775458638800673,-1.6545513217272405],[-1.3342318614254844,-2.3441312123636826,3.5886338483164733,3.434787153090492]],"accuracy_validation":1,"mse_training":0.09523809523809523,"accuracy_training":0.9523809523809523,"mse_validation":0,"bias":-3.591226340694992E-17},{"epoch":37,"weights":[[1.5902969091390078,3.138078805541848,-3.0000192414204214,-1.3550344011192308],[1.2127559198040334,1.1523115717748933,0.12219309741023221,-1.6320590004107438],[-1.3185188718769099,-2.30940293374914,3.555722661913408,3.3983440409044703]],"accuracy_validation":1,"mse_training":0.09523809523809523,"accuracy_training":0.9523809523809523,"mse_validation":0,"bias":-2.693074234242636E-17},{"epoch":36,"weights":[[1.5778580751836295,3.116639355418451,-2.9709110782174397,-1.3407880302758761],[1.209078238618352,1.1383317896619454,0.12682137568793872,-1.6092711182428703],[-1.3024023567358511,-2.273983701512795,3.5219862204327153,3.3613097878932408]],"accuracy_validation":1,"mse_training":0.09523809523809523,"accuracy_training":0.9523809523809523,"mse_validation":0,"bias":-2.1915720522189343E-17},{"epoch":35,"weights":[[1.5651404289553044,3.0947013540931496,-2.9411368965214164,-1.326232091435516],[1.2052520541143499,1.1241320002727226,0.13165075306417418,-1.5861717407324727],[-1.285858526003524,-2.23784591079827,3.487382661360456,3.323654471542482]],"accuracy_validation":1,"mse_training":0.13333333333333333,"accuracy_training":0.9333333333333333,"mse_validation":0,"bias":-3.4329631333960155E-17},{"epoch":34,"weights":[[1.552130511554879,3.072239596443015,-2.910663885951279,-1.3113515587194193],[1.2012650151986533,1.109708082483096,0.1366933254984605,-1.5627429349889213],[-1.2688615696874002,-2.2009602353585103,3.451867078356033,3.2853451330828345]],"accuracy_validation":1,"mse_training":0.13333333333333333,"accuracy_training":0.9333333333333333,"mse_validation":0,"bias":-4.5169795214394635E-17},{"epoch":33,"weights":[[1.5388138806135174,3.049226889642419,-2.879456721808037,-1.2961302617534387],[1.1971035104546606,1.0950560408982084,0.14196200565984007,-1.538964481654431],[-1.2513834340020469,-2.1632954869730265,3.4153912340514134,3.2463453827823647]],"accuracy_validation":1,"mse_training":0.13333333333333333,"accuracy_training":0.9333333333333333,"mse_validation":0,"bias":-2.7038971752283187E-17},{"epoch":32,"weights":[[1.525175013716928,3.0256338412499004,-2.8474772989786596,-1.280550764659305],[1.1927525107644925,1.0801720644653627,0.14747057652572532,-1.5148135427227707],[-1.233393567415289,-2.1248184621476622,3.377903240356151,3.2066149467565683]],"accuracy_validation":0.9777777777777777,"mse_training":0.13333333333333333,"accuracy_training":0.9333333333333333,"mse_validation":0.044444444444444446,"bias":-1.1348732629045784E-17},{"epoch":31,"weights":[[1.5111971995586655,3.0014286186165626,-2.8146844289133557,-1.2645942281686386],[1.1881953894419743,1.0650525998809661,0.15323374484199084,-1.4902642780454276],[-1.2148586319345078,-2.085493774929927,3.3393472019745825,3.1661091455885586]],"accuracy_validation":0.9777777777777777,"mse_training":0.13333333333333333,"accuracy_training":0.9333333333333333,"mse_validation":0.044444444444444446,"bias":1.5389505060917514E-17},{"epoch":30,"weights":[[1.496862414679994,2.976576674626344,-2.7810334930373326,-1.2482402517864923],[1.1834137165926366,1.0496944434573527,0.15926719285101804,-1.4652874021070947],[-1.195742174206497,-2.0452836745160945,3.2996628180895344,3.1247782932680805]],"accuracy_validation":0.9777777777777777,"mse_training":0.13333333333333333,"accuracy_training":0.9333333333333333,"mse_validation":0.044444444444444446,"bias":3.166482454385118E-17},{"epoch":29,"weights":[[1.4821511830961047,2.9510404336050966,-2.7464760444295484,-1.231466692208721],[1.1783870239313912,1.03409485607607,0.1655876261503157,-1.439849671226085],[-1.176004249961361,-2.004147846113566,3.2587849361824524,3.0825670028092995]],"accuracy_validation":0.9777777777777777,"mse_training":0.13333333333333333,"accuracy_training":0.9333333333333333,"mse_validation":0.044444444444444446,"bias":-9.098792113382445E-18},{"epoch":28,"weights":[[1.4670424153669681,2.9247789297076725,-2.7109593476388865,-1.2142494532663777],[1.1730925356657622,1.0182517070791652,0.17221281492692445,-1.4139132896642743],[-1.1556009939665954,-1.9620431932192357,3.216643050615185,3.0394133823051424]],"accuracy_validation":0.9777777777777777,"mse_training":0.1523809523809524,"accuracy_training":0.9238095238095239,"mse_validation":0.044444444444444446,"bias":-2.8256037151035244E-18},{"epoch":27,"weights":[[1.4515132226967888,2.8977473881007327,-2.6744258439705395,-1.1965622414623125],[1.1675048601884923,1.0021636544881556,0.17916162519392087,-1.3874352211636929],[-1.1344841258191467,-1.9189235990212834,3.173160736679839,2.995248102000494]],"accuracy_validation":0.9777777777777777,"mse_training":0.1523809523809524,"accuracy_training":0.9238095238095239,"mse_validation":0.044444444444444446,"bias":-2.337257784564644E-17},{"epoch":26,"weights":[[1.4355387003971158,2.8698967366772,-2.6368125262708495,-1.1783762795903299],[1.1615956360275816,0.9858303708142863,0.18645403620001555,-1.3603663900866494],[-1.1126003793585635,-1.8747396639238811,3.1282550079740528,2.9499933090514716]],"accuracy_validation":0.9777777777777777,"mse_training":0.1523809523809524,"accuracy_training":0.9238095238095239,"mse_validation":0.044444444444444446,"bias":-2.1475557665738827E-17},{"epoch":25,"weights":[[1.4190916735141836,2.84117303273682,-2.598050202917133,-1.1596599688692153],[1.1553331234398163,0.9692528258839727,0.19411114022032025,-1.3326507535017929],[-1.0898908398878695,-1.8294384150531886,3.0818355806000315,2.9035613617455]],"accuracy_validation":0.9777777777777777,"mse_training":0.1523809523809524,"accuracy_training":0.9238095238095239,"mse_validation":0.044444444444444446,"bias":-1.8136866013220732E-17},{"epoch":24,"weights":[[1.4021423956639372,2.811516784949421,-2.5580626250610248,-1.140378487338578],[1.1486817296444172,0.9524336403484887,0.20215512206227548,-1.3042242220322604],[-1.0662901682422246,-1.7829629817303076,3.0338040209019663,2.8558533487453333]],"accuracy_validation":0.9777777777777777,"mse_training":0.1523809523809524,"accuracy_training":0.9238095238095239,"mse_validation":0.044444444444444446,"bias":-4.841738347026902E-17},{"epoch":23,"weights":[[1.3846581903416273,2.780862145983174,-2.5167654438027327,-1.1204933087834554],[1.1416014500882843,0.9353775253931004,0.21060921883639855,-1.2750134027432187],[-1.0417256833637816,-1.7352522278086744,2.984052742869551,2.8067573509011687]],"accuracy_validation":0.9777777777777777,"mse_training":0.17142857142857143,"accuracy_training":0.9142857142857143,"mse_validation":0.044444444444444446,"bias":-2.2415818224103108E-17},{"epoch":22,"weights":[[1.3666030226056056,2.7491359456279216,-2.4740649544950832,-1.0999616220093724],[1.1340471990090975,0.9180918246556813,0.21949766740005205,-1.2449341312959152],[-1.0161162645485728,-1.6862403267160033,2.932463804998247,2.756146392679782]],"accuracy_validation":0.9777777777777777,"mse_training":0.17142857142857143,"accuracy_training":0.9142857142857143,"mse_validation":0.044444444444444446,"bias":-3.616537600829574E-17},{"epoch":21,"weights":[[1.3479369888103954,2.7162565286068254,-2.4298565734925655,-1.0787356247497966],[1.125967988193447,0.9005871718624759,0.2288456595802812,-1.2138897523121464],[-0.9893710199377115,-1.6358562569017026,2.878907431815502,2.703876016436436]],"accuracy_validation":0.9777777777777777,"mse_training":0.17142857142857143,"accuracy_training":0.9142857142857143,"mse_validation":0.044444444444444446,"bias":-5.5814625491464085E-18},{"epoch":20,"weights":[[1.328615714029318,2.682132356557077,-2.384022978394369,-1.0567616598506735],[1.1173058912971559,0.8828782696484967,0.2386793465582471,-1.1817690954471467],[-0.9613876482603452,-1.5840231826379774,2.823240149739339,2.649781394672313]],"accuracy_validation":0.9777777777777777,"mse_training":0.17142857142857143,"accuracy_training":0.9142857142857143,"mse_validation":0.044444444444444446,"bias":2.1122014085830863E-17},{"epoch":19,"weights":[[1.3085896521510143,2.646660331430416,-2.3364318269139415,-1.033979153903583],[1.107994700953801,0.8649847779703366,0.24902596644561117,-1.1484440790840662],[-0.9320503960386859,-1.5306576658331563,2.7653023783715476,2.593673872362141]],"accuracy_validation":0.9333333333333333,"mse_training":0.17142857142857143,"accuracy_training":0.9142857142857143,"mse_validation":0.13333333333333333,"bias":5.474816037914399E-17},{"epoch":18,"weights":[[1.2878032931879637,2.6097237998169547,-2.2869329539782406,-1.0103193109213358],[1.097958147449319,0.8469322702829203,0.25991421491989664,-1.1137668532335125],[-0.9012274835711521,-1.475668626532278,2.7049152569615633,2.5353368035293466]],"accuracy_validation":0.9333333333333333,"mse_training":0.17142857142857143,"accuracy_training":0.9142857142857143,"mse_validation":0.13333333333333333,"bias":4.939552722849067E-17},{"epoch":17,"weights":[[1.2661942956175551,2.571190206467257,-2.2353549356978433,-0.9857035074617453],[1.0871075049228773,0.8287531680191077,0.2713750372972985,-1.0775663686560404],[-0.8687678434743022,-1.418955930918768,2.641876416303765,2.4745205154922867]],"accuracy_validation":0.8888888888888888,"mse_training":0.17142857142857143,"accuracy_training":0.9142857142857143,"mse_validation":0.2222222222222222,"bias":7.514754532991897E-17},{"epoch":16,"weights":[[1.243692575420583,2.530908381955842,-2.181500909957594,-0.9600413335236031],[1.0753383733059543,0.8104874951633311,0.2834430881546681,-1.0396442330191202],[-0.8344969916604079,-1.3604084335515758,2.575954339706147,2.4109362059172237]],"accuracy_validation":0.8666666666666667,"mse_training":0.17142857142857143,"accuracy_training":0.9142857142857143,"mse_validation":0.26666666666666666,"bias":6.052813186529967E-17},{"epoch":15,"weights":[[1.2202193907018841,2.488705474146936,-2.1251435691959246,-0.9332282303554875],[1.0625264069810736,0.7921832011256542,0.29615917744080195,-0.999769692566782],[-0.7982118406168296,-1.2999012317049934,2.5068809096583435,2.34424856229677]],"accuracy_validation":0.8666666666666667,"mse_training":0.17142857142857143,"accuracy_training":0.9142857142857143,"mse_validation":0.26666666666666666,"bias":4.512790456191156E-17},{"epoch":14,"weights":[[1.195686450140564,2.4443835655470907,-2.066019312284418,-0.9051427006140488],[1.048521783651241,0.7738956755968042,0.3095741018044826,-0.9576735680639246],[-0.7596742767256773,-1.237291797576297,2.4343417283831585,2.274066908052475]],"accuracy_validation":0.8666666666666667,"mse_training":0.19047619047619047,"accuracy_training":0.9047619047619048,"mse_validation":0.26666666666666666,"bias":2.6891233583184438E-17},{"epoch":13,"weights":[[1.1699950330643754,2.3977160617506788,-2.003821693167636,-0.8756431236174712],[1.0331422886977542,0.7556859139357022,0.3237543607695371,-0.9130409893580368],[-0.7186033646960018,-1.1724145321187815,2.3579638503013216,2.1999347523500097]],"accuracy_validation":0.8666666666666667,"mse_training":0.20952380952380953,"accuracy_training":0.8952380952380953,"mse_validation":0.26666666666666666,"bias":4.3434724321413E-17},{"epoch":12,"weights":[[1.1430350337081996,2.3484440035602616,-1.9381945866592931,-0.8445643255646399],[1.0161650565345595,0.737616587873405,0.33879039024435037,-0.8655028371015053],[-0.6746661331766304,-1.105073147866069,2.277300714318165,2.1213178020406467]],"accuracy_validation":0.8444444444444444,"mse_training":0.2857142857142857,"accuracy_training":0.8571428571428571,"mse_validation":0.3111111111111111,"bias":5.448782925407096E-17},{"epoch":11,"weights":[[1.1146837441080504,2.2962725753202187,-1.868725973191857,-0.8117142696311987],[0.9973173282416464,0.7197451180684448,0.35480803023795787,-0.814625977242135],[-0.6274671152835678,-1.035030249821065,2.1918144608571186,2.037590886247837]],"accuracy_validation":0.8222222222222222,"mse_training":0.3238095238095238,"accuracy_training":0.8380952380952381,"mse_validation":0.35555555555555557,"bias":4.240660689697404E-17},{"epoch":10,"weights":[[1.0848041105734645,2.24086827924949,-1.794943940752248,-0.7768715647019562],[0.9762672535761501,0.7021130973041834,0.3719835600629881,-0.7599028668203834],[-0.5765374070834852,-0.9619939329860767,2.1008568985924776,1.9480250708968432]],"accuracy_validation":0.8,"mse_training":0.3619047619047619,"accuracy_training":0.819047619047619,"mse_validation":0.4,"bias":4.7734600902473305E-17},{"epoch":9,"weights":[[1.0532422370928811,2.181857451156062,-1.7163171055002717,-0.7397848175018776],[0.9526172534130013,0.6847331414410959,0.39056050353981436,-0.7007425182927006],[-0.5213255334397511,-0.8856031490295619,2.0036531198636762,1.8517779751690813]],"accuracy_validation":0.8,"mse_training":0.41904761904761906,"accuracy_training":0.7904761904761904,"mse_validation":0.4,"bias":7.112945092645223E-17},{"epoch":8,"weights":[[1.0198242083138542,2.1188265167620197,-1.632260752599433,-0.7001745148346142],[0.9259056157147357,0.6675797719309451,0.41085963717224505,-0.6364686530896337],[-0.4611958669624586,-0.8054188451253671,1.8992976333304032,1.7478938072987518]],"accuracy_validation":0.7777777777777778,"mse_training":0.47619047619047616,"accuracy_training":0.7619047619047619,"mse_validation":0.4444444444444444,"bias":4.6332925619749924E-17},{"epoch":7,"weights":[[0.9843525679248778,2.051321696606069,-1.5421436364546544,-0.6577352007543597],[0.895627832872128,0.6506031531378423,0.4332580194584318,-0.5663398273444364],[-0.3954464437308737,-0.7209374061763134,1.7867821348994377,1.6353256674732983]],"accuracy_validation":0.7333333333333333,"mse_training":0.5333333333333333,"accuracy_training":0.7333333333333333,"mse_validation":0.5333333333333333,"bias":4.909540181623369E-17},{"epoch":6,"weights":[[0.9466005950022034,1.978835508840045,-1.4452713840547864,-0.6121266837301689],[0.8612962850060755,0.6337999597659323,0.458089888923368,-0.48961977231611864],[-0.3233629229421469,-0.6316480250383836,1.6650780130346343,1.5129970954207888]],"accuracy_validation":0.6666666666666666,"mse_training":0.5714285714285714,"accuracy_training":0.7142857142857143,"mse_validation":0.6666666666666666,"bias":5.49919073290966E-17},{"epoch":5,"weights":[[0.9062924106265354,1.900742229384216,-1.3407860590094274,-0.5629256995799533],[0.8225522544656578,0.617371046346774,0.48541795232625057,-0.4057238547789818],[-0.24431070802606064,-0.5371258321633956,1.5332646245863935,1.3799001937334372]],"accuracy_validation":0.6444444444444445,"mse_training":0.5904761904761905,"accuracy_training":0.7047619047619048,"mse_validation":0.7111111111111111,"bias":7.591049980986726E-17},{"epoch":4,"weights":[[0.863039245760319,1.8161071333889505,-1.227371560057816,-0.5094867543200826],[0.7793078097205918,0.601952317866316,0.5146712932259778,-0.314422210396533],[-0.15781309841477767,-0.4370720076876721,1.3905967847350542,1.235159604091117]],"accuracy_validation":0.6,"mse_training":0.6095238095238096,"accuracy_training":0.6952380952380952,"mse_validation":0.8,"bias":7.237283282434181E-17},{"epoch":3,"weights":[[0.816184266166878,1.7232370440901261,-1.1025477804802244,-0.45061353116548236],[0.7318687078986024,0.5888995975346335,0.5441630293563381,-0.21607642153726875],[-0.06351901699934814,-0.3311491980571654,1.2362812690271037,1.0779405920772525]],"accuracy_validation":0.6,"mse_training":0.6095238095238096,"accuracy_training":0.6952380952380952,"mse_validation":0.8,"bias":7.871429744989166E-17},{"epoch":2,"weights":[[0.7643991036242026,1.6185795135567127,-0.9609220222595536,-0.3837457250628709],[0.6810825094045825,0.5807723528194467,0.5702938269226313,-0.11206942205552557],[0.03905234403734649,-0.21836442280856555,1.0685247132401392,0.9070657864928979]],"accuracy_validation":0.6,"mse_training":0.6095238095238096,"accuracy_training":0.6952380952380952,"mse_validation":0.8,"bias":5.718732778992041E-17},{"epoch":1,"weights":[[0.704174726203056,1.493271044104433,-0.7890645504604706,-0.30252100824707673],[0.6288777647549025,0.5827251279022934,0.5854705791975338,-0.005996130523248776],[0.15148146610817306,-0.09500872843913138,0.8814904891661532,0.7197677781448264]],"accuracy_validation":0.6,"mse_training":0.6095238095238096,"accuracy_training":0.6952380952380952,"mse_validation":0.8,"bias":4.363696903819657E-17},{"epoch":0,"weights":[[0.6216559729052945,1.3175970655261253,-0.5449608771145061,-0.1865934272211648],[0.5815674795682602,0.6090454207722703,0.5693718400935012,0.09171807611421462],[0.2813105045925767,0.05434495726919884,0.6534855549242207,0.5061259904814509]],"accuracy_validation":0.6,"mse_training":0.6095238095238096,"accuracy_training":0.6952380952380952,"mse_validation":0.8,"bias":2.4797872089088454E-17}]