[{"epoch":99,"weights":[[5.646086206178859,11.039014049513561,-12.466127265186735,-5.976363100274435],[6.542332637140163,3.6129216336318497,-2.4637831698299313,-14.913852055857001],[-10.58941599767584,-12.166173638543373,16.71670307879515,21.64126386587973]],"accuracy_validation":0.9333333333333333,"mse_training":0.05714285714285714,"accuracy_training":0.9714285714285714,"mse_validation":0.13333333333333333,"bias":-3.986137708592899E-16},{"epoch":98,"weights":[[6.020901509878597,11.229780412742201,-12.203370968175491,-5.8866495131736],[6.762412990765513,3.7030964129966737,-2.1039464414147444,-14.756700695803913],[-11.18431165500092,-12.447114781136843,16.09411005336871,21.394398918725802]],"accuracy_validation":0.9777777777777777,"mse_training":0.1523809523809524,"accuracy_training":0.9238095238095239,"mse_validation":0.044444444444444446,"bias":-2.772571335850738E-16},{"epoch":97,"weights":[[5.628019866667084,10.979840293920468,-12.322278459918696,-5.8940856920449916],[6.400920447484739,3.7092232499945257,-2.4100697936790194,-14.773091759208855],[-10.42993746850864,-12.203301499312968,16.519140897376193,21.41822616100214]],"accuracy_validation":0.9333333333333333,"mse_training":0.05714285714285714,"accuracy_training":0.9714285714285714,"mse_validation":0.13333333333333333,"bias":-2.537290513407249E-16},{"epoch":96,"weights":[[6.022272207647061,11.175801039870825,-12.057072525401857,-5.800225919503167],[6.587070697965818,3.752106158002386,-2.05233492618603,-14.667455526360534],[-11.01034005996969,-12.442145153271197,15.896200095366357,21.218730155611986]],"accuracy_validation":0.9777777777777777,"mse_training":0.1523809523809524,"accuracy_training":0.9238095238095239,"mse_validation":0.044444444444444446,"bias":-2.740938353051719E-16},{"epoch":95,"weights":[[5.547107594387039,10.87434620313066,-12.202008201711047,-5.809716695545878],[6.4585843223897275,3.8289236406860203,-2.2132652859550124,-14.678448531616693],[-10.406689071133577,-12.217507799214674,16.202066131444536,21.239213936910843]],"accuracy_validation":0.9333333333333333,"mse_training":0.0380952380952381,"accuracy_training":0.9809523809523809,"mse_validation":0.13333333333333333,"bias":-2.282603316797834E-16},{"epoch":94,"weights":[[5.871830785479601,11.03094478868093,-11.935266341460931,-5.71741944941452],[6.653493961135434,3.8166938890493847,-1.9708261018552014,-14.529736880099119],[-10.926321900971832,-12.36187663312831,15.692885087094604,20.998205039261894]],"accuracy_validation":0.9333333333333333,"mse_training":0.24761904761904763,"accuracy_training":0.8761904761904762,"mse_validation":0.13333333333333333,"bias":-2.895978254054055E-16},{"epoch":93,"weights":[[5.614277411256833,10.864160357851334,-12.006515329585923,-5.7177211961040815],[6.450671293159139,3.830048128651421,-2.062595187039588,-14.48102802976309],[-10.465945858772766,-12.208446441900731,15.855903160403976,20.949797935615436]],"accuracy_validation":0.9555555555555556,"mse_training":0.0761904761904762,"accuracy_training":0.9619047619047619,"mse_validation":0.08888888888888889,"bias":-2.6566707414452957E-16},{"epoch":92,"weights":[[5.6969199059636635,10.886638554121152,-11.870624299139953,-5.659916519681373],[6.60711366246043,3.8258779552660496,-1.9004979357443843,-14.361840524086913],[-10.705030722780878,-12.226754464785175,15.557914878662784,20.772805753516554]],"accuracy_validation":0.9333333333333333,"mse_training":0.20952380952380953,"accuracy_training":0.8952380952380953,"mse_validation":0.13333333333333333,"bias":-3.82536171258441E-16},{"epoch":91,"weights":[[5.718260336178445,10.880764030539277,-11.823920550282693,-5.633549161060597],[6.534675308588943,3.868724739881781,-1.7451215622810412,-14.240099574335748],[-10.653932799124174,-12.263726725819037,15.355834756342187,20.624697445144598]],"accuracy_validation":0.9333333333333333,"mse_training":0.3047619047619048,"accuracy_training":0.8476190476190476,"mse_validation":0.13333333333333333,"bias":-3.4362571790418137E-16},{"epoch":90,"weights":[[5.635320200474628,10.819084744115797,-11.826172410331424,-5.622768715979649],[6.476740961506238,3.7864924773241864,-1.75049881691664,-14.126922793634403],[-10.513058316337657,-12.119815176837959,15.363463871026502,20.500740219362296]],"accuracy_validation":0.9333333333333333,"mse_training":0.24761904761904763,"accuracy_training":0.8761904761904762,"mse_validation":0.13333333333333333,"bias":-3.2152600464267224E-16},{"epoch":89,"weights":[[5.798554498952086,10.87917315877472,-11.687352338666782,-5.561733223572217],[6.076143099086269,3.5932274331306058,-1.92615501576859,-14.134408021356924],[-10.275694752395145,-11.986638547303299,15.400299998213821,20.44718995467738]],"accuracy_validation":0.9555555555555556,"mse_training":0.05714285714285714,"accuracy_training":0.9714285714285714,"mse_validation":0.08888888888888889,"bias":-4.044896726561454E-16},{"epoch":88,"weights":[[5.641230927250225,10.726424936434734,-11.53363617728204,-5.462040189414356],[6.383113144437005,3.768904216674791,-1.7425818192506164,-14.07183866245722],[-10.425341226044024,-12.009567108507508,15.06301064031109,20.28492756161981]],"accuracy_validation":0.9333333333333333,"mse_training":0.3047619047619048,"accuracy_training":0.8476190476190476,"mse_validation":0.13333333333333333,"bias":-3.595659049340072E-16},{"epoch":87,"weights":[[5.644662488200449,10.693988663865689,-11.46196948763599,-5.416899736810445],[6.246041062386934,3.8202774795393726,-1.689046362302452,-13.946479638305085],[-10.291700704944178,-12.028504098803053,14.93780849371688,20.11442808486375]],"accuracy_validation":0.9333333333333333,"mse_training":0.2857142857142857,"accuracy_training":0.8571428571428571,"mse_validation":0.13333333333333333,"bias":-3.3037628435966916E-16},{"epoch":86,"weights":[[5.607492505950537,10.633889390767175,-11.378498206938584,-5.367773793581848],[6.227686056225811,3.7610603915417986,-1.6969882308144697,-13.864861458917709],[-10.236175716533138,-11.909187737706967,14.862279081531502,19.983683962247788]],"accuracy_validation":0.9333333333333333,"mse_training":0.26666666666666666,"accuracy_training":0.8666666666666667,"mse_validation":0.13333333333333333,"bias":-3.259821996346435E-16},{"epoch":85,"weights":[[5.5429722858691655,10.560234590287061,-11.311360060055428,-5.3231031814566405],[6.189175983588501,3.711937125961898,-1.7337110835458986,-13.798808787409456],[-10.133145423814462,-11.78640967164695,14.831863787379781,19.872960678614337]],"accuracy_validation":0.9333333333333333,"mse_training":0.17142857142857143,"accuracy_training":0.9142857142857143,"mse_validation":0.13333333333333333,"bias":-3.0354658768504956E-16},{"epoch":84,"weights":[[5.570035151872463,10.530832509241352,-11.18360089667911,-5.260055492914633],[6.187966775366622,3.661001255650003,-1.7192968334294838,-13.705745235103658],[-10.158999081595873,-11.706071720289344,14.689690373887045,19.716849437766523]],"accuracy_validation":0.9333333333333333,"mse_training":0.26666666666666666,"accuracy_training":0.8666666666666667,"mse_validation":0.13333333333333333,"bias":-4.3077393488169185E-16},{"epoch":83,"weights":[[5.266704776755853,10.331910392342603,-11.259111971325849,-5.256911711570525],[6.062102432947281,3.5376000959939695,-1.9409748682008932,-13.70740752585053],[-9.729804364059927,-11.383748443734559,14.986879483305207,19.71536794716928]],"accuracy_validation":0.9333333333333333,"mse_training":0.0380952380952381,"accuracy_training":0.9809523809523809,"mse_validation":0.13333333333333333,"bias":-3.612200277714778E-16},{"epoch":82,"weights":[[5.450592259814181,10.416791234144178,-11.138357474768213,-5.211442766678498],[5.920430894231467,3.492622481389855,-1.8398528577285096,-13.576817795588536],[-9.772020308402446,-11.42365167093202,14.765002976275197,19.53930927201526]],"accuracy_validation":0.9555555555555556,"mse_training":0.05714285714285714,"accuracy_training":0.9714285714285714,"mse_validation":0.08888888888888889,"bias":-3.921039694099711E-16},{"epoch":81,"weights":[[5.493218820748572,10.37650982444617,-10.923250336852213,-5.106792775259725],[6.111139229201365,3.5238497287365127,-1.7423453889897935,-13.486426483550751],[-10.00535520430673,-11.414597508580668,14.45238836962048,19.344267968558697]],"accuracy_validation":0.9333333333333333,"mse_training":0.20952380952380953,"accuracy_training":0.8952380952380953,"mse_validation":0.13333333333333333,"bias":-3.8097989894734524E-16},{"epoch":80,"weights":[[5.132307531498224,10.14508741365477,-11.02868495341576,-5.110883405982301],[5.771467693235071,3.511823457198768,-1.99186571297186,-13.525765222251055],[-9.30477237909008,-11.171148826251528,14.807343310166102,19.387697337981564]],"accuracy_validation":0.9333333333333333,"mse_training":0.0380952380952381,"accuracy_training":0.9809523809523809,"mse_validation":0.13333333333333333,"bias":-4.376173539368823E-16},{"epoch":79,"weights":[[5.384027232064885,10.26181356261884,-10.845656693177997,-5.050656003340116],[6.115369353812832,3.488821316455449,-1.6210638871399643,-13.293833094743382],[-9.900393740234497,-11.264872834472284,14.25351322409645,19.095537807831697]],"accuracy_validation":0.9333333333333333,"mse_training":0.3047619047619048,"accuracy_training":0.8476190476190476,"mse_validation":0.13333333333333333,"bias":-3.833049082247598E-16},{"epoch":78,"weights":[[5.422618650005706,10.238184001189639,-10.729480599358084,-4.991011568029042],[5.964077002025926,3.4889465516502103,-1.6782858190836574,-13.182642909712007],[-9.787692806388417,-11.241368508237846,14.194559062220238,18.92470318748923]],"accuracy_validation":0.9333333333333333,"mse_training":0.20952380952380953,"accuracy_training":0.8952380952380953,"mse_validation":0.13333333333333333,"bias":-2.4195826138114656E-16},{"epoch":77,"weights":[[5.432212911103087,10.182150256970147,-10.598318409351668,-4.912603110943306],[5.846724216677262,3.532997432787669,-1.7110306725503877,-13.113596121144463],[-9.679934282137138,-11.229385645155821,14.09614172568054,18.77724794183594]],"accuracy_validation":0.9333333333333333,"mse_training":0.17142857142857143,"accuracy_training":0.9142857142857143,"mse_validation":0.13333333333333333,"bias":-2.418982624836433E-16},{"epoch":76,"weights":[[5.447274321899638,10.116138621992746,-10.434162310926446,-4.820171769231054],[5.783943087369023,3.572373569890577,-1.807047646440177,-13.05375680545993],[-9.632214563625453,-11.202750147281312,14.028002601145106,18.62497728443918]],"accuracy_validation":0.9333333333333333,"mse_training":0.17142857142857143,"accuracy_training":0.9142857142857143,"mse_validation":0.13333333333333333,"bias":-2.6104402135985492E-17},{"epoch":75,"weights":[[4.88639405283758,9.75495548665847,-10.600872519706185,-4.829938834081904],[5.6793041661371495,3.5774944143456247,-2.119955620247042,-13.106792586300493],[-8.966695373331518,-10.846687856402097,14.507620783731705,18.687780130130594]],"accuracy_validation":0.9333333333333333,"mse_training":0.0761904761904762,"accuracy_training":0.9619047619047619,"mse_validation":0.13333333333333333,"bias":1.0001181156637104E-16},{"epoch":74,"weights":[[4.9192836023563045,9.748223081763607,-10.505573305189236,-4.785765959809435],[5.604330811555297,3.55139956842178,-2.0354711971737527,-13.02191189001597],[-8.924611568268384,-10.813860605583393,14.327837146141468,18.558726559573607]],"accuracy_validation":0.9333333333333333,"mse_training":0.05714285714285714,"accuracy_training":0.9714285714285714,"mse_validation":0.13333333333333333,"bias":2.2820714720667404E-16},{"epoch":73,"weights":[[4.793710385928514,9.65326453643819,-10.522927722463164,-4.779485553453863],[5.495171812159597,3.6226141795941986,-1.996227145004137,-12.875660446852018],[-8.689879352444898,-10.790116671430386,14.305947511245776,18.406194710054088]],"accuracy_validation":0.9333333333333333,"mse_training":0.05714285714285714,"accuracy_training":0.9714285714285714,"mse_validation":0.13333333333333333,"bias":2.4103497636061663E-16},{"epoch":72,"weights":[[4.851911295553159,9.649973165738619,-10.366674574633633,-4.709531084759483],[5.566054318825808,3.5063009361485706,-1.9871671449004489,-12.81055156277387],[-8.818962768735757,-10.670512057285201,14.140634363312547,18.271131357281565]],"accuracy_validation":0.9333333333333333,"mse_training":0.0380952380952381,"accuracy_training":0.9809523809523809,"mse_validation":0.13333333333333333,"bias":1.0915119859848924E-16},{"epoch":71,"weights":[[4.831857552519535,9.622389289676963,-10.333247873958987,-4.688808629332031],[5.427799753301481,3.526324063897495,-1.9324613875909844,-12.678617789975627],[-8.660654460177804,-10.662951308972463,14.052501905328432,18.118475129055874]],"accuracy_validation":0.9333333333333333,"mse_training":0.05714285714285714,"accuracy_training":0.9714285714285714,"mse_validation":0.13333333333333333,"bias":2.1626541680733794E-16},{"epoch":70,"weights":[[4.703213337838913,9.530618009093859,-10.36380936819574,-4.6882510017613885],[5.345723991649524,3.6021387931774176,-1.8716040383878667,-12.52025280275298],[-8.449934483845224,-10.64699475766928,14.022206050362074,17.959552514262587]],"accuracy_validation":0.9333333333333333,"mse_training":0.0761904761904762,"accuracy_training":0.9619047619047619,"mse_validation":0.13333333333333333,"bias":8.132591252366406E-17},{"epoch":69,"weights":[[4.96570367274411,9.642037524101498,-10.094688265945134,-4.5872633496779125],[5.521571660231153,3.6779089694060887,-1.626085509101541,-12.351921729140532],[-8.888272487332037,-10.834184448905592,13.507566418825146,17.690233788566673]],"accuracy_validation":0.9777777777777777,"mse_training":0.1523809523809524,"accuracy_training":0.9238095238095239,"mse_validation":0.044444444444444446,"bias":1.5578128419402116E-16},{"epoch":68,"weights":[[5.180606495926675,9.703542953308112,-9.878283047548294,-4.501627758877569],[5.329194247747059,3.6770170326392146,-1.6153946275781368,-12.241286756267561],[-8.910797898030504,-10.894797941345333,13.280470318904896,17.49396322489336]],"accuracy_validation":0.9333333333333333,"mse_training":0.17142857142857143,"accuracy_training":0.9142857142857143,"mse_validation":0.13333333333333333,"bias":1.9671830907113147E-16},{"epoch":67,"weights":[[4.629499113127558,9.34586121511199,-10.03835986976754,-4.5091803835409445],[5.13570372440654,3.7723491873140884,-1.8509640293762781,-12.214781404945544],[-8.166199991890865,-10.63244835782408,13.676116542922276,17.47501049823472]],"accuracy_validation":0.9333333333333333,"mse_training":0.0761904761904762,"accuracy_training":0.9619047619047619,"mse_validation":0.13333333333333333,"bias":6.652978396322243E-17},{"epoch":66,"weights":[[4.678421320809436,9.32987808052608,-9.879350761311748,-4.43677439283518],[5.033155738646448,3.7650193249889465,-1.8735384096976464,-12.12384093004271],[-8.112574213812634,-10.609135360913026,13.539681814787865,17.311664032626123]],"accuracy_validation":0.9333333333333333,"mse_training":0.0761904761904762,"accuracy_training":0.9619047619047619,"mse_validation":0.13333333333333333,"bias":8.805955333286992E-17},{"epoch":65,"weights":[[4.732171975715108,9.338913109501451,-9.80695188072195,-4.406556939588204],[5.2660389732966735,3.727334547024213,-1.6942841918862308,-11.975772835970563],[-8.399208103368537,-10.580485611923663,13.288028716386666,17.133378485306977]],"accuracy_validation":0.9555555555555556,"mse_training":0.11428571428571428,"accuracy_training":0.9428571428571428,"mse_validation":0.08888888888888889,"bias":-7.236894044607926E-17},{"epoch":64,"weights":[[4.666291626306276,9.275361734791893,-9.778276720329195,-4.38226349761068],[5.2645515357645145,3.6112651394884754,-1.7496566309218575,-11.889386113882919],[-8.331840316427538,-10.400864829678373,13.31472599502953,17.02269832124182]],"accuracy_validation":0.9555555555555556,"mse_training":0.05714285714285714,"accuracy_training":0.9714285714285714,"mse_validation":0.08888888888888889,"bias":7.551101496786687E-17},{"epoch":63,"weights":[[4.860110028389494,9.35568972363831,-9.630388776218568,-4.327294059180447],[5.243735446787114,3.681199010299562,-1.559566315079452,-11.672609194464092],[-8.50484262953336,-10.55112668933588,12.976747735076499,16.750951963392733]],"accuracy_validation":0.9333333333333333,"mse_training":0.19047619047619047,"accuracy_training":0.9047619047619048,"mse_validation":0.13333333333333333,"bias":1.242592368599724E-16},{"epoch":62,"weights":[[4.939844243503237,9.34568306748132,-9.48161139766696,-4.259222588195719],[5.06974744277477,3.724204887164783,-1.5737707215774366,-11.538824476124287],[-8.410588840634755,-10.584125910044103,12.84217476302287,16.549095774068192]],"accuracy_validation":0.9333333333333333,"mse_training":0.17142857142857143,"accuracy_training":0.9142857142857143,"mse_validation":0.13333333333333333,"bias":1.4593082040921419E-16},{"epoch":61,"weights":[[4.537890093706322,9.072970604557403,-9.567316348260205,-4.2470100130224395],[4.97359513059685,3.6840748697854715,-1.7670525009898517,-11.530455810385579],[-7.912482378659925,-10.271283429740873,13.12116149302853,16.528514533156173]],"accuracy_validation":0.9333333333333333,"mse_training":0.0380952380952381,"accuracy_training":0.9809523809523809,"mse_validation":0.13333333333333333,"bias":2.849943532553501E-16},{"epoch":60,"weights":[[4.783803070637728,9.177826046349614,-9.375275171154389,-4.173288297173908],[4.9808159269578764,3.7439424928653944,-1.553947060448811,-11.334957269842265],[-8.165616151952358,-10.436006494613016,12.716014875381681,16.25929427676431]],"accuracy_validation":0.9777777777777777,"mse_training":0.1523809523809524,"accuracy_training":0.9238095238095239,"mse_validation":0.044444444444444446,"bias":1.7021423098124457E-16},{"epoch":59,"weights":[[4.497834702323238,8.973470136300406,-9.413100890658264,-4.153797690864212],[4.96804956437481,3.6721820072990625,-1.716759342095186,-11.313751282744573],[-7.8668814210547975,-10.15989009899747,12.916652876531922,16.2185976833569]],"accuracy_validation":0.9555555555555556,"mse_training":0.0380952380952381,"accuracy_training":0.9809523809523809,"mse_validation":0.08888888888888889,"bias":1.30657939986262E-16},{"epoch":58,"weights":[[4.465293459522906,8.929064830285562,-9.371939410356484,-4.128658195543331],[4.979596018958827,3.5718757290751983,-1.74188675365847,-11.219931743466738],[-7.84588663283848,-10.015178514758762,12.900618807793428,16.09963864875818]],"accuracy_validation":0.9333333333333333,"mse_training":0.0380952380952381,"accuracy_training":0.9809523809523809,"mse_validation":0.13333333333333333,"bias":9.230309703144156E-17},{"epoch":57,"weights":[[4.429558722929884,8.882711315254914,-9.33186991574976,-4.103799650055174],[4.976497809923327,3.467962376822611,-1.7747594400927074,-11.125058824952017],[-7.807053687209952,-9.86491164747553,12.893421999620932,15.979907184755293]],"accuracy_validation":0.9333333333333333,"mse_training":0.0380952380952381,"accuracy_training":0.9809523809523809,"mse_validation":0.13333333333333333,"bias":-3.4516504320007926E-17},{"epoch":56,"weights":[[4.418120567351464,8.852475711641361,-9.285087882859967,-4.078346463209479],[5.033603927675722,3.3746588427636994,-1.7612793669575633,-11.010278822011802],[-7.852721649383929,-9.741372509803067,12.833159893595987,15.839673994969374]],"accuracy_validation":0.9333333333333333,"mse_training":0.0380952380952381,"accuracy_training":0.9809523809523809,"mse_validation":0.13333333333333333,"bias":-1.4828700089193477E-16},{"epoch":55,"weights":[[4.376329513113258,8.804600761105084,-9.25133482635821,-4.055759372574291],[5.012794221899044,3.2566173032757724,-1.8093516372425666,-10.918301808691105],[-7.7901208893690415,-9.575456019778875,12.847479107379227,15.725109891013487]],"accuracy_validation":0.9333333333333333,"mse_training":0.0380952380952381,"accuracy_training":0.9809523809523809,"mse_validation":0.13333333333333333,"bias":-2.010293092772951E-16},{"epoch":54,"weights":[[4.327436903485846,8.753482426480272,-9.222371237809377,-4.034547668627524],[5.033674407340767,3.1589332401148638,-1.8252847009185709,-10.810839881965169],[-7.762108465183359,-9.426653621993166,12.834448582506392,15.596436260340777]],"accuracy_validation":0.9333333333333333,"mse_training":0.0380952380952381,"accuracy_training":0.9809523809523809,"mse_validation":0.13333333333333333,"bias":-2.785885789633081E-16},{"epoch":53,"weights":[[4.459767906891578,8.792445886277596,-9.076319605611424,-3.9711874408485404],[5.143886265468353,3.191346675252853,-1.6479963702538432,-10.533999176380012],[-8.004651326716676,-9.498030516928477,12.511108619643718,15.256235326976638]],"accuracy_validation":0.9555555555555556,"mse_training":0.1523809523809524,"accuracy_training":0.9238095238095239,"mse_validation":0.08888888888888889,"bias":-2.993247203510375E-16},{"epoch":52,"weights":[[4.5348358980877785,8.77346592803551,-8.91353177632855,-3.8980672668095244],[5.220462046649958,3.1278909754926087,-1.612287894040976,-10.418759278024549],[-8.156295099094482,-9.415594858926154,12.312612314147971,15.06787525458216]],"accuracy_validation":0.9333333333333333,"mse_training":0.3047619047619048,"accuracy_training":0.8476190476190476,"mse_validation":0.13333333333333333,"bias":-2.5627671485028425E-16},{"epoch":51,"weights":[[4.497587855270023,8.724796149132766,-8.861314937607006,-3.8636131677612227],[5.075777372196993,3.0980369921884416,-1.670745208954968,-10.320839514849085],[-7.9743623818237594,-9.33707109671925,12.318852790340424,14.935501392358404]],"accuracy_validation":0.9555555555555556,"mse_training":0.1523809523809524,"accuracy_training":0.9238095238095239,"mse_validation":0.08888888888888889,"bias":-3.9540704677425856E-16},{"epoch":50,"weights":[[4.432985367701287,8.641506627823631,-8.79027013288913,-3.8140039259358036],[5.10929163813436,3.111422682138732,-1.6760827735306194,-10.217968139661663],[-7.943274160192394,-9.267167265360397,12.253145550198196,14.783020775345557]],"accuracy_validation":0.9333333333333333,"mse_training":0.17142857142857143,"accuracy_training":0.9142857142857143,"mse_validation":0.13333333333333333,"bias":-4.255398016083762E-16},{"epoch":49,"weights":[[4.385559582721297,8.581412122600906,-8.741260772799517,-3.7790283540509875],[5.077698992222762,3.115183309833348,-1.688142867669172,-10.075134894984947],[-7.8642557293008,-9.210833387832283,12.216196284247136,14.605211958784025]],"accuracy_validation":0.9333333333333333,"mse_training":0.17142857142857143,"accuracy_training":0.9142857142857143,"mse_validation":0.13333333333333333,"bias":-5.587578573685437E-16},{"epoch":48,"weights":[[4.3716755651833,8.537871044289618,-8.67140174477257,-3.7389637071374984],[5.068112291161784,3.074553322389542,-1.689788099130399,-9.897075159953356],[-7.840785010701823,-9.126662322077186,12.147982487681414,14.387087576838942]],"accuracy_validation":0.9333333333333333,"mse_training":0.19047619047619047,"accuracy_training":0.9047619047619048,"mse_validation":0.13333333333333333,"bias":-5.021598895363209E-16},{"epoch":47,"weights":[[4.336221857230651,8.479990619770003,-8.604907478503941,-3.6981017389074404],[5.063774873564479,3.022787685242728,-1.7033228631502344,-9.714775645023163],[-7.800993885151871,-9.017016260410754,12.09502298543261,14.163926093678695]],"accuracy_validation":0.9333333333333333,"mse_training":0.20952380952380953,"accuracy_training":0.8952380952380953,"mse_validation":0.13333333333333333,"bias":-5.334588910372735E-16},{"epoch":46,"weights":[[4.289742579784012,8.420517660249866,-8.552486024703605,-3.663486403248646],[5.045860075307913,2.9759879133078346,-1.7210666877577185,-9.527918425247659],[-7.736599809448659,-8.910743528955724,12.060345356239743,13.942453538244399]],"accuracy_validation":0.9333333333333333,"mse_training":0.20952380952380953,"accuracy_training":0.8952380952380953,"mse_validation":0.13333333333333333,"bias":-6.875732558746395E-16},{"epoch":45,"weights":[[4.222340883348611,8.355542284338556,-8.525459425314775,-3.6389686632751244],[5.014621777670087,2.9394028302085853,-1.746059302442915,-9.361787351341265],[-7.637959815375433,-8.80918306994516,12.058311371536107,13.751804724364476]],"accuracy_validation":0.9555555555555556,"mse_training":0.17142857142857143,"accuracy_training":0.9142857142857143,"mse_validation":0.08888888888888889,"bias":-6.291198091979009E-16},{"epoch":44,"weights":[[4.1599463362120055,8.299011257359846,-8.503319790844774,-3.618715213735796],[4.974361203925527,2.874200482639459,-1.769134336103377,-9.168783446101662],[-7.535304694494262,-8.68744969539733,12.059246770726563,13.538547369585547]],"accuracy_validation":0.9555555555555556,"mse_training":0.1523809523809524,"accuracy_training":0.9238095238095239,"mse_validation":0.08888888888888889,"bias":-6.133583788500583E-16},{"epoch":43,"weights":[[4.003310187148864,8.185551002511906,-8.519956123177495,-3.606360063388453],[4.753050780286356,2.7463478342581893,-1.9741892427325338,-9.028537510664743],[-7.157358121791954,-8.44613679216812,12.280938009688443,13.385946283801275]],"accuracy_validation":0.9333333333333333,"mse_training":0.05714285714285714,"accuracy_training":0.9714285714285714,"mse_validation":0.13333333333333333,"bias":-6.895369504653529E-16},{"epoch":42,"weights":[[4.183017483219702,8.260965654638769,-8.372859130066566,-3.5494743025778535],[4.823033497610889,2.694081381793701,-1.8922099917202342,-8.958133826949368],[-7.407048135187324,-8.46928499183049,12.051861765565215,13.258656839275304]],"accuracy_validation":0.9555555555555556,"mse_training":0.0761904761904762,"accuracy_training":0.9619047619047619,"mse_validation":0.08888888888888889,"bias":-5.947944061499308E-16},{"epoch":41,"weights":[[4.0079626036977976,8.100683603821302,-8.288723602672322,-3.4824068917644864],[4.894508619131806,2.728981619607889,-1.904198538603081,-8.915487435616665],[-7.303468377186331,-8.343903178827201,11.979714785053822,13.148943037129229]],"accuracy_validation":0.9555555555555556,"mse_training":0.09523809523809523,"accuracy_training":0.9523809523809523,"mse_validation":0.08888888888888889,"bias":-6.132060377725964E-16},{"epoch":40,"weights":[[3.93743490125624,8.041764152268353,-8.282249986603388,-3.468126087483009],[4.80315903830764,2.6404646070886826,-2.0046147691522,-8.885558657501505],[-7.141591093920605,-8.19646671475504,12.073657399534008,13.104733454732587]],"accuracy_validation":0.9333333333333333,"mse_training":0.0380952380952381,"accuracy_training":0.9809523809523809,"mse_validation":0.13333333333333333,"bias":-4.342169137463994E-16},{"epoch":39,"weights":[[4.003523561210726,8.061815980171277,-8.210805528947397,-3.440165393083873],[4.948420440044987,2.622452448944091,-1.901349589604038,-8.786701896111936],[-7.352941155612437,-8.198506384513367,11.898947762329843,12.977915998943882]],"accuracy_validation":0.9555555555555556,"mse_training":0.13333333333333333,"accuracy_training":0.9333333333333333,"mse_validation":0.08888888888888889,"bias":-4.1498178084064244E-16},{"epoch":38,"weights":[[3.88868249356407,7.972293709919462,-8.206998072324815,-3.423048879810642],[4.782694138383579,2.506942535202389,-2.0467878302871694,-8.627339399403398],[-7.0723737863043725,-7.993474200519855,12.0405785463904,12.801436988962118]],"accuracy_validation":0.9333333333333333,"mse_training":0.0761904761904762,"accuracy_training":0.9619047619047619,"mse_validation":0.13333333333333333,"bias":-5.876664670702232E-16},{"epoch":37,"weights":[[3.893832388944654,7.956822122824141,-8.161712480898355,-3.3991656251585827],[4.861015273380144,2.4793723396139056,-2.0105494120506178,-8.556161714666162],[-7.155844816681526,-7.950432417836046,11.959054536727395,12.706376049572823]],"accuracy_validation":0.9333333333333333,"mse_training":0.0380952380952381,"accuracy_training":0.9809523809523809,"mse_validation":0.13333333333333333,"bias":-5.778643034708409E-16},{"epoch":36,"weights":[[3.948073318864099,7.9723551519954885,-8.099101942632226,-3.3735096542945873],[4.979178434056854,2.46125271179095,-1.937651384556313,-8.471802163778385],[-7.328248907277691,-7.947845819184438,11.823545970966965,12.596360527821048]],"accuracy_validation":0.9555555555555556,"mse_training":0.1523809523809524,"accuracy_training":0.9238095238095239,"mse_validation":0.08888888888888889,"bias":-5.815785246554079E-16},{"epoch":35,"weights":[[3.9471504445399948,7.951125962641294,-8.049881362576375,-3.3467800363256877],[4.990754869537365,2.426333202419464,-1.9566705488651104,-8.41554983340513],[-7.338902468434102,-7.891697120458754,11.793344555219914,12.513378579478893]],"accuracy_validation":0.9555555555555556,"mse_training":0.1523809523809524,"accuracy_training":0.9238095238095239,"mse_validation":0.08888888888888889,"bias":-5.271791401373128E-16},{"epoch":34,"weights":[[3.835075370235241,7.867772143159606,-8.056899386520936,-3.3352254372326775],[4.882962008746529,2.340610411361201,-2.09526635068698,-8.400012757416572],[-7.11903453333851,-7.722620509918797,11.938958380986339,12.486286904397312]],"accuracy_validation":0.9333333333333333,"mse_training":0.0380952380952381,"accuracy_training":0.9809523809523809,"mse_validation":0.13333333333333333,"bias":-6.777685138074106E-16},{"epoch":33,"weights":[[3.8843453299664725,7.878748048115071,-7.993248401028991,-3.309142686093702],[5.004825710054952,2.314347406985955,-2.027783363403239,-8.31175899018029],[-7.290168194378152,-7.707333410499015,11.807824408210656,12.371950386022059]],"accuracy_validation":0.9555555555555556,"mse_training":0.13333333333333333,"accuracy_training":0.9333333333333333,"mse_validation":0.08888888888888889,"bias":-6.007439215095742E-16},{"epoch":32,"weights":[[3.800441822005885,7.808838109871894,-7.983071828323431,-3.2930134985566233],[4.9124903285023604,2.2352838980441976,-2.136200323122117,-8.263067215900396],[-7.113929304864976,-7.558359963314085,11.906064795223974,12.307129424205089]],"accuracy_validation":0.9333333333333333,"mse_training":0.0380952380952381,"accuracy_training":0.9809523809523809,"mse_validation":0.13333333333333333,"bias":-7.74738273354069E-16},{"epoch":31,"weights":[[3.889043057274446,7.838329428276169,-7.893195912066685,-3.2587017784849994],[5.0572473991428275,2.227168873275998,-2.0366496905322737,-8.153291449514057],[-7.347287610773998,-7.5797362569501585,11.716638246377386,12.163041937747131]],"accuracy_validation":0.9555555555555556,"mse_training":0.1523809523809524,"accuracy_training":0.9238095238095239,"mse_validation":0.08888888888888889,"bias":-7.394312215954991E-16},{"epoch":30,"weights":[[3.8548548767082993,7.794760481253025,-7.851113847357341,-3.2319124333006997],[5.013147846645363,2.153634317680471,-2.1328634298755462,-8.127566170412406],[-7.268999877710387,-7.462632754331489,11.770769921011304,12.110527313461175]],"accuracy_validation":0.9555555555555556,"mse_training":0.0380952380952381,"accuracy_training":0.9809523809523809,"mse_validation":0.08888888888888889,"bias":-8.523924322012217E-16},{"epoch":29,"weights":[[3.823620539936234,7.7225050125430315,-7.725309021138595,-3.161520276025249],[5.030868645064965,2.1663703086090447,-2.10197660035921,-8.031247649850714],[-7.255486339357925,-7.403113276550069,11.614078265276218,11.943816635624048]],"accuracy_validation":0.9555555555555556,"mse_training":0.1523809523809524,"accuracy_training":0.9238095238095239,"mse_validation":0.08888888888888889,"bias":-8.76602151332428E-16},{"epoch":28,"weights":[[3.7650133935250363,7.667709876932614,-7.702495348146687,-3.139945065536311],[5.00070300447097,2.135436723237417,-2.169363647059928,-7.975815669285196],[-7.166713552352726,-7.317384555568025,11.658651638985033,11.86680944456958]],"accuracy_validation":0.9333333333333333,"mse_training":0.0380952380952381,"accuracy_training":0.9809523809523809,"mse_validation":0.13333333333333333,"bias":-8.221221263107623E-16},{"epoch":27,"weights":[[3.773896450982771,7.654193311695831,-7.647561243429969,-3.1126606557456173],[5.022729903420123,2.1188996269296068,-2.1641334904821483,-7.878394653619653],[-7.197623508759617,-7.287330894023436,11.598487377690535,11.742104019113345]],"accuracy_validation":0.9555555555555556,"mse_training":0.13333333333333333,"accuracy_training":0.9333333333333333,"mse_validation":0.08888888888888889,"bias":-7.550972597712617E-16},{"epoch":26,"weights":[[3.773689039298328,7.631537932565473,-7.5888353266603295,-3.082442028971129],[5.019632370889602,2.105822483351418,-2.1614650145051466,-7.768545760014988],[-7.194318564544658,-7.251598371314893,11.537092984943891,11.602036498734188]],"accuracy_validation":0.9555555555555556,"mse_training":0.1523809523809524,"accuracy_training":0.9238095238095239,"mse_validation":0.08888888888888889,"bias":-7.039787729080826E-16},{"epoch":25,"weights":[[3.7536768913814305,7.598496818494976,-7.541446282228526,-3.0542010767064296],[5.006550291190257,2.0706619613212323,-2.1737829756183524,-7.679912278288987],[-7.161224336928413,-7.183396735214208,11.502021901625293,11.485162064743482]],"accuracy_validation":0.9555555555555556,"mse_training":0.1523809523809524,"accuracy_training":0.9238095238095239,"mse_validation":0.08888888888888889,"bias":-7.008936384993244E-16},{"epoch":24,"weights":[[3.6555798569586013,7.519392373438502,-7.532524434836305,-3.0351354113111473],[4.938571770769352,2.0203471427756803,-2.247085735229448,-7.598668144170909],[-6.995148782084675,-7.053977471612183,11.566402813844178,11.384852265230128]],"accuracy_validation":0.9333333333333333,"mse_training":0.0380952380952381,"accuracy_training":0.9809523809523809,"mse_validation":0.13333333333333333,"bias":-5.225504070558594E-16},{"epoch":23,"weights":[[3.6106203888461748,7.473389956363378,-7.5074447466495196,-3.015269781802872],[4.878795970012649,1.9846915665273956,-2.2531182306241955,-7.499734526970939],[-6.890413513215546,-6.972319478288774,11.547355621052143,11.266053018521882]],"accuracy_validation":0.9333333333333333,"mse_training":0.0380952380952381,"accuracy_training":0.9809523809523809,"mse_validation":0.13333333333333333,"bias":-6.494344955526605E-16},{"epoch":22,"weights":[[3.557507638507887,7.396975278983487,-7.4127927900319035,-2.9618068043833707],[4.804523617984203,1.9591632774784007,-2.1852829446702935,-7.360970694538937],[-6.763028410848811,-6.8703765118598845,11.384868378480622,11.073826208670372]],"accuracy_validation":0.9333333333333333,"mse_training":0.0380952380952381,"accuracy_training":0.9809523809523809,"mse_validation":0.13333333333333333,"bias":-5.135682428806581E-16},{"epoch":21,"weights":[[3.512068261370448,7.310047700664187,-7.265389361607531,-2.885349543607523],[4.7303486613435775,1.900818554897565,-2.17898887129229,-7.196970466727929],[-6.643414077070751,-6.725104210959754,11.231170876678245,10.833368720083522]],"accuracy_validation":0.9333333333333333,"mse_training":0.05714285714285714,"accuracy_training":0.9714285714285714,"mse_validation":0.13333333333333333,"bias":-3.408581101039192E-16},{"epoch":20,"weights":[[3.471752852076186,7.204737016343787,-7.027632877166536,-2.77253286953279],[4.74105859495845,1.9536933552534863,-2.2390680489251307,-7.088680027390349],[-6.613808601391366,-6.672668326995278,11.053493569870092,10.612261606671208]],"accuracy_validation":0.9333333333333333,"mse_training":0.0380952380952381,"accuracy_training":0.9809523809523809,"mse_validation":0.13333333333333333,"bias":-2.4350521860822726E-16},{"epoch":19,"weights":[[3.3816918935446543,7.120279283452477,-6.996784013686194,-2.74643627821251],[4.6430005349614465,1.8741558384873944,-2.1994208775778077,-6.85984019412286],[-6.42568958286283,-6.508673077337871,10.982997535042434,10.357325182083432]],"accuracy_validation":0.9333333333333333,"mse_training":0.05714285714285714,"accuracy_training":0.9714285714285714,"mse_validation":0.13333333333333333,"bias":-2.2183226011377446E-16},{"epoch":18,"weights":[[3.327393451769856,7.056421679136568,-6.917845519785829,-2.700921985701359],[4.616202754438313,1.7835737891749355,-2.179323195002828,-6.6217224025571495],[-6.344593360564896,-6.354233423709514,10.883961358567086,10.073693098006567]],"accuracy_validation":0.9333333333333333,"mse_training":0.05714285714285714,"accuracy_training":0.9714285714285714,"mse_validation":0.13333333333333333,"bias":-3.4258026428185465E-16},{"epoch":17,"weights":[[3.3050557268174243,6.974965536678791,-6.7023544273341455,-2.5984253351900812],[4.6727630107425755,1.7584903875701134,-2.3203745479216877,-6.526232356598451],[-6.37881589191673,-6.247693879646917,10.809521619034264,9.875706401536586]],"accuracy_validation":0.9333333333333333,"mse_training":0.0380952380952381,"accuracy_training":0.9809523809523809,"mse_validation":0.13333333333333333,"bias":-5.364341691690038E-16},{"epoch":16,"weights":[[3.201946892255519,6.856439931821836,-6.598185766350135,-2.5392315631908113],[4.536326904335242,1.6752215783176523,-2.1992390332056027,-6.174973327583724],[-6.139270950947492,-6.045899465537491,10.58421744333417,9.465253600522594]],"accuracy_validation":0.9333333333333333,"mse_training":0.05714285714285714,"accuracy_training":0.9714285714285714,"mse_validation":0.13333333333333333,"bias":-5.337985177807571E-16},{"epoch":15,"weights":[[3.1174437101062487,6.747451470718036,-6.507358652964894,-2.4900922859649786],[4.439389333034089,1.551211448987731,-2.0960235171893937,-5.870587126227429],[-5.957830197497072,-5.812900875103776,10.39017481393272,9.11172812194046]],"accuracy_validation":0.9333333333333333,"mse_training":0.0380952380952381,"accuracy_training":0.9809523809523809,"mse_validation":0.13333333333333333,"bias":-4.985301975732891E-16},{"epoch":14,"weights":[[3.0063330377577944,6.5499920400957246,-6.265960008156246,-2.371876474848277],[4.260466064317578,1.5169087333815139,-1.9702643173912977,-5.542663387071229],[-5.667796256432111,-5.581138728875246,10.023016969325981,8.665588571667566]],"accuracy_validation":0.9333333333333333,"mse_training":0.0380952380952381,"accuracy_training":0.9809523809523809,"mse_validation":0.13333333333333333,"bias":-3.924685900496856E-16},{"epoch":13,"weights":[[2.948624112800358,6.380231502400171,-5.904785610007763,-2.220201995601363],[4.221861090975069,1.4863520210747454,-2.00994149121297,-5.317267073963037],[-5.571482358132169,-5.380821478872924,9.701519744999171,8.288517779312466]],"accuracy_validation":0.9333333333333333,"mse_training":0.0380952380952381,"accuracy_training":0.9809523809523809,"mse_validation":0.13333333333333333,"bias":-2.1822684765323167E-16},{"epoch":12,"weights":[[2.8134257567950574,6.156838202300845,-5.655601608027274,-2.09527904851596],[4.015487826248644,1.4172471841282483,-1.8475021957245423,-5.0039668663593835],[-5.229910737400442,-5.088323341827102,9.289896447530246,7.850294624623411]],"accuracy_validation":0.9333333333333333,"mse_training":0.0380952380952381,"accuracy_training":0.9809523809523809,"mse_validation":0.13333333333333333,"bias":-1.4623160467765183E-16},{"epoch":11,"weights":[[2.687092802962052,5.94991505400608,-5.444158208158763,-1.9898625083356927],[3.809013342586023,1.3151879728758904,-1.61324177895718,-4.662510377908568],[-4.897103299904818,-4.779340982279981,8.84419263089437,7.403421595992332]],"accuracy_validation":0.9333333333333333,"mse_training":0.0380952380952381,"accuracy_training":0.9809523809523809,"mse_validation":0.13333333333333333,"bias":-6.188861223377606E-17},{"epoch":10,"weights":[[2.594134304672773,5.767776913099245,-5.228462100745155,-1.892657812963393],[3.6828322242255966,1.241214616915422,-1.5225648127310027,-4.356723803702274],[-4.677963683255114,-4.523229485412676,8.537819557254572,7.000430326413741]],"accuracy_validation":0.9333333333333333,"mse_training":0.0380952380952381,"accuracy_training":0.9809523809523809,"mse_validation":0.13333333333333333,"bias":-1.149322569496499E-16},{"epoch":9,"weights":[[2.515625112295492,5.631992220197277,-5.077791283636241,-1.8277567906965646],[3.648690005550395,1.0792448738682445,-1.4584715535775525,-4.114144115669194],[-4.56531227220263,-4.22547504946353,8.323055480992208,6.692949616113836]],"accuracy_validation":0.9333333333333333,"mse_training":0.0380952380952381,"accuracy_training":0.9809523809523809,"mse_validation":0.13333333333333333,"bias":1.8850894174887848E-17},{"epoch":8,"weights":[[2.4340875221386455,5.495485388358949,-4.91237287087223,-1.7553090112601022],[3.6054795803750657,0.93864819313258,-1.3883856861213864,-3.8500815150521923],[-4.440564256870458,-3.948371536889533,8.087551200772028,6.356439236060371]],"accuracy_validation":0.9333333333333333,"mse_training":0.0380952380952381,"accuracy_training":0.9809523809523809,"mse_validation":0.13333333333333333,"bias":-6.64240375190293E-17},{"epoch":7,"weights":[[2.3688356074623713,5.374321575702851,-4.752644349438761,-1.6852350502408724],[3.5719039977895912,0.8009920823397904,-1.2878922080807746,-3.5663502117890205],[-4.341736759608708,-3.6895516134406448,7.827329201297948,6.002633971777971]],"accuracy_validation":0.9555555555555556,"mse_training":0.11428571428571428,"accuracy_training":0.9428571428571428,"mse_validation":0.08888888888888889,"bias":3.982292961286147E-17},{"epoch":6,"weights":[[2.2853843064281825,5.222548745731676,-4.579044599490367,-1.614798531038881],[3.5092878032267523,0.6625603800392059,-1.2237752725435425,-3.2994893280136193],[-4.195669264011683,-3.3993470811688864,7.589612515812316,5.665336568800576]],"accuracy_validation":0.9555555555555556,"mse_training":0.11428571428571428,"accuracy_training":0.9428571428571428,"mse_validation":0.08888888888888889,"bias":2.340102173691896E-16},{"epoch":5,"weights":[[2.428398136080295,5.172782689987227,-4.2420001866427475,-1.4906101083069336],[3.414042428194339,0.40813437422183263,-1.0585479170390795,-2.963368515539114],[-4.243437718631382,-3.095155019607062,7.087340747460236,5.205027333594123]],"accuracy_validation":0.9111111111111111,"mse_training":0.3238095238095238,"accuracy_training":0.8380952380952381,"mse_validation":0.17777777777777778,"bias":1.3709281628355325E-16},{"epoch":4,"weights":[[2.5713981669744266,4.878608933598745,-3.58183894374461,-1.2275254854957958],[3.1960780943746068,0.29407461575951854,-0.8399441460293725,-2.685049317680602],[-4.16847341570578,-2.686921504756269,6.2085757335523875,4.663623512924474]],"accuracy_validation":0.6888888888888889,"mse_training":0.8380952380952381,"accuracy_training":0.580952380952381,"mse_validation":0.6222222222222222,"bias":1.8182871774545504E-17},{"epoch":3,"weights":[[2.2043189882319827,4.260660222806653,-3.1112633022254377,-0.9914163758591036],[2.781657194170408,0.26850245342241397,-0.5218197669202382,-2.2919610785208646],[-3.386973336759137,-2.043400631627073,5.419875712924078,4.034426164128035]],"accuracy_validation":0.8222222222222222,"mse_training":0.5714285714285714,"accuracy_training":0.7142857142857143,"mse_validation":0.35555555555555557,"bias":9.382761636882594E-17},{"epoch":2,"weights":[[1.9019052063954887,3.6948742072969343,-2.626890055036267,-0.7733886992971335],[2.385239847369834,0.17184591292574314,-0.16980008467525465,-1.8691446741991593],[-2.6881422081220716,-1.3809580756206838,4.583482783489922,3.393582083244363]],"accuracy_validation":0.8444444444444444,"mse_training":0.5333333333333333,"accuracy_training":0.7333333333333333,"mse_validation":0.3111111111111111,"bias":-6.660464206773099E-17},{"epoch":1,"weights":[[1.5975181958448919,3.103676059506175,-2.1249864767245796,-0.5325190949074287],[1.6507503130496575,0.09154773835797389,0.0751349108410076,-1.3288503110361907],[-1.6492656632512992,-0.7094617532621557,3.8366442096619755,2.6124181156916912]],"accuracy_validation":0.8222222222222222,"mse_training":0.5142857142857142,"accuracy_training":0.7428571428571429,"mse_validation":0.35555555555555557,"bias":-7.055721787561016E-17},{"epoch":0,"weights":[[1.2942630250749012,2.325189331504323,-1.2064325441123138,-0.11209525221703871],[0.4079677039068086,-0.013267197812072251,-0.08001699276930596,-0.7843451951014941],[-0.10322788333845945,0.17383991090974216,3.0732421806600208,1.6474891570666041]],"accuracy_validation":0.8,"mse_training":0.780952380952381,"accuracy_training":0.6095238095238096,"mse_validation":0.4,"bias":-4.8647877434487616E-17}]