[{"epoch":99,"weights":[[0.3315301842109148,0.9175385039024254,-1.1049798161782887,-0.485075982555317],[0.3034970299164281,-0.22820661573230064,0.16853802398594087,-0.1935784167505503],[-0.5214117873296943,-0.5193595944236766,1.1178792635079378,0.7980872407482907]],"accuracy_validation":0.9777777777777777,"mse_training":0.17142857142857143,"accuracy_training":0.9142857142857143,"mse_validation":0.044444444444444446,"bias":-6.553026350719648E-18},{"epoch":98,"weights":[[0.32999217733046793,0.9137327871789577,-1.1001964556731267,-0.4829030758523045],[0.3012205794876939,-0.22761926752683798,0.16939733962295217,-0.1906452995008707],[-0.5175973300205126,-0.5161412259056718,1.112236587365765,0.792981216795599]],"accuracy_validation":0.9777777777777777,"mse_training":0.17142857142857143,"accuracy_training":0.9142857142857143,"mse_validation":0.044444444444444446,"bias":-6.726661328643202E-18},{"epoch":97,"weights":[[0.32844626286181977,0.909903811998545,-1.0953808237875526,-0.48071584313011634],[0.29893418297624774,-0.22702119006285665,0.17025311307910238,-0.18770373122790568],[-0.5137650190404182,-0.5129103281892404,1.1065651820240392,0.7878524158004458]],"accuracy_validation":0.9777777777777777,"mse_training":0.17142857142857143,"accuracy_training":0.9142857142857143,"mse_validation":0.044444444444444446,"bias":-6.950006976175216E-18},{"epoch":96,"weights":[[0.326892323213554,0.906051177986644,-1.0905323196375476,-0.47851401699744367],[0.2966378067930275,-0.22641216870766384,0.17110511306549336,-0.1847537477209838],[-0.5099147032089328,-0.5096667155325316,1.1008646778876439,0.7827006061608512]],"accuracy_validation":0.9777777777777777,"mse_training":0.17142857142857143,"accuracy_training":0.9142857142857143,"mse_validation":0.044444444444444446,"bias":-6.655591876236774E-18},{"epoch":95,"weights":[[0.3253302370787663,0.9021744722384202,-1.0856503234135624,-0.4762973216010717],[0.29433141842215793,-0.22579198260402367,0.17195309944098716,-0.18179538821033628],[-0.506046228703276,-0.5064101958879479,1.0951346952881658,0.7775255512538318]],"accuracy_validation":0.9777777777777777,"mse_training":0.17142857142857143,"accuracy_training":0.9142857142857143,"mse_validation":0.044444444444444446,"bias":-7.271743970860288E-18},{"epoch":94,"weights":[[0.3237598792573578,0.8982732687772365,-1.0807341955874101,-0.47406547226907103],[0.2920149864902652,-0.2251604044294576,0.17279682284848755,-0.17882869552687053],[-0.5021594389499746,-0.5031405706013298,1.0893748440545137,0.7723270092383652]],"accuracy_validation":0.9777777777777777,"mse_training":0.17142857142857143,"accuracy_training":0.9142857142857143,"mse_validation":0.044444444444444446,"bias":-8.065488381336927E-18},{"epoch":93,"weights":[[0.322181120467795,0.894347127984401,-1.0757832760786734,-0.47181817513563873],[0.2896884808397141,-0.22451720014370508,0.1736360243336248,-0.17585371626984583],[-0.49825417450986065,-0.49985763409424677,1.0835847230606388,0.7671047328479081]],"accuracy_validation":0.9777777777777777,"mse_training":0.17142857142857143,"accuracy_training":0.9142857142857143,"mse_validation":0.044444444444444446,"bias":-8.735742164367466E-18},{"epoch":92,"weights":[[0.32059382714760976,0.890395595998367,-1.0707968833781756,-0.46955512674648053],[0.287351872606028,-0.22386212872362918,0.17447043494482709,-0.17287050098291015],[-0.49433027295598936,-0.49656117352828877,1.07776391974894,0.7618584691718147]],"accuracy_validation":0.9777777777777777,"mse_training":0.17142857142857143,"accuracy_training":0.9142857142857143,"mse_validation":0.044444444444444446,"bias":-9.786225649288671E-18},{"epoch":91,"weights":[[0.3189978612418741,0.8864182040814761,-1.0657743136259092,-0.4672760136435368],[0.2850051342997657,-0.2231949418848008,0.17529977531368063,-0.16987910433899123],[-0.490387568743991,-0.4932509684502266,1.0719120096278194,0.7565879594249525]],"accuracy_validation":0.9777777777777777,"mse_training":0.17142857142857143,"accuracy_training":0.9142857142857143,"mse_validation":0.044444444444444446,"bias":-8.923417560424707E-18},{"epoch":90,"weights":[[0.3173930799788099,0.8824144679521714,-1.060714839640623,-0.4649805119277768],[0.28264823989315885,-0.22251538378894392,0.17612375521441612,-0.16687958533456823],[-0.48642589307432005,-0.4899267904167782,1.0660285557417974,0.7512929387047697]],"accuracy_validation":0.9777777777777777,"mse_training":0.19047619047619047,"accuracy_training":0.9047619047619048,"mse_validation":0.044444444444444446,"bias":-9.249762414342846E-18},{"epoch":89,"weights":[[0.3157793356316373,0.8783838870804718,-1.0556177098980783,-0.46266828679869776],[0.28028116491182437,-0.22182319073636286,0.1769420731012682,-0.16387200749388833],[-0.4824450737458127,-0.4865884025976592,1.0601131081124007,0.7459731357350112]],"accuracy_validation":0.9777777777777777,"mse_training":0.19047619047619047,"accuracy_training":0.9047619047619048,"mse_validation":0.044444444444444446,"bias":-1.0004258706175509E-17},{"epoch":88,"weights":[[0.3141564752656903,0.8743259439443306,-1.0504821474547557,-0.4603389920690535],[0.2779038865319048,-0.22111809084240405,0.1777544156223731,-0.16085643908373196],[-0.4784449349999455,-0.48323555935547696,1.0541652031479738,0.740628272595211]],"accuracy_validation":0.9777777777777777,"mse_training":0.19047619047619047,"accuracy_training":0.9047619047619048,"mse_validation":0.044444444444444446,"bias":-9.11055085539571E-18},{"epoch":87,"weights":[[0.31252434046975613,0.8702401032443254,-1.0453073488135765,-0.4579922696532437],[0.2755163836830069,-0.22039980369694703,0.17856045710876914,-0.15783295333937333],[-0.4744252973551135,-0.4798680058009288,1.048184363020398,0.7352580644350427]],"accuracy_validation":0.9777777777777777,"mse_training":0.20952380952380953,"accuracy_training":0.8952380952380953,"mse_validation":0.044444444444444446,"bias":-8.499928191851874E-18},{"epoch":86,"weights":[[0.3108827670705058,0.866125811073925,-1.0400924827279296,-0.4556277490276702],[0.2731186371573463,-0.21966804000582935,0.17935985903696725,-0.1548016287024299],[-0.47038597743020255,-0.4764854773216459,1.042170095006553,0.7298622191725264]],"accuracy_validation":0.9777777777777777,"mse_training":0.20952380952380953,"accuracy_training":0.8952380952380953,"mse_validation":0.044444444444444446,"bias":-6.448942942161042E-18},{"epoch":85,"weights":[[0.3092315848287959,0.861982494042386,-1.034836688940055,-0.45324504666124166],[0.27071062972552795,-0.21892250121304224,0.180152269463441,-0.1517625490713463],[-0.466326787756675,-0.47308769908289383,1.036121890792204,0.7244404371750143]],"accuracy_validation":0.9777777777777777,"mse_training":0.20952380952380953,"accuracy_training":0.8952380952380953,"mse_validation":0.044444444444444446,"bias":-6.191661766630231E-18},{"epoch":84,"weights":[[0.30757061711652056,0.8578095583470933,-1.0295390768494794,-0.450843765414074],[0.2682923462594429,-0.21816287910243512,0.18093732242927008,-0.1487158040653119],[-0.4622475365783149,-0.4696743854982078,1.0300392257358004,0.7189924109218123]],"accuracy_validation":0.9777777777777777,"mse_training":0.20952380952380953,"accuracy_training":0.8952380952380953,"mse_validation":0.044444444444444446,"bias":-7.690896530743187E-18},{"epoch":83,"weights":[[0.30589968057258543,0.8536063887919086,-1.0241987241069561,-0.4484234939022842],[0.26586377386278237,-0.2173888553775763,0.18171463733303775,-0.14566148930246933],[-0.45814802763771934,-0.4662452396678822,1.023921558089509,0.7135178246471804]],"accuracy_validation":0.9777777777777777,"mse_training":0.20952380952380953,"accuracy_training":0.8952380952380953,"mse_validation":0.044444444444444446,"bias":-7.592993074567743E-18},{"epoch":82,"weights":[[0.30421858473645286,0.8493723477478395,-1.0188146751289213,-0.4459838058266074],[0.2634249020097297,-0.21660010121831183,0.18248381826994192,-0.14259970669334004],[-0.45402805994853473,-0.4627999527830775,1.01776832817457,0.7080163539623737]],"accuracy_validation":0.9777777777777777,"mse_training":0.20952380952380953,"accuracy_training":0.8952380952380953,"mse_validation":0.044444444444444446,"bias":-7.895810741342945E-18},{"epoch":81,"weights":[[0.3025271316575875,0.8451067740520222,-1.0133859395271698,-0.44352425926240074],[0.26097572269242253,-0.21579627681245347,0.18324445333492345,-0.1395305647504579],[-0.4498874275523624,-0.45933820349311794,1.011578957507838,0.7024876654552848]],"accuracy_validation":0.9777777777777777,"mse_training":0.20952380952380953,"accuracy_training":0.8952380952380953,"mse_validation":0.044444444444444446,"bias":-6.733437592221238E-18},{"epoch":80,"weights":[[0.3008251154789743,0.8408089818407192,-1.007911490448006,-0.44104439590839795],[0.25851623057783624,-0.21497703086089595,0.18399611388745327,-0.1364541789152826],[-0.4457259192591632,-0.45585965723337263,1.005352847876143,0.6969314162661071]],"accuracy_validation":0.9777777777777777,"mse_training":0.20952380952380953,"accuracy_training":0.8952380952380953,"mse_validation":0.044444444444444446,"bias":-6.893574253097347E-18},{"epoch":79,"weights":[[0.2991123219927445,0.8364782593116679,-1.0023902628146535,-0.4385437402913741],[0.25604642317479076,-0.21414200005433878,0.18473835377543366,-0.1333706719035428],[-0.4415433183698882,-0.45236396551087826,0.9990893803548105,0.6913472536373431]],"accuracy_validation":0.9777777777777777,"mse_training":0.20952380952380953,"accuracy_training":0.8952380952380953,"mse_validation":0.044444444444444446,"bias":-6.795128695835664E-18},{"epoch":78,"weights":[[0.29738852816575645,0.8321138674107316,-0.9968211514662676,-0.436021798923648],[0.2535663010118463,-0.213290808519637,0.18547070851547262,-0.13028017407025366],[-0.4373394023799558,-0.448850765144644,0.9927879142663868,0.6857348144363281]],"accuracy_validation":0.9777777777777777,"mse_training":0.20952380952380953,"accuracy_training":0.8952380952380953,"mse_validation":0.044444444444444446,"bias":-7.905351720460823E-18},{"epoch":77,"weights":[[0.2956535016328052,0.827715038437411,-0.9912030091862939,-0.4334780594101064],[0.25107586782691294,-0.21242306723364496,0.18619269442657999,-0.12718282379574739],[-0.4331139426620709,-0.44531967745731604,0.9864477860753059,0.6800937246482798]],"accuracy_validation":0.9777777777777777,"mse_training":0.20952380952380953,"accuracy_training":0.8952380952380953,"mse_validation":0.044444444444444446,"bias":-9.29443154384925E-18},{"epoch":76,"weights":[[0.2939070001549229,0.8232809745632873,-0.9855346446123685,-0.4309119895011533],[0.24857513076948085,-0.21153837340224574,0.1869038077140935,-0.12407876789416311],[-0.428866704126757,-0.44177030741459167,0.9800683082138668,0.6744235988377424]],"accuracy_validation":0.9777777777777777,"mse_training":0.20952380952380953,"accuracy_training":0.8952380952380953,"mse_validation":0.044444444444444446,"bias":-8.623093558646224E-18},{"epoch":75,"weights":[[0.2921487710400085,0.818810846256996,-0.9798148200192986,-0.4283230360876998],[0.24606410061644654,-0.21063630980207024,0.18760352350039639,-0.12096816204596107],[-0.4245974448588086,-0.4382022427084758,0.9736487678344943,0.6687240395760863]],"accuracy_validation":0.9555555555555556,"mse_training":0.20952380952380953,"accuracy_training":0.8952380952380953,"mse_validation":0.08888888888888889,"bias":-8.90997345348589E-18},{"epoch":74,"weights":[[0.2903785505227738,0.8143037906087672,-0.9740422489659543,-0.425710624133976],[0.24354279200260628,-0.20971644408219747,0.1882912947987053,-0.11785117125614858],[-0.42030591572773374,-0.43461505278012036,0.9671884254828405,0.6629946368325506]],"accuracy_validation":0.9555555555555556,"mse_training":0.20952380952380953,"accuracy_training":0.8952380952380953,"mse_validation":0.08888888888888889,"bias":-9.25995391476421E-18},{"epoch":73,"weights":[[0.28859606310072505,0.8097589095469793,-0.9682155937961272,-0.4230741555435963],[0.24101122366697675,-0.2087783280229076,0.18896655142590701,-0.11472797034004707],[-0.4159918599700554,-0.4310082877776228,0.9606865136858117,0.6572349673260697]],"accuracy_validation":0.9555555555555556,"mse_training":0.20952380952380953,"accuracy_training":0.8952380952380953,"mse_validation":0.08888888888888889,"bias":-9.062412278937351E-18},{"epoch":72,"weights":[[0.28680102082259423,0.8051752679384946,-0.9623334629825817,-0.42041300795390796],[0.2384694187162126,-0.20782149674830708,0.18962869885009354,-0.11159874443857903],[-0.4116550127411604,-0.4273814774437383,0.9541422354480796,0.651444593834913]],"accuracy_validation":0.9555555555555556,"mse_training":0.20952380952380953,"accuracy_training":0.8952380952380953,"mse_validation":0.08888888888888889,"bias":-8.603794759975979E-18},{"epoch":71,"weights":[[0.2849931225252998,0.800551891563847,-0.9563944083025739,-0.41772653345323313],[0.23591740490650587,-0.2068454678893755,0.1902771169680852,-0.108463689565218],[-0.407295100634159,-0.42373412992802223,0.947554762650081,0.6456230644608777]],"accuracy_validation":0.9555555555555556,"mse_training":0.20952380952380953,"accuracy_training":0.8952380952380953,"mse_validation":0.08888888888888889,"bias":-7.794979939301794E-18},{"epoch":70,"weights":[[0.2831720530151493,0.7958877649575293,-0.9503969218321084,-0.4150140572151351],[0.2333552149454751,-0.20584974069368542,0.19091115880783494,-0.10532301318692813],[-0.4029118411629775,-0.42006573051739526,0.9409232343398657,0.6397699118444904]],"accuracy_validation":0.9333333333333333,"mse_training":0.20952380952380953,"accuracy_training":0.8952380952380953,"mse_validation":0.13333333333333333,"bias":-8.005748841632976E-18},{"epoch":69,"weights":[[0.28133748218859145,0.7911818291027588,-0.9443394327450627,-0.4122748760433194],[0.23078288681570017,-0.2048337950777221,0.19153014915017944,-0.10217693484161391],[-0.39850494220664484,-0.4163757402785883,0.9342467549104752,0.6338846523273598]],"accuracy_validation":0.9333333333333333,"mse_training":0.20952380952380953,"accuracy_training":0.8952380952380953,"mse_validation":0.13333333333333333,"bias":-9.539894915699967E-18},{"epoch":68,"weights":[[0.27948906408736957,0.7864329789691256,-0.9382203039021034,-0.40950825682020814],[0.22820046412170936,-0.20379709061737036,0.19213338306393077,-0.09902568679481902],[-0.39407410141143223,-0.4126635946053067,0.9275243921537645,0.6279667850574541]],"accuracy_validation":0.9333333333333333,"mse_training":0.20952380952380953,"accuracy_training":0.8952380952380953,"mse_validation":0.13333333333333333,"bias":-1.158404969170414E-17},{"epoch":67,"weights":[[0.2776264358824287,0.781640060880458,-0.932037828212914,-0.4067134348515975],[0.22560799646239632,-0.20273906547174256,0.19272012434778538,-0.09586951473865171],[-0.38961900554717854,-0.4089287016622666,0.920755175180721,0.6220157910326759]],"accuracy_validation":0.9333333333333333,"mse_training":0.20952380952380953,"accuracy_training":0.8952380952380953,"mse_validation":0.13333333333333333,"bias":-1.0134471387091015E-17},{"epoch":66,"weights":[[0.2757492167803722,0.776801869699049,-0.925790224753794,-0.4038896120991026],[0.22300553983104174,-0.20165913523509146,0.1932896038719643,-0.0927086785361706],[-0.3851393298137673,-0.4051704407175089,0.9139380921974223,0.6160311320777002]],"accuracy_validation":0.9333333333333333,"mse_training":0.20952380952380953,"accuracy_training":0.8952380952380953,"mse_validation":0.13333333333333333,"bias":-9.558760033501212E-18},{"epoch":65,"weights":[[0.2738570068456434,0.7719171458110806,-0.919475634620993,-0.40103595529132924],[0.2203931570453155,-0.20055669171107332,0.19384101781187557,-0.08954345301475379],[-0.38063473709331214,-0.40138816035355857,0.9070720881247097,0.6100122497485103]],"accuracy_validation":0.9333333333333333,"mse_training":0.20952380952380953,"accuracy_training":0.8952380952380953,"mse_validation":0.13333333333333333,"bias":-7.778500066280009E-18},{"epoch":64,"weights":[[0.2719493857309196,0.7669845718966131,-0.9130921164983367,-0.3981515939038566],[0.21777091820987926,-0.1994311016031037,0.19437352576541111,-0.0863741288122866],[-0.3761048771431521,-0.3975811765470607,0.9001560620485176,0.6039585641585706]],"accuracy_validation":0.9111111111111111,"mse_training":0.20952380952380953,"accuracy_training":0.8952380952380953,"mse_validation":0.17777777777777778,"bias":-8.11330169714353E-18},{"epoch":63,"weights":[[0.27002591130743503,0.7620027694659128,-0.9066376419156563,-0.3952356179971754],[0.21513890121446239,-0.19828170511397167,0.19488624874474594,-0.08320101328034651],[-0.371549385724251,-0.39374877060549296,0.893188864486503,0.5978694727199491]],"accuracy_validation":0.9111111111111111,"mse_training":0.24761904761904763,"accuracy_training":0.8761904761904762,"mse_validation":0.17777777777777778,"bias":-7.415075498062865E-18},{"epoch":62,"weights":[[0.26808611818609,0.7569702951420757,-0.900110090172284,-0.39228707590066864],[0.21249719227057612,-0.19710781444724035,0.19537826703268077,-0.08002443144894553],[-0.36696788365901967,-0.38989018694838706,0.8861692944551955,0.5917443487920413]],"accuracy_validation":0.9111111111111111,"mse_training":0.24761904761904763,"accuracy_training":0.8761904761904762,"mse_validation":0.17777777777777778,"bias":-6.827004239706726E-18},{"epoch":61,"weights":[[0.2661295161192409,0.7518856366679161,-0.8935072428973846,-0.38930497172956985],[0.20984588649035313,-0.19590871220225808,0.19584861789267563,-0.07684472705780535],[-0.36235997581194695,-0.3860046307192104,0.879096096320302,0.5855825402298017]],"accuracy_validation":0.9111111111111111,"mse_training":0.24761904761904763,"accuracy_training":0.8761904761904762,"mse_validation":0.17777777777777778,"bias":-5.935356373054645E-18},{"epoch":60,"weights":[[0.26415558827199265,0.7467472086128695,-0.8868267782161287,-0.3862882627205373],[0.2071850885113585,-0.19468364965382462,0.1962962931207211,-0.07366226365960056],[-0.3577252499857046,-0.3820912652125976,0.8719679564110003,0.5793833678225642]],"accuracy_validation":0.9111111111111111,"mse_training":0.24761904761904763,"accuracy_training":0.8761904761904762,"mse_validation":0.17777777777777778,"bias":-5.8395129010069276E-18},{"epoch":59,"weights":[[0.26216378935060586,0.7415533477531621,-0.880066264487609,-0.38323585637004726],[0.2045149131716209,-0.19343184490670304,0.19672023642611078,-0.07047742580111166],[-0.3530632757245801,-0.3781492091000119,0.8647834993770902,0.5731461236135851]],"accuracy_validation":0.9111111111111111,"mse_training":0.24761904761904763,"accuracy_training":0.8761904761904762,"mse_validation":0.17777777777777778,"bias":-7.388187284185225E-18},{"epoch":58,"weights":[[0.26015354357426734,0.7363023080957415,-0.8732231535770069,-0.380146607358205],[0.20183548623957634,-0.19215248091420767,0.19711934062696815,-0.0672906202887868],[-0.34837360301619735,-0.37417753343508714,0.8575412842656299,0.5668700690894182]],"accuracy_validation":0.9111111111111111,"mse_training":0.24761904761904763,"accuracy_training":0.8761904761904762,"mse_validation":0.17777777777777778,"bias":-7.154866976666346E-18},{"epoch":57,"weights":[[0.25812424247495624,0.730992255513354,-0.8662947736206531,-0.3770193142387924],[0.19914694520412715,-0.19084470334904682,0.19749244464506438,-0.06410227754582856],[-0.34365576088143696,-0.37017525841786036,0.8502398002911796,0.5605544332270476]],"accuracy_validation":0.9111111111111111,"mse_training":0.26666666666666666,"accuracy_training":0.8666666666666667,"mse_validation":0.17777777777777778,"bias":-5.980025502561053E-18},{"epoch":56,"weights":[[0.2560752425084071,0.7256212619546801,-0.859278321238402,-0.3738527158743703],[0.19644944013057627,-0.18950761831343035,0.1978383302829965,-0.06091285306859904],[-0.33890925584133735,-0.3661413498948037,0.8428774622709962,0.5541984103853957]],"accuracy_validation":0.9111111111111111,"mse_training":0.26666666666666666,"accuracy_training":0.8666666666666667,"mse_validation":0.17777777777777778,"bias":-7.037339461168917E-18},{"epoch":55,"weights":[[0.2540058624572315,0.7201872991895522,-0.8521708531429334,-0.37064548759303045],[0.19374313458883238,-0.18814028987414658,0.19815571876519442,-0.057722828990889215],[-0.33413357024841744,-0.3620747155689602,0.8354526056933301,0.5478011580263461]],"accuracy_validation":0.9111111111111111,"mse_training":0.26666666666666666,"accuracy_training":0.8666666666666667,"mse_validation":0.17777777777777778,"bias":-6.884683795282955E-18},{"epoch":54,"weights":[[0.25191538060505575,0.7146882320448852,-0.8449692770903092,-0.3673962370408916],[0.19102820666099465,-0.1867417374068737,0.19844326702244458,-0.054532715765425066],[-0.32932816046840385,-0.35797420089156645,0.8279634813834555,0.5413617942487425]],"accuracy_validation":0.8888888888888888,"mse_training":0.26666666666666666,"accuracy_training":0.8666666666666667,"mse_validation":0.2222222222222222,"bias":-7.931155732165965E-18},{"epoch":53,"weights":[[0.24980303165804965,0.709121811082043,-0.837670342110101,-0.3641034997016367],[0.18830485003622777,-0.185310932732382,0.1986995636976637,-0.05134305397290108],[-0.3244924548966305,-0.35383858460321543,0.8204082497280286,0.5348793951169645]],"accuracy_validation":0.8888888888888888,"mse_training":0.26666666666666666,"accuracy_training":0.8666666666666667,"mse_validation":0.2222222222222222,"bias":-6.991802969924527E-18},{"epoch":52,"weights":[[0.24766800338738276,0.703485664660811,-0.8302706279467535,-0.36076573405125123],[0.18557327520174433,-0.1838467970254977,0.19892312484850005,-0.048154416269842265],[-0.3196258517914804,-0.3496665738888676,0.8127849744138456,0.5283529917635205]],"accuracy_validation":0.8888888888888888,"mse_training":0.26666666666666666,"accuracy_training":0.8666666666666667,"mse_validation":0.2222222222222222,"bias":-6.284903153463978E-18},{"epoch":51,"weights":[[0.24550943296293717,0.6977772903288822,-0.8227665336362963,-0.35738131631258363],[0.18283371073973959,-0.18234819747570147,0.19911238931995334,-0.04496740948771541],[-0.3147277169050301,-0.34545679910673555,0.8050916156319352,0.5217815672427262]],"accuracy_validation":0.8888888888888888,"mse_training":0.26666666666666666,"accuracy_training":0.8666666666666667,"mse_validation":0.2222222222222222,"bias":-5.3958573720258624E-18},{"epoch":50,"weights":[[0.24332640294493416,0.6919940454686971,-0.8151542651341027,-0.3539485347703914],[0.18008640474128068,-0.18081394367602413,0.19926571375758503,-0.041782676896947576],[-0.3097973808885684,-0.34120780804622836,0.7973260226921105,0.5151640531097659]],"accuracy_validation":0.8888888888888888,"mse_training":0.26666666666666666,"accuracy_training":0.8666666666666667,"mse_validation":0.2222222222222222,"bias":-5.49473661015654E-18},{"epoch":49,"weights":[[0.24111793689595923,0.68613313712546,-0.8074298218998756,-0.35046558360304564],[0.17733162634947713,-0.17924278371441482,0.19938136722899427,-0.03860090065087706],[-0.30483413644778995,-0.3369180596646005,0.7894859259864749,0.5084993256963499]],"accuracy_validation":0.8888888888888888,"mse_training":0.26666666666666666,"accuracy_training":0.8666666666666667,"mse_validation":0.2222222222222222,"bias":-5.652596446470429E-18},{"epoch":48,"weights":[[0.23888299457107628,0.6801916109310872,-0.7995889823353217,-0.34693055618202784],[0.17456966744575514,-0.17763339993899543,0.1994575254180465,-0.03542280442617191],[-0.299837235219185,-0.33258591724564646,0.7815689282328687,0.5017862020506266]],"accuracy_validation":0.8888888888888888,"mse_training":0.26666666666666666,"accuracy_training":0.8666666666666667,"mse_validation":0.2222222222222222,"bias":-5.091413401991933E-18},{"epoch":47,"weights":[[0.2366204666382493,0.6741663390285362,-0.791627287957912,-0.3433414377846402],[0.17180084449477195,-0.17598440436552604,0.19949226435283707,-0.03224915627792117],[-0.29480588433537436,-0.328209640916565,0.7735724949206685,0.49502343550498795]],"accuracy_validation":0.8888888888888888,"mse_training":0.26666666666666666,"accuracy_training":0.8666666666666667,"mse_validation":0.2222222222222222,"bias":-4.116498808492966E-18},{"epoch":46,"weights":[[0.23432916887498575,0.6680540068892316,-0.7835400261804588,-0.33969609765890313],[0.16902550056545315,-0.17429433369195033,0.19948355362451228,-0.029080771729443577],[-0.2897392426427919,-0.3237873794508361,0.7654939438715407,0.4882097108307735]],"accuracy_validation":0.8666666666666667,"mse_training":0.26666666666666666,"accuracy_training":0.8666666666666667,"mse_validation":0.26666666666666666,"bias":-4.317726731706276E-18},{"epoch":45,"weights":[[0.23200783577987905,0.6618510989029498,-0.775322211550813,-0.3359922803723041],[0.16624400754788043,-0.1725616438810271,0.19942924904984155,-0.025918517118887888],[-0.2846364165301124,-0.3193171612754775,0.7573304338165663,0.4813436389336192]],"accuracy_validation":0.8666666666666667,"mse_training":0.2857142857142857,"accuracy_training":0.8571428571428571,"mse_validation":0.26666666666666666,"bias":-5.572799166575496E-18},{"epoch":44,"weights":[[0.22965511352936455,0.6555538826042958,-0.7669685652885088,-0.3322275963677665],[0.16345676858831032,-0.17078470426773676,0.1993270847257995,-0.022763313226931987],[-0.27949645532002804,-0.3147968845901134,0.7490789518783048,0.4744237510371256]],"accuracy_validation":0.8666666666666667,"mse_training":0.2857142857142857,"accuracy_training":0.8571428571428571,"mse_validation":0.26666666666666666,"bias":-5.8442833905658666E-18},{"epoch":43,"weights":[[0.22726955220035125,0.6491583913824635,-0.7584734929353777,-0.3283995116408086],[0.16066422076755887,-0.16896179114331442,0.19917466441936132,-0.019616139212339803],[-0.27431834617026324,-0.3102243064927032,0.7407362998316126,0.4674484922955758]],"accuracy_validation":0.8666666666666667,"mse_training":0.2857142857142857,"accuracy_training":0.8571428571428571,"mse_validation":0.26666666666666666,"bias":-6.560724186144288E-18},{"epoch":42,"weights":[[0.22484959716819472,0.6426604055010476,-0.74983105991469,-0.3245053364411613],[0.15786683805138013,-0.16709108076235926,0.19896945223020823,-0.016478036884820108],[-0.26910100842192763,-0.3055970309922428,0.732299079000078,0.4604162147684088]],"accuracy_validation":0.8666666666666667,"mse_training":0.3238095238095238,"accuracy_training":0.8380952380952381,"mse_validation":0.26666666666666666,"bias":-6.184289191857322E-18},{"epoch":41,"weights":[[0.22239357957649525,0.6360554312317865,-0.7410349647678598,-0.3205422128899405],[0.15506513454539003,-0.16517064171341578,0.1987087624580849,-0.013350115347561265],[-0.26384328732423795,-0.3009124957719252,0.723763673625371,0.453325169679929]],"accuracy_validation":0.8666666666666667,"mse_training":0.3238095238095238,"accuracy_training":0.8380952380952381,"mse_validation":0.26666666666666666,"bias":-5.1451898297472125E-18},{"epoch":40,"weights":[[0.21989970576007575,0.6293386778798408,-0.7320785098087714,-0.3165071013896175],[0.15225966809162886,-0.16319842658667172,0.19838974860014458,-0.010233556044999589],[-0.2585439470540574,-0.29616795754672376,0.7151262325242228,0.44617349887704383]],"accuracy_validation":0.8666666666666667,"mse_training":0.3238095238095238,"accuracy_training":0.8380952380952381,"mse_validation":0.26666666666666666,"bias":-3.1311758741381394E-18},{"epoch":39,"weights":[[0.2173660454848586,0.6225050324480005,-0.7229545689028037,-0.31239676568821945],[0.1494510442491286,-0.16117226286486191,0.19800939139677518,-0.007129618254814289],[-0.2532016629363401,-0.2913604758366935,0.706382648821624,0.4389592253854604]],"accuracy_validation":0.8666666666666667,"mse_training":0.34285714285714286,"accuracy_training":0.8285714285714286,"mse_validation":0.26666666666666666,"bias":-2.8067825841304768E-18},{"epoch":38,"weights":[[0.2147905188477303,0.6155490316523468,-0.7136555520401209,-0.3082077564411782],[0.14663992070699156,-0.15908984295505377,0.19756448583718805,-0.00403964506682311],[-0.24781501275707443,-0.2864868949508478,0.6975285375185283,0.43168024295042834]],"accuracy_validation":0.8666666666666667,"mse_training":0.34285714285714286,"accuracy_training":0.8285714285714286,"mse_validation":0.26666666666666666,"bias":-3.2022995366531887E-18},{"epoch":37,"weights":[[0.2121708816553004,0.6084648309617173,-0.7041733663301071,-0.30393639309365433],[0.14382701218564511,-0.15694871326961915,0.19705162702854145,-9.650698953527303E-4],[-0.24238246704329813,-0.28154382394565347,0.6885592106171609,0.4243343044314343]],"accuracy_validation":0.8666666666666667,"mse_training":0.34285714285714286,"accuracy_training":0.8285714285714286,"mse_validation":0.26666666666666666,"bias":-3.67934849254681E-18},{"epoch":36,"weights":[[0.20950470907203833,0.6012461702868453,-0.6944993729952331,-0.2995787438826768],[0.1410130958903289,-0.1547462622542997,0.19646719482473635,0.00209257642426828],[-0.2369023781647196,-0.27652761428610084,0.6794696494860912,0.4169190089008362]],"accuracy_validation":0.8222222222222222,"mse_training":0.3619047619047619,"accuracy_training":0.819047619047619,"mse_validation":0.35555555555555557,"bias":-3.2300551122688184E-18},{"epoch":35,"weights":[[0.2067893772947871,0.5938863358912474,-0.6846243398873483,-0.29513060373160394],[0.13819901759070025,-0.15247970724976853,0.1958073371034677,0.005131657900276469],[-0.23137296808783966,-0.27143433489503416,0.6702544740994755,0.40943178727375507]],"accuracy_validation":0.8222222222222222,"mse_training":0.3619047619047619,"accuracy_training":0.819047619047619,"mse_validation":0.35555555555555557,"bias":-1.3704315460216802E-18},{"epoch":34,"weights":[[0.20402204297110357,0.5863781180336427,-0.6745383889865436,-0.2905874697787651],[0.13538569841203285,-0.15014608006043537,0.19506795157301346,0.008150424951140697],[-0.22579231458548848,-0.2662597442267623,0.660907908729126,0.4018698862700522]],"accuracy_validation":0.8222222222222222,"mse_training":0.41904761904761906,"accuracy_training":0.7904761904761904,"mse_validation":0.35555555555555557,"bias":-1.8960527592426528E-18},{"epoch":33,"weights":[[0.2011996200320402,0.5787137637793706,-0.66423093827133,-0.2859445142471998],[0.13257414243714952,-0.1477422110903992,0.19424466598408208,0.011147005211440198],[-0.22015833567154183,-0.2609992589425269,0.6514237436028434,0.3942303504781874]],"accuracy_validation":0.8222222222222222,"mse_training":0.41904761904761906,"accuracy_training":0.7904761904761904,"mse_validation":0.35555555555555557,"bias":-5.23886489744997E-19},{"epoch":32,"weights":[[0.19831875355439613,0.5708849243343525,-0.6536906372679692,-0.28119655432255536],[0.12976544523441538,-0.14526471189145493,0.19333281661755597,0.014119393510621348],[-0.21446877199116363,-0.25564791869645315,0.6417952919660085,0.3865100022543622]],"accuracy_validation":0.8222222222222222,"mse_training":0.4380952380952381,"accuracy_training":0.780952380952381,"mse_validation":0.35555555555555557,"bias":2.359223927328452E-19},{"epoch":31,"weights":[[0.19537579020130474,0.5628825961576387,-0.6429052954953349,-0.2763380186609084],[0.12696080344633706,-0.14270995595200975,0.1923274249171945,0.01706544095574145],[-0.20872116684999406,-0.2502003464591847,0.6320153418937354,0.3787054191475954]],"accuracy_validation":0.8222222222222222,"mse_training":0.4380952380952381,"accuracy_training":0.780952380952381,"mse_validation":0.35555555555555557,"bias":-1.5959455978986685E-19},{"epoch":30,"weights":[[0.1923667447111212,0.5546970549952986,-0.631861802918722,-0.271362910096858],[0.12416152559620573,-0.14007405753886043,0.1912231721387612,0.019982843048207265],[-0.20291284350967922,-0.24465070370999398,0.6220761020955555,0.3708129084910795]],"accuracy_validation":0.8222222222222222,"mse_training":0.4380952380952381,"accuracy_training":0.780952380952381,"mse_validation":0.35555555555555557,"bias":-5.516420653606253E-19},{"epoch":29,"weights":[[0.18928726181022384,0.5463177818468016,-0.6205460414107009,-0.2662647640641937],[0.12136904429755876,-0.13735284838645517,0.19001437189565726,0.022869126765676068],[-0.19704087931013492,-0.23899263971390175,0.6119691408306387,0.3628284787409467]],"accuracy_validation":0.8222222222222222,"mse_training":0.4380952380952381,"accuracy_training":0.780952380952381,"mse_validation":0.35555555555555557,"bias":-1.033895191682178E-18},{"epoch":28,"weights":[[0.18613257281230663,0.5377333797222869,-0.6089427860890325,-0.26103660217619756],[0.11858493008399244,-0.13454185201112356,0.1886949404988497,0.02572163654486135],[-0.19110207609865107,-0.23321923396471889,0.6016853169057784,0.3547478070737653]],"accuracy_validation":0.8222222222222222,"mse_training":0.4380952380952381,"accuracy_training":0.780952380952381,"mse_validation":0.35555555555555557,"bias":-2.2759572004815725E-18},{"epoch":27,"weights":[[0.18289744603102848,0.5289314798721113,-0.5970355952607633,-0.25567088033995145],[0.11581090711619345,-0.13163625541187834,0.18725836501965024,0.028537519110575487],[-0.18509292634957403,-0.2273229307137887,0.5912147015567085,0.3465662026718051]],"accuracy_validation":0.8222222222222222,"mse_training":0.5333333333333333,"accuracy_training":0.7333333333333333,"mse_validation":0.35555555555555557,"bias":-1.4224732503009823E-18},{"epoch":26,"weights":[[0.179576129969698,0.5198986359654542,-0.5848066875490784,-0.250159430698884],[0.11304887107042777,-0.12863087790634092,0.18569766905327756,0.03131370711320353],[-0.17900957424247774,-0.2212954643126685,0.5805464898113964,0.3382785650281098]],"accuracy_validation":0.8222222222222222,"mse_training":0.5333333333333333,"accuracy_training":0.7333333333333333,"mse_validation":0.35555555555555557,"bias":-1.6757428777935968E-18},{"epoch":25,"weights":[[0.17616228805514914,0.5106202044592681,-0.5722368046178273,-0.2444933966108495],[0.110300909569878,-0.12552013684253724,0.18400537623680455,0.03404690156408647],[-0.172847770827379,-0.21512777387028612,0.5696688996966182,0.32987933648919243]],"accuracy_validation":0.8222222222222222,"mse_training":0.5333333333333333,"accuracy_training":0.7333333333333333,"mse_validation":0.35555555555555557,"bias":-1.8839096949108138E-18},{"epoch":24,"weights":[[0.17264892344614943,0.5010802091293602,-0.5593050577429132,-0.23866315977684643],[0.10756932558930339,-0.12229800992829827,0.18217347168770032,0.03673355310038802],[-0.1666028222378047,-0.20880990545461722,0.5585690573708088,0.3213624481188881]],"accuracy_validation":0.8,"mse_training":0.5333333333333333,"accuracy_training":0.7333333333333333,"mse_validation":0.4,"bias":-1.5369649997154519E-18},{"epoch":23,"weights":[[0.16902829216123216,0.49126118742966496,-0.5459887563188157,-0.2326582585411799],[0.1048566643470544,-0.1189579939350625,0.1801933616934908,0.03936984217405473],[-0.1602695297106382,-0.2023308997481577,0.5472328659409207,0.31272125780955484]],"accuracy_validation":0.8,"mse_training":0.5333333333333333,"accuracy_training":0.7333333333333333,"mse_validation":0.4,"bias":-7.771561172376099E-19},{"epoch":22,"weights":[[0.16529180242706512,0.4811440160033257,-0.5322632162468923,-0.22646729629285506],[0.1021657442995473,-0.11549305956967819,0.17805583221951182,0.041951658351976846],[-0.15384211992896407,-0.19567866268720296,0.5356448553429755,0.30394847938330755]],"accuracy_validation":0.8,"mse_training":0.5904761904761905,"accuracy_training":0.7047619047619048,"mse_validation":0.4,"bias":-7.702172233337025E-19},{"epoch":21,"weights":[[0.1614298977353005,0.47070771229269154,-0.5181015460530451,-0.2200778388193657],[0.0994996929753466,-0.11189560237756979,0.17575100713856956,0.04447457904827236],[-0.14731416391299867,-0.18883981616867712,0.5237880102300704,0.2950361012135226]],"accuracy_validation":0.7777777777777778,"mse_training":0.6095238095238096,"accuracy_training":0.6952380952380952,"mse_validation":0.4444444444444444,"bias":-1.249000902703296E-19},{"epoch":20,"weights":[[0.15743192060118738,0.4599292087930629,-0.503474408561889,-0.2134762994123215],[0.09686198853280714,-0.10815738965961987,0.1732683075625881,0.04693384820121279],[-0.14067848233634625,-0.18179952538699817,0.5116435723148952,0.2859752926535379]],"accuracy_validation":0.7555555555555555,"mse_training":0.6666666666666666,"accuracy_training":0.6666666666666666,"mse_validation":0.4888888888888889,"bias":1.9428902930940286E-19},{"epoch":19,"weights":[[0.15328595342884507,0.44878309608463174,-0.4883497560680195,-0.20664781052231232],[0.09425650810056922,-0.10426950357690998,0.17059641432581307,0.04932435567950405],[-0.13392703473176598,-0.17454129876127678,0.49919081305780144,0.2767562962852371]],"accuracy_validation":0.7333333333333333,"mse_training":0.6666666666666666,"accuracy_training":0.6666666666666666,"mse_validation":0.5333333333333333,"bias":1.297573160030652E-18},{"epoch":18,"weights":[[0.1489786321953354,0.4372413303915142,-0.4726925372757959,-0.19957608084310952],[0.09168758416708053,-0.10022228091619363,0.16772323660570965,0.051640618586956503],[-0.12705078956476776,-0.1670467557288756,0.48640677198568116,0.26736830369858144]],"accuracy_validation":0.7111111111111111,"mse_training":0.6666666666666666,"accuracy_training":0.6666666666666666,"mse_validation":0.5777777777777777,"bias":1.4502288259166112E-18},{"epoch":17,"weights":[[0.144494927863124,0.4252729011136917,-0.45646437495186726,-0.19224323692595277],[0.08916007052447728,-0.09600525044395045,0.164635890972302,0.053876766174386984],[-0.12003957158995315,-0.15929535692329613,0.47326595529516,0.2577993121939945]],"accuracy_validation":0.7111111111111111,"mse_training":0.6666666666666666,"accuracy_training":0.6666666666666666,"mse_validation":0.5777777777777777,"bias":1.6792123247455492E-18},{"epoch":16,"weights":[[0.13981788952437793,0.41284345365372754,-0.4396232144339208,-0.18462964886318545],[0.08667941953915648,-0.09160706945932484,0.16132069696608672,0.05602653082211067],[-0.11288188226588641,-0.15126409044795766,0.459739988783429,0.2480359594835036]],"accuracy_validation":0.7111111111111111,"mse_training":0.6666666666666666,"accuracy_training":0.6666666666666666,"mse_validation":0.5777777777777777,"bias":1.3877787807814456E-18},{"epoch":15,"weights":[[0.13492834230048087,0.3999148630733196,-0.42212294513453047,-0.17671374035542048],[0.08425177280112171,-0.0870154621688332,0.15776319780186543,0.05808324860562414],[-0.10556468830395464,-0.14292710715804147,0.4457972186482601,0.23806333319222536]],"accuracy_validation":0.7111111111111111,"mse_training":0.6666666666666666,"accuracy_training":0.6666666666666666,"mse_validation":0.5777777777777777,"bias":1.387778780781445E-18},{"epoch":14,"weights":[[0.12980453204007233,0.38644475491846764,-0.403913000360244,-0.16847178476152708],[0.08188406746081876,-0.08221716399620176,0.15394821822109234,0.060039874407417426],[-0.09807317270324317,-0.13425529717582088,0.43140225345474703,0.22786475179653864]],"accuracy_validation":0.7111111111111111,"mse_training":0.6666666666666666,"accuracy_training":0.6666666666666666,"mse_validation":0.5777777777777777,"bias":1.0824674490095263E-18},{"epoch":13,"weights":[[0.12442170803421174,0.37238597134688056,-0.3849379456863736,-0.15987769077671113],[0.07958416072017285,-0.07719787812122393,0.1498599761742744,0.06188901852706395],[-0.09039044195673679,-0.1252157994792119,0.41651544082769454,0.2174215136920758]],"accuracy_validation":0.7111111111111111,"mse_training":0.6666666666666666,"accuracy_training":0.6666666666666666,"mse_validation":0.5777777777777777,"bias":1.1241008124329697E-18},{"epoch":12,"weights":[[0.11875163460249075,0.3576859841041261,-0.36513707355219666,-0.15090278454452286],[0.07736097485282518,-0.07194225371649404,0.14548227127572375,0.06362301444067812],[-0.08249718265766808,-0.11577143664118744,0.4010922735920682,0.20671261154627327]],"accuracy_validation":0.7111111111111111,"mse_training":0.6857142857142857,"accuracy_training":0.6571428571428571,"mse_validation":0.5777777777777777,"bias":1.859623566247136E-18},{"epoch":11,"weights":[[0.11276202308432529,0.3422862619029259,-0.3444440326783978,-0.14151559976458108],[0.07522466448824876,-0.06643389995916786,0.1407987812322956,0.06523403096453004],[-0.07437126077492628,-0.10588006819731365,0.3850827227616973,0.19571441024247957]],"accuracy_validation":0.7111111111111111,"mse_training":0.7047619047619048,"accuracy_training":0.6476190476190476,"mse_validation":0.5777777777777777,"bias":1.998401444325281E-18},{"epoch":10,"weights":[[0.10641587864925495,0.32612160990183753,-0.3227865365600613,-0.13168169431671284],[0.07318680609655437,-0.06065545658585355,0.13579350801458737,0.06671424676767608],[-0.0659872579481616,-0.09549385956953953,0.3684304998610693,0.1844002889914652]],"accuracy_validation":0.7111111111111111,"mse_training":0.7047619047619048,"accuracy_training":0.6476190476190476,"mse_validation":0.5777777777777777,"bias":2.4008572907519005E-18},{"epoch":9,"weights":[[0.09967076389556458,0.3091195157995362,-0.3000862166801085,-0.12136352171537097],[0.07126060530747873,-0.05458875157670373,0.1304514282890001,0.06805611100620045],[-0.057315942405395594,-0.08455847047638786,0.35107225970670375,0.17274025215159883]],"accuracy_validation":0.7111111111111111,"mse_training":0.7047619047619048,"accuracy_training":0.6476190476190476,"mse_validation":0.5777777777777777,"bias":7.771561172376076E-19},{"epoch":8,"weights":[[0.09247799962514666,0.2911995653475568,-0.2762587125471465,-0.11052039850722996],[0.0694611074420423,-0.04821509154653977,0.12475941594086158,0.0692527203785295],[-0.04832368026954117,-0.07301218005457237,0.3329367679218803,0.1607005195711288]],"accuracy_validation":0.7111111111111111,"mse_training":0.7047619047619048,"accuracy_training":0.6476190476190476,"mse_validation":0.5777777777777777,"bias":7.216449660063498E-19},{"epoch":7,"weights":[[0.084781871139944,0.272273041281956,-0.2512141138798376,-0.09910862230931847],[0.06780536987960493,-0.041515756022395406,0.1187075116341256,0.07029834798651244],[-0.038971814221900984,-0.060784991513115935,0.3139440735613074,0.14824311576523433]],"accuracy_validation":0.7111111111111111,"mse_training":0.7047619047619048,"accuracy_training":0.6476190476190476,"mse_validation":0.5777777777777777,"bias":3.6082248300317427E-19},{"epoch":6,"weights":[[0.07651905256557164,0.2522429298056975,-0.2248578503466333,-0.0870817971362382],[0.06631247364530313,-0.03447282193880096,0.11229058937663075,0.07118915458657755],[-0.029216099413226865,-0.04779781412045168,0.29400473228559804,0.135325483992089]],"accuracy_validation":0.7111111111111111,"mse_training":0.7047619047619048,"accuracy_training":0.6476190476190476,"mse_validation":0.5777777777777777,"bias":2.775557561562752E-20},{"epoch":5,"weights":[[0.06761896895480085,0.23100486583410948,-0.19709188798867436,-0.0743913572396514],[0.06500296301879678,-0.027070606117038303,0.10551030917455785,0.07192406417306176],[-0.019006505175949706,-0.033961965970626305,0.27301905012971195,0.12190013450901795]],"accuracy_validation":0.7111111111111111,"mse_training":0.7047619047619048,"accuracy_training":0.6476190476190476,"mse_validation":0.5777777777777777,"bias":-2.4702462297909743E-18},{"epoch":4,"weights":[[0.058007832850164746,0.2084506381270321,-0.16781487816833837,-0.06098690087001893],[0.06389615262486226,-0.019298611661166858,0.09837650799442671,0.07250554945320414],[-0.008288558677379052,-0.019179732719420365,0.25087584148950715,0.10791419285924304]],"accuracy_validation":0.7111111111111111,"mse_training":0.7047619047619048,"accuracy_training":0.6476190476190476,"mse_validation":0.5777777777777777,"bias":-2.1926904736346846E-18},{"epoch":3,"weights":[[0.04762778229454255,0.18448037082964833,-0.13691425201098884,-0.04681412140197939],[0.06299892243525287,-0.011159322664694117,0.09090397938523445,0.07293903028560784],[0.002988722067852504,-0.003348754418509526,0.22744774394134987,0.09330793255879982]],"accuracy_validation":0.7111111111111111,"mse_training":0.7047619047619048,"accuracy_training":0.6476190476190476,"mse_validation":0.5777777777777777,"bias":-1.0547118733938977E-18},{"epoch":2,"weights":[[0.036522202601292145,0.15904963882377038,-0.10421665919629321,-0.031799443829456854],[0.06226050322901236,-0.002693922679568867,0.0830878139167297,0.07322541148001932],[0.014832720967343397,0.013616577602243253,0.20256631659515903,0.07800687379186586]],"accuracy_validation":0.6666666666666666,"mse_training":0.7047619047619048,"accuracy_training":0.6476190476190476,"mse_validation":0.6666666666666666,"bias":-1.554312234475219E-18},{"epoch":1,"weights":[[0.02523212928704385,0.13237494312099043,-0.06923048133573637,-0.015766857778856214],[0.061424335227411704,0.005937993254807401,0.07481307136053168,0.0733324544419458],[0.026958962283192313,0.0316593573706469,0.17585488129080007,0.061867244779338706]],"accuracy_validation":0.26666666666666666,"mse_training":1.0857142857142856,"accuracy_training":0.45714285714285713,"mse_validation":1.4666666666666666,"bias":-9.436895709313831E-19},{"epoch":0,"weights":[[0.016864131737268306,0.10597249034342336,-0.029734903366160848,0.0020253720048126122],[0.06023079183923577,0.014532471615645654,0.0660462808570755,0.0732625511074916],[0.03652050322114385,0.04946733178737573,0.14512609382468067,0.044144918330124044]],"accuracy_validation":0.2,"mse_training":1.2190476190476192,"accuracy_training":0.3904761904761905,"mse_validation":1.6,"bias":8.326672684688675E-19}]