[{"epoch":99,"weights":[[1.6218337559002354,1.9752407348150336,-1.8646235610594806,-0.27922947256430686],[1.426611024053889,0.11867914219052396,0.8023017810647385,-0.8264968933391947],[-0.7112124654632347,-0.7814871736050882,2.92532273378535,2.187490314078446]],"accuracy_validation":0.9333333333333333,"mse_training":0.09523809523809523,"accuracy_training":0.9523809523809523,"mse_validation":0.13333333333333333,"bias":-3.5203119487981716E-17},{"epoch":98,"weights":[[1.618875935501338,1.9690552793144567,-1.856640235139081,-0.2751872958444657],[1.4245728393912864,0.11684054496185294,0.8028233989069042,-0.820241657209827],[-0.7062164604017335,-0.7734631208758405,2.916817790022784,2.1771929012292373]],"accuracy_validation":0.9333333333333333,"mse_training":0.09523809523809523,"accuracy_training":0.9523809523809523,"mse_validation":0.13333333333333333,"bias":-3.817872344286019E-17},{"epoch":97,"weights":[[1.615895590587254,1.9628202785804139,-1.8485932288982592,-0.27111470411523675],[1.422504260551043,0.11500546794482401,0.8033575826661216,-0.8139433866423268],[-0.7011675366474058,-0.7653930431247697,2.9082366000227418,2.1668220389325077]],"accuracy_validation":0.9333333333333333,"mse_training":0.09523809523809523,"accuracy_training":0.9523809523809523,"mse_validation":0.13333333333333333,"bias":-4.1037345439288104E-17},{"epoch":96,"weights":[[1.6128923685725487,1.9565349041958824,-1.8404814871689712,-0.2670112021054603],[1.4204046546580111,0.11317414742651798,0.8039045897343138,-0.8076013941925012],[-0.6960647087396681,-0.7572763482219336,2.89957785122526,2.1563765444729057]],"accuracy_validation":0.9333333333333333,"mse_training":0.09523809523809523,"accuracy_training":0.9523809523809523,"mse_validation":0.13333333333333333,"bias":-4.444679134831327E-17},{"epoch":95,"weights":[[1.6098659083748996,1.9501983066331419,-1.8323039278639164,-0.2628762819866316],[1.418273371546825,0.11134682804549718,0.8044646838603778,-0.8012149753853417],[-0.690906965430833,-0.7491124312781721,2.890840197794141,2.145855205546917]],"accuracy_validation":0.9333333333333333,"mse_training":0.09523809523809523,"accuracy_training":0.9523809523809523,"mse_validation":0.13333333333333333,"bias":-4.496889382123523E-17},{"epoch":94,"weights":[[1.6068158401362618,1.9438096145241799,-1.8240594410313367,-0.25870942293186805],[1.4161097431699496,0.10952376313437859,0.8050381353223242,-0.794783408162334],[-0.6856932688153192,-0.7409006742580921,2.8820222594996165,2.1352567792691457]],"accuracy_validation":0.9333333333333333,"mse_training":0.09523809523809523,"accuracy_training":0.9523809523809523,"mse_validation":0.13333333333333333,"bias":-4.4991276236732466E-17},{"epoch":93,"weights":[[1.6037417849323834,1.937367933898758,-1.815746887866499,-0.2545100906545759],[1.4139130829816953,0.10770521507961463,0.805625221102955,-0.7883059523075165],[-0.6804225534231877,-0.7326404455779058,2.873122620554148,2.1245799911370353]],"accuracy_validation":0.9333333333333333,"mse_training":0.09523809523809523,"accuracy_training":0.9523809523809523,"mse_validation":0.13333333333333333,"bias":-4.2035528678012096E-17},{"epoch":92,"weights":[[1.6006433544700784,1.9308723473883154,-1.8073650996773467,-0.25027773692562955],[1.4116826852971214,0.10589145569953752,0.8062262250689372,-0.781781848851412],[-0.6750937252763095,-0.7243310996873871,2.8641398283990114,2.1138235339519866]],"accuracy_validation":0.9333333333333333,"mse_training":0.09523809523809523,"accuracy_training":0.9523809523809523,"mse_validation":0.13333333333333333,"bias":-3.731020958289923E-17},{"epoch":91,"weights":[[1.5975201507716104,1.9243219133938332,-1.7989128768016276,-0.24601179906778844],[1.4094178246246634,0.10408276664179757,0.8068414381530928,-0.775210319451914],[-0.6697056609053837,-0.7159719766351659,2.8550723924391357,2.1029860666946445]],"accuracy_validation":0.9333333333333333,"mse_training":0.09523809523809523,"accuracy_training":0.9523809523809523,"mse_validation":0.13333333333333333,"bias":-3.915278865918207E-17},{"epoch":90,"weights":[[1.5943717658455256,1.9177156652155884,-1.790388987472611,-0.241711699425994],[1.407117754971285,0.10227943980140795,0.8074711585396819,-0.7685905657511637],[-0.664257206325921,-0.7075624016165316,2.845918782723529,2.0920662133520995]],"accuracy_validation":0.9333333333333333,"mse_training":0.09523809523809523,"accuracy_training":0.9523809523809523,"mse_validation":0.13333333333333333,"bias":-4.2841895292227323E-17},{"epoch":89,"weights":[[1.5911977813432192,1.911052610142629,-1.7817921666302792,-0.2373768448120743],[1.4047817091188994,0.10048177776070723,0.808115691852417,-0.7619217687074563],[-0.6587471759712298,-0.699101684502871,2.8366774285684606,2.081062561694471]],"accuracy_validation":0.9333333333333333,"mse_training":0.09523809523809523,"accuracy_training":0.9523809523809523,"mse_validation":0.13333333333333333,"bias":-4.397504374333465E-17},{"epoch":88,"weights":[[1.5879977682004751,1.9043317284996346,-1.7731211146746684,-0.23300662592228719],[1.4024088978707214,0.09869009425264166,0.8087753513448751,-0.7552030879011363],[-0.6531743515803082,-0.6905891193518098,2.8273467171203936,2.069973661998363]],"accuracy_validation":0.9333333333333333,"mse_training":0.09523809523809523,"accuracy_training":0.9523809523809523,"mse_validation":0.13333333333333333,"bias":-3.766221169344691E-17},{"epoch":87,"weights":[[1.5847712862631627,1.8975519726486403,-1.7643744961577659,-0.22860041672600123],[1.3999985092661802,0.09690471464888147,0.8094504580929235,-0.748433660813436],[-0.647537481038454,-0.6820239838970559,2.8179249918554437,2.058798025714378]],"accuracy_validation":0.9333333333333333,"mse_training":0.09523809523809523,"accuracy_training":0.9523809523809523,"mse_validation":0.13333333333333333,"bias":-3.8240264249411645E-17},{"epoch":86,"weights":[[1.5815178838962423,1.890712265942962,-1.7555509384101005,-0.22415757382369098],[1.3975497077629255,0.09512597647440607,0.8101413411886959,-0.7416126020771654],[-0.6418352771682787,-0.6734055390169013,2.808410551012007,2.0475341240757956]],"accuracy_validation":0.9333333333333333,"mse_training":0.09523809523809523,"accuracy_training":0.9523809523809523,"mse_validation":0.13333333333333333,"bias":-4.1549303509798375E-17},{"epoch":85,"weights":[[1.5782370975751494,1.8838115016304031,-1.746649030097851,-0.2196774357722742],[1.3950616333844252,0.0933542299503161,0.8108483379355769,-0.7347390026981317],[-0.6360664164686864,-0.6647330281802529,2.7988016459528757,2.036180386645346]],"accuracy_validation":0.9333333333333333,"mse_training":0.09523809523809523,"accuracy_training":0.9523809523809523,"mse_validation":0.13333333333333333,"bias":-3.6177902341387576E-17},{"epoch":84,"weights":[[1.5749284514585906,1.8768485417026814,-1.737667319705995,-0.2151593223756649],[1.3925334008315413,0.09158983856677476,0.8115717940435555,-0.7278119292461369],[-0.6302295377992446,-0.6560056768689907,2.7890964794530424,2.0247351997967424]],"accuracy_validation":0.9333333333333333,"mse_training":0.09523809523809523,"accuracy_training":0.9523809523809523,"mse_validation":0.13333333333333333,"bias":-3.427759398273884E-17},{"epoch":83,"weights":[[1.5715914569416922,1.869822215687704,-1.728604313942608,-0.21060253393824238],[1.3899640985564352,0.08983317968813251,0.8123120638242002,-0.720830423014365],[-0.6243232410072407,-0.6472226919753709,2.779293203909009,2.013196905127548]],"accuracy_validation":0.9333333333333333,"mse_training":0.09523809523809523,"accuracy_training":0.9523809523809523,"mse_validation":0.13333333333333333,"bias":-3.248507910313208E-17},{"epoch":82,"weights":[[1.5682256121883982,1.862731319381117,-1.719458476059089,-0.20600635047874877],[1.3873527877970482,0.08808464519246091,0.8130695103844013,-0.7137934991459403],[-0.6183460854945604,-0.6383832611731114,2.7693899194652882,2.0015637977996295]],"accuracy_validation":0.9333333333333333,"mse_training":0.09523809523809523,"accuracy_training":0.9523809523809523,"mse_validation":0.13333333333333333,"bias":-2.9783483664430065E-17},{"epoch":81,"weights":[[1.5648304016419146,1.8555746135132531,-1.710228224080588,-0.2013700309019189],[1.3846985015703464,0.08634464214789953,0.8138445058178604,-0.7067001457264287],[-0.6122965887213743,-0.629486552260686,2.7593846720533284,1.9898341248032863]],"accuracy_validation":0.9333333333333333,"mse_training":0.09523809523809523,"accuracy_training":0.9523809523809523,"mse_validation":0.13333333333333333,"bias":-2.3970366493816398E-17},{"epoch":80,"weights":[[1.5614052955119277,1.8483508223472922,-1.700911928940492,-0.19669281212492096],[1.3820002436224148,0.08461359352843138,0.814637431393182,-0.6995493228410048],[-0.6061732246434561,-0.6205317124752574,2.7492754513379105,1.978006083140865]],"accuracy_validation":0.9333333333333333,"mse_training":0.09523809523809523,"accuracy_training":0.9523809523809523,"mse_validation":0.13333333333333333,"bias":-1.829980649023797E-17},{"epoch":79,"weights":[[1.5579497492372287,1.8410586322041147,-1.6915079125122428,-0.19197390815543142],[1.3792569873334195,0.08289193897191109,0.8154486777372202,-0.6923399615950222],[-0.599974422079763,-0.611517867775559,2.739060188565622,1.9660778179253942]],"accuracy_validation":0.9333333333333333,"mse_training":0.09523809523809523,"accuracy_training":0.9523809523809523,"mse_validation":0.13333333333333333,"bias":-1.3647436337540854E-17},{"epoch":78,"weights":[[1.5544632029222747,1.8336966899089546,-1.6820144455312178,-0.18721250911789347],[1.3764676745753641,0.08118013558342987,0.816278645012144,-0.6850709630966786],[-0.5936985630067518,-0.6024441220919177,2.7287367543096717,1.9540474203895126]],"accuracy_validation":0.9333333333333333,"mse_training":0.09523809523809523,"accuracy_training":0.9523809523809523,"mse_validation":0.13333333333333333,"bias":-1.469774435429309E-17},{"epoch":77,"weights":[[1.5509450807461085,1.826263601154568,-1.6724297453987333,-0.18240778022420132],[1.3736312145204614,0.07947865878735551,0.8171277430844479,-0.6777411974004877],[-0.5873439807756843,-0.5933095565414568,2.718302956104884,1.9419129257996302]],"accuracy_validation":0.9333333333333333,"mse_training":0.09523809523809523,"accuracy_training":0.9523809523809523,"mse_validation":0.13333333333333333,"bias":-1.4586779861829223E-17},{"epoch":76,"weights":[[1.5473947903419598,1.8187579287751512,-1.6627519738595415,-0.17755886068471302],[1.370746482397892,0.07778800323168872,0.8179963916838798,-0.6703495024102654],[-0.5809089582489655,-0.5841132286063718,2.70775653596626,1.9296723112699197]],"accuracy_validation":0.9333333333333333,"mse_training":0.09523809523809523,"accuracy_training":0.9523809523809523,"mse_validation":0.13333333333333333,"bias":-1.4336160415140116E-17},{"epoch":75,"weights":[[1.5438117221456875,1.8111781909247722,-1.6529792345433791,-0.17266486255512106],[1.3678123181965745,0.07610868374870464,0.8188850205499553,-0.6628946827403386],[-0.5743917258513763,-0.5748541712730088,2.697095167784022,1.9173234934704015]],"accuracy_validation":0.9333333333333333,"mse_training":0.09523809523809523,"accuracy_training":0.9523809523809523,"mse_validation":0.13333333333333333,"bias":-1.4569523087541256E-17},{"epoch":74,"weights":[[1.5401952487111248,1.8035228591535375,-1.6431095703602636,-0.16772486951429197],[1.3648275253115296,0.07444123637620013,0.8197940695633956,-0.6553755085337338],[-0.5677904595317678,-0.5655313921292694,2.686316454587466,1.9048643262229679]],"accuracy_validation":0.9333333333333333,"mse_training":0.09523809523809523,"accuracy_training":0.9523809523809523,"mse_validation":0.13333333333333333,"bias":-1.589150633421345E-17},{"epoch":73,"weights":[[1.5365447239901977,1.7957903563740731,-1.6331409607382623,-0.16273793556772423],[1.3617908691312903,0.07278621944407633,0.8207239888594345,-0.6477907142361169],[-0.5611032786305998,-0.5561438724176813,2.675417925669423,1.8922925979787828]],"accuracy_validation":0.9333333333333333,"mse_training":0.09523809523809523,"accuracy_training":0.9523809523809523,"mse_validation":0.13333333333333333,"bias":-1.967056315132762E-17},{"epoch":72,"weights":[[1.5328594825755524,1.7879790547102699,-1.623071318691359,-0.15770308367075844],[1.3587010755637359,0.07114421473141488,0.8216752389195189,-0.640138997324327],[-0.5543282436484019,-0.5466905660412161,2.664397033562436,1.8796060291700272]],"accuracy_validation":0.9333333333333333,"mse_training":0.09523809523809523,"accuracy_training":0.9523809523809523,"mse_validation":0.13333333333333333,"bias":-1.944248801592527E-17},{"epoch":71,"weights":[[1.529138838903223,1.7800872732194586,-1.6128984877038597,-0.15261930426509998],[1.3555568294976432,0.06951582869970138,0.8226482906374022,-0.6324190169884252],[-0.5474633539099801,-0.5371703985186923,2.6532511508570513,1.866802269428467]],"accuracy_validation":0.9333333333333333,"mse_training":0.09523809523809523,"accuracy_training":0.9523809523809523,"mse_validation":0.13333333333333333,"bias":-2.0787397400454978E-17},{"epoch":70,"weights":[[1.5253820864126613,1.772113275478396,-1.6026202384164043,-0.14748555372157335],[1.3523567731971198,0.06790169380839271,0.82364362535511,-0.6246293927662615],[-0.5405065451188973,-0.52758226588632,2.6419775668518874,1.8538788946627764]],"accuracy_validation":0.9333333333333333,"mse_training":0.09523809523809523,"accuracy_training":0.9523809523809523,"mse_validation":0.13333333333333333,"bias":-2.0820597650916E-17},{"epoch":69,"weights":[[1.5215884966612667,1.76405526702244,-1.592234265097159,-0.142300752681309],[1.3490995046260463,0.06630246991961178,0.8246617348635615,-0.6167687031297192],[-0.5334556867964301,-0.5179250335415823,2.6305734840241883,1.8408334039859708]],"accuracy_validation":0.9333333333333333,"mse_training":0.09523809523809523,"accuracy_training":0.9523809523809523,"mse_validation":0.13333333333333333,"bias":-2.1746201506706508E-17},{"epoch":68,"weights":[[1.5177573183902482,1.7559113926263554,-1.5817381818800715,-0.13706378428676186],[1.345783575699546,0.06471884579944118,0.8257031213619385,-0.608835484021928],[-0.5263085795989113,-0.508197535025327,2.619036014308726,1.827663216483632]],"accuracy_validation":0.9333333333333333,"mse_training":0.09523809523809523,"accuracy_training":0.9523809523809523,"mse_validation":0.13333333333333333,"bias":-2.2285759773571825E-17},{"epoch":67,"weights":[[1.5138877765384366,1.747679733413949,-1.5711295187501622,-0.13177349229305743],[1.3424074904594203,0.0631515407240127,0.8267682973690322,-0.6008282273449601],[-0.5190629525069735,-0.4983985707374931,2.6073621751717266,1.8143656678129607]],"accuracy_validation":0.9333333333333333,"mse_training":0.09523809523809523,"accuracy_training":0.9523809523809523,"mse_validation":0.13333333333333333,"bias":-1.7389100819024018E-17},{"epoch":66,"weights":[[1.5099790712003194,1.739358303782485,-1.5604057172537027,-0.12642867904914704],[1.3389697031704382,0.06160130619943081,0.8278577855788622,-0.5927453793977624],[-0.5117164598798735,-0.4885269065814464,2.595548885465436,1.8009380066218517]],"accuracy_validation":0.9333333333333333,"mse_training":0.09523809523809523,"accuracy_training":0.9523809523809523,"mse_validation":0.13333333333333333,"bias":-2.2066203010291982E-17},{"epoch":65,"weights":[[1.5060303765242584,1.730945048126338,-1.5495641259087138,-0.12102810333711388],[1.3354686163343001,0.060068927805487865,0.82897211865176,-0.5845853392643653],[-0.5042666783676741,-0.4785812725313573,2.583592961047548,1.787377390776422]],"accuracy_validation":0.9333333333333333,"mse_training":0.09523809523809523,"accuracy_training":0.9523809523809523,"mse_validation":0.13333333333333333,"bias":-1.5153157904957002E-17},{"epoch":64,"weights":[[1.502040839546453,1.7224378373427505,-1.5386019952885286,-0.1155704780566792],[1.3319025786180625,0.058555227174163574,0.830111838930876,-0.5763464571528013],[-0.49671110367363164,-0.46856036111644667,2.5714911101482487,1.7736808833844242]],"accuracy_validation":0.9333333333333333,"mse_training":0.09523809523809523,"accuracy_training":0.9523809523809523,"mse_validation":0.13333333333333333,"bias":-1.4868595862837935E-17},{"epoch":63,"weights":[[1.4980095789558234,1.7138344651006463,-1.5275164727480488,-0.11005446774050301],[1.3282698826937698,0.05706106411506259,0.8312774980726295,-0.5680270326855685],[-0.4890471471587088,-0.4584628258152412,2.5592399284660163,1.7598454486010149]],"accuracy_validation":0.9333333333333333,"mse_training":0.09523809523809523,"accuracy_training":0.9523809523809523,"mse_validation":0.13333333333333333,"bias":-1.5339581915713794E-17},{"epoch":62,"weights":[[1.4939356837844875,1.7051326438514023,-1.5163045967589046,-0.10447868588422113],[1.3245687629860476,0.05558733890123528,0.8324696565780382,-0.5596253131430159],[-0.4812721322796484,-0.4482872793521695,2.546835893971464,1.7458679472021794]],"accuracy_validation":0.9333333333333333,"mse_training":0.09523809523809523,"accuracy_training":0.9523809523809523,"mse_validation":0.13333333333333333,"bias":-9.870474669656592E-18},{"epoch":61,"weights":[[1.48981821201799,1.696330000558102,-1.5049632908157191,-0.09884169207328683],[1.3207973933244284,0.05413499473029047,0.833688883209948,-0.5511394916616547],[-0.4733832908515326,-0.43803229188792564,2.5342753613963676,1.731745131909883]],"accuracy_validation":0.9333333333333333,"mse_training":0.09523809523809523,"accuracy_training":0.9523809523809523,"mse_validation":0.13333333333333333,"bias":-1.820378862204734E-17},{"epoch":60,"weights":[[1.4856561891188682,1.6874240721170972,-1.4934893568712424,-0.09314198888655369],[1.3169538844972373,0.05270502037733863,0.8349357542790957,-0.5425677053901189],[-0.4653777591252198,-0.4276963890939707,2.521554556382741,1.717473642451614]],"accuracy_validation":0.9333333333333333,"mse_training":0.11428571428571428,"accuracy_training":0.9428571428571428,"mse_validation":0.13333333333333333,"bias":-2.1147348021857628E-17},{"epoch":59,"weights":[[1.4814486064564112,1.678412300442633,-1.4818794682529612,-0.08737801855410654],[1.3130362817039292,0.05129845305815082,0.83621085277947,-0.5339080336064018],[-0.45725257366945465,-0.4172780501003179,2.5086695692640855,1.7030500003354505]],"accuracy_validation":0.9333333333333333,"mse_training":0.11428571428571428,"accuracy_training":0.9428571428571428,"mse_validation":0.13333333333333333,"bias":-1.7876531884221925E-17},{"epoch":58,"weights":[[1.4771944196347861,1.6692920271818001,-1.4701301620079579,-0.08154815934407295],[1.309042561902925,0.04991638152299297,0.8375147673506418,-0.5251584958010217],[-0.4490046670468255,-0.4067757053043273,2.4956163484479084,1.6884706033200376]],"accuracy_validation":0.9333333333333333,"mse_training":0.11428571428571428,"accuracy_training":0.9428571428571428,"mse_validation":0.13333333333333333,"bias":-1.9350027752287548E-17},{"epoch":57,"weights":[[1.472892546710773,1.6600604880231187,-1.4582378306160986,-0.07565072164997197],[1.3049706310521727,0.04855994940394532,0.8388480910415059,-0.5163170497319921],[-0.4406308632720612,-0.3961877340265972,2.4823906933651845,1.6737317195569061]],"accuracy_validation":0.9333333333333333,"mse_training":0.13333333333333333,"accuracy_training":0.9333333333333333,"mse_validation":0.13333333333333333,"bias":-1.8275566458695468E-17},{"epoch":56,"weights":[[1.4685418662914085,1.6507148065574078,-1.4461987130039469,-0.06968394374651306],[1.3008183212398807,0.047230358841156325,0.8402114198461709,-0.5073815894589391],[-0.43212787304040495,-0.38551246199809774,2.4689882469483675,1.6588294813803952]],"accuracy_validation":0.9333333333333333,"mse_training":0.13333333333333333,"accuracy_training":0.9333333333333333,"mse_validation":0.13333333333333333,"bias":-2.0286805428490214E-17},{"epoch":55,"weights":[[1.4641412155006845,1.6412519876444105,-1.4340088847829697,-0.06364598717757196],[1.2965833877032156,0.04592887441650074,0.8416053509784637,-0.4983499433653958],[-0.42349228871301586,-0.37474815866044453,2.4554044875951,1.6437598787179108]],"accuracy_validation":0.9333333333333333,"mse_training":0.13333333333333333,"accuracy_training":0.9333333333333333,"mse_validation":0.13333333333333333,"bias":-1.6871623112906853E-17},{"epoch":54,"weights":[[1.4596893878031763,1.631668910232518,-1.4216642476254255,-0.0575349317352424],[1.292263505733133,0.04465682742650022,0.8430304808465972,-0.48921987218032253],[-0.4147205790454252,-0.3638930342585509,2.441634720569424,1.6285187520905082]],"accuracy_validation":0.9111111111111111,"mse_training":0.13333333333333333,"accuracy_training":0.9333333333333333,"mse_validation":0.17777777777777778,"bias":-1.7036798243390583E-17},{"epoch":53,"weights":[[1.4551851306709722,1.62196231957199,-1.4091605176795596,-0.051348769983287225],[1.2878562674640284,0.04341562053025281,0.8444874026838731,-0.4799890670122621],[-0.4058090836441159,-0.3529452367017763,2.427674068786282,1.6131017851704932]],"accuracy_validation":0.9111111111111111,"mse_training":0.13333333333333333,"accuracy_training":0.9333333333333333,"mse_validation":0.17777777777777778,"bias":-1.442834334166202E-17},{"epoch":52,"weights":[[1.4506271430785525,1.6121288187539389,-1.3964932129121366,-0.04508540127186283],[1.2833591785474987,0.04220673281251714,0.8459767037847211,-0.4706551474123196],[-0.3967540071351659,-0.34190284816598954,2.413517462918013,1.597504496859126]],"accuracy_validation":0.9111111111111111,"mse_training":0.13333333333333333,"accuracy_training":0.9333333333333333,"mse_validation":0.17777777777777778,"bias":-1.4242724541600722E-17},{"epoch":51,"weights":[[1.4460140728082804,1.6021648594979263,-1.3836576392505133,-0.038742625182894244],[1.2787696547102596,0.04103172530712381,0.8474989622877911,-0.46121565948541215],[-0.38755141302765306,-0.3307638814045826,2.3991596307533194,1.5817222328432496]],"accuracy_validation":0.9111111111111111,"mse_training":0.13333333333333333,"accuracy_training":0.9333333333333333,"mse_validation":0.17777777777777778,"bias":-1.719372380236367E-17},{"epoch":50,"weights":[[1.4413445135468195,1.5920667321000896,-1.370648875378094,-0.032318134336763976],[1.2740850181971928,0.03989224703164211,0.8490547434390208,-0.45166807407308057],[-0.37819721725312533,-0.3195262757312647,2.384595085729671,1.5657501565847876]],"accuracy_validation":0.9111111111111111,"mse_training":0.17142857142857143,"accuracy_training":0.9142857142857143,"mse_validation":0.17777777777777778,"bias":-2.1300573635037985E-17},{"epoch":49,"weights":[[1.4366170017500912,1.58183055444092,-1.3574617560155298,-0.025809506480806963],[1.2693024941015691,0.038790041590795805,0.8506445952573805,-0.44200978503566196],[-0.36868718136077316,-0.3081878926312486,2.369818114548745,1.549583239691412]],"accuracy_validation":0.9111111111111111,"mse_training":0.17142857142857143,"accuracy_training":0.9142857142857143,"mse_validation":0.17777777777777778,"bias":-2.2070919395621426E-17},{"epoch":48,"weights":[[1.4318300132511614,1.5714522599367937,-1.3440908534949334,-0.019214195768204677],[1.2644192065858366,0.03772695441368337,0.8522690435141421,-0.4322381076669188],[-0.35901690534610853,-0.2967465109500109,2.3548227637713883,1.5332162516100671]],"accuracy_validation":0.9111111111111111,"mse_training":0.17142857142857143,"accuracy_training":0.9142857142857143,"mse_validation":0.17777777777777778,"bias":-2.611834986704586E-17},{"epoch":47,"weights":[[1.4269819595816815,1.5609275843018244,-1.3305304574049663,-0.012529523121916637],[1.2594321749978998,0.03670494069852817,0.8539285859227016,-0.4223502772804667],[-0.34918182008869164,-0.28519982159988705,2.339602825272858,1.5166437485773272]],"accuracy_validation":0.9111111111111111,"mse_training":0.19047619047619047,"accuracy_training":0.9047619047619048,"mse_validation":0.17777777777777778,"bias":-2.801705045128164E-17},{"epoch":46,"weights":[[1.4220711839730553,1.5502520509658082,-1.3167745520499639,-0.005752665561867138],[1.254338309889714,0.035726074148694976,0.8556236854198862,-0.4123434480146738],[-0.33917717937187875,-0.2735454217140376,2.324151820420671,1.4998600617514843]],"accuracy_validation":0.9111111111111111,"mse_training":0.19047619047619047,"accuracy_training":0.9047619047619048,"mse_validation":0.17777777777777778,"bias":-3.1163610561324276E-17},{"epoch":45,"weights":[[1.4170959569981372,1.5394209549695654,-1.3028167914254856,0.001119355645766007],[1.249134408947168,0.034792556595265006,0.8573547624008295,-0.40221469191135595],[-0.32899805145441363,-0.2617808081643647,2.3084629828152488,1.4828592844405317]],"accuracy_validation":0.9111111111111111,"mse_training":0.20952380952380953,"accuracy_training":0.8952380952380953,"mse_validation":0.17777777777777778,"bias":-3.310964758181735E-17},{"epoch":44,"weights":[[1.4120544718079489,1.5284293451299087,-1.2886504713642855,0.008089688181239363],[1.243817152842872,0.033906728614848954,0.8591221857475138,-0.3919609983337765],[-0.31863931015992886,-0.24990337034429236,2.2925292394073624,1.4656352583274785]],"accuracy_validation":0.9111111111111111,"mse_training":0.20952380952380953,"accuracy_training":0.8952380952380953,"mse_validation":0.17777777777777778,"bias":-3.7522924288655114E-17},{"epoch":43,"weights":[[1.4069448389102415,1.5172720042318852,-1.2742684984493489,0.015161663397200905],[1.238383101026483,0.033071081266867426,0.8609262624651842,-0.3815792738015001],[-0.3080956254458318,-0.23791038209828638,2.2763431897747557,1.448181558579241]],"accuracy_validation":0.9111111111111111,"mse_training":0.20952380952380953,"accuracy_training":0.8952380952380953,"mse_validation":0.17777777777777778,"bias":-4.052665982071409E-17},{"epoch":42,"weights":[[1.4017650804275128,1.5059434269646494,-1.2596633552223384,0.02233881280162128],[1.2328286874708059,0.03228826909263796,0.8627672257104755,-0.37106634233385044],[-0.2973614534074243,-0.22579899265682177,2.259897083302453,1.4304914777071716]],"accuracy_validation":0.9111111111111111,"mse_training":0.20952380952380953,"accuracy_training":0.8952380952380953,"mse_validation":0.17777777777777778,"bias":-3.4611413703893146E-17},{"epoch":41,"weights":[[1.3965131237609167,1.4944377952678956,-1.244827061134196,0.02962488656013422],[1.2271502163961068,0.031561124539766,0.8646452209592739,-0.36041894641056105],[-0.28643102566612855,-0.2135662164071957,2.243182793965511,1.412558008025369]],"accuracy_validation":0.9111111111111111,"mse_training":0.20952380952380953,"accuracy_training":0.8952380952380953,"mse_validation":0.17777777777777778,"bias":-3.405908045964757E-17},{"epoch":40,"weights":[[1.3911867945728897,1.4827489506962193,-1.229751128586858,0.037023874326661],[1.2213438580000255,0.030892674000141927,0.8665602900199969,-0.349633748678151],[-0.275298338082019,-0.20120892129589574,2.2261917923574517,1.3943738225264328]],"accuracy_validation":0.9111111111111111,"mse_training":0.20952380952380953,"accuracy_training":0.8952380952380953,"mse_validation":0.17777777777777778,"bias":-3.355867033506866E-17},{"epoch":39,"weights":[[1.3857838089846388,1.4708703633370395,-1.2144265132973908,0.04454002876708415],[1.2154056442262287,0.03028615567902275,0.8685123525478291,-0.33870733455426516],[-0.2639571387199699,-0.1887238156155972,2.2089151145401513,1.3759312539621242]],"accuracy_validation":0.9111111111111111,"mse_training":0.20952380952380953,"accuracy_training":0.8952380952380953,"mse_validation":0.17777777777777778,"bias":-3.6566302218685005E-17},{"epoch":38,"weights":[[1.380301764864136,1.4587950967306094,-1.1988435580738457,0.05217789220824389],[1.2093314646117668,0.029745039547137694,0.8705011846558343,-0.3276362159104289],[-0.2524009149850053,-0.1761074328772813,2.1913433272086005,1.3572222718771287]],"accuracy_validation":0.9111111111111111,"mse_training":0.20952380952380953,"accuracy_training":0.8952380952380953,"mse_validation":0.17777777777777778,"bias":-3.474263181291703E-17},{"epoch":37,"weights":[[1.3747381320548806,1.4465157681347471,-1.1829919289200201,0.059942326926400454],[1.2031170622610343,0.029273049668602922,0.8725263941477722,-0.31641683604737453],[-0.24062287982501634,-0.16335611440288417,2.173466488562835,1.3382384572959174]],"accuracy_validation":0.9111111111111111,"mse_training":0.20952380952380953,"accuracy_training":0.8952380952380953,"mse_validation":0.17777777777777778,"bias":-3.450493742725853E-17},{"epoch":36,"weights":[[1.369090241364132,1.434024503347464,-1.1668605421768508,0.06783854968898857],[1.1967580300036056,0.028874189246099795,0.8745873918123966,-0.30504557621741085],[-0.22861595687683828,-0.15046598919309795,2.1552741041550405,1.3189709747033667]],"accuracy_validation":0.9111111111111111,"mse_training":0.20952380952380953,"accuracy_training":0.8952380952380953,"mse_validation":0.17777777777777778,"bias":-3.5260185884348366E-17},{"epoch":35,"weights":[[1.3633552720899016,1.4213128851417185,-1.1504374811522777,0.0758721712853908],[1.1902498068042797,0.028552768782996087,0.8766833581168018,-0.29351876399675486],[-0.2163727644032817,-0.13743295052424828,2.13675507682606,1.2994105408863093]],"accuracy_validation":0.9111111111111111,"mse_training":0.20952380952380953,"accuracy_training":0.8952380952380953,"mse_validation":0.17777777777777778,"bias":-2.7794090203740586E-17},{"epoch":34,"weights":[[1.3575302378163934,1.4083718941705474,-1.1337099003773334,0.08404924193218681],[1.1835876745067366,0.028313437832146772,0.8788132045131726,-0.28183268386912486],[-0.20388559783223073,-0.12425262860222705,2.1178976496547457,1.2795473901118832]],"accuracy_validation":0.9111111111111111,"mse_training":0.20952380952380953,"accuracy_training":0.8952380952380953,"mse_validation":0.17777777777777778,"bias":-3.0898440544439174E-17},{"epoch":33,"weights":[[1.3516119701449498,1.3951918409579263,-1.1166639152389575,0.09237630362312259],[1.1767667550077752,0.028161220885844246,0.8809755284239075,-0.2699835904525364],[-0.19114641066182578,-0.11092035844330472,2.0986893406056355,1.2593712350043587]],"accuracy_validation":0.9111111111111111,"mse_training":0.22857142857142856,"accuracy_training":0.8857142857142857,"mse_validation":0.17777777777777778,"bias":-2.7614663214523706E-17},{"epoch":32,"weights":[[1.345597099947928,1.3817622872881874,-1.0992844742602499,0.10086045072321859],[1.1697820079777508,0.0281015580645252,0.8831685607882992,-0.25796772488714104],[-0.1781467934347803,-0.09743114195224756,2.0791168672625377,1.2388712223388665]],"accuracy_validation":0.9111111111111111,"mse_training":0.22857142857142856,"accuracy_training":0.8857142857142857,"mse_validation":0.17777777777777778,"bias":-2.545586422317456E-17},{"epoch":31,"weights":[[1.3394820356311403,1.368071954927956,-1.0815552107013295,0.10950940039215541],[1.1626282292653227,0.028140351388161622,0.8853901048313586,-0.24578133500684005],[-0.16487795040556488,-0.08377960291565223,2.059166059660561,1.218035882789628]],"accuracy_validation":0.9111111111111111,"mse_training":0.22857142857142856,"accuracy_training":0.8857142857142857,"mse_validation":0.17777777777777778,"bias":-2.5766420382955877E-17},{"epoch":30,"weights":[[1.3332629377595675,1.3541086191376,-1.0634582694058083,0.11833157478025892],[1.1553000501520587,0.02828401757009091,0.8876374644414027,-0.23342070004630008],[-0.15133067342072729,-0.06995993330722608,2.038821758754996,1.1968530734409855]],"accuracy_validation":0.9111111111111111,"mse_training":0.24761904761904763,"accuracy_training":0.8761904761904762,"mse_validation":0.17777777777777778,"bias":-2.333755340670417E-17},{"epoch":29,"weights":[[1.3269356892316981,1.339858983824954,-1.0449741038755513,0.1273361973920618],[1.1477919376562093,0.02853954846667903,0.8899073602035997,-0.22088216079425485],[-0.13749531239700707,-0.05596582889116899,2.0180676974625418,1.175309911577138]],"accuracy_validation":0.8888888888888888,"mse_training":0.24761904761904763,"accuracy_training":0.8761904761904762,"mse_validation":0.2222222222222222,"bias":-2.5954173706044262E-17},{"epoch":28,"weights":[[1.3204958599672605,1.3253085344239977,-1.0260812373624837,0.13653340658548896],[1.1400981961271457,0.02891458055875045,0.8921958307134049,-0.20816215630214766],[-0.1233617416035067,-0.04179041158228472,1.996886360439669,1.1533926978916038]],"accuracy_validation":0.8888888888888888,"mse_training":0.24761904761904763,"accuracy_training":0.8761904761904762,"mse_validation":0.2222222222222222,"bias":-2.6408386653679907E-17},{"epoch":27,"weights":[[1.3139386647840676,1.3104413635932233,-1.0067559802432613,0.14593438990665938],[1.132212970425305,0.029417475147097617,0.8944981162621288,-0.19525726850552677],[-0.10891932071847366,-0.02742613533985776,1.9752588177717243,1.1310868267738121]],"accuracy_validation":0.8888888888888888,"mse_training":0.24761904761904763,"accuracy_training":0.8761904761904762,"mse_validation":0.2222222222222222,"bias":-2.2245795700329157E-17},{"epoch":26,"weights":[[1.3072589127581902,1.2952399635520067,-0.9869720939867352,0.15555154390177398],[1.124130251051009,0.030057411334798792,0.8968085213138253,-0.18216427642935415],[-0.09415684931830032,-0.012864671486342148,1.953164526463502,1.1083766807025244]],"accuracy_validation":0.8888888888888888,"mse_training":0.24761904761904763,"accuracy_training":0.8761904761904762,"mse_validation":0.2222222222222222,"bias":-2.089833568783701E-17},{"epoch":25,"weights":[[1.300450945854646,1.2796849772119125,-0.9667003894931323,0.16539866526772357],[1.1158438816750371,0.030844494371257337,0.8991202513335609,-0.16888022204819386],[-0.07906251303878455,0.0019032318172939617,1.9305810919501647,1.085245504955416]],"accuracy_validation":0.8888888888888888,"mse_training":0.24761904761904763,"accuracy_training":0.8761904761904762,"mse_validation":0.2222222222222222,"bias":-1.661309436372383E-17},{"epoch":24,"weights":[[1.2935085639367396,1.2637548980800934,-0.9459082442824388,0.17549118079721476],[1.1073475696424808,0.031789882585102354,0.9014252184207974,-0.15540249038640389],[-0.0636238190883227,0.016887922735267423,1.9074839796522347,1.061675257764135]],"accuracy_validation":0.8888888888888888,"mse_training":0.24761904761904763,"accuracy_training":0.8761904761904762,"mse_validation":0.2222222222222222,"bias":-2.166723831603657E-17},{"epoch":23,"weights":[[1.286424932345403,1.2474257060275933,-0.9245590186657293,0.18584642567518994],[1.0986349001815008,0.032905936988781984,0.9037138087636035,-0.14172890711122826],[-0.04782751803600461,0.032101060384088394,1.8838461636927186,1.0376464296109842]],"accuracy_validation":0.8888888888888888,"mse_training":0.24761904761904763,"accuracy_training":0.8761904761904762,"mse_validation":0.2222222222222222,"bias":-2.5208378136645787E-17},{"epoch":22,"weights":[[1.2791924669915513,1.2306704221634732,-0.9026113452648518,0.19648398247819587],[1.0896993552677825,0.03420639877208713,0.9059746030417521,-0.1278578577480755],[-0.03165950776843485,0.04755588246490303,1.859637696013692,1.013137823444825]],"accuracy_validation":0.8888888888888888,"mse_training":0.24761904761904763,"accuracy_training":0.8761904761904762,"mse_validation":0.2222222222222222,"bias":-2.6177654878847843E-17},{"epoch":21,"weights":[[1.2718026901886545,1.2134585608607908,-0.8800182585085701,0.2074260969839886],[1.080534338400557,0.03570660142204668,0.9081940384031809,-0.11378843381006624],[-0.015104714098313706,0.06326754111762609,1.834825173895981,0.9881262850010228]],"accuracy_validation":0.8888888888888888,"mse_training":0.24761904761904763,"accuracy_training":0.8761904761904762,"mse_validation":0.2222222222222222,"bias":-2.38852449103988E-17},{"epoch":20,"weights":[[1.2642460480705182,1.195755449898752,-0.856726120242015,0.2186981920005431],[1.071133206976629,0.037423726266661565,0.9103559972819084,-0.09952061269453516],[0.0018530594437506827,0.07925352723505018,1.809371076750699,0.9625863688689369]],"accuracy_validation":0.8888888888888888,"mse_training":0.24761904761904763,"accuracy_training":0.8761904761904762,"mse_validation":0.2222222222222222,"bias":-2.0050015250502886E-17},{"epoch":19,"weights":[[1.256511677094911,1.1775213799191355,-0.8326732831930687,0.23032950743653977],[1.0614893145657853,0.03937711306369701,0.9124413037750437,-0.0850554803186513],[0.019231322830201805,0.09553421041763056,1.7832329332086168,0.9364899210570565]],"accuracy_validation":0.8888888888888888,"mse_training":0.24761904761904763,"accuracy_training":0.8761904761904762,"mse_validation":0.2222222222222222,"bias":-1.775055796793268E-17},{"epoch":18,"weights":[[1.2485871023805815,1.1587105307551007,-0.8077884140404902,0.24235390459917935],[1.0515960662873611,0.04158864117268683,0.9144271020554362,-0.07039550838042989],[0.03704914582295498,0.11213353147267599,1.7563622657756464,0.9098055519561958]],"accuracy_validation":0.8666666666666667,"mse_training":0.24761904761904763,"accuracy_training":0.8761904761904762,"mse_validation":0.26666666666666666,"bias":-1.8537688745157157E-17},{"epoch":17,"weights":[[1.240457843776805,1.139269602875196,-0.781988369654802,0.25481088648913414],[1.0414469918094225,0.04408320234921016,0.9162860826334827,-0.05554490218903829],[0.055327478904669866,0.12907989817605708,1.7287032408119123,0.8824979638748494]],"accuracy_validation":0.8666666666666667,"mse_training":0.26666666666666666,"accuracy_training":0.8666666666666667,"mse_validation":0.26666666666666666,"bias":-1.4615587386190846E-17},{"epoch":16,"weights":[[1.2321068955448193,1.1191360544156779,-0.7551754797925856,0.26774690561850734],[1.0310358424708292,0.04688929402663625,0.9179855101080642,-0.0405100407321846],[0.074089576475247,0.1464073549581484,1.7001909234751142,0.8545270832886227]],"accuracy_validation":0.8444444444444444,"mse_training":0.3238095238095238,"accuracy_training":0.8380952380952381,"mse_validation":0.3111111111111111,"bias":-9.03899351201165E-18},{"epoch":15,"weights":[[1.2235140306146186,1.0982358036778768,-0.7272340309574797,0.28121705966472166],[1.0203567220392098,0.05003977323807797,0.919485988722611,-0.025300038831416],[0.09336156183706812,0.1641571264845072,1.6707489960254613,0.8258469273416391]],"accuracy_validation":0.8222222222222222,"mse_training":0.3238095238095238,"accuracy_training":0.8380952380952381,"mse_validation":0.35555555555555557,"bias":-3.241222394645414E-18},{"epoch":14,"weights":[[1.2146548577373069,1.0764801965173596,-0.6980256594739332,0.29528731798358315],[1.0094042652923045,0.053572827850631555,0.9207398770696832,-0.009927473096444313],[0.11317319146128485,0.18237967903247054,1.6402867361948423,0.796404103287806]],"accuracy_validation":0.8222222222222222,"mse_training":0.3238095238095238,"accuracy_training":0.8380952380952381,"mse_validation":0.35555555555555557,"bias":-9.9741178857804E-18},{"epoch":13,"weights":[[1.205499524708129,1.053761946185778,-0.667383231045555,0.31003748663871056],[0.9981738860230759,0.05753324634328724,0.9216892268179032,0.005590669177133899],[0.13355890375969284,0.20113751087139634,1.6086949580182421,0.7661357923591006]],"accuracy_validation":0.8,"mse_training":0.3238095238095238,"accuracy_training":0.8380952380952381,"mse_validation":0.4,"bias":-1.2573492594314398E-17},{"epoch":12,"weights":[[1.1960109048968965,1.0299496103866583,-0.6351025824799973,0.3255652195650793],[0.9866621281296724,0.06197410450231439,0.9222630663834932,0.021231733028693366],[0.15455928146432918,0.22050898851148779,1.5758404698870947,0.7349669955811731]],"accuracy_validation":0.8,"mse_training":0.34285714285714286,"accuracy_training":0.8285714285714286,"mse_validation":0.4,"bias":-1.315570916093911E-17},{"epoch":11,"weights":[[1.1861420127227822,1.004879942687075,-0.6009311831290235,0.34199154182661035],[0.9748671736751546,0.06695904464218039,0.9223737696636097,0.036965706318526075],[0.1762231280929607,0.2405937160712047,1.5415583672560027,0.702806700029809]],"accuracy_validation":0.8,"mse_training":0.34285714285714286,"accuracy_training":0.8285714285714286,"mse_validation":0.4,"bias":-1.499451604547453E-17},{"epoch":10,"weights":[[1.1758322388432199,0.9783470823259662,-0.5645522583917805,0.35946860847153],[0.9627895969347234,0.07256541298349976,0.9219121276086402,0.052752912938725235],[0.19861047871295331,0.26152020809099413,1.505641084573729,0.66954242676469]],"accuracy_validation":0.8,"mse_training":0.34285714285714286,"accuracy_training":0.8285714285714286,"mse_validation":0.4,"bias":-1.5890067039947562E-17},{"epoch":9,"weights":[[1.1650017244885522,0.9500869155946611,-0.5255620591358802,0.378190853828788],[0.9504335170331223,0.07888866561610984,0.9207405538284789,0.06854081045531214],[0.22179707296922258,0.28345712218968955,1.4678224590979898,0.635032283890845]],"accuracy_validation":0.8,"mse_training":0.38095238095238093,"accuracy_training":0.8095238095238095,"mse_validation":0.4,"bias":-1.9522144317774E-17},{"epoch":8,"weights":[[1.1535426999170113,0.9197538378942423,-0.483436484508211,0.3984114323179354],[0.9378084223411082,0.08604869197814544,0.9186835710033544,0.08425946762828562],[0.24588119223277827,0.3066301735280735,1.4277538672954453,0.5990930482287232]],"accuracy_validation":0.8,"mse_training":0.3619047619047619,"accuracy_training":0.819047619047619,"mse_validation":0.4,"bias":-2.0933775546350127E-17},{"epoch":7,"weights":[[1.1413056718410717,0.8868851388936457,-0.4374806365625223,0.4204671899769584],[0.9249321805718503,0.09419910717629505,0.9155142991743858,0.09981506934666656],[0.2709944620779749,0.33134845733052043,1.3849672911787252,0.5614816888513197]],"accuracy_validation":0.8,"mse_training":0.38095238095238093,"accuracy_training":0.8095238095238095,"mse_validation":0.4,"bias":-1.8470468210463064E-17},{"epoch":6,"weights":[[1.1280764761862274,0.8508444344780397,-0.38675002080512694,0.444817901679423],[0.9118362572172238,0.10354125778447754,0.9109350697853251,0.11508045186966726],[0.29731958108744405,0.35804701113794374,1.33881590481039,0.5218655946258542]],"accuracy_validation":0.8,"mse_training":0.41904761904761906,"accuracy_training":0.7904761904761904,"mse_validation":0.4,"bias":-1.646252578701991E-17},{"epoch":5,"weights":[[1.113536334797203,0.8107280705418869,-0.32992272771854925,0.47211036405378937],[0.8985753063116484,0.11434589226085472,0.9045496221968891,0.12988120395540054],[0.32512067338204337,0.3873587405977185,1.2883740593122488,0.47977238016575446]],"accuracy_validation":0.8,"mse_training":0.47619047619047616,"accuracy_training":0.7619047619047619,"mse_validation":0.4,"bias":-1.1006820455072842E-17},{"epoch":4,"weights":[[1.0971887142342527,0.7652030451083575,-0.265083074115563,0.503287784165444],[0.8852460270242605,0.12698749937622705,0.8958243524001794,0.143975486101666],[0.35479757323238126,0.4202421589158756,1.2322596755059714,0.4345006779078345]],"accuracy_validation":0.7555555555555555,"mse_training":0.5714285714285714,"accuracy_training":0.7142857142857143,"mse_validation":0.4888888888888889,"bias":-8.829742492721946E-18},{"epoch":3,"weights":[[1.0782185944900962,0.7122127752258683,-0.18933799174184301,0.5397855417004862],[0.8720271841581613,0.14199938400152928,0.8840403922988764,0.1570266947833092],[0.3869865358426361,0.4582205441730628,1.1682985532335546,0.3849517116911493]],"accuracy_validation":0.7555555555555555,"mse_training":0.6285714285714286,"accuracy_training":0.6857142857142857,"mse_validation":0.4888888888888889,"bias":-6.279698983036037E-18},{"epoch":2,"weights":[[1.0552117423762697,0.6484219606457307,-0.09810699305180037,0.5838970258030279],[0.8592723230341232,0.16015961187830988,0.8682632801546235,0.16857676765819754],[0.4227482490805001,0.5038511308764198,1.0928446666877645,0.32929015471371936]],"accuracy_validation":0.7555555555555555,"mse_training":0.6666666666666666,"accuracy_training":0.6666666666666666,"mse_validation":0.4888888888888889,"bias":-3.0184188481996443E-18},{"epoch":1,"weights":[[1.02559687561295,0.5681736038864982,0.016199667694984217,0.6394612689187394],[0.8477485720921939,0.18260404829018767,0.847477654628038,0.17807466657144355],[0.46388686678574886,0.5616550512237743,0.9993236314675655,0.2642280126847621]],"accuracy_validation":0.7111111111111111,"mse_training":0.7047619047619048,"accuracy_training":0.6476190476190476,"mse_validation":0.5777777777777777,"bias":-9.0205620750794E-19},{"epoch":0,"weights":[[0.9846249980247644,0.4618588069114729,0.16614906516828154,0.712913168466841],[0.8393162094676047,0.21085367641590436,0.8215676659189021,0.18523203709450867],[0.5132911069985245,0.6397202200730833,0.8752842227034039,0.183618742613595]],"accuracy_validation":0.7111111111111111,"mse_training":0.7047619047619048,"accuracy_training":0.6476190476190476,"mse_validation":0.5777777777777777,"bias":2.0816681711721684E-18}]