[{"epoch":99,"weights":[[0.8820531626453025,2.0057647858756957,-1.7300134698743028,-0.18661132070541098],[0.7112388182512565,0.06036600938445972,0.649527767749977,-0.26071807393136426],[-1.1039527637978677,-1.3022997427919012,2.9280438878867776,2.73561191957357]],"accuracy_validation":0.9111111111111111,"mse_training":0.0761904761904762,"accuracy_training":0.9619047619047619,"mse_validation":0.17777777777777778,"bias":4.478022912709152E-18},{"epoch":98,"weights":[[0.8787820336549864,1.9994367467945362,-1.721494087245723,-0.1825453454292966],[0.7088385636132392,0.05821576755998676,0.6505295366344871,-0.2548441823728185],[-1.098281380169535,-1.293821461886271,2.918522736373687,2.725672052738911]],"accuracy_validation":0.9111111111111111,"mse_training":0.0761904761904762,"accuracy_training":0.9619047619047619,"mse_validation":0.17777777777777778,"bias":2.5827798110849582E-18},{"epoch":97,"weights":[[0.8754856001588175,1.993058037067732,-1.7129060313823192,-0.17844809391894081],[0.7064101696900146,0.056059517571605016,0.6515438277923397,-0.24892989168721294],[-1.0925565527501409,-1.2852865021710846,2.908920389352433,2.7156605105429503]],"accuracy_validation":0.9111111111111111,"mse_training":0.09523809523809523,"accuracy_training":0.9523809523809523,"mse_validation":0.17777777777777778,"bias":7.477942577884377E-18},{"epoch":96,"weights":[[0.8721634645295472,1.9866278343247687,-1.7042481856558076,-0.17431906505553554],[0.703953061001083,0.05389730162357542,0.6525708867942892,-0.24297456589779015],[-1.086777308431939,-1.27669408348009,2.8992354846239725,2.7055761558901232]],"accuracy_validation":0.9111111111111111,"mse_training":0.09523809523809523,"accuracy_training":0.9523809523809523,"mse_validation":0.17777777777777778,"bias":8.710247865627257E-18},{"epoch":95,"weights":[[0.8688152197649348,1.9801452962876827,-1.695519406143363,-0.1701577455411694],[0.701466646240615,0.051729165648907005,0.6536109654021807,-0.23697755396636366],[-1.080942648906859,-1.2680434094683355,2.889466626503637,2.695417824444331]],"accuracy_validation":0.9111111111111111,"mse_training":0.09523809523809523,"accuracy_training":0.9523809523809523,"mse_validation":0.17777777777777778,"bias":4.431033644154943E-18},{"epoch":94,"weights":[[0.8654404491910765,1.9736095601242853,-1.686718520720161,-0.1659636094939831],[0.698950317739075,0.04955515950975158,0.6546643217446718,-0.2309381893367492],[-1.0750515498314608,-1.2593336671657818,2.8796123847379427,2.6851843237675292]],"accuracy_validation":0.9111111111111111,"mse_training":0.11428571428571428,"accuracy_training":0.9428571428571428,"mse_validation":0.17777777777777778,"bias":1.0826121510228051E-17},{"epoch":93,"weights":[[0.8620387261538293,1.9670197417744373,-1.677844328112549,-0.1617361180256918],[0.69640345090345,0.04737533720936421,0.6557312204970819,-0.2248557894621239],[-1.0691029599585884,-1.250564026515546,2.8696712933779183,2.6748744324246134]],"accuracy_validation":0.9111111111111111,"mse_training":0.11428571428571428,"accuracy_training":0.9428571428571428,"mse_validation":0.17777777777777778,"bias":1.2823963049231592E-17},{"epoch":92,"weights":[[0.8586096136977435,1.9603749352479753,-1.6688955969096178,-0.1574747188004882],[0.6938254036351409,0.045189757116391685,0.6568119330652865,-0.2187296553157306],[-1.0630958002341937,-1.241733639896111,2.859641849606781,2.6644868990530166]],"accuracy_validation":0.9111111111111111,"mse_training":0.11428571428571428,"accuracy_training":0.9428571428571428,"mse_validation":0.17777777777777778,"bias":1.3203654799173979E-17},{"epoch":91,"weights":[[0.8551526642318885,1.9536742118927586,-1.6598710645308445,-0.15317884557427036],[0.6912155157245307,0.04299848220232278,0.6579067377735299,-0.21255907088432618],[-1.057028962857728,-1.2328416416268249,2.8495225125197643,2.654020441395396]],"accuracy_validation":0.9111111111111111,"mse_training":0.11428571428571428,"accuracy_training":0.9428571428571428,"mse_validation":0.17777777777777778,"bias":1.413897776246419E-17},{"epoch":90,"weights":[[0.851667419181912,1.9469166196312528,-1.6507694361472844,-0.14884791771306036],[0.6885731082212022,0.04080158029298906,0.6590159200559943,-0.2063433026437555],[-1.0509013103044251,-1.2238871474559854,2.8393117018537404,2.6434737452936163]],"accuracy_validation":0.9111111111111111,"mse_training":0.11428571428571428,"accuracy_training":0.9428571428571428,"mse_validation":0.17777777777777778,"bias":2.0946878715910262E-17},{"epoch":89,"weights":[[0.8481534086276289,1.9401011821639218,-1.641589383553605,-0.14448133968939997],[0.685897482778733,0.0385991243350826,0.660139772651932,-0.20008159901602202],[-1.0447116743076739,-1.2148692540307477,2.8290077966641216,2.6328454636422243]],"accuracy_validation":0.9111111111111111,"mse_training":0.11428571428571428,"accuracy_training":0.9428571428571428,"mse_validation":0.17777777777777778,"bias":2.43457257033208E-17},{"epoch":88,"weights":[[0.8446101509254045,1.933226898137588,-1.6323295439880678,-0.14007850055541843],[0.6831879209729418,0.03639119267872686,0.6612785958040902,-0.19377318980721078],[-1.0384588547996592,-1.205787038348058,2.8186091339464276,2.6221342152994294]],"accuracy_validation":0.9111111111111111,"mse_training":0.11428571428571428,"accuracy_training":0.9428571428571428,"mse_validation":0.17777777777777778,"bias":3.1477368671082295E-17},{"epoch":87,"weights":[[0.841037152314541,1.92629274027681,-1.622988518897345,-0.1356387733911687],[0.6804436835924149,0.034177869377225806,0.6624326974601352,-0.18741728562560708],[-1.0321416188082688,-1.1966395571857786,2.8081140071996624,2.611338583953577]],"accuracy_validation":0.9111111111111111,"mse_training":0.13333333333333333,"accuracy_training":0.9333333333333333,"mse_validation":0.17777777777777778,"bias":3.5867980794572225E-17},{"epoch":86,"weights":[[0.8374339065068336,1.919297654476176,-1.61356487264281,-0.13116151472672136],[0.6776640099000912,0.031959244505203516,0.6636023934766808,-0.18101307727934582],[-1.0257586993082366,-1.1874258465131204,2.7975206649285833,2.600457116942867]],"accuracy_validation":0.9111111111111111,"mse_training":0.13333333333333333,"accuracy_training":0.9333333333333333,"mse_validation":0.17777777777777778,"bias":3.2077427027211423E-17},{"epoch":85,"weights":[[0.8337998942584005,1.9122405588512346,-1.6040571311446807,-0.1266460639363891],[0.6748481168646336,0.0297354144964525,0.664788007825486,-0.1745597351529151],[-1.0193087940243444,-1.1781449208794295,2.7868273090816484,2.5894883240261057]],"accuracy_validation":0.9111111111111111,"mse_training":0.1523809523809524,"accuracy_training":0.9238095238095239,"mse_validation":0.17777777777777778,"bias":2.966451371799791E-17},{"epoch":84,"weights":[[0.8301345829228458,1.9051203427456858,-1.5944637804601292,-0.12209174260332623],[0.6719951983602511,0.02750648250290916,0.6659898728012701,-0.16805640856183868],[-1.0127905641844055,-1.1687957727803364,2.776032093421313,2.5784306761019637]],"accuracy_validation":0.9111111111111111,"mse_training":0.1523809523809524,"accuracy_training":0.9238095238095239,"mse_validation":0.17777777777777778,"bias":2.678710838546156E-17},{"epoch":83,"weights":[[0.8264374259847397,1.8979358656921919,-1.5847832652911418,-0.1174978538526046],[0.6691044243335865,0.025272558776300125,0.667208329230515,-0.1615022250848513],[-1.0062026332196352,-1.1593773720002343,2.7651331218230815,2.567282603874255]],"accuracy_validation":0.8888888888888888,"mse_training":0.1523809523809524,"accuracy_training":0.9238095238095239,"mse_validation":0.2222222222222222,"bias":2.4748396696115997E-17},{"epoch":82,"weights":[[0.8227078625723451,1.8906859563240441,-1.5750139874175662,-0.11286368165071488],[0.6661749399362352,0.02303376107413268,0.6684437266805064,-0.15489628987289097],[-0.9995435854098906,-1.14988866492992,2.754128446499513,2.5560424964604076]],"accuracy_validation":0.8888888888888888,"mse_training":0.1523809523809524,"accuracy_training":0.9238095238095239,"mse_validation":0.2222222222222222,"bias":2.871885556308776E-17},{"epoch":81,"weights":[[0.8189453169484346,1.8833694112346466,-1.5651543040504192,-0.10818849006926964],[0.6632058646213829,0.020790215091847614,0.6696964236677446,-0.1482376849342314],[-0.9928119644711283,-1.140328573858238,2.743016066145129,2.5447086999403026]],"accuracy_validation":0.8888888888888888,"mse_training":0.1523809523809524,"accuracy_training":0.9238095238095239,"mse_validation":0.2222222222222222,"bias":2.6325175791302908E-17},{"epoch":80,"weights":[[0.8151491979779809,1.8759849937815936,-1.555202526100111,-0.10347152251049964],[0.6601962912030073,0.018542054923104127,0.6709667878646908,-0.14152546839509458],[-0.9860062720822997,-1.1306959962364413,2.7317939239978757,2.533279515842395]],"accuracy_validation":0.8888888888888888,"mse_training":0.1523809523809524,"accuracy_training":0.9238095238095239,"mse_validation":0.2222222222222222,"bias":3.033071565275081E-17},{"epoch":79,"weights":[[0.8113188985713979,1.8685314328318083,-1.5451569163537626,-0.09871200089192451],[0.6571452848760252,0.016289423550345128,0.6722551963036825,-0.1347586737350982],[-0.9791249663487346,-1.1209898039138966,2.7204599058125365,2.5217531995638245]],"accuracy_validation":0.8888888888888888,"mse_training":0.1523809523809524,"accuracy_training":0.9238095238095239,"mse_validation":0.2222222222222222,"bias":3.259443787259088E-17},{"epoch":78,"weights":[[0.8074537951019394,1.8610074214439776,-1.5350156875553242,-0.09390912478735251],[0.6540518821956989,0.014032473367982072,0.6735620355766394,-0.12793630899691913],[-0.9721664601989514,-1.1112088423437032,2.709011837741143,2.5101279587210734]],"accuracy_validation":0.8888888888888888,"mse_training":0.1523809523809524,"accuracy_training":0.9238095238095239,"mse_validation":0.2222222222222222,"bias":2.875257415800783E-17},{"epoch":77,"weights":[[0.8035532467957524,1.8534116154841442,-1.524777000381595,-0.08906207052111034],[0.6509150900145616,0.011771366740739917,0.6748877020289702,-0.12105735596958896],[-0.9651291197116274,-1.1013519297566272,2.697447484115085,2.498401951427501]],"accuracy_validation":0.8888888888888888,"mse_training":0.1523809523809524,"accuracy_training":0.9238095238095239,"mse_validation":0.2222222222222222,"bias":2.6178453207400625E-17},{"epoch":76,"weights":[[0.7996165950929603,1.8457426321700225,-1.5144389613066553,-0.08416999021212197],[0.6477338843750587,0.009506276599940713,0.6762326019458595,-0.1141207693448798],[-0.9580112623693329,-1.091417856301706,2.685764545123255,2.4865732844938018]],"accuracy_validation":0.8888888888888888,"mse_training":0.1523809523809524,"accuracy_training":0.9238095238095239,"mse_validation":0.2222222222222222,"bias":2.363286323813271E-17},{"epoch":75,"weights":[[0.795643162978073,1.83799904853919,-1.5039996203465393,-0.07923201076414567],[0.644507209356042,0.007237387080757568,0.6775971517288378,-0.1071254758462966],[-0.9508111552354274,-1.08140538315169,2.6739606543801595,2.474640011547245]],"accuracy_validation":0.8888888888888888,"mse_training":0.1523809523809524,"accuracy_training":0.9238095238095239,"mse_validation":0.2222222222222222,"bias":1.4316598784793283E-17},{"epoch":74,"weights":[[0.7916322542778347,1.8301793998358955,-1.4934569686751558,-0.07424723279813066],[0.6412339758711909,0.004964894203743623,0.6789817780601969,-0.10007037333026297],[-0.9435270130503374,-1.0713132415713813,2.662033376377415,2.4626001310651975]],"accuracy_validation":0.8888888888888888,"mse_training":0.1523809523809524,"accuracy_training":0.9238095238095239,"mse_validation":0.2222222222222222,"bias":1.192749603494823E-17},{"epoch":73,"weights":[[0.7875831529245434,1.8222821778107445,-1.482808936101669,-0.06921472952226987],[0.6379130604173855,0.0026890066042586334,0.6803869180525035,-0.09295432985917228],[-0.9361569962432413,-1.0611401319467448,2.6499802038116194,2.4504515843182473]],"accuracy_validation":0.8888888888888888,"mse_training":0.1523809523809524,"accuracy_training":0.9238095238095239,"mse_validation":0.2222222222222222,"bias":7.587624394459598E-18},{"epoch":72,"weights":[[0.7834951221826676,1.814305828927012,-1.4720533883985703,-0.06413354553489307],[0.6345433037710003,4.0994631375527134E-4,0.6818130193800146,-0.0857761827460798],[-0.9286992088549813,-1.0508847227725084,2.6377985547810057,2.4381922532177773]],"accuracy_validation":0.8888888888888888,"mse_training":0.1523809523809524,"accuracy_training":0.9238095238095239,"mse_validation":0.2222222222222222,"bias":3.2825684550810796E-18},{"epoch":71,"weights":[[0.7793674038364544,1.806248752466727,-1.4611881244685936,-0.059002695554865536],[0.6311235096300257,-0.0018720504027373137,0.6832605403883565,-0.07853473757094273],[-0.9211516963677937,-1.0405456495957313,2.6254857698426886,2.425819958062612]],"accuracy_validation":0.8888888888888888,"mse_training":0.1523809523809524,"accuracy_training":0.9238095238095239,"mse_validation":0.2222222222222222,"bias":3.836217512070663E-18},{"epoch":70,"weights":[[0.7751992173360154,1.7981092985290572,-1.4502108733374561,-0.05382116307361754],[0.6276524431998932,-0.0041567321481742765,0.6847299501783006,-0.07122876716846527],[-0.9135124434372232,-1.0301215139126247,2.6130391089216056,2.4133324551788884]],"accuracy_validation":0.8888888888888888,"mse_training":0.1523809523809524,"accuracy_training":0.9238095238095239,"mse_validation":0.2222222222222222,"bias":4.18335596605271E-18},{"epoch":69,"weights":[[0.7709897588991939,1.789885765912762,-1.439119290958047,-0.048587898922325866],[0.6241288297208379,-0.00644383142887297,0.6862217286588769,-0.0638570105877828],[-0.9057793715213466,-1.01961088201563,2.6004557480616204,2.4007274344469143]],"accuracy_validation":0.8888888888888888,"mse_training":0.1523809523809524,"accuracy_training":0.9238095238095239,"mse_validation":0.2222222222222222,"bias":1.2271741871415554E-18},{"epoch":68,"weights":[[0.76673820056627,1.7815763998736887,-1.4279109568101862,-0.04330181974709054],[0.620551352934586,-0.008733063617972945,0.6877363665643639,-0.05641817202444423],[-0.8979503364021709,-1.0090122837874576,2.587732776008272,2.388002516708339]],"accuracy_validation":0.8888888888888888,"mse_training":0.1523809523809524,"accuracy_training":0.9238095238095239,"mse_validation":0.2222222222222222,"bias":6.210379394819694E-19},{"epoch":67,"weights":[[0.76244368920434,1.7731793897473813,-1.4165833702783954,-0.037961806384186086],[0.6169186534881493,-0.011024125840661711,0.6892743654289514,-0.04891091972539632],[-0.8900231255938043,-0.9983242114384594,2.5748671906118923,2.375155251046388]],"accuracy_validation":0.8888888888888888,"mse_training":0.1523809523809524,"accuracy_training":0.9238095238095239,"mse_validation":0.2222222222222222,"bias":-3.65048595074822E-18},{"epoch":66,"weights":[[0.7581053454579069,1.7646928664258028,-1.4051339467881867,-0.03256670212660534],[0.6132293272724836,-0.013316695774222185,0.6908362375119486,-0.04133388486798097],[-0.8819954556317058,-0.9875451181833228,2.5618558950386876,2.362183111931394]],"accuracy_validation":0.8666666666666667,"mse_training":0.1523809523809524,"accuracy_training":0.9238095238095239,"mse_validation":0.26666666666666666,"bias":-8.150963640714501E-19},{"epoch":65,"weights":[[0.7537222626419361,1.7561148996761,-1.3935600136792323,-0.027115310872141654],[0.6094819236937727,-0.01561043035523916,0.6924225056654442,-0.0336856604143028],[-0.873864969237023,-0.9766734168526031,2.5486956937762413,2.3490834962232507]],"accuracy_validation":0.8666666666666667,"mse_training":0.1523809523809524,"accuracy_training":0.9238095238095239,"mse_validation":0.26666666666666666,"bias":-2.906075809614108E-18},{"epoch":64,"weights":[[0.7492935055732827,1.747443495287931,-1.3818588057913324,-0.021606395142154122],[0.6056749438751067,-0.01790496438552456,0.694033703135139,-0.025964799942742315],[-0.8656292323497027,-0.9657074784341491,2.535383288418647,2.3358537200217016]],"accuracy_validation":0.8666666666666667,"mse_training":0.19047619047619047,"accuracy_training":0.9047619047619048,"mse_validation":0.26666666666666666,"bias":-6.683275242293499E-19},{"epoch":63,"weights":[[0.7448181093360289,1.738676592034491,-1.3700274607363199,-0.016038673958913015],[0.6018068387863807,-0.020199909027428933,0.6956703732837962,-0.018169816458865777],[-0.8572857310237229,-0.9546456305388057,2.5219152732149763,2.3224910153545824]],"accuracy_validation":0.8666666666666667,"mse_training":0.19047619047619047,"accuracy_training":0.9047619047619048,"mse_validation":0.26666666666666666,"bias":-3.0150651271240944E-18},{"epoch":62,"weights":[[0.7402950779758476,1.7298120584306582,-1.3580630138259082,-0.010410820568004462],[0.597876007300259,-0.022494850178235517,0.6973330692252242,-0.010299181188551677],[-0.84883186817742,-0.9434861557841665,2.508288130363135,2.3089925266933613]],"accuracy_validation":0.8666666666666667,"mse_training":0.19047619047619047,"accuracy_training":0.9047619047619048,"mse_validation":0.26666666666666666,"bias":-8.112959919349298E-18},{"epoch":61,"weights":[[0.7357233831180395,1.7208476892697788,-1.345962392621879,-0.004721459990658933],[0.5938807941721543,-0.024789346712232724,0.6990223533550328,-0.0023513223568048364],[-0.8402649601915063,-0.93222729008929,2.4944982250292997,2.2953553072842676]],"accuracy_validation":0.8666666666666667,"mse_training":0.22857142857142856,"accuracy_training":0.8857142857142857,"mse_validation":0.26666666666666666,"bias":-7.257245943176834E-18},{"epoch":60,"weights":[[0.7311019625033717,1.7117812019184766,-1.3337224110709385,0.0010308336109718927],[0.5898194879422697,-0.027082928577833686,0.7007387967624288,0.005675376043506926],[-0.8315822333469537,-0.9208672208723863,2.480541800070964,2.2815763152823263]],"accuracy_validation":0.8666666666666667,"mse_training":0.22857142857142856,"accuracy_training":0.8857142857142857,"mse_validation":0.26666666666666666,"bias":-1.0040686205105114E-17},{"epoch":59,"weights":[[0.7264297184352513,1.702610232346371,-1.3213397631818797,0.006847539774670579],[0.5856903187578955,-0.029375094735744442,0.7024829785051104,0.013782575487872265],[-0.8227808200944593,-0.9094040851423701,2.466414970439221,2.2676524096742616]],"accuracy_validation":0.8666666666666667,"mse_training":0.22857142857142856,"accuracy_training":0.8857142857142857,"mse_validation":0.26666666666666666,"bias":-3.827341665574604E-18},{"epoch":58,"weights":[[0.7217055161310987,1.693332330864802,-1.3088110161973485,0.012730194806631302],[0.5814914561143208,-0.031665310922639606,0.7042554847267457,0.02197198415516451],[-0.8138577551467321,-0.897835967473906,2.452113717233055,2.253580345975006]],"accuracy_validation":0.8666666666666667,"mse_training":0.22857142857142856,"accuracy_training":0.8857142857142857,"mse_validation":0.26666666666666666,"bias":-6.4164577463261645E-18},{"epoch":57,"weights":[[0.7169281819700354,1.683944957545393,-1.2961326032063585,0.01868039510181537],[0.5772210065129372,-0.03395300722309503,0.7060569075936254,0.03024535815413198],[-0.8048099713842852,-0.8861608978540405,2.4376338813751834,2.2393567716808533]],"accuracy_validation":0.8666666666666667,"mse_training":0.22857142857142856,"accuracy_training":0.8857142857142857,"mse_validation":0.26666666666666666,"bias":-1.4992960681225135E-17},{"epoch":56,"weights":[[0.7120965016281409,1.674445477285588,-1.2833008151366105,0.024699800743622668],[0.5728770110353917,-0.03623757543058241,0.70788784402373,0.03860450273262833],[-0.7956342955648459,-0.8743768493867478,2.4229711568753314,2.224978221460548]],"accuracy_validation":0.8666666666666667,"mse_training":0.22857142857142856,"accuracy_training":0.8857142857142857,"mse_validation":0.26666666666666666,"bias":-1.4986238415997492E-17},{"epoch":55,"weights":[[0.7072092180915578,1.6648311544840146,-1.2703117920575608,0.030790139413983366],[0.568457442832951,-0.03851836617617162,0.7097488941776182,0.04705127345925216],[-0.7863274438258219,-0.8624817358395849,2.4081210836423916,2.210441112063566]],"accuracy_validation":0.8666666666666667,"mse_training":0.24761904761904763,"accuracy_training":0.8761904761904762,"mse_validation":0.26666666666666666,"bias":-1.8460083586529728E-17},{"epoch":54,"weights":[[0.7022650295366145,1.6550991472835663,-1.2571615137157162,0.03695321064921288],[0.5639602045306094,-0.04079468580114621,0.7116406596761653,0.05558757736521239],[-0.7768860169685363,-0.850473409014162,2.3930790398019997,2.1957417369223764]],"accuracy_validation":0.8666666666666667,"mse_training":0.24761904761904763,"accuracy_training":0.8761904761904762,"mse_validation":0.26666666666666666,"bias":-2.0006321055918764E-17},{"epoch":53,"weights":[[0.6972625870648446,1.645246501334401,-1.243845789212772,0.04319089048187832],[0.55938312554594,-0.04306579294699734,0.7135637415051302,0.06421537403208674],[-0.7673064955120962,-0.8383496559191458,2.377840233470091,2.180876260422837]],"accuracy_validation":0.8666666666666667,"mse_training":0.24761904761904763,"accuracy_training":0.8761904761904762,"mse_validation":0.26666666666666666,"bias":-1.6561819224261793E-17},{"epoch":52,"weights":[[0.6922004922793229,1.635270143022382,-1.2303602457245235,0.04950513651461962],[0.5547239593231709,-0.04533089483317494,0.7155187375607439,0.0729366766086548],[-0.757585234503805,-0.8261081957209483,2.36239969392623,2.1658407118135297]],"accuracy_validation":0.8666666666666667,"mse_training":0.24761904761904763,"accuracy_training":0.8761904761904762,"mse_validation":0.26666666666666666,"bias":-1.9286529398001012E-17},{"epoch":51,"weights":[[0.6870772946870306,1.6251668721007766,-1.2167003161437526,0.05589799347849496],[0.5499803804835752,-0.04758914318949811,0.7175062397838653,0.08175355273711002],[-0.7477184580719167,-0.81374667644302,2.3467522621223353,2.1506309787212]],"accuracy_validation":0.8444444444444444,"mse_training":0.24761904761904763,"accuracy_training":0.8761904761904762,"mse_validation":0.3111111111111111,"bias":-1.5425560524420416E-17},{"epoch":50,"weights":[[0.6818914889099819,1.6149333536540227,-1.2028612255131326,0.06237159933614621],[0.5451499818939293,-0.04983962980620696,0.7195268308225844,0.09066812536562728],[-0.7377022537052222,-0.8012626713795578,2.330892580452996,2.135242800235032]],"accuracy_validation":0.8444444444444444,"mse_training":0.26666666666666666,"accuracy_training":0.8666666666666667,"mse_validation":0.3111111111111111,"bias":-1.6278154242973446E-17},{"epoch":49,"weights":[[0.6766415116855702,1.6045661093117933,-1.188837976094107,0.06892819199911512],[0.5402302716555372,-0.05208138166021128,0.7215810801543361,0.09968257342041077],[-0.7275325662424186,-0.7886536751833229,2.3148150817022177,2.119671759517279]],"accuracy_validation":0.8444444444444444,"mse_training":0.26666666666666666,"accuracy_training":0.8666666666666667,"mse_validation":0.3111111111111111,"bias":-1.5812485174726183E-17},{"epoch":48,"weights":[[0.6713257386338771,1.5940615076192395,-1.174625330894149,0.07557011673923222],[0.5352186700171703,-0.05431335557109207,0.7236695395884354,0.10879913230589276],[-0.7172051915523577,-0.7759170995798886,2.298513977068161,2.1039132758916805]],"accuracy_validation":0.8444444444444444,"mse_training":0.26666666666666666,"accuracy_training":0.8666666666666667,"mse_validation":0.3111111111111111,"bias":-1.701143701815859E-17},{"epoch":47,"weights":[[0.6659424807665593,1.5834157534547515,-1.1602177954471757,0.08229983438644509],[0.5301125062161848,-0.05653443233476125,0.7257927380581883,0.1180200941965963],[-0.7067157698840546,-0.7630502686517315,2.281983243151433,2.0879625963537642]],"accuracy_validation":0.8444444444444444,"mse_training":0.26666666666666666,"accuracy_training":0.8666666666666667,"mse_validation":0.3111111111111111,"bias":-1.458612758028534E-17},{"epoch":46,"weights":[[0.6604899807081912,1.5726248763693618,-1.1456095976092822,0.08911993042012285],[0.5249090152530898,-0.05874341027628383,0.7279511755982013,0.1273478080782087],[-0.6960597788625913,-0.7500504136248187,2.2652166077735267,2.071814786438476]],"accuracy_validation":0.8,"mse_training":0.26666666666666666,"accuracy_training":0.8666666666666667,"mse_validation":0.4,"bias":-1.512168110184582E-17},{"epoch":45,"weights":[[0.6549664085965416,1.5616847177016293,-1.1307946650934686,0.09603312507820422],[0.5196053346058868,-0.060938998156127244,0.7301453163868077,0.1367846794884996],[-0.6852325261037389,-0.7369146670772427,2.248207534469108,2.0554647203701033]],"accuracy_validation":0.8,"mse_training":0.26666666666666666,"accuracy_training":0.8666666666666667,"mse_validation":0.4,"bias":-1.2440106080945527E-17},{"epoch":44,"weights":[[0.6493698576230139,1.5505909162977136,-1.1157666004214244,0.1030422846291024],[0.5141985008916363,-0.06311980735587705,0.7323755807153879,0.14633316990071457],[-0.6742291414159604,-0.7236400564735777,2.2309492054684807,2.0389070704069896]],"accuracy_validation":0.8,"mse_training":0.26666666666666666,"accuracy_training":0.8666666666666667,"mse_validation":0.4,"bias":-6.387280637666811E-18},{"epoch":43,"weights":[[0.6436983391682067,1.5393388926376028,-1.1005186529162148,0.11015043397569436],[0.5086854464838174,-0.06528434326013778,0.7346423357252688,0.15599579568279917],[-0.663044568553334,-0.7102234969092058,2.2134345029533917,2.0221362952783135]],"accuracy_validation":0.8,"mse_training":0.2857142857142857,"accuracy_training":0.8571428571428571,"mse_validation":0.4,"bias":-6.904445073942397E-18},{"epoch":42,"weights":[[0.6379497774800013,1.5279238311341687,-1.0850436872950984,0.1173607707898378],[0.5030629960951383,-0.06743099574073791,0.7369458847284102,0.16577512655504262],[-0.6516735564764489,-0.6966617829251712,2.195655988329135,2.005146627591926]],"accuracy_validation":0.8,"mse_training":0.3047619047619048,"accuracy_training":0.8476190476190476,"mse_validation":0.4,"bias":-1.0845130335771465E-17},{"epoch":41,"weights":[[0.6321220038324895,1.5163406603305614,-1.0693341483444831,0.12467668141068118],[0.49732786333647205,-0.06955802863728702,0.7392864548996069,0.17567378345625168],[-0.6401106500702712,-0.6829515792250155,2.1776058792073223,1.987932060069872]],"accuracy_validation":0.7777777777777778,"mse_training":0.3047619047619048,"accuracy_training":0.8476190476190476,"mse_validation":0.4444444444444444,"bias":-1.41663380516261E-17},{"epoch":40,"weights":[[0.6262127500929707,1.504584030671983,-1.0533820210663436,0.13210175878181785],[0.49147664726336887,-0.07166356811439557,0.7416641830947017,0.18569443571404706],[-0.6283501802576484,-0.6690894100893279,2.1592760237340864,1.9704863304409403]],"accuracy_validation":0.7777777777777778,"mse_training":0.3238095238095238,"accuracy_training":0.8380952380952381,"mse_validation":0.4444444444444444,"bias":-1.6681788735746142E-17},{"epoch":39,"weights":[[0.6202196416107714,1.4926482894681126,-1.0371787855739132,0.13963982275265546],[0.4855058289220951,-0.07374558976016754,0.7440790995104938,0.19583979739800172],[-0.6163862534341737,-0.6550716472396858,2.140657871825866,1.9528029047861486]],"accuracy_validation":0.7555555555555555,"mse_training":0.34285714285714286,"accuracy_training":0.8285714285714286,"mse_validation":0.4888888888888889,"bias":-1.0348201516605786E-17},{"epoch":38,"weights":[[0.6141401893250547,1.4805274525900742,-1.0207153658797867,0.1472949431301809],[0.47941176790715767,-0.07580190427262351,0.7465311088565607,0.2061126227146779],[-0.6042127401335201,-0.6408944958491913,2.1217424427856724,1.9348749590919472]],"accuracy_validation":0.7555555555555555,"mse_training":0.34285714285714286,"accuracy_training":0.8285714285714286,"mse_validation":0.4888888888888889,"bias":-7.230188534467979E-18},{"epoch":37,"weights":[[0.607971780968375,1.4682151723577141,-1.0039820715562306,0.15507146594105595],[0.47319069894153537,-0.07783014156012781,0.7490199686558564,0.21651570028068404],[-0.5918232628112187,-0.6265539783293268,2.102520288662822,1.9166953587150666]],"accuracy_validation":0.7333333333333333,"mse_training":0.3619047619047619,"accuracy_training":0.819047619047619,"mse_validation":0.5333333333333333,"bias":-1.5251827714191435E-17},{"epoch":36,"weights":[[0.6017116712173589,1.4557047009653536,-0.986968531048892,0.16297404345379943],[0.4668387284891037,-0.07982773305822705,0.7515452642280518,0.22705184608303933],[-0.5792111826077714,-0.6120459154388678,2.082981452583288,1.8982566353999681]],"accuracy_validation":0.7333333333333333,"mse_training":0.3619047619047619,"accuracy_training":0.819047619047619,"mse_validation":0.5333333333333333,"bias":-1.547556299687918E-17},{"epoch":35,"weights":[[0.5953569706103068,1.4429888486621456,-0.9696636151822436,0.17100766862062725],[0.46035183140558544,-0.08179189203799533,0.7541063798353506,0.23772389490470355],[-0.5663695849172008,-0.5973659041558917,2.06311542110934,1.8795509614114763]],"accuracy_validation":0.7333333333333333,"mse_training":0.3619047619047619,"accuracy_training":0.819047619047619,"mse_validation":0.5333333333333333,"bias":-2.0788085879422375E-17},{"epoch":34,"weights":[[0.5889046330118117,1.430059935740437,-0.9520553490972663,0.17917771473337565],[0.45372584762924717,-0.08371959164936367,0.756702465382402,0.24853468995615186],[-0.5532912635423679,-0.5825092916228145,2.0429110694773107,1.8605701202472806]],"accuracy_validation":0.7333333333333333,"mse_training":0.3619047619047619,"accuracy_training":0.819047619047619,"mse_validation":0.5333333333333333,"bias":-1.954057575470624E-17},{"epoch":33,"weights":[[0.582351441354473,1.416909737184101,-0.934130810494711,0.18748998125428645],[0.4469564789048487,-0.08560754040609342,0.7593323979570397,0.2594870704102723],[-0.5399687031606307,-0.567471144309749,2.0223565983001186,1.8413054732722498]],"accuracy_validation":0.7333333333333333,"mse_training":0.3619047619047619,"accuracy_training":0.819047619047619,"mse_validation":0.5333333333333333,"bias":-2.0224741206862484E-17},{"epoch":32,"weights":[[0.5756939913242455,1.403529418578116,-0.9158760116026584,0.1959507469886096],[0.4400392855231194,-0.0874521547759671,0.7619947373730419,0.27058385648618555],[-0.5263940597486737,-0.5522462113338894,2.001439459992063,1.8217479214620138]],"accuracy_validation":0.7333333333333333,"mse_training":0.4,"accuracy_training":0.8,"mse_validation":0.5333333333333333,"bias":-1.670159236605294E-17},{"epoch":31,"weights":[[0.5689286725748962,1.3899094615671685,-0.8972757617212321,0.2045668320228407],[0.43296968304218836,-0.08924952848898948,0.7646876747250656,0.28182783166605824],[-0.5125591385183935,-0.5368288806099201,1.9801462727586132,1.8018878612479101]],"accuracy_validation":0.7111111111111111,"mse_training":0.41904761904761906,"accuracy_training":0.7904761904761904,"mse_validation":0.5777777777777777,"bias":-1.6670624841501324E-17},{"epoch":30,"weights":[[0.5620516469528894,1.3760395767568305,-0.8783135064893872,0.21334567017410963],[0.4257429389354305,-0.09099539811605895,0.7674089727830662,0.2932217215552838],[-0.4984553687896294,-0.5212131261725129,1.958462719468768,1.7817151332074153]],"accuracy_validation":0.6888888888888889,"mse_training":0.41904761904761906,"accuracy_training":0.7904761904761904,"mse_validation":0.6222222222222222,"bias":-2.397706328188114E-17},{"epoch":29,"weights":[[0.5550588230794623,1.361908601452195,-0.858971139127834,0.22229539410148508],[0.41835416908027606,-0.09268510439822387,0.7701558968306961,0.30476816880752033],[-0.484073775061048,-0.5053924445857135,1.9363734280595852,1.7612189620278038]],"accuracy_validation":0.6888888888888889,"mse_training":0.41904761904761906,"accuracy_training":0.7904761904761904,"mse_validation":0.6222222222222222,"bias":-2.5724322845477323E-17},{"epoch":28,"weights":[[0.5479458264616861,1.3475043789943537,-0.839228777784407,0.23142493574355258],[0.4107983339622125,-0.09431354871896973,0.7729251342784866,0.31646970342801145],[-0.46940494332520855,-0.48935977780712714,1.9138618292683685,1.7403878857652455]],"accuracy_validation":0.6888888888888889,"mse_training":0.4380952380952381,"accuracy_training":0.780952380952381,"mse_validation":0.6222222222222222,"bias":-2.5195570998483303E-17},{"epoch":27,"weights":[[0.5407079640753749,1.3328136156423656,-0.8190645016712081,0.24074414540181446],[0.403070234414437,-0.09587514400445521,0.7757127010436803,0.3283287076360623],[-0.4544389813911214,-0.47310741916965343,1.8909099863899765,1.7192096718989316]],"accuracy_validation":0.6888888888888889,"mse_training":0.47619047619047616,"accuracy_training":0.7619047619047619,"mse_validation":0.6222222222222222,"bias":-2.8302691136919434E-17},{"epoch":26,"weights":[[0.5333401820611842,1.3178217099002913,-0.7984540368390777,0.25026393363114874],[0.39516450664236524,-0.09736375920301801,0.778513832264856,0.340347374303207],[-0.439165471604859,-0.45662689822901675,1.86749839033667,1.697671217002453]],"accuracy_validation":0.6666666666666666,"mse_training":0.5333333333333333,"accuracy_training":0.7333333333333333,"mse_validation":0.6666666666666666,"bias":-2.7384236371552642E-17},{"epoch":25,"weights":[[0.5258370147754894,1.3025125478272355,-0.7773703800514375,0.25999644118799803],[0.387075616188392,-0.09877265632692322,0.7813228543844329,0.35252765777761],[-0.4235734138651906,-0.43990883903205535,1.8436057114294548,1.6757584259712022]],"accuracy_validation":0.6222222222222222,"mse_training":0.5333333333333333,"accuracy_training":0.7333333333333333,"mse_validation":0.7555555555555555,"bias":-2.361663382216551E-17},{"epoch":24,"weights":[[0.5181925229038835,1.2868682560854539,-0.7557833461133154,0.26995524370854895],[0.37879785036920427,-0.10009441882405906,0.7841330349490707,0.3648712156437172],[-0.407651156174398,-0.42294278479313724,1.819208496926695,1.6534560655845443]],"accuracy_validation":0.6222222222222222,"mse_training":0.5714285714285714,"accuracy_training":0.7142857142857143,"mse_validation":0.7555555555555555,"bias":-1.9615927805693993E-17},{"epoch":23,"weights":[[0.5104002176273541,1.270868902127447,-0.733659019927768,0.2801555996604344],[0.37032530855687223,-0.10132086976786031,0.7869364055958888,0.37737933962971393],[-0.39138630908553657,-0.4057169798913289,1.7942808000943307,1.6307475856466613]],"accuracy_validation":0.6222222222222222,"mse_training":0.5904761904761905,"accuracy_training":0.7047619047619048,"mse_validation":0.7555555555555555,"bias":-1.6711350185605328E-17},{"epoch":22,"weights":[[0.5024529668583841,1.2544921277861598,-0.7109590891325304,0.29061475259811786],[0.361651889464246,-0.10244297798560237,0.7897235525392224,0.3900528734363404],[-0.37476563922393985,-0.38821809733229923,1.7687937223557593,1.607614898902351]],"accuracy_validation":0.6222222222222222,"mse_training":0.5904761904761905,"accuracy_training":0.7047619047619048,"mse_validation":0.7555555555555555,"bias":-1.910553963299644E-17},{"epoch":21,"weights":[[0.49434287823500983,1.2377126983118314,-0.6876400259035489,0.301352302090432],[0.3527712743192701,-0.10345074975308959,0.7924833673459611,0.4028921146794057],[-0.3577749354555899,-0.37043089609048374,1.7427148443200393,1.584038108166971]],"accuracy_validation":0.6222222222222222,"mse_training":0.5904761904761905,"accuracy_training":0.7047619047619048,"mse_validation":0.7555555555555555,"bias":-1.8052779323513015E-17},{"epoch":20,"weights":[[0.4860611517283678,1.2205019431597544,-0.6636520766609212,0.3123906622205356],[0.34367690445005933,-0.10433310301680354,0.7952027487397577,0.4158966973573935],[-0.3403988390797376,-0.35233778767469237,1.7160075136836146,1.5599951653588808]],"accuracy_validation":0.6222222222222222,"mse_training":0.5904761904761905,"accuracy_training":0.7047619047619048,"mse_validation":0.7555555555555555,"bias":-2.378576936107325E-17},{"epoch":19,"weights":[[0.47759789216832943,1.2028270569383694,-0.6389380048947885,0.32375563278519814],[0.33436195132253727,-0.10507772018889185,0.7978662433911025,0.4290654501905861],[-0.32262062639217676,-0.3339182842812186,1.6886299472661366,1.5354614419610253]],"accuracy_validation":0.6222222222222222,"mse_training":0.5904761904761905,"accuracy_training":0.7047619047619048,"mse_validation":0.7555555555555555,"bias":-1.5903077466017386E-17},{"epoch":18,"weights":[[0.4689418684022155,1.184650217929938,-0.6134315135337153,0.3354771169888514],[0.3248192764308916,-0.10567087428814356,0.8004556098158452,0.44239622470438583],[-0.30442192773441734,-0.31514829117353566,1.66053408948032,1.5104091832435724]],"accuracy_validation":0.6222222222222222,"mse_training":0.6095238095238096,"accuracy_training":0.6952380952380952,"mse_validation":0.7555555555555555,"bias":-1.7561906789920206E-17},{"epoch":17,"weights":[[0.46008020068865035,1.1659274660646952,-0.5870552467693911,0.34759003166991065],[0.315041377571855,-0.1060972214129249,0.8029492841501723,0.4558856848604345],[-0.28578236116181516,-0.29599919218351056,1.6316641483816687,1.4848068084064643]],"accuracy_validation":0.6222222222222222,"mse_training":0.6285714285714286,"accuracy_training":0.6857142857142857,"mse_validation":0.7555555555555555,"bias":-9.23306570088655E-18},{"epoch":16,"weights":[[0.4509979505445664,1.1466072599592194,-0.5597182332754151,0.36013547365816506],[0.30502031683495145,-0.10633954999592156,0.8053217189895063,0.4695290470927686],[-0.26667905028082767,-0.2764366574950369,1.6019547000483598,1.4586180041858745]],"accuracy_validation":0.6222222222222222,"mse_training":0.6285714285714286,"accuracy_training":0.6857142857142857,"mse_validation":0.7555555555555555,"bias":-4.3357244877695255E-18},{"epoch":15,"weights":[[0.44167757642813654,1.1266286001561963,-0.5313125774188933,0.3731622314883026],[0.2947476239509073,-0.10637847365725683,0.807542555597647,0.48331975535154686],[-0.24708598328035355,-0.256419074030679,1.5713282075836978,1.4318005380969578]],"accuracy_validation":0.6222222222222222,"mse_training":0.6285714285714286,"accuracy_training":0.6857142857142857,"mse_validation":0.7555555555555555,"bias":-2.634611279139699E-19},{"epoch":14,"weights":[[0.43209820244380875,1.1059185574594186,-0.5017091229061559,0.3867287697976539],[0.2842141661970256,-0.10619204922015345,0.8095755739530671,0.4972490695266378],[-0.2269731515421442,-0.2358954557710053,1.5396917347155414,1.4043046856125159]],"accuracy_validation":0.6222222222222222,"mse_training":0.6285714285714286,"accuracy_training":0.6857142857142857,"mse_validation":0.7555555555555555,"bias":3.443426099813971E-18},{"epoch":13,"weights":[[0.4222346225134241,1.084388972078036,-0.47075168881364254,0.4009058715705307],[0.2734099724262824,-0.10575529379255821,0.8113773417106411,0.5113055363714051],[-0.20630537784101646,-0.21480262581721893,1.506932532865454,1.3760711169948723]],"accuracy_validation":0.6222222222222222,"mse_training":0.6285714285714286,"accuracy_training":0.6857142857142857,"mse_validation":0.7555555555555555,"bias":4.319461455182257E-18},{"epoch":12,"weights":[[0.4120559236803269,1.0619319756629024,-0.43824928503510946,0.4157802131929073],[0.26232399323232924,-0.10503956354410715,0.8128954481141752,0.5254742981099807],[-0.1850406998139668,-0.19306135965053625,1.4729120226833854,1.3470280136339192]],"accuracy_validation":0.6222222222222222,"mse_training":0.6285714285714286,"accuracy_training":0.6857142857142857,"mse_validation":0.7555555555555555,"bias":5.165139149720948E-18},{"epoch":11,"weights":[[0.4015235495671437,1.0384138071581184,-0.40396540771726647,0.4314592902712984],[0.25094377053655637,-0.10401174006056751,0.8140661556099963,0.5397361726078438],[-0.16312810300501032,-0.17057101462929208,1.437457437869721,1.3170870620576638]],"accuracy_validation":0.6222222222222222,"mse_training":0.6285714285714286,"accuracy_training":0.6857142857142857,"mse_validation":0.7555555555555555,"bias":5.9284174791507405E-18},{"epoch":10,"weights":[[0.3905885200786348,1.0136660957879156,-0.36760301491513964,0.44807834630629084],[0.23925497586386585,-0.10263314503010003,0.8148112197014147,0.5540664059385217],[-0.14050427884381117,-0.14720189828955593,1.4003499809761761,1.2861377726919927]],"accuracy_validation":0.6222222222222222,"mse_training":0.6285714285714286,"accuracy_training":0.6857142857142857,"mse_validation":0.7555555555555555,"bias":9.102961440188296E-18},{"epoch":9,"weights":[[0.37918733995866605,0.9874732785638406,-0.3287829405913573,0.46581035184360065],[0.22724075373794747,-0.10085806589526827,0.8150334990563158,0.5684329461855979],[-0.11708887659792415,-0.12278416020031313,1.3613076272974929,1.2540392269076075]],"accuracy_validation":0.6222222222222222,"mse_training":0.6285714285714286,"accuracy_training":0.6857142857142857,"mse_validation":0.7555555555555555,"bias":6.366435156834882E-18},{"epoch":8,"weights":[[0.36723579105537735,0.959553924926549,-0.28701203895839317,0.4848807736823706],[0.2148807695530593,-0.09863171653726031,0.8146107750577852,0.5827940045644885],[-0.09277734350974713,-0.0970911559210301,1.319959449663059,1.2206077466899472]],"accuracy_validation":0.6222222222222222,"mse_training":0.6285714285714286,"accuracy_training":0.6857142857142857,"mse_validation":0.7555555555555555,"bias":4.5189546549195825E-18},{"epoch":7,"weights":[[0.35461914215338153,0.9295320842593149,-0.2416347004917331,0.5055901327798742],[0.20214980355754278,-0.09588736566177442,0.8133868802214828,0.5970945376922216],[-0.067429728612235,-0.06981366612928157,1.2758060060327028,1.1855978544647108]],"accuracy_validation":0.6222222222222222,"mse_training":0.6285714285714286,"accuracy_training":0.6857142857142857,"mse_validation":0.7555555555555555,"bias":7.684824998577252E-18},{"epoch":6,"weights":[[0.34117591918870716,0.8968915338380736,-0.19175638361136685,0.5283497440060599],[0.1890156558940065,-0.09254221973375149,0.8111587448262696,0.6112610768903392],[-0.040852357984024375,-0.04051826163606322,1.22815582454755,1.148671704040407]],"accuracy_validation":0.6222222222222222,"mse_training":0.6285714285714286,"accuracy_training":0.6857142857142857,"mse_validation":0.7555555555555555,"bias":6.088879400678592E-18},{"epoch":5,"weights":[[0.3266691903682038,0.8608990592236737,-0.13611794096629157,0.5537408158874038],[0.17543609014721645,-0.0884914054589358,0.8076573012768697,0.6251940280927563],[-0.012766063416731076,-0.008576601296479336,1.1760188254518749,1.1093476809566454]],"accuracy_validation":0.6222222222222222,"mse_training":0.6285714285714286,"accuracy_training":0.6857142857142857,"mse_validation":0.7555555555555555,"bias":4.9439619065339E-18},{"epoch":4,"weights":[[0.3107312545167313,0.8204677433067281,-0.07287907029138938,0.5826171837540945],[0.16135489324555377,-0.08359896132470906,0.8025196829128001,0.6387562585168829],[0.017253069336404178,0.026962270486239264,1.117917573141043,1.0669090826658274]],"accuracy_validation":0.6222222222222222,"mse_training":0.6285714285714286,"accuracy_training":0.6857142857142857,"mse_validation":0.7555555555555555,"bias":6.522560269672797E-18},{"epoch":3,"weights":[[0.29274480510643847,0.773894030277491,7.751953562984001E-4,0.6162944705005772],[0.14669965937037424,-0.07768380634635907,0.7952521267850514,0.6517572193187998],[0.04989475262187659,0.06762082853712639,1.051530863621104,1.0202308351174276]],"accuracy_validation":0.6222222222222222,"mse_training":0.6285714285714286,"accuracy_training":0.6857142857142857,"mse_validation":0.7555555555555555,"bias":7.45931094670027E-18},{"epoch":2,"weights":[[0.2715507711409339,0.7183014211784637,0.08939009965446326,0.6569209560017919],[0.13139795846896202,-0.07049580187811519,0.7852002140942499,0.6639374371267646],[0.08639048748879335,0.11602543316790997,0.9729678720137409,0.9674241318082478]],"accuracy_validation":0.6222222222222222,"mse_training":0.6285714285714286,"accuracy_training":0.6857142857142857,"mse_validation":0.7555555555555555,"bias":6.661338147750941E-18},{"epoch":1,"weights":[[0.2446105109875853,0.6483233276443484,0.20074888561893448,0.708244340275837],[0.1155069213823321,-0.06166393379756544,0.7716476790687916,0.6749947625899335],[0.1292217847287716,0.17717165862147546,0.8751616210747276,0.9050434220710337]],"accuracy_validation":0.6222222222222222,"mse_training":0.6285714285714286,"accuracy_training":0.6857142857142857,"mse_validation":0.7555555555555555,"bias":2.8449465006019658E-18},{"epoch":0,"weights":[[0.20525483450902016,0.5526802440843953,0.3486692388956592,0.7771419019027397],[0.10000394501532152,-0.05052339414739633,0.7547778193911479,0.684916236773824],[0.1840804375743475,0.2616742025312593,0.7441111274756462,0.8262243862602404]],"accuracy_validation":0.6222222222222222,"mse_training":0.6285714285714286,"accuracy_training":0.6857142857142857,"mse_validation":0.7555555555555555,"bias":2.9837243786801097E-18}]