[{"epoch":99,"weights":[[2.008538487126033,4.116968643061159,-3.358904781898003,-1.9696320327365298],[2.1887908427230314,0.8662060453374862,-0.38072595634998785,-1.2162778362440958],[-2.303328548021479,-2.9205581796916324,5.753777033281619,4.859463695002167]],"accuracy_validation":1,"mse_training":0.11428571428571428,"accuracy_training":0.9428571428571428,"mse_validation":0,"bias":2.3089514812261685E-16},{"epoch":98,"weights":[[2.004327139496536,4.10776561937268,-3.3477745421110154,-1.9635918051617134],[2.186630316093893,0.8616874378253326,-0.3779091012129975,-1.2106321527294723],[-2.2969566737628413,-2.906836548490998,5.739829938357638,4.847777783912724]],"accuracy_validation":1,"mse_training":0.11428571428571428,"accuracy_training":0.9428571428571428,"mse_validation":0,"bias":2.4358187610917927E-16},{"epoch":97,"weights":[[2.000068138109312,4.098470976585012,-3.336534384233594,-1.9574937032810704],[2.1844457900536653,0.8571130945089834,-0.3750576847410435,-1.2048974661836973],[-2.2905131463353876,-2.8929675623869775,5.725738364008263,4.8359449954863045]],"accuracy_validation":1,"mse_training":0.11428571428571428,"accuracy_training":0.9428571428571428,"mse_validation":0,"bias":2.9179301826089544E-16},{"epoch":96,"weights":[[1.9957606063190465,4.0890830647857,-3.32518232735191,-1.9513367117752134],[2.182236524172731,0.8524825911664461,-0.37217121638359857,-1.1990715160855894],[-2.2839963486641865,-2.878949147245129,5.711499838769136,4.823962053882339]],"accuracy_validation":1,"mse_training":0.11428571428571428,"accuracy_training":0.9428571428571428,"mse_validation":0,"bias":3.1306471814315977E-16},{"epoch":95,"weights":[[1.9914036436937725,4.079600186934309,-3.313716332946636,-1.9451197867594523],[2.180001749682494,0.8477955126447734,-0.3692491971046082,-1.1931519815522416],[-2.2774046115486746,-2.8647791908720657,5.697111825084867,4.811825594333227]],"accuracy_validation":1,"mse_training":0.11428571428571428,"accuracy_training":0.9428571428571428,"mse_validation":0,"bias":3.3436592454572157E-16},{"epoch":94,"weights":[[1.9869963250198126,4.0700205968280345,-3.3021343024013157,-1.9388418545760377],[2.1777406680594575,0.8430514531858739,-0.3662911184801707,-1.1871364801446969],[-2.2707362112516813,-2.850455541306891,5.682571715915104,4.799532160742266]],"accuracy_validation":1,"mse_training":0.11428571428571428,"accuracy_training":0.9428571428571428,"mse_validation":0,"bias":3.0762042432028947E-16},{"epoch":93,"weights":[[1.9825376992545154,4.060342496959221,-3.290434074380513,-1.9325018105241794],[2.1754524494976106,0.8382500167495344,-0.3632964616842291,-1.181022566659021],[-2.2639893669245383,-2.8359760050017435,5.667876831098363,4.787078203204732]],"accuracy_validation":1,"mse_training":0.11428571428571428,"accuracy_training":0.9428571428571428,"mse_validation":0,"bias":2.898561457598178E-16},{"epoch":92,"weights":[[1.9780267884243647,4.050564036259117,-3.278613422070678,-1.9260985175245258],[2.1731362312578595,0.8333908173368221,-0.3602646963533092,-1.1748077319006216],[-2.2571622378546357,-2.8213383448889244,5.653024413457609,4.7744600754466795]],"accuracy_validation":1,"mse_training":0.11428571428571428,"accuracy_training":0.9428571428571428,"mse_validation":0,"bias":2.8570390299760604E-16},{"epoch":91,"weights":[[1.9734625864660362,4.040683307721728,-3.26667005027632,-1.9196308047147193],[2.170791115882156,0.8284734793179571,-0.35719527932089823,-1.1684894014393292],[-2.2502529205206034,-2.80654027833267,5.638011624630841,4.761674032175584]],"accuracy_validation":1,"mse_training":0.11428571428571428,"accuracy_training":0.9428571428571428,"mse_validation":0,"bias":2.6513603324923596E-16},{"epoch":90,"weights":[[1.968844058007866,4.030698345901567,-3.2546015923636236,-1.9130974659724236],[2.1684161692588058,0.8234976377697402,-0.35408765321169605,-1.1620649343424616],[-2.2432594454390853,-2.7915794749642915,5.622835540608942,4.748716226336421]],"accuracy_validation":1,"mse_training":0.11428571428571428,"accuracy_training":0.9428571428571428,"mse_validation":0,"bias":2.291730726135099E-16},{"epoch":89,"weights":[[1.964170137089211,4.020607124278532,-3.242405607043165,-1.906497258361994],[2.1660104185241247,0.8184629388287558,-0.350941244885533,-1.1555316218827552],[-2.2361797737857487,-2.776453554400275,5.607493146962322,4.735582706266285]],"accuracy_validation":1,"mse_training":0.11428571428571428,"accuracy_training":0.9428571428571428,"mse_validation":0,"bias":2.0540435502657643E-16},{"epoch":88,"weights":[[1.9594397258150653,4.010407552482939,-3.2300795749828892,-1.8998289005007902],[2.1635728497842672,0.8133690400678478,-0.3477554637203512,-1.148886686217808],[-2.2290117937717473,-2.7611600838437744,5.591981333736867,4.7222694127401335]],"accuracy_validation":1,"mse_training":0.11428571428571428,"accuracy_training":0.9428571428571428,"mse_validation":0,"bias":1.8559103710227426E-16},{"epoch":87,"weights":[[1.9546516929433007,4.000097473373246,-3.217620895241895,-1.8930910708408764],[2.1611024056395958,0.8082156109047451,-0.3445296997232872,-1.1421272790373376],[-2.2217533167553105,-2.7456965755709826,5.576296889998804,4.708772175899745]],"accuracy_validation":1,"mse_training":0.11428571428571428,"accuracy_training":0.9428571428571428,"mse_validation":0,"bias":1.7434500880335424E-16},{"epoch":86,"weights":[[1.949804872401813,3.9896746599587005,-3.2050268815150313,-1.8862824058615648],[2.15859798249233,0.8030023330532894,-0.34126332145844973,-1.1352504801744097],[-2.214402073066557,-2.7300604843049805,5.560436498007107,4.695086712057503]],"accuracy_validation":1,"mse_training":0.11428571428571428,"accuracy_training":0.9428571428571428,"mse_validation":0,"bias":1.6268007638697847E-16},{"epoch":85,"weights":[[1.9448980617328577,3.9791368121585196,-3.192294758177595,-1.8794014981680576],[2.156058427616552,0.7977289010293704,-0.3379556737796915,-1.1282532961765601],[-2.2069557075218267,-2.714249204480881,5.5443967269909145,4.681208620366143]],"accuracy_validation":1,"mse_training":0.11428571428571428,"accuracy_training":0.9428571428571428,"mse_validation":0,"bias":1.520710830870348E-16},{"epoch":84,"weights":[[1.9399300204617236,3.9684815533888673,-3.179421656118644,-1.8724468944910382],[2.153482535967858,0.7923950227255832,-0.33460607535622355,-1.1211326588326487],[-2.199411774601997,-2.69826006740744,5.52817402650849,4.667133379345209]],"accuracy_validation":1,"mse_training":0.11428571428571428,"accuracy_training":0.9428571428571428,"mse_validation":0,"bias":1.6142834216445786E-16},{"epoch":83,"weights":[[1.9348994683869267,3.957706426968213,-3.1664046083506814,-1.8654170935817906],[2.1508690467079234,0.7870004200705821,-0.331213815978634,-1.1138854236512628],[-2.1917677332672665,-2.6820903383317836,5.511764719362939,4.652856343254576]],"accuracy_validation":1,"mse_training":0.11428571428571428,"accuracy_training":0.9428571428571428,"mse_validation":0,"bias":1.4663394998937642E-16},{"epoch":82,"weights":[[1.9298050837889982,3.9468088923311067,-3.1532405453825145,-1.8583105439970107],[2.1482166394173094,0.7815448297913157,-0.32777815363250823,-1.1065083682866041],[-2.1840209413787273,-2.6657372134154103,5.495164994048649,4.638372738305136]],"accuracy_validation":1,"mse_training":0.11428571428571428,"accuracy_training":0.9428571428571428,"mse_validation":0,"bias":1.8121037573331743E-16},{"epoch":81,"weights":[[1.92464550155487,3.9357863210397057,-3.1399262903410783,-1.8511256417670703],[2.1455239299675832,0.7760280042986587,-0.3242983113265269,-1.0989981909079671],[-2.176168649694875,-2.6491978166313506,5.478370896701232,4.623677658696558]],"accuracy_validation":1,"mse_training":0.11428571428571428,"accuracy_training":0.9428571428571428,"mse_validation":0,"bias":1.5826101200663598E-16},{"epoch":80,"weights":[[1.9194193112147988,3.9246359925816026,-3.126458553826914,-1.8438607279410073],[2.142789466021515,0.7704497127194889,-0.3207734736615912,-1.0913515085093608],[-2.1682079954087348,-2.63246919659408,5.4613783225221315,4.608766062471887]],"accuracy_validation":1,"mse_training":0.11428571428571428,"accuracy_training":0.9428571428571428,"mse_validation":0,"bias":1.8521071835789637E-16},{"epoch":79,"weights":[[1.9141250548886706,3.91335508994171,-3.1128339284867237,-1.8365140860010356],[2.1400117221277157,0.7648097421009236,-0.31720278312726696,-1.08356485515636],[-2.160135995188804,-2.615548323335619,5.444183006647617,4.593632767178913]],"accuracy_validation":1,"mse_training":0.11428571428571428,"accuracy_training":0.9428571428571428,"mse_validation":0,"bias":2.534136069364097E-16},{"epoch":78,"weights":[[1.9087612251384067,3.901940694934923,-3.0990488832850276,-1.8290839391387035],[2.137189094373442,0.7591078988152907,-0.31358533611150663,-1.0756346801680738],[-2.1519495376842688,-2.5984320850432,5.426780514430156,4.578272445328293]],"accuracy_validation":1,"mse_training":0.11428571428571428,"accuracy_training":0.9428571428571428,"mse_validation":0,"bias":2.6571302398080974E-16},{"epoch":77,"weights":[[1.9033262627230683,3.890389783285312,-3.0850997574553802,-1.8215684473842693],[2.1343198945566675,0.7533440101974592,-0.3099201786093677,-1.0675573462331667],[-2.143645375452154,-2.5811172847757597,5.409166231098362,4.562679619638954]],"accuracy_validation":1,"mse_training":0.11428571428571428,"accuracy_training":0.9428571428571428,"mse_validation":0,"bias":2.9909090872665325E-16},{"epoch":76,"weights":[[1.8978185542530706,3.8786992194363346,-3.0709827541098815,-1.8139657045800575],[2.1314023438355822,0.7475179264492837,-0.30620630161616474,-1.0593291274601764],[-2.1352201162610744,-2.5636006371786055,5.39133535075966,4.546848658061751]],"accuracy_validation":1,"mse_training":0.11428571428571428,"accuracy_training":0.9428571428571428,"mse_validation":0,"bias":3.021246969248738E-16},{"epoch":75,"weights":[[1.892236429739743,3.8668657510751925,-3.056693933483727,-1.8062737351877496],[2.1284345658108137,0.7416295228493188,-0.30244263619023776,-1.050946207364005],[-2.1266702137229756,-2.5458787652175,5.373282864707578,4.53077376857327]],"accuracy_validation":1,"mse_training":0.11428571428571428,"accuracy_training":0.9428571428571428,"mse_validation":0,"bias":2.851592462040298E-16},{"epoch":74,"weights":[[1.8865781600361793,3.854886003353029,-3.0422292057893405,-1.7984904909186505],[2.1254145789925,0.7356787023094291,-0.29862804817023575,-1.0424046767924373],[-2.1179919572010983,-2.5279481969554505,5.355003548993186,4.514448993732604]],"accuracy_validation":1,"mse_training":0.11428571428571428,"accuracy_training":0.9428571428571428,"mse_validation":0,"bias":2.6617623296595125E-16},{"epoch":73,"weights":[[1.8808419541650736,3.842756472780835,-3.0275843236521975,-1.7906138471748867],[2.1223402886011815,0.7296653983235517,-0.2947613325315635,-1.0337005317988779],[-2.1091814609386703,-2.5098053623973775,5.33649195121737,4.497868204995278]],"accuracy_validation":1,"mse_training":0.11428571428571428,"accuracy_training":0.9428571428571428,"mse_validation":0,"bias":2.57672857472118E-16},{"epoch":72,"weights":[[1.8750259565288037,3.830473520779029,-3.012754874097639,-1.7826415992883307],[2.119209477648095,0.7235895783576625,-0.29084120736631774,-1.024829671470201],[-2.1002346523493105,-2.491446590429684,5.317742376497563,4.481025096780049]],"accuracy_validation":1,"mse_training":0.11428571428571428,"accuracy_training":0.9428571428571428,"mse_validation":0,"bias":2.499190368919311E-16},{"epoch":71,"weights":[[1.8691282439966381,3.818033366856544,-2.997736270054825,-1.7745714585427057],[2.116019797237084,0.7174512477338901,-0.2868663074707294,-1.015787895721757],[-2.091147259406132,-2.472868105883426,5.298748872559161,4.46391318028598]],"accuracy_validation":1,"mse_training":0.11428571428571428,"accuracy_training":0.9428571428571428,"mse_validation":0,"bias":2.876183506408041E-16},{"epoch":70,"weights":[[1.8631468228633374,3.805432081392619,-2.982523741340559,-1.7664010479627756],[2.112768756026718,0.7112504540657455,-0.2828351775237381,-1.006570903075034],[-2.0819147970624656,-2.454066026751359,5.2795052138979,4.4465257770593265]],"accuracy_validation":1,"mse_training":0.11428571428571428,"accuracy_training":0.9428571428571428,"mse_validation":0,"bias":2.958319028435362E-16},{"epoch":69,"weights":[[1.8570796256728437,3.792665577991847,-2.967112325081583,-1.758127897852861],[2.1094537087876355,0.7049872923055746,-0.2787462648398968,-0.9971742884373954],[-2.072532552632886,-2.4350363615904165,5.260004884955079,4.428856012311775]],"accuracy_validation":1,"mse_training":0.11428571428571428,"accuracy_training":0.9428571428571428,"mse_validation":0,"bias":3.0980073287748275E-16},{"epoch":68,"weights":[[1.8509245078998884,3.779729605379676,-2.9514968555296583,-1.7497494410649579],[2.1060718439863177,0.6986619104695745,-0.2745979116792851,-0.9875935409074663],[-2.062995570058614,-2.4157750071422424,5.240241062242543,4.410896807993947]],"accuracy_validation":1,"mse_training":0.11428571428571428,"accuracy_training":0.9428571428571428,"mse_validation":0,"bias":2.9458681333877963E-16},{"epoch":67,"weights":[[1.8446792444815288,3.766619738802091,-2.9356719532185314,-1.7412630079745288],[2.1026201703227123,0.6922745161100783,-0.2703883470965108,-0.9778240416341916],[-2.0532986329766505,-2.396277746205162,5.2202065953486425,4.39264087563024]],"accuracy_validation":1,"mse_training":0.11428571428571428,"accuracy_training":0.9428571428571428,"mse_validation":0,"bias":3.0068018534018996E-16},{"epoch":66,"weights":[[1.8383415261894638,3.753331370889038,-2.9196320134063156,-1.7326658211395647],[2.0990955021451296,0.6858253836092768,-0.2661156783101326,-0.9678610617621638],[-2.0434362465070017,-2.3765402457913116,5.199893986750053,4.374080708923249]],"accuracy_validation":1,"mse_training":0.11428571428571428,"accuracy_training":0.9428571428571428,"mse_validation":0,"bias":3.3664504833759393E-16},{"epoch":65,"weights":[[1.8319089558327337,3.7398597019365547,-2.9033711937403104,-1.723954989615726],[2.095494443661754,0.6793148623731317,-0.26177788157303294,-0.9576997605003723],[-2.033402617666896,-2.356558055602686,5.1792953703469475,4.355208576137617]],"accuracy_validation":1,"mse_training":0.11428571428571428,"accuracy_training":0.9428571428571428,"mse_validation":0,"bias":3.442016552369093E-16},{"epoch":64,"weights":[[1.825379044278985,3.7261997295573557,-2.886883401074029,-1.7151275028971067],[2.091813371863884,0.6727433860089789,-0.25737279252327544,-0.9473351833558185],[-2.0231916343152783,-2.336326606859333,5.158402488630909,4.33601651227444]],"accuracy_validation":1,"mse_training":0.11428571428571428,"accuracy_training":0.9428571428571428,"mse_validation":0,"bias":3.5530758954069554E-16},{"epoch":63,"weights":[[1.8187492062806998,3.71234623764376,-2.870162277357982,-1.7061802244486353],[2.0880484180715175,0.6661114825752249,-0.2528980959939488,-0.9367622605772962],[-2.012796842524626,-2.315841211511984,5.137206668385534,4.316496311047446]],"accuracy_validation":1,"mse_training":0.11428571428571428,"accuracy_training":0.9428571428571428,"mse_validation":0,"bias":3.3894266039273697E-16},{"epoch":62,"weights":[[1.8120167560909197,3.6982937845801884,-2.853201184516459,-1.6971098847919526],[2.084195448007128,0.6594197859966844,-0.24835131525932294,-0.9259758058575724],[-2.002211422270456,-2.295097061869874,5.115698794809381,4.296639516671036]],"accuracy_validation":1,"mse_training":0.11428571428571428,"accuracy_training":0.9428571428571428,"mse_validation":0,"bias":3.3457887484663653E-16},{"epoch":61,"weights":[[1.805178902850731,3.68403669063497,-2.8359931882119724,-1.6879130741019668],[2.0802500402982655,0.6526690487444795,-0.243729800693517,-0.9149705153439411],[-1.9914281613214067,-2.2740892306724483,5.093869283939087,4.27643741546742]],"accuracy_validation":1,"mse_training":0.11428571428571428,"accuracy_training":0.9428571428571428,"mse_validation":0,"bias":3.311791078975966E-16},{"epoch":60,"weights":[[1.7982327457282787,3.6695690244527976,-2.818531040387106,-1.6785862342660067],[2.0762074633037586,0.64586015588515,-0.23903071781681254,-0.9037409670070797],[-1.980439427204449,-2.252812671630946,5.071708053237514,4.255881027294598]],"accuracy_validation":1,"mse_training":0.11428571428571428,"accuracy_training":0.9428571428571428,"mse_validation":0,"bias":3.331076559627543E-16},{"epoch":59,"weights":[[1.7911752687862195,3.6548845885596917,-2.8008071604598777,-1.669125650351443],[2.0720626501516106,0.6389941406097452,-0.23425103470392722,-0.8922816204157381],[-1.9692371371102393,-2.231262220462438,5.049204490197399,4.234961096788693]],"accuracy_validation":1,"mse_training":0.11428571428571428,"accuracy_training":0.9428571428571428,"mse_validation":0,"bias":3.226305506498829E-16},{"epoch":58,"weights":[[1.784003335551386,3.6399769037815966,-2.782813615033355,-1.6595274414207974],[2.067810171868671,0.632072201360212,-0.22938750872821817,-0.8805868169594471],[-1.9578127255924662,-2.2094325964348105,5.026347418795165,4.213668084401758]],"accuracy_validation":1,"mse_training":0.11428571428571428,"accuracy_training":0.9428571428571428,"mse_validation":0,"bias":3.1009396177151905E-16},{"epoch":57,"weights":[[1.7767136832568056,3.6248391924657444,-2.7645420959626636,-1.6497875506255624],[2.063444208472637,0.6250957206775095,-0.2244366726161832,-0.8686507805523104],[-1.9461571099018518,-2.187318404436256,5.0031250636124405,4.191992157199384]],"accuracy_validation":1,"mse_training":0.11428571428571428,"accuracy_training":0.9428571428571428,"mse_validation":0,"bias":3.164554278416897E-16},{"epoch":56,"weights":[[1.7693029167222487,3.6094643603802905,-2.745983896602534,-1.6399017345009843],[2.0589585178848737,0.6180662859035237,-0.2193948197881311,-0.8564676188373191],[-1.9342606527795319,-2.1649141375768157,4.979525011424253,4.169923179359816]],"accuracy_validation":1,"mse_training":0.11428571428571428,"accuracy_training":0.9428571428571428,"mse_validation":0,"bias":3.189372890756345E-16},{"epoch":55,"weights":[[1.761767501834967,3.5938449771523,-2.7271298860356907,-1.629865551373913],[2.0543464025076794,0.6109857118771206,-0.21425798896394604,-0.8440313248916942],[-1.922113122515056,-2.1422141803224224,4.955534170033227,4.147450702287119]],"accuracy_validation":1,"mse_training":0.11428571428571428,"accuracy_training":0.9428571428571428,"mse_validation":0,"bias":2.886630865704477E-16},{"epoch":54,"weights":[[1.7541037585871773,3.5779732550867496,-2.707970481056335,-1.6196743487840504],[2.049600673290463,0.6038560657734877,-0.2090219480180071,-0.8313357794086483],[-1.9097036500500524,-2.1192128121532376,4.931138724107926,4.124563954214216]],"accuracy_validation":1,"mse_training":0.11428571428571428,"accuracy_training":0.9428571428571428,"mse_validation":0,"bias":3.0422794077178546E-16},{"epoch":53,"weights":[[1.7463078536210725,3.5618410261891116,-2.6884956156529576,-1.6093232498055456],[2.044713611085168,0.5966796942452531,-0.20368217707496855,-0.8183747532989146],[-1.8970206828786529,-2.095904211727365,4.906324087761512,4.1012518291259825]],"accuracy_validation":1,"mse_training":0.11428571428571428,"accuracy_training":0.9428571428571428,"mse_validation":0,"bias":3.212702519515318E-16},{"epoch":52,"weights":[[1.7383757922254215,3.5454397171913934,-2.6686947077005407,-1.598807138140385],[2.039676925060278,0.5894592530335596,-0.19823385084891834,-0.8051419106157747],[-1.8840519354581122,-2.072282461517952,4.881074853583043,4.077502874777684]],"accuracy_validation":1,"mse_training":0.09523809523809523,"accuracy_training":0.9523809523809523,"mse_validation":0,"bias":2.750397521829976E-16},{"epoch":51,"weights":[[1.7303034097200751,3.528760322354932,-2.6485566225325203,-1.5881206418371563],[2.034481707903727,0.5821977392271342,-0.19267182024263518,-0.7916308116595101],[-1.8707843357962148,-2.048341552875064,4.85537473780874,4.053305279518185]],"accuracy_validation":1,"mse_training":0.09523809523809523,"accuracy_training":0.9523809523809523,"mse_validation":0,"bias":2.565434576621003E-16},{"epoch":50,"weights":[[1.722086362155473,3.5117933737927935,-2.628069633017467,-1.5772581154680985],[2.029118387495694,0.5748985263571306,-0.18699059324154538,-0.777834916060933],[-1.8572039678235783,-2.024075391442923,4.829206521292597,4.028646857550548]],"accuracy_validation":1,"mse_training":0.09523809523809523,"accuracy_training":0.9523809523809523,"mse_validation":0,"bias":2.589834527865946E-16},{"epoch":49,"weights":[[1.7137201162433635,3.4945289090188854,-2.6072213757125273,-1.5662136205733408],[2.0235766746709882,0.5675654025248053,-0.18118431515824648,-0.7637475855787876],[-1.8432960090867634,-1.9994778028366875,4.8025519859043575,4.003515032173646]],"accuracy_validation":1,"mse_training":0.09523809523809523,"accuracy_training":0.9523809523809523,"mse_validation":0,"bias":2.730643543259641E-16},{"epoch":48,"weights":[[1.7051999384218366,3.47695643538903,-2.585998802604471,-1.5549809041532954],[2.0178455066151586,0.5602026117675265,-0.17524674830735043,-0.7493620862725475],[-1.8290446632094048,-1.974542538449556,4.775391845945405,3.977896816447364]],"accuracy_validation":1,"mse_training":0.09523809523809523,"accuracy_training":0.9523809523809523,"mse_validation":0,"bias":2.805793505262021E-16},{"epoch":47,"weights":[[1.696520882942017,3.4590648910500694,-2.564388127877841,-1.5435533749575423],[2.0119129853466053,0.5528148988758604,-0.16917125121534,-0.7346715896309596],[-1.8144330864610303,-1.94926328121893,4.7477056741267685,3.9517787906100232]],"accuracy_validation":1,"mse_training":0.09523809523809523,"accuracy_training":0.9523809523809523,"mse_validation":0,"bias":2.6293296995436545E-16},{"epoch":46,"weights":[[1.6876777788448287,3.440842601954751,-2.5423747690661456,-1.531924077280345],[2.0057663106268406,0.5454075578800787,-0.16295075749373183,-0.7196691721483284],[-1.7994433076440786,-1.9236336511278282,4.719471821593463,3.9251470754501927]],"accuracy_validation":1,"mse_training":0.09523809523809523,"accuracy_training":0.9523809523809523,"mse_validation":0,"bias":2.823853144422355E-16},{"epoch":45,"weights":[[1.6786652156735595,3.4222772344313515,-2.519943281844202,-1.520085661928137],[1.9993917065107392,0.5379864844282922,-0.15657775452238204,-0.704347812746023],[-1.784056140356707,-1.8976472101526414,4.690667331400167,3.8979873006956787]],"accuracy_validation":1,"mse_training":0.09523809523809523,"accuracy_training":0.9523809523809523,"mse_validation":0,"bias":2.593657060132784E-16},{"epoch":44,"weights":[[1.6694775277409981,3.4033557427153105,-2.4970772876042813,-1.5080303539714541],[1.992774340596628,0.5305582322801682,-0.15004426209876534,-0.688700387337138],[-1.7682510865100336,-1.871297466288477,4.661267844736631,3.8702845673301085]],"accuracy_validation":1,"mse_training":0.09523809523809523,"accuracy_training":0.9523809523809523,"mse_validation":0,"bias":2.4224290720752675E-16},{"epoch":43,"weights":[[1.6601087767382188,3.3840643107534225,-2.473759392822309,-1.4957499168314843],[1.985898234861146,0.5231300741399373,-0.1433418112026677,-0.6727196597288142],[-1.7520062297717727,-1.8445778761863594,4.631247499058557,3.842023402581813]],"accuracy_validation":1,"mse_training":0.09523809523809523,"accuracy_training":0.9523809523809523,"mse_validation":0,"bias":2.6169815041865803E-16},{"epoch":42,"weights":[[1.6505527324352578,3.364388287476643,-2.4499710990583283,-1.48323561217759],[1.9787461667645578,0.5157100670500941,-0.13646142299747108,-0.6563982679504197],[-1.7352981173722255,-1.8174818458197348,4.600578817089377,3.8131877061495247]],"accuracy_validation":1,"mse_training":0.09523809523809523,"accuracy_training":0.9523809523809523,"mse_validation":0,"bias":2.1496086503506951E-16},{"epoch":41,"weights":[[1.6408028511816561,3.3443121146021677,-2.425692702242749,-1.4704781550244905],[1.971299559087556,0.5083071225627465,-0.12939358813229163,-0.6397287049872784],[-1.71810162844162,-1.7900027284579105,4.569232585408622,3.7837606860332844]],"accuracy_validation":1,"mse_training":0.09523809523809523,"accuracy_training":0.9523809523809523,"mse_validation":0,"bias":2.0829849754338883E-16},{"epoch":40,"weights":[[1.6308522518670294,3.3238192458654865,-2.4009031796692057,-1.4574676633134342],[1.9635383567084244,0.5009310818987697,-0.12212824631700056,-0.6227032927889281],[-1.700389826747864,-1.7621338190572535,4.5371777210197894,3.7537247821238746]],"accuracy_validation":1,"mse_training":0.09523809523809523,"accuracy_training":0.9523809523809523,"mse_validation":0,"bias":1.759018508159102E-16},{"epoch":39,"weights":[[1.6206936889482955,3.3028920563942576,-2.3755800628388255,-1.4441936011370113],[1.9554408882470447,0.4935927962948886,-0.11465476600897682,-0.605314148307089],[-1.6821337953677507,-1.733868343982144,4.504381123881382,3.7230615754656142]],"accuracy_validation":1,"mse_training":0.09523809523809523,"accuracy_training":0.9523809523809523,"mse_validation":0,"bias":1.6785769255904528E-16},{"epoch":38,"weights":[[1.6103195220907784,3.2815117407126664,-2.3496992939685035,-1.4306447146179497],[1.9469837101845322,0.48630421272389884,-0.10696192387229744,-0.5875531401995034],[-1.6633024504477205,-1.7051994447295633,4.470807512874383,3.6917516808389648]],"accuracy_validation":1,"mse_training":0.09523809523809523,"accuracy_training":0.9523809523809523,"mse_validation":0,"bias":1.795824990729651E-16},{"epoch":37,"weights":[[1.5997216819049713,3.259658197601028,-2.3232350635756944,-1.4168089592726345],[1.938141430707399,0.4790784651506125,-0.09903788344484213,-0.5694118347074805],[-1.6438623307847813,-1.6761201540446413,4.43641924205412,3.659774620001627]],"accuracy_validation":1,"mse_training":0.09523809523809523,"accuracy_training":0.9523809523809523,"mse_validation":0,"bias":1.80210054616704E-16},{"epoch":36,"weights":[[1.5888916311883599,3.2373098997220344,-2.296159626068339,-1.4026734174735755],[1.9288865101123682,0.471929971451337,-0.09087017217656382,-0.5508814290709445],[-1.623777359473139,-1.6466233624663702,4.401176093278487,3.6271086725660338]],"accuracy_validation":1,"mse_training":0.09523809523809523,"accuracy_training":0.9523809523809523,"mse_validation":0,"bias":1.7346837527100225E-16},{"epoch":35,"weights":[[1.5778203210014277,3.2144437455516983,-2.2684430896823113,-1.3882242043628297],[1.919189034128164,0.46487453607148993,-0.08244565568433324,-0.5319526706751923],[-1.6030085733020032,-1.6167017729161868,4.365035040400229,3.5937307010595365]],"accuracy_validation":1,"mse_training":0.09523809523809523,"accuracy_training":0.9523809523809523,"mse_validation":0,"bias":1.5315187832293172E-16},{"epoch":34,"weights":[[1.566498140816529,3.1910348907058435,-2.2400531763958145,-1.3734463602496565],[1.9090164559454381,0.45792945841597654,-0.07375050770672407,-0.5126157599140394],[-1.5815138149343775,-1.5863478404148181,4.327949979136124,3.5596159461852106]],"accuracy_validation":1,"mse_training":0.09523809523809523,"accuracy_training":0.9523809523809523,"mse_validation":0,"bias":1.41884378255643E-16},{"epoch":33,"weights":[[1.554914861874711,3.1670565552138212,-2.210954946580859,-1.3583237271368656],[1.8983333020722395,0.45111364684961774,-0.064770173834894,-0.49286023448401917],[-1.5592473821193595,-1.5555536933564387,4.289871415449337,3.5247377876424]],"accuracy_validation":1,"mse_training":0.09523809523809523,"accuracy_training":0.9523809523809523,"mse_validation":0,"bias":1.4199823511921847E-16},{"epoch":32,"weights":[[1.5430595727642729,3.142479802637317,-2.1811104820881,-1.3428388065438843],[1.8871008363222135,0.4444477380173785,-0.05548932663673939,-0.47267483246490116],[-1.5361596272588958,-1.5243110319476951,4.250746103758425,3.4890674650303]],"accuracy_validation":1,"mse_training":0.09523809523809523,"accuracy_training":0.9523809523809523,"mse_validation":0,"bias":1.57609322779311E-16},{"epoch":31,"weights":[[1.530920606089801,3.1172732861338535,-2.150478520155036,-1.326972595208643],[1.8752766752622758,0.43795422096132886,-0.04589180926416137,-0.45204733105296285],[-1.5121964995244848,-1.492610998388182,4.210516624452784,3.4525737522831186]],"accuracy_validation":1,"mse_training":0.09523809523809523,"accuracy_training":0.9523809523809523,"mse_validation":0,"bias":1.620743982477266E-16},{"epoch":30,"weights":[[1.5184854549236493,3.0914029555844897,-2.119014028917715,-1.3107043945270276],[1.8628143472559122,0.4316575651961501,-0.03596056400598123,-0.4309643571401103],[-1.4872990203519698,-1.460444012073641,4.169120887957284,3.415222577688648]],"accuracy_validation":1,"mse_training":0.09523809523809523,"accuracy_training":0.9523809523809523,"mse_validation":0,"bias":1.5686758398002113E-16},{"epoch":29,"weights":[[1.5057406775129607,3.0648317186949607,-2.0866677133152782,-1.2940115886923342],[1.8496627857893337,0.42558435148937984,-0.02567754146880838,-0.40941116499884994],[-1.4614026814747025,-1.4277995614773447,4.1264915498176755,3.3769765797126947]],"accuracy_validation":1,"mse_training":0.09523809523809523,"accuracy_training":0.9523809523809523,"mse_validation":0,"bias":1.285024795672055E-16},{"epoch":28,"weights":[[1.492671788441034,3.037519047478123,-2.0533854377063356,-1.276869385383152],[1.8357657460025067,0.41976340355890257,-0.015023585053596522,-0.38737137503782704],[-1.434436752615949,-1.3946659423300325,4.082555317793518,3.3377945864424916]],"accuracy_validation":1,"mse_training":0.09523809523809523,"accuracy_training":0.9523809523809523,"mse_validation":0,"bias":1.1116931155433338E-16},{"epoch":27,"weights":[[1.4792631340947857,3.0094205196550647,-2.0191075484411267,-1.2592505114593209],[1.82106113119495,0.41422591823550636,-0.003978284028003922,-0.36482666579585843],[-1.406323483462146,-1.3610299291835783,4.03723212750272,3.297631003276689]],"accuracy_validation":1,"mse_training":0.09523809523809523,"accuracy_training":0.9523809523809523,"mse_validation":0,"bias":8.471100543682738E-17},{"epoch":26,"weights":[[1.4654977498466553,2.9804872821729393,-1.9837680757954697,-1.2411248543902524],[1.805480213451748,0.40900559084234883,0.007480213392649378,-0.3417564088545061],[-1.376977181470814,-1.3268763643082955,3.9904341574364097,3.256435089266267]],"accuracy_validation":1,"mse_training":0.09523809523809523,"accuracy_training":0.9523809523809523,"mse_validation":0,"bias":1.3439450045078202E-16},{"epoch":25,"weights":[[1.4513571957870464,2.9506654211012853,-1.9472937898701244,-1.2224590379672078],[1.7889467293366763,0.4041387316430244,0.019375438177651295,-0.3181372329121778],[-1.346303143296132,-1.2921876440373155,3.9420646467260636,3.2141500969008945]],"accuracy_validation":1,"mse_training":0.09523809523809523,"accuracy_training":0.9523809523809523,"mse_validation":0,"bias":1.2087446831878818E-16},{"epoch":24,"weights":[[1.4368213670936032,2.919895218468651,-1.9096030790390963,-1.203215918127009],[1.7713758277110487,0.3996643682852208,0.031732904735169876,-0.2939424985251598],[-1.3141964129770607,-1.2569430780468778,3.892016469337515,3.1707122426736762]],"accuracy_validation":1,"mse_training":0.09523809523809523,"accuracy_training":0.9523809523809523,"mse_validation":0,"bias":1.1645651678549975E-16},{"epoch":23,"weights":[[1.4218682741205448,2.888110271917998,-1.8706046119715505,-1.1833539812961695],[1.7526728420390953,0.39562432838986084,0.04458050133979617,-0.2691416585063084],[-1.2805403343320507,-1.2211180916008653,3.8401704056653427,3.126049465823984]],"accuracy_validation":1,"mse_training":0.09523809523809523,"accuracy_training":0.9523809523809523,"mse_validation":0,"bias":1.3084463924994652E-16},{"epoch":22,"weights":[[1.4064737859087957,2.8552364470957103,-1.8301957347524236,-1.1628266233740248],[1.7327318539365406,0.39206329612852014,0.05794899391347329,-0.24369947003835482],[-1.2452048580177475,-1.1846832345172382,3.7863930358725404,3.0800799194338864]],"accuracy_validation":1,"mse_training":0.09523809523809523,"accuracy_training":0.9523809523809523,"mse_validation":0,"bias":1.19753094568666E-16},{"epoch":21,"weights":[[1.3906113288357467,2.821190625033222,-1.78826054268502,-1.141581282092336],[1.7114340081963915,0.3890288373394248,0.07187268016108664,-0.21757501235346127],[-1.2080445552045482,-1.1476029536656542,3.7305341575575213,3.0327101204673035]],"accuracy_validation":1,"mse_training":0.09523809523809523,"accuracy_training":0.9523809523809523,"mse_validation":0,"bias":1.2227423968613196E-16},{"epoch":20,"weights":[[1.3742515291444406,2.785879196839568,-1.7446675513617114,-1.119558388754782],[1.6886455322864544,0.38657139028832305,0.0863902445492661,-0.19072044724816042],[-1.1688962796033027,-1.1098340784208993,3.6724236018460323,2.9838326620244504]],"accuracy_validation":1,"mse_training":0.09523809523809523,"accuracy_training":0.9523809523809523,"mse_validation":0,"bias":1.339930888453E-16},{"epoch":19,"weights":[[1.3573617833826086,2.7491962449157348,-1.699266872812205,-1.0966900969707032],[1.6642154060309244,0.38474422471139597,0.10154588321065802,-0.16307943736540687],[-1.1275764075859405,-1.0713239609201408,3.611867284635133,2.9333233603576185]],"accuracy_validation":1,"mse_training":0.11428571428571428,"accuracy_training":0.9428571428571428,"mse_validation":0,"bias":1.3184600776171675E-16},{"epoch":18,"weights":[[1.33990573298847,2.711021332277752,-1.6518867791908154,-1.0728987356396649],[1.6379726214956096,0.3836033815089657,0.11739079389548648,-0.1345851074846464],[-1.0838775726564875,-1.0320082050797268,3.548642280328915,2.8810376691458215]],"accuracy_validation":1,"mse_training":0.11428571428571428,"accuracy_training":0.9428571428571428,"mse_validation":0,"bias":9.225636523074933E-17},{"epoch":17,"weights":[[1.3218426059159805,2.67121679734527,-1.602329507823938,-1.0480949208674557],[1.609722972434956,0.3832076200555607,0.13398516371976413,-0.10515739541953596],[-1.0375647965233434,-0.9918079086938385,3.48249063913776,2.8268061423085014]],"accuracy_validation":1,"mse_training":0.13333333333333333,"accuracy_training":0.9333333333333333,"mse_validation":0,"bias":1.1055531199081762E-16},{"epoch":16,"weights":[[1.3031263649396445,2.6296244175180323,-1.5503661271898619,-1.022175246695012],[1.5792453236234347,0.3836184180278426,0.15140084437727075,-0.07469959053659833],[-0.9883709067354872,-0.9506263268388804,3.413111577846177,2.7704286632531194]],"accuracy_validation":0.9777777777777777,"mse_training":0.13333333333333333,"accuracy_training":0.9333333333333333,"mse_validation":0.044444444444444446,"bias":7.922914934973663E-17},{"epoch":15,"weights":[[1.283704561792929,2.5860612563479117,-1.4957302443116585,-0.9950194581078367],[1.5462873444859941,0.38490008274995546,0.16972499506717473,-0.04309380036994652],[-0.9359911244513321,-0.9083448303908712,3.3401515442780694,2.711667084499293]],"accuracy_validation":0.9777777777777777,"mse_training":0.1523809523809524,"accuracy_training":0.9238095238095239,"mse_validation":0.044444444444444446,"bias":1.1333158888828672E-16},{"epoch":14,"weights":[[1.2635167271632635,2.540314439912027,-1.4381102931534653,-0.9664869936565234],[1.510560766489736,0.38712002383888555,0.1890651236414966,-0.010195025151236957],[-0.8800767118254069,-0.864817955043915,3.2631914645455575,2.65023584482927]],"accuracy_validation":0.9777777777777777,"mse_training":0.1523809523809524,"accuracy_training":0.9238095238095239,"mse_validation":0.044444444444444446,"bias":1.212426027320052E-16},{"epoch":13,"weights":[[1.2424920129080264,2.4921345113111064,-1.3771401080289687,-0.9364127733822712],[1.4717363628358222,0.3903491610415813,0.20955621099052157,0.024176527959728605],[-0.8202275939162554,-0.819867163645692,3.181730192072037,2.585790071444053]],"accuracy_validation":0.9777777777777777,"mse_training":0.17142857142857143,"accuracy_training":0.9142857142857143,"mse_validation":0.044444444444444446,"bias":1.2024722615018685E-16},{"epoch":12,"weights":[[1.2205456257528393,2.441226883353559,-1.312387469217541,-0.9046021084925385],[1.429439072725157,0.3946622141182738,0.2313710343272421,0.06024526241585673],[-0.7559839166504028,-0.7732725887648371,3.095162729923887,2.517910672098191]],"accuracy_validation":0.9555555555555556,"mse_training":0.19047619047619047,"accuracy_training":0.9047619047619048,"mse_validation":0.08888888888888889,"bias":7.722571534600927E-17},{"epoch":11,"weights":[[1.1975733313800467,2.387240748861105,-1.2433403327762436,-0.8708246351838911],[1.3832439983367597,0.4001371006190467,0.2547355190008006,0.09829242288967358],[-0.686816547889213,-0.7247613407731589,3.00275110880903,2.4460860383157255]],"accuracy_validation":0.9555555555555556,"mse_training":0.20952380952380953,"accuracy_training":0.8952380952380953,"mse_validation":0.08888888888888889,"bias":8.986991532254103E-17},{"epoch":10,"weights":[[1.17344293778804,2.329754616681069,-1.1693905614898292,-0.8348072449029981],[1.332674311099046,0.40685165706961524,0.2799520752394661,0.1386708060519089],[-0.6121164670594935,-0.673989765043692,2.9035847812839513,2.3696902648725953]],"accuracy_validation":0.9555555555555556,"mse_training":0.3047619047619048,"accuracy_training":0.8476190476190476,"mse_validation":0.08888888888888889,"bias":1.0855946939890476E-16},{"epoch":9,"weights":[[1.1479811405742428,2.268257404668873,-1.0898152291590442,-0.7962261251781604],[1.2772020651038898,0.4148742280426862,0.3074354140719354,0.18182180448377414],[-0.5311824238505392,-0.6205151240045639,2.7965261101206975,2.2879581467158907]],"accuracy_validation":0.9555555555555556,"mse_training":0.3238095238095238,"accuracy_training":0.8380952380952381,"mse_validation":0.08888888888888889,"bias":1.0522349955314063E-16},{"epoch":8,"weights":[[1.1209535023850294,2.202123795162055,-1.0037561165742845,-0.7546983040202222],[1.2162512784253896,0.42424243512207155,0.3377664491626305,0.22829503472089402],[-0.44320399898282414,-0.563749721577133,2.680135962445241,2.1999570953208347]],"accuracy_validation":0.9555555555555556,"mse_training":0.4,"accuracy_training":0.8,"mse_validation":0.08888888888888889,"bias":1.0626384844766663E-16},{"epoch":7,"weights":[[1.0920358344108472,2.1305832922659196,-0.9101993025551701,-0.7097738095907585],[1.149196725012972,0.434923160224399,0.3717668960968869,0.27877322473333754],[-0.347231777596225,-0.5028899437833246,2.5525787014918717,2.1045544108789267]],"accuracy_validation":0.8888888888888888,"mse_training":0.47619047619047616,"accuracy_training":0.7619047619047619,"mse_validation":0.2222222222222222,"bias":7.313183363738808E-17},{"epoch":6,"weights":[[1.0607819720336447,2.052688794291531,-0.8079607020593705,-0.6609320222583627],[1.0753446877384807,0.4467558091651814,0.410578086710117,0.33410810199448104],[-0.2421258779445311,-0.43682809474971973,2.4115289103828457,2.0003777462853867]],"accuracy_validation":0.8444444444444444,"mse_training":0.5523809523809524,"accuracy_training":0.7238095238095238,"mse_validation":0.3111111111111111,"bias":6.55951187023853E-17},{"epoch":5,"weights":[[1.026616792195322,1.9673119676048527,-0.6956884157903246,-0.6075897907945209],[0.9939166866848992,0.45943965193963643,0.4556460121387182,0.39534210390252456],[-0.12653269705262649,-0.3641351108374961,2.254188698685196,1.8858015129135015]],"accuracy_validation":0.8,"mse_training":0.6476190476190476,"accuracy_training":0.6761904761904762,"mse_validation":0.4,"bias":6.588444186376133E-17},{"epoch":4,"weights":[[0.9889173509475229,1.8732005634133158,-0.571823507253548,-0.5490971922103366],[0.9042194242798771,0.4727913999430603,0.5082610964776344,0.4635164580984235],[8.64006600194811E-4,-0.28337545464938274,2.0777087058095036,1.759134560133419]],"accuracy_validation":0.8,"mse_training":0.7428571428571429,"accuracy_training":0.6285714285714286,"mse_validation":0.4,"bias":4.675240704017477E-17},{"epoch":3,"weights":[[0.947153478973989,1.7689173046613977,-0.43410325329040866,-0.48452410445333094],[0.8061712251733194,0.48746467747855576,0.5682303186655219,0.539017073392441],[0.1406760776802865,-0.1937654734329608,1.8800192296584772,1.6190608570823957]],"accuracy_validation":0.8,"mse_training":0.780952380952381,"accuracy_training":0.6095238095238096,"mse_validation":0.4,"bias":4.4570060532891927E-17},{"epoch":2,"weights":[[0.9007700375205364,1.6518877476160225,-0.27754843975133364,-0.41175655871625005],[0.7006853031158324,0.5057926706959741,0.6320848098759931,0.6207682773016984],[0.2925454411912261,-0.09506390960500519,1.659609924908932,1.4645421074360567]],"accuracy_validation":0.8,"mse_training":0.780952380952381,"accuracy_training":0.6095238095238096,"mse_validation":0.4,"bias":5.0755298401650173E-17},{"epoch":1,"weights":[[0.8483139565678107,1.5148907950112882,-0.08809418214658797,-0.32465647656899593],[0.5897257144212066,0.5333993999530945,0.6899970390109915,0.7047616297484992],[0.4559611108385777,0.014326313742609065,1.412243438169186,1.2934486728420014]],"accuracy_validation":0.8,"mse_training":0.780952380952381,"accuracy_training":0.6095238095238096,"mse_validation":0.4,"bias":3.3065997856462904E-17},{"epoch":0,"weights":[[0.7814973195236142,1.3302556727331631,0.18379810641395403,-0.20113521937152806],[0.4791473063634976,0.5879176131820758,0.7125473734413731,0.7779691930345184],[0.6333561559404832,0.1444432227917527,1.1178008151782628,1.0967198523585138]],"accuracy_validation":0.8,"mse_training":0.780952380952381,"accuracy_training":0.6095238095238096,"mse_validation":0.4,"bias":3.2890357104520264E-17}]