[{"epoch":99,"weights":[[2.2488601880265695,4.893849038579627,-4.695890951424193,-2.3772180912606706],[2.2589386424077,1.272939019323055,-1.4021066884306306,-1.6648213609630436],[-3.3639836842779243,-4.669458718094848,7.631532764844717,5.1131942268152795]],"accuracy_validation":0.9333333333333333,"mse_training":0.1523809523809524,"accuracy_training":0.9238095238095239,"mse_validation":0.13333333333333333,"bias":-4.892670524376378E-16},{"epoch":98,"weights":[[2.2435155787889833,4.882315076377468,-4.682275063533921,-2.3708441426671136],[2.253660921943632,1.268191337492662,-1.3944626492794552,-1.6610922212458135],[-3.353361354576266,-4.653177074062297,7.610272837803266,5.103091138504493]],"accuracy_validation":0.9333333333333333,"mse_training":0.1523809523809524,"accuracy_training":0.9238095238095239,"mse_validation":0.13333333333333333,"bias":-4.908809911681586E-16},{"epoch":97,"weights":[[2.2381150202701323,4.870666264189444,-4.668520053681616,-2.364403571467818],[2.2483737243347703,1.263340163156318,-1.3867664927356285,-1.6573035425663374],[-3.342673598448554,-4.636677087537926,7.588821671407133,5.092861888625719]],"accuracy_validation":0.9333333333333333,"mse_training":0.1523809523809524,"accuracy_training":0.9238095238095239,"mse_validation":0.13333333333333333,"bias":-4.561954789352293E-16},{"epoch":96,"weights":[[2.2326577430375347,4.858900663579635,-4.654623498710642,-2.357895243646762],[2.243077485880179,1.2583837532623234,-1.3790180704921624,-1.6534550501119283],[-3.331920082761367,-4.61995507703412,7.5671766941926935,5.082505068350252]],"accuracy_validation":0.9333333333333333,"mse_training":0.1523809523809524,"accuracy_training":0.9238095238095239,"mse_validation":0.13333333333333333,"bias":-4.652569426128518E-16},{"epoch":95,"weights":[[2.2271429588627503,4.847016279910771,-4.640582911756795,-2.351317996130274],[2.2377726391415287,1.253320345382396,-1.3712172507627016,-1.6495464081657385],[-3.3211004518479315,-4.603007285485329,7.545335287509387,5.072019178887574]],"accuracy_validation":0.9333333333333333,"mse_training":0.1523809523809524,"accuracy_training":0.9238095238095239,"mse_validation":0.13333333333333333,"bias":-3.924858254807784E-16},{"epoch":94,"weights":[[2.2215698599438105,4.835011060078717,-4.6263957400415165,-2.3446706357866565],[2.23245961055171,1.2481481617919723,-1.363363920124257,-1.645577213203546],[-3.3102143243391713,-4.585829882062852,7.523294785155657,5.061402623581762]],"accuracy_validation":0.9333333333333333,"mse_training":0.1523809523809524,"accuracy_training":0.9238095238095239,"mse_validation":0.13333333333333333,"bias":-3.9914974948619284E-16},{"epoch":93,"weights":[[2.215937618104044,4.822882890138053,-4.6120593625409505,-2.337951938371615],[2.2271388178632985,1.2428654140182231,-1.3554579855498032,-1.641546986662045],[-3.299261289810991,-4.568418964348433,7.501052473080634,5.050653699625218]],"accuracy_validation":0.9333333333333333,"mse_training":0.1523809523809524,"accuracy_training":0.9238095238095239,"mse_validation":0.13333333333333333,"bias":-3.9282587360479567E-16},{"epoch":92,"weights":[[2.2102453839659106,4.810629592809256,-4.597571087515962,-2.331160647412864],[2.2218106674565643,1.2374703078378935,-1.3474993766395318,-1.6374551674020967],[-3.288240905266125,-4.550770560839307,7.478605589145374,5.039770589406518]],"accuracy_validation":0.9333333333333333,"mse_training":0.1523809523809524,"accuracy_training":0.9238095238095239,"mse_validation":0.13333333333333333,"bias":-3.548441787157676E-16},{"epoch":91,"weights":[[2.204492286098294,4.7982489248566935,-4.582928149886256,-2.324295473026414],[2.2164755515294003,1.2319610487009915,-1.339488048057705,-1.6333011038964145],[-3.277152691471346,-4.532880633749845,7.45595132293384,5.028751351514381]],"accuracy_validation":0.9333333333333333,"mse_training":0.1523809523809524,"accuracy_training":0.9238095238095239,"mse_validation":0.13333333333333333,"bias":-3.190260379641099E-16},{"epoch":90,"weights":[[2.198677430135347,4.785738574325541,-4.568127708429965,-2.317355090656233],[2.2111338451941602,1.2263358475497443,-1.331423982179736,-1.6290840461775375],[-3.2659961291731614,-4.514745082067449,7.433086815599579,5.017593911425321]],"accuracy_validation":0.9333333333333333,"mse_training":0.1523809523809524,"accuracy_training":0.9238095238095239,"mse_validation":0.13333333333333333,"bias":-3.058698684011732E-16},{"epoch":89,"weights":[[2.1927998978647816,4.773096157624495,-4.553166842787878,-2.31033813972796],[2.2057859035085787,1.2205929269954505,-1.3233071919511434,-1.6248031375886394],[-3.254770655217014,-4.496359744812115,7.410009159728894,5.0062960519081505]],"accuracy_validation":0.9333333333333333,"mse_training":0.1523809523809524,"accuracy_training":0.9238095238095239,"mse_validation":0.13333333333333333,"bias":-2.74732733584423E-16},{"epoch":88,"weights":[[2.1868587462832068,4.760319216439688,-4.538042550249474,-2.3032432222064374],[2.2004320584697568,1.2147305278087854,-1.315137723956237,-1.6204574063864927],[-3.243475658596618,-4.4777204044406504,7.386715399195579,4.99485540318448]],"accuracy_validation":0.9333333333333333,"mse_training":0.1523809523809524,"accuracy_training":0.9238095238095239,"mse_validation":0.13333333333333333,"bias":-2.6701328314460164E-16},{"epoch":87,"weights":[[2.1808530066157523,4.747405214463813,-4.522751742295377,-2.2960689010457314],[2.195072616001432,1.2087469156718849,-1.3069156616900617,-1.6160457572528573],[-3.2321104764608375,-4.458822790327874,7.363202528975307,4.983269432890142]],"accuracy_validation":0.9333333333333333,"mse_training":0.1523809523809524,"accuracy_training":0.9238095238095239,"mse_validation":0.13333333333333333,"bias":-2.5306703806037477E-16},{"epoch":86,"weights":[[2.1747816832969167,4.734351533922761,-4.5072912408686765,-2.2888136985192675],[2.189707852965209,1.2026403881335068,-1.298641129021591,-1.6115669627773437],[-3.22067439010578,-4.439662582248447,7.3394674948801395,4.971535435888164]],"accuracy_validation":0.9333333333333333,"mse_training":0.1523809523809524,"accuracy_training":0.9238095238095239,"mse_validation":0.13333333333333333,"bias":-1.8588447615615795E-16},{"epoch":85,"weights":[[2.168643752909201,4.72115547188056,-4.491657774344858,-2.2814760944165546],[2.184338014226059,1.1964092817016243,-1.2903142938300125,-1.607019654981399],[-3.209166620978915,-4.420235413774368,7.315507193164743,4.959650523989501]],"accuracy_validation":0.9333333333333333,"mse_training":0.1523809523809524,"accuracy_training":0.9238095238095239,"mse_validation":0.13333333333333333,"bias":-1.1533513085626991E-16},{"epoch":84,"weights":[[2.162438163075651,4.707814236301356,-4.4758479731676495,-2.2740545240918952],[2.178963309800865,1.1900519790013615,-1.2819353717885582,-1.602402316959247],[-3.1975863267201734,-4.400536875494901,7.291318469946075,4.947611615642688]],"accuracy_validation":0.9333333333333333,"mse_training":0.1523809523809524,"accuracy_training":0.9238095238095239,"mse_validation":0.13333333333333333,"bias":-8.39809556381519E-17},{"epoch":83,"weights":[[2.1561638313019684,4.694324941845419,-4.459858365115376,-2.266547376349271],[2.173583912116189,1.1835669159203646,-1.273504630262053,-1.597713274717264],[-3.1859325972618118,-4.380562517957968,7.266898120367294,4.935415425658078]],"accuracy_validation":0.9333333333333333,"mse_training":0.1523809523809524,"accuracy_training":0.9238095238095239,"mse_validation":0.13333333333333333,"bias":-3.423708033582743E-17},{"epoch":82,"weights":[[2.1498196437633132,4.680684605373982,-4.443685370159869,-2.2589529911464363],[2.16819995339733,1.1769525886587335,-1.265022392274871,-1.5929506892981176],[-3.174204451004292,-4.360307854224897,7.242242887424607,4.923058455036093]],"accuracy_validation":0.9333333333333333,"mse_training":0.1523809523809524,"accuracy_training":0.9238095238095239,"mse_validation":0.13333333333333333,"bias":-7.971234585910013E-17},{"epoch":81,"weights":[[2.1434044540302692,4.66689014113553,-4.427325294877202,-2.251269657100146],[2.1628115232052765,1.1702075605967694,-1.2564890404955762,-1.588112549279975],[-3.1624008310791987,-4.339768361924482,7.217349460362643,4.910536980971664]],"accuracy_validation":0.9333333333333333,"mse_training":0.1523809523809524,"accuracy_training":0.9238095238095239,"mse_validation":0.13333333333333333,"bias":-5.138707883074726E-17},{"epoch":80,"weights":[[2.1369170817276717,4.652938355603826,-4.410774326366937,-2.2434956087732707],[2.1574186661310972,1.1633304688912178,-1.247905021172919,-1.5831966637438895],[-3.150520601702426,-4.318939484687229,7.192214472529717,4.8978470471087014]],"accuracy_validation":0.9333333333333333,"mse_training":0.1523809523809524,"accuracy_training":0.9238095238095239,"mse_validation":0.13333333333333333,"bias":-4.936665680299108E-17},{"epoch":79,"weights":[[2.1303563111191055,4.638825941935274,-4.394028525633958,-2.2356290237233982],[2.1520213796484935,1.1563200307095938,-1.239270847945318,-1.5782006558040629],[-3.138562544611256,-4.297816632837052,7.16683449856914,4.884984454119003]],"accuracy_validation":0.9333333333333333,"mse_training":0.1523809523809524,"accuracy_training":0.9238095238095239,"mse_validation":0.13333333333333333,"bias":-2.3263708627806394E-17},{"epoch":78,"weights":[[2.123720889608703,4.624549474010554,-4.3770838203844304,-2.2276680192915026],[2.1466196121150602,1.1491750490127648,-1.2305871054325117,-1.5731219567958428],[-3.126525355567422,-4.2763951832155,7.1412060508068045,4.8719447506788836]],"accuracy_validation":0.9333333333333333,"mse_training":0.1523809523809524,"accuracy_training":0.9238095238095239,"mse_validation":0.13333333333333333,"bias":4.377927715033871E-17},{"epoch":77,"weights":[[2.117009526150586,4.610105400022423,-4.359935997184722,-2.2196106491080787],[2.1412132609008037,1.1418944177983137,-1.2218544525036803,-1.567957801214846],[-3.1144076408950503,-4.254670478012921,7.115325574678269,4.858723224914461]],"accuracy_validation":0.9333333333333333,"mse_training":0.1523809523809524,"accuracy_training":0.9238095238095239,"mse_validation":0.13333333333333333,"bias":5.870596845522188E-17},{"epoch":76,"weights":[[2.110220889554543,4.595490035568263,-4.342580692929791,-2.2114548992931393],[2.135802170608977,1.134477126721327,-1.213073625101393,-1.5627052224976252],[-3.1022079140071828,-4.232637822481773,7.089189443021051,4.845314896382301]],"accuracy_validation":0.9333333333333333,"mse_training":0.1523809523809524,"accuracy_training":0.9238095238095239,"mse_validation":0.13333333333333333,"bias":-4.595983337608644E-18},{"epoch":75,"weights":[[2.103353606674564,4.580699556202265,-4.32501338556489,-2.203198684325294],[2.130386131339596,1.1269222650152273,-1.204245438484974,-1.5573610497294577],[-3.0899245918578258,-4.210292481409681,7.062793949039728,4.83171450864629]],"accuracy_validation":0.9333333333333333,"mse_training":0.1523809523809524,"accuracy_training":0.9238095238095239,"mse_validation":0.13333333333333333,"bias":-2.3964093708576268E-17},{"epoch":74,"weights":[[2.096406260464359,4.565729989398272,-4.307229384001883,-2.1948398425540625],[2.124964876929903,1.11922902464288,-1.1953707887408445,-1.5519219053582856],[-3.0775559912379276,-4.187629674233344,7.036135297732585,4.817916522503889]],"accuracy_validation":0.9333333333333333,"mse_training":0.1523809523809524,"accuracy_training":0.9238095238095239,"mse_validation":0.13333333333333333,"bias":4.469227515061206E-17},{"epoch":73,"weights":[[2.0893773878810653,4.550577205869613,-4.289223817168803,-2.1863761313283416],[2.1195380830889796,1.111396702617336,-1.1864506533907662,-1.5463842039854392],[-3.0651003248137085,-4.164644568679141,7.009209595549424,4.803915109905321]],"accuracy_validation":0.9333333333333333,"mse_training":0.1523809523809524,"accuracy_training":0.9238095238095239,"mse_validation":0.13333333333333333,"bias":2.303626627710281E-17},{"epoch":72,"weights":[[2.082265477614853,4.535236910187452,-4.2709916221283715,-2.177805221712628],[2.1141053653258415,1.1034247024419155,-1.177486090911968,-1.5407441522935632],[-3.052555696784357,-4.141332272821558,6.982012838030193,4.789704148597733]],"accuracy_validation":0.9111111111111111,"mse_training":0.1523809523809524,"accuracy_training":0.9238095238095239,"mse_validation":0.17777777777777778,"bias":-1.4003213211683143E-17},{"epoch":71,"weights":[[2.0750689676180207,4.519704630633507,-4.252527531198085,-2.169124692761196],[2.108666276551716,1.0953125346305428,-1.168478238965729,-1.5349977501599967],[-3.0399200980134,-4.117687825456241,6.954540895153667,4.775277217512731]],"accuracy_validation":0.9111111111111111,"mse_training":0.1523809523809524,"accuracy_training":0.9238095238095239,"mse_validation":0.17777777777777778,"bias":-1.9145151029701737E-17},{"epoch":70,"weights":[[2.067786242402325,4.503975708216723,-4.233826058000935,-2.160332025318734],[2.1032203042180213,1.0870598162809155,-1.1594283111130272,-1.529140792989838],[-3.027191400464013,-4.093706184689836,6.926789494103818,4.760627592900109]],"accuracy_validation":0.9111111111111111,"mse_training":0.1523809523809524,"accuracy_training":0.9238095238095239,"mse_validation":0.17777777777777778,"bias":-1.5994668634633989E-18},{"epoch":69,"weights":[[2.060415630067881,4.488045284776597,-4.214881482371958,-2.151424595314099],[2.097766866831778,1.0786662696847276,-1.1503375917770142,-1.523168875286793],[-3.0143673507433264,-4.0693822146535155,6.898754199138828,4.745748245192429]],"accuracy_validation":0.9111111111111111,"mse_training":0.1523809523809524,"accuracy_training":0.9238095238095239,"mse_validation":0.17777777777777778,"bias":-1.8629200770547206E-17},{"epoch":68,"weights":[[2.052955399020503,4.471908290087829,-4.195687834041244,-2.1423996665117766],[2.0923053096698725,1.0701317199702944,-1.1412074291920506,-1.517077395461657],[-3.0014455625340433,-4.044710670250314,6.870430388223154,4.730631836564968]],"accuracy_validation":0.9111111111111111,"mse_training":0.1523809523809524,"accuracy_training":0.9238095238095239,"mse_validation":0.17777777777777778,"bias":-1.754205696229913E-17},{"epoch":67,"weights":[[2.0454037543273698,4.45555942787263,-4.176238875009132,-2.1332543826831833],[2.0868348994922905,1.0614560917831026,-1.1320392260571615,-1.5108615618575076],[-2.988423507663326,-4.019686179847922,6.841813226056155,4.715270719132226]],"accuracy_validation":0.9111111111111111,"mse_training":0.1523809523809524,"accuracy_training":0.9238095238095239,"mse_validation":0.17777777777777778,"bias":-7.683590812471509E-18},{"epoch":66,"weights":[[2.037758833652761,4.438993160616946,-4.156528080523562,-2.1239857591574087],[2.081354818032088,1.052639405018398,-1.1228344275874265,-1.504516399947269],[-2.9752985055285164,-3.9943032258275317,6.812897633100848,4.699656933696213]],"accuracy_validation":0.9111111111111111,"mse_training":0.1523809523809524,"accuracy_training":0.9238095238095239,"mse_validation":0.17777777777777778,"bias":3.107909908435922E-17},{"epoch":65,"weights":[[2.0300187027067893,4.422203693076528,-4.13654861856353,-2.1145906737080082],[2.0758641540158305,1.0436817696266918,-1.1135945066290769,-1.4980367606326086],[-2.9620677105662856,-3.968556122895406,6.783678250182463,4.683782208932152]],"accuracy_validation":0.9111111111111111,"mse_training":0.1523809523809524,"accuracy_training":0.9238095238095239,"mse_validation":0.17777777777777778,"bias":1.6838077697030027E-17},{"epoch":64,"weights":[[2.0221813501300785,4.405184954346824,-4.116293327725904,-2.1050658567296643],[2.0703618934419166,1.034583379517397,-1.1043209454719078,-1.4914173295426574],[-2.9487280974156658,-3.942438994056402,6.754149398187672,4.667637960863852]],"accuracy_validation":0.9111111111111111,"mse_training":0.1523809523809524,"accuracy_training":0.9238095238095239,"mse_validation":0.17777777777777778,"bias":-1.435147042354346E-17},{"epoch":63,"weights":[[2.014244681726449,4.387930578357866,-4.095754693406151,-2.095407880655323],[2.064846907815123,1.0253445055873942,-1.0950152139548692,-1.484652637196241],[-2.935276443385241,-3.9159457441374412,6.724305032350883,4.651215292443097]],"accuracy_validation":0.9111111111111111,"mse_training":0.1523809523809524,"accuracy_training":0.9238095238095239,"mse_validation":0.17777777777777778,"bias":8.28939540881118E-18},{"epoch":62,"weights":[[2.0062065139435457,4.370433882641272,-4.074924822156595,-2.085613148561715],[2.0593179400029054,1.0159654878996511,-1.085678743416053,-1.4777370698512498],[-2.921709307790117,-3.889070030733108,6.694138690562508,4.6345049930044935]],"accuracy_validation":0.9111111111111111,"mse_training":0.1523809523809524,"accuracy_training":0.9238095238095239,"mse_validation":0.17777777777777778,"bias":-1.581881980923536E-17},{"epoch":61,"weights":[[1.9980645664880168,4.352687845201089,-4.053795414099706,-2.075677881908512],[2.053773587342274,1.006446727031522,-1.0763128959855117,-1.4706648808188625],[-2.9080230076739553,-3.861805232424794,6.6636434350750795,4.617497537318906]],"accuracy_validation":0.9111111111111111,"mse_training":0.1523809523809524,"accuracy_training":0.9238095238095239,"mse_validation":0.17777777777777778,"bias":4.699469843872139E-18},{"epoch":60,"weights":[[1.9898164539469232,4.334685079303719,-4.0323577332683795,-2.065598107354622],[2.0482122815847665,0.9967886746020685,-1.0669189286570113,-1.463430201967867],[-2.8942135893753576,-3.834144414097971,6.632811786915255,4.600183083914015]],"accuracy_validation":0.9111111111111111,"mse_training":0.1523809523809524,"accuracy_training":0.9238095238095239,"mse_validation":0.17777777777777778,"bias":2.5255955301509885E-18},{"epoch":59,"weights":[[1.9814596762704038,4.31641780598427,-4.010602575741462,-2.055369642593969],[2.042632265221655,0.9869918229713184,-1.0574979515016005,-1.4560270550847019],[-2.880276795335728,-3.806080289147772,6.6016356522329325,4.582551472270195]],"accuracy_validation":0.9111111111111111,"mse_training":0.1523809523809524,"accuracy_training":0.9238095238095239,"mse_validation":0.17777777777777778,"bias":-4.931600043086846E-17},{"epoch":58,"weights":[[1.9729916079517296,4.29787782404719,-3.988520235441163,-2.0449880811535777],[2.0370315636825693,0.9770566940796275,-1.0480508793009036,-1.448449362688091],[-2.8662080254779703,-3.777605178319007,6.570106239731938,4.564592218433195]],"accuracy_validation":0.9111111111111111,"mse_training":0.1523809523809524,"accuracy_training":0.9238095238095239,"mse_validation":0.17777777777777778,"bias":-6.01471292043478E-17},{"epoch":57,"weights":[[1.9644094857192598,4.27905647731844,-3.966100467460538,-2.034448776098533],[2.031407952850527,0.9669838273587368,-1.0385783757801963,-1.440690957823675],[-2.8520022924134576,-3.748710964869371,6.538213968230606,4.546294508513734]],"accuracy_validation":0.9111111111111111,"mse_training":0.1523809523809524,"accuracy_training":0.9238095238095239,"mse_validation":0.17777777777777778,"bias":-4.1600582877508776E-17},{"epoch":56,"weights":[[1.9557103945297385,4.259944618883959,-3.9433324487947865,-2.0237468225923587],[2.0257589212878098,0.9567737665926266,-1.0290807895103091,-1.4327455922853038],[-2.8376541696612194,-3.719389045668781,6.505948363294965,4.527647189469189]],"accuracy_validation":0.9111111111111111,"mse_training":0.1523809523809524,"accuracy_training":0.9238095238095239,"mse_validation":0.17777777777777778,"bias":-6.461402223187752E-17},{"epoch":55,"weights":[[1.946891251622922,4.240532572025257,-3.9202047363604122,-2.012877039267692],[2.0200816265260686,0.9464270455282878,-1.0195580804234365,-1.4246069426284875],[-2.823157731992665,-3.6896302777457413,6.473297941773716,4.508638756487703]],"accuracy_validation":0.9111111111111111,"mse_training":0.1523809523809524,"accuracy_training":0.9238095238095239,"mse_validation":0.17777777777777778,"bias":-6.818040849333935E-17},{"epoch":54,"weights":[[1.9379487883625546,4.220810087537435,-3.896705222202662,-2.001833948371033],[2.0143728447481317,0.9359441719231443,-1.010009735751887,-1.4162686132625704],[-2.808506486954364,-3.6594249196527726,6.4402500829444165,4.4892573362251245]],"accuracy_validation":0.9111111111111111,"mse_training":0.1523809523809524,"accuracy_training":0.9238095238095239,"mse_validation":0.17777777777777778,"bias":-9.562309261561192E-17},{"epoch":53,"weights":[[1.9288795295470809,4.2007662970877115,-3.8728210858149206,-1.9906117546575097],[2.008628913189782,0.9253256095519873,-1.000434674053123,-1.4077241358389632],[-2.7936932965805408,-3.6287625668318944,6.406790884857912,4.469490665087989]],"accuracy_validation":0.9111111111111111,"mse_training":0.1523809523809524,"accuracy_training":0.9238095238095239,"mse_validation":0.17777777777777778,"bias":-1.3705066128700737E-16},{"epoch":52,"weights":[[1.9196797698234205,4.18038966224453,-3.8485387435251543,-1.9792043230269143],[2.0028456646331603,0.9145717574612344,-0.9908311358329431,-1.3989669641042637],[-2.7787102883002577,-3.5976320798979606,6.372905004347963,4.449326061722696]],"accuracy_validation":0.9111111111111111,"mse_training":0.1523809523809524,"accuracy_training":0.9238095238095239,"mse_validation":0.17777777777777778,"bias":-1.2389154732067986E-16},{"epoch":51,"weights":[[1.910345546777505,4.159667918778821,-3.8238437949451085,-1.9676051549112088],[1.9970183534706911,0.9036829254242404,-0.9811965591281878,-1.389990463375574],[-2.7635487540918735,-3.5660215043952617,6.338575479063166,4.4287503928783005]],"accuracy_validation":0.9111111111111111,"mse_training":0.1523809523809524,"accuracy_training":0.9238095238095239,"mse_validation":0.17777777777777778,"bias":-8.11365627900363E-17},{"epoch":50,"weights":[[1.9008726102049265,4.1385880158124415,-3.798720966529325,-1.9558073634464441],[1.9911415730181645,0.8926593040819665,-0.9715274382712517,-1.3807878938437794],[-2.7481990370667675,-3.53391798008661,6.3037835297904445,4.40775003188174]],"accuracy_validation":0.9111111111111111,"mse_training":0.1523809523809524,"accuracy_training":0.9238095238095239,"mse_validation":0.17777777777777778,"bias":-8.811828738787347E-17},{"epoch":49,"weights":[[1.8912563869838606,4.1171360493671605,-3.773154052354283,-1.9438036474886469],[1.9852091640855114,0.8815009276011216,-0.9618191639475863,-1.3713523870522657],[-2.732650404913048,-3.501307637160486,6.268508341291736,4.38631080913243]],"accuracy_validation":0.9111111111111111,"mse_training":0.1523809523809524,"accuracy_training":0.9238095238095239,"mse_validation":0.17777777777777778,"bias":-8.152672681831053E-17},{"epoch":48,"weights":[[1.8814919408828683,4.095297189857367,-3.7471258523048148,-1.9315862645641635],[1.9792141153230784,0.8702076257866905,-0.9520658425998265,-1.3616769151803305],[-2.7168909100496212,-3.4681754758362655,6.2327268198945,4.3644179543360115]],"accuracy_validation":0.9111111111111111,"mse_training":0.1523809523809524,"accuracy_training":0.9238095238095239,"mse_validation":0.17777777777777778,"bias":-7.508330310676225E-17},{"epoch":47,"weights":[[1.871573926544466,4.073055603080861,-3.720618107946018,-1.9191470028799607],[1.9731484566145086,0.8587789613715426,-0.9422600932679499,-1.3517542532496347],[-2.7009072370026486,-3.4345052246446195,6.196413326203824,4.342056030721115]],"accuracy_validation":0.9111111111111111,"mse_training":0.1523809523809524,"accuracy_training":0.9238095238095239,"mse_validation":0.17777777777777778,"bias":-1.2406330513052338E-16},{"epoch":46,"weights":[[1.8614965368060001,4.050394364312365,-3.693611436464393,-1.906477152558598],[1.9670031478694425,0.8472141465780538,-0.9323928201455132,-1.3415769351649525],[-2.6846845385191136,-3.400279171082639,6.159539381599759,4.319208862315072]],"accuracy_validation":0.9111111111111111,"mse_training":0.1523809523809524,"accuracy_training":0.9238095238095239,"mse_validation":0.17777777777777778,"bias":-6.697531602646603E-17},{"epoch":45,"weights":[[1.8512534424796054,4.027295365221064,-3.666085263177887,-1.8935674763047083],[1.9607679670920033,0.8355119308897873,-0.9224529595717941,-1.331137205736014],[-2.66820626341528,-3.365477956303068,6.122073347739532,4.295859456632245]],"accuracy_validation":0.9111111111111111,"mse_training":0.1523809523809524,"accuracy_training":0.9238095238095239,"mse_validation":0.17777777777777778,"bias":-3.346033195272852E-17},{"epoch":44,"weights":[[1.8408377237625049,4.003739213560405,-3.6380177532316003,-1.8804081797522167],[1.9544314037127413,0.8236704491463961,-0.9124272010122421,-1.3204269727058335],[-2.651453981318917,-3.3300803228990183,6.083980079233694,4.271989927049575]],"accuracy_validation":0.9111111111111111,"mse_training":0.1523809523809524,"accuracy_training":0.9238095238095239,"mse_validation":0.17777777777777778,"bias":-1.390954763915181E-17},{"epoch":43,"weights":[[1.830241792671408,3.979705125981722,-3.609385743191208,-1.8669888817774083],[1.9479805660688592,0.8116870154221729,-0.9022996830177039,-1.3094377656190526],[-2.634407212583942,-3.2940628015961115,6.04522055119876,4.247581421987981]],"accuracy_validation":0.9111111111111111,"mse_training":0.1523809523809524,"accuracy_training":0.9238095238095239,"mse_validation":0.17777777777777778,"bias":-4.757348020580101E-17},{"epoch":42,"weights":[[1.8194573064256225,3.955170815000418,-3.580164673276261,-1.8532985850791968],[1.9414011158585922,0.7995578434972419,-0.8920516675032669,-1.298160712504006],[-2.6170432761278906,-3.2573993186898758,6.005751465769375,4.222614072174721]],"accuracy_validation":0.9111111111111111,"mse_training":0.1523809523809524,"accuracy_training":0.9238095238095239,"mse_validation":0.17777777777777778,"bias":-1.5633436880306398E-16},{"epoch":41,"weights":[[1.8084750727471897,3.9301123722300653,-3.5503285208634203,-1.839325647299986],[1.9346772477105305,0.7872776689309096,-0.8816611993689619,-1.2865865513586783],[-2.599337174301393,-3.2200607013531912,5.9655248452222285,4.197066973250181]],"accuracy_validation":0.9111111111111111,"mse_training":0.1523809523809524,"accuracy_training":0.9238095238095239,"mse_validation":0.17777777777777778,"bias":-1.5717121389385073E-16},{"epoch":40,"weights":[[1.797284949885794,3.904504151666426,-3.5198497355141765,-1.8250577528481133],[1.9277917390955053,0.7748392407498669,-0.871102764022819,-1.2747057020087078],[-2.5812615428249712,-3.182014052608512,5.924487624526839,4.17091822944834]],"accuracy_validation":0.9111111111111111,"mse_training":0.1523809523809524,"accuracy_training":0.9238095238095239,"mse_validation":0.17777777777777778,"bias":-1.643372921726274E-16},{"epoch":39,"weights":[[1.7858757471417561,3.878318659225831,-3.4886991749782243,-1.8104818853266929],[1.920726105085682,0.7622326427926297,-0.860346963324375,-1.2625084357902163],[-2.56278670607111,-3.143221962210681,5.882581263292443,4.14414509570843]],"accuracy_validation":0.8888888888888888,"mse_training":0.1523809523809524,"accuracy_training":0.9238095238095239,"mse_validation":0.2222222222222222,"bias":-1.5009346083201326E-16},{"epoch":38,"weights":[[1.7742351360016315,3.851526458004537,-3.456846040223797,-1.7955843000020948],[1.9134609042238708,0.749444396641924,-0.8493602412334346,-1.2499851962325654],[-2.5438808940691726,-3.1036415148386807,5.839741406447075,4.116724270826181]],"accuracy_validation":0.8888888888888888,"mse_training":0.1523809523809524,"accuracy_training":0.9238095238095239,"mse_validation":0.2222222222222222,"bias":-1.9386289519903572E-16},{"epoch":37,"weights":[[1.7623495875470885,3.8240961025916667,-3.424257805501701,-1.7803504950019742],[1.9059762558004458,0.7364562918831007,-0.8381047037865771,-1.2371271431296735],[-2.524510697191202,-3.0632230546669814,5.795897634278117,4.0886324127231655]],"accuracy_validation":0.8888888888888888,"mse_training":0.1523809523809524,"accuracy_training":0.9238095238095239,"mse_validation":0.2222222222222222,"bias":-1.5615874850732273E-16},{"epoch":36,"weights":[[1.7502043572857835,3.7959941192488915,-3.3909001370943086,-1.7647651789418688],[1.8982526436289182,0.7232438893365091,-0.826538092254999,-1.2239270125168578],[-2.504641854758368,-3.0219086687776135,5.750973354339147,4.05984696605024]],"accuracy_validation":0.8888888888888888,"mse_training":0.1523809523809524,"accuracy_training":0.9238095238095239,"mse_validation":0.2222222222222222,"bias":-6.679089944658178E-17},{"epoch":35,"weights":[[1.737783540620206,3.7671850494807413,-3.3567367928335434,-1.748812231644643],[1.89027209251954,0.7097746562730036,-0.8146139791896491,-1.2103803989688466],[-2.484240486983411,-2.97963036594596,5.704885897013036,4.030347405205008]],"accuracy_validation":0.8888888888888888,"mse_training":0.1523809523809524,"accuracy_training":0.9238095238095239,"mse_validation":0.2222222222222222,"bias":-2.4578730662572956E-17},{"epoch":34,"weights":[[1.7250702145385601,3.7376315681245726,-3.3217294957784484,-1.732474653984426],[1.8820198009276152,0.6960057302705994,-0.8022822565506871,-1.196487559350167],[-2.4632748693098425,-2.936307958587386,5.657546877318983,4.00011698792611]],"accuracy_validation":0.8888888888888888,"mse_training":0.1523809523809524,"accuracy_training":0.9238095238095239,"mse_validation":0.2222222222222222,"bias":-9.132078376994908E-17},{"epoch":33,"weights":[[1.712046655548618,3.707294667729618,-3.2858377819613653,-1.7157345031579863],[1.873486277302882,0.6818813824823287,-0.7894899615249882,-1.1822557831474245],[-2.4417177866951656,-2.891846710404159,5.608862868476202,3.9691450608969268]],"accuracy_validation":0.8888888888888888,"mse_training":0.1523809523809524,"accuracy_training":0.9238095238095239,"mse_validation":0.2222222222222222,"bias":-4.1503803267622904E-17},{"epoch":32,"weights":[[1.6986945754503517,3.6761338641665766,-3.249018833596386,-1.6985728106863658],[1.8646699285091217,0.6673303683028399,-0.7761824261883231,-1.1677022394476233],[-2.419549357803139,-2.846134892661631,5.558736384774558,3.9374298247255064]],"accuracy_validation":0.8888888888888888,"mse_training":0.1523809523809524,"accuracy_training":0.9238095238095239,"mse_validation":0.2222222222222222,"bias":-4.9067542695166475E-17},{"epoch":31,"weights":[[1.6849952538895465,3.6441073269361444,-3.211227317934352,-1.6809694800852186],[1.8555798546676405,0.6522635032828362,-0.7623046346760965,-1.152856965117523],[-2.396759962400855,-2.7990414904111978,5.507067077600297,3.9049812197942577]],"accuracy_validation":0.8888888888888888,"mse_training":0.1523809523809524,"accuracy_training":0.9238095238095239,"mse_validation":0.2222222222222222,"bias":-1.099895542484724E-17},{"epoch":30,"weights":[[1.6709294004822772,3.6111717875743348,-3.1724152406007673,-1.6629031549172006],[1.8462383124064492,0.6365719479048878,-0.7478025340323157,-1.1377653115745185],[-2.373352566732394,-2.750414395671439,5.4537528996229305,3.8718232410832347]],"accuracy_validation":0.8888888888888888,"mse_training":0.1523809523809524,"accuracy_training":0.9238095238095239,"mse_validation":0.2222222222222222,"bias":3.730876398448686E-17},{"epoch":29,"weights":[[1.656476594004739,3.5772820582731373,-3.132531772594265,-1.6443510317414576],[1.836681989888988,0.6201267716444844,-0.7326239050158604,-1.1224888137974403],[-2.349343437737396,-2.7000794901098364,5.398690802599977,3.8379946201304147]],"accuracy_validation":0.8888888888888888,"mse_training":0.1523809523809524,"accuracy_training":0.9238095238095239,"mse_validation":0.2222222222222222,"bias":5.2402712998370134E-17},{"epoch":28,"weights":[[1.6416142472429123,3.5423900254139995,-3.091522926729367,-1.6252885695166637],[1.8269610622305217,0.6027803570044131,-0.7167183181230168,-1.1071032959959453],[-2.3247601633171,-2.6478410426106285,5.341776369842238,3.803546640104124]],"accuracy_validation":0.8888888888888888,"mse_training":0.1523809523809524,"accuracy_training":0.9238095238095239,"mse_validation":0.2222222222222222,"bias":-2.5314812793503158E-17},{"epoch":27,"weights":[[1.626316210050016,3.506443078330531,-3.049330889431839,-1.6056890338647278],[1.8171351595240934,0.5843701251187774,-0.7000357566673696,-1.0916933601354308],[-2.2996362234177754,-2.5934838636415254,5.282901771089061,3.768537168591674]],"accuracy_validation":0.8888888888888888,"mse_training":0.1523809523809524,"accuracy_training":0.9238095238095239,"mse_validation":0.2222222222222222,"bias":-2.3878025062962216E-17},{"epoch":26,"weights":[[1.610551290962594,3.46938209079552,-3.0058928356923746,-1.5855228381760265],[1.8072659208461614,0.5647250362991028,-0.6825237342931672,-1.0763433818968435],[-2.274002065652422,-2.53677778728684,5.221951694975391,3.7330209946643884]],"accuracy_validation":0.8888888888888888,"mse_training":0.1523809523809524,"accuracy_training":0.9238095238095239,"mse_validation":0.2222222222222222,"bias":1.6224823057514175E-17},{"epoch":25,"weights":[[1.5942821014203967,3.4311392943094856,-2.9611392365734033,-1.5647567287159316],[1.7974064547579216,0.5436755534069831,-0.6641231188559028,-1.0611265641390801],[-2.247873410021985,-2.477485507908691,5.158797480419153,3.6970380674465293]],"accuracy_validation":0.8888888888888888,"mse_training":0.1523809523809524,"accuracy_training":0.9238095238095239,"mse_validation":0.2222222222222222,"bias":5.8935706919257904E-18},{"epoch":24,"weights":[[1.5774646746603367,3.3916366519274606,-2.9149920216611775,-1.54335301214929],[1.7875882833645764,0.5210684709328308,-0.6447632210185253,-1.0460947654684378],[-2.221237811868579,-2.4153757830525127,5.093290367669552,3.6606025522092467]],"accuracy_validation":0.8888888888888888,"mse_training":0.1523809523809524,"accuracy_training":0.9238095238095239,"mse_validation":0.2222222222222222,"bias":3.8531813337485177E-17},{"epoch":23,"weights":[[1.560049207953966,3.3507855167455967,-2.8673633472955267,-1.5212691794371247],[1.777805963262273,0.4967889438284395,-0.6243567943670808,-1.0312718000173164],[-2.1940400250599037,-2.3502451207662594,5.025255266652456,3.6236957540459587]],"accuracy_validation":0.8888888888888888,"mse_training":0.1523809523809524,"accuracy_training":0.9238095238095239,"mse_validation":0.2222222222222222,"bias":9.774888172531431E-18},{"epoch":22,"weights":[[1.5419818875625737,3.3084880468535927,-2.8181556820573888,-1.4984582291380375],[1.767999179628421,0.4707914311982651,-0.6027952224811015,-1.0166513420946661],[-2.1661659210346578,-2.2819501382440808,4.9544860295283355,3.586264345824222]],"accuracy_validation":0.8888888888888888,"mse_training":0.1523809523809524,"accuracy_training":0.9238095238095239,"mse_validation":0.2222222222222222,"bias":-6.377664916369317E-18},{"epoch":21,"weights":[[1.5232070445918942,3.2646396386807295,-2.767262863023061,-1.4748694721828977],[1.7580329358774798,0.44313652733983067,-0.5799432722294908,-1.0021981770087856],[-2.1374248343130398,-2.2104468262127823,4.8807412602424005,3.5482224237832014]],"accuracy_validation":0.8888888888888888,"mse_training":0.1523809523809524,"accuracy_training":0.9238095238095239,"mse_validation":0.2222222222222222,"bias":-2.3002760092638753E-17},{"epoch":20,"weights":[[1.5036682467150364,3.2191301461356447,-2.7145702722117875,-1.4504488838085605],[1.7476784137650363,0.4140240545019029,-0.5556323759402625,-0.9878492236332675],[-2.10753151432374,-2.1358248608297696,4.803737773141901,3.5094528820333455]],"accuracy_validation":0.8888888888888888,"mse_training":0.1523809523809524,"accuracy_training":0.9238095238095239,"mse_validation":0.2222222222222222,"bias":3.3350405370057573E-18},{"epoch":19,"weights":[[1.4833074565858329,3.1718421074035335,-2.659952622192928,-1.425138251011202],[1.7365981185839252,0.38381368913642433,-0.529653913027679,-0.973509981878051],[-2.076090429013426,-2.0583264567321784,4.723141660210458,3.469803007480769]],"accuracy_validation":0.8888888888888888,"mse_training":0.1523809523809524,"accuracy_training":0.9238095238095239,"mse_validation":0.2222222222222222,"bias":9.706403790714443E-18},{"epoch":18,"weights":[[1.4620639019466395,3.1226477197410833,-2.6032707789852276,-1.3988738611253275],[1.7243392115685088,0.35303448330864184,-0.5017597003020655,-0.9590469655953797],[-2.0425879673588163,-1.978352863241944,4.6385656042771455,3.429075601312225]],"accuracy_validation":0.8888888888888888,"mse_training":0.1523809523809524,"accuracy_training":0.9238095238095239,"mse_validation":0.2222222222222222,"bias":2.404692023476297E-17},{"epoch":17,"weights":[[1.4398764534842874,3.0714087288717016,-2.5443705361494895,-1.371586300227586],[1.7103419209602497,0.32238716129820477,-0.4716809607137542,-0.9442850733902899],[-2.0064032282882063,-1.8964665503621283,4.549586621853098,3.3870261482093955]],"accuracy_validation":0.8888888888888888,"mse_training":0.1523809523809524,"accuracy_training":0.9238095238095239,"mse_validation":0.2222222222222222,"bias":6.391381946166178E-17},{"epoch":16,"weights":[[1.416689026489105,3.017976851701148,-2.4830800929546393,-1.3431998185768814],[1.69397329483567,0.29272123280517237,-0.4391704303180372,-0.9290108420605545],[-1.9668471751684418,-1.8133687446985407,4.455785648262529,3.343365435228956]],"accuracy_validation":0.8888888888888888,"mse_training":0.1523809523809524,"accuracy_training":0.9238095238095239,"mse_validation":0.2222222222222222,"bias":3.1633045738122687E-17},{"epoch":15,"weights":[[1.3924470756099507,2.9621780503613975,-2.4191914219105297,-1.3136236650373665],[1.6745878740981153,0.2649394262500717,-0.4040482712175834,-0.9129539684022809],[-1.923219803551734,-1.7297881368036911,4.3567748181179615,3.2977324080311665]],"accuracy_validation":0.8888888888888888,"mse_training":0.1523809523809524,"accuracy_training":0.9238095238095239,"mse_validation":0.2222222222222222,"bias":-8.466504113551036E-18},{"epoch":14,"weights":[[1.3670743241897947,2.903768809946701,-2.3524162544103735,-1.282730422482643],[1.651591549561792,0.23981859183300677,-0.3662154762435393,-0.8957331111526158],[-1.8748507275952546,-1.6462580619719294,4.252166855643764,3.2496183082267787]],"accuracy_validation":0.8888888888888888,"mse_training":0.1523809523809524,"accuracy_training":0.9238095238095239,"mse_validation":0.2222222222222222,"bias":1.6459479112094855E-17},{"epoch":13,"weights":[[1.3404459916260154,2.8423902094258926,-2.282339867357448,-1.2503329952827453],[1.6244668752973095,0.217856965145943,-0.325629080766173,-0.876833748193494],[-1.8210977207669907,-1.5629178347640555,4.141504073113474,3.1983215180677576]],"accuracy_validation":0.8888888888888888,"mse_training":0.1523809523809524,"accuracy_training":0.9238095238095239,"mse_validation":0.2222222222222222,"bias":2.6178955809479573E-17},{"epoch":12,"weights":[[1.3123827620676265,2.777552623142542,-2.208402089618218,-1.2161752528742782],[1.5927346469593076,0.19926700572333486,-0.2822661706584327,-0.8556831198905949],[-1.7613022628705997,-1.4794902890580943,4.024203385266507,3.1430131473563927]],"accuracy_validation":0.8888888888888888,"mse_training":0.1523809523809524,"accuracy_training":0.9238095238095239,"mse_validation":0.2222222222222222,"bias":1.8034907899305827E-17},{"epoch":11,"weights":[[1.2826576841923116,2.7086359668799873,-2.1298933385474554,-1.1799303778472368],[1.5558651046064191,0.18407071140666367,-0.23609088834140055,-0.8317662110019804],[-1.6947076426423973,-1.3953773384788688,3.8995193518787117,3.0828513634407377]],"accuracy_validation":0.8888888888888888,"mse_training":0.19047619047619047,"accuracy_training":0.9047619047619048,"mse_validation":0.2222222222222222,"bias":3.7791772524747326E-17},{"epoch":10,"weights":[[1.2509951065262963,2.6348681166347694,-2.0459273707568952,-1.1411888425619485],[1.513165569872592,0.1721933981229293,-0.18704672091830235,-0.8046598686878519],[-1.6203455302425542,-1.3097321749499182,3.766509216665054,3.0170034858413213]],"accuracy_validation":0.8666666666666667,"mse_training":0.19047619047619047,"accuracy_training":0.9047619047619048,"mse_validation":0.26666666666666666,"bias":2.920130323215629E-17},{"epoch":9,"weights":[[1.2170570094628763,2.5552605436111664,-1.955358755950538,-1.0994222946437533],[1.4636448811576193,0.16354745577072752,-0.13512967569043735,-0.7738838417495164],[-1.536886744464159,-1.2214786595741116,3.624023556630831,2.9444609109847932]],"accuracy_validation":0.8444444444444444,"mse_training":0.19047619047619047,"accuracy_training":0.9047619047619048,"mse_validation":0.3111111111111111,"bias":2.6214633980764817E-17},{"epoch":8,"weights":[[1.1804134674802953,2.468485784090914,-1.8566345293948097,-1.0539163443629456],[1.405834220050011,0.1581522459540708,-0.08054229089727677,-0.7386385373526199],[-1.442432541373969,-1.1293086902372018,3.4707119452819435,2.8637096563070887]],"accuracy_validation":0.8444444444444444,"mse_training":0.22857142857142856,"accuracy_training":0.8857142857142857,"mse_validation":0.3111111111111111,"bias":4.8306561755705606E-17},{"epoch":7,"weights":[[1.1404869771323214,2.3726899976835236,-1.747610659099798,-1.0036793806677482],[1.3375762976158212,0.15622224282982616,-0.023733584215985325,-0.6977280177323617],[-1.3342481285918066,-1.0315829007055695,3.3048793683056408,2.7725621729916328]],"accuracy_validation":0.8444444444444444,"mse_training":0.22857142857142856,"accuracy_training":0.8857142857142857,"mse_validation":0.3111111111111111,"bias":6.69771323786098E-18},{"epoch":6,"weights":[[1.0965188884609696,2.265364552498478,-1.6254830241905378,-0.9473982018057677],[1.2560280568126267,0.1579265846267219,0.034917755133438255,-0.6497360216855352],[-1.2087317991172604,-0.9259617973174189,3.1241003940469585,2.6682889980828266]],"accuracy_validation":0.8222222222222222,"mse_training":0.26666666666666666,"accuracy_training":0.8666666666666667,"mse_validation":0.35555555555555557,"bias":5.01356353025206E-17},{"epoch":5,"weights":[[1.0476463798234956,2.143623417060544,-1.4871530590753854,-0.8835969793651055],[1.1585594721707595,0.16276398910066747,0.09580328344335175,-0.5930356873734439],[-1.0623907058379205,-0.8090580663534305,2.9248849006218913,2.5477874413300707]],"accuracy_validation":0.7555555555555555,"mse_training":0.3619047619047619,"accuracy_training":0.819047619047619,"mse_validation":0.4888888888888889,"bias":7.171182213449258E-17},{"epoch":4,"weights":[[0.9926616763468789,2.0044186698046373,-1.3292029724190433,-0.81061122489541],[1.043622291931158,0.17106289811214737,0.16079912372203994,-0.5244894342560247],[-0.8924688221217031,-0.6781522281090044,2.7019389736868598,2.4062554337429534]],"accuracy_validation":0.7333333333333333,"mse_training":0.45714285714285713,"accuracy_training":0.7714285714285715,"mse_validation":0.5333333333333333,"bias":4.876110596991887E-17},{"epoch":3,"weights":[[0.9288326420727757,1.8432471755220885,-1.1461493907699354,-0.7257204775446153],[0.9070582906867197,0.18696197150937366,0.23093150363455434,-0.43876072024867036],[-0.6920757866031626,-0.5328798072236821,2.448753012125239,2.2356359723848067]],"accuracy_validation":0.6666666666666666,"mse_training":0.6285714285714286,"accuracy_training":0.6857142857142857,"mse_validation":0.6666666666666666,"bias":7.454175412410848E-17},{"epoch":2,"weights":[[0.8466457949734328,1.6537818106872488,-0.9369668293309141,-0.62771316062123],[0.7254990048935179,0.20289500996430607,0.3011601614752387,-0.33127886527582945],[-0.4283296537106167,-0.359347480843775,2.1693417928455325,2.0301468004885788]],"accuracy_validation":0.6444444444444445,"mse_training":0.6476190476190476,"accuracy_training":0.6761904761904762,"mse_validation":0.7111111111111111,"bias":1.4059675427743105E-16},{"epoch":1,"weights":[[0.7580466880289296,1.4408037706745027,-0.6904453573529435,-0.5132088729681287],[0.5294453140751488,0.22569903718727363,0.4066068103467935,-0.18626772187557145],[-0.14367685594774637,-0.16917346805399705,1.8173736719960063,1.7706313694352194]],"accuracy_validation":0.6444444444444445,"mse_training":0.6476190476190476,"accuracy_training":0.6761904761904762,"mse_validation":0.7111111111111111,"bias":1.0546237819673841E-16},{"epoch":0,"weights":[[0.6853497516391026,1.202197001033983,-0.3626025793166824,-0.3641108872456559],[0.31796422934866453,0.25917415050720694,0.5426745782669393,-0.0025856119758334286],[0.14050116516856462,0.035958188266589086,1.3534631260395993,1.437851273813008]],"accuracy_validation":0.6444444444444445,"mse_training":0.6476190476190476,"accuracy_training":0.6761904761904762,"mse_validation":0.7111111111111111,"bias":3.4076474281219406E-17}]