[{"epoch":99,"weights":[[0.5186389762767485,-0.062253887908923916,-3.1740721518430615,-1.2526106928051066,0.10405260611940541,-0.19388178529517905,0.12073554468741586,-2.3830885374966586,-0.035019375630086044,-0.09630991983214518,-0.09119361090667069,0.11995754908038579,-0.06289725767888235,-0.08962229539395822,-0.19098763086162843,-0.11677992529442681,0.07123900324748968,0.3616278745476787,-0.2945302875843346,0.5689409263590703,0.0604414540788174,-0.08181426028852035],[-0.5123535001981618,0.07519108663024511,3.1873471626525367,1.2702443007112394,-0.10119069427004801,0.20091136964541598,-0.10955429566177231,2.3902877903444457,0.052283712862587574,0.10811914470509157,0.1044687341609968,-0.111658120614136,0.07147245132259278,0.09633993554918333,0.20125665852687954,0.12455469953711255,-0.05978573594945044,-0.360136636813193,0.3035531224533388,-0.554735141142287,-0.048521156805405696,0.08803552282731025]],"accuracy_validation":0.8471138845553822,"mse_training":0.3391188251001335,"accuracy_training":0.8304405874499332,"mse_validation":0.30577223088923555,"bias":5.959005881999094E-20},{"epoch":98,"weights":[[0.5897885588512221,-0.06221835796363184,-3.165571893487488,-1.2772271507480137,0.10345274768489438,-0.19271556112168506,0.11895542211032371,-2.365042581490149,-0.03451938030288823,-0.09563903865184142,-0.08123218563025313,0.11886191569107213,-0.06276105470189369,-0.08895541956201804,-0.1892167487353455,-0.11547852884197743,0.07046233823655018,0.3571587908159237,-0.24908218415768607,0.5639020977667761,-0.019867915632749353,-0.07081703600131194],[-0.5835030827726354,0.07515555668495302,3.178846904296963,1.2948607586541465,-0.10059083583553698,0.199745145471922,-0.10777417308468017,2.372241834337936,0.05178371753538976,0.10744826352478781,0.09450730888457926,-0.11056248722482234,0.07133624834560412,0.09567305971724314,0.19948577640059661,0.12325330308466317,-0.05900907093851098,-0.35566755308143805,0.2581050190266905,-0.5496963125499925,0.031788212906161226,0.07703829854010212]],"accuracy_validation":0.8486739469578783,"mse_training":0.33377837116154874,"accuracy_training":0.8331108144192256,"mse_validation":0.30265210608424337,"bias":6.294532756902279E-20},{"epoch":97,"weights":[[0.3981370800845698,-0.061811848981867354,-3.159684548702849,-1.288488543874574,0.102213490863359,-0.19100105675034806,0.11805716864718392,-2.3766395974361796,-0.034219146792731685,-0.09497626846085654,-0.09891827561357139,0.11776830744951235,-0.06227923004820985,-0.08868777864612641,-0.1882991461645441,-0.11421077699320731,0.06973702901913993,0.3535793336452873,-0.1695477859121995,0.5790713565765659,0.0826735840303294,0.062028859333716095],[-0.39185160400598285,0.07474904770318856,3.172959559512324,1.3061221517807067,-0.0993515790140016,0.198030641100585,-0.10687591962154037,2.3838388502839667,0.051483484025233214,0.10678549333380292,0.11219339886789752,-0.10946887898326256,0.07085442369192019,0.09540541880135152,0.19856817382979522,0.12198555123589305,-0.05828376172110067,-0.35208809591080165,0.17857062078120395,-0.5648655713597821,-0.07075328675691747,-0.05580759679492576]],"accuracy_validation":0.8299531981279251,"mse_training":0.33511348464619495,"accuracy_training":0.8324432576769025,"mse_validation":0.34009360374414976,"bias":2.0868951723492526E-20},{"epoch":96,"weights":[[0.4862369794247207,-0.06056036503688182,-3.1547890844694395,-1.3356816255025585,0.10101382600050794,-0.18937324563036634,0.11715711122066678,-2.43192206205834,-0.03361914679273167,-0.09466281942763276,-0.06044933067873952,0.11638535050337406,-0.06195137454264377,-0.08827432961478585,-0.18794413406682844,-0.11297598903728295,0.06875096891521003,0.34897330368026996,-0.30324548833276777,0.5017085984200379,-0.049065683594259446,0.08927185557390886],[-0.47995150334613385,0.07349756375820311,3.1680640952789147,1.3533152334086913,-0.09815191415115054,0.19640282998060327,-0.10597586219502324,2.439121314906127,0.0508834840252332,0.10647204430057915,0.07372445393306555,-0.10808592203712428,0.07052656818635406,0.09499196977001095,0.19821316173207956,0.1207507632799687,-0.05729770161717076,-0.3474820659457843,0.3122683232017721,-0.48750281320325417,0.06098598086767154,-0.08305059303511846]],"accuracy_validation":0.8299531981279251,"mse_training":0.3484646194926569,"accuracy_training":0.8257676902536716,"mse_validation":0.34009360374414976,"bias":4.844711576419647E-20},{"epoch":95,"weights":[[0.5479929184730448,-0.05795933478617129,-3.136510254664632,-1.2924208313867676,0.09985787228328503,-0.18707034524237484,0.11605750746131613,-2.3926853913930337,-0.033219146792731656,-0.09347235419939613,-0.08645082115120699,0.11583440897918604,-0.06095787767578849,-0.087381487274942,-0.18592619735184826,-0.11157598903735905,0.06884700804031853,0.34587778388333607,-0.2886273617129524,0.5313797257584962,0.014989670471094577,0.03611174816548119],[-0.5417074423944583,0.07089653350749259,3.149785265474107,1.3100544392929006,-0.09699596043392764,0.19409992959261177,-0.10487625843567258,2.399884644240821,0.050483484025233186,0.10528157907234252,0.09972594440553295,-0.10753498051293625,0.06953307131949875,0.0940991274301671,0.19619522501709938,0.11935076328004479,-0.05739374074227924,-0.3443865461488504,0.2976501965819566,-0.5171739405417123,-0.0030693731976826483,-0.029890485626690673]],"accuracy_validation":0.8486739469578783,"mse_training":0.34579439252336447,"accuracy_training":0.8271028037383178,"mse_validation":0.30265210608424337,"bias":-6.102689047700932E-20},{"epoch":94,"weights":[[0.45591925695279634,-0.05662230907860664,-3.141434668598988,-1.310542183142363,0.09915787228216988,-0.18585110158146195,0.11435771890269686,-2.4177992367956036,-0.03291551439956799,-0.09294204872979688,-0.09989681341234732,0.11443552611918893,-0.060538633880634116,-0.08735087310767985,-0.18535497254130623,-0.11076948503543514,0.06836972312355986,0.3417153295529797,-0.30213917185999273,0.5654216351399883,0.08413074743653767,-0.07884800471776922],[-0.44963378087420947,0.06955950779992807,3.1547096794084633,1.328175791048496,-0.09629596043281248,0.19288068593169888,-0.10317646987705331,2.4249984896433907,0.05017985163206952,0.10475127360274326,0.11317193666667341,-0.10613609765293915,0.06911382752434442,0.09406851326290495,0.19562400020655735,0.11854425927812089,-0.05691645582552057,-0.340224091818494,0.3111620067289971,-0.5512158499232045,-0.07221045016312558,0.0850692672565599]],"accuracy_validation":0.8096723868954758,"mse_training":0.4032042723631509,"accuracy_training":0.7983978638184246,"mse_validation":0.38065522620904835,"bias":-5.017722520260533E-20},{"epoch":93,"weights":[[0.42882226564784054,-0.05672720334924608,-3.1509178275826915,-1.3550542514837634,0.09815788655612862,-0.18426718106611864,0.11245766084318853,-2.458265098232238,-0.03241911217948215,-0.09236180470307351,-0.09090859144631294,0.11243085196827048,-0.060254884031013006,-0.08677199263120303,-0.18505613300455026,-0.11006971493521905,0.06749857747234853,0.3369526485554008,-0.1941445518527751,0.5447049454272647,0.02921553039082636,0.09645777159456598],[-0.4225367895692534,0.06966440207056768,3.1641928383921667,1.3726878593898963,-0.09529597470677122,0.19129676541635557,-0.10127641181754499,2.465464351080025,0.04968344941198368,0.1041710295760199,0.10418371470063914,-0.10413142350202069,0.06883007767472328,0.09348963278642813,0.19532516066980138,0.1178444891779048,-0.05604531017430925,-0.33546141082091513,0.2031673867217794,-0.5304991602104813,-0.017295233117414315,-0.0902365090557752]],"accuracy_validation":0.8330733229329174,"mse_training":0.3417890520694259,"accuracy_training":0.829105473965287,"mse_validation":0.3338533541341654,"bias":-4.942587913761512E-20},{"epoch":92,"weights":[[0.5843771431075249,-0.05469848726074172,-3.1308304486899385,-1.341330350657178,0.09716191223776308,-0.18205070570835,0.11135680196726142,-2.434138811208983,-0.032119110633891765,-0.09098817074908776,-0.01138483324440991,0.11152599378762117,-0.059834395122852074,-0.08520100203640611,-0.18212211573448076,-0.10860723095593619,0.06708660391988538,0.3331375600390444,-0.22759469856961229,0.5027064881661315,0.028622421041570957,-0.08908193498478446],[-0.5780916670289373,0.0676356859820634,3.144105459499414,1.358963958563311,-0.09430000038840568,0.1890802900585869,-0.10017555294161787,2.44133806405677,0.049383447866393294,0.10279739562203415,0.024659956498736053,-0.10322656532137138,0.06840958876656236,0.09191864219163122,0.19239114339973187,0.11638200519862194,-0.05563333662184611,-0.3316463223045587,0.2366175334386167,-0.48850070294934794,-0.01670212376815939,0.09530319752357515]],"accuracy_validation":0.8533541341653667,"mse_training":0.3391188251001335,"accuracy_training":0.8304405874499332,"mse_validation":0.29329173166926675,"bias":-1.421871317386825E-19},{"epoch":91,"weights":[[0.5609863789658283,-0.05258774958422558,-3.1195582811404785,-1.350147275475458,0.09621235924782187,-0.18023863368692364,0.11064371729721247,-2.436790491591761,-0.0319757465611541,-0.0901887563031467,-0.09211519443754247,0.10988197438958226,-0.059271876088088996,-0.08455694302696605,-0.18091593767019923,-0.10783771781244292,0.06704982737246876,0.32948666876662397,-0.25545806979505564,0.5361312693466336,0.005560847551721426,-0.04332232241937246],[-0.5547009028872405,0.0655249483055474,3.1328332919499537,1.367780883381591,-0.09335044739846447,0.18726821803716054,-0.09946246827156892,2.443989744439548,0.04924008379365563,0.10199798117609309,0.10539031769186875,-0.10158254592333248,0.0678470697317993,0.09127458318219116,0.19118496533545035,0.11561249205512866,-0.05559656007442951,-0.3279954310321383,0.2644809046640603,-0.5219254841298502,0.006359449721690058,0.049543584958163085]],"accuracy_validation":0.8455538221528861,"mse_training":0.3324432576769025,"accuracy_training":0.8337783711615487,"mse_validation":0.3088923556942278,"bias":-1.0013864374409711E-19},{"epoch":90,"weights":[[0.5372146609583782,-0.050863434254290185,-3.1040519618341063,-1.3666593805800784,0.0951123592469576,-0.17825828445075875,0.10914370239446078,-2.4436065592340497,-0.03147574656115409,-0.08935254231009371,-0.014667440524622509,0.1089602628570149,-0.05869152796187697,-0.08384112034304128,-0.17938420514986447,-0.1071260902993934,0.0665700410041018,0.3255456366649692,-0.2908401642275268,0.5192177150323283,-0.01654448848539812,-0.16799177634876067],[-0.5309291848797902,0.06380063297561211,3.1173269726435815,1.3842929884862114,-0.0922504473976002,0.18528786880099565,-0.09796245336881723,2.450805812081837,0.04874008379365562,0.1011617671830401,0.027942563778948843,-0.10066083439076512,0.06726672160558728,0.09055876049826639,0.1896532328151156,0.11490086454207915,-0.05511677370606258,-0.32405439893048354,0.29986299909653163,-0.5050119298155451,0.028464785758809712,0.17421303888755146]],"accuracy_validation":0.6536661466458659,"mse_training":0.7089452603471295,"accuracy_training":0.6455273698264352,"mse_validation":0.6926677067082684,"bias":-1.9823483395622146E-20},{"epoch":89,"weights":[[0.5920697723397171,-0.0492287620800123,-3.077254850640791,-1.3529967751310201,0.09381235369641949,-0.176083881052668,0.10854170690863096,-2.420181874151468,-0.031179896450443608,-0.08855129434037641,-0.059828290362152176,0.10695274665681209,-0.05802545709954073,-0.08308342350609285,-0.17780485839690988,-0.10601969411775536,0.06650379190312541,0.32178098705395336,-0.23648213516064898,0.5040399196506815,0.010451521754089144,-0.10238156377806885],[-0.5857842962611296,0.062165960801334276,3.0905298614502663,1.3706303830371531,-0.0909504418470621,0.18311346540290493,-0.09736045788298742,2.427381126999255,0.048444233682945134,0.1003605192133228,0.07310341361647857,-0.0986533181905623,0.06660065074325106,0.08980106366131796,0.188073886062161,0.1137944683604411,-0.05505052460508618,-0.3202897493194677,0.24550497002965377,-0.4898341344338982,0.0014687755193222435,0.10860282631685951]],"accuracy_validation":0.8486739469578783,"mse_training":0.35246995994659547,"accuracy_training":0.8237650200267023,"mse_validation":0.30265210608424337,"bias":-4.1360796520426904E-20},{"epoch":88,"weights":[[0.43423308364430835,-0.04655627345305294,-3.051811395547102,-1.323501546397875,0.09299384154701743,-0.17408865235249807,0.10684402102489855,-2.3753103991708104,-0.0309911537297213,-0.08735424170817481,-0.12251208573342565,0.10595561331858999,-0.057546251969963436,-0.0821977988764241,-0.17554284962845507,-0.10441965876053907,0.06639440922125626,0.3184695915832683,-0.18439004109666254,0.4454540324953787,0.03297621117099385,0.06455621581116426],[-0.42794760756572103,0.05949347217437495,3.0650864063565773,1.341135154304008,-0.09013192969766003,0.181118236702735,-0.095662771999255,2.382509652018598,0.04825549096222283,0.0991634665811212,0.13578720898775187,-0.0976561848523402,0.06612144561367377,0.08891543903164921,0.18581187729370618,0.11219443300322482,-0.05494114192321701,-0.31697835384878265,0.1934128759656672,-0.4312482472785953,-0.02105591389758233,-0.05833495327237365]],"accuracy_validation":0.8252730109204368,"mse_training":0.37783711615487314,"accuracy_training":0.8110814419225634,"mse_validation":0.3494539781591264,"bias":-1.2150953437054024E-19},{"epoch":87,"weights":[[0.4794937279430181,-0.0453965212517879,-3.0363205211508943,-1.3495492705277048,0.09241581178115985,-0.1730053384719899,0.10544451057100346,-2.385703350266834,-0.03069115389301722,-0.08633773208104766,-0.11691315594296661,0.10484781647064391,-0.057540478318015766,-0.08148128849921497,-0.17393965904288672,-0.10332864980410203,0.06567819598025486,0.3147592776994059,-0.1655784278605864,0.45931601335382943,0.06597065995369009,0.03663319757894896],[-0.473208251864431,0.05833371997310991,3.0495955319603696,1.3671828784338378,-0.08955389993180245,0.18003492282222683,-0.09426326154535991,2.3929026031146217,0.04795549112551874,0.09814695695399404,0.13018827919729273,-0.09654838800439412,0.06611567196172612,0.08819892865444008,0.18420868670813784,0.11110342404678777,-0.05422492868221563,-0.31326803996492025,0.1746012627295911,-0.44511022813704565,-0.054050362680278324,-0.03041193504015844]],"accuracy_validation":0.8330733229329174,"mse_training":0.3404539385847797,"accuracy_training":0.8297730307076101,"mse_validation":0.3338533541341654,"bias":-1.4735750315048103E-19},{"epoch":86,"weights":[[0.5263104980963429,-0.04563117272867482,-3.0165022768971013,-1.3679734857658976,0.09141052454812156,-0.17092558674190297,0.10421254130108916,-2.385625571850688,-0.030691153880501705,-0.08464697038655686,-0.1251308987225873,0.10364752518493471,-0.05723188438412748,-0.0801508294311431,-0.17167035726903226,-0.1021889764613089,0.06472566195430375,0.31044467879979565,-0.21450016720918574,0.4819472095679776,0.05913926164642361,0.03754131685102625],[-0.5200250220177558,0.05856837144999683,3.0297772877065765,1.3856070936720306,-0.08854861269876416,0.1779551710921399,-0.09303129227544561,2.3928248246984754,0.047955491113003214,0.09645619525950325,0.13840602197691343,-0.09534809671868492,0.06580707802783785,0.08686846958636821,0.18193938493428338,0.10996375070399464,-0.053272394656264536,-0.30895344106531,0.22352300207819054,-0.46774142435119415,-0.0472189643730115,-0.03132005431223551]],"accuracy_validation":0.8393135725429017,"mse_training":0.34579439252336447,"accuracy_training":0.8271028037383178,"mse_validation":0.3213728549141966,"bias":-1.0132168257983233E-19},{"epoch":85,"weights":[[0.5330186273946158,-0.045119654787372884,-3.0053398294996123,-1.3644867472083944,0.09051050995362986,-0.16859567809734052,0.10298566911533877,-2.3973626633410317,-0.03019115377685867,-0.08424507789734936,-0.16752271532133028,0.10212210472269818,-0.05610199048262176,-0.07964893694143949,-0.17057613371094402,-0.10136939083378431,0.06399500993847448,0.3070195899231911,-0.18524912490522505,0.48868096656930354,0.028174489510139525,0.026051081212725154],[-0.5267331513160287,0.0580568535086949,3.0186148403090876,1.3821203551145274,-0.08764859810427246,0.17562526244757745,-0.09180442008969522,2.404561916188819,0.04745549100936016,0.09605430277029575,0.1807978385756563,-0.0938226762564484,0.06467718412633214,0.08636657709666459,0.18084516137619513,0.10914416507647005,-0.0525417426404353,-0.30552835218870544,0.19427195977422979,-0.4744751813525197,-0.016254192236727708,-0.019829818673934747]],"accuracy_validation":0.8268330733229329,"mse_training":0.3538050734312417,"accuracy_training":0.8230974632843792,"mse_validation":0.3463338533541342,"bias":-1.9244610000641474E-19},{"epoch":84,"weights":[[0.5511804620776839,-0.0437012410422947,-2.982063833731328,-1.3405330685435504,0.08939823765627483,-0.1667066347484356,0.10198769619038117,-2.3825169126740464,-0.029686362786770976,-0.08356044546777891,-0.09821202032849988,0.1009998474552212,-0.05552286387169983,-0.0786643045203833,-0.16863863590490966,-0.10016208947674206,0.06386654910413339,0.3031000692483684,-0.17501984167942874,0.45057267041559207,-0.001794695627363882,-0.025573660583267918],[-0.5448949859990972,0.05663843976361671,2.9953388445408033,1.3581666764496834,-0.08653632580691743,0.17373621909867254,-0.09080644716473762,2.389716165521834,0.04695070001927244,0.0953696703407253,0.11148714358282583,-0.09270041898897141,0.06409805751541019,0.0853819446756084,0.17890766357016077,0.1079368637194278,-0.052413281806094204,-0.30160883151388274,0.18404267654843348,-0.43636688519880845,0.0137149929007757,0.0317949231220583]],"accuracy_validation":0.8471138845553822,"mse_training":0.3311081441922563,"accuracy_training":0.8344459279038718,"mse_validation":0.30577223088923555,"bias":-2.3410358576226824E-19},{"epoch":83,"weights":[[0.49692664826919325,-0.04469053939037099,-2.9592276369715025,-1.328459900123026,0.08840159193535577,-0.16477079975148157,0.10068787781281263,-2.3716990456125853,-0.029486362786770977,-0.08214591916432261,-0.10931978494351735,0.10012308130959327,-0.05496841585901097,-0.07783596690148072,-0.16723629439185345,-0.09846197850332018,0.06287146919621295,0.29930478410624445,-0.17820986508935027,0.4382682064127571,0.12365188108167205,-0.006259465944765438],[-0.49064117219060704,0.057627738111693,2.9725026477809777,1.346093508029159,-0.08553968008599837,0.1718003841017185,-0.08950662878716908,2.378898298460373,0.04675070001927244,0.093955144037269,0.12259490819784324,-0.09182365284334348,0.06354360950272134,0.08455360705670582,0.17750532205710456,0.10623675274600593,-0.05141820189817375,-0.2978135463717588,0.187232699958355,-0.4240624211959738,-0.11173158380826018,0.01248072848355565]],"accuracy_validation":0.8299531981279251,"mse_training":0.35514018691588783,"accuracy_training":0.822429906542056,"mse_validation":0.34009360374414976,"bias":-2.9344067296365465E-19},{"epoch":82,"weights":[[0.4141551008175468,-0.04349085402222229,-2.9402195356672296,-1.3175236011929945,0.08750731019180047,-0.16250790155879327,0.09988787771446508,-2.3416934407729992,-0.02888636278677098,-0.08135174987234714,-0.03794004956354052,0.09879480593343833,-0.05419979950809559,-0.07694179760961087,-0.1647468508629996,-0.09736200957508725,0.062189454845519514,0.2962002963254535,-0.10203716234111104,0.5225944288081452,0.05683690159125348,0.026777584449052323],[-0.40786962473896027,0.0564280527435443,2.953494546476705,1.3351572090991275,-0.08464539834244307,0.1695374859090302,-0.08870662868882154,2.348892693620787,0.04615070001927242,0.09316097474529353,0.05121517281786636,-0.09049537746718854,0.06277499315180592,0.08365943776483598,0.1750158785282507,0.105136783817773,-0.050736187547480285,-0.29470905859096785,0.11105999721011572,-0.5083886435913618,-0.044916604317841675,-0.02055632191026211]],"accuracy_validation":0.8330733229329174,"mse_training":0.3444592790387183,"accuracy_training":0.8277703604806409,"mse_validation":0.3338533541341654,"bias":-2.6583728250302328E-19},{"epoch":81,"weights":[[0.41333540214445397,-0.043588919935959626,-2.929787799247722,-1.3474436012206055,0.08672172566176532,-0.1604972943307863,0.09820358617896152,-2.354425020443931,-0.028286362786770984,-0.08012607723958032,-0.09460014183832886,0.09771333014030402,-0.054115963875860734,-0.07566450119687312,-0.16280122483429385,-0.09663415518790744,0.06124787638957396,0.29249718231755295,-0.13248840818916646,0.4932983087816222,0.04730851968232813,0.07680928221143746],[-0.4070499260658673,0.05652611865728164,2.943062810057197,1.3650772091267385,-0.08385981381240792,0.16752687868102323,-0.08702233715331797,2.3616242732917185,0.0455507000192724,0.0919353021125267,0.10787526509265456,-0.08941390167405423,0.06269115751957112,0.08238214135209823,0.17307025249954497,0.10440892943059318,-0.049794609091534735,-0.2910059445830673,0.14151124305817103,-0.47909252356483817,-0.035388222408916314,-0.07058801967264738]],"accuracy_validation":0.8315132605304212,"mse_training":0.3404539385847797,"accuracy_training":0.8297730307076101,"mse_validation":0.3369734789391576,"bias":-2.0283592181470297E-19},{"epoch":80,"weights":[[0.39686231547221124,-0.044124785991683124,-2.910242943021688,-1.3451925749099747,0.08539655408425552,-0.15889251953273983,0.09740437661686151,-2.3506743881540464,-0.027686362786770988,-0.08000819440352665,-0.06396984635967476,0.09676139676397554,-0.053397974901677164,-0.07554661836081987,-0.1618175445447973,-0.0955342573307807,0.06002683315048042,0.28892749509347,-0.2694080375753186,0.44840255115054184,0.06244554593864951,0.027428197919045313],[-0.39057683939362503,0.05706198471300514,2.9235179538311633,1.3628261828161077,-0.08253464223489812,0.16592210388297676,-0.08622312759121796,2.357873641001834,0.044950700019272385,0.09181741927647304,0.07724496961400062,-0.08846196829772575,0.061973168545387564,0.08226425851604498,0.17208657221004842,0.10330903157346645,-0.04857356585244119,-0.2874362573589843,0.2784308724443234,-0.43419676593375744,-0.05052524866523758,-0.021206935380255185]],"accuracy_validation":0.8221528861154446,"mse_training":0.3751668891855808,"accuracy_training":0.8124165554072096,"mse_validation":0.35569422776911075,"bias":-1.2140526391208279E-19},{"epoch":79,"weights":[[0.46375966991738765,-0.04352280477264519,-2.8833874010670293,-1.3093965985622213,0.08439629865415586,-0.1563011761401533,0.09581934073749766,-2.308977283045778,-0.02698661821647345,-0.07919127778037831,-0.09206056232620577,0.09586497060171992,-0.05230688158673717,-0.07452993903345428,-0.15967988577939235,-0.09394564101015841,0.05922877785444242,0.2855177634252815,-0.22556328363628822,0.4340034978818488,0.03573580265978016,-0.01481924597637579],[-0.4574741938388012,0.0564600034939672,2.8966624118765045,1.3270302064683543,-0.08153438680479846,0.16333076049039022,-0.08463809171185412,2.3161765358935655,0.044250955448974824,0.0910005026533247,0.10533568558053173,-0.08756554213547013,0.06088207523044757,0.08124757918867939,0.16994891344464347,0.10172041525284416,-0.047775510556403195,-0.28402652569079584,0.234586118505293,-0.4197977126650647,-0.02381550538636812,0.021040508515166197]],"accuracy_validation":0.8361934477379095,"mse_training":0.34979973297730305,"accuracy_training":0.8251001335113485,"mse_validation":0.32761310452418096,"bias":-5.423621839347622E-20},{"epoch":78,"weights":[[0.38647304655543113,-0.04280698463034111,-2.853162163543579,-1.2951863852568677,0.08361190529058522,-0.15464797545969103,0.09472004368977553,-2.2764834439232393,-0.026286618216473455,-0.07780429931400781,-0.07702859844509885,0.09493275154396956,-0.05166725521534282,-0.07334227839312851,-0.15706550755090778,-0.09293304066190046,0.05866361177138249,0.2821667243484123,-0.12332827384313777,0.6334714059589414,0.06232447424781909,0.023987660544442513],[-0.3801875704768446,0.055744183351663125,2.866437174353054,1.3128199931630007,-0.08074999344122782,0.16167755980992796,-0.08353879466413199,2.283682696771027,0.043550955448974804,0.0896135241869542,0.09030372169942492,-0.08663332307771977,0.06024244885905322,0.08005991854835359,0.1673345352161589,0.1007078149045862,-0.04721034447334326,-0.2806754866139266,0.13235110871214262,-0.6192656207421571,-0.05040417697440707,-0.017766398005652002]],"accuracy_validation":0.8424336973478939,"mse_training":0.3364485981308411,"accuracy_training":0.8317757009345794,"mse_validation":0.31513260530421217,"bias":-1.9806363249246717E-20},{"epoch":77,"weights":[[0.43562281094459204,-0.04300133058652162,-2.8529995022033128,-1.317457007261015,0.08259209460851973,-0.15324282375529164,0.09401802891726711,-2.3014632780507225,-0.02568661821647821,-0.07631749678735819,-0.10352245708420596,0.09421027677775844,-0.051076158974390815,-0.07225547586618665,-0.15530645087948972,-0.09183505548034755,0.05806960121266749,0.27808599708981047,-0.2149067603041258,0.536224152556406,0.05563648636096059,0.04416643226627706],[-0.42933733486600517,0.05593852930784364,2.866274513012788,1.335090615167148,-0.07973018275916233,0.16027240810552856,-0.08283677989162357,2.30866253089851,0.04295095544897954,0.08812672166030458,0.11679758033853208,-0.08591084831150865,0.059651352618101214,0.07897311602141173,0.16557547854474083,0.0996098297230333,-0.046616333914628265,-0.2765947593553248,0.2239295951731307,-0.522018367339622,-0.043716189087548596,-0.03794516972748646]],"accuracy_validation":0.8346333853354134,"mse_training":0.33511348464619495,"accuracy_training":0.8324432576769025,"mse_validation":0.33073322932917315,"bias":2.165086195783287E-20},{"epoch":76,"weights":[[0.45952825915492806,-0.04471125673495315,-2.852349960365498,-1.3485429831052886,0.08152658656259498,-0.15214820745080643,0.09311302976711515,-2.3309475675827116,-0.025186619003816062,-0.0758870896700936,0.019231684739831473,0.09266041275102374,-0.05134693240785857,-0.07162400363847811,-0.15369503965979636,-0.09123405531235339,0.056858486929665164,0.2736829863464278,-0.2668691817114525,0.4955590746565361,0.010660625013950098,-0.08206742153402513],[-0.4532427830763412,0.05764845545627517,2.8656249711749733,1.3661765910114216,-0.07866467471323758,0.15917779180104336,-0.0819317807414716,2.338146820430499,0.04245095623631737,0.08769631454303999,-0.005956561485505343,-0.08436098428477395,0.05992212605156897,0.07834164379370319,0.16396406732504748,0.09900882955503913,-0.045405219631625936,-0.2721917486119421,0.2758920165804576,-0.4813532894397518,0.0012596722594617749,0.08828868407281587]],"accuracy_validation":0.7878315132605305,"mse_training":0.44058744993324434,"accuracy_training":0.7797062750333779,"mse_validation":0.4243369734789392,"bias":-1.4553679852504324E-20},{"epoch":75,"weights":[[0.47472401597689345,-0.045212502416924316,-2.833440419452973,-1.3507899769013776,0.08052659345266748,-0.15044586376955388,0.09201302976723634,-2.3217011192296697,-0.024886612116031083,-0.07468231518739298,-0.09752426366184655,0.09136021666605161,-0.05084458182008114,-0.07091922222795762,-0.1525825358478634,-0.089733621835711,0.05536149870209312,0.2697818501564569,-0.19172772858572734,0.43194730512427176,0.0029421319396501734,-0.018512039723615925],[-0.4684385398983068,0.058149701138246336,2.8467154302624484,1.3684235848075106,-0.07766468160331008,0.1574754481197908,-0.08083178074159279,2.3289003720774573,0.042150949348532384,0.08649154006033936,0.11079938691617267,-0.08306078819980182,0.05941977546379154,0.0776368623831827,0.16285156351311453,0.09750839607839674,-0.04390823140405389,-0.2682906124219712,0.2007505634547324,-0.4177415199074869,0.008978165333761525,0.024733302262406574]],"accuracy_validation":0.8252730109204368,"mse_training":0.38985313751668893,"accuracy_training":0.8050734312416555,"mse_validation":0.3494539781591264,"bias":-5.19745944712536E-20},{"epoch":74,"weights":[[0.5832396882385323,-0.04553045127563439,-2.8272294695514857,-1.3447202833729182,0.0795615635848878,-0.14898231428484676,0.09095977330145466,-2.2924437357040284,-0.024286612116031087,-0.07386396804789468,-0.1093335572866882,0.09058614250334959,-0.050427870122517864,-0.07010087589656544,-0.15073855434192257,-0.08836361844563063,0.05456314004792299,0.26617527133873375,-0.24540393697231622,0.41303927688082137,-0.06362156297675506,0.035258535790860086],[-0.5769542121599459,0.05846764999695642,2.840504480360961,1.3623538912790512,-0.07669965173553041,0.1560118986350837,-0.07977852427581111,2.2996429885518155,0.041550949348532366,0.08567319292084107,0.12260868054101431,-0.0822867140370998,0.05900306376622826,0.07681851605179052,0.1610075820071737,0.09613839268831638,-0.04310987274988376,-0.2646840336042481,0.25442677184132123,-0.39883349166403664,0.07554186025016671,-0.029037273252069125]],"accuracy_validation":0.8393135725429017,"mse_training":0.3404539385847797,"accuracy_training":0.8297730307076101,"mse_validation":0.3213728549141966,"bias":-5.803450052107228E-20},{"epoch":73,"weights":[[0.5397082600437713,-0.04371139723508204,-2.8251647041548082,-1.375030350507439,0.07846146549725044,-0.14743515214079242,0.08956970823234497,-2.324716781639881,-0.023886612115985077,-0.07387900064824049,-0.10845533935472362,0.08968495377076792,-0.0502808115977925,-0.07046076038528237,-0.15134485672390302,-0.08751625974816908,0.05361026045996776,0.26228106444055926,-0.19567040269092217,0.4638994635351241,0.031901373263769114,0.050049069651151364],[-0.5334227839651844,0.05664859595640407,2.8384397149642835,1.392663958413572,-0.07559955364789304,0.15446473649102935,-0.07838845920670143,2.331916034487668,0.04115094934848634,0.08568822552118688,0.12173046260904963,-0.08138552530451813,0.0588560052415029,0.07717840054050745,0.16161388438915414,0.09529103399085483,-0.04215699316192853,-0.2607898267060736,0.20469323755992713,-0.4496936783183389,-0.019981075990357464,-0.04382780711236051]],"accuracy_validation":0.8361934477379095,"mse_training":0.3444592790387183,"accuracy_training":0.8277703604806409,"mse_validation":0.32761310452418096,"bias":-4.6253819822976336E-20},{"epoch":72,"weights":[[0.5159520788760964,-0.04237296555336531,-2.7932438149857393,-1.3633597308153889,0.07757034949207997,-0.14554888497365379,0.08816638264303989,-2.285454748404807,-0.023577726138462176,-0.07327401585415026,-0.1100804706889355,0.08848671088847088,-0.04918899747159431,-0.0698530447154384,-0.14983961365080178,-0.08621625677839305,0.05318632610735116,0.2588831752951269,-0.25436151477197005,0.47259867216546075,-0.012516362425092825,0.07923967482368074],[-0.5096666027975096,0.05531016427468734,2.8065188257952145,1.3809933387215219,-0.07470843764272257,0.15257846932389071,-0.07698513361739634,2.292654001252594,0.04084206337096344,0.08508324072709665,0.12335559394326148,-0.08018728242222109,0.05776419111530471,0.07657068487066349,0.1601086413160529,0.0939910310210788,-0.04173305880931193,-0.2573919375606412,0.26338434964097496,-0.4583928869486754,0.02443665969850428,-0.0730184122848897]],"accuracy_validation":0.8471138845553822,"mse_training":0.34979973297730305,"accuracy_training":0.8251001335113485,"mse_validation":0.30577223088923555,"bias":-6.030197888262517E-20},{"epoch":71,"weights":[[0.522416520970688,-0.0402095487304223,-2.7663764138197173,-1.363228501480547,0.07617026237298294,-0.14318436815405852,0.08752948396846823,-2.2685393967956697,-0.023377726138462177,-0.07230836416731425,-0.06075107443037031,0.0872964050387118,-0.04832628070622299,-0.06902834541648002,-0.14743683727887083,-0.08475801709233562,0.05339171905601202,0.2551438824657716,-0.31811217712252554,0.43496658539198046,-0.0796991114501148,-0.05043093557275934],[-0.5161310448921014,0.053146747451744324,2.7796514246291926,1.38086210938668,-0.07330835052362554,0.15021395250429545,-0.07634823494282468,2.275738649643457,0.04064206337096343,0.08411758904026063,0.07402619768469629,-0.07899697657246202,0.05690147434993339,0.0757459855717051,0.15770586494412195,0.09253279133502136,-0.04193845175797279,-0.2536526447312859,0.32713501199153033,-0.4207608001751955,0.09161940872352606,0.056652198111550305]],"accuracy_validation":0.6521060842433697,"mse_training":0.7036048064085447,"accuracy_training":0.6481975967957276,"mse_validation":0.6957878315132605,"bias":-7.528070967651778E-20},{"epoch":70,"weights":[[0.5332413564221701,-0.0393323394084117,-2.7387660139199044,-1.359819646544763,0.07497024354602456,-0.14119976715102053,0.08632262238841092,-2.2724769483921072,-0.022777726772064737,-0.0715227330638979,-0.10962426470455527,0.08640264012676618,-0.04773669437714417,-0.06834319099337956,-0.1459727327678346,-0.08385801567520257,0.05268282434145186,0.2517419405278455,-0.24439252885178164,0.44682225010214993,0.03860652581750963,-0.009509329285887033],[-0.5269558803435834,0.05226953812973373,2.7520410247293796,1.377453254450896,-0.07210833169666717,0.14822935150125746,-0.07514137336276738,2.2796762012398943,0.04004206400456598,0.0833319579368443,0.12289938795888128,-0.0781032116605164,0.05631188802085457,0.07506083114860465,0.1562417604330857,0.09163278991788833,-0.041229557043412635,-0.2502507027933598,0.2534153637207862,-0.4326164648853652,-0.02668622854409826,0.015730591824677828]],"accuracy_validation":0.8393135725429017,"mse_training":0.3391188251001335,"accuracy_training":0.8304405874499332,"mse_validation":0.3213728549141966,"bias":-8.906697418198045E-20},{"epoch":69,"weights":[[0.4641455510681678,-0.039489853470118824,-2.7017989681882164,-1.3438896733927193,0.07406707869355195,-0.13928240716427362,0.08533824875277968,-2.2247971367207104,-0.02237772677206474,-0.07064769408305295,-0.05589947413008213,0.08551845990176489,-0.0472193343916538,-0.06766815201253461,-0.14418964935991582,-0.0822611755446631,0.051510449989493674,0.24831296803541567,-0.1339789642929341,0.5341425262575585,0.051996855305817644,2.7630552923842144E-4],[-0.4578600749895816,0.05242705219144085,2.7150739789976917,1.361523281298852,-0.07120516684419455,0.14631199151451055,-0.07415699972713614,2.231996389568498,0.03964206400456597,0.08245691895599934,0.06917459738440807,-0.0772190314355151,0.0557945280353642,0.0743857921677597,0.15445867702516694,0.09003594978734886,-0.040057182691454446,-0.24682173030092994,0.14300179916193873,-0.5199367410407738,-0.04007655803240641,0.0059449570095524845]],"accuracy_validation":0.8330733229329174,"mse_training":0.34579439252336447,"accuracy_training":0.8271028037383178,"mse_validation":0.3338533541341654,"bias":-9.387947276584969E-20},{"epoch":68,"weights":[[0.6012969227836648,-0.03930465821044564,-2.711743363895256,-1.3971337360945864,0.07306707869357575,-0.13697274712221716,0.08357566731479872,-2.2767989727780074,-0.022077726773019796,-0.0699114329971033,-0.005534918563904426,0.08411838975230519,-0.04638245227471596,-0.06733189123572657,-0.143784951521956,-0.08156128520665712,0.05063957215017631,0.24364468867627276,-0.2272426183946251,0.43472394169545503,0.0031692486051998134,-0.02789584962024709],[-0.5950114467050786,0.052241856931767666,2.725018374704731,1.4147673440007194,-0.07020516684421835,0.1440023314724541,-0.07239441828915519,2.283998225625795,0.03934206400552102,0.08172065787004969,0.01881004181823043,-0.0758189612860554,0.05495764591842636,0.07404953139095166,0.15405397918720712,0.08933605944934288,-0.03918630485213708,-0.24215345094178703,0.23626545326362977,-0.42051815647866986,0.008751048668211352,0.03411711215903801]],"accuracy_validation":0.8408736349453978,"mse_training":0.3538050734312417,"accuracy_training":0.8230974632843792,"mse_validation":0.31825273010920435,"bias":-1.0055550810755326E-19},{"epoch":67,"weights":[[0.5095914588446819,-0.04006734615581612,-2.6779805418461073,-1.398004767139989,0.07186706366703981,-0.13516927255150468,0.08249591639360293,-2.262961463742649,-0.021677741942524857,-0.06926485905777492,-0.0873932236276239,0.08308325076464387,-0.04597914928650498,-0.06678533246572907,-0.14222511147170852,-0.08056126017421066,0.050006498893635315,0.2400446398577661,-0.18176375408886447,0.4405921636322257,0.005024587175669212,0.005620490625819062],[-0.503305982766096,0.05300454487713815,2.6912555526555826,1.4156383750461219,-0.06900515181768241,0.1421988569017416,-0.0713146673679594,2.2701607165904365,0.03894207917502607,0.08107408393072131,0.10066834688194992,-0.07478382229839409,0.05455434293021538,0.07350297262095416,0.15249413913695964,0.08833603441689641,-0.03855323159559609,-0.23855340212328038,0.19078658895786926,-0.4263863784154402,0.006895710097741911,6.007719129719341E-4]],"accuracy_validation":0.8486739469578783,"mse_training":0.32443257676902537,"accuracy_training":0.8377837116154874,"mse_validation":0.30265210608424337,"bias":-7.308843406221319E-20},{"epoch":66,"weights":[[0.45369222253276614,-0.039766679637163425,-2.67083785332603,-1.430351838859707,0.07119482837840985,-0.13426371749357238,0.08159572809664421,-2.289684262013891,-0.02141749013980057,-0.06848379461403767,-0.0633895346422897,0.08145751671191256,-0.04574601796564831,-0.06675056989216478,-0.14197645295063238,-0.07986139477831519,0.04880785991347686,0.2353984943612462,-0.2178815511026721,0.40841462098617964,0.024564609044396196,0.10069895449502664],[-0.4474067464541797,0.05270387835848545,2.684112864135505,1.44798544676584,-0.06833291652905245,0.1412933018438093,-0.07041447907100068,2.296883514861679,0.038681827372301775,0.08029301948698406,0.07666465789661597,-0.07315808824566278,0.05432121160935871,0.07346821004738988,0.1522454806158835,0.08763616902100095,-0.03735459261543763,-0.23390725662676048,0.22690438597167684,-0.3942088357693941,-0.012644311770985267,-0.09447769195623568]],"accuracy_validation":0.8393135725429017,"mse_training":0.34579439252336447,"accuracy_training":0.8271028037383178,"mse_validation":0.3213728549141966,"bias":3.1367284200312914E-20},{"epoch":65,"weights":[[0.4423087901108176,-0.040156838757558544,-2.673423792090054,-1.4399166020911176,0.07036432466961805,-0.13280219049081476,0.08059572746161572,-2.2897144553408286,-0.021117488967122892,-0.06798498325357002,-0.11126372353522934,0.08075039268974735,-0.04582019686095439,-0.06645168117750495,-0.14117155069199475,-0.07893210303261598,0.04807161722292973,0.23132867202951363,-0.1888835427070782,0.4334848371489989,0.05001183067342903,-0.017521603548682412],[-0.43602331403223116,0.05309403747888057,2.6866988028995293,1.4575502099972506,-0.06750241282026065,0.1398317748410517,-0.06941447843597219,2.2969137081886166,0.038381826199624075,0.07979420812651641,0.12453884678955561,-0.07245096422349756,0.05439539050466479,0.07316932133273005,0.15144057835724586,0.08670687727530174,-0.0366183499248905,-0.2298374342950279,0.19790637757608293,-0.41927905193221365,-0.03809153340001811,0.023742866087473533]],"accuracy_validation":0.8268330733229329,"mse_training":0.376502002670227,"accuracy_training":0.8117489986648865,"mse_validation":0.3463338533541342,"bias":1.8974463351403443E-20},{"epoch":64,"weights":[[0.43636609286875483,-0.03945184145868843,-2.6697074490455717,-1.4717664776664823,0.06978092581823579,-0.13190503999871633,0.07959827815902194,-2.3150029169577095,-0.02065367536371534,-0.0667866262869243,-0.1473949291455355,0.0797512099325442,-0.04567963771642044,-0.06548339485588824,-0.13936510006077343,-0.0781320800555644,0.04742401435376367,0.2269499434677087,-0.16441824859181314,0.4900253327486152,-0.020137386238477856,0.029526044221266073],[-0.43008061679016807,0.052389040180010456,2.682982459855047,1.4894000855726153,-0.0669190139688784,0.13893462434895326,-0.06841702913337841,2.3222021698054975,0.03791801259621651,0.0785958511598707,0.16067005239986173,-0.07145178146629441,0.05425483136013084,0.07220103501111333,0.14963412772602455,0.08590685429825017,-0.03597074705572444,-0.22545870573322296,0.17344108346081782,-0.47581954753183014,0.03205768351188877,-0.023304781682475028]],"accuracy_validation":0.7753510140405616,"mse_training":0.45260347129506007,"accuracy_training":0.7736982643524699,"mse_validation":0.44929797191887677,"bias":-3.690832400348893E-20},{"epoch":63,"weights":[[0.4740439080929089,-0.04012848455969169,-2.6565399753384322,-1.4930859901278035,0.06868092581824087,-0.13017122444511653,0.07799827948438262,-2.3173560361427064,-0.02025367536371534,-0.06588536913636417,-0.10355579095003684,0.0783508555282211,-0.045345822162930934,-0.06468213771920885,-0.13797230720770726,-0.07732908213873435,0.046273045334143004,0.22279321842179764,-0.20640629755424705,0.4387071787136393,0.02456719096732364,0.08351181255007475],[-0.4677584320143225,0.053065683281013715,2.6698149861479075,1.5107195980339365,-0.06581901396888347,0.13720080879535346,-0.06681703045873909,2.3245552889904944,0.037518012596216496,0.07769459400931056,0.11683091420436295,-0.07005142706197132,0.05392101580664133,0.07139977787443394,0.14824133487295837,0.08510385638142011,-0.034819778036103775,-0.2213019806873119,0.2154291324232519,-0.4245013934968538,-0.012646893693912795,-0.07729055001128363]],"accuracy_validation":0.8346333853354134,"mse_training":0.3484646194926569,"accuracy_training":0.8257676902536716,"mse_validation":0.33073322932917315,"bias":-6.271695263049168E-20},{"epoch":62,"weights":[[0.5345061449314128,-0.03857789864103427,-2.647360896714183,-1.5124176531474927,0.06788691570051748,-0.12823052371117183,0.07626625353931532,-2.3252363511830425,-0.019753676299082024,-0.0647913525028336,-0.09102906664225023,0.07671283634301616,-0.04499885216758072,-0.06368812108567828,-0.13623713581609792,-0.07651344765024659,0.0458556798708916,0.21874010504466437,-0.26916754063026815,0.3836184530523159,-0.007223236058562926,0.0633729096276945],[-0.5282206688528264,0.051515097362356294,2.660635907523658,1.5300512610536257,-0.06502500385116008,0.13526010806140876,-0.06508500451367179,2.3324356040308305,0.03701801353158317,0.07660057737578,0.1043041898965763,-0.06841340787676638,0.05357404581129112,0.07040576124090338,0.14650616348134904,0.08428822189293235,-0.03440241257285237,-0.21724886731017864,0.2781903754992733,-0.3694126678355305,0.019143533331973717,-0.057151647088903204]],"accuracy_validation":0.8393135725429017,"mse_training":0.3444592790387183,"accuracy_training":0.8277703604806409,"mse_validation":0.3213728549141966,"bias":-1.786010127129249E-20},{"epoch":61,"weights":[[0.5104107093816259,-0.03918733119970022,-2.625117944601715,-1.5034507703115267,0.06659430635784777,-0.1264274945136453,0.0749647507449191,-2.2993186803256322,-0.019353676299082027,-0.06407459381620367,-0.1315449516448377,0.07500987455278856,-0.04468883533486377,-0.06307077530165825,-0.13467705251047166,-0.07481473100713895,0.04495463305665678,0.21514325678303317,-0.2977560052071459,0.45306954407155164,0.03834630624002884,0.050552011964773665],[-0.5041252333030395,0.05212452992102225,2.6383929554111902,1.5210843782176597,-0.06373239450849037,0.13345707886388222,-0.06378350171927556,2.3065179331734202,0.03661801353158316,0.07588381868915006,0.14482007489916388,-0.06671044608653878,0.05326402897857417,0.06978841545688334,0.14494608017572277,0.08258950524982471,-0.03350136575861755,-0.21365201904854744,0.30677884007615114,-0.43886375885476603,-0.026426008966617967,-0.044330749425982204]],"accuracy_validation":0.8330733229329174,"mse_training":0.36181575433911883,"accuracy_training":0.8190921228304406,"mse_validation":0.3338533541341654,"bias":-3.320935169544843E-20},{"epoch":60,"weights":[[0.4675100550706692,-0.03948044090253285,-2.6089214633909736,-1.5125602147962975,0.06539430635784772,-0.12452426003725028,0.07386563885016302,-2.292503485094028,-0.01895367629908203,-0.06366458926706556,-0.07879412817171917,0.07440821187207611,-0.044379354571656995,-0.0625654538260862,-0.13315724029437248,-0.07370981839329165,0.044059016794567585,0.21124857148439474,-0.27171826889275236,0.49017449648209616,-0.044146761233634244,-0.002263039190955364],[-0.46122457899208275,0.05241763962385488,2.622196474200449,1.5301938227024305,-0.06253239450849032,0.13155384438748727,-0.06268438982451949,2.299702737941816,0.036218013531583146,0.07547381414001195,0.09206925142604531,-0.06610878340582634,0.052954548215367395,0.06928309398131133,0.1434262679596236,0.0814845926359774,-0.032605749496528356,-0.20975733374990901,0.2807411037617575,-0.4759687112653103,0.056067058507045034,0.008484301729746714]],"accuracy_validation":0.7566302652106084,"mse_training":0.5020026702269693,"accuracy_training":0.7489986648865153,"mse_validation":0.48673946957878317,"bias":-9.023373718938295E-20},{"epoch":59,"weights":[[0.5361446861783387,-0.04008500306002853,-2.5772441396063197,-1.5131417513213834,0.06449430615927126,-0.12315861213308095,0.07236459836926523,-2.2909533732029264,-0.018653676299082034,-0.0629994152320654,-0.05322768826638298,0.07278075927556805,-0.043813705876440415,-0.062200279791086076,-0.1316353589898898,-0.07244464818940446,0.04312362388664106,0.20764014108659054,-0.2251677973207729,0.4935530813008766,0.0245050997429387,-0.05429378630553551],[-0.5298592100997522,0.05302220178135056,2.590519150415795,1.5307753592275164,-0.06163239430991386,0.1301881964833181,-0.06118334934362169,2.2981526260507144,0.035918013531583144,0.07480864010501179,0.06650281152070911,-0.06448133080931828,0.052388899520150814,0.06891791994631118,0.1419043866551409,0.08021942243209022,-0.03167035658860183,-0.2061489033521048,0.2341906321897777,-0.4793472960840903,-0.012584802469527673,0.060515048844326944]],"accuracy_validation":0.8533541341653667,"mse_training":0.32977303070761016,"accuracy_training":0.835113484646195,"mse_validation":0.29329173166926675,"bias":-1.531446799762493E-19},{"epoch":58,"weights":[[0.4570830412253345,-0.03955330871943606,-2.5684569586066117,-1.5472009747814652,0.06399496101856582,-0.1220422935853425,0.07086021173475769,-2.3080413602801766,-0.01835367631404758,-0.06139938880631006,-0.047704080366968535,0.07128312857566974,-0.043467408905926166,-0.060500253395032004,-0.12938852815275836,-0.07203552211367029,0.04255486339350086,0.2033587003694703,-0.1770714332659289,0.5073965733839466,0.032105202502235544,0.04613703435194167],[-0.45079756514674785,0.05249050744075809,2.581731969416087,1.5648345826875985,-0.061133049169208406,0.12907187793557978,-0.05967896270911416,2.3152406131279646,0.035618013546548685,0.07320861367925646,0.06097920362129468,-0.06298370010941996,0.052042602549636566,0.06721789355025716,0.13965755581800948,0.07981029635635604,-0.031101596095461613,-0.20186746263498456,0.18609426813493374,-0.4931907881671607,-0.020184905228824226,-0.039915771813150376]],"accuracy_validation":0.8377535101404057,"mse_training":0.35246995994659547,"accuracy_training":0.8237650200267023,"mse_validation":0.3244929797191888,"bias":-1.134571843568328E-19},{"epoch":57,"weights":[[0.46400042290514587,-0.03847413511268374,-2.558349090174021,-1.5729295974178978,0.0626958058498084,-0.12019759510679019,0.07005996793505197,-2.3370528217450652,-0.017853676314047825,-0.06042769892788867,-0.09790647268634617,0.06966121582855869,-0.043311073077179706,-0.05953960368233698,-0.12791505341241102,-0.07075147626720583,0.04197441463026044,0.19949315075582352,-0.2684408879648355,0.47040334934004574,-0.03355529673555693,0.06964822456015692],[-0.4577149468265592,0.051411333834005764,2.571624100983496,1.590563205324031,-0.05983389400045098,0.12722717945702777,-0.05887871890940842,2.3442520745928532,0.03511801354654892,0.07223692380083506,0.11118159594067228,-0.06136178736230892,0.051886266720890105,0.06625724383756212,0.13818408107766214,0.07852625050989159,-0.030521147332221197,-0.1980019130213378,0.2774637228338403,-0.4561975641232597,0.045475594008968376,-0.0634269620213657]],"accuracy_validation":0.8112324492979719,"mse_training":0.38584779706275035,"accuracy_training":0.8070761014686249,"mse_validation":0.37753510140405616,"bias":-8.162839467425961E-20},{"epoch":56,"weights":[[0.475011977330464,-0.038668499877433024,-2.53161123234267,-1.565000034492584,0.06170985999292198,-0.11848289008257369,0.06885996780148357,-2.320018337353923,-0.017453676313960092,-0.059636439332954636,-0.07671967899141786,0.06786528436065599,-0.04289630128982306,-0.058748344087471774,-0.12621965083720432,-0.06942806965603324,0.04109349240490506,0.19611768768420645,-0.1841882663379201,0.551768358833902,0.011378084375824396,0.01684213106091688],[-0.46872650125187737,0.05160569859875505,2.544886243152145,1.5826336423987173,-0.05884794814356456,0.12551247443281155,-0.057678718775840014,2.327217590201711,0.03471801354646117,0.07144566420590104,0.08999480224574398,-0.05956585589440622,0.05147149493353346,0.06546598424269694,0.13648867850245544,0.077202843898719,-0.02964022510686579,-0.19462644994972073,0.1932111012069249,-0.5375625736171159,5.422128975871299E-4,-0.010620868522125869]],"accuracy_validation":0.8517940717628705,"mse_training":0.3177570093457944,"accuracy_training":0.8411214953271028,"mse_validation":0.296411856474259,"bias":-1.156970781886854E-19},{"epoch":55,"weights":[[0.4689132845740681,-0.037210553030592064,-2.5322518614473184,-1.612209191895629,0.06060963622675992,-0.11669024339250164,0.06775996765079455,-2.3744221751975854,-0.017053676313960094,-0.05864374391628157,-0.1113239704976764,0.06596548600606399,-0.04302120036539582,-0.05815564867079872,-0.1255566475531019,-0.06832806965603216,0.04086871955334196,0.1921978755261635,-0.17444559173644092,0.5355245610015005,0.071980952457334,-0.10524178697341256],[-0.46262780849548124,0.05014775175191409,2.5455268722567936,1.629842799801762,-0.0577477243774025,0.1237198277427396,-0.05657871862515097,2.3816214280453734,0.034318013546461155,0.07045296878922801,0.12459909375200262,-0.057666057539814235,0.05159639400910622,0.06487328882602392,0.1358256752183531,0.07610284389871792,-0.02941545225530269,-0.19070663779167776,0.18346842660544582,-0.5213187757847144,-0.06006065518392241,0.11146304951220319]],"accuracy_validation":0.8127925117004681,"mse_training":0.3871829105473965,"accuracy_training":0.8064085447263017,"mse_validation":0.374414976599064,"bias":-1.0777002068176222E-19},{"epoch":54,"weights":[[0.5206998199040116,-0.03720424426266375,-2.5087199792083976,-1.5952303466603224,0.059809636080437024,-0.1141460329358163,0.06615541752078447,-2.364123333186535,-0.01655367631396599,-0.05800258445351318,-0.09287215858317688,0.06486547027505409,-0.0420816463195305,-0.05748406850431469,-0.12427409658735204,-0.0674279761999329,0.0395354354323,0.18886769727445105,-0.2052144884125655,0.4787919901452508,0.08264355712122945,-0.08947852610805657],[-0.5144143438254245,0.05014144298398578,2.521994990017873,1.6128639545664554,-0.056947724231079605,0.12117561728605425,-0.05497416849514086,2.371322586034323,0.03381801354646703,0.06981180932645958,0.106147281837503,-0.05656604180880431,0.050656839963240906,0.06420170865953985,0.13454312425260329,0.07520275044261866,-0.02808216813426072,-0.18737645953996532,0.21423732328157058,-0.4645862049284648,-0.07072325984781797,0.0956997886468473]],"accuracy_validation":0.8471138845553822,"mse_training":0.3324432576769025,"accuracy_training":0.8337783711615487,"mse_validation":0.30577223088923555,"bias":-4.6374509678908945E-20},{"epoch":53,"weights":[[0.4528961070071885,-0.0359239952354199,-2.480223403773504,-1.5878111232758023,0.05886766634421493,-0.11233279372565477,0.0653554147099024,-2.3489581271820916,-0.015953676313965992,-0.05717726310445436,-0.10882294765143105,0.06386210268540167,-0.04187166304705155,-0.0566585629003153,-0.12255155655468732,-0.06562786669564745,0.039064112480132016,0.18529081859946522,-0.09583110135824123,0.5328737783607764,0.08503254688585685,-0.03075337045556266],[-0.446610630928601,0.04886119395674193,2.4934984145829793,1.6054447311819353,-0.056005754494857514,0.11936237807589273,-0.0541741656842588,2.3561573800298796,0.033218013546467015,0.0689864879774008,0.12209807090575711,-0.055562674219151904,0.05044685669076195,0.06337620305554048,0.13282058421993864,0.07340264093833321,-0.02761084518209268,-0.1837995808649795,0.1048539362272462,-0.5186679931439905,-0.07311224961244525,0.03697463299435334]],"accuracy_validation":0.8424336973478939,"mse_training":0.3257676902536716,"accuracy_training":0.8371161548731643,"mse_validation":0.31513260530421217,"bias":2.5366361965319958E-20},{"epoch":52,"weights":[[0.4350351149783459,-0.035300326014432344,-2.470658802127728,-1.6406701384919697,0.058067654671590134,-0.11090621356855136,0.06435586974607396,-2.4043102052082763,-0.01595367631396621,-0.0562646633323862,-0.12591545772962354,0.06247605604285686,-0.041745094561191624,-0.05604596312824737,-0.12150097465995432,-0.06432741227924027,0.03817585915041475,0.1807924164553467,-0.10419844140515605,0.5092242446384619,0.03487843548966303,0.07176960814231376],[-0.4287496388997586,0.04823752473575438,2.4839338129372033,1.6583037463981027,-0.055205742822232715,0.11793579791878932,-0.05317462072043035,2.4115094580560643,0.03321801354646724,0.06807388820533265,0.13919058098394943,-0.05417662757660709,0.05032028820490203,0.06276360328347257,0.13177000232520553,0.07210218652192603,-0.02672259185237544,-0.17930117872086096,0.11322127627416084,-0.4950184594216765,-0.022958138216251436,-0.06554834560352335]],"accuracy_validation":0.8361934477379095,"mse_training":0.34579439252336447,"accuracy_training":0.8271028037383178,"mse_validation":0.32761310452418096,"bias":-1.518697767798061E-20},{"epoch":51,"weights":[[0.4710959797801937,-0.03559950475731817,-2.4465508182409543,-1.6521501709389095,0.05716765466956607,-0.10910004924241193,0.06295586666889087,-2.4076586596807052,-0.015553676313966211,-0.055058508683105384,-0.1336413605950659,0.06157605338190767,-0.04123893067402609,-0.05523980847890913,-0.1197884995021687,-0.0631270693530528,0.03747626838905881,0.17699862115003404,-0.16828426053385018,0.4581484837878808,-0.0399820845401648,0.007859450375858213],[-0.4648105037016068,0.048536703478640204,2.4598258290504296,1.6697837788450425,-0.05430574282020865,0.11612963359264988,-0.05177461764324727,2.4148579125284932,0.032818013546467226,0.06686773355605187,0.1469164838493916,-0.053276624915657905,0.0498141243177365,0.061957448634134334,0.13005752716741975,0.07090184359573856,-0.026023001091019515,-0.1755073834155483,0.17730709540285491,-0.44394269857109553,0.05190238181357628,-0.0016381878370678223]],"accuracy_validation":0.750390015600624,"mse_training":0.5100133511348465,"accuracy_training":0.7449933244325768,"mse_validation":0.49921996879875197,"bias":-3.258537115059133E-20},{"epoch":50,"weights":[[0.49083726514477505,-0.034798910376859386,-2.4307463059143877,-1.6580738157826063,0.05600670413145713,-0.10757728352187285,0.06195548207942559,-2.419620157722651,-0.015053676311336242,-0.05449498572403955,9.210470171802897E-4,0.06136250094620087,-0.04147863133074981,-0.054876285434584275,-0.11876127210989121,-0.062227062640333064,0.03660991384884721,0.1735148841229923,-0.16017145704890662,0.5579978614166217,0.07302289476383608,0.004684423653112106],[-0.48455178906618795,0.04773610909818142,2.444021316723863,1.6757074236887393,-0.05314479228209971,0.1146068678721108,-0.05077423305378198,2.426819410570439,0.03231801354383723,0.06630421059698607,0.012354076237145465,-0.0530630724799511,0.05005382497446022,0.06159392558980948,0.12903029977514235,0.07000183688301884,-0.025156646550807918,-0.17202364638850656,0.16919429191791124,-0.5437920761998363,-0.061102597490424376,0.0015368388856783627]],"accuracy_validation":0.8221528861154446,"mse_training":0.3751668891855808,"accuracy_training":0.8124165554072096,"mse_validation":0.35569422776911075,"bias":1.7271761454045018E-20},{"epoch":49,"weights":[[0.45897795544668607,-0.033126402599176506,-2.405668889945366,-1.6522587293102091,0.05490670412717522,-0.10489018643945772,0.060806382120589156,-2.4115396600974437,-0.014753788457785272,-0.05340448446006913,-0.11067896167802016,0.0594831068517578,-0.040370728759306765,-0.053685896878319005,-0.11649105806015805,-0.06115960535875271,0.036482119407251865,0.1690524068213031,-0.25060938014276185,0.46688710546653533,0.021263085647377514,6.569845606283348E-4],[-0.45269247936809875,0.04606360132049854,2.4189439007548414,1.6698923372163421,-0.0520447922778178,0.11191977078969567,-0.049625133094945546,2.4187389129452317,0.03201812569028625,0.06521370933301568,0.12395408493234575,-0.05118367838550803,0.04894592240301717,0.06040353703354421,0.12676008572540914,0.0689343796014385,-0.025028852109212543,-0.16756116908681737,0.2596322150117665,-0.45268132024974966,-0.009342788373965863,0.005564277978161863]],"accuracy_validation":0.8018720748829953,"mse_training":0.4218958611481976,"accuracy_training":0.7890520694259012,"mse_validation":0.3962558502340094,"bias":2.0373750197934873E-20},{"epoch":48,"weights":[[0.43647776775787256,-0.031491218220569106,-2.372649397047927,-1.6299447021803803,0.05380470791050254,-0.10284993107660993,0.06000716677479306,-2.3930697399013474,-0.014053788457785276,-0.05225917004105932,-0.08426547411210578,0.0588797269219009,-0.03986213031004421,-0.0524410402147102,-0.11418168440477043,-0.06075079463365777,0.03641065200141178,0.16552026976067624,-0.16298375532820913,0.5644182683551896,0.04963049868001275,0.036176389502061826],[-0.43019229167928497,0.04442841694189115,2.3859244078574022,1.6475783100865133,-0.05094279606114512,0.10987951542684789,-0.04882591774914945,2.4002689927491354,0.03131812569028623,0.0640683949140059,0.09754059736643135,-0.05058029845565114,0.048437323953754614,0.05915868036993541,0.12445071207002147,0.06852556887634356,-0.02495738470337245,-0.1640290320261905,0.1720065901972137,-0.5502124831384042,-0.037710201406600585,-0.02995512696327192]],"accuracy_validation":0.8408736349453978,"mse_training":0.33511348464619495,"accuracy_training":0.8324432576769025,"mse_validation":0.31825273010920435,"bias":9.856099069116594E-20},{"epoch":47,"weights":[[0.5581458677539419,-0.03122874282613041,-2.353517687097295,-1.63357133695297,0.05310503069872455,-0.10134333721986974,0.05880714111734729,-2.387312221972845,-0.01335378845778528,-0.05144843762916755,-0.14205767205432812,0.057409611164790195,-0.03905520365699398,-0.05153029895246344,-0.11239457165623445,-0.05961672093620329,0.035524911066461204,0.16171809778278615,-0.19033396848225542,0.47991895136687807,-0.019362683942632228,0.1007000332921339],[-0.5518603916753542,0.044165941547452486,2.3667926979067704,1.651204944859103,-0.05024311884936713,0.1083729215701077,-0.04762589209170368,2.394511474820633,0.030618125690286234,0.06325766250211409,0.15533279530865363,-0.04911018269854043,0.04763039730070438,0.05824793910768864,0.12266359932148549,0.06739149517888908,-0.02407164376842188,-0.16022686004830042,0.19935680335126005,-0.46571316615009306,0.0312829812160441,-0.09447877075334424]],"accuracy_validation":0.8361934477379095,"mse_training":0.3538050734312417,"accuracy_training":0.8230974632843792,"mse_validation":0.32761310452418096,"bias":9.820471067578082E-20},{"epoch":46,"weights":[[0.39304240626904413,-0.030498579922734685,-2.3201287119864,-1.5994084375031268,0.05207721187793756,-0.09900381305825479,0.057647694568307685,-2.3365235875427484,-0.0128537884577852,-0.050721264860044385,-0.09148729857429458,0.05620388823682522,-0.0377500734795998,-0.050803102596260044,-0.10993476915634748,-0.058016775175961356,0.035324053867712986,0.1589114396298973,-0.09787203181008705,0.5616787135059881,0.039313196756065254,0.07270578812839686],[-0.3867569301904567,0.04343577864405677,2.3334037227958753,1.6170420454092598,-0.04921530002858014,0.10603339740849274,-0.046466445542664075,2.3437228403905364,0.030118125690286154,0.06253048973299095,0.10476242182862024,-0.047904459770575454,0.046325267123310206,0.05752074275148525,0.12020379682159851,0.06579154941864714,-0.023870786569673664,-0.15742020189541156,0.10689486667909173,-0.5474729282892031,-0.027392899482653492,-0.06648452558960717]],"accuracy_validation":0.8330733229329174,"mse_training":0.3364485981308411,"accuracy_training":0.8317757009345794,"mse_validation":0.3338533541341654,"bias":8.724034766206127E-20},{"epoch":45,"weights":[[0.4808336055431108,-0.030378114627121998,-2.299385650481762,-1.5820852334615636,0.05097767350227162,-0.09662986014026902,0.05634782684687461,-2.326443900318848,-0.012153788457785204,-0.050020702630135645,0.01783828809533851,0.05437013306863273,-0.03680202547680115,-0.049927029384497945,-0.10791747154765582,-0.05681669117061202,0.034596824272338206,0.15560226732960936,-0.25181952966685206,0.44944923415714505,0.007042948736847472,0.06701492755146024],[-0.47454812946452346,0.043315313348444115,2.312660661291237,1.5997188413676966,-0.0481157616529142,0.10365944449050697,-0.045166577821231,2.333643153166636,0.029418125690286158,0.061829927503082215,-0.004563164841012841,-0.04607070460238297,0.045377219120511555,0.05664466953972315,0.11818649921290686,0.06459146541329779,-0.02314355697429892,-0.15411102959512363,0.26084236453585674,-0.4352434489403602,0.004877348536564324,-0.060793665012670445]],"accuracy_validation":0.8361934477379095,"mse_training":0.37917222963951935,"accuracy_training":0.8104138851802403,"mse_validation":0.32761310452418096,"bias":9.050552425691822E-20},{"epoch":44,"weights":[[0.4624499110819425,-0.02904245196833798,-2.26895108145476,-1.5840065252286808,0.049678441375269194,-0.09453177552322592,0.0547533453757167,-2.2916620715129117,-0.01184705401436413,-0.049013890787802196,-0.08729823841932495,0.05336999430706625,-0.036499079528738564,-0.049220496048514334,-0.1063512589482254,-0.05560529544815503,0.03390120080446727,0.15185034380980847,-0.18454616378305638,0.48586770873429225,0.037523317743995505,0.01901221302350012],[-0.4561644350033554,0.041979650689660135,2.2822260922642355,1.6016401331348138,-0.046816529525911775,0.10156135987346387,-0.04357209635007309,2.2988613243606997,0.02911139124686508,0.060823115660748765,0.10057336167365066,-0.045070565840816486,0.04507427317244897,0.05593813620373954,0.11662028661347644,0.06338006969084078,-0.022447933506428,-0.15035910607532274,0.193568998652061,-0.47166192351750735,-0.02560302047058388,-0.012790950484710607]],"accuracy_validation":0.84399375975039,"mse_training":0.3364485981308411,"accuracy_training":0.8317757009345794,"mse_validation":0.31201248049922,"bias":-4.1705005690209303E-20},{"epoch":43,"weights":[[0.542067738659738,-0.028833341110312237,-2.259300812503435,-1.6145181920311855,0.04846877312048023,-0.09237154192239432,0.05395173232666833,-2.3207672057903506,-0.011647054014364132,-0.04772874674864208,-0.1223810024085907,0.051770030273674876,-0.03645012817097632,-0.048335352009354175,-0.10523201848452704,-0.05430525295570731,0.03335180171496098,0.1475124606216325,-0.2624187772474101,0.48739403800739617,0.00817068237037201,-0.0062100933136396835],[-0.5357822625811511,0.04177053983163441,2.27257582331291,1.6321517999373185,-0.04560686127112281,0.09940112627263227,-0.04277048330102472,2.3279664586381386,0.028911391246865082,0.05953797162158865,0.13565612566291652,-0.04347060180742511,0.04502532181468673,0.05505299216457938,0.11550104614977807,0.06208002719839306,-0.021898534416921668,-0.14602122288714678,0.27144161211641465,-0.4731882527906111,0.003749614903039461,0.012431355852429202]],"accuracy_validation":0.84399375975039,"mse_training":0.3391188251001335,"accuracy_training":0.8304405874499332,"mse_validation":0.31201248049922,"bias":-1.6308386733420026E-20},{"epoch":42,"weights":[[0.4081711911612364,-0.028895370388605575,-2.245023449161904,-1.6174142799325764,0.04756877594890835,-0.09117097441558406,0.05312674315596214,-2.3135114222927133,-0.011247054014364134,-0.04633193364549227,-0.07996673459559407,0.05054641568965766,-0.03627454831873563,-0.04743712397367297,-0.1033812804430041,-0.05290525342314155,0.032504719709950974,0.1446871887343867,-0.23133403272421343,0.6702109682905586,0.09165214348258449,0.0031553421664871767],[-0.4018857150826496,0.04183256910992776,2.258298459971379,1.6350478878387094,-0.04470686409955093,0.09820055876582201,-0.041945494130318534,2.3207106751405013,0.028511391246865084,0.05814115851843884,0.09324185784991997,-0.042246987223407896,0.04484974196244604,0.05415476412889818,0.11365030810825513,0.0606800276658273,-0.021051452411911642,-0.14319595099990098,0.24035686759321812,-0.6560051830737734,-0.07973184620917281,0.0030659203723025635]],"accuracy_validation":0.8377535101404057,"mse_training":0.3417890520694259,"accuracy_training":0.829105473965287,"mse_validation":0.3244929797191888,"bias":3.3851349376225735E-20},{"epoch":41,"weights":[[0.5690999823092497,-0.02744784007047464,-2.194024300059441,-1.5869547799505064,0.046315359420599736,-0.08915550887542424,0.052025395090263604,-2.270666221922971,-0.010547054014364139,-0.04529660793215581,-0.051986186820420555,0.04954496786430782,-0.03561249939408603,-0.04659824230165012,-0.10144575104389196,-0.05100739759331976,0.03196384944817104,0.1406024388449333,-0.15664079505394068,0.5407402198502387,0.04086428217290421,-0.08561859094091916],[-0.5628145062306629,0.04038503879179686,2.2072993108689163,1.6045883878566394,-0.04345344757124232,0.0961850932256622,-0.040844146064619995,2.277865474770759,0.02781139124686509,0.057105832805102376,0.06526131007474652,-0.041245539398058056,0.04418769303779643,0.053315882456875324,0.111714778709143,0.05878217183600551,-0.02051058215013174,-0.13911120111044756,0.16566362992294537,-0.5265344346334535,-0.028943984899492556,0.09183985347970912]],"accuracy_validation":0.8471138845553822,"mse_training":0.32843791722296395,"accuracy_training":0.835781041388518,"mse_validation":0.30577223088923555,"bias":1.0737918754953088E-19},{"epoch":40,"weights":[[0.5086868726999636,-0.028291274581215095,-2.1759632904631916,-1.618672023048302,0.04611535942059985,-0.08759164211892917,0.05090769918241157,-2.2904635473856487,-0.010047054014374456,-0.044525893954950185,-0.1455904626431701,0.048251488774365726,-0.03494846041014802,-0.046027528324444504,-0.10015170384396345,-0.050100789036674344,0.031217312028294624,0.13549158474540116,-0.24084635403235088,0.4619305125379948,0.05420552339291532,0.009402035514868685],[-0.5024013966213767,0.041228473302537295,2.189238301272667,1.636305630954435,-0.04325344757124243,0.09462122646916712,-0.03972645015676796,2.2976628002334367,0.027311391246875406,0.056335118827896755,0.15886558589749605,-0.03995206030811596,0.04352365405385843,0.05274516847966971,0.11042073150921448,0.057875563279360095,-0.01976404473025532,-0.13400034701091543,0.24986918890135545,-0.4477247273212092,-0.04228522611950393,-0.003180772976078751]],"accuracy_validation":0.8299531981279251,"mse_training":0.35514018691588783,"accuracy_training":0.822429906542056,"mse_validation":0.34009360374414976,"bias":5.4200123069751584E-20},{"epoch":39,"weights":[[0.45700567720662355,-0.027125147019648427,-2.145935493338182,-1.6305709842436436,0.04521535929433184,-0.0855922908023,0.04990769329012686,-2.28418107706548,-0.009846393601526665,-0.04329425522576759,-0.1306670718084602,0.04711723344343616,-0.03434911053028872,-0.04509438838534828,-0.09820441608858793,-0.04852520136378181,0.031074316236199412,0.13156994103833108,-0.16000096829254865,0.4248550026527197,0.04343295866507544,0.0667672359290471],[-0.4507202011280369,0.040062345740970666,2.1592105041476573,1.6482045921497765,-0.04235344744497442,0.09262187515253796,-0.038726444264483253,2.291380329913268,0.027110730834027614,0.05510348009871416,0.14394219506278608,-0.03881780497718639,0.042924304173999124,0.051812028540573485,0.10847344375383897,0.05629997560646756,-0.019621048938160104,-0.13007870330384536,0.16902380316155324,-0.4106492174359343,-0.031512661391663956,-0.060545973390257475]],"accuracy_validation":0.8299531981279251,"mse_training":0.34979973297730305,"accuracy_training":0.8251001335113485,"mse_validation":0.34009360374414976,"bias":5.601725490762585E-20},{"epoch":38,"weights":[[0.4471364102906878,-0.027130382463971075,-2.111937882529713,-1.6309683309114162,0.04391701359054859,-0.08345532548560407,0.048891987765967565,-2.272443843538408,-0.009246393600596705,-0.042312100083374354,-0.09891531002157516,0.04566192585523195,-0.034028666523531495,-0.04401223324320743,-0.09582788189907011,-0.04743196944894569,0.030387893961238303,0.12773004916395983,-0.10606556590089383,0.5096310055377502,0.01818828880586111,0.06449175102434462],[-0.4408509342121007,0.04006758118529333,2.1252128933391883,1.6486019388175492,-0.04105510174119117,0.09048490983584202,-0.037710738740323956,2.279643096386196,0.026510730833097653,0.054121324956320924,0.11219043327590097,-0.03736249738898218,0.0426038601672419,0.050729873398432636,0.10609690956432115,0.05520674369163144,-0.018934626663199,-0.1262388114294741,0.1150884007698984,-0.49542522032096525,-0.0062679915324497446,-0.058270488485555]],"accuracy_validation":0.8377535101404057,"mse_training":0.3404539385847797,"accuracy_training":0.8297730307076101,"mse_validation":0.3244929797191888,"bias":1.0210057962512679E-19},{"epoch":37,"weights":[[0.5238754075576382,-0.028803648067031076,-2.097336971006296,-1.6568512539903666,0.042722408828719825,-0.08160225799862156,0.04749234400602485,-2.269617603173764,-0.009046393600596706,-0.04120912388265332,-0.09730023425794318,0.04495866188758819,-0.03386957179712779,-0.04330917627097119,-0.0942639229594051,-0.04623196898982812,0.02917029263084028,0.12408325683177233,-0.27361112114443065,0.4271499882191945,0.035483462846132754,-0.0030505889148378235],[-0.5175899314790511,0.04174084678835333,2.1106119818157714,1.6744848618964996,-0.039860496979362406,0.08863184234885951,-0.036311094980381244,2.276816856021552,0.026310730833097654,0.05301834875559989,0.11057535751226882,-0.03665923342133842,0.042444765440838195,0.05002681642619639,0.10453295062465613,0.05400674323251387,-0.017717025332800975,-0.12259201909728643,0.28263395601343533,-0.4129442030024095,-0.023563165572721444,0.009271851453627467]],"accuracy_validation":0.8455538221528861,"mse_training":0.3431241655540721,"accuracy_training":0.828437917222964,"mse_validation":0.3088923556942278,"bias":8.55516903388949E-20},{"epoch":36,"weights":[[0.4445785752193484,-0.028769123073744816,-2.0782704962863434,-1.6603349652696116,0.041624604759118514,-0.08009014062086481,0.046813863326566146,-2.2760752201860788,-0.008746393600596546,-0.04020687995353354,-0.0357551666304442,0.04397170409417965,-0.03373276029081516,-0.04270693229769027,-0.09282262309214762,-0.04533196898065358,0.02839724189745469,0.12022085887335969,-0.23954865303565065,0.49002124138605,0.027716680988485384,-0.06051050677245251],[-0.438293099140761,0.041706321795067114,2.0915455070958187,1.6779685731757445,-0.038762692909761094,0.08711972497110276,-0.03563261430092254,2.2832744730338668,0.026010730833097493,0.05201610482648011,0.049030289884769845,-0.035672275627929885,0.04230795393452556,0.049424572452915476,0.10309165075739865,0.05310674322333933,-0.016943974599415386,-0.11872962113887378,0.24857148790465544,-0.47581545616926507,-0.015796383715074205,0.06673176931124196]],"accuracy_validation":0.8268330733229329,"mse_training":0.3671562082777036,"accuracy_training":0.8164218958611482,"mse_validation":0.3463338533541342,"bias":1.0998825880838755E-19},{"epoch":35,"weights":[[0.5212846045540909,-0.028447739990454034,-2.047554892012681,-1.6501721692422637,0.04082555928647113,-0.07837338665176977,0.045731669449250556,-2.254836009867682,-0.008146393600594609,-0.03910797624323926,-0.05232279495783412,0.042573987023337735,-0.03341048361396421,-0.041708025337262415,-0.09100227989364545,-0.04433275805922491,0.02721615570905296,0.1170439199111678,-0.20164805902358549,0.5694790644219674,0.08321219892968869,-0.04230540092190431],[-0.5149991284755031,0.04138493871177638,2.060829902822156,1.6678057771483967,-0.03796364743711371,0.08540297100200772,-0.034550420423606946,2.26203526271547,0.025410730833095557,0.05091720111618583,0.06559791821215989,-0.03427455855708797,0.04198567725767462,0.04842566549248762,0.10127130755889649,0.05210753230191066,-0.015762888411013653,-0.1155526821766819,0.21067089389259022,-0.5552732792051824,-0.07129190165627756,0.04852666346069369]],"accuracy_validation":0.8268330733229329,"mse_training":0.3604806408544726,"accuracy_training":0.8197596795727636,"mse_validation":0.3463338533541342,"bias":1.7782785436526523E-19},{"epoch":34,"weights":[[0.42139086219081706,-0.02882001672612644,-2.0557984803615077,-1.6906920186954124,0.03992737606881251,-0.07713895936856469,0.044431669451190356,-2.292198726497072,-0.007546393600594565,-0.03841373169598422,-0.08455059164139206,0.041776784331507666,-0.03337434952826435,-0.041018065442213966,-0.08998194143287234,-0.04303301954623092,0.026356117529691036,0.1128912983207943,-0.22787903317657426,0.5652529452053148,0.020082477055464787,0.08836767886292388],[-0.4151053861122291,0.0417572154474488,2.069073491170983,1.7083256266015454,-0.03706546421945509,0.08416854371880264,-0.033250420425546746,2.29939797934486,0.024810730833095516,0.05022295656893079,0.09782571489571798,-0.0334773558652579,0.04194954317197475,0.04773570559743917,0.10025096909812338,0.05080779378891667,-0.014902850231651728,-0.11140006058630839,0.236901868045579,-0.5510471599885298,-0.008162179782053587,-0.08214641632413425]],"accuracy_validation":0.8377535101404057,"mse_training":0.3377837116154873,"accuracy_training":0.8311081441922563,"mse_validation":0.3244929797191888,"bias":2.4298230643719367E-19},{"epoch":33,"weights":[[0.4875856827449719,-0.026244221403881815,-2.025149597999408,-1.691029055044079,0.038730034942874234,-0.07426370686484789,0.04343151749132903,-2.284565860101239,-0.007346393600802938,-0.03741801104591045,-0.04613930557740063,0.03987626383195031,-0.032196490706419896,-0.04032313036169751,-0.08851465798487948,-0.04196020657861429,0.02614805939773973,0.10876319163469125,-0.24827083770866776,0.5545886906763615,0.026962910856186476,0.03101763813542808],[-0.4813002066663837,0.0391814201252042,2.0384246088088833,1.708662662950212,-0.035868123093516814,0.08129329121508584,-0.03225026846568542,2.291765112949027,0.024610730833303892,0.04922723591885702,0.05941442883172669,-0.031576835365700544,0.0407716843501303,0.047040770516922716,0.09878368565013051,0.04973498082130004,-0.014694792099700427,-0.10727195390020534,0.2572936725776725,-0.5403829054595766,-0.015042613582775324,-0.02479637559663834]],"accuracy_validation":0.8408736349453978,"mse_training":0.34979973297730305,"accuracy_training":0.8251001335113485,"mse_validation":0.31825273010920435,"bias":3.100363678415393E-19},{"epoch":32,"weights":[[0.4694148628047457,-0.0276101485586406,-1.9866208748899692,-1.694671703763088,0.03753470601269026,-0.07270085785151681,0.042477599319971276,-2.266279327429159,-0.007046397653350173,-0.03596064115164715,-0.09792003694644169,0.03869579416937147,-0.03182892497865618,-0.03946105310197507,-0.08702325046135852,-0.04095316702416788,0.025111560465639414,0.1045224151961359,-0.2453961211029133,0.5386216804351149,0.10042925545558479,-0.08527994908198938],[-0.4631293867261573,0.04054734727996301,1.9998958856994473,1.712305311669221,-0.03467279416333284,0.07973044220175476,-0.03129635029432767,2.273478580276947,0.02431073488585113,0.04776986602459372,0.11119516020076771,-0.030396365703121715,0.040404118622366585,0.046178693257200275,0.09729227812660955,0.04872794126685363,-0.013658293167600118,-0.10303117746165,0.254418955971918,-0.5244158952183295,-0.08850895818217369,0.0915012116207792]],"accuracy_validation":0.8502340093603744,"mse_training":0.3444592790387183,"accuracy_training":0.8277703604806409,"mse_validation":0.2995319812792512,"bias":2.684934292073122E-19},{"epoch":31,"weights":[[0.47567378729314796,-0.027064405565599362,-1.9702864952961177,-1.698371311141221,0.036990925666520916,-0.0710965541496893,0.041209114119489736,-2.271866294199144,-0.006431834302254182,-0.03466066894879395,-0.09950822682301466,0.03737031967951511,-0.03139402511486572,-0.03816108089914425,-0.08497843760221734,-0.03987791442124721,0.024164839749342006,0.10025131681991332,-0.13393360254408349,0.495933073238851,0.05710601190107462,0.01160200457493843],[-0.46938831121455954,0.04000160428692181,1.983561506105594,1.716004919047354,-0.034129013817163496,0.07812613849992725,-0.030027865093846164,2.279065547046932,0.023696171534755145,0.04646989382174052,0.11278335007734083,-0.029070891213265393,0.039969218758576126,0.04487872105436946,0.09524746526746837,0.04765268866393296,-0.012711572451302723,-0.09876007908542742,0.142956437413088,-0.48172728802206594,-0.04518571462766377,-0.005380742036148536]],"accuracy_validation":0.8393135725429017,"mse_training":0.3444592790387183,"accuracy_training":0.8277703604806409,"mse_validation":0.3213728549141966,"bias":2.217430468766159E-19},{"epoch":30,"weights":[[0.4261954248603657,-0.02333383357540432,-1.9519581920663494,-1.7093390437911888,0.03599092584054766,-0.06902137179735059,0.04059744541432867,-2.2807983389635695,-0.006215265931876403,-0.03329261348130984,-0.11817696880437822,0.03597354911659471,-0.030630310662156605,-0.0367930254316213,-0.08273172095175658,-0.039111441807784066,0.02482337544435467,0.09613583885973599,-0.2422549652850864,0.5323907967679204,0.03439628466926939,0.08843945269287601],[-0.4199099487817773,0.03627103229672679,1.9652332028758257,1.7269726516973218,-0.03312901399119024,0.07605095614758854,-0.02941619638868512,2.2879975918113575,0.023479603164377368,0.04510183835425641,0.13145209205870428,-0.027674120650345035,0.03920550430586697,0.043510665586846506,0.09300074861700762,0.04688621605046982,-0.01337010814631539,-0.09464460112525008,0.25127780015409085,-0.518185011551135,-0.022475987395858793,-0.0822181901540861]],"accuracy_validation":0.8330733229329174,"mse_training":0.3591455273698264,"accuracy_training":0.8204272363150867,"mse_validation":0.3338533541341654,"bias":2.247449518715944E-19},{"epoch":29,"weights":[[0.47721841754422534,-0.022363470587370593,-1.917490219375841,-1.7291868564244637,0.03490280029301296,-0.0672420338035927,0.039812507763877215,-2.271164428149044,-0.005915265931876402,-0.031652542174035514,-0.05992970628278339,0.03498701759436037,-0.03032676325350293,-0.03550529981160119,-0.08039927963814042,-0.03761048739048935,0.02472608482714043,0.09252350652165103,-0.30203453271854525,0.4910539119555437,0.07902872627722692,-0.0883632375104006],[-0.4709329414656369,0.03530066930869306,1.9307652301853173,1.7468204643305967,-0.03204088844365554,0.07427161815383065,-0.028631258738233693,2.278363680996832,0.02317960316437737,0.04346176704698208,0.0732048295371096,-0.02668758912811073,0.03890195689721327,0.0422229399668264,0.09066830730339145,0.0453852616331751,-0.013272817529101148,-0.09103226878716512,0.3110573675875497,-0.4768481267387582,-0.06710842900381621,0.0945845000491904]],"accuracy_validation":0.8486739469578783,"mse_training":0.3471295060080107,"accuracy_training":0.8264352469959947,"mse_validation":0.30265210608424337,"bias":3.194822844577079E-19},{"epoch":28,"weights":[[0.43964316852398116,-0.024782617250769478,-1.8703949988435504,-1.7298840993090894,0.0337034509838853,-0.06552459987944116,0.038629652090335295,-2.2747894291609607,-0.005314615242822536,-0.030827384258303586,-0.029853845896669465,0.03490619205771,-0.02980867864061698,-0.03498591476406344,-0.0792237971697909,-0.03661250215956572,0.02296281286161224,0.08845194188129862,-0.2572140810475518,0.5165117401368104,0.12157999125384261,-0.10729975796370889],[-0.4333576924453925,0.037719815972092,1.8836700096530268,1.7475177072152224,-0.0308415391345279,0.07255418422967912,-0.02744840306469181,2.2819886820087487,0.02257895247532351,0.04263660913125014,0.04312896915099572,-0.026606763591460362,0.038383872284327304,0.04170355491928864,0.08949282483504194,0.04438727640225147,-0.011509545563572953,-0.08696070414681271,0.26623691591655624,-0.5023059549200248,-0.10965969398043174,0.11352102050249885]],"accuracy_validation":0.8549141965678627,"mse_training":0.33511348464619495,"accuracy_training":0.8324432576769025,"mse_validation":0.29017160686427457,"bias":3.8335456099827977E-19},{"epoch":27,"weights":[[0.4921557152898097,-0.02405093033849798,-1.86371476582931,-1.7767087807960984,0.03290318984624828,-0.06446460253982705,0.036929652081857445,-2.3250209065728553,-0.0047586302943976614,-0.030097403122726872,-0.06910644069773816,0.03364995788889348,-0.030442809270864672,-0.03465580118051462,-0.07823426590976094,-0.03577418445257638,0.022482351943935233,0.08314943836419014,-0.29126848837862623,0.5981476054434415,-0.012357532913032323,-0.1253155764506191],[-0.48587023921122086,0.036988129059820525,1.8769897766387864,1.7943423887022314,-0.030041277996890905,0.07149418689006501,-0.02574840305621401,2.3322201594206433,0.02202296752689864,0.0419066279956734,0.08238156395206431,-0.025350529422643864,0.039018002914575016,0.04137344133573982,0.08850329357501198,0.04354895869526213,-0.011029084645895946,-0.08165820062970423,0.3002913232476307,-0.5839418202266559,0.02427783018644336,0.1315368389894092]],"accuracy_validation":0.7207488299531981,"mse_training":0.5861148197596796,"accuracy_training":0.7069425901201603,"mse_validation":0.5585023400936038,"bias":3.741019798960134E-19},{"epoch":26,"weights":[[0.47552479403798203,-0.022236803346162112,-1.814525497796773,-1.7572947311366327,0.03150318984625501,-0.061969613770427846,0.035940933223601125,-2.2911990421060207,-0.004358633233470756,-0.02894542358752559,-0.059911103939556,0.03234758332339539,-0.03003521135978298,-0.033603823375654256,-0.07579427551607201,-0.03412567340927019,0.022217793400424225,0.07983194547759077,-0.2374687766426772,0.4547138415941833,-0.052350751676765145,-0.022598861066320485],[-0.46923931795939294,0.035174002067484667,1.8278005086062494,1.7749283390427657,-0.028641277996897682,0.06899919812066584,-0.024759684197957706,2.2983982949538087,0.02162297046597174,0.04075464846047208,0.07318622719388208,-0.024048154857145825,0.038610405003493276,0.04032146353087946,0.08606330318132305,0.04190044765195594,-0.010764526102384939,-0.07834070774310486,0.2464916115116815,-0.44050805637739743,0.06427104895017607,0.028820123605110784]],"accuracy_validation":0.7550702028081123,"mse_training":0.5060080106809078,"accuracy_training":0.746995994659546,"mse_validation":0.48985959438377535,"bias":3.8917165843784446E-19},{"epoch":25,"weights":[[0.40754477639427017,-0.021328043871287544,-1.7872550456909166,-1.777957318917826,0.030203191280714813,-0.06023958763512245,0.034340381994858706,-2.2985987262579677,-0.004065448240186319,-0.027962113847511516,-0.10760929498878499,0.030854730505201506,-0.02960723837140887,-0.03312924712627199,-0.07458728844860336,-0.033342173211719374,0.02185367846814818,0.07591679712283012,-0.2321754505009314,0.5451182112596787,-0.004765559677765726,0.053520418835771154],[-0.4012593003156813,0.03426524259261012,1.800530056500393,1.795590926823959,-0.02734127943135749,0.06726917198536045,-0.023159132969215353,2.3057979791057557,0.021329785472687303,0.03977133872045797,0.120884418243111,-0.022555302038951983,0.03818243201511914,0.0398468872814972,0.0848563161138544,0.041116947454405126,-0.010400411170108889,-0.0744255593883442,0.24119828536993565,-0.5309124260428925,0.016685856951176713,-0.047299156296980914]],"accuracy_validation":0.8190327613104524,"mse_training":0.369826435246996,"accuracy_training":0.815086782376502,"mse_validation":0.3619344773790952,"bias":3.5247194614885977E-19},{"epoch":24,"weights":[[0.454231623863367,-0.021423991533685297,-1.7497125504736168,-1.7524602708271844,0.028903189115488958,-0.05792665082795393,0.03314031898761907,-2.2868216208785337,-0.003465448240186319,-0.026949859772478806,-0.12112380851188802,0.030054376802298177,-0.02890166921033709,-0.032016993087987236,-0.07276822014319873,-0.03264236654739583,0.02105674303333887,0.07270915711384134,-0.15596585365811252,0.5840169111497878,0.06770985825467754,-0.04413246708823529],[-0.4479461477847779,0.034361190255007903,1.7629875612830932,1.7700938787333171,-0.026041277266131636,0.064956235178192,-0.021959069961975757,2.2940208737263217,0.020729785472687307,0.038759084645425185,0.1343989317662141,-0.021754948336048654,0.03747686285404729,0.03873463324321244,0.08303724780844976,0.04041714079008158,-0.009603475735299587,-0.07121791937935543,0.1649886885271169,-0.5698111259330015,-0.055789560981266556,0.05035372962702547]],"accuracy_validation":0.8471138845553822,"mse_training":0.3190921228304406,"accuracy_training":0.8404539385847797,"mse_validation":0.30577223088923555,"bias":3.741895231032622E-19},{"epoch":23,"weights":[[0.46709140049970965,-0.021245763518318177,-1.7228705782225315,-1.7518400821164188,0.02791136006439001,-0.05573397532317214,0.03226834025593518,-2.2797924560337504,-0.0026654482628313382,-0.026002209342965484,-0.03527493669652297,0.029548026277735666,-0.027993585694962138,-0.03104565165479272,-0.07071628865896748,-0.031553099835413496,0.020279573598410233,0.06892601786666926,-0.21043270584530804,0.4252113106079179,0.06741100826727656,-0.09070283004249301],[-0.46080592442112056,0.03418296223964081,1.7361455890320079,1.7694736900225516,-0.025049448215032688,0.06276355967341024,-0.02108709123029189,2.2869917088815384,0.01992978549533233,0.03781143421591183,0.04855005995084903,-0.021248597811486143,0.03656877933867229,0.03776329181001793,0.08098531632421851,0.03932787407809925,-0.008826306300370953,-0.06743478013218335,0.2194555407143125,-0.4110055253911317,-0.05549071099386568,0.0969240925812831]],"accuracy_validation":0.8517940717628705,"mse_training":0.34579439252336447,"accuracy_training":0.8271028037383178,"mse_validation":0.296411856474259,"bias":3.82812512516998E-19},{"epoch":22,"weights":[[0.3933049713444727,-0.021316135092516435,-1.6925771446780031,-1.753701918289433,0.026911559266992104,-0.05338024381399791,0.030970567225453532,-2.2548178492835533,-0.0019654482619631984,-0.0254714829656275,-0.10435483030458881,0.028247961954487356,-0.02723961606032787,-0.030314925277456783,-0.06918484989298448,-0.030362320669155868,0.01937389481594141,0.06539502978082828,-0.27968461663971145,0.5415457541123667,0.11511161932300315,-0.05562074026920447],[-0.3870194952658836,0.03425333381383912,1.7058521554874795,1.7713355261955654,-0.02404964741763478,0.060409828164236005,-0.019789318199810273,2.2620171021313413,0.01922978549446419,0.037280707838573825,0.11762995355891508,-0.019948533488237837,0.035814809704037984,0.03703256543268197,0.0794538775582355,0.038137094911841585,-0.007920627517902144,-0.06390379204634236,0.2887074515087157,-0.5273399688955807,-0.10319132204959237,0.06184200280799455]],"accuracy_validation":0.8346333853354134,"mse_training":0.38050734312416556,"accuracy_training":0.8097463284379173,"mse_validation":0.33073322932917315,"bias":2.806144873038383E-19},{"epoch":21,"weights":[[0.4959234662768211,-0.02124229205961074,-1.6645033118451331,-1.7679824631929917,0.02600596357314364,-0.05158338857379906,0.02987050464934553,-2.2794608693347476,-0.0014575885921916474,-0.024676003937598917,-0.0017670793979662723,0.027249163064224313,-0.02674966128373717,-0.029696741712946614,-0.06805043778404934,-0.02919752307122569,0.018003964845034144,0.06085424128513843,-0.21015256858003983,0.5988417412363767,-0.005474443462473971,0.04470009808793946],[-0.48963799019823223,0.034179490780933484,1.6777783226546095,1.7856160710991242,-0.023144051723786318,0.05861297292403715,-0.018689255623702272,2.2866601221825356,0.018721925824692644,0.036485228810545195,0.01504220265229268,-0.018949734597974794,0.03532485492744725,0.03641438186817176,0.07831946544930037,0.03697229731391136,-0.0065506975469948655,-0.059363003550652514,0.21917540344904413,-0.5846359560195906,0.017394740735884665,-0.038478835549149194]],"accuracy_validation":0.8205928237129485,"mse_training":0.369826435246996,"accuracy_training":0.815086782376502,"mse_validation":0.358814352574103,"bias":3.198221630346022E-19},{"epoch":20,"weights":[[0.46213142308699084,-0.020733905184013177,-1.6258176711380132,-1.7343154220346335,0.025105963573199063,-0.048781515713013195,0.028972092829054445,-2.252035566796316,-0.001057589449466872,-0.02367671825309761,-0.11089458012868683,0.026046201660726267,-0.025546195082200022,-0.02926635590103113,-0.06671635526795666,-0.02778025318311126,0.017388409550054724,0.05742419180165971,-0.25698580692553136,0.4615780908773664,0.03488129247691607,0.04968671995227955],[-0.45584594700840203,0.03367110390533592,1.6390926819474896,1.751949029940766,-0.02224405172384174,0.05581110006325129,-0.017790843803411185,2.259234819644104,0.01832192668196787,0.035485943126043834,0.12416970338301336,-0.017746773194476748,0.03412138872591006,0.035983996056256226,0.07698538293320768,0.03555502742579688,-0.005935142252015453,-0.055932954067173794,0.2660086417945356,-0.44737230566058,-0.022960995203505252,-0.04346545741348931]],"accuracy_validation":0.84399375975039,"mse_training":0.35781041388518026,"accuracy_training":0.8210947930574098,"mse_validation":0.31201248049922,"bias":3.8248146966345295E-19},{"epoch":19,"weights":[[0.5395475862505015,-0.021686060658618122,-1.591089917779018,-1.7251724779632904,0.02390486811921742,-0.04730759192382538,0.02807090936797492,-2.2285854849024522,-9.575900588277054E-4,-0.022774308092574677,-0.1089463289250639,0.024242248345248876,-0.025261787526161605,-0.028863945699041462,-0.06532607884240985,-0.026081656773739224,0.015862332999696156,0.053706409004184025,-0.28116040921951896,0.4670894725996436,-0.01641210418114529,0.06533339385401243],[-0.533262110171913,0.03462325937994094,1.6043649285884944,1.742806085869423,-0.021042956269860098,0.054337176274063474,-0.01688966034233166,2.2357847377502402,0.018221927291328703,0.034583532965520886,0.1222214521793904,-0.015942819878999356,0.03383698116987165,0.03558158585426656,0.07559510650766087,0.03385643101642479,-0.004409065701656873,-0.05221517126969811,0.2901832440885232,-0.45288368738285756,0.02833240145455622,-0.059112131315222534]],"accuracy_validation":0.8471138845553822,"mse_training":0.35113484646194926,"accuracy_training":0.8244325767690254,"mse_validation":0.30577223088923555,"bias":3.637035446100299E-19},{"epoch":18,"weights":[[0.5114466667513287,-0.02005740743070134,-1.5578854307234284,-1.7190581280098527,0.022805109929919732,-0.04526575799781584,0.027003118149274138,-2.2009042256299467,-5.575900588277297E-4,-0.021885504746076208,-0.14107383155701841,0.022373468956713456,-0.0246197121422583,-0.02774551993566504,-0.06270328271741522,-0.024916454767684573,0.01596312220585768,0.05008678126599201,-0.3240712291687529,0.5036323933527443,-0.02072820531592319,0.08002679702033585],[-0.5051611906727405,0.032994606152024195,1.5711604415329048,1.7366917359159852,-0.01994319808056241,0.052295342348053935,-0.01582186912363088,2.2081034784777347,0.01782192729132873,0.03369472961902239,0.15434895481134492,-0.014074040490463931,0.03319490578596831,0.0344631600908901,0.07297231038266624,0.03269122901037011,-0.00450985490781841,-0.048595543531506094,0.33309406403775715,-0.48942660813595823,0.0326485025893343,-0.0738055344815462]],"accuracy_validation":0.84399375975039,"mse_training":0.34979973297730305,"accuracy_training":0.8251001335113485,"mse_validation":0.31201248049922,"bias":2.958878702051211E-19},{"epoch":17,"weights":[[0.513658590682566,-0.020318093299558315,-1.5263376911789668,-1.7124357773561811,0.021506374528870113,-0.0427794095372698,0.026108928438352108,-2.1904722683198847,-3.575900588277297E-4,-0.020320304384416333,-0.04177079677291959,0.020957053881406753,-0.024124207248218635,-0.02657450937350089,-0.060272321249764595,-0.023414140924209192,0.015241997552747827,0.046106494188465706,-0.23235012084837675,0.45743155600553365,0.018343634402909363,-0.05731347719690594],[-0.507373114603978,0.03325529202088118,1.5396127019884431,1.7300693852623137,-0.01864446267951279,0.049808993887507896,-0.014927679412708847,2.1976715211676727,0.01762192729132873,0.03212952925736247,0.05504592002724594,-0.01265762541515723,0.03269940089192861,0.03329214952872591,0.07054134891501568,0.031188915166894687,-0.0037887302547085534,-0.04461525645397979,0.241372955717381,-0.4432257707887475,-0.006423337129498254,0.06353473973569555]],"accuracy_validation":0.8502340093603744,"mse_training":0.33377837116154874,"accuracy_training":0.8331108144192256,"mse_validation":0.2995319812792512,"bias":2.485738047039528E-19},{"epoch":16,"weights":[[0.5048897775153794,-0.017511625988985546,-1.4971555723656074,-1.756413638105567,0.020024823526777473,-0.04082166055801964,0.02491130239495777,-2.223920989144034,1.4240998929278305E-4,-0.019529883652373584,-0.12048292302384578,0.019028965219339722,-0.023935493251813465,-0.025782136937649778,-0.05919688512929021,-0.022007362890647936,0.015390204809600547,0.04163179904851445,-0.22293981739629826,0.42167532644938144,0.04308548919010337,0.06789122626091364],[-0.49860430143679174,0.030448824710308405,1.5104305831750837,1.7740472460116996,-0.01716291167742015,0.047851244908257734,-0.01373005336931451,2.231120241991822,0.017121927243208223,0.03133910852531966,0.13375804627817223,-0.0107295367530902,0.03251068689552338,0.03249977709287475,0.06946591279454124,0.02978213713333343,-0.003936937511561286,-0.04014056131402854,0.23196265226530244,-0.40746954123259493,-0.03116519191669237,-0.06166996372212398]],"accuracy_validation":0.8315132605304212,"mse_training":0.3604806408544726,"accuracy_training":0.8197596795727636,"mse_validation":0.3369734789391576,"bias":2.8218092047107E-19},{"epoch":15,"weights":[[0.4859598038962171,-0.016342333223068894,-1.4586423492178293,-1.7700424921370697,0.019424823601322944,-0.03884155120838445,0.024011355153097512,-2.2122889296851316,3.42410646774598E-4,-0.018115875817178745,-0.0802135251450307,0.017042029384255565,-0.02305475383466343,-0.024568129097228813,-0.05707055056642922,-0.020806740758655275,0.015072727636997803,0.03792422227906716,-0.1669204068025869,0.44269089861617006,-0.009770445498946512,7.366979774512811E-4],[-0.47967432781762903,0.02927953194439176,1.4719173600273057,1.787676100043202,-0.01656291175196562,0.045871135558622544,-0.01283010612745425,2.2194881825329196,0.01692192658572641,0.02992510069012482,0.09348864839935715,-0.008742600918006042,0.031629947478373305,0.03128576925245375,0.06733957823168026,0.02858151500134077,-0.0036194603389585476,-0.03643298454458124,0.17594324167159092,-0.4284851133993838,0.021690742772357774,0.005484564561338584]],"accuracy_validation":0.8517940717628705,"mse_training":0.3311081441922563,"accuracy_training":0.8344459279038718,"mse_validation":0.296411856474259,"bias":3.171865285453411E-19},{"epoch":14,"weights":[[0.4588296048316233,-0.016940816542411554,-1.4180432823013147,-1.7770937439757115,0.018424784067749687,-0.03659985024149996,0.022311348855415972,-2.1898052309294664,8.424106467745981E-4,-0.017397281313486175,-0.08467581678601335,0.016225145215081168,-0.022033475608785928,-0.023649560596724937,-0.055206843416624074,-0.020247207596992195,0.014018330998162555,0.03420032915410324,-0.21953514606120322,0.41347824916865616,0.06536977202659441,0.012831181617913197],[-0.45254412875303485,0.02987801526373442,1.4313182931107908,1.7947273518818438,-0.015562872218392365,0.043629434591738056,-0.011130099829772705,2.1970044837772544,0.01642192658572641,0.02920650618643225,0.09795094004033983,-0.007925716748831638,0.03060866925249579,0.03036720075194986,0.06547587108187505,0.02802198183967769,-0.0025650637001232946,-0.03270909141961732,0.22855798093020724,-0.39927246395186955,-0.05344947475318331,-0.0066099190791232415]],"accuracy_validation":0.8424336973478939,"mse_training":0.3538050734312417,"accuracy_training":0.8230974632843792,"mse_validation":0.31513260530421217,"bias":3.17047655480953E-19},{"epoch":13,"weights":[[0.46114502888630043,-0.017644483133212104,-1.3724973847276725,-1.7544682124671673,0.017323873591576878,-0.035801033703480006,0.021193783666026297,-2.154617328367078,0.0013424095127928058,-0.01681668826086743,0.06039333340672001,0.01492483331567351,-0.02193556956468235,-0.02326896850313521,-0.05356430668536267,-0.0184488394112015,0.0129163720558692,0.031199920369291173,-0.35016065431885285,0.44335145576383933,0.08134102271478208,0.05376740502921335],[-0.45485955280771206,0.030581681854534967,1.3857723955371486,1.7721018203732997,-0.014461961742219552,0.0428306180537181,-0.010012534640383033,2.161816581214866,0.01592192771970821,0.028625913133813505,-0.047118210152393536,-0.006625404849423976,0.03051076320839221,0.02998660865836013,0.06383333435061372,0.026223613653886993,-0.0014631047578299316,-0.029708682634805313,0.359183489187857,-0.4291456705470528,-0.06942072544137098,-0.047546142490423444]],"accuracy_validation":0.8018720748829953,"mse_training":0.43124165554072097,"accuracy_training":0.7843791722296395,"mse_validation":0.3962558502340094,"bias":3.3725493880678417E-19},{"epoch":12,"weights":[[0.4409645500175971,-0.016393676789237265,-1.3133988073133176,-1.7372292483322673,0.016363593117309855,-0.03352375772222548,0.019616058390674467,-2.1085783618668676,0.0015424095076927023,-0.015367848797344362,-0.13581432972056917,0.013824995971264976,-0.020718574230825775,-0.02239402179030919,-0.051394713840708046,-0.0172424117974171,0.012503728088630801,0.0269742357859681,-0.2509083401758347,0.5115499459862769,0.12054655862242658,0.032184554447056014],[-0.4346790739390089,0.02933087551056013,1.3266738181227937,1.7548628562383994,-0.013501681267952531,0.040553342072463576,-0.008434809365031201,2.1157776147146556,0.015721927724808314,0.027177073670290437,0.14908945297489573,-0.005525567505015433,0.029293767874535633,0.02911166194553411,0.061663741505959144,0.02501718604010259,-0.0010504607905915308,-0.02548299805148224,0.25993117504483876,-0.4973441607694902,-0.10862626134901546,-0.025963291908266302]],"accuracy_validation":0.8237129485179407,"mse_training":0.3724966622162884,"accuracy_training":0.8137516688918558,"mse_validation":0.35257410296411856,"bias":2.532979913690015E-19},{"epoch":11,"weights":[[0.460327332302853,-0.01653340134234343,-1.2516720893451532,-1.7127873792937867,0.015091004970546397,-0.031431107527582526,0.019008659732096582,-2.0791045242321697,0.0017424095076927024,-0.014053404458818084,0.005772109500540117,0.012738047608693206,-0.020406617693311712,-0.02127988592090524,-0.04920096171248449,-0.015451821408524946,0.011519599112733555,0.023192817987728893,-0.27340139520563195,0.5809233359601678,0.022174265834663046,0.03575675947365398],[-0.45404185622426485,0.029470600063666304,1.2649471001546293,1.7304209871999188,-0.012229093121189069,0.03846069187782062,-0.007827410706453318,2.0863037770799577,0.015521927724808314,0.025862629331764163,0.007503013753786512,-0.004438619142443654,0.02898181133702157,0.02799752607613016,0.05946998937773559,0.02322659565121044,-6.633181469428477E-5,-0.021701580253243032,0.28242423007463574,-0.5667175507433813,-0.010253968561252005,-0.02953549693486441]],"accuracy_validation":0.8205928237129485,"mse_training":0.38050734312416556,"accuracy_training":0.8097463284379173,"mse_validation":0.358814352574103,"bias":2.162424181647597E-19},{"epoch":10,"weights":[[0.43842808880748474,-0.01748890647797067,-1.1745126192736715,-1.6303079714960145,0.014091007008938174,-0.02903600410507709,0.01820862348376382,-2.0045921530427857,0.0019424112009549163,-0.01239120228139591,-0.06627807287034453,0.012129199605137782,-0.018911548480265303,-0.020154380169338383,-0.046413401359839214,-0.014247290185338646,0.010281520478503083,0.02061262990211151,-0.16246572732406095,0.47721479952645224,0.0017591612887593588,0.015118512032996051],[-0.43214261272889676,0.03042610519929355,1.1877876300831476,1.6479415794021466,-0.011229095159580847,0.03606558845531508,-0.00702737445812055,2.0117914058905724,0.015321926031546102,0.02420042715434199,0.07955319612467102,-0.003829771138888228,0.02748674212397516,0.026872020324563303,0.05668242902509031,0.022022064428024145,0.0011717468195361891,-0.01912139216762565,0.1714885621930648,-0.4630090143096652,0.010161135984651806,-0.008897249494206394]],"accuracy_validation":0.8455538221528861,"mse_training":0.3391188251001335,"accuracy_training":0.8304405874499332,"mse_validation":0.3088923556942278,"bias":1.85681343713786E-19},{"epoch":9,"weights":[[0.4350824609251457,-0.01614991677426193,-1.1235051382977967,-1.5864016181461777,0.013685979257103562,-0.0267396359126361,0.016832788595241472,-1.9514477323498542,0.0024424112009549196,-0.010880818227367028,-0.07406651629440354,0.011209730783350073,-0.017968647804891564,-0.01884399633573216,-0.043852232620945515,-0.013180170104623296,0.009621625832574619,0.016930979215295346,-0.3017828112161022,0.42980015321157233,0.02742319273381435,0.054917856424855555],[-0.42879698484655804,0.0290871154955848,1.1367801491072729,1.6040352260523099,-0.010824067407746234,0.03376922026287401,-0.005651539569598188,1.9586469851976407,0.014821926031546102,0.022690043100313115,0.08734163954872995,