[{"epoch":99,"weights":[[0.04732000091262712,0.017000872371782935,-0.32380420002220134,-0.154728584180523,0.012236764446698732,-0.019315818683951807,0.022019579349262484,-0.13112179890110304,0.00432106413248151,-0.013354812158203255,-0.006713265153126287,0.0172368052543308,-0.013012502851883169,-0.0022735675452407278,-0.016079631688214517,-0.012813975958197426,0.013169921500999588,0.05105130543762559,-7.477937869056241E-4,0.0827435525300069,0.01840585642900496,0.0025020525686826715],[-0.03776825864930909,-0.006840767574710728,0.33339191423223463,0.16155284246213436,0.002897814736235115,0.029513699729853696,-0.013224854156147483,0.1485405425685763,0.008114364008162385,0.020217611311782645,0.010698106818074007,-0.012196608246772496,0.014848050217232072,0.01929165767337325,0.018602436186321323,0.01610724575940985,-0.001602489987839026,-0.04126875610998742,0.008248380791390415,-0.07579803282315017,-0.010376114199613084,0.012067150162388057]],"accuracy_validation":0.7925117004680188,"mse_training":0.4045393858477971,"accuracy_training":0.7977303070761015,"mse_validation":0.41497659906396256,"bias":-6.8575023605690465E-19},{"epoch":98,"weights":[[0.05019452422188343,0.016901894986183226,-0.322347277320615,-0.15704512010243404,0.012162273635564323,-0.019097776732484254,0.02184416748702769,-0.13370682809636605,0.0043706409941153485,-0.013207855749344802,-0.01412288065325631,0.017072948191042932,-0.01293048900298792,-0.0021830220198350036,-0.015929727464328965,-0.012667288155926484,0.01309333084080496,0.05052659233694863,-0.011147610188981262,0.0832211698160431,-0.004779553792373629,0.009091045492002644],[-0.04064278195856546,-0.006741790189111016,0.33193499153064826,0.1638693783840454,0.002972305547369525,0.029295657778386143,-0.013049442293912684,0.1511255717638393,0.008064787146528545,0.020070654902924184,0.018107722318204074,-0.012032751183484614,0.014766036368336824,0.019201112147967523,0.01845253196243577,0.015960557957138913,-0.001525899327644401,-0.04074404300931046,0.018648197193466012,-0.0762756501091864,0.012809296021765516,0.005478157239068109]],"accuracy_validation":0.8455538221528861,"mse_training":0.3377837116154873,"accuracy_training":0.8311081441922563,"mse_validation":0.3088923556942278,"bias":-6.981718603235935E-19},{"epoch":97,"weights":[[0.05175077090038568,0.01678165043111431,-0.31973757731753116,-0.15652826438147424,0.012144075758764614,-0.01889439306299107,0.021659430934776423,-0.1320888404517867,0.0044206392992274385,-0.013106112878116525,-0.010063309560090997,0.016924243572138675,-0.012793507532956546,-0.0021152193125349257,-0.015773486498674116,-0.012562278161291034,0.012993395586527647,0.05007626213726052,0.002177458944044926,0.07634251566491262,0.005413603190904051,0.009006990175685006],[-0.042199028637067655,-0.006621545634042071,0.3293252915275644,0.16335252266308561,0.002990503424169231,0.02909227410889296,-0.01286470574166142,0.14950758411925996,0.008014788841416452,0.019968912031695873,0.014048151225038795,-0.011884046564580333,0.01462905489830545,0.01913330944066741,0.01829629099678092,0.01585554796250345,-0.001425964073367097,-0.04029371280962235,0.005323128060439859,-0.0693969959580559,0.0026161390384878865,0.005562212555385733]],"accuracy_validation":0.8143525741029641,"mse_training":0.37383177570093457,"accuracy_training":0.8130841121495327,"mse_validation":0.3712948517940718,"bias":-6.45947588287679E-19},{"epoch":96,"weights":[[0.05471465908172349,0.0166051559480857,-0.3179160651527805,-0.15684654991099242,0.012068754772124811,-0.01863597612931224,0.02147015460338026,-0.13256661627005736,0.004488227480156345,-0.01296808526492368,-0.007826736386007529,0.016739451017001347,-0.01266765028766415,-0.0019925313235634253,-0.015593031815449595,-0.012446536952799426,0.012865423326135255,0.04961832965419459,-0.004549896342807967,0.07336364109767267,0.004960732375965709,0.019606858822789654],[-0.045162916818405625,-0.006445051151013474,0.3275037793628137,0.1636708081926038,0.0030658244108090326,0.02883385717521413,-0.012675429410265254,0.14998535993753062,0.007947200660487546,0.019830884418503007,0.01181157805095533,-0.011699254009442973,0.014503197653013054,0.019010621451695898,0.018115836313556424,0.01573980675401183,-0.0012979918129747213,-0.03983578032655642,0.01205048334729274,-0.06641812139081597,0.0030690098534263185,-0.00503765609171886]],"accuracy_validation":0.7878315132605305,"mse_training":0.41255006675567424,"accuracy_training":0.7937249666221629,"mse_validation":0.4243369734789392,"bias":-6.147019115358393E-19},{"epoch":95,"weights":[[0.06207998414619655,0.016586161535575582,-0.3154523227235708,-0.15642698710660205,0.011994864944426519,-0.018428489818949678,0.021300921170065774,-0.13231801405472401,0.004541049610173034,-0.01279076341214973,0.0019172301665364641,0.01659593207261443,-0.0125617607290665,-0.001855446618028998,-0.015390612260642162,-0.012319903355032994,0.012796785973456562,0.049112483340599734,-0.004776521292574931,0.07805159757144536,0.0014572150267585272,0.008010766736795632],[-0.052528241882878586,-0.00642605673850338,0.32504003693360406,0.1632512453882134,0.003139714238507329,0.02862637086485157,-0.01250619597695077,0.1497367577221973,0.007894378530470857,0.019653562565729074,0.002067611498411331,-0.011555735065056062,0.014397308094415404,0.018873536746161487,0.01791341675874901,0.015613173156245396,-0.0012293544602960318,-0.039329934012961566,0.012277108297059677,-0.07110607786458858,0.006572527202633478,0.006558435994275176]],"accuracy_validation":0.8065522620904836,"mse_training":0.4098798397863818,"accuracy_training":0.7950600801068091,"mse_validation":0.3868954758190328,"bias":-6.333372256431327E-19},{"epoch":94,"weights":[[0.05130426916461031,0.0164179330565191,-0.3139482250428047,-0.15442763989598424,0.011954637998183373,-0.018169576978103466,0.02107738531854889,-0.13112753288837328,0.004580311433248954,-0.012648605858681404,-0.008052400427379655,0.016378722479316432,-0.01241286572452121,-0.0017536435987503991,-0.015190999742292224,-0.01212555530905458,0.012683836133512105,0.04871407857526266,-6.40230616575632E-4,0.07329081725516817,0.009183598742189644,0.013387900915845772],[-0.04175252690129225,-0.006257828259446885,0.3235359392528379,0.1612518981775956,0.0031799411847504757,0.02836745802400536,-0.01228266012543388,0.1485462765558466,0.007855116707394935,0.019511405012260764,0.012037242092327458,-0.011338525471758067,0.014248413089870115,0.018771733726882903,0.017713804240399103,0.015418825110266982,-0.0011164046203515773,-0.03893152924762449,0.008140817621060385,-0.06634529754831135,-0.0011538565127976602,0.001181301815224984]],"accuracy_validation":0.7925117004680188,"mse_training":0.4098798397863818,"accuracy_training":0.7950600801068091,"mse_validation":0.41497659906396256,"bias":-6.38359933060102E-19},{"epoch":93,"weights":[[0.0701516899408109,0.016302535033239453,-0.31216255562102935,-0.15543429318819366,0.011877344915562705,-0.01796703016944576,0.020934066267898458,-0.13183552770989,0.004618701301914153,-0.01246733836037685,-0.001710978600109424,0.016187881559142393,-0.0123656439254481,-0.0016307575139759695,-0.015003714774057974,-0.011982634721735084,0.012573270571982537,0.04823346346592973,0.009502617883893037,0.08279032446343573,-0.0059339082739992815,0.011138807244039064],[-0.060599947677492806,-0.006142430236167244,0.3217502698310626,0.162258551469805,0.0032572342673711477,0.028164911215347654,-0.012139341074783453,0.14925427137736327,0.007816726838729733,0.019330137513956215,0.005695820265057236,-0.011147684551584023,0.014201191290797003,0.018648847642108488,0.017526519272164854,0.015275904522947486,-0.0010058390588220212,-0.03845091413829156,-0.0020020308794082508,-0.07584480475657884,0.013963650503391276,0.003430395487031718]],"accuracy_validation":0.8049921996879875,"mse_training":0.40854472630173566,"accuracy_training":0.7957276368491322,"mse_validation":0.39001560062402496,"bias":-6.2531773241758085E-19},{"epoch":92,"weights":[[0.07440583766352009,0.01629271528156337,-0.3102604794658448,-0.15499393677991471,0.011847927854246298,-0.017735792544317217,0.02072167868417612,-0.131302687698756,0.004652624299910832,-0.012341370752836579,-0.001466913539599822,0.016007347944089822,-0.012226823929044466,-0.0015482473780231753,-0.014862103066569429,-0.011844541572684103,0.012485929925727678,0.04784306257183567,0.0036272657779364316,0.08335943910337495,-0.006263470315712226,0.00932497137648375],[-0.0648540954002021,-0.006132610484491123,0.319848193675878,0.16181819506152612,0.003286651328687555,0.027933673590219105,-0.011926953491061121,0.1487214313662293,0.007782803840733054,0.019204169906415953,0.005451755204547651,-0.010967150936531462,0.014062371294393371,0.01856633750615569,0.017384907564676297,0.015137811373896505,-9.184984125671522E-4,-0.0380605132441975,0.003873321226548378,-0.07641391939651809,0.014293212545104239,0.005244231354587075]],"accuracy_validation":0.8003120124804992,"mse_training":0.40186915887850466,"accuracy_training":0.7990654205607477,"mse_validation":0.3993759750390016,"bias":-5.906722141376436E-19},{"epoch":91,"weights":[[0.04431245038349953,0.01615309281062436,-0.3096454268969393,-0.1584602741319205,0.01176179527301472,-0.01751949525213911,0.020505843463137895,-0.1339847442029595,0.0047033608045596075,-0.01223765376990263,-0.007194205690368776,0.0158289630513122,-0.012127047542175326,-0.0014943645858443502,-0.014773559207615338,-0.011696239309057213,0.012378148107357382,0.04733434163951984,-0.002410759821031197,0.08071902587563161,0.0065095992458756875,0.007971436489793676],[-0.034760708120181505,-0.005992988013552105,0.31923314110697254,0.16528453241353191,0.0033727839099191364,0.027717376298041,-0.01171111827002289,0.15140348787043278,0.007732067336084278,0.01910045292348201,0.011179047355316631,-0.010788766043753837,0.013962594907524231,0.018512454713976865,0.01729636370572221,0.014989509110269614,-8.107165941968524E-4,-0.037551792311881674,0.00991134682551598,-0.0737735061687747,0.0015201429835162827,0.006597766241277147]],"accuracy_validation":0.8252730109204368,"mse_training":0.36181575433911883,"accuracy_training":0.8190921228304406,"mse_validation":0.3494539781591264,"bias":-5.8764505130167E-19},{"epoch":90,"weights":[[0.05497776566249225,0.01616441021752632,-0.3057800054342298,-0.1557611558731576,0.011771326424383471,-0.01727333399754078,0.020328627506327912,-0.12967888703102853,0.004733183228190004,-0.012038606020352675,-0.003863431276409317,0.015646057578754705,-0.011977278266353676,-0.001345683129213358,-0.014469625888190452,-0.011561732159534592,0.01235545084106306,0.04698742832666976,2.7643840809598447E-4,0.08519368869631433,-0.0019659495325535896,0.00767266196489582],[-0.04542602339917426,-0.006004305420454083,0.315367719644263,0.16258541415476907,0.003363252758550384,0.02747121504344267,-0.011533902313212902,0.1470976306985018,0.007702244912453881,0.018901405173932094,0.007848272941357164,-0.010605860571196342,0.013812825631702582,0.018363773257345912,0.016992430386297323,0.014855001960746994,-7.880193279025408E-4,-0.03720487899903159,0.007224148596388767,-0.07824816898945747,0.009995691761945532,0.006896540766174993]],"accuracy_validation":0.8221528861154446,"mse_training":0.3671562082777036,"accuracy_training":0.8164218958611482,"mse_validation":0.35569422776911075,"bias":-6.061805738532544E-19},{"epoch":89,"weights":[[0.04922240952878554,0.016121859826942763,-0.3044560612532059,-0.1565680707096428,0.011715939202802209,-0.017073606710069973,0.020138585260148962,-0.1305813466180891,0.004768946380176952,-0.01190040187658937,-0.00561897565309141,0.015492927841918571,-0.01185284398425983,-0.001276492631415852,-0.014341946285932798,-0.011414385516797793,0.012248723299782533,0.046583191154181885,-0.00546650437135054,0.09211458996595327,-0.008621966435438142,0.007334524196683957],[-0.0396706672654676,-0.005961755029870522,0.31404377546323914,0.16339232899125428,0.0034186399801316544,0.027271487755971862,-0.011343860067033949,0.14800009028556235,0.0076664817604669335,0.01876320103016882,0.0096038173180393,-0.010452730834360215,0.013688391349608735,0.018294582759548445,0.01686475078403966,0.014707655318010195,-6.812917866220032E-4,-0.03680064182654372,0.012967091375835328,-0.08516907025909658,0.016651708664830046,0.0072346785343868885]],"accuracy_validation":0.8424336973478939,"mse_training":0.33511348464619495,"accuracy_training":0.8324432576769025,"mse_validation":0.31513260530421217,"bias":-5.989582255793554E-19},{"epoch":88,"weights":[[0.05676319089561878,0.01596306257569675,-0.301539189341906,-0.15645024878622268,0.011632163961711685,-0.01684472065529831,0.01995960582589956,-0.13116139809171695,0.004809718698406159,-0.011774679647885688,-0.0017540988318289858,0.015362381516349385,-0.011748853054754939,-0.0012105897578428308,-0.014201654439237278,-0.011268633842411715,0.01214522814953918,0.046045243522107884,-0.005281366590868181,0.08565127524363787,-0.002464321369831112,-0.001120456107057204],[-0.04721144863230076,-0.005802957778624514,0.3111269035519392,0.16327450706783417,0.0035024152212221804,0.027042601701200198,-0.011164880632784556,0.1485801417591902,0.007625709442237727,0.01863747880146516,0.005738940496776892,-0.010322184508791028,0.013584400420103844,0.01822867988597545,0.016724458937344148,0.014561903643624117,-5.777966363786428E-4,-0.036262694194469716,0.012781953595352981,-0.07870575553678129,0.010494063599223044,0.015689658838128034]],"accuracy_validation":0.8393135725429017,"mse_training":0.33511348464619495,"accuracy_training":0.8324432576769025,"mse_validation":0.3213728549141966,"bias":-5.790232277015339E-19},{"epoch":87,"weights":[[0.060809900202270485,0.015888473013750837,-0.29988629463882754,-0.1546819752854758,0.011587711896517652,-0.016596058762413456,0.019806736415939077,-0.12972636358731113,0.00486153611722254,-0.011592460004516286,-0.006226717791409528,0.015214140024562544,-0.011572221100187283,-0.00110256012096172,-0.014013930782624185,-0.011106949124856933,0.012059777132134155,0.04561417930140771,-0.0043834122902536585,0.08433672451289384,-9.94067858228623E-4,0.0017206581996351122],[-0.05125815793895254,-0.0057283682166786145,0.3094740088488608,0.1615062335670873,0.003546867286416216,0.026793939808315344,-0.011012011222824079,0.14714510725478439,0.007573892023421345,0.01845525915809577,0.010211559456357442,-0.010173943017004186,0.01340776846553619,0.01812065024909434,0.01653673528073106,0.014400218926069335,-4.923456189736214E-4,-0.03583162997376954,0.011883999294738396,-0.0773912048060372,0.009023810087620553,0.012848544531435744]],"accuracy_validation":0.8315132605304212,"mse_training":0.3444592790387183,"accuracy_training":0.8277703604806409,"mse_validation":0.3369734789391576,"bias":-5.523165805305035E-19},{"epoch":86,"weights":[[0.052519120913470344,0.01587042231604355,-0.29898915368808177,-0.15571114509291942,0.011498476886134982,-0.01640991767282609,0.01964118898450374,-0.13163555561792498,0.0049287464144584705,-0.0114453373160165,-0.002064647763172052,0.015144530330602004,-0.011485169253252344,-9.823036368809815E-4,-0.01386319783495091,-0.011007533034777297,0.011989905871268487,0.04515780250177724,-0.0029082186275783553,0.08289292125242397,0.0029967201489389545,0.013824443989207146],[-0.04296737865015244,-0.005710317518971336,0.308576867898115,0.16253540337453093,0.0036361022967988954,0.02660779871872798,-0.010846463791388743,0.14905429928539823,0.007506681726185415,0.01830813646959601,0.006049489428119969,-0.010104333323043646,0.013320716618601252,0.01800039376501361,0.01638600233305772,0.014300802835989699,-4.2247435810796336E-4,-0.035375253174139074,0.010408805632063079,-0.07594740154556731,0.005033022080452984,7.447587418636901E-4]],"accuracy_validation":0.7956318252730109,"mse_training":0.40720961281708945,"accuracy_training":0.7963951935914553,"mse_validation":0.40873634945397813,"bias":-5.529944870761089E-19},{"epoch":85,"weights":[[0.05015610172490112,0.015611989228376621,-0.29865291112934855,-0.15804423496541076,0.011408452066098876,-0.016188764289523355,0.019434442617985683,-0.13465801226646112,0.004980383953458226,-0.011297958825886467,-0.008930845165196783,0.014983659066511163,-0.011432143024046503,-8.56481499897039E-4,-0.013697314987603662,-0.01087516292813434,0.011855433329087292,0.0446373275157429,-0.008511230884835042,0.0831030798629864,-0.004297423084391603,0.00441198848098762],[-0.040604359461583125,-0.005451884431304412,0.3082406253393818,0.1648684932470222,0.0037261271168349975,0.026386645335425243,-0.010639717424870694,0.15207675593393435,0.007455044187185659,0.018160757979466015,0.012915686830144739,-0.009943462058952805,0.01326769038939541,0.017874571628029703,0.016220119485710498,0.014168432729346741,-2.88001815926771E-4,-0.03485477818810473,0.01601181788931979,-0.07615756015612962,0.01232716531378359,0.010157214250083266]],"accuracy_validation":0.8471138845553822,"mse_training":0.3324432576769025,"accuracy_training":0.8337783711615487,"mse_validation":0.30577223088923555,"bias":-4.992505472394611E-19},{"epoch":84,"weights":[[0.05626127173851228,0.015507390881661238,-0.29883927462581056,-0.16110110638782682,0.0113563195518742,-0.016029515061739583,0.019218125977785556,-0.1394518027923535,0.005016948588483317,-0.011199272043499213,-0.009853319914219066,0.014808208860849237,-0.011353815615353183,-7.964231245044587E-4,-0.013618709065733075,-0.010713218545860189,0.011748290201868527,0.044154186182243337,-0.005957388134459229,0.08025553047508661,-0.00546072016955947,0.0031697353923769763],[-0.04670952947519435,-0.00534728608458901,0.3084269888358438,0.16792536466943822,0.0037782596310596732,0.026227396107641472,-0.010423400784670571,0.1568705464598267,0.0074184795521605685,0.018062071197078748,0.013838161579167018,-0.009768011853290879,0.01318936298070209,0.017814513252637103,0.01614151356383993,0.01400648834707259,-1.808586887079991E-4,-0.03437163685460517,0.013457975138943984,-0.07331001076822988,0.013490462398951424,0.011399467338693929]],"accuracy_validation":0.8393135725429017,"mse_training":0.32710280373831774,"accuracy_training":0.8364485981308412,"mse_validation":0.3213728549141966,"bias":-5.143927029685953E-19},{"epoch":83,"weights":[[0.07126174611818936,0.01550681471656816,-0.2962717133988207,-0.15798749383686328,0.011316596926027192,-0.01580531631636273,0.019033799079215537,-0.13550851984390153,0.005038493220483493,-0.011006600123469688,-0.004950799879395501,0.014680198008163095,-0.011175570321133794,-6.805834978798304E-4,-0.013418318764992937,-0.010613486736169513,0.011711157248837631,0.043763147830303196,0.001499303615255269,0.08763428675633084,-0.006363151002100175,0.010107069590542696],[-0.061710003854871374,-0.005346709919495925,0.30585942760885393,0.16481175211847468,0.003817982256906684,0.02600319736226462,-0.010239073886100555,0.15292726351137467,0.007396934920160392,0.017869399277049208,0.008935641544343488,-0.009640001000604737,0.013011117686482701,0.01769867362601247,0.01594112326309982,0.013906756537381914,-1.4372573567710423E-4,-0.03398059850266503,0.00600128338922945,-0.08068876704947399,0.014392893231492131,0.004462133140528197]],"accuracy_validation":0.8049921996879875,"mse_training":0.3885180240320427,"accuracy_training":0.8057409879839786,"mse_validation":0.39001560062402496,"bias":-5.077574395445654E-19},{"epoch":82,"weights":[[0.05854479998793537,0.015416380912110207,-0.2954917188749359,-0.15852609014465338,0.011249318608835584,-0.015633483423472597,0.018854854286552904,-0.13658725514095846,0.005091015819306101,-0.01089544436838141,-0.003751387989295861,0.014538852090027225,-0.011106825845294212,-6.167849230918316E-4,-0.013317857740370479,-0.010451256177554394,0.011617014378704818,0.04332473278916584,0.0019538462460929567,0.08621510035034,0.0021280984734259756,0.012502060094964976],[-0.04899305772461747,-0.005256276115037972,0.30507943308496915,0.1653503484262648,0.0038852605740982964,0.025831364469374486,-0.010060129093437916,0.15400599880843155,0.007344412321337784,0.017758243521960936,0.0077362296542438725,-0.009498655082468867,0.01294237321064312,0.017634875051224474,0.015840662238477365,0.013744525978766796,-4.9582865544299306E-5,-0.03354218346152767,0.005546740758391779,-0.07926958064348313,0.005901643755965982,0.002067142636105848]],"accuracy_validation":0.7987519500780031,"mse_training":0.40854472630173566,"accuracy_training":0.7957276368491322,"mse_validation":0.40249609984399376,"bias":-5.16114095576005E-19},{"epoch":81,"weights":[[0.06438217239875385,0.015170374422069687,-0.293056152047944,-0.16066795961887692,0.01117053503593771,-0.015394745109087426,0.018662296885606174,-0.14017801662876375,0.005132924795654674,-0.0107650748722988,-0.004694396831441698,0.014371328197815765,-0.010998595774003424,-5.557569060477031E-4,-0.013232497691959945,-0.010355960856434619,0.011439716085268342,0.042844455743809504,-7.298454707709272E-4,0.0729591596580474,0.00395464727462585,0.009532752406318078],[-0.05483043013543593,-0.005010269624997446,0.30264386625797723,0.16749221790048835,0.003964044146996177,0.025592626154989313,-0.009867571692491185,0.15759676029623684,0.007302503344989212,0.017627874025878322,0.00867923849638971,-0.009331131190257407,0.01283414313935233,0.017573847034180343,0.015755302190066836,0.01364923065764702,1.2771542789216593E-4,-0.03306190641617134,0.008230432475255673,-0.06601363995119043,0.0040750949547661425,0.005036450324752778]],"accuracy_validation":0.7925117004680188,"mse_training":0.40854472630173566,"accuracy_training":0.7957276368491322,"mse_validation":0.41497659906396256,"bias":-4.890403683701887E-19},{"epoch":80,"weights":[[0.06476614817218133,0.015047039313056867,-0.2911811590820885,-0.1601380382779569,0.011101249252633333,-0.015158094665647562,0.01846291879823508,-0.14062282162178621,0.005185029303175755,-0.01062602128323705,-0.011527961251583351,0.014193914046595901,-0.010884537189320464,-4.668213847468116E-4,-0.013082496625823647,-0.010206639755311657,0.011322355497769939,0.042319781784057146,9.188796019086042E-4,0.07442943535591373,-0.01417510945583943,0.005171230129188866],[-0.05521440590886341,-0.0048869345159846065,0.30076887329212176,0.16696229655956832,0.00403332993030055,0.025355975711549465,-0.009668193605120093,0.15804156528925928,0.00725039883746813,0.017488820436816547,0.015512802916531362,-0.009153717039037543,0.012720084554669369,0.017484911512879432,0.015605301123930548,0.013499909556524059,2.4507601539055374E-4,-0.032537232456418985,0.006581707402576099,-0.06748391564905676,0.02220485168523143,0.009397972601881984]],"accuracy_validation":0.8424336973478939,"mse_training":0.34979973297730305,"accuracy_training":0.8251001335113485,"mse_validation":0.31513260530421217,"bias":-4.732345542558919E-19},{"epoch":79,"weights":[[0.05784409276620081,0.015036445566839031,-0.28980974801574416,-0.1598199309314003,0.011065580905762635,-0.01499468993453054,0.018279503679188028,-0.13939033099828546,0.00522882837175564,-0.010445257812547978,0.0014110503151365855,0.01405808024573104,-0.010762660116639174,-3.107668836891798E-4,-0.012853525282650352,-0.010070336603219666,0.011291760261284969,0.04191871715793119,5.742197817639417E-4,0.07971843487904223,0.001084111484190806,0.009928467942061241],[-0.04829235050288287,-0.004876340769766785,0.2993974622257774,0.16664418921301172,0.004068998277171243,0.025192570980432434,-0.009484778486073018,0.15680907466575855,0.007206599768888246,0.017308056966127475,0.002573791349811416,-0.009017883238172684,0.012598207481988078,0.0173288570118218,0.015376329780757252,0.013363606404432068,2.7567125187552555E-4,-0.03213616783029303,0.006926367222720783,-0.07277291517218526,0.006945630745201176,0.004640734789009627]],"accuracy_validation":0.8049921996879875,"mse_training":0.4098798397863818,"accuracy_training":0.7950600801068091,"mse_validation":0.39001560062402496,"bias":-4.666263114788503E-19},{"epoch":78,"weights":[[0.058319972805911974,0.01491401586837276,-0.2876254731765646,-0.15770754270350573,0.0110198142617529,-0.0147871843447489,0.018120436448818163,-0.1389428690699986,0.005296781616094429,-0.010332358594260599,-0.008572237865391494,0.013894076167065178,-0.010652582267610964,-2.2872056206348583E-4,-0.012704060237886136,-0.009899403648898757,0.01120750159832365,0.04151446830640909,-0.005376665579391142,0.0794113633691537,0.009411841265381644,0.009951724048535043],[-0.04876823054259408,-0.004753911071300493,0.29721318738659785,0.16453180098511716,0.004114764921180986,0.02498506539065079,-0.009325711255703162,0.15636161273747168,0.007138646524549456,0.017195157747840077,0.012557079530339499,-0.008853879159506821,0.012488129632959866,0.017246810690196103,0.015226864735993035,0.013192673450111159,3.5992991483683914E-4,-0.03173191897877093,0.012877252583875847,-0.07246584366229676,-0.001382099035989702,0.0046174786825358485]],"accuracy_validation":0.7956318252730109,"mse_training":0.40587449933244324,"accuracy_training":0.7970627503337784,"mse_validation":0.40873634945397813,"bias":-4.534695269002785E-19},{"epoch":77,"weights":[[0.052335333334162334,0.014767038405825132,-0.28732520880917206,-0.1589025107987738,0.01096608675807608,-0.014518656869586734,0.01793814794993951,-0.1405327028203136,0.005333586790595898,-0.010208636646023091,-0.009538906471062557,0.013687882004038178,-0.01052115709488272,-1.3838120411685333E-4,-0.012546143089981372,-0.009734737593242806,0.011113835426354027,0.04104623099509193,-0.00168874235615333,0.08751694646587618,-0.009710014165163604,0.009410398614758033],[-0.04278359107084442,-0.0046069336087528456,0.2969129230192053,0.1657267690803852,0.004168492424857804,0.02471653791548862,-0.009143422756824508,0.1579514464877867,0.007101841350047987,0.017071435799602592,0.013523748136010587,-0.008647684996479822,0.012356704460231622,0.0171564713322495,0.015068947588088272,0.013028007394455208,4.5359608680644513E-4,-0.03126368166745377,0.009189329360638054,-0.08057142675901918,0.01773975639455556,0.005158804116312905]],"accuracy_validation":0.84399375975039,"mse_training":0.3324432576769025,"accuracy_training":0.8337783711615487,"mse_validation":0.31201248049922,"bias":-4.3737673248756925E-19},{"epoch":76,"weights":[[0.059737228443747376,0.014657022858382213,-0.28568841973550735,-0.15836709295714652,0.010886170427773859,-0.014330790146775123,0.017763281485942164,-0.14131355526421152,0.0053976680874331774,-0.010092778753706375,-0.00104165389460174,0.013541750290049087,-0.010420220103845258,-3.986177407451864E-5,-0.012394605673416112,-0.009571070060526637,0.011018134969006235,0.040605457025646594,-0.008069951459459483,0.08328147352628568,0.0037445911572789523,0.0023237099758005586],[-0.050185486180429395,-0.004496918061309928,0.2952761339455406,0.1651913512387579,0.004248408755160028,0.024528671192677022,-0.008968556292827164,0.15873229893168458,0.007037760053210708,0.016955577907285867,0.005026495559549754,-0.00850155328249073,0.01225576746919416,0.017057951902207175,0.014917410171523012,0.012864339861739038,5.492965441542298E-4,-0.03082290769800844,0.015570538463944204,-0.07633595381942862,0.004285151072112976,0.012245492755270397]],"accuracy_validation":0.8221528861154446,"mse_training":0.38584779706275035,"accuracy_training":0.8070761014686249,"mse_validation":0.35569422776911075,"bias":-4.2570585726999866E-19},{"epoch":75,"weights":[[0.05997881568347799,0.014554891988480582,-0.2837845456208303,-0.15798150400596572,0.010801582337663753,-0.014093586661912703,0.017609615907799157,-0.14272398419806856,0.00544904230334591,-0.009975753497223613,-0.005508998140497493,0.013349747887555824,-0.010299736617378668,2.7600038318323236E-5,-0.012292533092980276,-0.009454485426171961,0.010932511557315084,0.04005528769047404,-0.006805166059813582,0.08392016687328993,-0.0031552519765869827,0.013493900157113117],[-0.05042707342016005,-0.004394787191408293,0.2933722598308635,0.1648057622875771,0.004332996845270134,0.024291467707814627,-0.008814890714684151,0.16014272786554165,0.006986385837297975,0.01683855265080312,0.009493839805445535,-0.008309550879997468,0.01213528398272757,0.016990490089814368,0.014815337591087175,0.012747755227384363,6.349199558453783E-4,-0.030272738362835946,0.014305753064298338,-0.07697464716643282,0.01118499420597889,0.0010753025739578866]],"accuracy_validation":0.8174726989079563,"mse_training":0.37917222963951935,"accuracy_training":0.8104138851802403,"mse_validation":0.36505460218408736,"bias":-4.118835596652323E-19},{"epoch":74,"weights":[[0.06861574035121198,0.014429256810574474,-0.2825063285882383,-0.15791717228420998,0.010772998620557127,-0.013886427599186166,0.01744342951999382,-0.1414339851681195,0.005479009440483406,-0.009795172086406796,-0.010711243187193072,0.013218765196168573,-0.010157888559027108,1.3869596329598347E-4,-0.012113503088607319,-0.009332790176512156,0.010845376050943531,0.039559311279433074,-0.0010583374978073562,0.08227851393486918,-0.012747936618488538,-0.00395206866760676],[-0.05906399808789414,-0.004269152013502168,0.29209404279827156,0.16474143056582133,0.004361580562376763,0.024084308645088103,-0.008648704326878818,0.1588527288355926,0.00695641870016048,0.016657971239986323,0.014696084852141113,-0.008178568188610217,0.01199343592437601,0.016879394164836733,0.014636307586714218,0.012626059977724558,7.220554622169342E-4,-0.029776761951795048,0.008558924502292183,-0.07533299422801196,0.020777678847880458,0.018521271398677788]],"accuracy_validation":0.8315132605304212,"mse_training":0.3644859813084112,"accuracy_training":0.8177570093457944,"mse_validation":0.3369734789391576,"bias":-4.2207438004824776E-19},{"epoch":73,"weights":[[0.05325884244779547,0.014274048908439928,-0.2802297005364264,-0.1582660715040811,0.010687075234371195,-0.013651603964320134,0.017244237546749166,-0.1435509863665556,0.005525037004805805,-0.009674920632889862,-0.011232117555927314,0.013042682685619592,-0.01005388109640593,2.2398606391896045E-4,-0.011980401649476623,-0.009154829080744057,0.010716467759860114,0.039027044916347294,0.004857671432158839,0.08178410063172523,0.002757786677159665,0.01483910825388884],[-0.043707100184477723,-0.004113944111367607,0.2898174147464597,0.16509032978569244,0.004447503948562691,0.023849485010222073,-0.008449512353634168,0.1609697300340287,0.0069103911358380805,0.016537719786469406,0.015216959220875346,-0.008002485678061236,0.011889428461754835,0.016794104064213777,0.014503206147583523,0.01244809888195646,8.509637533003374E-4,-0.029244495588709327,0.0026429155723259844,-0.07483858092486809,0.005271955552232234,-2.699055228178246E-4]],"accuracy_validation":0.8018720748829953,"mse_training":0.3925233644859813,"accuracy_training":0.8037383177570093,"mse_validation":0.3962558502340094,"bias":-4.166393944379509E-19},{"epoch":72,"weights":[[0.05168363229666645,0.014264158492926903,-0.2775651709859236,-0.1578665460046962,0.010632609020803738,-0.013452267473668412,0.01705117441063587,-0.1422132829863545,0.005572119166316459,-0.009530546279966334,5.567210874409005E-4,0.012941205840092201,-0.009978085290435083,3.4354478933134816E-4,-0.011784360352801181,-0.009065050158910643,0.010674114387034915,0.038594690522948394,0.001999024058288777,0.08636110602182433,0.0024079395701814606,0.011593730075060243],[-0.04213189003334881,-0.004104053695854592,0.28715288519595694,0.16469080428630758,0.004501970162130142,0.023650148519570355,-0.008256449217520865,0.15963202665382759,0.006863308974327426,0.016393345433545894,0.0034281205775071643,-0.007901008832533845,0.011813632655783987,0.01667454533880141,0.01430716485090808,0.012358319960123047,8.933171261255343E-4,-0.02881214119531043,0.005501562946196035,-0.07941558631496733,0.005621802659210435,0.002975472656010761]],"accuracy_validation":0.7956318252730109,"mse_training":0.40720961281708945,"accuracy_training":0.7963951935914553,"mse_validation":0.40873634945397813,"bias":-4.0193989592134096E-19},{"epoch":71,"weights":[[0.05581434228758115,0.014125358409672783,-0.27704823592226885,-0.15937899274397083,0.010589472005452523,-0.013269298769496882,0.016837014676393546,-0.1440415132595292,0.005612720937472773,-0.009423201114893443,-0.006136983709925263,0.0127307380233575,-0.009892763525118834,4.218257658853077E-4,-0.011662283067690533,-0.00891136231051526,0.010550769997043314,0.03814106823096539,-6.340667422788226E-4,0.08199485847774986,0.005383925815423218,0.009747552310000546],[-0.04626260002426346,-0.003965253612600447,0.28663595013230214,0.16620325102558217,0.004545107177481352,0.023467179815398857,-0.008042289483278535,0.1614602569270023,0.006822707203171113,0.016286000268473006,0.010121825374873338,-0.007690541015799141,0.011728310890467736,0.016596264362247454,0.014185087565797429,0.012204632111727664,0.0010166615161171396,-0.028358518903327492,0.008134653746763611,-0.07504933877089282,0.002645816413968648,0.004821650421070413]],"accuracy_validation":0.8003120124804992,"mse_training":0.3965287049399199,"accuracy_training":0.80173564753004,"mse_validation":0.3993759750390016,"bias":-3.999061352909951E-19},{"epoch":70,"weights":[[0.06596706965393313,0.014032973214957278,-0.27476452899988096,-0.15975639015658297,0.01055635190456612,-0.013042752588249176,0.016627800727074277,-0.144262879308825,0.0056629497195906054,-0.009346716349206412,-0.0016173901569520213,0.012502577829411103,-0.009710730105908677,4.6846136904221176E-4,-0.01157523215982492,-0.008780785074997998,0.010499054045579204,0.03761178805570325,-0.00403980210420666,0.08235546120562315,-0.014851395780480336,-0.003336323365428282],[-0.05641532739061552,-0.0038728684178849443,0.28435224320991426,0.16658064843819428,0.00457822727836776,0.023240633634151135,-0.007833075533959281,0.1616816229762981,0.00677247842105328,0.016209515502785977,0.005602231821900126,-0.007462380821852749,0.011546277471257579,0.016549628759090558,0.014098036657931816,0.012074054876210402,0.001068377467581244,-0.027829238728065375,0.011540389108691464,-0.07540994149876604,0.022881138009872175,0.017905526096499272]],"accuracy_validation":0.8221528861154446,"mse_training":0.37917222963951935,"accuracy_training":0.8104138851802403,"mse_validation":0.35569422776911075,"bias":-3.6586744934559676E-19},{"epoch":69,"weights":[[0.05234263055713224,0.013808596801283176,-0.2736405793340023,-0.15971564488925333,0.010521837988972778,-0.012826224279092153,0.0164322982923895,-0.14553624062742063,0.005722621456181469,-0.009267848009288803,-0.0074001957825096465,0.012333665518307401,-0.00963245606037376,5.451169095975265E-4,-0.011473649865377652,-0.008646877046303804,0.01034408786198667,0.037158923492921145,-0.0050554148809761985,0.07625657598378777,-0.003706600985435253,0.007267659896687265],[-0.042790888293814715,-0.003648492004210847,0.2832282935440356,0.16653990317086464,0.004612741193961107,0.023024105324994104,-0.007637573099274508,0.16295498429489372,0.006712806684462416,0.016130647162868352,0.011385037447457735,-0.007293468510749045,0.011468003425722663,0.01647297321853523,0.01399645436348455,0.011940146847516207,0.0012233436511737783,-0.027376374165283292,0.012556001885461014,-0.06931105627693065,0.011736343214827073,0.007301542834383756]],"accuracy_validation":0.84399375975039,"mse_training":0.3257676902536716,"accuracy_training":0.8371161548731643,"mse_validation":0.31201248049922,"bias":-3.705415788958517E-19},{"epoch":68,"weights":[[0.05643678297793559,0.013736446858987308,-0.27195056694410996,-0.15905940350542913,0.010470664836941326,-0.012631346240544919,0.016227067245257805,-0.14615505019106848,0.0057630457869545385,-0.009156524773202848,0.001218535528070724,0.012224068639636338,-0.00951487598741642,6.065649030089152E-4,-0.011358030706378143,-0.00850167594026963,0.01023483029520281,0.03670997924988587,-0.0015459208158336507,0.07822941075577654,-0.005371351195841953,-0.001410714327612088],[-0.04688504071461811,-0.003576342061914987,0.28153828115414326,0.16588366178704045,0.004663914345992559,0.022829227286446842,-0.007432342052142816,0.16357379385854157,0.006672382353689347,0.016019323926782375,0.0027663061368773524,-0.0071838716320779894,0.011350423352765322,0.01641152522512383,0.013880835204485043,0.011794945741482033,0.0013326012179576204,-0.026927429922248114,0.009046507820318442,-0.0712838910489194,0.013401093425233728,0.015979917058683082]],"accuracy_validation":0.8315132605304212,"mse_training":0.3431241655540721,"accuracy_training":0.828437917222964,"mse_validation":0.3369734789391576,"bias":-3.917946629293285E-19},{"epoch":67,"weights":[[0.04132069056063451,0.013638504762524109,-0.2695565239535461,-0.15765605573156943,0.010435679692766998,-0.012371173092922976,0.016096399476717576,-0.1440916081630334,0.005812028291572276,-0.009027095179116677,9.059572773287179E-4,0.011991173433362637,-0.009371644417804893,7.157549705377759E-4,-0.011174835528816313,-0.008342949117984302,0.010152439602443742,0.036288910637929744,-0.003357801906898561,0.07937486936496997,0.00365322159624174,0.008165627476109744],[-0.03176894829731713,-0.0034783999654517997,0.2791442381635794,0.16448031401318075,0.004698899490166884,0.022569054138824884,-0.007301674283602601,0.1615103518305065,0.006623399849071609,0.01588989433269619,0.0030788843876193854,-0.006950976425804288,0.011207191783153795,0.016302335157594973,0.013697640026923214,0.011636218919196705,0.0014149919107166857,-0.026506361310292072,0.010858388911383375,-0.07242934965811275,0.004376520633150069,0.00640357525496125]],"accuracy_validation":0.8221528861154446,"mse_training":0.3658210947930574,"accuracy_training":0.8170894526034713,"mse_validation":0.35569422776911075,"bias":-3.6382470859814435E-19},{"epoch":66,"weights":[[0.0515576968700576,0.013440284246779831,-0.26725355894270125,-0.15682523843500393,0.010375345140600952,-0.012159515642749526,0.01591153786114648,-0.14638627528879558,0.0058538095750598935,-0.008922344219502578,-0.008453885358888096,0.011749598098311347,-0.009233655512545154,7.673689803074646E-4,-0.011076966921279562,-0.008165208724615552,0.01003207394408436,0.03585805326075783,-0.0031309514965750683,0.07532909831575127,-0.0055241518731256305,0.0055884561049897126],[-0.042005954606740274,-0.003280179449707531,0.27684127315273455,0.16364949671661524,0.004759234042332933,0.022357396688651467,-0.007116812668031523,0.1638050189562686,0.006581618565583992,0.015785143373082153,0.012438727023836171,-0.006709401090752992,0.011069202877894055,0.016250721147825335,0.013599771419386461,0.011458478525827955,0.0015353575690760588,-0.026075503933120126,0.010631538501059827,-0.0683835786088942,0.013553894102517445,0.008980746626081311]],"accuracy_validation":0.8424336973478939,"mse_training":0.32843791722296395,"accuracy_training":0.835781041388518,"mse_validation":0.31513260530421217,"bias":-3.63752232222264E-19},{"epoch":65,"weights":[[0.06644513822793108,0.013336196171607922,-0.2657535225526854,-0.15637580552859706,0.010298406787404372,-0.011918492862650877,0.015723876255617344,-0.14562472214542058,0.005894049694489642,-0.008772445490918048,7.562951247867736E-4,0.011579864017494057,-0.009130743379716767,9.012118844979643E-4,-0.01085397861858613,-0.007965233281210727,0.009960385968839537,0.035381289977156935,-7.611956128182155E-4,0.08430206573977692,-0.005361235407458984,0.015127640480640548],[-0.05689339596461382,-0.0031760913745356397,0.2753412367627187,0.16320006381020838,0.004836172395529513,0.022116373908552815,-0.0069291510625023875,0.16304346581289356,0.006541378446154243,0.01563524464449763,0.0032285465401612873,-0.006539667009935698,0.010966290745065667,0.016116878243634846,0.01337678311669303,0.01125850308242313,0.0016070455443208734,-0.025598740649519256,0.008261782617302982,-0.07735654603291983,0.013390977636850796,-5.584377495695316E-4]],"accuracy_validation":0.8003120124804992,"mse_training":0.411214953271028,"accuracy_training":0.794392523364486,"mse_validation":0.3993759750390016,"bias":-3.5665155012104277E-19},{"epoch":64,"weights":[[0.046695147436663455,0.013260708571300765,-0.2638001583033526,-0.15672965803550915,0.010229532644598702,-0.011650184514993438,0.015461539905602076,-0.14608325512679787,0.005924289673388116,-0.00870153114620302,0.0036004255885723827,0.011368224058981411,-0.008963548215119506,9.518873373473851E-4,-0.010785440902523551,-0.00782114511552353,0.009857429974929154,0.035000446293667255,-0.003555451988539745,0.07475114993873769,0.0061697106270492685,0.0018128620413411425],[-0.0371434051733462,-0.0031006037742284886,0.27338787251338587,0.16355391631712052,0.0049050465383351834,0.021848065560895344,-0.0066668147124871145,0.1635019987942708,0.006511138467255769,0.0155643302997826,3.844160763756387E-4,-0.00632802705142306,0.010799095580468406,0.01606620279078539,0.01330824540063045,0.011114414916735933,0.0017100015382312357,-0.025217896966029663,0.011056038993024521,-0.06780563023188065,0.001860031602342549,0.012756340689729898]],"accuracy_validation":0.8252730109204368,"mse_training":0.3604806408544726,"accuracy_training":0.8197596795727636,"mse_validation":0.3494539781591264,"bias":-3.539446336104413E-19},{"epoch":63,"weights":[[0.05630678422640048,0.013148459754274165,-0.26235040998405934,-0.15870989564494864,0.010150465399480713,-0.011412561025327785,0.015295618953715057,-0.14589706313347833,0.005927055347636654,-0.008568845124315827,7.721892958716136E-4,0.011209362882103056,-0.008833280545810443,9.92258580570464E-4,-0.01065759813932287,-0.0075962314892474335,0.009758502117503991,0.03453869126210716,0.00795424498410752,0.0790010443039677,-9.978240434986296E-4,0.017785570979085064],[-0.046755041963083305,-0.0029883549572019,0.2719381241940926,0.16553415392656004,0.004984113783453178,0.021610442071229634,-0.006500893760600103,0.16331580680095129,0.006508372793007231,0.015431644277895406,0.0032126523690764095,-0.006169165874544707,0.010668827911159343,0.016025831547562295,0.01318040263742977,0.01088950129045985,0.001808929395656384,-0.024756141934469657,-4.536579796227021E-4,-0.07205552459711073,0.009027566272890407,-0.0032163682480140145]],"accuracy_validation":0.7847113884555382,"mse_training":0.4152202937249666,"accuracy_training":0.7923898531375166,"mse_validation":0.43057722308892354,"bias":-3.7730826288953245E-19},{"epoch":62,"weights":[[0.06829132046448443,0.01311735559724534,-0.25874681867552246,-0.15774345549479538,0.010060778518690954,-0.011110266256887826,0.015078767857428468,-0.14097339722740815,0.005960323274865718,-0.00838372871194477,-0.005124016485218018,0.011063196058327352,-0.008695275005072839,0.0011277969427348402,-0.010415145727862564,-0.0074671861552655285,0.009716328274085657,0.03414562646175323,0.0041799791872884975,0.0847901111592366,-0.012103204836557812,0.01610380469661512],[-0.058739578201167104,-0.0029572508001730596,0.2683345328855557,0.16456771377640675,0.005073800664242931,0.021308147302789668,-0.006284042664313506,0.15839214089488107,0.006475104865778168,0.01524652786552435,0.009108858150166066,-0.006022999050769007,0.010530822370421739,0.015890293185397905,0.012937950225969464,0.010760455956477939,0.0018511032390747242,-0.024363077134115802,0.0033206078171963546,-0.07784459145237967,0.020132947065949532,-0.0015346019655440683]],"accuracy_validation":0.8143525741029641,"mse_training":0.3871829105473965,"accuracy_training":0.8064085447263017,"mse_validation":0.3712948517940718,"bias":-3.7203102315379534E-19},{"epoch":61,"weights":[[0.05677378113417642,0.012916083321560717,-0.256991396264083,-0.15944814696929602,0.009958833819426716,-0.010878235972545919,0.014905064020952956,-0.144525110163799,0.006009688473466435,-0.008280934073881592,5.26161845736543E-4,0.010913103960038254,-0.008605669919590005,0.0011971263871753315,-0.010310094552441272,-0.007311736391173852,0.009606448215661588,0.033658568128216534,9.374504231389063E-4,0.07445913315603589,-0.007791075698645418,-0.005492711880944907],[-0.047222038870859295,-0.002755978524488427,0.26657911047411625,0.1662724052509074,0.005175745363507172,0.021076117018447745,-0.006110338827837989,0.1619438538312719,0.00642573966717745,0.015143733227461171,0.003458679819211482,-0.00587290695247991,0.010441217284938905,0.01582096374095742,0.012832899050548172,0.010605006192386265,0.0019609832974987773,-0.02387601880057913,0.006563136581345956,-0.06751361344917889,0.015820817928037117,0.02006191461201596]],"accuracy_validation":0.8205928237129485,"mse_training":0.38584779706275035,"accuracy_training":0.8070761014686249,"mse_validation":0.358814352574103,"bias":-3.912743842402209E-19},{"epoch":60,"weights":[[0.06424524703906052,0.012769405155339033,-0.25473240494307176,-0.1594868982250661,0.009925548780154484,-0.010642972321201821,0.014666470569762472,-0.14621664009978663,0.006049655797685548,-0.008136856071377693,-0.0028994083180158103,0.010710485181140749,-0.008479268724384535,0.0012827239989457503,-0.010186151905597692,-0.007236396983330908,0.009502200427560845,0.03316914425765823,0.005730453554064466,0.08102308348969574,0.0011637005892103734,0.009498952031904971],[-0.054693504775743404,-0.002609300358266747,0.264320119153105,0.16631115650667747,0.005209030402779406,0.020840853367103635,-0.005871745376647489,0.16363538376725953,0.006385772342958338,0.014999655224957272,0.006884249982963839,-0.005670288173582388,0.010314816089733435,0.015735366129186995,0.012708956403704591,0.01052966678454332,0.0020652310855995264,-0.02338659493002091,0.0017701334504203964,-0.07407756378283882,0.006866041640181352,0.005070250699166097]],"accuracy_validation":0.7987519500780031,"mse_training":0.4152202937249666,"accuracy_training":0.7923898531375166,"mse_validation":0.40249609984399376,"bias":-3.594820212974839E-19},{"epoch":59,"weights":[[0.06612007207822015,0.012701157080635754,-0.2522238514760048,-0.15702642582878762,0.009895392790172427,-0.010405663943983613,0.014465051910353683,-0.14418028150282808,0.006098981838375325,-0.007993408819149835,-5.342760763056301E-4,0.010580978129023698,-0.008336627238546506,0.0013854699865581811,-0.010024849970364251,-0.007140229992117321,0.009390267063797515,0.03271486086438756,0.005251702890011845,0.0870742739887633,-0.002555035310355905,0.007539547612170523],[-0.05656832981490304,-0.002541052283563454,0.26181156568603803,0.163850684110399,0.005239186392761466,0.020603544989885456,-0.00567032671723869,0.161599025170301,0.006336446302268561,0.014856207972729414,0.004519117741253631,-0.005540781121465342,0.010172174603895407,0.015632620141574568,0.012547654468471149,0.01043349979332973,0.002177164449362854,-0.022932311536750283,0.002248884114473028,-0.08012875428190658,0.010584777539747622,0.007029655118900616]],"accuracy_validation":0.8065522620904836,"mse_training":0.40587449933244324,"accuracy_training":0.7970627503337784,"mse_validation":0.3868954758190328,"bias":-3.656585906347524E-19},{"epoch":58,"weights":[[0.05666078058194173,0.0125375018962816,-0.250146453910583,-0.15753409007771965,0.0098199294993079,-0.010160512568612676,0.01430730841079491,-0.14456268345895226,0.00613151920859686,-0.007816530069480026,0.0015343703904933442,0.010410025686912223,-0.008194299057487519,0.0014956212055873427,-0.00985516418779527,-0.007036154816643584,0.00924747262562523,0.03223583362228015,-0.001755193949791975,0.07879532780497858,-0.012538455682623769,0.0040853644180714336],[-0.047109038318624556,-0.002377397099209295,0.2597341681206162,0.16435834835933102,0.005314649683625994,0.020358393614514525,-0.005512583217679921,0.1619814271264252,0.006303908932047026,0.014679329223059609,0.0024504712744546913,-0.005369828679353869,0.010029846422836419,0.015522468922545397,0.012377968685902168,0.010329424617855996,0.0023199588875351443,-0.022453284294642967,0.009255780954276947,-0.07184980809812189,0.02056819791201553,0.010483838312999712]],"accuracy_validation":0.8299531981279251,"mse_training":0.3484646194926569,"accuracy_training":0.8257676902536716,"mse_validation":0.34009360374414976,"bias":-3.0720914247397415E-19},{"epoch":57,"weights":[[0.05936779166446178,0.01252757192474369,-0.2492893839335595,-0.15854665756905723,0.009810740742534957,-0.009974482629252726,0.014104408073534509,-0.14511795562793228,0.006181528975372934,-0.007674822079246683,0.004584441144344147,0.01020295302959637,-0.008071992723377082,0.0015989757765876283,-0.009709565065008382,-0.006898992272416671,0.00922890511969399,0.031772482533010626,-0.006206743761260087,0.07672640983003591,-0.013489780497812156,0.007657684710626248],[-0.049816049401144605,-0.0023674671276713807,0.25887709814359294,0.1653709158506686,0.00532383844039893,0.020172363675154587,-0.005309682880419516,0.16253669929540523,0.006253899165270952,0.014537621232826264,-5.995994793961162E-4,-0.005162756022038012,0.009907540088725983,0.015419114351545117,0.012232369563115278,0.01019226207362908,0.0023385263934663876,-0.021989933205373475,0.013707330765745023,-0.06978089012317919,0.02151952272720393,0.006911518020444884]],"accuracy_validation":0.8268330733229329,"mse_training":0.35647530040053405,"accuracy_training":0.821762349799733,"mse_validation":0.3463338533541342,"bias":-3.107703532366569E-19},{"epoch":56,"weights":[[0.04672237031555021,0.012416505898873852,-0.24724799043697573,-0.1592340069118385,0.009723924687358004,-0.009753430628101986,0.013926321567036416,-0.1464438688883211,0.006182257287860619,-0.0074934785397831015,-0.0021440383954733876,0.010042480516385087,-0.00793433643324982,0.0016848823515573212,-0.009568744416670183,-0.006765760908706017,0.009101834144652994,0.031268692071578244,-0.003157494972353558,0.08331480039270377,0.00498409674574319,0.02248173068316077],[-0.03717062805223305,-0.0022564011018015606,0.2568357046470094,0.16605826519344988,0.00541065449557588,0.019951311674003862,-0.005131596373921434,0.16386261255579404,0.0062531708527832665,0.014356277693362672,0.006128880060421439,-0.005002283508826724,0.00976988379859872,0.015333207776575422,0.012091548914777078,0.010059030709918424,0.0024655973685073743,-0.021486142743941148,0.010658081976838492,-0.07636928068584697,0.00304564548364856,-0.007912527952089672]],"accuracy_validation":0.7784711388455539,"mse_training":0.4259012016021362,"accuracy_training":0.7870493991989319,"mse_validation":0.44305772230889234,"bias":-3.130695226557073E-19},{"epoch":55,"weights":[[0.04650715618822837,0.01229554404097723,-0.24586086885637176,-0.16169179839851888,0.009674747073181724,-0.009532105186333701,0.01374737099929108,-0.14790686169185158,0.006192590492900034,-0.007322660702815517,-0.007098878899574366,0.009831441652449573,-0.007842813204846252,0.001778484207624009,-0.009415722944403,-0.006632073930161835,0.009027392447373548,0.030801516305974143,-0.0062765282411015085,0.08527836440754238,-0.001789259773684978,0.0034607202855848926],[-0.03695541392491123,-0.002135439243904939,0.255448583066406,0.16851605668013028,0.0054598321097521635,0.019729986232235572,-0.0049526458061761,0.16532560535932453,0.006242837647743852,0.014185459856395079,0.011083720564522405,-0.004791244644891211,0.009678360570195154,0.015239605920508738,0.011938527442509896,0.009925343731374246,0.0025400390657868187,-0.02101896697833705,0.01377711524558646,-0.07833284470068558,0.00981900200307675,0.01110848244548622]],"accuracy_validation":0.8424336973478939,"mse_training":0.3204272363150868,"accuracy_training":0.8397863818424566,"mse_validation":0.31513260530421217,"bias":-2.882856623036071E-19},{"epoch":54,"weights":[[0.050245756591745024,0.01217648253670442,-0.24379171985884282,-0.161975917025204,0.009580713141341252,-0.009304780453380958,0.013526946983044285,-0.1485048685893771,0.006222123507744781,-0.007221590633079689,-0.007040959319574626,0.009655843807756517,-0.00772772787309288,0.0018094972223039996,-0.009330180918250048,-0.006473763120814372,0.008869109273071305,0.0302930680514347,-9.400605793211357E-4,0.08066845785971401,-0.0059589497988017555,0.010214857535584506],[-0.04069401432842783,-0.002016377739632129,0.25337943406887764,0.16880017530681538,0.005553866041592637,0.019502661499282866,-0.004732221789929308,0.16592361225685007,0.006213304632899105,0.014084389786659258,0.011025800984522667,-0.004615646800198166,0.009563275238441785,0.015208592905828754,0.011852985416356944,0.009767032922026778,0.0026983222400890584,-0.020510518723797607,0.00844064758380611,-0.07372293815285723,0.013988692028193521,0.0043543451954865964]],"accuracy_validation":0.8455538221528861,"mse_training":0.3364485981308411,"accuracy_training":0.8317757009345794,"mse_validation":0.3088923556942278,"bias":-2.894389174663772E-19},{"epoch":53,"weights":[[0.06205580624785057,0.01205875995003632,-0.24209812184689855,-0.1602228471793896,0.00955227876232165,-0.009100191074614038,0.013339177399489761,-0.14799309841107336,0.006262484152885024,-0.007100248066965265,-0.012552244774804676,0.009512390084236405,-0.0075887816906813335,0.0019099919925397273,-0.009170592221345865,-0.006348351683804554,0.008753211817149232,0.0298700569354054,0.00236654222375952,0.0808915987357152,-0.01738870430981544,0.007289759626611734],[-0.05250406398453337,-0.0018986551529640184,0.2516858360569335,0.1670471054610009,0.005582300420612237,0.019298072120515923,-0.004544452206374788,0.16541184207854634,0.006172943987758862,0.013963047220544839,0.01653708643975273,-0.00447219307667805,0.00942432905603025,0.015108098135593032,0.011693396719452763,0.009641621485016967,0.0028142196960111204,-0.02008750760776831,0.005134044780725449,-0.07394607902885837,0.02541844653920721,0.007279443104459371]],"accuracy_validation":0.8361934477379095,"mse_training":0.3604806408544726,"accuracy_training":0.8197596795727636,"mse_validation":0.32761310452418096,"bias":-2.807256978296607E-19},{"epoch":52,"weights":[[0.05205035853604462,0.011970024708382319,-0.2400381580952325,-0.16177777346104416,0.009458274392958916,-0.00886627968776195,0.013144899777057023,-0.15006117876146882,0.006299864649205909,-0.006970877336000294,-0.006611315288634414,0.009388050791320003,-0.007468476638383761,0.001986351501707506,-0.009038835684703823,-0.006228253504283821,0.008650598483340587,0.029382232437460035,-0.0083817045200366,0.07909162285488333,-0.003975703279155572,0.002343676462957936],[-0.04249861627272734,-0.0018099199113100176,0.24962587230526817,0.16860203174265548,0.005676304789974964,0.019064160733663838,-0.004350174583942048,0.1674799224289418,0.006135563491437976,0.013833676489579859,0.010596156953582472,-0.004347853783761652,0.009304024003732675,0.015031738626425246,0.011561640182810721,0.009521523305496233,0.002916833029819757,-0.019599683109822942,0.01588229152452154,-0.07214610314802629,0.012005445508547435,0.012225526268113211]],"accuracy_validation":0.8408736349453978,"mse_training":0.32977303070761016,"accuracy_training":0.835113484646195,"mse_validation":0.31825273010920435,"bias":-2.4411413297365446E-19},{"epoch":51,"weights":[[0.05266928644910253,0.011773049817433528,-0.23740783305177132,-0.16072478837560464,0.009427458393029546,-0.008662395681188886,0.01295459212234535,-0.15107081006203155,0.0063623020590137785,-0.006834926820396354,-0.005556526223769012,0.009246029034283794,-0.007321914471798946,0.0020889387970094314,-0.00887011032900418,-0.006107446047321373,0.008553450758099967,0.028891500853222445,-7.833854139954431E-4,0.08614140982105788,0.0071541457633112395,0.011478513589913317],[-0.04311754418578519,-0.0016129450203612296,0.24699554726180684,0.16754904665721596,0.005707120789904332,0.01886027672709075,-0.004159866929230371,0.1684895537295045,0.006073126081630107,0.013697725973975915,0.009541367888717085,-0.004205832026725448,0.009157461837147864,0.014929151331123318,0.011392914827111078,0.009400715848533787,0.0030139807550603587,-0.019108951525585352,0.008283972418480376,-0.0791958901142008,8.755964660806456E-4,0.0030906891411578187]],"accuracy_validation":0.7893915756630265,"mse_training":0.40854472630173566,"accuracy_training":0.7957276368491322,"mse_validation":0.42121684867394693,"bias":-2.242252922034069E-19},{"epoch":50,"weights":[[0.07260325213432914,0.011650334736881865,-0.2346997401301599,-0.16230444363892962,0.00939812731915656,-0.008467019205373722,0.012760423411673856,-0.15080735909573192,0.006395531536746063,-0.00670626284040974,-0.0013079882717761545,0.009044428298955557,-0.0071980002546416025,0.002197933764860605,-0.008710238750294568,-0.005968053183572803,0.008463739681170937,0.02845563859796824,-3.8628778324584744E-4,0.08798017524940287,-0.00553769819063183,0.009135779341395742],[-0.06305150987101181,-0.0014902299398095562,0.24428745434019541,0.16912870192054094,0.005736451863777318,0.018664900251275585,-0.003965698218558878,0.16822610276320493,0.006039896603897823,0.013569061993989306,0.005292829936724227,-0.004004231291397226,0.009033547619990515,0.014820156363272153,0.011233043248401466,0.00926132298478521,0.0031036918319893797,-0.018673089270331147,0.00788687478773074,-0.08103465554254578,0.013567440420023686,0.0054334233896754375]],"accuracy_validation":0.8034321372854915,"mse_training":0.40186915887850466,"accuracy_training":0.7990654205607477,"mse_validation":0.39313572542901715,"bias":-2.1961369038158373E-19},{"epoch":49,"weights":[[0.047811904802273236,0.011531877224605896,-0.2331384521286838,-0.16374173794880786,0.00933805589736224,-0.008251903161507937,0.012597226706270564,-0.15562133427345498,0.006465098549128122,-0.00662384292690746,-0.004578666230026413,0.008853580905684402,-0.00706394805600055,0.0022584099690982806,-0.00863391371824958,-0.005820038383468259,0.00835032745021904,0.02799942598788486,6.024768805328994E-4,0.07714572777337968,-0.0024121072979629773,0.006072939886510709],[-0.03826016253895595,-0.001371772427533576,0.24272616633871932,0.17056599623041913,0.005796523285571635,0.018449784207409833,-0.003802501513155589,0.17304007794092793,0.005970329591515763,0.013486642080487015,0.008563507894974518,-0.003813383898126073,0.008899495421349447,0.014759680159034474,0.011156718216356477,0.009113308184680667,0.0032171040629412817,-0.018216876660247766,0.006898110123951956,-0.07020020806652269,0.01044184952735485,0.008496262844560497]],"accuracy_validation":0.84399375975039,"mse_training":0.3257676902536716,"accuracy_training":0.8371161548731643,"mse_validation":0.31201248049922,"bias":-2.168778947657978E-19},{"epoch":48,"weights":[[0.06409144309599227,0.011440353520193257,-0.23040447142707837,-0.1643790810453171,0.009291878869580862,-0.007988550942228615,0.01239837786360831,-0.1567665288106427,0.006515267019397457,-0.006458907236181184,7.682858928149848E-4,0.00864992946750075,-0.006928237837688679,0.0023881316585482445,-0.00842460122741535,-0.005669688179746425,0.008247616496358957,0.027465779440052285,3.380056100886599E-4,0.07358633971880446,-0.014414532839366181,0.01571780750421872],[-0.05453970083267499,-0.0012802487231209404,0.23999218563711383,0.17120333932692836,0.005842700313353013,0.018186431988130518,-0.0036036526704933338,0.1741852724781157,0.005920161121246429,0.01332170638976074,0.003216555772133144,-0.0036097324599424214,0.008763785203037559,0.014629958469584519,0.010947405725522249,0.008962957980958832,0.003319815016801357,-0.017683230112415193,0.00716258139439616,-0.06664082001194742,0.02244427506875801,-0.0011486047731475348]],"accuracy_validation":0.8174726989079563,"mse_training":0.35781041388518026,"accuracy_training":0.8210947930574098,"mse_validation":0.36505460218408736,"bias":-2.2089451333836107E-19},{"epoch":47,"weights":[[0.060193497782957066,0.011216278638034408,-0.22897523898797678,-0.16460207166345986,0.009258700228716308,-0.00776760446926701,0.01221839494347198,-0.15879881958376274,0.0065427583179394405,-0.0062938566707081344,-0.0016983886058712918,0.008467473383104752,-0.006810912961210075,0.0024960025005376064,-0.00824378988750463,-0.005561875387495043,0.008109327621509847,0.02698302237159013,-0.0019640238676956563,0.07984700579463812,-0.006428371210118633,0.002084479480759691],[-0.05064175551963982,-0.0010561738409620859,0.23856295319801224,0.17142632994507118,0.005875878954217562,0.017965485515168873,-0.003423669750357,0.17621756325123572,0.005892669822704445,0.013156655824287706,0.005683230270819418,-0.0034272763755464272,0.00864646032655897,0.014522087627595178,0.010766594385611528,0.00885514518870745,0.003458103891650458,-0.017200473043953037,0.009464610872180462,-0.07290148608778105,0.014458113439510454,0.012484723250311533]],"accuracy_validation":0.8393135725429017,"mse_training":0.33511348464619495,"accuracy_training":0.8324432576769025,"mse_validation":0.3213728549141966,"bias":-2.2517228221405545E-19},{"epoch":46,"weights":[[0.05169794947197973,0.01116892070103103,-0.22763874289259198,-0.16418137059196147,0.00918528367017848,-0.007571373607761855,0.012029546438557677,-0.16068567891557003,0.006580380869776637,-0.00615631851192285,-0.008087178561937119,0.008299107175771904,-0.006748713477924054,0.002588808396925922,-0.008107826693562177,-0.005492617754903205,0.00801289388910346,0.026584375555071458,-0.003875597217852261,0.08071707387429153,-0.005230041827730782,0.0016793290531254509],[-0.04214620720866249,-0.001008815903958699,0.23722645710262744,0.17100562887357282,0.005949295512755385,0.01776925465366369,-0.0032348212454426915,0.17810442258304307,0.005855047270867248,0.01301911766550243,0.012072020226885258,-0.0032589101682135857,0.008584260843272936,0.014429281731206863,0.010630631191669074,0.008785887556115608,0.003554537624056842,-0.016801826227434365,0.011376184222337073,-0.07377155416743442,0.013259784057122586,0.012889873677945732]],"accuracy_validation":0.8393135725429017,"mse_training":0.3484646194926569,"accuracy_training":0.8257676902536716,"mse_validation":0.3213728549141966,"bias":-2.409896096616027E-19},{"epoch":45,"weights":[[0.052604474916660454,0.011054329773278604,-0.22375552164070614,-0.16308726347734537,0.00910993484761284,-0.007333855427223111,0.01183068970924199,-0.16041820210285412,0.00660909449304913,-0.0060339435164130425,-0.010641549625389912,0.008132338912538875,-0.006678057177040053,0.002688166756840529,-0.007952030358837424,-0.00537071883799731,0.007930343912093888,0.02611167289240972,-0.0010789260661579851,0.0816502189068238,-0.007434138266340691,0.0034652882576115245],[-0.04305273265334318,-8.94224976206269E-4,0.23334323585074165,0.16991152175895674,0.006024644335321028,0.01753173647312493,-0.003035964516127005,0.1778369457703272,0.005826333647594755,0.012896742669992618,0.014626391290338046,-0.003092141904980558,0.008513604542388935,0.014329923371292254,0.010474834856944323,0.008663988639209719,0.003637087601066406,-0.01632912356477263,0.00857951307064275,-0.0747046991999667,0.01546388049573255,0.011103914473459672]],"accuracy_validation":0.84399375975039,"mse_training":0.34979973297730305,"accuracy_training":0.8251001335113485,"mse_validation":0.31201248049922,"bias":-2.2622026509968113E-19},{"epoch":44,"weights":[[0.06236890597758648,0.010988048818348719,-0.22180046404091208,-0.16472290022409283,0.009007281756375602,-0.007103121722731766,0.011662875088238189,-0.1627871145185034,0.006632660949110535,-0.005908625163519638,0.0017998850183721467,0.007921033021362647,-0.006562496951754268,0.002771008209080196,-0.007824585528281488,-0.005214316444403981,0.007841942713763667,0.02558834739348633,-0.004157151174974629,0.07733045559310729,-0.005586412303976169,-0.0015024511186535526],[-0.05281716371426911,-8.27944021276376E-4,0.2313881782509476,0.1715471585057042,0.0061272974265582725,0.017301002768633583,-0.0028681498951231947,0.18020585818597645,0.005802767191533349,0.012771424317099205,0.0021849566465760124,-0.0028808360138043274,0.008398044317103132,0.014247081919052584,0.010347390026388384,0.008507586245616382,0.003725488799396627,-0.01580579806584924,0.011657738179459394,-0.07038493588625014,0.013616154533367987,0.01607165384972475]],"accuracy_validation":0.8299531981279251,"mse_training":0.3444592790387183,"accuracy_training":0.8277703604806409,"mse_validation":0.34009360374414976,"bias":-2.2537674930947993E-19},{"epoch":43,"weights":[[0.054966596543155014,0.011001752674087895,-0.21867608858751444,-0.16476985613871714,0.008924603577387185,-0.006841057629346248,0.011432903359984016,-0.1603253828373018,0.006643323733795334,-0.005740585418152677,-0.00500458905293595,0.007747771764123568,-0.006386348270053529,0.002870747089749495,-0.007689177376316326,-0.0050709958141807315,0.007792483325266489,0.025129242753862822,-0.004813724167695875,0.07253925425977815,0.009374352628675007,0.009359152641947937],[-0.04541485427983763,-8.416478770155538E-4,0.22826380279754996,0.17159411442032851,0.006209975605546694,0.017038938675248066,-0.0026381781668690205,0.17774412650477475,0.005792104406848551,0.012603384571732254,0.008989430717884106,-0.0027075747565652535,0.008221895635402406,0.014147343038383298,0.010211981874423242,0.008364265615393135,0.0037749481878937867,-0.015346693426225716,0.012314311172180618,-0.06559373455292104,-0.001344610399283205,0.005210050089123222]],"accuracy_validation":0.7956318252730109,"mse_training":0.41255006675567424,"accuracy_training":0.7937249666221629,"mse_validation":0.40873634945397813,"bias":-2.027599393080168E-19},{"epoch":42,"weights":[[0.06268398219227728,0.010884981013020302,-0.21585642978044062,-0.16334769695119003,0.008885939207973315,-0.006657660810375719,0.011254380764750282,-0.1600043940926838,0.006712771246775137,-0.0056047424989427086,-0.009087658969364693,0.00756189518008208,-0.006262889355064112,0.0029870263849095394,-0.007505354005742166,-0.004931392769989353,0.007684678117391606,0.024655716443910576,-0.010711669137961833,0.07614355944286612,-0.010778457882767866,0.004413756223090858],[-0.05313223992895995,-7.24876215947968E-4,0.22544414399047613,0.1701719552328014,0.00624863997496056,0.01685554185627752,-0.002459655571635286,0.17742313776015675,0.005722656893868748,0.012467541652522292,0.013072500634312867,-0.0025216981725237637,0.008098436720413002,0.014031063743223268,0.010028158503849105,0.008224662571201755,0.0038827533957686584,-0.014873167116273458,0.01821225614244656,-0.06919803973600895,0.018808200112159633,0.010155446507980276]],"accuracy_validation":0.8393135725429017,"mse_training":0.3431241655540721,"accuracy_training":0.828437917222964,"mse_validation":0.3213728549141966,"bias":-2.0258902072481668E-19},{"epoch":41,"weights":[[0.0509503330796543,0.010798028078977895,-0.21294599819113316,-0.15929542904317476,0.008857078785085487,-0.0064783571393044,0.0110740508395464,-0.15518854856003741,0.006752709083432914,-0.0054462627757373054,-0.011272129511242318,0.007429122496339032,-0.006154490346156846,0.0030972588081277174,-0.007274630979240843,-0.004790250198768878,0.007616170714476371,0.02430598585517916,-0.004402122127027859,0.08358827079214448,0.012062012689244258,0.008787892829228105],[-0.04139859081633696,-6.379232819055621E-4,0.22253371240116868,0.16611968732478613,0.006277500397848389,0.0166762381852062,-0.0022793256464314045,0.1726072922275104,0.0056827190572109705,0.012309061929316885,0.01525697117619049,-0.002388925488780718,0.007990037711505726,0.01392083132000508,0.009797435477347769,0.008083519999981274,0.003951260798683893,-0.014523436527542032,0.011902709131512635,-0.07664275108528726,-0.004032270459852478,0.005781309901842977]],"accuracy_validation":0.7925117004680188,"mse_training":0.4045393858477971,"accuracy_training":0.7977303070761015,"mse_validation":0.41497659906396256,"bias":-1.8994447916331652E-19},{"epoch":40,"weights":[[0.06332160582385758,0.010806202477980443,-0.21024147744851782,-0.1576042965727676,0.008807873506728604,-0.006222975048362447,0.01089053782137543,-0.15320108029137633,0.006762974850404393,-0.0053000837956037146,0.0029875478904030296,0.0072583120268617,-0.00601201826088358,0.003213624133682366,-0.00708605597784445,-0.004660540913528118,0.007552544087505672,0.023926316174440822,-0.004336161051619029,0.08515801649978816,-3.8246077625333705E-5,0.007849778824710794],[-0.053769863560540226,-6.460976809081125E-4,0.21982919165855333,0.16442855485437896,0.0063267056762052794,0.01642085609426423,-0.002095812628260441,0.1706198239588493,0.005672453290239491,0.012162882949183293,9.972937745451453E-4,-0.0022181150193033897,0.00784756562623246,0.013804465994450434,0.009608860475951367,0.007953810714740526,0.004014887425654591,-0.014143766846803716,0.011836748056103834,-0.07821249679293088,0.008067988307017136,0.00671942390636031]],"accuracy_validation":0.8018720748829953,"mse_training":0.4152202937249666,"accuracy_training":0.7923898531375166,"mse_validation":0.3962558502340094,"bias":-1.6307859545010368E-19},{"epoch":39,"weights":[[0.05907093758123408,0.010606486122658928,-0.2064459813813036,-0.1576222793961264,0.008732598531747383,-0.005990222115757758,0.010722482929767385,-0.15366416419795645,0.0067837674743227525,-0.005168446636861569,-0.0032762783192431533,0.007101041325515741,-0.005905212480998255,0.003303025468216786,-0.0069364908572833546,-0.004574177025733645,0.007468354129231128,0.023518404957739193,-0.003551368851509089,0.0831481802624195,0.0010803212975070316,0.004580891486891231],[-0.04951919531791675,-4.463813255865928E-4,0.21603369559133911,0.16444653767773784,0.0064019806511864934,0.016188103161659546,-0.0019277577366523923,0.17108290786542943,0.005651660666321132,0.012031245790441151,0.007261119984191344,-0.0020608443179574356,0.007740759846347128,0.013715064659916022,0.00945929535539024,0.007867446826946052,0.004099077383929137,-0.013735855630102094,0.011051955855993945,-0.0762026605555622,0.0069494209318848,0.009988311244179851]],"accuracy_validation":0.8143525741029641,"mse_training":0.37917222963951935,"accuracy_training":0.8104138851802403,"mse_validation":0.3712948517940718,"bias":-1.3703103593073174E-19},{"epoch":38,"weights":[[0.06411118944240723,0.010388246104459148,-0.20292038602770285,-0.15551287521554885,0.008697065026228398,-0.005711955286225492,0.010469162467434097,-0.15123270355677448,0.006836988668628017,-0.005048930790288214,-2.66616929509073E-4,0.00686223783779046,-0.005737342981865177,0.0033860831306074314,-0.0067733796290413055,-0.004431715055671687,0.007320584321294697,0.023050887967790402,0.0021181278762915155,0.07818567856162588,-0.004293874310998397,0.015077712474816842],[-0.05455944717908989,-2.2814130738681317E-4,0.2125081002377384,0.1623371334971603,0.006437514156705481,0.01590983633212725,-0.0016744372743191036,0.16865144722424746,0.0055984394720158676,0.011911729943867789,0.004251458594457232,-0.0018220408302321554,0.00757289034721405,0.013632006997525379,0.009296184127148171,0.007724984856884091,0.004246847191865568,-0.013268338640153296,0.0053824591281932945,-0.07124015885476859,0.01232361654039021,-5.085097437457879E-4]],"accuracy_validation":0.7956318252730109,"mse_training":0.4165554072096128,"accuracy_training":0.7917222963951935,"mse_validation":0.40873634945397813,"bias":-1.5353473950299803E-19},{"epoch":37,"weights":[[0.05526406257246279,0.010246986686188118,-0.20073767810847934,-0.15608186532067228,0.008615854331900404,-0.005518772383501835,0.010297217978618618,-0.15340990191188303,0.00688121131937487,-0.004917249147030717,-0.007816472972361517,0.006749304257114584,-0.005671305955303025,0.003473596797891809,-0.006638615981515368,-0.004300388324785157,0.0072110354136032985,0.022658417753827556,-0.00140528164289953,0.07905326307188253,0.005693317735526903,0.009794720839236371],[-0.04571232030914546,-8.688188911579073E-5,0.21032539231851488,0.16290612360228376,0.006518724851033475,0.015716653429403597,-0.0015024927855036153,0.17082864557935595,0.0055542168212690144,0.011780048300610286,0.01180131463730968,-0.0017091072495562874,0.007506853320651897,0.013544493330241013,0.009161420479622236,0.007593658125997561,0.004356396099556967,-0.012875868426190448,0.008905868647384343,-0.07210774336502519,0.0023364244938649022,0.004774481891834617]],"accuracy_validation":0.8003120124804992,"mse_training":0.3991989319092123,"accuracy_training":0.8004005340453939,"mse_validation":0.3993759750390016,"bias":-1.4507399927709835E-19},{"epoch":36,"weights":[[0.05828326041268666,0.010095907711649905,-0.19896815426974446,-0.15739748406185644,0.00852413768606059,-0.005304052321656407,0.01015555183964081,-0.15412360985435344,0.006926239726372061,-0.004810652548931143,0.0021164955239228087,0.006605897661792439,-0.005588251934799508,0.0035288143810908537,-0.006530669389244011,-0.0041468358517435105,0.0070598753049601285,0.02222387268158858,-0.00429058260770057,0.08539062952386245,-0.01434470997473228,-0.0022086778932161317],[-0.04873151814936927,6.419708542242943E-5,0.20855586847977997,0.16422174234346792,0.0066104414968732915,0.015501933367558162,-0.0013608266465258106,0.1715423535218264,0.005509188414271823,0.0116734517025107,0.001868346141025349,-0.0015657006542341464,0.00742379930014838,0.013489275747041962,0.009053473887350864,0.007440105652955915,0.004507556208200137,-0.012441323353951443,0.01179116961218543,-0.07844510981700517,0.02237445220412407,0.016777880624287117]],"accuracy_validation":0.8174726989079563,"mse_training":0.38050734312416556,"accuracy_training":0.8097463284379173,"mse_validation":0.36505460218408736,"bias":-1.4153487580960432E-19},{"epoch":35,"weights":[[0.05540093226751924,0.009985859007891115,-0.1972600389825554,-0.15677196998010184,0.008434352037610617,-0.005065264516510587,0.009981710823156005,-0.15619605083641894,0.0069953125184010045,-0.004732743285751687,-0.009746257701497391,0.006420085403569902,-0.005483903926334075,0.0035887246501529416,-0.006479639412124976,-0.004036538616186275,0.006974904904322459,0.0217476188193906,-0.008578349935415685,0.09301472716889635,-0.001257488001637521,0.01655597555571862],[-0.04584919000420179,1.742457891812353E-4,0.2068477531925909,0.16359622826171333,0.006700227145323258,0.015263145562412326,-0.001186985630041001,0.17361479450389186,0.00544011562224288,0.01159554243933123,0.013731099366445535,-0.0013798883960116067,0.007319451291682947,0.013429365477979875,0.00900244391023181,0.007329808417398679,0.004592526608837807,-0.011965069491753464,0.016078936939900573,-0.08606920746203896,0.009287230231029293,-0.001986772824647716]],"accuracy_validation":0.8065522620904836,"mse_training":0.3991989319092123,"accuracy_training":0.8004005340453939,"mse_validation":0.3868954758190328,"bias":-1.4465301014849854E-19},{"epoch":34,"weights":[[0.04919565589633257,0.00997045407772694,-0.1934424455552083,-0.15990416932331292,0.008375781883124593,-0.00491524320406912,0.009812974940514294,-0.1578830684686442,0.007029242391244623,-0.004588655314445816,-0.015392161546076878,0.0062641195092510765,-0.005399035234962246,0.003663619479400542,-0.0063324978124777494,-0.0038864702601675806,0.006883356093159805,0.021304412121557363,-0.006907460160194475,0.08147126523591244,-0.0015835653712976804,0.0023870604936037953],[-0.0396439136330152,1.8965071934541662E-4,0.2030301597652438,0.16672842760492437,0.00675879729980928,0.015113124249970852,-0.0010182497473992889,0.17530181213611712,0.005406185749399261,0.011451454468025353,0.01937700321102502,-0.0012239225016927838,0.007234582600311118,0.013354470648732283,0.008855302310584581,0.0071797400613799875,0.004684075420000461,-0.011521862793920232,0.014408047164679355,-0.07452574552905508,0.009613307600689536,0.012182142237467124]],"accuracy_validation":0.8377535101404057,"mse_training":0.35514018691588783,"accuracy_training":0.822429906542056,"mse_validation":0.3244929797191888,"bias":-1.4445546420767423E-19},{"epoch":33,"weights":[[0.05298648048217721,0.009895546120104178,-0.1910567233915236,-0.1599711742161622,0.008315712290760065,-0.004631967606321187,0.009609864893948094,-0.15696363284557732,0.00707948859405673,-0.004470209992540986,-0.007176363781165826,0.006074704373253091,-0.005223850452366614,0.003732247678887097,-0.006200646405324876,-0.0037732029529168234,0.0067796161954073635,0.02081039258592876,-0.007168317465661958,0.07979725517031369,-0.0052228479736777834,0.010777739591424777],[-0.04343473821885984,2.64558676968168E-4,0.20064443760155912,0.1667954324977736,0.0068188668921738,0.014829848652222923,-8.151397008330895E-4,0.17438237651305025,0.0053559395465871545,0.01133300914612053,0.011161205446113954,-0.0010345073656947983,0.007059397817715487,0.013285842449245725,0.008723450903431717,0.007066472754129232,0.004787815317752902,-0.011027843258291616,0.014668904470146845,-0.07285173546345625,0.013252590203069615,0.0037914631396461906]],"accuracy_validation":0.8408736349453978,"mse_training":0.3391188251001335,"accuracy_training":0.8304405874499332,"mse_validation":0.31825273010920435,"bias":-1.2814381777013692E-19},{"epoch":32,"weights":[[0.05475385529750095,0.009881883528565541,-0.1880801461276269,-0.1590546825611682,0.008242662160526779,-0.004433188725864486,0.009445375403375486,-0.15662325798412569,0.00712862278940871,-0.004325703605086298,-0.012005074289896155,0.005978172779691503,-0.0051519183712139816,0.0038101153470331537,-0.006037525353545666,-0.0036239727900005026,0.006708549282460405,0.02033035215772279,-0.0020536063416219863,0.08161858548432856,0.001252230812427431,0.017595792758280857],[-0.04520211303418351,2.7822126850680353E-4,0.1976678603376624,0.1658789408427796,0.006891917022407085,0.014631069771766217,-6.506502102604787E-4,0.1740420016515986,0.005306805351235175,0.011188502758665834,0.015989915954844273,-9.379757721332108E-4,0.006987465736562852,0.013207974781099655,0.008560329851652499,0.006917242591212914,0.00485888223069986,-0.010547802830085667,0.009554193346106844,-0.0746730657774711,0.006777511416964402,-0.0030265900272098602]],"accuracy_validation":0.7956318252730109,"mse_training":0.4032042723631509,"accuracy_training":0.7983978638184246,"mse_validation":0.40873634945397813,"bias":-9.210642886592336E-20},{"epoch":31,"weights":[[0.05002410357357828,0.009683278528279975,-0.18337102910283537,-0.15855517446974604,0.008163218793720782,-0.00414071991783475,0.009271719608128528,-0.1560824616161796,0.007151308778809839,-0.004151088591291984,-0.00417405325468863,0.005789967563951729,-0.005021481010552112,0.003937727241484458,-0.0058168860157837305,-0.00348144841640324,0.006592317807885851,0.019867236644471004,6.402531952505522E-4,0.0800393949974951,0.0043760820726998235,0.013351065140045257],[-0.04047236131026083,4.7682626879236875E-4,0.19295874331287086,0.16537943275135747,0.006971360389213076,0.014338600963736476,-4.7699441501351943E-4,0.17350120528365254,0.005284119361834046,0.011013887744871508,0.008158894919636709,-7.497705563934411E-4,0.0068570283759009825,0.013080362886648354,0.008339690513890533,0.006774718217615654,0.004975113705274414,-0.010084687316833865,0.006860333809234283,-0.07309387529063767,0.0036536601566919853,0.0012181375910257]],"accuracy_validation":0.7925117004680188,"mse_training":0.41255006675567424,"accuracy_training":0.7937249666221629,"mse_validation":0.41497659906396256,"bias":-1.090070338249316E-19},{"epoch":30,"weights":[[0.05648445444255325,0.00944097556709142,-0.17950350906900733,-0.15893932804741906,0.008072041927462865,-0.00390245666226863,0.009130222286115914,-0.15823350890615379,0.007214810924264099,-0.004018316613192995,-0.0032798349271499277,0.005626568118062586,-0.004970056361141607,0.004045280409222882,-0.005665007887380583,-0.003343994944073243,0.006435761898359703,0.019402411555715954,-0.00213538399491639,0.08643474825627012,0.001466351253802848,0.009227030406806412],[-0.04693271217923585,7.191292299809264E-4,0.18909122327904285,0.1657635863290305,0.007062537255470991,0.01410033770817034,-3.354970930008993E-4,0.1756522525736267,0.005220617216379786,0.010881115766772507,0.007264676592098024,-5.863711105042944E-4,0.0068056037264904775,0.012972809718909916,0.008187812385487377,0.006637264745285661,0.005131669614800562,-0.009619862228078813,0.009635970999401172,-0.07948922854941262,0.0065633909755889765,0.005342172324264486]],"accuracy_validation":0.8003120124804992,"mse_training":0.40186915887850466,"accuracy_training":0.7990654205607477,"mse_validation":0.3993759750390016,"bias":-1.1478916132746766E-19},{"epoch":29,"weights":[[0.05407617260649573,0.009408578534566241,-0.17605261820273913,-0.1579892077228675,0.007993998192372592,-0.003619197961656411,0.008907058988049114,-0.15722767636543797,0.007234829703865515,-0.003852644837375182,-0.005258960380499493,0.00549213918976645,-0.0048156523553455725,0.004167223554787932,-0.005474660212846638,-0.0032131886079268634,0.006350330582781392,0.018998787692130516,6.019144693363435E-4,0.0846139809400704,0.002578574008947395,0.010989580811596648],[-0.044524430343178344,7.515262625060905E-4,0.18564033241277467,0.164813466004479,0.007140580990561269,0.013817079007558143,-1.1233379493409847E-4,0.17464642003291095,0.005200598436778369,0.010715443990954702,0.009243802045447606,-4.5194218220815605E-4,0.006651199720694443,0.01285086657334487,0.007997464710953445,0.006506458409139288,0.0052171009303788735,-0.009216238364493354,0.006898672535148465,-0.07766846123321286,0.005451168220444438,0.0035796219194742553]],"accuracy_validation":0.7987519500780031,"mse_training":0.40854472630173566,"accuracy_training":0.7957276368491322,"mse_validation":0.40249609984399376,"bias":-1.00926242216435E-19},{"epoch":28,"weights":[[0.05349942935371465,0.009194992825470634,-0.17293211036179085,-0.15668871423098335,0.007954552797152665,-0.0034207178183055507,0.008744189842827627,-0.15706574224825806,0.007274684263570463,-0.0037011293603873476,-0.005461978424890381,0.005342780981907929,-0.0047043576215706345,0.004300755192016518,-0.005282677487254601,-0.00308415322379344,0.006251457943916948,0.018548956920234977,-0.004625835962736406,0.08632975636956608,0.006713648496718915,0.007721755315417047],[-0.043947687090397196,9.651119716017085E-4,0.18251982457182642,0.16351297251259483,0.007180026385781201,0.013618598864207292,5.0535350287391646E-5,0.17448448591573104,0.0051607438770734215,0.010563928513966868,0.009446820089838496,-3.0258397434963373E-4,0.006539904986919505,0.012717334936116279,0.007805481985361406,0.006377423025005872,0.005315973569243317,-0.0087664075925978,0.012126422967221207,-0.07938423666270857,0.0013160937326728885,0.006847447415653825]],"accuracy_validation":0.7940717628705148,"mse_training":0.40587449933244324,"accuracy_training":0.7970627503337784,"mse_validation":0.4118564742589704,"bias":-1.28421216756126E-19},{"epoch":27,"weights":[[0.04333526103738115,0.009223776533600568,-0.17006106619848924,-0.15730962036873736,0.007853171358883972,-0.00313795337588215,0.008515907701988604,-0.16045187377158301,0.007303811741055137,-0.0035824015420597233,-0.009173349819826836,0.005189520454346713,-0.004587071105022244,0.004359577386058855,-0.005182450191541286,-0.0030041551451140914,0.006159996654225319,0.018079451303221052,-0.007065155028360346,0.08670207419145488,0.004145589474102344,0.0019161451595182469],[-0.033783518774063694,9.363282634717657E-4,0.1796487804085248,0.16413387865034892,0.007281407824049895,0.01333583442178392,2.788174911264227E-4,0.177870617439056,0.005131616399588748,0.010445200695639255,0.01315819148477494,-1.4932344678842053E-4,0.006422618470371115,0.012658512742073946,0.0077052546896480955,0.0062974249463265295,0.005407434858934947,-0.00829690197558387,0.014565742032845164,-0.07975655448459734,0.0038841527552894786,0.012653057571552625]],"accuracy_validation":0.84399375975039,"mse_training":0.31241655540720964,"accuracy_training":0.8437917222963952,"mse_validation":0.31201248049922,"bias":-1.2711274588011855E-19},{"epoch":26,"weights":[[0.048236161024885024,0.009133689298517699,-0.16454747756019014,-0.15511108935021448,0.007811486986253881,-0.002892130546006589,0.008314163513404632,-0.15728149224097263,0.007340371986358453,-0.003456524991142676,-0.011507182476545377,0.005037264893539265,-0.004422343445633744,0.004437600973317986,-0.005034132316071805,-0.002906328433005078,0.006044153093974005,0.01765677878033276,-0.005692354906247604,0.08065937796470603,-0.0046817405010362995,0.01783413618152988],[-0.03868441876156758,0.0010264154985546502,0.1741351917702257,0.161935347631826,0.007323092196679982,0.013090011591908347,4.805616797104021E-4,0.1747002359084456,0.005095056154285431,0.010319324144722202,0.015492024141493515,2.9321140190288563E-6,0.006257890810982615,0.012580489154814804,0.0075569368141786145,0.006199598234217522,0.005523278419186261,-0.007874229452695584,0.013192941910732399,-0.07371385825784851,0.012711482730428051,-0.0032649334504590514]],"accuracy_validation":0.8299531981279251,"mse_training":0.3591455273698264,"accuracy_training":0.8204272363150867,"mse_validation":0.34009360374414976,"bias":-1.3256250521567625E-19},{"epoch":25,"weights":[[0.06204021631598736,0.008919397454982339,-0.161268578598921,-0.15503207670544408,0.007758300970708039,-0.002650391396242895,0.008151727958356256,-0.15831645988885618,0.007377930622705647,-0.0032774131297667905,-0.00402988331450872,0.004825277920038004,-0.004296198651491326,0.004538133064419366,-0.004832573461071782,-0.0028046884186535195,0.005916624963875392,0.01718218729293883,-0.0052800198978824,0.08652438576797168,-0.0067658711864955826,0.00595336197153185],[-0.05248847405267005,0.001240707342090044,0.17085629280895656,0.16185633498705565,0.007376278212225824,0.012848272442144655,6.429972347587775E-4,0.17573520355632916,0.005057497517938238,0.010140212283346313,0.00801472497945686,2.149190875202893E-4,0.006131746016840197,0.012479957063713418,0.007355377959178591,0.006097958219865962,0.005650806549284873,-0.007399637965301665,0.012780606902367188,-0.07957886606111415,0.014795613415887341,0.008615840759538968]],"accuracy_validation":0.8190327613104524,"mse_training":0.35514018691588783,"accuracy_training":0.822429906542056,"mse_validation":0.3619344773790952,"bias":-1.2077803514540461E-19},{"epoch":24,"weights":[[0.05163863778265213,0.00875605586159731,-0.1580483342626562,-0.15229910021903537,0.0076909005292129205,-0.002419168840639085,0.007984590918228819,-0.15757933857526338,0.00739524786248279,-0.0030831454751324107,-0.005607616209813119,0.0046792830175278995,-0.00417620636101759,0.004671903148338724,-0.0046322720722610684,-0.0026924945464352453,0.005847079181086062,0.016748879793830187,-0.007496861226005043,0.08805362381290062,0.0035269555035286927,0.012594285642846384],[-0.0420868955193348,0.0014040489354750774,0.16763604847269176,0.1591233585006469,0.007443678653720942,0.012617049886540865,8.10134274886216E-4,0.1749980822427363,0.005040180278161095,0.009945944628711944,0.009592457874761227,3.6091399003039364E-4,0.006011753726366461,0.012346186979794052,0.007155076570367879,0.005985764347647692,0.005720352332074204,-0.00696633046619302,0.014997448230489808,-0.08110810410604301,0.004502786725863064,0.001974917088224462]],"accuracy_validation":0.797191887675507,"mse_training":0.41255006675567424,"accuracy_training":0.7937249666221629,"mse_validation":0.40561622464898595,"bias":-1.2765366675171152E-19},{"epoch":23,"weights":[[0.06400262423416156,0.008625582290316331,-0.15605214865136605,-0.15261888168745172,0.007602527843819689,-0.0021528530313244124,0.007780427404209018,-0.15817466853726347,0.007432777809883109,-0.0029449001142514983,-0.0033342966225431703,0.004503915213370358,-0.004085200234594161,0.004767804508010079,-0.004517120089346501,-0.002572894778386178,0.005722943406121089,0.016228452276351526,-0.005752383080329992,0.08658489852579761,-0.00862412326827144,0.01208984965350495],[-0.05445088197084423,0.0015345225067560503,0.1656398628614016,0.15944313996906326,0.007532051339114174,0.012350734077226205,0.0010142977889060192,0.1755934122047364,0.0050026503307607755,0.00980769926783104,0.007319138287491303,5.36281794187938E-4,0.0059207475999430315,0.012250285620122703,0.007039924587453312,0.0058661645795986305,0.005844488107039176,-0.006445902948714365,0.013252970084814703,-0.07963937881893995,0.016653865497663182,0.0024793530775658844]],"accuracy_validation":0.8143525741029641,"mse_training":0.3871829105473965,"accuracy_training":0.8064085447263017,"mse_validation":0.3712948517940718,"bias":-1.3404665523839108E-19},{"epoch":22,"weights":[[0.05145973354684153,0.00845181292806669,-0.15366322813187422,-0.15271320149232306,0.007558757797348668,-0.0019204621603635264,0.007556556346745141,-0.15751803823452412,0.007455997341949263,-0.0027885139683517047,-0.007737898823534555,0.004311374131408837,-0.003965772983632896,0.004855486379337467,-0.004367480273271723,-0.0024301534152088035,0.005614409117602202,0.015769602927195217,0.0037739656446617725,0.08738442204238037,-0.004622645066800773,0.014373342926868605],[-0.04190799128352416,0.0017082918690056704,0.16325094234190973,0.1595374597739346,0.007575821385585195,0.012118343206265333,0.0012381688463698997,0.17493678190199707,0.004979430798694622,0.009651313121931251,0.011722740488482711,7.288228761494569E-4,0.005801320348981767,0.012162603748795313,0.006890284771378534,0.005723423216421256,0.005953022395558063,-0.0059870535995580655,0.0037266213598229764,-0.08043890233552257,0.012652387296192561,1.958598042023276E-4]],"accuracy_validation":0.8127925117004681,"mse_training":0.37783711615487314,"accuracy_training":0.8110814419225634,"mse_validation":0.374414976599064,"bias":-7.494956628645565E-20},{"epoch":21,"weights":[[0.04992010841700169,0.008409673808864489,-0.1507783911381105,-0.15175840814951697,0.007507794361604185,-0.0017077569254165884,0.007379733523109758,-0.15719626596691122,0.0075045709537202064,-0.0025901013811353867,-0.013238524773307826,0.004114158300514771,-0.0038342605113880265,0.005021122217091608,-0.004125577553276438,-0.0023011054391817707,0.005556020407532498,0.015384107765174262,-0.0036796414939661718,0.08334374693124996,0.0033850031680072515,0.012738399726494144],[-0.040368366153684415,0.0017504309882078676,0.16036610534814605,0.15858266643112845,0.007626784821329678,0.011905637971318401,0.0014149916700052804,0.17461500963438414,0.004930857186923678,0.009452900534714934,0.017223366438255967,9.26038707043521E-4,0.0056698078767369,0.01199696791104117,0.006648382051383249,0.0055943752403942275,0.0060114111056277664,-0.0056015584375371215,0.011180228498450923,-0.07639822722439217,0.00464473906138458,0.001830803004576791]],"accuracy_validation":0.8034321372854915,"mse_training":0.37917222963951935,"accuracy_training":0.8104138851802403,"mse_validation":0.39313572542901715,"bias":-4.7573599875128334E-20},{"epoch":20,"weights":[[0.060357048853011096,0.008260945447792711,-0.1464893534517473,-0.150612368105015,0.007435733485005547,-0.0014594686461845642,0.00722265180596874,-0.15643183576639125,0.007547150649897248,-0.0024211682669568035,0.0031364786815525,0.003904991775528553,-0.003700157637206754,0.005162904765183675,-0.003906588080096786,-0.0021569686368028223,0.00546612687128963,0.014960987257688813,-0.006209634575056637,0.08521914050686127,-0.0047429985530854125,0.006710231050446275],[-0.05080530658969382,0.0018991593492796441,0.15607706766178284,0.15743662638662648,0.007698845697928316,0.011657349692086387,0.0015720733871462996,0.17385057943386412,0.004888277490746637,0.009283967420536351,8.48362983395616E-4,0.0011352052320297364,0.005535705002555642,0.011855185362949093,0.006429392578203598,0.00545023843801529,0.006101304641870635,-0.005178437930051676,0.013710221579541416,-0.07827362080000347,0.012772740782477185,0.007858971680624627]],"accuracy_validation":0.8096723868954758,"mse_training":0.3951935914552737,"accuracy_training":0.8024032042723631,"mse_validation":0.38065522620904835,"bias":-5.931637606497511E-20},{"epoch":19,"weights":[[0.054879264496005366,0.008143492997075948,-0.14247921550608375,-0.15038117317069413,0.0073494179542920885,-0.001229812230783522,0.00700077699401685,-0.15586531283568603,0.0075955236854021455,-0.0023096277803312647,0.0034405655941651334,0.003790833579710545,-0.0036169282395981397,0.005274614608807041,-0.003726976559908656,-0.002029360912592077,0.0054056788348974495,0.014524237969985743,-0.011293079184196458,0.08359221214322503,-0.002657575337228938,-0.0018322971762017772],[-0.04532752223268818,0.0020166117999964035,0.1520669297161193,0.15720543145230564,0.007785161228641774,0.011427693276685347,0.0017939481990981883,0.1732840565031589,0.004839904455241739,0.009172426933910814,5.442760707829331E-4,0.0012493634278477428,0.005452475604947044,0.011743475519325728,0.00624978105801548,0.005322630713804553,0.006161752678262815,-0.004741688642348597,0.018793666188681214,-0.07664669243636714,0.01068731756662068,0.01640149990727264]],"accuracy_validation":0.8252730109204368,"mse_training":0.35514018691588783,"accuracy_training":0.822429906542056,"mse_validation":0.3494539781591264,"bias":-9.181044834905037E-20},{"epoch":18,"weights":[[0.0628622931026741,0.007840772585903627,-0.13717635463265013,-0.14704353344725352,0.007261681199401162,-9.738701731305064E-4,0.006791577248227907,-0.15141195185661,0.00763617380726255,-0.0021336763302607685,0.005054684442952671,0.0036621281557098167,-0.003489624266956896,0.005421812248114113,-0.0034417400217895255,-0.0018976164450737404,0.005292191854294948,0.01408769093358504,-0.006522028419859855,0.07892617460124209,-0.020621682335831174,0.01330929588708254],[-0.053310550839356895,0.002319332211168731,0.14676406884268564,0.15386779172886508,0.007872897983532702,0.011171751219032352,0.0020031479448871323,0.16883069552408286,0.004799254333381335,0.008996475483840322,-0.0010698427780045823,0.0013780688518484705,0.005325171632305813,0.011596277880018654,0.005964544519896372,0.005190886246286223,0.006275239658865317,-0.0043051416059478945,0.014022615424344659,-0.0719806548943842,0.028651424565222895,0.0012599068439882854]],"accuracy_validation":0.8221528861154446,"mse_training":0.3724966622162884,"accuracy_training":0.8137516688918558,"mse_validation":0.35569422776911075,"bias":-8.867578123079317E-20},{"epoch":17,"weights":[[0.04895759494270417,0.007734417407440255,-0.130956864596957,-0.14270517188538748,0.00717588059135977,-6.73753998120961E-4,0.006606678264607694,-0.1481213420377177,0.007701498416778836,-0.002012014355077328,-0.008266628398978425,0.003469027235053267,-0.003346799633399195,0.0055150487440380905,-0.0032576853354888873,-0.0017367028341897072,0.00520248390209859,0.01374447716818327,0.0012170219711118545,0.0872409103519364,6.251470852123176E-4,0.014880927851403197],[-0.039405852679386996,0.0024256873896320954,0.1405445788069925,0.14952943016699907,0.007958698591574097,0.010871635044022833,0.0021880469285073443,0.16554008570519052,0.004733929723865049,0.008874813508656907,0.012251470063926514,0.0015711697725050199,0.005182346998748127,0.011503041384094699,0.005780489833595742,0.005029972635402193,0.0063649476110616745,-0.003961927840546128,0.006283565033372968,-0.08029539064507846,0.007404595144179418,-3.117251203323436E-4]],"accuracy_validation":0.7940717628705148,"mse_training":0.4098798397863818,"accuracy_training":0.7950600801068091,"mse_validation":0.4118564742589704,"bias":-6.591532098598461E-20},{"epoch":16,"weights":[[0.0442204468626105,0.00755992672417925,-0.12739896471462278,-0.14275324364432837,0.007105534421346678,-4.634660545447946E-4,0.006447820232740463,-0.14867915739224447,0.007717123126285669,-0.001845041036355436,-0.00933377713740446,0.003310839604214478,-0.003232239220752756,0.0056323761492916005,-0.0030936282285151857,-0.001585031789946721,0.005114876194688972,0.013283928092720276,-0.010270270044687991,0.07361898716649293,-5.054174436263069E-4,0.013283003921103638],[-0.03466870459929337,0.002600178072893094,0.1369866789246583,0.14957750192594002,0.008029044761587195,0.010661347100446684,0.0023469049603745784,0.16609790105971728,0.004718305014358216,0.008707840189935026,0.013318618802352553,0.0017293574033438095,0.0050677865861017074,0.011385713978841201,0.0056164327266220474,0.0048783015911592125,0.006452555318471292,-0.0035013787650831412,0.01777085704917281,-0.06667346745963487,0.008535159673017996,0.0012861988099671963]],"accuracy_validation":0.8299531981279251,"mse_training":0.36315086782376504,"accuracy_training":0.8184245660881175,"mse_validation":0.34009360374414976,"bias":-5.546506556698249E-20},{"epoch":15,"weights":[[0.04697087963078577,0.007342809470610832,-0.12380234006735755,-0.14042590896350257,0.006988507447273105,-1.7779332708440422E-4,0.00626093621878226,-0.1474800259183591,0.007754702066963138,-0.0016815453712427113,-0.008732506327442265,0.003135891210561672,-0.003087938440752386,0.005745801751963538,-0.0028900789004567056,-0.0014403439392945423,0.005043982415653689,0.012837234371262503,-0.004444839634103912,0.07167151686707098,0.01174194094400686,0.009407118347578614],[-0.037419137367468644,0.002817295326461508,0.13339005427739306,0.14725016724511417,0.008146071735660766,0.010375674372986319,0.0025337889743327793,0.1648987695858319,0.004680726073680747,0.008544344524822318,0.01271734799239036,0.0019043057969966176,0.004923485806101353,0.011272288376169271,0.005412883398563577,0.004733613740507039,0.0065234490975065755,-0.0030546850436253686,0.011945426638588752,-0.06472599716021295,-0.003712198714615176,0.005162084383492216]],"accuracy_validation":0.7909516380655226,"mse_training":0.4152202937249666,"accuracy_training":0.7923898531375166,"mse_validation":0.41809672386895474,"bias":-5.399214875119395E-20},{"epoch":14,"weights":[[0.05167237964115579,0.007356370225549936,-0.12051595802799676,-0.13775940494486688,0.00689232419234285,9.082041714725034E-5,0.006113052331121593,-0.14431818871651353,0.007798946851807997,-0.0015459309455754472,-0.004485694648496395,0.002946932887471022,-0.002943641845162984,0.005868373067120505,-0.0026749322331945415,-0.0012720521008746757,0.004987463816276162,0.012403701291558796,-0.008623571508762536,0.07884360633253676,-0.010949592991721782,0.006276330430713501],[-0.04212063737783868,0.00280373457152239,0.13010367223803224,0.14458366322647848,0.00824225499059102,0.010107060628754681,0.0026816728619934466,0.16173693238398634,0.004636481288835888,0.008408730099155055,0.00847053631344448,0.0020932641200872657,0.004779189210511971,0.011149717061012301,0.0051977367313014305,0.004565321902087179,0.0065799676968841024,-0.002621151963921655,0.016124158513247385,-0.07189808662567868,0.01897933522111345,0.00829287230035735]],"accuracy_validation":0.8299531981279251,"mse_training":0.3591455273698264,"accuracy_training":0.8204272363150867,"mse_validation":0.34009360374414976,"bias":-3.0245076096644094E-20},{"epoch":13,"weights":[[0.05291031903575434,0.007238363785767511,-0.1185580109692965,-0.13710711371036202,0.006819300137945748,3.1613307673914435E-4,0.005886641311347399,-0.1452159938555961,0.007834862298935838,-0.0014221983458205707,-0.008918191126034739,0.0027975306874693908,-0.0028650746383351213,0.005927930851889084,-0.0025486220487411903,-0.0011252518478340997,0.004915206186302599,0.011958313509019299,-0.01304442774894013,0.08303681912399952,-0.0011160236826958329,-0.002090947442504187],[-0.04335857677243723,0.0029217410113048037,0.12814572517933204,0.14393137199197362,0.008315279044988121,0.009881747969162797,0.0029080838817676412,0.16263473752306887,0.004600565841708046,0.008284997499400176,0.01290303279098281,0.002242666320088897,0.0047006220036841205,0.011090159276243718,0.005071426546848089,0.004418521649046611,0.0066522253268576645,-0.0021757641813821525,0.02054501475342498,-0.07609129941714149,0.009145765912087506,0.016660150173575118]],"accuracy_validation":0.8361934477379095,"mse_training":0.32843791722296395,"accuracy_training":0.835781041388518,"mse_validation":0.32761310452418096,"bias":-3.655670631395653E-20},{"epoch":12,"weights":[[0.05548604664658828,0.007004159068144925,-0.11267879640069554,-0.135063761927541,0.0067258580178225945,5.74669677925124E-4,0.005761124789726009,-0.1443341370699207,0.007870973924474797,-0.0012463859405509386,0.003449455198997488,0.002628182827501739,-0.002747228519937479,0.0060478052071743305,-0.002347032507395028,-0.0010312130114730378,0.004819769173391796,0.01148607941301874,-0.009089151406629862,0.08898409555812722,-0.00488103526135775,0.01687123209298106],[-0.045934304383271146,0.0031559457289273875,0.12226651061073095,0.1418880202091526,0.008408721165111273,0.009623211367976843,0.0030336004033890336,0.16175288073739347,0.004564454216169089,0.00810918509413055,5.353864659506302E-4,0.0024120141800565487,0.004582775885286487,0.010970284920958487,0.004869837005501937,0.004324482812685555,0.0067476623397684675,-0.0017035300853815891,0.016589738411114746,-0.08203857585126934,0.012910777490749483,-0.002302029361910077]],"accuracy_validation":0.7831513260530422,"mse_training":0.42456608811748997,"accuracy_training":0.787716955941255,"mse_validation":0.43369734789391573,