[{"epoch":99,"weights":[[4.730324463818362,1.3724117333945824,-18.447469193370537,-12.092017984659027,0.21164615717458984,-0.2935275776166558,0.7440872368526696,-26.790014634113554,0.10975563696782231,-2.06674182279664,-1.011453310635739,1.303409566178874,0.4074897854285493,-1.1970440626661392,-2.6620094911035808,-1.216164443694251,0.7498203747847877,3.8678433476981326,-0.7741707485673678,4.4814412303288425,-0.5803492432794555,-0.4304129618619572],[-4.722002502579232,-1.3659151269176577,18.45352854785088,12.101000575468586,-0.20315582601281107,0.3090369733968251,-0.7289476956307996,26.800952959584063,-0.09331599802635124,2.0776470243834937,1.0163195343042555,-1.2937268681420404,-0.39899547055095863,1.2003444555626794,2.6652473723812,1.231051511732458,-0.7455602676812013,-3.8559524366852327,0.7830378380208093,-4.4729097612838356,0.5892403576600993,0.4402562188497403]],"accuracy_validation":0.7831513260530422,"mse_training":0.4165554072096128,"accuracy_training":0.7917222963951935,"mse_validation":0.43369734789391573,"bias":-4.524546438899623E-19},{"epoch":98,"weights":[[5.184324463813004,1.3594117333945661,-18.480469193370755,-12.25360278465962,0.20864615717458984,-0.2895275776166558,0.7410872368526642,-26.900014634114136,0.10675563696782231,-2.047741822796642,-1.0894533106357402,1.2944095661788695,0.4024897854285438,-1.1870440626661403,-2.644009491103585,-1.2031644436942524,0.7408203747847822,3.8228433476981376,-0.7371707485691164,5.137441230326436,-0.2593492432856882,-0.9974129618708715],[-5.1760025025738745,-1.3529151269176414,18.486528547851098,12.262585375469179,-0.20015582601281107,0.3050369733968251,-0.7259476956307942,26.910952959584645,-0.09031599802635124,2.058647024383496,1.0943195343042567,-1.2847268681420358,-0.39399547055095313,1.1903444555626805,2.6472473723812042,1.2180515117324595,-0.7365602676811959,-3.8109524366852376,0.7460378380225579,-5.128909761281429,0.2682403576663329,1.0072562188586551]],"accuracy_validation":0.8096723868954758,"mse_training":0.3724966622162884,"accuracy_training":0.8137516688918558,"mse_validation":0.38065522620904835,"bias":-4.411124334366338E-19},{"epoch":97,"weights":[[5.087584585491749,1.354347330499225,-18.403692873515677,-12.185778747443385,0.20564615717458984,-0.2795597795131357,0.7300872368526642,-26.722912813773764,0.10675563696782231,-2.0297740246931726,-1.2402529360425871,1.2804095661788732,0.4004575835320662,-1.1760762645626703,-2.622073894896591,-1.188164443694254,0.7377881728883047,3.7848111458016156,-0.26486691205167084,4.803519550342556,0.11368592118129228,-0.3005778165177486],[-5.079262624252619,-1.3478507240223003,18.40975222799602,12.194761338252944,-0.19715582601281106,0.295069175293305,-0.7149476956307942,26.733851139244273,-0.09031599802635124,2.040679226280026,1.2451191597111035,-1.2707268681420396,-0.3919632686544755,1.1793766574592106,2.62531177617421,1.2030515117324612,-0.7335280657847183,-3.7729202347887156,0.27373400150511235,-4.794988081297549,-0.10479480680064757,0.3104210735055317]],"accuracy_validation":0.8361934477379095,"mse_training":0.30707610146862485,"accuracy_training":0.8464619492656876,"mse_validation":0.32761310452418096,"bias":-3.681957283733314E-19},{"epoch":96,"weights":[[5.422579513217228,1.3453473250947043,-18.338692986738142,-12.580671624595066,0.20264615717458984,-0.283559779429173,0.7240872368526642,-27.062913153472685,0.10475563696782231,-2.009774028869899,-0.32325339728518265,1.2624095620021512,0.3894575836160289,-1.1660762687393955,-2.6000739031660736,-1.179164447870979,0.7327881687955433,3.742811145885583,-0.8748674532879435,5.222519026463989,-1.4563198981388763,-0.2975836099713789],[-5.414257551978098,-1.3388507186177796,18.344752341218484,12.589654215404625,-0.19415582601281106,0.2990691752093423,-0.7089476956307942,27.073851478943194,-0.08831599802635123,2.0206792304567527,0.32811962095369906,-1.2527268639653175,-0.3809632687384382,1.1693766616359358,2.603311784443693,1.1940515159091862,-0.7285280616919569,-3.730920234872683,0.883734542741385,-5.2139875574189825,1.465211012519521,0.307426866959162]],"accuracy_validation":0.7940717628705148,"mse_training":0.3925233644859813,"accuracy_training":0.8037383177570093,"mse_validation":0.4118564742589704,"bias":-4.941275047733645E-19},{"epoch":95,"weights":[[5.25719382687003,1.32534693071176,-18.201708726983775,-12.543121110364071,0.20064615717458983,-0.27856019877314553,0.7170872368526642,-26.75295286614317,0.1027556369678223,-1.9837744482115003,-0.7875921783598968,1.2474095620021528,0.38945716427205634,-1.1520766880809952,-2.572075161190868,-1.1641646700199193,0.7207879716028837,3.705811145885587,-0.16001344994887517,5.291360696042362,-0.9847707886268335,-0.8141135576403201],[-5.248871865630901,-1.3188503242348353,18.207768081464117,12.55210370117363,-0.19215582601281106,0.29406959455331483,-0.7019476956307942,26.763891191613677,-0.08631599802635123,1.9946796497983539,0.7924584020284132,-1.2377268639653192,-0.3809628493944657,1.1553770809775354,2.5753130424684874,1.1790517380581265,-0.7165278644992973,-3.693920234872687,0.16888053940231712,-5.282829226997355,0.9936619030074783,0.8239568146281032]],"accuracy_validation":0.7987519500780031,"mse_training":0.3951935914552737,"accuracy_training":0.8024032042723631,"mse_validation":0.40249609984399376,"bias":-3.798515843441227E-19},{"epoch":94,"weights":[[5.352245326254097,1.3173443926289607,-18.202731530525682,-12.574690364471758,0.19964615717458983,-0.2795601986804469,0.7130872368526642,-26.913028999357355,0.0987556369678223,-1.9597744481188044,-0.0025920985879588007,1.2264087159745551,0.38445631596572527,-1.1420766879882978,-2.5450760069479808,-1.1561646699348338,0.7137871255752839,3.660811145893204,-0.7512572608807027,4.8911207325866135,-1.2896727796874248,-0.572913446343122],[-5.343923365014968,-1.310847786152036,18.208790885006024,12.583672955281317,-0.19115582601281106,0.2950695944606162,-0.6979476956307942,26.923967324827863,-0.08231599802635123,1.970679649705658,0.0074583222564753235,-1.2167260179377215,-0.3759620010881346,1.145377080884838,2.5483138882256,1.171051737973041,-0.7095270184716975,-3.648920234880304,0.7601243503341446,-4.882589263541607,1.2985638940680686,0.5827567033309051]],"accuracy_validation":0.7862714508580343,"mse_training":0.40587449933244324,"accuracy_training":0.7970627503337784,"mse_validation":0.42745709828393136,"bias":-5.405682273365916E-19},{"epoch":93,"weights":[[6.039245342960685,1.2963443926984703,-18.22773152990286,-12.656498202866384,0.19964615717458983,-0.2785601986574026,0.7020872368526642,-26.91302899794424,0.0947556369678223,-1.9367744480957627,-0.9565920803663257,1.2174087159672555,0.38045631598876956,-1.1310766879652547,-2.5170760068861457,-1.1451646699118545,0.7007871255983282,3.6248111459089514,-0.2622572545515686,5.258120736713114,-0.6616727739623754,-0.5949134392550973],[-6.030923381721555,-1.2898477862215456,18.233790884383204,12.665480793675943,-0.19115582601281106,0.2940695944375719,-0.6869476956307942,26.92396732341475,-0.07831599802635122,1.9476796496826163,0.9614583040348421,-1.207726017930422,-0.3719620011111789,1.134377080861795,2.520313888163765,1.1600517379500617,-0.6965270184947419,-3.6129202348960514,0.27112434400501056,-5.2495892676681075,0.6705638883430202,0.6047566962428804]],"accuracy_validation":0.8393135725429017,"mse_training":0.32309746328437916,"accuracy_training":0.8384512683578104,"mse_validation":0.3213728549141966,"bias":-4.1325686505541962E-19},{"epoch":92,"weights":[[6.464573288602901,1.2793496300078988,-18.19968449483222,-12.67355369330625,0.19864638525708975,-0.2735586813463695,0.6920872362882494,-26.832854452946822,0.0987556369678223,-1.9217742200132646,-0.9574226150688898,1.2034089440497568,0.3754580613823026,-1.1190764598827563,-2.4910738053276105,-1.1301646699118562,0.6877888709918613,3.5818113734270414,-0.48144316785841235,5.145919582200617,-0.7462232190669257,-0.5733904370931248],[-6.456251327363772,-1.272853023530974,18.20574384931256,12.682536284115809,-0.19015605409531097,0.2890680771265388,-0.6769476950663794,26.84379277841733,-0.08231599802635123,1.9326794216001182,0.9622888387374053,-1.1937262460129232,-0.3669637465047119,1.1223768527792966,2.4943116866052297,1.1450517379500633,-0.6835287638882749,-3.5699204624141414,0.49031025731185407,-5.13738811315561,0.7551143334475704,0.5832336940809079]],"accuracy_validation":0.8377535101404057,"mse_training":0.3324432576769025,"accuracy_training":0.8337783711615487,"mse_validation":0.3244929797191888,"bias":-6.761409985073993E-19},{"epoch":91,"weights":[[5.780801596345171,1.2733404262618886,-18.16582254992025,-12.672461366401722,0.19564638525433004,-0.2725632832159895,0.6800872363102082,-26.663314637961356,0.0977556369650626,-1.9017742199935874,-1.3524226109131996,1.1954089440717164,0.3664534595318817,-1.1120764598606079,-2.4710784071554004,-1.1251646699089064,0.683784269119001,3.549806771554185,-0.9386060386218615,6.174539028586994,0.20219794983989947,-1.2937589672387202],[-5.772479635106041,-1.2668438197849639,18.171881904400593,12.68144395721128,-0.18715605409255126,0.2880726789961588,-0.6649476950883382,26.674252963431865,-0.08131599802359153,1.912679421580441,1.3572888345817151,-1.1857262460348827,-0.357959144654291,1.1153768527571482,2.4743162884330197,1.1400517379471136,-0.6795241620154147,-3.537915860541285,0.947473128075303,-6.166007559541987,-0.19330683545925476,1.3036022242265024]],"accuracy_validation":0.8377535101404057,"mse_training":0.3097463284379172,"accuracy_training":0.8451268357810414,"mse_validation":0.3244929797191888,"bias":-8.755295805602363E-19},{"epoch":90,"weights":[[5.1544812458990705,1.2521114994023028,-18.09821551797105,-12.7884294704575,0.19364638525433003,-0.27030282598418653,0.6740872363102082,-26.587291105493787,0.09601609466845408,-1.8835189127466665,-0.13944128719713697,1.183408722070273,0.36071369476213794,-1.1048162246302502,-2.450297479462775,-1.1111597423970605,0.6700445048209474,3.5048114770644907,-1.3307648774668888,5.70647552861161,0.48906892266970337,-0.867249648091369],[-5.146159284659941,-1.245614892925378,18.10427487245139,12.797412061267059,-0.18515605409255126,0.28581222176435583,-0.6589476950883382,26.598229430964295,-0.079576455726983,1.89442411433352,0.1443075108656516,-1.1737260240334393,-0.35221937988454727,1.1081166175267905,2.4535353607403945,1.1260468104352677,-0.665784397717361,-3.4929205660515907,1.3396319669203294,-5.697944059566605,-0.48017780828905865,0.8770929050791512]],"accuracy_validation":0.8346333853354134,"mse_training":0.3391188251001335,"accuracy_training":0.8304405874499332,"mse_validation":0.33073322932917315,"bias":-1.1335318212245119E-18},{"epoch":89,"weights":[[5.495481483245472,1.2261115001184302,-18.0782155088978,-12.969090409876332,0.19064638525433003,-0.2723028257454061,0.6710872363102082,-26.677291084002494,0.09301609490712576,-1.867518912746561,-1.297441218833953,1.1714087220702742,0.35171369500091837,-1.0988162243914719,-2.439297478985108,-1.10315974239706,0.6540445050597278,3.4578114770646033,-0.9387648177750847,5.487475575929085,0.08406903728862491,-0.8022495367743353],[-5.487159522006342,-1.2196148936415054,18.08427486337814,12.97807300068589,-0.18215605409255126,0.2878122215255754,-0.6559476950883382,26.688229409473003,-0.07657645596565468,1.8784241143334146,1.3023074425024677,-1.1617260240334406,-0.3432193801233277,1.1021166172880121,2.442535360262727,1.1180468104352672,-0.6497843979561414,-3.4459205660517034,0.9476319072285253,-5.47894410688408,-0.07517792290798109,0.8120927937621175]],"accuracy_validation":0.8424336973478939,"mse_training":0.30574098798397864,"accuracy_training":0.8471295060080107,"mse_validation":0.31513260530421217,"bias":-1.1416892249625996E-18},{"epoch":88,"weights":[[5.6293756473103205,1.2161226958770808,-17.890994974539954,-12.7067647593639,0.18864647115942676,-0.2682975204763192,0.6580900956498932,-26.306747092069255,0.09201609490712576,-1.848518484205745,-0.41196924621621955,1.1624087220702752,0.34571942944472944,-1.0858133499212534,-2.411288441530258,-1.0871569538319386,0.6430498962339113,3.42281156360361,0.3854731071717604,6.291720763434129,-1.8323267466945956,-0.16441378337453938],[-5.621053686071193,-1.209626089400156,17.897054329020296,12.715747350173459,-0.18015613999764798,0.2838069162564885,-0.6429505544280232,26.317685417539764,-0.07557645596565468,1.8594236857925985,0.4168354698847342,-1.1527260240334416,-0.3372251145671388,1.0891137428177937,2.4145263228078773,1.1020440218701457,-0.6387897891303249,-3.41092065259071,-0.37660601771832025,-6.283189294389124,1.8412178610752394,0.1742570403623216]],"accuracy_validation":0.8205928237129485,"mse_training":0.35647530040053405,"accuracy_training":0.821762349799733,"mse_validation":0.358814352574103,"bias":-1.2023614523100106E-18},{"epoch":87,"weights":[[5.694375648487716,1.1871226958811327,-17.908994974486397,-13.033182439260617,0.18364647115942676,-0.2692975204750684,0.6510900956499931,-26.556747091935197,0.09101609490712576,-1.829518484205747,-0.3739692462162205,1.1514087220716271,0.33671942944598027,-1.0758133499212545,-2.394288441528906,-1.0781569538319395,0.6290498962352621,3.3788115636037146,-0.8465268924063956,5.239720763878725,-0.26732674483076935,-1.5634137815843663],[-5.686053687248588,-1.180626089404208,17.91505432896674,13.042165030070176,-0.17515613999764798,0.2848069162552377,-0.6359505544281231,26.567685417405706,-0.07457645596565468,1.8404236857926006,0.37883546988473515,-1.1417260240347935,-0.3282251145683896,1.0791137428177948,2.397526322806525,1.0930440218701467,-0.6247897891316757,-3.3669206525908146,0.8553939818598357,-5.23118929483372,0.27621785921141273,1.5732570385721503]],"accuracy_validation":0.8127925117004681,"mse_training":0.3684913217623498,"accuracy_training":0.8157543391188251,"mse_validation":0.374414976599064,"bias":-1.267006804101211E-18},{"epoch":86,"weights":[[6.563347126023741,1.1781225656868515,-18.04899609603784,-13.319541862516903,0.18064647115942675,-0.26629754957380536,0.6440900956499931,-26.836750001808962,0.08801609490712575,-1.8085184699063928,-1.2529703431823405,1.1394087220716282,0.3297194003472433,-1.065813379019993,-2.3732884854270213,-1.0671569829306782,0.6150498528371682,3.329811520205626,-0.4205418737558395,4.759712702625845,-0.2723551664982061,-0.8624333364426028],[-6.555025164784613,-1.1716259592099267,18.055055450518182,13.328524453326462,-0.17215613999764798,0.28180694535397466,-0.6289505544281231,26.84768832727947,-0.07157645596565468,1.8194236714932464,1.257836566850855,-1.1297260240347946,-0.3212250854696526,1.0691137719165333,2.3765263667046406,1.0820440509688853,-0.6107897457335818,-3.317920609192726,0.4294089632092799,-4.75118123358084,0.28124628087885084,0.8722765934303877]],"accuracy_validation":0.8377535101404057,"mse_training":0.3190921228304406,"accuracy_training":0.8404539385847797,"mse_validation":0.3244929797191888,"bias":-1.0798524195363003E-18},{"epoch":85,"weights":[[5.3915020719366655,1.1531230006232096,-17.970989059859303,-13.455616547728674,0.18464647115934216,-0.26829734546948636,0.6410900956087366,-26.84672959109894,0.08701609490712575,-1.7895182925342468,-0.28280680682926007,1.1224088994426624,0.3257196044514775,-1.055813201647846,-2.350287926580919,-1.0551569829306795,0.6020500569400034,3.2838115202051807,-0.6924963228395868,4.98277410854145,-1.6432261245343285,-0.07525247198943907],[-5.383180110697538,-1.1466263941462849,17.977048414339645,13.464599138538233,-0.17615613999756338,0.28380674124965566,-0.6259505543868666,26.857667916569447,-0.07057645596565468,1.8004234941211004,0.2876730304977747,-1.1127262014058288,-0.31722528957388685,1.0591135945443864,2.353525807858538,1.0700440509688867,-0.597789949836417,-3.271920609192281,0.7013634122930272,-4.9742426394964445,1.6521172389149732,0.08509572897722395]],"accuracy_validation":0.7893915756630265,"mse_training":0.3965287049399199,"accuracy_training":0.80173564753004,"mse_validation":0.42121684867394693,"bias":-1.6848671973736896E-18},{"epoch":84,"weights":[[5.933501897753544,1.139122999621951,-17.85998906942035,-13.434636657757958,0.18364647115934216,-0.2642973454732647,0.6360900956087366,-26.606729641161948,0.08601609490712575,-1.7655182930311009,-0.2938068853317702,1.1064088989458127,0.32371960444769915,-1.0448132021446987,-2.324287927578399,-1.0481569829306803,0.5940500564393737,3.2518115197083324,-1.3944965238527334,4.466773898292089,0.3357734873509868,-0.6882529247305935],[-5.925179936514416,-1.1326263931450262,17.866048423900693,13.443619248567517,-0.17515613999756338,0.279806741253434,-0.6209505543868666,26.617667966632457,-0.06957645596565468,1.7764234946179545,0.2986731090002848,-1.096726200908979,-0.3152252895701085,1.048113595041239,2.3275258088560182,1.0630440509688874,-0.5897899493357873,-3.2399206086954324,1.403363613306174,-4.458242429247082,-0.3268823729703403,0.6980961817183784]],"accuracy_validation":0.8237129485179407,"mse_training":0.3404539385847797,"accuracy_training":0.8297730307076101,"mse_validation":0.35257410296411856,"bias":-1.4463520674909595E-18},{"epoch":83,"weights":[[5.800213138851976,1.1300926180817086,-17.884594235166816,-13.477569388025442,0.17764647115934215,-0.2573125040165115,0.6260900741241537,-26.75824764394497,0.08401609490712575,-1.7485334515743496,-0.8294675915413607,1.0904088774612317,0.3177044244198695,-1.0378283606879464,-2.3053313463568514,-1.0371569829306815,0.588034876411544,3.203796361165091,-1.007313726989355,5.394836317290758,-0.5558451067016797,-0.29804147209682874],[-5.7918911776128486,-1.1235960116047838,17.890653589647158,13.486551978835001,-0.16915613999756338,0.2728218997966808,-0.6109505329022837,26.769185969415478,-0.06757645596565467,1.7594386531612032,0.8343338152098754,-1.080726179424398,-0.30921010954227884,1.0411287535844866,2.3085692276344707,1.0520440509688886,-0.5837747693079576,-3.191905450152191,1.0161808164427948,-5.386304848245751,0.5647362210823262,0.3078847290846136]],"accuracy_validation":0.8377535101404057,"mse_training":0.30574098798397864,"accuracy_training":0.8471295060080107,"mse_validation":0.3244929797191888,"bias":-1.4548510451091293E-18},{"epoch":82,"weights":[[4.507339334043418,1.1220506994000237,-17.724725690858783,-13.111872379560083,0.17464647115934215,-0.2513544128497072,0.6210900741241537,-26.392514755700976,0.08201609490712575,-1.7245258287264174,0.9956583628969451,1.0764088774569378,0.3126625155866738,-1.0248207378443084,-2.2713580094984698,-1.0221569829306831,0.5879929577384506,3.172796371004934,-1.1134367997634842,5.895931504901378,-1.4031023223870434,0.1113506180343996],[-4.49901737280429,-1.115554092923099,17.730785045339125,13.120854970369642,-0.16615613999756337,0.2668638086298765,-0.6059505329022837,26.403453081171484,-0.06557645596565467,1.735431030313271,-0.9907921392284305,-1.0667261794201042,-0.3041682007090831,1.0281211307408487,2.274595890776089,1.0370440509688903,-0.5837328506348642,-3.160905459992034,1.122303889216924,-5.887400035856371,1.4119934367676898,-0.10150736104661473]],"accuracy_validation":0.8003120124804992,"mse_training":0.40053404539385845,"accuracy_training":0.7997329773030708,"mse_validation":0.3993759750390016,"bias":-1.424380062167921E-18},{"epoch":81,"weights":[[5.213908943594478,1.1190506994280511,-17.5947054810702,-12.80546188272346,0.17264647116963788,-0.24935441274999026,0.6140900741241537,-26.13625020490093,0.08101609490712575,-1.7025258288187162,-0.7403416416847639,1.0554088776695447,0.31062516110460975,-1.0108207379366063,-2.2453953640522544,-1.011156982728391,0.5869929578484633,3.134759016330861,-1.0945567507884524,4.53625121205301,-0.5407874670443573,-0.9506364871519606],[-5.20558698235535,-1.1125540929511264,17.600764835550542,12.814444473533019,-0.1641561400078591,0.26486380853015956,-0.5989505329022837,26.147188530371437,-0.06457645596565467,1.7134310304055698,0.7452078653532794,-1.045726179632711,-0.3021308462270191,1.0141211308331466,2.2486332453298736,1.0260440507665982,-0.5827328507448769,-3.122868105317961,1.103423840241892,-4.527719743008003,0.5496785814250056,0.9604797441397459]],"accuracy_validation":0.7862714508580343,"mse_training":0.4098798397863818,"accuracy_training":0.7950600801068091,"mse_validation":0.42745709828393136,"bias":-1.2648989561594714E-18},{"epoch":80,"weights":[[5.088908943594473,1.1130506994280522,-17.49970548107017,-12.690263482723449,0.16964647116963788,-0.24535441274999026,0.6060900741241537,-25.986250204900976,0.08201609490712575,-1.685525828818718,-1.0033416416847623,1.0394088776695465,0.30362516110460974,-0.9998207379366075,-2.2213953640522535,-1.003156982728392,0.5769929578484633,3.099759016330865,0.5414432492115464,4.924251212053008,-0.7277874670443587,-0.8636364871519634],[-5.080586982355345,-1.1065540929511275,17.50576483555051,12.699246073533008,-0.1611561400078591,0.26086380853015956,-0.5909505329022837,25.997188530371485,-0.06557645596565467,1.6964310304055716,1.0082078653532769,-1.0297261796327128,-0.2951308462270191,1.0031211308331478,2.2246332453298727,1.018044050766599,-0.5727328507448769,-3.087868105317965,-0.5325761597581071,-4.915719743008001,0.7366785814250074,0.8734797441397492]],"accuracy_validation":0.8127925117004681,"mse_training":0.3658210947930574,"accuracy_training":0.8170894526034713,"mse_validation":0.374414976599064,"bias":-1.31258243365311E-18},{"epoch":79,"weights":[[5.582307448536492,1.103206406901163,-17.396810978852386,-12.667319545459764,0.16764647116963619,-0.24736847037965665,0.6000916023206828,-25.873125629964957,0.08101609490712575,-1.667524300622193,-0.48009167481707377,1.0234529215224426,0.2936677425891754,-0.9868346421530948,-2.1983777538489857,-0.989172415141407,0.573035539333029,3.059802905597405,-0.06533606600269687,3.805560693351241,-0.8721346528610042,-0.7385188672464288],[-5.573985487297364,-1.0967098004242382,17.40287033333273,12.676302136269323,-0.1591561400078574,0.2628778661598259,-0.5849520610988128,25.884063955435465,-0.06457645596565467,1.6784295022090465,0.4849578984855884,-1.013770223485609,-0.2851734277115847,0.9901350350496355,2.201615635126605,1.0040594831796152,-0.5687754322294426,-3.047911994584505,0.07420315545613615,-3.7970292243062342,0.8810257672416534,0.7483621242342146]],"accuracy_validation":0.8205928237129485,"mse_training":0.3604806408544726,"accuracy_training":0.8197596795727636,"mse_validation":0.358814352574103,"bias":-1.0618961941755458E-18},{"epoch":78,"weights":[[5.584307440443039,1.101206406863588,-17.40081097924529,-12.839268906386767,0.1696464711696362,-0.24636847038187532,0.5900916023206828,-25.983125631247347,0.07901609490712275,-1.645524300624411,-0.41109167505942923,1.0044529215106612,0.28866774258695677,-0.9768346421553135,-2.180377753865205,-0.981172415141407,0.5640355393190267,3.0178029055834106,0.6996639309181423,4.968560688865957,-1.6831346678915233,-0.1745188845912018],[-5.575985479203911,-1.0947098003866633,17.40687033372563,12.848251497196326,-0.1611561400078574,0.26187786616204456,-0.5749520610988128,25.994063956717856,-0.06257645596565167,1.6564295022112645,0.41595789872794386,-0.9947702234738268,-0.2801734277093661,0.9801350350518542,2.183615635142824,0.9960594831796157,-0.5597754322154403,-3.0059119945705106,-0.690796841464703,-4.96002921982095,1.6920257822721716,0.18436214157898756]],"accuracy_validation":0.8190327613104524,"mse_training":0.34979973297730305,"accuracy_training":0.8251001335113485,"mse_validation":0.3619344773790952,"bias":-1.1402924923290372E-18},{"epoch":77,"weights":[[6.0928452762979255,1.0782019342316689,-17.4668914860634,-13.053299611155339,0.1686464711696362,-0.24737070668914124,0.582089366030805,-26.22334926197397,0.08101609490712275,-1.6305265369142903,-0.6886924801873475,0.9934529215106618,0.27766550627969094,-0.9658368784451913,-2.160384462752225,-0.971172415141407,0.5510333030117609,2.976802905566027,-0.704946202366916,5.1732435071205485,-0.6626091221354243,-0.4874145193463503],[-6.084523315058798,-1.0717053277547441,17.472950840543742,13.062282201964898,-0.1601561400078574,0.2628801024693105,-0.566949824808935,26.234287587444477,-0.06457645596565167,1.6414317385011439,0.6935587038558622,-0.9837702234738269,-0.2691711914021003,0.969137271341732,2.1636223440298443,0.9860594831796157,-0.5467731959081745,-2.964911994553127,0.7138132918203552,-5.164712038075542,0.6715002365160726,0.49725777633413604]],"accuracy_validation":0.8393135725429017,"mse_training":0.3311081441922563,"accuracy_training":0.8344459279038718,"mse_validation":0.3213728549141966,"bias":-1.2362115664885522E-18},{"epoch":76,"weights":[[5.548349987409969,1.0587725298760033,-17.37078790684646,-12.966849830536745,0.16564647116963618,-0.24087122961638588,0.574089366030805,-26.072699087276888,0.07901609490712275,-1.6070270598415375,-0.4696577623202642,0.9834529215106618,0.2731649833524462,-0.9523374013724359,-2.1328860315339577,-0.9606026913264929,0.5406038986560957,2.933803803787963,0.2286658951115797,6.131919241512134,-1.7293652548952703,-0.07319502654440968],[-5.540028026170841,-1.0522759233990786,17.3768472613268,12.975832421346304,-0.1571561400078574,0.2563806253965552,-0.558949824808935,26.083637412747397,-0.06257645596565167,1.617932261428391,0.4745239859887788,-0.9737702234738269,-0.26467066847485554,0.9556377942689767,2.136123912811577,0.9754897593647016,-0.5363437915525093,-2.921912892775063,-0.21979880565813975,-6.123387772467127,1.738256369275919,0.08303828353219544]],"accuracy_validation":0.8299531981279251,"mse_training":0.35113484646194926,"accuracy_training":0.8244325767690254,"mse_validation":0.34009360374414976,"bias":-1.2527320960611937E-18},{"epoch":75,"weights":[[5.40134982065515,1.0537725297830305,-17.31978792657761,-13.105793443819659,0.15964647116963618,-0.23287122970935822,0.5620893654908639,-26.122699101043846,0.07901609490712275,-1.587027059934512,-0.11765804415546105,0.9744529215106618,0.26516498325947385,-0.9383374014654083,-2.110886032259843,-0.9526026913264929,0.5356038985631233,2.884803804234937,-0.3633342355545092,5.0869190096697166,-0.5513653218388644,-0.6821950454550102],[-5.393027859416022,-1.0472759233061057,17.325847281057953,13.114776034629218,-0.1511561400078574,0.24838062548952755,-0.5469498242689939,26.133637426514355,-0.06257645596565167,1.5979322615213656,0.12252426782397569,-0.9647702234738269,-0.2566706683818832,0.941637794361949,2.1141239135374623,0.9674897593647016,-0.5313437914595369,-2.872912893222037,0.37220132500794917,-5.07838754062471,0.5602564362195136,0.692038302442796]],"accuracy_validation":0.8299531981279251,"mse_training":0.33511348464619495,"accuracy_training":0.8324432576769025,"mse_validation":0.34009360374414976,"bias":-1.2786349471462721E-18},{"epoch":74,"weights":[[6.179229188822379,1.0387725297830321,-17.433366767254306,-13.22366574808862,0.15764647116963618,-0.23587122970935778,0.5590893654908639,-26.044352931548733,0.07801609490712275,-1.5680270599345136,-0.5616580441547827,0.9582363832056129,0.25794844495442537,-0.9273374014654079,-2.0851025705648887,-0.9346026913264924,0.5246038985631237,2.853587265929892,-1.0340988077478528,6.617804052391489,-0.9894621190974643,-0.7445637518629938],[-6.1709072275832515,-1.0322759233061074,17.43942612173465,13.23264833889818,-0.1491561400078574,0.2513806254895271,-0.5439498242689939,26.055291257019242,-0.06157645596565167,1.5789322615213672,0.5665242678232973,-0.948553685168778,-0.2494541300768347,0.9306377943619486,2.088340451842508,0.9494897593647011,-0.5203437914595374,-2.841696354916992,1.0429658972012925,-6.609272583346482,0.9983532334781134,0.7544070088507796]],"accuracy_validation":0.8299531981279251,"mse_training":0.3404539385847797,"accuracy_training":0.8297730307076101,"mse_validation":0.34009360374414976,"bias":-1.3128752881214828E-18},{"epoch":73,"weights":[[5.336902215014665,1.025846785886055,-17.204766115231585,-13.085796625237593,0.15664647116963082,-0.23279689123776096,0.5460893654908638,-25.516923203358246,0.07801609490712275,-1.5469527214593388,-0.18799953660173901,0.9523106805054915,0.25602274223632987,-0.9132630629902305,-2.0518795963182397,-0.9226026913408776,0.5176781958594198,2.814587224725826,-0.9202601209685894,4.503214296087825,-0.6101866017190442,0.24164797818135952],[-5.328580253775537,-1.0193501794091302,17.210825469711928,13.094779216047153,-0.14815614000785204,0.24830628701793034,-0.5309498242689938,25.527861528828755,-0.06157645596565167,1.5578579230461924,0.19286576027025365,-0.9426279824686566,-0.2475284273587392,0.9165634558867712,2.055117477595859,0.9374897593790863,-0.5134180887558334,-2.802696313712926,0.9291272104220287,-4.494682827042818,0.619077716099692,-0.23180472119357465]],"accuracy_validation":0.8315132605304212,"mse_training":0.3484646194926569,"accuracy_training":0.8257676902536716,"mse_validation":0.3369734789391576,"bias":-1.4859640149403485E-18},{"epoch":72,"weights":[[5.148222155488922,1.0198470234661254,-17.048746285194508,-13.176937341922299,0.15164658646420795,-0.22679635854686084,0.5370893655667703,-25.466859550926852,0.07701609490712275,-1.530952606088645,-1.0499440074693147,0.9393106805054915,0.2510233902977137,-0.9062629476195351,-2.0398787175154656,-0.9086026913408776,0.5046783146115016,2.7785878727115185,-0.2870850326638292,4.633452176989611,-0.7307796971497192,-0.7398992371326235],[-5.139900194249794,-1.0133504169892007,17.05480563967485,13.185919932731858,-0.14315625530242918,0.24230575432703022,-0.5219498243449003,25.47779787639736,-0.06057645596565167,1.5418578076754985,1.0548102311378302,-0.9296279824686566,-0.24252907542012306,0.9095633405160758,2.043116598793085,0.9234897593790863,-0.5004182075079152,-2.7666969616986186,0.29595212211726823,-4.624920707944604,0.7396708115303675,0.7497424941204084]],"accuracy_validation":0.8018720748829953,"mse_training":0.3965287049399199,"accuracy_training":0.80173564753004,"mse_validation":0.3962558502340094,"bias":-1.323609627090401E-18},{"epoch":71,"weights":[[5.14393558978483,0.9868572042243099,-16.954613367293955,-13.367665981372603,0.14464658646420803,-0.2268555057389191,0.5340892955864752,-25.492155652245852,0.07801609490712275,-1.5110152376624377,-0.03679402314780952,0.9263106805054915,0.2439641731253605,-0.8943255791933257,-2.0140005662616076,-0.8946026913390195,0.4906816590307857,2.7325912208988203,-0.20967469669319921,4.423036483899485,-0.7274261826937669,0.2431798043091491],[-5.135613628545702,-0.9803605977473856,16.960672721774298,13.376648572182162,-0.13615625530242925,0.24236490151908852,-0.5189497543646052,25.50309397771636,-0.06157645596565167,1.5219204392492913,0.04166024681632504,-0.9166279824686566,-0.23546985824776975,0.8976259720898664,2.017238447539227,0.9094897593772282,-0.48642155192719927,-2.7207003098859204,0.21854178614663805,-4.414505014854478,0.7363172970744152,-0.2333365473213651]],"accuracy_validation":0.8315132605304212,"mse_training":0.34979973297730305,"accuracy_training":0.8251001335113485,"mse_validation":0.3369734789391576,"bias":-1.452745908008288E-18},{"epoch":70,"weights":[[6.3319355897848375,0.9698572042243099,-16.88661336729394,-13.687650461372591,0.13864658646420802,-0.2258555057389191,0.5250892955864752,-25.772155652245896,0.07401609490712274,-1.4960152376624394,-0.3387940231478113,0.9183106805054915,0.2369641731253605,-0.8893255791933257,-2.002000566261607,-0.8876026913390195,0.4796816590307857,2.6855912208988255,-0.9976746966931997,4.898036483899481,-1.2114261826937656,0.09417980430914707],[-6.32361362854571,-0.9633605977473856,16.892672721774282,13.69663305218215,-0.13015625530242925,0.24136490151908851,-0.5099497543646052,25.783093977716405,-0.05757645596565167,1.506920439249293,0.34366024681632684,-0.9086279824686566,-0.22846985824776975,0.8926259720898664,2.005238447539225,0.9024897593772282,-0.47542155192719926,-2.6737003098859256,1.0065417861466386,-4.889505014854474,1.2203172970744138,-0.08433654732136309]],"accuracy_validation":0.8252730109204368,"mse_training":0.3404539385847797,"accuracy_training":0.8297730307076101,"mse_validation":0.3494539781591264,"bias":-1.4527459077778456E-18},{"epoch":69,"weights":[[4.872526602930233,0.9478612228843002,-16.833078046198434,-13.773044855561881,0.13464658646420802,-0.22593779261561928,0.5190892955864752,-25.800397526658546,0.07401609490712274,-1.4790152376624413,0.28520597685218857,0.9082283513984973,0.23188188624866032,-0.8803255791933257,-1.983082853138306,-0.8826013658625794,0.46868302673751966,2.6445925395734644,-1.225031379857095,4.742474913611727,-1.0548268288376137,-0.23429233685816664],[-4.864204641691106,-0.9413646164073759,16.839137400678776,13.78202744637144,-0.12615625530242924,0.2414471883957887,-0.5039497543646052,25.811335852129055,-0.05757645596565167,1.4899204392492948,-0.28033975318367216,-0.8985456533616625,-0.22338757137106957,0.8836259720898664,1.9863207344159244,0.8974884339007881,-0.46442291963393323,-2.6327016285605644,1.2338984693105342,-4.73394344456672,1.063717943218262,0.24413559384595063]],"accuracy_validation":0.8034321372854915,"mse_training":0.38050734312416556,"accuracy_training":0.8097463284379173,"mse_validation":0.39313572542901715,"bias":-1.3142989034395623E-18},{"epoch":68,"weights":[[6.188527091173327,0.9258612241613091,-16.94207803002297,-14.054360174910421,0.13664658646420802,-0.22493779261561928,0.5110892960121448,-25.930397484091614,0.07301609490712274,-1.459015237236774,-0.8857936362140897,0.8862283518241669,0.22688188667432999,-0.870325578767656,-1.9650828518612968,-0.8716013658625794,0.4536830271631893,2.5965925395734697,-0.9210312049068639,5.303475066001462,-0.6558262856831286,-0.4312918375476569],[-6.180205129934199,-0.9193646176843848,16.948137384503312,14.06334276571998,-0.12815625530242925,0.24044718839578869,-0.49594975479027487,25.941335809562123,-0.05657645596565167,1.4699204388236276,0.8906598598826061,-0.8765456537873321,-0.21838757179673923,0.8736259716641968,1.9683207331389152,0.8864884339007881,-0.4494229200596029,-2.5847016285605697,0.9298982943603022,-5.294943596956455,0.6647174000637769,0.44113509453544086]],"accuracy_validation":0.8377535101404057,"mse_training":0.32309746328437916,"accuracy_training":0.8384512683578104,"mse_validation":0.3244929797191888,"bias":-1.3142988319198393E-18},{"epoch":67,"weights":[[6.071744099397378,0.8949411926116394,-16.854145253918063,-14.159282400258984,0.13464658646420802,-0.22591114334365342,0.5040892960121448,-25.827999152786884,0.07301609490712274,-1.4359885879648104,-0.3391195801213143,0.8722283518241669,0.21790853594629583,-0.8582989294956902,-1.9330295636345822,-0.8595747062733972,0.4387096764351551,2.5525925395734745,-0.7589544899623655,4.67745870683784,-0.27861913398339055,-0.5172787099438712],[-6.06342213815825,-0.8884445861347151,16.860204608398405,14.168264991068543,-0.12615625530242924,0.24142053912382283,-0.48894975479027486,25.838937478257392,-0.05657645596565167,1.446893789551664,0.34398580378983074,-0.8625456537873321,-0.20941422106870508,0.8615993223922309,1.9362674449122006,0.8744617743116059,-0.4344495693315687,-2.5407016285605746,0.7678215794158043,-4.6689272377928335,0.2875102483640388,0.5271219669316556]],"accuracy_validation":0.8252730109204368,"mse_training":0.33511348464619495,"accuracy_training":0.8324432576769025,"mse_validation":0.3494539781591264,"bias":-1.1902315342329191E-18},{"epoch":66,"weights":[[5.638744111297472,0.8769411926284152,-16.83814525341903,-14.199406239086818,0.13064658646399954,-0.2259111433262521,0.49708929601214485,-25.99799915106555,0.07101609490691425,-1.4179885879648124,-0.9731195802215644,0.8562283518241669,0.2119085359634887,-0.8472989294958986,-1.9130295636178063,-0.847574706273397,0.4297096764523479,2.509592539590672,-1.2129544777443824,5.576458721639662,0.1273808827126227,-1.5532786894327972],[-5.630422150058344,-0.8704445861514909,16.84420460789937,14.208388829896377,-0.12215625530222077,0.2414205391064215,-0.48194975479027485,26.008937476536058,-0.05457645596544319,1.428893789551666,0.9779858038900808,-0.846545653787332,-0.20341422108589793,0.8505993223924393,1.9162674448954247,0.8624617743116058,-0.4254495693487615,-2.4977016285777722,1.2218215671978216,-5.5679272525946555,-0.11848976833197533,1.5631219464205812]],"accuracy_validation":0.8174726989079563,"mse_training":0.3444592790387183,"accuracy_training":0.8277703604806409,"mse_validation":0.36505460218408736,"bias":-1.3964146576727208E-18},{"epoch":65,"weights":[[5.318399845491943,0.845928690328081,-16.79055677110862,-14.286245147727982,0.12764658646399954,-0.22591076682048256,0.48807554988259283,-25.919341017836196,0.06701609490691425,-1.3990024483956582,-1.1044951414402724,0.8492283518347844,0.2029089124692582,-0.8363127899267424,-1.8880706541138945,-0.8335885667148585,0.4136963068285654,2.460579169956278,-0.8315397627573787,5.44177966281485,-1.0458640757517235,-0.9359485545613818],[-5.310077884252815,-0.8394320838511568,16.79661612558896,14.295227738537541,-0.11915625530222076,0.24142016260065197,-0.47293600866072283,25.930279343306704,-0.05057645596544318,1.4099076499825118,1.1093613651087886,-0.8395456537979495,-0.19441459759166746,0.8396131828232831,1.891308535391513,0.8484756347530672,-0.40943619972497897,-2.448688258943378,0.840406852210817,-5.433248193769843,1.0547551901323708,0.9457918115491658]],"accuracy_validation":0.7379095163806553,"mse_training":0.465954606141522,"accuracy_training":0.767022696929239,"mse_validation":0.5241809672386896,"bias":-1.3964971904455188E-18},{"epoch":64,"weights":[[5.5796177754990515,0.8440250710890564,-16.696531433625005,-14.2916850140615,0.12764658646399954,-0.22991059631668875,0.4790755498825989,-25.864532210014787,0.06401609490691425,-1.3790024483956544,-2.1144951414340243,0.8332762864595783,0.19495701759784598,-0.8273127899267364,-1.868022548985289,-0.8225883962110585,0.4087444119571592,2.419627275084876,-0.5490309833939855,5.070935859672633,-1.2919393791431608,0.12833352065865156],[-5.571295814259925,-0.8375284646121323,16.702590788105347,14.300667604871059,-0.11915625530222076,0.24541999209685816,-0.46393600866072887,25.875470535485295,-0.04757645596544318,1.389907649982508,2.1193613651025407,-0.8235935884227434,-0.18646270272025522,0.8306131828232771,1.8712604302629074,0.8374754642492673,-0.4044843048535728,-2.407736364071976,0.5578980728474239,-5.062404390627626,1.3008304935238082,-0.11849026367086801]],"accuracy_validation":0.7847113884555382,"mse_training":0.411214953271028,"accuracy_training":0.794392523364486,"mse_validation":0.43057722308892354,"bias":-1.2920942815825613E-18},{"epoch":63,"weights":[[5.336583886941668,0.8202732155941806,-16.54645189318626,-14.26066258170177,0.12464658646399954,-0.2217865240619462,0.47207554988259887,-25.983365707058653,0.06501609490691425,-1.359002448394346,-0.8814951394870109,0.8152762864595783,0.19095701760078135,-0.8143127899254828,-1.843898476727982,-0.8095883962111158,0.397868484210591,2.378751347338312,-1.3339630666134301,5.243638981995345,-0.2475013459830928,0.03999211334869579],[-5.328261925702542,-0.8137766091172565,16.5525112476666,14.269645172511328,-0.11615625530222076,0.23729591984211562,-0.45693600866072887,25.99430403252916,-0.04857645596544318,1.3699076499811995,0.8863613631555273,-0.8055935884227434,-0.1824627027231906,0.8176131828220236,1.8471363580056004,0.8244754642493246,-0.3936083771070046,-2.366860436325412,1.3428301560668685,-5.235107512950338,0.2563924603637402,-0.03014885636091269]],"accuracy_validation":0.8268330733229329,"mse_training":0.3204272363150868,"accuracy_training":0.8397863818424566,"mse_validation":0.3463338533541342,"bias":-1.255355794147934E-18},{"epoch":62,"weights":[[6.0444635933948,0.8192728896340586,-16.595456287386483,-14.455499033121717,0.12364658645420584,-0.22078664016400842,0.46607554988259886,-26.03337720652027,0.06301609490691425,-1.3430024483930523,-1.1964951392892496,0.7962762864595783,0.18495690148892543,-0.8073127899241872,-1.829898592838487,-0.7955883962111158,0.39186836810847997,2.335751336165867,-0.37398932204176266,5.572596465732327,0.10040696474073252,-1.1601221191248388],[-6.036141632155674,-0.8127762831571346,16.601515641866825,14.464481623931276,-0.11515625529242705,0.23629603594417783,-0.45093600866072886,26.04431553199078,-0.04657645596544318,1.3539076499799059,1.2013613629577664,-0.7865935884227434,-0.17646258661133468,0.8106131828207279,1.8331364741161054,0.8104754642493246,-0.3876082610048936,-2.323860425152967,0.3828564114952015,-5.56406499668732,-0.09151585036008603,1.1699653761126227]],"accuracy_validation":0.8377535101404057,"mse_training":0.31108144192256343,"accuracy_training":0.8444592790387183,"mse_validation":0.3244929797191888,"bias":-1.272665377631289E-18},{"epoch":61,"weights":[[5.348300974239495,0.8230128126531067,-16.486449131592256,-14.490762025177954,0.11764658645422123,-0.21791667410814797,0.4619455113191646,-25.91498677085512,0.06301609490691425,-1.3221314481718296,-1.8096253465011547,0.7862773252444044,0.17482790632962739,-0.7944417897029619,-1.8072855875553349,-0.7865883962111158,0.386738329593747,2.2956212976511514,0.12271312727817613,5.8488582628965675,-0.9849058938359783,-0.669776208574835],[-5.339979013000371,-0.8165162061761826,16.492508486072595,14.499744615987513,-0.10915625529244244,0.23342606988831738,-0.4468059700972946,25.925925096325628,-0.04657645596544318,1.3330366497586832,1.814491570169671,-0.7765946272075696,-0.16633359145203663,0.7977421825995026,1.8105234688329532,0.8014754642493246,-0.3824782224901606,-2.2837303866382515,-0.11384603782473729,-5.840326793851561,0.9937970082166239,0.6796194655626172]],"accuracy_validation":0.7753510140405616,"mse_training":0.4045393858477971,"accuracy_training":0.7977303070761015,"mse_validation":0.44929797191887677,"bias":-1.3680892282958557E-18},{"epoch":60,"weights":[[6.127187389029455,0.8195022050749874,-16.507108208061343,-14.750819829301316,0.11664658645422123,-0.21508687643420332,0.4599455085004345,-26.242006977277317,0.06401609208818408,-1.3083016504974794,-0.8040084861269421,0.7631071255370948,0.17065770400357202,-0.78861199202861,-1.794625994825377,-0.7765883990298459,0.37756812706770726,2.2496212948324263,-0.3675133286449865,5.024460082425583,-0.728466656438216,-0.43206380814109135],[-6.118865427790331,-0.8130055985980633,16.513167562541682,14.759802420110875,-0.10815625529244244,0.23059627221437273,-0.4448059672785645,26.252945302747825,-0.04757645314671302,1.319206852084333,0.8088747097954576,-0.75342442750026,-0.16216338912598127,0.7919123849251507,1.7978638761029955,0.7914754670680547,-0.3733080199641209,-2.2377303838195264,0.3763804180984253,-5.015928613380576,0.7373577708188616,0.44190706512887357]],"accuracy_validation":0.8377535101404057,"mse_training":0.32843791722296395,"accuracy_training":0.835781041388518,"mse_validation":0.3244929797191888,"bias":-1.4414983329407426E-18},{"epoch":59,"weights":[[6.53481626446584,0.8034582091813884,-16.580856138208937,-14.874143692900791,0.11364658645422122,-0.21208687643420332,0.44494550850334025,-26.224206771811996,0.06201609208818408,-1.2893016504945758,-1.1830084850924762,0.7510851275917483,0.1666357060553197,-0.7786119920257042,-1.773647992767818,-0.7675883990298459,0.3645461291223607,2.2155992968870835,-0.5450723427077162,4.874561006461722,-0.35386419129283697,-0.7125814255857578],[-6.526494303226715,-0.7969616027044644,16.586915492689275,14.88312628371035,-0.10515625529244244,0.22759627221437273,-0.42980596728147025,26.235145097282505,-0.04557645314671302,1.3002068520814294,1.1878747087609918,-0.7414024295549134,-0.15814139117772893,0.7819123849222449,1.7768858740454363,0.7824754670680547,-0.3602860220187743,-2.2037083858741835,0.553939432161155,-4.866029537416715,0.3627553056734826,0.72242468257354]],"accuracy_validation":0.8346333853354134,"mse_training":0.3190921228304406,"accuracy_training":0.8404539385847797,"mse_validation":0.33073322932917315,"bias":-1.2506787505221038E-18},{"epoch":58,"weights":[[5.523247877478778,0.7804578552104671,-16.243999903652803,-14.665043512832282,0.10964658645422122,-0.2060901519044852,0.43694447758277527,-25.924603476839277,0.06301609208818408,-1.2623059568310409,-1.049711737519742,0.744085127591703,0.1626324305850378,-0.7636162983621666,-1.744657636415738,-0.7515883990298459,0.3505460111320539,2.184594990550624,-0.6152376712496668,4.7136126857574885,-1.271824388825179,-0.3500826800289576],[-5.514925916239654,-0.773961248733543,16.250059258133142,14.674026103641841,-0.10115625529244243,0.22159954768465462,-0.42180493636090527,25.935541802309785,-0.04657645314671302,1.2732111584178945,1.0545779611882575,-0.7344024295548681,-0.15413811570744704,0.7669166912587073,1.7478955176933564,0.7664754670680547,-0.34628590402846754,-2.172704079537724,0.6241047607031056,-4.705081216712482,1.2807155032058246,0.3599259370167389]],"accuracy_validation":0.7925117004680188,"mse_training":0.40186915887850466,"accuracy_training":0.7990654205607477,"mse_validation":0.41497659906396256,"bias":-1.2422765513958644E-18},{"epoch":57,"weights":[[5.715288352400304,0.7524010901653192,-16.051154126237424,-14.490267926188283,0.10864658645422122,-0.2100901519044852,0.43294447758277527,-25.736306428193608,0.05901609208818408,-1.242324878512759,-1.3186466426555306,0.7330851275917044,0.15663243058503779,-0.7546352200438825,-1.721714401460885,-0.7375883990298459,0.34052708945033794,2.14159499055063,-0.7143029836871111,4.68948775914397,-0.14424168805623572,-0.29375450851493845],[-5.706966391161179,-0.7459044836883951,16.05721348071776,14.499250516997842,-0.10015625529244243,0.22559954768465462,-0.41780493636090527,25.747244753664116,-0.04257645314671302,1.2532300800996126,1.323512866324046,-0.7234024295548696,-0.14813811570744703,0.7579356129404232,1.7249522827385033,0.7524754670680547,-0.33626698234675156,-2.12970407953773,0.7231700731405499,-4.680956290098963,0.15313280243688043,0.3035977655027189]],"accuracy_validation":0.8330733229329174,"mse_training":0.30707610146862485,"accuracy_training":0.8464619492656876,"mse_validation":0.3338533541341654,"bias":-1.35318545089773E-18},{"epoch":56,"weights":[[5.223421768276712,0.7175393608139239,-15.948097736569618,-14.678741154151743,0.10764658645422122,-0.2120259022000498,0.42094447758277526,-25.890080873866655,0.05701609208739301,-1.22826070863413,-1.3679044190887877,0.7160851275917044,0.1526966802894732,-0.7505709703394471,-1.709521732174175,-0.7255784681369207,0.3255912593281778,2.1006049214427684,-1.1000882157891205,5.829299374975134,-0.5601021399546776,-0.6840430783941039],[-5.215099807037587,-0.7110427543369998,15.954157091049954,14.687723744961302,-0.09915625529244243,0.2275352979802192,-0.40580493636090526,25.901019199337163,-0.04057645314592195,1.2391659102209835,1.3727706427573032,-0.7064024295548695,-0.14420236541188244,0.7538713632359878,1.7127596134517933,0.7404655361751296,-0.3213311522245914,-2.0887140104298685,1.1089553052425594,-5.820767905930127,0.5689932543353223,0.6938863353818844]],"accuracy_validation":0.8034321372854915,"mse_training":0.3818424566088118,"accuracy_training":0.8090787716955942,"mse_validation":0.39313572542901715,"bias":-1.3370796988517473E-18},{"epoch":55,"weights":[[5.939421334916884,0.7025350403268179,-15.842121332683371,-14.789329852679135,0.10264658645422121,-0.21252807639605645,0.413605332642084,-25.873992577360212,0.05401609208804038,-1.2087629107359892,-0.35961361812041115,0.7032481847528701,0.14235756325463225,-0.7370731724406566,-1.6833630513095783,-0.7130806702387776,0.3190890851321711,2.055265804407932,-1.0584633426581458,5.775760684451844,-0.6669636745136581,-0.4124370590190316],[-5.931099373677758,-0.6960384338498938,15.848180687163707,14.798312443488694,-0.09415625529244243,0.22803747217622586,-0.398465791420214,25.88493090283072,-0.03757645314656932,1.2196681123228428,0.3644798417889267,-0.6935654867160352,-0.1338632483770415,0.7403735653371973,1.6866009325871967,0.7279677382769865,-0.3148289780285847,-2.043374893395032,1.067330432111585,-5.7672292154068385,0.6758547888943028,0.4222803160068116]],"accuracy_validation":0.8361934477379095,"mse_training":0.3364485981308411,"accuracy_training":0.8317757009345794,"mse_validation":0.32761310452418096,"bias":-1.3112237965239944E-18},{"epoch":54,"weights":[[4.953533500202165,0.6745902767530886,-15.734311108275126,-14.801340700769776,0.10064658645422121,-0.21155689758845433,0.403605332642084,-25.7761663175408,0.056016092088040384,-1.1907629120799699,-0.3815337293100295,0.6962481834088913,0.13732874206223436,-0.7260311436319219,-1.6633498450372202,-0.7040386400860641,0.3020602625957944,2.0152369818709603,-0.5792798795085936,4.741145171672408,-0.8823155868056619,-0.6944200030315656],[-4.945211538963039,-0.6680936702761645,15.740370462755461,14.810323291579335,-0.09215625529244242,0.22706629336862375,-0.388465791420214,25.787104643011308,-0.039576453146569324,1.2016681136668235,0.386399952978545,-0.6865654853720564,-0.1288344271846436,0.7293315365284626,1.6665877263148385,0.7189257081242729,-0.297800155492208,-2.0033460708580604,0.5881469689620329,-4.732613702627403,0.8912067011863066,0.7042632600193443]],"accuracy_validation":0.7831513260530422,"mse_training":0.4098798397863818,"accuracy_training":0.7950600801068091,"mse_validation":0.43369734789391573,"bias":-1.4709716772389241E-18},{"epoch":53,"weights":[[6.509902366230715,0.6482148121191346,-15.783845243561407,-14.922954128460015,0.09764658645422121,-0.2044373202400451,0.394605332642084,-25.786668295202624,0.05201609208804038,-1.1734351562762138,-1.536548660648307,0.68345636186424,0.13344831941064358,-0.716703387828164,-1.644574756081295,-0.6910386400860641,0.290268441051143,1.9692369818709652,-1.2637282881777265,5.430230984750838,-0.22192368895306436,-0.670412506391678],[-6.501580404991589,-0.6417182056422105,15.789904598041742,14.931936719269574,-0.08915625529244242,0.2199467160202145,-0.37946579142021397,25.797606620673132,-0.03557645314656932,1.1843403578630674,1.5414148843168225,-0.6737736638274051,-0.12495400453305283,0.7200037807247047,1.6478126373589135,0.7059257081242729,-0.28600833394755665,-1.9573460708580652,1.2725953776311663,-5.421699515705833,0.23081480333370996,0.6802557633794563]],"accuracy_validation":0.8346333853354134,"mse_training":0.315086782376502,"accuracy_training":0.842456608811749,"mse_validation":0.33073322932917315,"bias":-1.4709716772298526E-18},{"epoch":52,"weights":[[6.765852384297837,0.63851420546809,-15.612634185351407,-14.730164058106723,0.10064658645422121,-0.20575260261519276,0.38660533264208397,-25.375042662737656,0.05301609208804038,-1.1467505432880658,-1.2155723703608972,0.6672108074936088,0.12913303703549592,-0.6950187748400134,-1.60427525810951,-0.6731084727272819,0.2839530540531661,1.9299216994819495,-0.5830768497518479,5.401378629596034,-0.575522086965076,-0.9987317147454119],[-6.757530423058711,-0.6320175989911659,15.618693539831742,14.739146648916282,-0.09215625529244242,0.22126199839536217,-0.37146579142021396,25.385980988208164,-0.03657645314656932,1.1576557448749194,1.2204385940294127,-0.657528109456774,-0.12063872215790519,0.6983191677365541,1.6075131393871285,0.6879955407654907,-0.27969294694957975,-1.9180307884690495,0.5919439392052877,-5.392847160551029,0.5844132013457207,1.0085749717331898]],"accuracy_validation":0.8330733229329174,"mse_training":0.32843791722296395,"accuracy_training":0.835781041388518,"mse_validation":0.3338533541341654,"bias":-1.4260194016498797E-18},{"epoch":51,"weights":[[4.998383025177354,0.6155181304097055,-15.517508809843918,-14.549429610316981,0.09864658645422121,-0.20475258868915475,0.38360533264208396,-25.044651561179947,0.05301609208804038,-1.1217466322623648,-0.03572870252846533,0.6532147045730217,0.12413305096153393,-0.6800148638143092,-1.5672674221320646,-0.6571084727272819,0.2719569650687436,1.8909216994718272,-0.49317411344357,5.144769337152698,-0.8333000510713785,0.5445755015753698],[-4.990061063938228,-0.6090215239327814,15.523568164324253,14.55841220112654,-0.09015625529244242,0.22026198446932416,-0.36846579142021396,25.055589886650456,-0.03657645314656932,1.1326518338492184,0.040594926196979964,-0.6435320065361868,-0.11563873608394322,0.6833152567108499,1.570505303409683,0.6719955407654907,-0.26769685796515724,-1.8790307884589272,0.5020412028970106,-5.136237868107693,0.8421911654520241,-0.534732244587592]],"accuracy_validation":0.8268330733229329,"mse_training":0.35246995994659547,"accuracy_training":0.8237650200267023,"mse_validation":0.3463338533541342,"bias":-1.1967386515227743E-18},{"epoch":50,"weights":[[5.669383022241631,0.5885181304097624,-15.377508809910415,-14.664421050514823,0.09664658645422121,-0.205752588689125,0.37560533264208396,-24.754651561427387,0.05101609208804038,-1.1037466322648435,-1.2587287061968637,0.6432147045705181,0.11713305095906013,-0.6730148638167858,-1.5472674221394926,-0.6411084727272819,0.25795696506877336,1.8549216994718605,-0.09717411465969067,6.100769336209101,-0.9063000561460696,-0.12842450238150538],[-5.6610610610025045,-0.5820215239328383,15.38356816439075,14.673403641324382,-0.08815625529244242,0.2212619844692944,-0.36046579142021395,24.765589886897896,-0.03457645314656932,1.114651833851697,1.2635949298653792,-0.6335320065336832,-0.10863873608146939,0.6763152567133265,1.550505303417111,0.6559955407654907,-0.253696857965187,-1.8430307884589605,0.10604120411313128,-6.092237867164096,0.9151911705267152,0.13826775936928448]],"accuracy_validation":0.8377535101404057,"mse_training":0.3204272363150868,"accuracy_training":0.8397863818424566,"mse_validation":0.3244929797191888,"bias":-1.0683919393145244E-18},{"epoch":49,"weights":[[6.010973993148953,0.5559069054353123,-15.303427102686049,-14.769525756946082,0.0916465864542212,-0.20305818175927962,0.36960533264208395,-24.665210551339996,0.04901609208804038,-1.0830522287061408,-0.1889293039060674,0.6279090954626946,0.1108274578889055,-0.659320460258081,-1.5171842080903635,-0.6251084727291564,0.24565137161329922,1.8176160582698093,0.019147252139561755,5.068475591851608,-0.9524466505715119,-0.31956974959200957],[-6.002652031909825,-0.5494102989583882,15.309486457166384,14.778508347755642,-0.08315625529244242,0.21856757753944903,-0.35446579142021395,24.676148876810505,-0.03257645314656932,1.0939574302929944,0.19379552757458293,-0.6182263974258597,-0.10233314301131476,0.6626208531546217,1.5204220893679818,0.6399955407673652,-0.2413912645097128,-1.8057251472569094,-0.010280162686121141,-5.059944122806603,0.9613377649521573,0.3294130065797891]],"accuracy_validation":0.828393135725429,"mse_training":0.3404539385847797,"accuracy_training":0.8297730307076101,"mse_validation":0.34321372854914195,"bias":-9.572294855443524E-19},{"epoch":48,"weights":[[5.738701088537397,0.5372345022204383,-15.23616834440373,-14.979200350427417,0.08664658645422209,-0.20289438337617294,0.36460533264208395,-24.760468696355975,0.04501609208804958,-1.0608884303167403,-0.2871386061844984,0.6180728938457929,0.09999125627201301,-0.6471566618686698,-1.4946928129284416,-0.6161084727228527,0.23881517000271046,1.7676160582761267,0.42783870414273684,5.763235270875266,-1.0669776967087743,-1.1065310353931594],[-5.730379127298269,-0.5307378957435143,15.242227698884065,14.988182941236976,-0.0781562552924433,0.21840377915634235,-0.34946579142021394,24.771407021826484,-0.028576453146578525,1.071793631903594,0.2920048298530139,-0.608390195808958,-0.09149694139442227,0.6504570547652105,1.49793069420606,0.6309955407610616,-0.23455506289912403,-1.7557251472632267,-0.4189716146892962,-5.754703801830261,1.0758688110894208,1.1163742923809399]],"accuracy_validation":0.8143525741029641,"mse_training":0.36181575433911883,"accuracy_training":0.8190921228304406,"mse_validation":0.3712948517940718,"bias":-8.146923248429019E-19},{"epoch":47,"weights":[[5.853564872984633,0.5282344630815906,-15.135174461112138,-15.13888031871059,0.08064658645422208,-0.20189454639770288,0.3536053195969983,-24.8604861725662,0.04301609208804958,-1.0388886063833582,-1.852143578606489,0.6090728807989089,0.08899109325048878,-0.6351568379352854,-1.4756931650634706,-0.6081086357425787,0.23181515695582655,1.7276158822095156,-0.5322207673128225,5.0741872104541175,-0.5772400650818886,-0.2908155421618006],[-5.845242911745503,-0.5217378566046665,15.141233815592473,15.14786290952015,-0.0721562552924433,0.2174039421778723,-0.3384657783751283,24.87142449803671,-0.026576453146578524,1.0497938079702118,1.8570098022750055,-0.599390182762074,-0.08049677837289804,0.6384572308318262,1.478931046341089,0.6229957037807875,-0.22755504985224012,-1.7157249711966156,0.5410878567662631,-5.065655741409114,0.5861311794625342,0.3006587991495806]],"accuracy_validation":0.8268330733229329,"mse_training":0.3257676902536716,"accuracy_training":0.8371161548731643,"mse_validation":0.3463338533541342,"bias":-6.67221041240136E-19},{"epoch":46,"weights":[[5.237312058958706,0.5134164705294715,-15.012324081647902,-15.299407844377457,0.07564658645424994,-0.20083387724841836,0.3456053195969983,-24.844520280706327,0.03901609208804958,-1.016838039541208,-0.34487246542882005,0.5950829831060738,0.08205176239980115,-0.6261062713082881,-1.4505819292871613,-0.5970479663781392,0.22487582610513893,1.6856259847318074,-1.1416291935320302,5.682634115241975,0.5314193181319529,-0.9661977310156014],[-5.228990097719574,-0.5069198640525474,15.018383436128238,15.308390435187016,-0.06715625529247116,0.21634327302858777,-0.3304657783751283,24.855458606176835,-0.02257645314657852,1.0277432411280616,0.34973868909733646,-0.5854002850692389,-0.07355744752221041,0.6294066642048288,1.4538198105647797,0.611935034416348,-0.2206157190015525,-1.6737350737189074,1.1504962829854708,-5.674102646196972,-0.5225282037513073,0.9760409880033818]],"accuracy_validation":0.8315132605304212,"mse_training":0.3431241655540721,"accuracy_training":0.828437917222964,"mse_validation":0.3369734789391576,"bias":-6.437166232413659E-19},{"epoch":45,"weights":[[5.7593120589832,0.48341647052951836,-14.90432408164678,-15.363220804375855,0.07564658645424994,-0.2048338772483948,0.3386053195969983,-25.064520280704023,0.03901609208804958,-0.9988380395412099,-0.7328724654288192,0.5760829831060736,0.07105176239982455,-0.6171062713082881,-1.4295819292871383,-0.5880479663781156,0.21187582610516234,1.6436259847318118,-1.0786291935233034,6.290634115249609,-0.1685806818389196,-0.9971977310035632],[-5.750990097744069,-0.4769198640525943,14.910383436127116,15.372203395185414,-0.06715625529247116,0.2203432730285642,-0.3234657783751283,25.075458606174532,-0.02257645314657852,1.0097432411280636,0.7377386890973356,-0.5664002850692388,-0.06255744752223381,0.6204066642048288,1.4328198105647567,0.6029350344163245,-0.2076157190015759,-1.6317350737189118,1.0874962829767436,-6.2821026462046055,0.17747179621956521,1.0070409879913438]],"accuracy_validation":0.8361934477379095,"mse_training":0.3177570093457944,"accuracy_training":0.8411214953271028,"mse_validation":0.32761310452418096,"bias":-6.95783796168841E-19},{"epoch":44,"weights":[[5.488238792390696,0.4614163377961587,-14.72832613910043,-15.089133889059783,0.06764658645424994,-0.19483387727725274,0.3336053195969983,-24.594526253993816,0.038016092088049576,-0.9748381058790317,-1.6188850032771616,0.5610829167682517,0.07105176237096664,-0.60510633764611,-1.4015820619916406,-0.5760480327159375,0.20087575973848248,1.6036259847318162,-1.0946451255665748,7.297619507682994,0.15034565466714278,-1.5562700738878124],[-5.479916831151565,-0.45491973131923463,14.734385493580765,15.098116479869342,-0.05915625529247115,0.21034327305742215,-0.3184657783751283,24.605464579464325,-0.02157645314657852,0.9857433074658865,1.623751226945678,-0.5514002187314169,-0.0625574474933759,0.6084067305426507,1.404819943269259,0.5909351007541463,-0.19661565263489605,-1.5917350737189162,1.1035122150200136,-7.289088038637991,-0.14145454028649718,1.5661133308755928]],"accuracy_validation":0.8237129485179407,"mse_training":0.32309746328437916,"accuracy_training":0.8384512683578104,"mse_validation":0.35257410296411856,"bias":-6.037581436956129E-19},{"epoch":43,"weights":[[5.810081414930318,0.44760971679677086,-14.51844405976134,-14.883173117421348,0.06564658645424994,-0.1958352633264113,0.32860531992113334,-24.21750579054142,0.03701609208804957,-0.94776199506098,-0.967705066877909,0.5391631193694516,0.07005037599767291,-0.5890301263086558,-1.366316267210091,-0.5620520261610211,0.1919890341553298,1.5676245986826614,-1.1047458313747618,5.808801284709252,-0.36802606586843434,-0.7030714653051894],[-5.801759453691185,-0.4411131103198468,14.524503414241675,14.892155708230908,-0.05715625529247115,0.2113446591065807,-0.31346577869926334,24.22844411601193,-0.02057645314657851,0.9586671966478347,0.9725712905464254,-0.5294804213326167,-0.061556061120082176,0.5923305192051965,1.3695541484877094,0.57693909419923,-0.18772892705174338,-1.5557336876697614,1.1136129208282015,-5.80026981566425,0.37691718024907994,0.712914722292968]],"accuracy_validation":0.8377535101404057,"mse_training":0.3164218958611482,"accuracy_training":0.8417890520694259,"mse_validation":0.3244929797191888,"bias":-2.569746628641922E-19},{"epoch":42,"weights":[[6.304959177208102,0.4381103630078253,-14.38143501280659,-14.940662890717862,0.06364658645424993,-0.1938352633264113,0.31743886865815146,-24.00415091683963,0.033016092088049565,-0.92976199506098,-1.2287050668779105,0.5279966681064697,0.06788392473469106,-0.5820301263086558,-1.3524827184730728,-0.5550520261610211,0.18382258289234796,1.524624598682666,-0.8160102355289554,5.103562728997232,-0.847780505667746,-1.7763870239656128],[-6.2966372159689685,-0.4316137565309012,14.387494367286925,14.949645481527421,-0.055156255292471146,0.2093446591065807,-0.30229932743628146,24.01508924231014,-0.016576453146578508,0.9406671966478347,1.2335712905464264,-0.5183139700696349,-0.059389609857100324,0.5853305192051965,1.3557205997506911,0.56993909419923,-0.17956247578876153,-1.5127336876697661,0.8248773249823951,-5.09503125995223,0.8566716200483908,1.7862302809533914]],"accuracy_validation":0.7691107644305772,"mse_training":0.4325767690253672,"accuracy_training":0.7837116154873164,"mse_validation":0.46177847113884557,"bias":-2.0146351162524768E-19},{"epoch":41,"weights":[[5.7299590080618135,0.4321103621564172,-14.346435020469414,-14.93281787755859,0.06464658617046191,-0.19383526332642603,0.31443886865815146,-23.934150942381923,0.03501609180426155,-0.90576199506098,-0.8877052033800188,0.5079966681064697,0.0638839244508883,-0.5660301265924438,-1.3224827193244515,-0.5360520261610211,0.1778225826085452,1.481624598398868,-1.3610103271958094,5.088562672518245,-0.13178099208376348,-1.3273874099218164],[-5.72163704682268,-0.4256137556794931,14.35249437494975,14.941800468368148,-0.05615625500868313,0.20934465910659544,-0.29929932743628146,23.94508926785243,-0.018576452862790496,0.9166671966478347,0.8925714270485343,-0.49831397006963485,-0.05538960957329759,0.5693305194889845,1.3257206006020699,0.5509390941992299,-0.17356247550495876,-1.469733687385968,1.3698774166492491,-5.0800312034732436,0.14067210646440687,1.337230666909595]],"accuracy_validation":0.828393135725429,"mse_training":0.3404539385847797,"accuracy_training":0.8297730307076101,"mse_validation":0.34321372854914195,"bias":-4.533730284566638E-19},{"epoch":40,"weights":[[5.751998351727362,0.4210973908448092,-14.32459154985013,-15.170721488815472,0.06264658617046191,-0.19383540676224315,0.31143886865815146,-23.934587797185582,0.03401609180426155,-0.8877663558664954,-1.118220802988694,0.4919924442947242,0.05488378101507121,-0.5570344873979592,-1.3004915843713,-0.5270563869665366,0.17281821536098257,1.4466244419583176,-0.8797211912479581,5.609054117665169,-0.7377850098153312,-1.0152354787834414],[-5.743676390488231,-0.4146007843678851,14.330650904330465,15.179704079625031,-0.05415625500868313,0.20934480254241256,-0.29629932743628146,23.94552612265609,-0.017576452862790495,0.8986715574533501,1.1230870266572095,-0.4823097462578893,-0.04638946613748048,0.5603348802945,1.3037294656489185,0.5419434550047454,-0.16855810825739614,-1.4347335309454177,0.8885882807013978,-5.600522648620167,0.7466761241959742,1.02507873577122]],"accuracy_validation":0.8190327613104524,"mse_training":0.35113484646194926,"accuracy_training":0.8244325767690254,"mse_validation":0.3619344773790952,"bias":-5.821129025611141E-19},{"epoch":39,"weights":[[4.931348616149081,0.4161396221759136,-14.05207450167268,-15.29495145730676,0.05864658617046191,-0.19082132966690288,0.30143886865815145,-23.933180087200757,0.03101609180426155,-0.8627665796597539,0.5224710336945908,0.4779924442947242,0.046897858110411486,-0.5450347111912177,-1.274477954862477,-0.5170420860328546,0.16883229245632284,1.4046244419132388,-0.4949504018880826,6.177657971390256,-1.0049613544167313,-0.040500971438572675],[-4.9230266549099495,-0.40964301569898953,14.058133856153015,15.30393404811632,-0.05015625500868313,0.2063307254470723,-0.28629932743628145,23.944118412671266,-0.014576452862790492,0.8736717812466086,-0.5176048100260753,-0.4683097462578893,-0.03840354323282076,0.5483351040877584,1.2777158361400953,0.5319291540710634,-0.1645721853527364,-1.3927335309003388,0.5038174913415212,-6.169126502345255,1.0138524687973738,0.05034422842635178]],"accuracy_validation":0.8252730109204368,"mse_training":0.35246995994659547,"accuracy_training":0.8237650200267023,"mse_validation":0.3494539781591264,"bias":-6.7992649714010815E-19},{"epoch":38,"weights":[[6.258450963033619,0.3967556178089855,-13.793825552672024,-15.408818331998054,0.055646586170461906,-0.18497268118848198,0.29043886865815144,-23.878315239358972,0.02901609180426155,-0.8448428049495064,-0.5665820393368468,0.46292190690583473,0.04474650658882966,-0.5371109364809702,-1.2577817569635639,-0.5040420860328546,0.16268094093474372,1.359624441913241,-0.7331911546289849,5.314779128208056,-1.1364265942683245,-0.3707439179412294],[-6.2501290017944875,-0.3902590113320614,13.799884907152359,15.417800922807613,-0.047156255008683125,0.2004820769686514,-0.27529932743628144,23.88925356482948,-0.01257645286279049,0.8557480065363611,0.5714482630053623,-0.4532392088689998,-0.03625219171123893,0.5404113293775109,1.2610196382411822,0.5189291540710634,-0.1584208338311573,-1.347733530900341,0.7420582440824237,-5.306247659163055,1.1453177086489674,0.38058717492900984]],"accuracy_validation":0.8299531981279251,"mse_training":0.3484646194926569,"accuracy_training":0.8257676902536716,"mse_validation":0.34009360374414976,"bias":-4.2693694922788962E-19},{"epoch":37,"weights":[[6.0578713526546135,0.37129939146466484,-13.614660557693032,-15.34821024612788,0.05864658617046191,-0.18420055066427957,0.28143886865815143,-23.551104432021983,0.02801609180426155,-0.8208425569891505,-0.9315182915635654,0.4439219090378552,0.042518637113127894,-0.5251106885206144,-1.230009374215061,-0.4900420860328546,0.1524528277625355,1.3203965724374476,-0.6843357545309666,5.846401785304803,-0.33827464676800145,-0.7856395663209496],[-6.049549391415482,-0.36480278498774077,13.620719912173367,15.35719283693744,-0.05015625500868313,0.19970994644444898,-0.26629932743628143,23.56204275749249,-0.01157645286279049,0.8317477585760052,0.9363845152320809,-0.4342392110010203,-0.03402432223553717,0.5284110814171551,1.2332472554926794,0.5049291540710634,-0.14819272065894906,-1.3085056614245476,0.6932028439844055,-5.837870316259801,0.34716576114864484,0.7954828233087304]],"accuracy_validation":0.8346333853354134,"mse_training":0.3311081441922563,"accuracy_training":0.8344459279038718,"mse_validation":0.33073322932917315,"bias":-3.541718553785732E-19},{"epoch":36,"weights":[[6.00687289164282,0.34529939806479104,-13.551660482198027,-15.441318943836045,0.05664658832959549,-0.18320054853355514,0.27143886865818556,-23.441104218936143,0.02901609180426155,-0.8028425548573895,-0.1145172112517962,0.43092190918895573,0.036518639243852284,-0.5101106863888534,-1.2020093678207802,-0.47604208405219417,0.14745282989329409,1.2813965722579763,-0.9063353683744666,5.56140244468878,-1.4862707906662211,0.44836440647698084],[-5.998550930403688,-0.338802791587867,13.557719836678363,15.450301534645604,-0.048156257167816706,0.19870994431372455,-0.25629932743631556,23.452042544406652,-0.01257645286279049,0.8137477564442442,0.11938343492031173,-0.4212392111521208,-0.02802432436626157,0.5134110792853941,1.2052472490983985,0.490929152090403,-0.14319272278970765,-1.2695056612450764,0.9152024578279059,-5.552870975643779,1.4951619050468632,-0.4385211494892004]],"accuracy_validation":0.828393135725429,"mse_training":0.3538050734312417,"accuracy_training":0.8230974632843792,"mse_validation":0.34321372854914195,"bias":-4.612750123432541E-19},{"epoch":35,"weights":[[5.328964094467722,0.32729956216696815,-13.334657011616889,-15.312396569621184,0.0476465876026393,-0.17620044370222693,0.26343886865818555,-23.12109462901225,0.02901609180426155,-0.7808425555845018,-0.08151756101713711,0.4229219091889557,0.029518743348224304,-0.4931106871159656,-1.1650092651706354,-0.46204208405235025,0.1414529119444631,1.2453965935842346,-0.8672981566116729,4.114452088320198,-0.2601231663621255,-0.2295381898153417],[-5.32064213322859,-0.32080295569004413,13.340716366097224,15.321379160430743,-0.039156256440860515,0.19170983948239634,-0.24829932743631558,23.13203295448276,-0.01257645286279049,0.7917477571713565,0.08638378468565264,-0.4132392111521208,-0.021024428470633596,0.49641108001250633,1.1682471464482538,0.4769291520905591,-0.13719280484087668,-1.2335056825713346,0.8761652460651128,-4.105920619275197,0.26901428074276845,0.239381446803123]],"accuracy_validation":0.828393135725429,"mse_training":0.3417890520694259,"accuracy_training":0.829105473965287,"mse_validation":0.34321372854914195,"bias":-9.930210564125458E-20},{"epoch":34,"weights":[[5.056648399629547,0.2972694143354227,-13.172705141132404,-15.287543787272813,0.04364658760263929,-0.17154382003479068,0.2524388991439809,-22.961998575526493,0.029672723133906696,-0.7628425250987064,-0.16369517926996252,0.4129219091889557,0.024175367016089532,-0.4814540253005251,-1.1396959492015348,-0.45004204957682253,0.12710953561189933,1.1983965935846688,-0.5181449118939658,3.8544572458865227,-0.8639589123791841,0.6094275759154747],[-5.048326438390414,-0.2907728078584987,13.17876449561274,15.296526378082373,-0.03515625644086051,0.1870532158149601,-0.23729935792211093,22.972936900997002,-0.013233084192435633,0.7737477266855611,0.1685614029384785,-0.4032392111521208,-0.015681052138498817,0.48475441819706583,1.1429338304791532,0.46492911761503136,-0.12284942850831292,-1.1865056825717688,0.5270120013474056,-3.845925776841521,0.872850026759827,-0.5995843189276943]],"accuracy_validation":0.8252730109204368,"mse_training":0.3604806408544726,"accuracy_training":0.8197596795727636,"mse_validation":0.3494539781591264,"bias":-9.7081808561231E-20},{"epoch":33,"weights":[[5.732175321206716,0.2902694137951586,-12.925571842412124,-15.319165654826842,0.044646587602639294,-0.17434945674451455,0.24343889914398087,-22.78868089494164,0.029672723133906696,-0.7446481618084407,-1.615508175210995,0.3999219091891746,0.01836973030636569,-0.4702596620102596,-1.1151128593342678,-0.43804204984716844,0.12310953534176208,1.159396593314327,0.4424311902412078,4.8842423954359715,-0.38702852405122334,-0.4044576806071549],[-5.723853359967583,-0.28377280731823457,12.931631196892459,15.3281482456364,-0.03615625644086051,0.18985885252468396,-0.22829935792211092,22.799619220412147,-0.013233084192435633,0.7555533633952954,1.6203743988795105,-0.39023921115233967,-0.00987541542877498,0.4735600549068003,1.1183507406118862,0.45292911788537726,-0.11884942823817565,-1.1475056823014271,-0.4335641007877681,-4.87571092639097,0.3959196384318663,0.41430093759493447]],"accuracy_validation":0.8361934477379095,"mse_training":0.3097463284379172,"accuracy_training":0.8451268357810414,"mse_validation":0.32761310452418096,"bias":-1.1080614994341468E-19},{"epoch":32,"weights":[[5.83329727268922,0.26423378277665666,-12.90222236802394,-15.433728361146729,0.04064658760263929,-0.1753704962304283,0.2384388991429368,-22.96107667011006,0.029672723133906696,-0.7306692008847728,-0.9736133875184174,0.3829219091880839,0.01134869082045227,-0.4652807010865918,-1.0971905685043706,-0.4280776803957101,0.11707390432432438,1.1093965929037137,-0.7297176323548455,4.9776774121552645,-0.6089790273606833,-1.3023445181554876],[-5.824975311450086,-0.25773717629973264,12.908281722504276,15.442710951956288,-0.03215625644086051,0.1908798920105977,-0.22329935792106687,22.97201499558057,-0.013233084192435633,0.7415744024716275,0.9784796111869329,-0.373239211151249,-0.002854375942861558,0.4685810939831325,1.100428449781989,0.4429647484339189,-0.11281379722073794,-1.0975056818908138,0.7385847218082853,-4.969145943110263,0.6178701417413263,1.3121877751432671]],"accuracy_validation":0.8127925117004681,"mse_training":0.3604806408544726,"accuracy_training":0.8197596795727636,"mse_validation":0.374414976599064,"bias":4.045588207403388E-20},{"epoch":31,"weights":[[4.977114240801124,0.25523082385970386,-12.768244115404848,-15.691531827202505,0.04064658760263929,-0.17137142816674364,0.2254388991429021,-22.93117838093976,0.028672723133906695,-0.7106683491653406,0.6685137664313583,0.3689219091880839,0.009347758884135266,-0.45528009269198194,-1.073190892046146,-0.42007707200109856,0.11007297238797618,1.06939744462315,-0.3009499845792762,5.027440374397398,-0.6437479228497279,-0.1635392486867544],[-4.968792279561991,-0.24873421738277987,12.774303469885183,15.700514418012064,-0.03215625644086051,0.18688082394691305,-0.21029935792103216,22.942116706410268,-0.012233084192435632,0.7215735507521953,-0.6636475427628428,-0.35923921115124896,-8.53444006544548E-4,0.45858048558852266,1.0764287733237643,0.4349641400393074,-0.10581286528438974,-1.05750653361025,0.3098170740327168,-5.018908905352396,0.6526390372303709,0.1733825056745355]],"accuracy_validation":0.8190327613104524,"mse_training":0.35647530040053405,"accuracy_training":0.821762349799733,"mse_validation":0.3619344773790952,"bias":3.447590997824325E-19},{"epoch":30,"weights":[[5.227305546298242,0.25423074388585587,-12.664231686095789,-15.753901128298544,0.04064658760348141,-0.17614521902416402,0.2154388991429021,-22.840819557438095,0.029672723133906696,-0.6864421134960424,-1.0354633758114875,0.35392188253527035,0.0015739680275569552,-0.4400538570226838,-1.0445122113989578,-0.4080770987132871,0.11107294575714644,1.0273974179321077,0.169226340265267,5.492189309774101,-0.38700893564333383,-0.141300762496947],[-5.218983585059108,-0.2477341374089319,12.670291040576124,15.76288371910811,-0.03215625644170263,0.19165461480433343,-0.20029935792103215,22.851757882908604,-0.013233084192435633,0.6973473150828972,1.040329599480003,-0.34423918449843544,0.006920346850033764,0.4433542499192245,1.0477500926765762,0.42296416675149595,-0.10681283865355999,-1.0155065069192077,-0.1603592508118264,-5.4836578407291,0.39590005002397677,0.15114401948472833]],"accuracy_validation":0.8330733229329174,"mse_training":0.32977303070761016,"accuracy_training":0.835113484646195,"mse_validation":0.3338533541341654,"bias":4.0884873240192653E-19},{"epoch":29,"weights":[[5.634805753439533,0.24534312080059126,-12.517250531161299,-15.82480119574039,0.04164658760348141,-0.18303178886621901,0.2134388991429021,-22.710611656377704,0.029672723133906696,-0.6654417763217011,-0.9872159502188367,0.34492188253527034,-0.011312601814498044,-0.4270535288833997,-1.0203981249624445,-0.3970767615389458,0.10718532267188181,0.9835105109157142,-0.3699076542958348,4.264620941602963,-0.630890298027783,-0.7261732886702937],[-5.6264837922004,-0.23884651432366727,12.523309885641634,15.833783786549963,-0.03315625644170263,0.19854118464638842,-0.19829935792103215,22.721549981848213,-0.013233084192435633,0.6763469779085558,0.9920821738873522,-0.3352391844984354,0.01980691669208877,0.4303539217799404,1.023636006240063,0.4119638295771546,-0.10292521556829537,-0.9716195999028132,0.3787747437492755,-4.256089472557963,0.6397814124084259,0.7360165456580746]],"accuracy_validation":0.8299531981279251,"mse_training":0.3311081441922563,"accuracy_training":0.8344459279038718,"mse_validation":0.34009360374414976,"bias":3.6884037449670804E-19},{"epoch":28,"weights":[[4.913483306349606,0.2180872521215946,-12.46522932424815,-15.929384972014635,0.04164658760348141,-0.18003178881856158,0.2061830336195865,-22.596198312310086,0.029672723133906696,-0.6466976429286819,0.019608394930207607,0.32592188145160494,-0.014568467290156206,-0.41230939549038065,-0.9909098581287489,-0.3840767626226111,0.09692945611255836,0.949254645440056,0.11395467208866733,4.5564642942269336,-0.7021854546739427,0.29041205558804084],[-4.905161345110475,-0.21159064564467062,12.471288678728484,15.938367562824206,-0.03315625644170263,0.195541184598731,-0.19104349239771656,22.607136637780595,-0.013233084192435633,0.6576028445155366,-0.014742171261692083,-0.31623918341477003,0.02306278216774693,0.41560978838692136,0.9941477394063674,0.3989638306608199,-0.09266934900897192,-0.937363734427155,-0.10508758263522627,-4.547932825181934,0.7110765690545843,-0.2805687986002591]],"accuracy_validation":0.8237129485179407,"mse_training":0.35514018691588783,"accuracy_training":0.822429906542056,"mse_validation":0.35257410296411856,"bias":1.8351233717487057E-19},{"epoch":27,"weights":[[5.631488377996064,0.20308728422061362,-12.350228313129113,-15.937688141523676,0.037646587603481406,-0.1780317888185594,0.1981830336195865,-22.46619670735917,0.0296727231339067,-0.6246976429286819,-0.8723916050697919,0.3079218975011123,-0.021568451240646668,-0.40030939549038064,-0.9689098420792394,-0.3760767626226111,0.08792947216206787,0.9162546614895634,-0.8610358105524403,4.491471356011075,-1.1241768360864477,0.49242243962108834],[-5.623166416756932,-0.19659067774368963,12.356287667609449,15.94667073233325,-0.029156256441702624,0.19354118459872882,-0.18304349239771656,22.47713503282968,-0.013233084192435633,0.6356028445155366,0.8772578287383074,-0.2982391994642774,0.030062766118237393,0.40360978838692135,0.9721477233568578,0.3909638306608199,-0.08366936505848142,-0.9043637504766624,0.8699029000058818,-4.482939886966075,1.1330679504670893,-0.48257918263330457]],"accuracy_validation":0.8268330733229329,"mse_training":0.3364485981308411,"accuracy_training":0.8317757009345794,"mse_validation":0.3463338533541342,"bias":3.300838684776333E-19},{"epoch":26,"weights":[[6.395978496113232,0.20109246037097317,-12.199145624983208,-15.755360819505565,0.036646587603481405,-0.17902920436170577,0.1941830336196119,-22.285938261674104,0.029672723133902783,-0.5976950512351251,-0.525976934059381,0.2919218902644132,-0.026565866783793045,-0.3833068037968279,-0.9349046659288115,-0.3630767626225857,0.08693205661889611,0.8732572531831201,-1.411400974929213,3.7680884342821317,-0.8839453893676722,-0.7164307340054573],[-6.3876565348741,-0.19459585389404918,12.205204979463543,15.764343410315139,-0.028156256441702623,0.19453860014187518,-0.17904349239774195,22.296876587144613,-0.013233084192431716,0.6086002528219798,0.5308431577278965,-0.28223919222757826,0.03506018166138378,0.3866071966933686,0.93814254720643,0.37796383066079453,-0.08267194951530966,-0.8613663421702191,1.4202680643826544,-3.759556965237132,0.8928365037483142,0.7262739909932413]],"accuracy_validation":0.8252730109204368,"mse_training":0.3391188251001335,"accuracy_training":0.8304405874499332,"mse_validation":0.3494539781591264,"bias":3.363764220219818E-19},{"epoch":25,"weights":[[5.689028433634061,0.18407542442349442,-12.00346242392711,-15.56840010361691,0.035646587603481404,-0.17703389980101084,0.1861830336196119,-22.04677293324533,0.02767272313390278,-0.5796991733587499,-1.5443663450023075,0.2799177680392623,-0.03057056222309814,-0.3753156212582338,-0.9159311314474275,-0.3580767496912373,0.08292323905596619,0.840252557743813,0.1879141941919656,6.133244180273519,-0.1888598876174431,-1.011988747818604],[-5.680706472394929,-0.17757881794657043,12.009521778407445,15.577382694426483,-0.027156256441702623,0.19254329558118025,-0.17104349239774194,22.057711258715837,-0.011233084192431714,0.5906043749456046,1.549232568670823,-0.2702350700024274,0.03906487710068887,0.3786160141547745,0.919169012725046,0.37296381772944615,-0.07866313195237974,-0.8283616467309121,-0.1790471047385241,-6.124712711228519,0.19775100199808515,1.021832004806388]],"accuracy_validation":0.8424336973478939,"mse_training":0.3137516688918558,"accuracy_training":0.8431241655540721,"mse_validation":0.31513260530421217,"bias":5.250647682017866E-19},{"epoch":24,"weights":[[4.4440295292831,0.16607542442821405,-11.923462338756107,-15.768816561825352,0.037646587603481406,-0.1750338972974157,0.17518303361961188,-22.326772682728535,0.02767272313390278,-0.5626991733571766,0.09763365713095934,0.2619177680408355,-0.037570559719503,-0.3653156212566606,-0.8979311289391126,-0.3450767496912373,0.07692323905753938,0.7962525602489815,-0.6460851542943457,6.410245207381553,-0.40485835987062424,-0.09998689453991538],[-4.435707568043968,-0.15957881795129006,11.929521693236442,15.777799152634925,-0.029156256441702624,0.1905432930775851,-0.16004349239774193,22.337711008199044,-0.011233084192431714,0.5736043749440313,-0.09276743346244393,-0.2522350700040006,0.046064874597093734,0.36861601415320133,0.9011690102167311,0.35996381772944613,-0.07266313195395294,-0.7843616492360805,0.6549522437477872,-6.401713738336553,0.4137494742512663,0.10983015152769937]],"accuracy_validation":0.8252730109204368,"mse_training":0.3364485981308411,"accuracy_training":0.8317757009345794,"mse_validation":0.3494539781591264,"bias":3.031227633208158E-19},{"epoch":23,"weights":[[5.001067088582622,0.14707545021265528,-11.835461010327855,-15.96167981741719,0.036646587603481405,-0.1630338972974157,0.16418304034534217,-22.346769431711426,0.02667272313390278,-0.549699140847005,0.4276387242289487,0.24591780055100704,-0.032570527209331596,-0.35931558874648906,-0.8829310639187696,-0.3350767496912373,0.07092326484198062,0.7552525602489814,-1.0160728509092884,5.670262940098913,-1.0438021405838125,0.26705075856340044],[-4.992745127343492,-0.1405788437357313,11.84152036480819,15.970662408226762,-0.028156256441702623,0.1785432930775851,-0.14904349912347223,22.357707757181934,-0.010233084192431713,0.5606043424338597,-0.4227725005604332,-0.23623510251417212,0.04106484208692232,0.36261598164302977,0.8861689451963881,0.3499638177294461,-0.06666315773839418,-0.7433616492360804,1.02493994036273,-5.661731471053913,1.0526932549644545,-0.25720750157561556]],"accuracy_validation":0.8221528861154446,"mse_training":0.35514018691588783,"accuracy_training":0.822429906542056,"mse_validation":0.35569422776911075,"bias":1.2356826560040855E-19},{"epoch":22,"weights":[[4.943067099908814,0.13207545028088527,-11.776461009463612,-16.208567095611826,0.037646587603481406,-0.16203389727467235,0.15518304034534217,-22.52676942966457,0.02767272313390278,-0.5316991408242617,0.19863873162049456,0.22791780055100702,-0.03857052718658827,-0.34931558872374585,-0.8639310638732831,-0.3230767496912373,0.05992326486472395,0.7102525602717247,-1.1830728468154816,5.548262943373975,-0.8508021222982382,0.3150507757573072],[-4.934745138669684,-0.12557884380396128,11.782520363943947,16.2175496864214,-0.029156256441702624,0.17754329305484176,-0.14004349912347222,22.537707755135077,-0.011233084192431714,0.5426043424111164,-0.19377250795197903,-0.2182351025141721,0.047064842064179,0.35261598162028657,0.8671689451509016,0.3379638177294461,-0.055663157761137505,-0.6983616492588237,1.1919399362689231,-5.539731474328975,0.8596932366788793,-0.30520751876952235]],"accuracy_validation":0.8268330733229329,"mse_training":0.35246995994659547,"accuracy_training":0.8237650200267023,"mse_validation":0.3463338533541342,"bias":-4.0131822770125927E-20},{"epoch":21,"weights":[[5.67106709990918,0.11107545028088525,-11.504461009463597,-15.974073095611784,0.03864658760348141,-0.159033897274672,0.15118304034534216,-21.996769429664578,0.02567272313390278,-0.5076991408242614,-0.18736126837914985,0.214917800551007,-0.038570527186587905,-0.33431558872374545,-0.833931063873282,-0.3100767496912373,0.05092326486472394,0.6752525602717246,-0.555072846815365,5.576262943374131,-0.8768021222979693,-0.8599492242422148],[-5.662745138670051,-0.10457884380396126,11.510520363943932,15.983055686421364,-0.030156256441702625,0.1745432930548414,-0.13604349912347222,22.007707755135087,-0.009233084192431712,0.5186043424111161,0.19222749204766448,-0.2052351025141721,0.04706484206417863,0.33761598162028617,0.8371689451509005,0.3249638177294461,-0.0466631577611375,-0.6633616492588237,0.5639399362688065,-5.567731474329131,0.8856932366786093,0.8697924812300005]],"accuracy_validation":0.8268330733229329,"mse_training":0.35113484646194926,"accuracy_training":0.8244325767690254,"mse_validation":0.3463338533541342,"bias":1.6272513884342986E-19},{"epoch":20,"weights":[[5.154069736115173,0.10293826279353602,-11.320435020467118,-16.053964047652237,0.035646587603481404,-0.15907965893927703,0.14313841942701497,-21.79089906188351,0.023672723133902777,-0.4866991733264167,-1.1304090140452665,0.2079166923075532,-0.04861628885085857,-0.32231562122590074,-0.8109768905418632,-0.29807674969123726,0.04387753570227419,0.6352514520282708,-0.3283933295664529,4.2428525536391035,-1.1166143417646526,-0.5651723258295678],[-5.145747774876042,-0.09644165631661203,11.326494374947453,16.06294663846182,-0.027156256441702623,0.17458905471944644,-0.12799887820514502,21.80183738735402,-0.007233084192431711,0.4976043749132714,1.135275237713781,-0.19823399427071828,0.0571106037284493,0.32561601412244146,0.8142147718194817,0.3129638177294461,-0.03961742859868775,-0.6233605410153699,0.3372604190198944,-4.234321084594104,1.1255054561452928,0.5750155828173535]],"accuracy_validation":0.7847113884555382,"mse_training":0.4218958611481976,"accuracy_training":0.7890520694259012,"mse_validation":0.43057722308892354,"bias":1.8245455211548582E-19},{"epoch":19,"weights":[[4.235901062529217,0.08414982519032997,-11.307936509790746,-16.068739877726127,0.0336465876034814,-0.15186809324167605,0.13213841642422527,-21.719198864167197,0.020672723133902775,-0.4676991736244341,0.9885928417111121,0.18891669230755317,-0.05277813057441211,-0.3123156215239181,-0.7911387328614515,-0.28386518669840927,0.03408910139987517,0.6000896075875188,0.03216114549591237,5.102021755949452,-1.3326143970141464,-0.17344703824080177],[-4.227579101290085,-0.07765321871340598,11.313995864271082,16.07772246853572,-0.02515625644170262,0.16737748902184546,-0.11699887520235537,21.730137189637706,-0.004233084192431711,0.4786043752112888,-0.9837266180425974,-0.17923399427071826,0.06127244545200283,0.31561601442045883,0.79437661413907,0.2987522547366181,-0.029828994296288727,-0.5881986965746179,-0.023294056042470868,-5.093490286904452,1.3415055113947876,0.1832902952285893]],"accuracy_validation":0.8018720748829953,"mse_training":0.40720961281708945,"accuracy_training":0.7963951935914553,"mse_validation":0.3962558502340094,"bias":4.702655948896009E-19},{"epoch":18,"weights":[[4.783901445062658,0.07314982519032996,-11.339936487813963,-16.16836997577907,0.0336465876034814,-0.14986809255490144,0.12613841642422527,-21.759198816093015,0.020672723133902775,-0.4496991729376595,0.3935940064808298,0.17291669230755316,-0.06077812988763752,-0.30231562083714353,-0.7691387308011277,-0.27286518669840926,0.028089101399875166,0.5590896075875188,-0.5668386841839888,4.713021928329879,-1.1226139670932516,0.4495534136568816],[-4.775579483823528,-0.06665321871340597,11.345995842294299,16.177352566588663,-0.02515625644170262,0.16537748833507085,-0.11099887520235537,21.770137141563524,-0.004233084192431711,0.4606043745245142,-0.3887277828123152,-0.16323399427071825,0.06927244476522824,0.30561601373368424,0.7723766120787462,0.2877522547366181,-0.023828994296288722,-0.5471986965746178,0.57570577363743,-4.704490459284879,1.1315050814738927,-0.43971015666909363]],"accuracy_validation":0.8268330733229329,"mse_training":0.3658210947930574,"accuracy_training":0.8170894526034713,"mse_validation":0.3463338533541342,"bias":4.3034098633600723E-19},{"epoch":17,"weights":[[4.870895640637537,0.0631498049266178,-11.162936723344503,-16.07254978254876,0.0316465876034814,-0.14986809308299293,0.12213841642422527,-21.48919947661344,0.017672723571387886,-0.4206991801297153,-1.2884081072580187,0.15991668608107393,-0.06777813041572901,-0.28731562759171425,-0.7391387443102692,-0.25686519292488846,0.02008909464530444,0.5250896066219422,-0.6608413491495155,4.646019631315447,-0.46461880005531586,-0.7774512625410676],[-4.862573679398407,-0.05665319844969382,11.168996077824838,16.08153237335835,-0.02315625644170262,0.16537748886316234,-0.10699887520235536,21.500137802083948,-0.0012330846299168255,0.43160438171657,1.2932743309265333,-0.15023398804423901,0.07627244529331974,0.29061602048825497,0.7423766255878876,0.2717522609630973,-0.015828987541717996,-0.5131986956090412,0.6697084386029575,-4.637488162270447,0.4735099144359579,0.7872945195288551]],"accuracy_validation":0.8003120124804992,"mse_training":0.38451268357810414,"accuracy_training":0.807743658210948,"mse_validation":0.3993759750390016,"bias":7.39884718796081E-19},{"epoch":16,"weights":[[4.768205694292034,0.04030985154862696,-10.90464250354457,-16.019602812262544,0.03164578094202472,-0.1508206086106513,0.11413764740680644,-21.274431253107096,0.01667268592735002,-0.4007084177081987,-0.09102405808450292,0.1419166860821987,-0.07073145260465925,-0.27532490281423555,-0.7101106169442418,-0.24386519292488845,0.010135772455434285,0.48513628443301193,-0.7009120273432796,5.02570522561109,-0.969619774097192,-1.2936356625855194],[-4.759883733052904,-0.03381324507170298,10.910701858024906,16.028585403072142,-0.02315544978024594,0.1663300043908207,-0.09899810618493654,21.285369578577605,-2.330469858789581E-4,0.4116136192950534,0.09589028175301756,-0.1322339880453638,0.07922576748224998,0.27862529571077627,0.7133484982218603,0.2587522609630973,-0.005875665351847846,-0.473245373420111,0.7097791167967216,-5.01717375656609,0.9785108884778358,1.303478919573307]],"accuracy_validation":0.733229329173167,"mse_training":0.48464619492656874,"accuracy_training":0.7576769025367156,"mse_validation":0.5335413416536662,"bias":6.773214367607979E-19},{"epoch":15,"weights":[[5.404612936258735,0.04130985137940822,-10.568925673501706,-15.627594756928994,0.03264578094202472,-0.1458967142871653,0.10013764740680643,-20.662041819630584,0.012672685927350016,-0.3737845233847127,-1.7848416947013945,0.13091668602578835,-0.07280755828117327,-0.25740100849074954,-0.6752628282972821,-0.23286519292488844,0.007135772399023945,0.45106017881289595,-0.9016888768627405,5.009006204965911,-0.2763107058162896,-0.6986402366498744],[-5.396290975019605,-0.03481324490248425,10.574985027982041,15.636577347738593,-0.02415544978024594,0.1614061100673347,-0.08499810618493653,20.672980145101093,0.003766953014121042,0.3846897249715674,1.7897079183699092,-0.12123398798895343,0.081301873158764,0.26070140138729025,0.6785007095749006,0.24775226096309727,-0.0028756652954375055,-0.43916926779999504,0.9105559663161822,-5.000474735920911,0.2852018201969334,0.7084834936376619]],"accuracy_validation":0.8268330733229329,"mse_training":0.32710280373831774,"accuracy_training":0.8364485981308412,"mse_validation":0.3463338533541342,"bias":6.8268873203439945E-19},{"epoch":14,"weights":[[5.863618119655989,0.02630985332252396,-10.296925516743965,-15.49027803419575,0.03064578094202472,-0.13989670930751932,0.09613764736389703,-20.152041344959883,0.010672685927350014,-0.356784518447963,-0.5948383088523721,0.12291668598289204,-0.0728075533444367,-0.24740100355399988,-0.6492628153869118,-0.21486519292488843,-0.001864225658174809,0.41406017877013723,-0.6016870620977056,4.97800850872038,-0.7403071085299301,-1.4436351403325025],[-5.855296158416859,-0.019813246845599937,10.3029848712243,15.499260625005348,-0.022155449780245938,0.15540610508768873,-0.08099810614202713,20.162979670430392,0.005766953014121042,0.3676897200348177,0.599704532520887,-0.11323398794605714,0.08130186822202742,0.25070139645054057,0.6525006966645303,0.22975226096309725,0.006124332761761249,-0.4021692677572363,0.6105541515511463,-4.96947703967538,0.7491982229105748,1.45347839732029]],"accuracy_validation":0.8190327613104524,"mse_training":0.35781041388518026,"accuracy_training":0.8210947930574098,"mse_validation":0.3619344773790952,"bias":1.625120389017417E-19},{"epoch":13,"weights":[[5.651557514694849,0.027309853845102722,-9.960927328554153,-15.236208765738311,0.02764578094202472,-0.14089676263045017,0.09213764736316778,-19.692046144009524,0.010672685927350014,-0.334784571770724,-0.17089062104197925,0.11591668593545318,-0.0798076066672103,-0.2324010568767609,-0.6202629755299633,-0.20186519292560295,-0.00286422548399103,0.387060178991762,-0.6836988134107238,4.8229962122483,-0.7873401630151446,-0.4046671082978375],[-5.643235553455719,-0.02081324736817872,9.966986683034488,15.24519135654791,-0.019155449780245935,0.15640615841061958,-0.07699810614129787,19.702984469480032,0.005766953014121042,0.3456897733575787,0.175756844710493,-0.10623398789861828,0.08830192154480103,0.2357014497733016,0.6235008568075818,0.21675226096381178,0.007124332587577471,-0.3751692679788611,0.6925659028641644,-4.8144647432033,0.7962312773957902,0.414510365285625]],"accuracy_validation":0.8237129485179407,"mse_training":0.35113484646194926,"accuracy_training":0.8244325767690254,"mse_validation":0.35257410296411856,"bias":8.997780074175314E-20},{"epoch":12,"weights":[[5.194145460127124,0.030254523651202573,-9.617867941850454,-14.965863449034499,0.021645780942024715,-0.13792442772740024,0.08613764736316777,-19.22481265370456,0.008672685927350012,-0.314784571770724,-1.3298906210419794,0.10791668593545317,-0.0878352717641604,-0.2204010568767609,-0.5902906406269134,-0.19086519292560294,-0.005891890580941108,0.35006017899176195,-0.26621155025175275,4.513297932748215,-1.0066732788018184,-1.0138928897348802],[-5.185823498887994,-0.023757917174278557,9.62392729633079,14.974846039844097,-0.01315544978024593,0.15343382350756965,-0.07099810614129787,19.23575097917507,0.007766953014121042,0.3256897733575787,1.3347568447104932,-0.09823398789861827,0.09632958664175112,0.22370144977330159,0.5935285219045319,0.20575226096381177,0.010151997684527552,-0.33816926797886104,0.27507863970519336,-4.504766463703215,1.015564393182464,1.0237361467226673]],"accuracy_validation":0.7722308892355694,"mse_training":0.41388518024032045,"accuracy_training":0.7930574098798397,"mse_validation":0.45553822152886114,"bias":1.6630563368473265E-19},{"epoch":11,"weights":[[5.551873531596634,0.015124827086284973,-9.368047792954505,-14.801590656017236,0.01616008106642436,-0.13392472110687634,0.08308503456008746,-19.088127890506208,0.004672685927350013,-0.2922700998198664,-0.5606821081872486,0.09286407653310193,-0.0933738744215881,-0.20988658492590329,-0.5633144276805677,-0.1763511861806794,-0.012430493238368812,0.30952174816079214,-1.800612561913669,5.066527224447978,-0.22916676725050122,-0.9499221499172944],[-5.543551570357504,-0.008628220609360967,9.37410714743484,14.810573246826834,-0.007669749904645575,0.14943411688704575,-0.06794549333821756,19.099066215976716,0.011766953014121045,0.3031753014067211,0.5655483318557621,-0.08318137849626703,0.10186818929917882,0.21318697782244397,0.5665523089581862,0.19123825421888824,0.016690600341955256,-0.29763083714789124,1.8094796513671096,-5.057995755402978,0.23805788163114772,0.9597654069050815]],"accuracy_validation":0.8315132605304212,"mse_training":0.3417890520694259,"accuracy_training":0.829105473965287,"mse_validation":0.3369734789391576,"bias":2.1430948650259265E-19},{"epoch":10,"weights":[[4.481307323062014,-0.01087517291371505,-8.955074393355456,-14.27575114890734,0.01616008106642436,-0.12892472110687636,0.0750842745486316,-18.198196291537272,0.001672685927350013,-0.26427085983132226,0.02612940897170113,0.08386331652164607,-0.09237463443304395,-0.19488734493735912,-0.5253159477034794,-0.1663511861806794,-0.023430493238368832,0.2685217481607921,-0.7138717258201247,5.880244500186397,-0.6819708593708104,-0.10962288047960911],[-4.472985361822884,0.01737177939063905,8.961133747835792,14.284733739716938,-0.007669749904645575,0.14443411688704577,-0.0599447333267617,18.20913461700778,0.014766953014121047,0.27517606141817696,-0.021263185303187382,-0.07418061848481117,0.10086894931063467,0.1981877378338998,0.5285538289810979,0.18123825421888823,0.027690600341955272,-0.2566308371478912,0.7227388152735652,-5.871713031141398,0.6908619737514569,0.1194661374673962]],"accuracy_validation":0.8221528861154446,"mse_training":0.35514018691588783,"accuracy_training":0.822429906542056,"mse_validation":0.35569422776911075,"bias":2.3243895558621414E-19},{"epoch":9,"weights":[[5.355098616971894,-0.01587578461346628,-8.451082571307987,-14.015896432672077,0.015160080403724394,-0.12692483911203223,0.0650842745486097,-17.458221010695816,-3.2731407264998715E-4,-0.2432711070132701,-1.0050237348173068,0.07886318733438219,-0.09537488162548562,-0.18188759211930697,-0.4973165712651567,-0.1523514326999253,-0.026430740422244456,0.22952161962764223,-1.0969884391416675,5.280127550264578,-0.4651738631359251,-1.0688410797088248],[-5.346776655732764,0.022372391090390277,8.457141925788322,14.024879023481676,-0.006669749241945607,0.14243423489220164,-0.04994473332673979,17.469159336166324,0.01676695301412105,0.2541763086001248,1.0098899584858196,-0.06918048929754729,0.10386919650307634,0.18518798501584766,0.5005544525427752,0.16723850073813412,0.0306908475258309,-0.21763070861474132,1.1058555285951073,-5.271596081219578,0.4740649775165716,1.078684336696612]],"accuracy_validation":0.8299531981279251,"mse_training":0.3364485981308411,"accuracy_training":0.8317757009345794,"mse_validation":0.34009360374414976,"bias":1.908284652629437E-19},{"epoch":8,"weights":[[5.852557200754916,-0.02684410848957962,-8.101937026713115,-13.742765046613378,0.013160080403724392,-0.12198526554153716,0.0570842745369814,-17.05365938909594,-0.002327314072649987,-0.21933153343342512,-1.2818044153638304,0.061863187322753935,-0.09743530805499054,-0.166948018539462,-0.4645136886120782,-0.1374118591317091,-0.030414902354487267,0.181537457693121,-1.9930839667055857,5.132631972517832,-0.801545475538307,-0.8456193425341948],[-5.844235239515786,0.033340714966503614,8.10799638119345,13.751747637422977,-0.004669749241945607,0.13749466132170654,-0.0419447333151115,17.06459771456645,0.01876695301412105,0.23023673502027983,1.2866706390323432,-0.052180489285919035,0.10592962293258126,0.1702484114360027,0.4677515698896967,0.15229892716991794,0.034675009458073704,-0.16964654668022006,2.0019510561590255,-5.124100503472833,0.8104365899189535,0.8554625995219837]],"accuracy_validation":0.828393135725429,"mse_training":0.3391188251001335,"accuracy_training":0.8304405874499332,"mse_validation":0.34321372854914195,"bias":2.5936284393612536E-19},{"epoch":7,"weights":[[5.8923298488321185,-0.03851889106758454,-7.570827331406408,-12.877242461700222,0.013160080403724392,-0.11566004811959073,0.050084274536981395,-15.894389789115909,-0.0023273140726499876,-0.19898715671592127,-0.976554123040607,0.050863187322753925,-0.09311009063304411,-0.15160364182195815,-0.42249971739951986,-0.1204118591317091,-0.035089684932540846,0.1465182987531677,-1.8565562343352378,5.110396328325434,-0.8289275075517285,-1.0298911228555245],[-5.884007887592991,0.045015497544508544,7.576886685886737,12.88622505250982,-0.004669749241945607,0.13116944389976012,-0.03494473331511149,15.905328114586416,0.01876695301412105,0.20989235830277597,0.9814203467091189,-0.041180489285919025,0.10160440551063483,0.15490403471849884,0.42573759867713834,0.13529892716991793,0.03934979203612728,-0.13462738774026675,1.8654233237886766,-5.101864859280434,0.8378186219323759,1.039734379843313]],"accuracy_validation":0.8268330733229329,"mse_training":0.3444592790387183,"accuracy_training":0.8277703604806409,"mse_validation":0.3463338533541342,"bias":3.1645306395709105E-19},{"epoch":6,"weights":[[4.6423298822508885,-0.047518891067987845,-6.872827329437627,-11.8592357383744,0.015160080403724394,-0.1066600480738544,0.045084274537019436,-14.624389784995833,-0.0013273140269136705,-0.16998715667001243,-0.44155408604728386,0.04186318732279196,-0.08611009058730779,-0.12960364177618375,-0.36949971726206227,-0.10641185913170909,