[{"epoch":99,"weights":[[-0.22215467050862722,-0.015322110205612123,-0.022155841039545616,-0.7725646312847815,-1.3834945830739307,0.0621844905231321,0.17779439734364647,-0.013014812267804394,0.049750747475044814,-0.1827131136236586,0.003182139583198037,0.11815030949482745,0.26675131757597753],[0.1535952997471479,-0.08954825689432405,0.026448787333093037,0.3337128753624464,1.0844948794617306,0.13659382391306915,0.14193842072714558,0.043237524253310594,0.12982579433899383,-0.5031869499702937,0.10128231041834766,0.14823068683948892,-0.10896004668222051],[0.21410043888320868,0.19992146200155458,0.11010338927763158,0.5819862255363845,0.5256201169458937,-0.04350072882469094,-0.16562212674215868,0.11247322553187306,0.027615451457743148,0.8367759346088157,-0.02856120780287408,-0.11596956150881187,-0.04657506321203792]],"accuracy_validation":0.6037735849056604,"mse_training":0.448,"accuracy_training":0.776,"mse_validation":0.7924528301886793,"bias":-1.3496404946789025E-18},{"epoch":98,"weights":[[-0.22154968373545383,-0.014838545924966674,-0.022157136879533704,-0.7678489461130746,-1.3868925412670927,0.06163314737772688,0.176695679037788,-0.012935768859544953,0.04932898994828564,-0.18205231699539187,0.0032461894214602873,0.11768342262662618,0.26285489941833695],[0.15545960750080468,-0.08801888871921235,0.026891474577802527,0.3350148916658058,1.0957593276513558,0.13591908600674835,0.14080808784620014,0.043316360922895245,0.1293083300017688,-0.4970808376203741,0.1007393575493252,0.14712784560409664,-0.10733828602598326],[0.21163114435637842,0.19790852954579732,0.10966199787291016,0.5759685240613183,0.5177536269494313,-0.04227464777296491,-0.16339307555535482,0.112315345454029,0.028554673321727377,0.8300090256306292,-0.02808230477211384,-0.11439983340521834,-0.044300405710634636]],"accuracy_validation":0.5849056603773585,"mse_training":0.432,"accuracy_training":0.784,"mse_validation":0.8301886792452831,"bias":-1.3559841991482767E-18},{"epoch":97,"weights":[[-0.22110607086551065,-0.014427720298040148,-0.022053631756431765,-0.762602598442786,-1.3886645590202211,0.061102948614115436,0.17555165813778342,-0.012798461297891335,0.04894825897593988,-0.1802222907368603,0.0032122478166678255,0.11696525307574776,0.2603919074120596],[0.15432394192896762,-0.08708533609982552,0.026693804857999232,0.3324978686909642,1.0844853917808233,0.13469767230767585,0.139368211180562,0.043289477892344656,0.12877081728341908,-0.49265565080161244,0.1000900210444459,0.14550948973725245,-0.17610569309629331],[0.21232319705827224,0.19656415129948404,0.1097561624696115,0.5732391993658712,0.5307995805730924,-0.040523035310280967,-0.1608091779897122,0.11220492092292592,0.02947291701242269,0.8237538125533362,-0.0273990266624421,-0.11206330798749567,0.026929993365952705]],"accuracy_validation":0.5849056603773585,"mse_training":1.072,"accuracy_training":0.464,"mse_validation":0.8301886792452831,"bias":-1.3084417854810383E-18},{"epoch":96,"weights":[[-0.2206748728628075,-0.014018303514386,-0.0219522346602693,-0.7573692635409516,-1.3905488288050334,0.060570192306762645,0.17440474893290908,-0.012661377223994325,0.04856539610831626,-0.17839659233466237,0.0031773453279181933,0.116243517858438,0.2569752681724842],[0.1538604860904961,-0.08592144075362382,0.026522958983375266,0.329334271982622,1.0789838562358538,0.13355718505525527,0.13810993888336537,0.04325403712663486,0.12815948808109293,-0.48818863491414266,0.09942605436900878,0.1440415920469595,-0.16861383233345248],[0.21235545489404062,0.19499083916962826,0.10982561124807304,0.5711694611723787,0.5381853859028741,-0.03884979175050763,-0.1584039964876413,0.11210327761473872,0.03046710908237253,0.817461098263669,-0.02670015749825538,-0.10987367507989285,0.022854771842687284]],"accuracy_validation":0.5849056603773585,"mse_training":1.072,"accuracy_training":0.464,"mse_validation":0.8301886792452831,"bias":-1.215261605349083E-18},{"epoch":95,"weights":[[-0.22016372558764086,-0.01361716597030077,-0.02185098369807047,-0.7516394088922028,-1.3922745659055202,0.0600828396016808,0.173320168352303,-0.012528820127527082,0.04826856508701695,-0.1763886234114736,0.003128759609314618,0.11551530742783907,0.24719802342876762],[0.1552481427976361,-0.08430806959613457,0.026721111428837284,0.32954150540449,1.082692981795122,0.13280878970465798,0.13710888821494732,0.04329174266700403,0.12778547527464892,-0.4821486153541734,0.09877705483716721,0.14284789240165785,-0.09933368913960007],[0.210456650911734,0.19297633046805374,0.10952620784041221,0.5652323731017617,0.5362019974440928,-0.03761404369482851,-0.1563183652386172,0.11193301497790227,0.03113795291011581,0.8094131097805112,-0.026002572247810246,-0.10795176500399223,-0.036648126607448525]],"accuracy_validation":0.6415094339622641,"mse_training":0.368,"accuracy_training":0.816,"mse_validation":0.7169811320754716,"bias":-1.255051007132686E-18},{"epoch":94,"weights":[[-0.22040741184068346,-0.013516167327168175,-0.02206634417888805,-0.7494152185457911,-1.3920175781716004,0.059447864596271216,0.1721874860369564,-0.012507493923755287,0.047965399379729046,-0.17583214546765363,0.0031158704543957287,0.11486772102726342,0.26092019190015414],[0.15738032750591885,-0.08241607453896736,0.027221086969035534,0.332511332501946,1.0893608029266924,0.13222879072246077,0.13627818400159433,0.04335236168674005,0.12732941675775722,-0.47656773408924696,0.09824888379364151,0.14196996464294787,-0.103058099376658],[0.20856815245649385,0.19098333676775398,0.10924159278103156,0.5600383556578941,0.5292771885786034,-0.036399069707221676,-0.15435497870991768,0.11185106975439447,0.03189717713429536,0.8032757505717653,-0.025461512049365646,-0.10642625084470664,-0.04664588484177719]],"accuracy_validation":0.5471698113207547,"mse_training":0.448,"accuracy_training":0.776,"mse_validation":0.9056603773584906,"bias":-1.2601644486890216E-18},{"epoch":93,"weights":[[-0.21999492282929764,-0.01310924182041296,-0.021967976845427374,-0.7442076125233072,-1.394045751730025,0.058911287144341025,0.17103692880677174,-0.012370846344280841,0.04758010957563921,-0.17401441980935367,0.003079662146853037,0.11414136569567232,0.2563918513089253],[0.15626274037163665,-0.08147929864029686,0.027023400080272115,0.3299698727764193,1.0782634601798062,0.13100570118695096,0.1348387632255068,0.04332436946810223,0.1267888866283343,-0.47212251845879094,0.09759595668724663,0.14035166309943367,-0.170477828306687],[0.20927325057939025,0.18963963536232817,0.10934091233633426,0.5573722093609365,0.5424027048839138,-0.03463940271978162,-0.15176500070364546,0.11174241439355782,0.03282299706780809,0.7970128092830097,-0.024772376635428035,-0.10408159396960141,0.025302184679480796]],"accuracy_validation":0.5660377358490566,"mse_training":1.088,"accuracy_training":0.456,"mse_validation":0.8679245283018868,"bias":-1.1905291919042977E-18},{"epoch":92,"weights":[[-0.2177843492785963,-0.01225778391425087,-0.02152683089878289,-0.7351157766873813,-1.380314093669732,0.058637436351661146,0.16994665036903933,-0.012135131575105079,0.04734859218423235,-0.17128465884042862,0.00312934965157017,0.11345216530650715,0.30450177013340773],[0.15620052009412658,-0.08013166173214147,0.026922206884524513,0.3273069497723933,1.0695903120808499,0.1300523482176139,0.13362602639811794,0.04333938176856416,0.12631982006979753,-0.4665202926873789,0.09687023846185455,0.13889329620502855,-0.16958814468609507],[0.20712489730619893,0.1874405405480107,0.10900095958543739,0.5509432965290365,0.5373441949225772,-0.03341219895776468,-0.1494619854385242,0.11149168732392012,0.033523581017751755,0.7886808225426726,-0.024096345914753087,-0.1019340266860311,-0.023697417765593722]],"accuracy_validation":0.5849056603773585,"mse_training":1.072,"accuracy_training":0.464,"mse_validation":0.8301886792452831,"bias":-1.2317558138949699E-18},{"epoch":91,"weights":[[-0.2186874877409092,-0.012002889580236374,-0.021736006740452854,-0.7323044765180481,-1.3939809601545328,0.05777510852910863,0.16864391074080745,-0.012075978676421815,0.04684598986212695,-0.17084796106400327,0.0030670748758327266,0.11257774270695388,0.25179144603932946],[0.15795256289012463,-0.07882311170289634,0.027126607505680606,0.32666719126180754,1.0920762582583678,0.12977981959766124,0.13310227120179668,0.043260870405353695,0.12624856481309946,-0.4620326076934581,0.09647653989323632,0.13822594366022675,-0.09799915688117411],[0.20627599297251376,0.18587709618475123,0.10900573480595131,0.5487717548702893,0.5285251152298598,-0.03227734251525943,-0.14763549061397105,0.1115110457884473,0.03409743859655526,0.783756439772326,-0.023640372570397368,-0.10039225154167612,-0.04257608147643642]],"accuracy_validation":0.5471698113207547,"mse_training":0.432,"accuracy_training":0.784,"mse_validation":0.9056603773584906,"bias":-1.260356697476774E-18},{"epoch":90,"weights":[[-0.21837604522931658,-0.011470578922721937,-0.021730643970965125,-0.7277674499635013,-1.3984894147633284,0.0570897058015389,0.16743967927142617,-0.011963430107218556,0.04651710158235393,-0.16952422267635525,0.0030639866486112774,0.11186391380129099,0.262225992086146],[0.15830700474353726,-0.07759730964462562,0.027175422009800113,0.3242909422742285,1.0992973938379393,0.12915403113410287,0.1323166046963497,0.043187866565084373,0.12589218462390406,-0.45724868913275535,0.09587144285159181,0.13716651203518532,-0.09521570427342786],[0.2056101086075085,0.18411898346896619,0.1089515575323441,0.5466109773033218,0.5258124342590837,-0.03096615132413129,-0.1456455926391429,0.11147150105951333,0.034782707065523714,0.7776487828239753,-0.023032187301531424,-0.09861899101097187,-0.05579408013099926]],"accuracy_validation":0.4528301886792453,"mse_training":0.544,"accuracy_training":0.728,"mse_validation":1.0943396226415094,"bias":-1.2889525761276486E-18},{"epoch":89,"weights":[[-0.21886495661170743,-0.011297262528147327,-0.02191686099168892,-0.7255383160985205,-1.40110116143626,0.05631832188719295,0.16613415144227675,-0.011902422548269684,0.04618999993600273,-0.16837692873616558,0.0029728629357138763,0.11093770182428138,0.2622457439374524],[0.16041743273277495,-0.07586980780471668,0.027619233353956503,0.3269116379977245,1.1081758431318771,0.1286562297147733,0.13153554549995136,0.0432158785637323,0.12546919710586985,-0.4519967204555031,0.09542395001769079,0.13649258474341203,-0.1089847119999355],[0.20398859200066166,0.18221816523448267,0.10869396320891155,0.5417611477148451,0.5195457316380777,-0.029696965990455713,-0.14355900561359516,0.11138248150191654,0.035532796229909104,0.7712495202065337,-0.022493570754732958,-0.09701885174218898,-0.042044824255798016]],"accuracy_validation":0.5660377358490566,"mse_training":0.416,"accuracy_training":0.792,"mse_validation":0.8679245283018868,"bias":-1.3918416353580398E-18},{"epoch":88,"weights":[[-0.21881567142132538,-0.011154577401107518,-0.021878486645687666,-0.721536246734336,-1.4002743545108403,0.05576256499539532,0.16504194361823013,-0.011784358356310327,0.045866478311043235,-0.16686801016995192,0.002970163320667107,0.110132868595445,0.2554476812483615],[0.16331415155499887,-0.07402479347464182,0.02820254364691149,0.3314647004492689,1.120641601454621,0.12831465623605268,0.1308189079893786,0.04330068713811446,0.12534448608645837,-0.4457889005426722,0.09500107359262673,0.13587050472119278,-0.09738486450081589],[0.2010425879880558,0.1802304657773679,0.10807227856995534,0.5332060158991158,0.5062531663899142,-0.028799635619937383,-0.1417501602789758,0.11117960873557503,0.03598102887428003,0.7635327817274892,-0.0220679947146221,-0.09559193849113336,-0.04684660906582659]],"accuracy_validation":0.4716981132075472,"mse_training":0.528,"accuracy_training":0.736,"mse_validation":1.0566037735849056,"bias":-1.4016183524248125E-18},{"epoch":87,"weights":[[-0.2180785840442936,-0.010517438036335059,-0.021759492008158274,-0.7163446224890664,-1.4032264327917117,0.05504424145151035,0.1637077782868127,-0.01163758582751907,0.04550784373894039,-0.1646677095387611,0.0029177108279563016,0.1093442750346744,0.26306069313741653],[0.1641591772062329,-0.0728129034478977,0.02833730916456387,0.33050061372702394,1.123397632478382,0.127601162299674,0.12991867438543955,0.043312335633158214,0.12483271936235418,-0.4405622299233831,0.09449722212119974,0.13480831988060984,-0.11172961126269178],[0.19946047495979,0.17838143638585136,0.10781851841477356,0.528978478376091,0.506449213647025,-0.027367818139673684,-0.13951576134361937,0.11102118771174005,0.03685143017048702,0.7561058104770092,-0.021511690750484314,-0.09374116008977974,-0.040114874193005676]],"accuracy_validation":0.5660377358490566,"mse_training":0.432,"accuracy_training":0.784,"mse_validation":0.8679245283018868,"bias":-1.4523772805462439E-18},{"epoch":86,"weights":[[-0.21764826205546273,-0.010108212860562382,-0.021658249678939045,-0.7111124896635099,-1.4051159385473146,0.0545114039439996,0.16256087149888482,-0.011500538551907571,0.04512499524867552,-0.16284274609721897,0.002882774924858288,0.10862246909848339,0.25960744902484845],[0.16306144214254076,-0.07187363194246056,0.02814390662493287,0.3280045637259947,1.1124361197650752,0.12638331756631285,0.12848379099454582,0.04328547566094853,0.12429635998507246,-0.4361164981075386,0.09384754164938018,0.13319539913005618,-0.17910029311734538],[0.20012788803465137,0.17703293970464157,0.10791067862518534,0.5262423955515634,0.5193002321159349,-0.02561713589880181,-0.13693397116479777,0.11091100040833825,0.03777063803803359,0.749835115219623,-0.020827074375566756,-0.09140643340303521,0.03070905177421586]],"accuracy_validation":0.5660377358490566,"mse_training":1.072,"accuracy_training":0.464,"mse_validation":0.8679245283018868,"bias":-1.4770328376437665E-18},{"epoch":85,"weights":[[-0.2165150597244341,-0.009496014167303004,-0.021509527385520626,-0.7044106263585809,-1.3967105897022314,0.05399126508378355,0.1613294002471188,-0.011342422231717542,0.04495852724300769,-0.16110977444407687,0.0029287852370751084,0.10786503536915598,0.2545240976306844],[0.1617944258006012,-0.07096997518515895,0.027885314869479948,0.3239288978863653,1.0976028887112093,0.12539899759925574,0.12744205471864634,0.043179834591745576,0.12376058523883149,-0.4310213037295987,0.093047043116858,0.13180293929460532,-0.16400649417220137],[0.20026170204556232,0.17551708425408058,0.10802054808721986,0.5236161980862639,0.5257281143247176,-0.024112677071528723,-0.1346607636371323,0.11085852515735116,0.03847288078994235,0.7430069491885409,-0.020072586155261404,-0.08925653983825702,0.020698604223235786]],"accuracy_validation":0.6226415094339622,"mse_training":1.072,"accuracy_training":0.464,"mse_validation":0.7547169811320755,"bias":-1.493354517209575E-18},{"epoch":84,"weights":[[-0.21558954408076667,-0.009147586944191478,-0.021464437132358724,-0.6996356037280189,-1.3909628767907083,0.05354588717804566,0.16033028299051477,-0.011228114311031807,0.0447567357866229,-0.1592963340709888,0.0029712201287096004,0.10729926732565803,0.2567350762008923],[0.1639518652435862,-0.06934558131412868,0.02831078039364444,0.3256572751034989,1.1028530526047748,0.12503104402708184,0.1268714911145816,0.043224502179322506,0.12359876533209091,-0.4243125654736602,0.09251203885215689,0.13107768991725977,-0.09216937185966484],[0.1971787469589099,0.17354426315993887,0.10754999230989352,0.5171127982385683,0.5147302375196277,-0.02329934559361684,-0.13309108277646356,0.11069954964908849,0.03883649215306771,0.7344847705595142,-0.01958001678219477,-0.0879655224174135,-0.05334949665950875]],"accuracy_validation":0.4716981132075472,"mse_training":0.528,"accuracy_training":0.736,"mse_validation":1.0566037735849056,"bias":-1.528243295267094E-18},{"epoch":83,"weights":[[-0.21482750884545318,-0.008784204792650734,-0.021405160817540205,-0.6950515106075886,-1.3837951273153375,0.0529081504086638,0.1589385375443582,-0.011102233780102314,0.04466827001971627,-0.15647907571050254,0.0029089367095665878,0.10637359793819948,0.294133463249178],[0.1643391441450836,-0.06782633399472196,0.028383961141142562,0.32547803184456897,1.1021177611251856,0.12421178283997664,0.12575247361585962,0.04318670712974748,0.12309772594455042,-0.41965922886193896,0.0919606854535968,0.13009158249174,-0.14681095929567384],[0.19602943282209906,0.17166163368899148,0.10741753524757694,0.512707948377068,0.5082977795238467,-0.02184234763712978,-0.130580319831585,0.110611464167734,0.03942599730751486,0.7270141755873069,-0.018966379964491607,-0.08605374560443528,-0.03610629627178512]],"accuracy_validation":0.6415094339622641,"mse_training":0.784,"accuracy_training":0.608,"mse_validation":0.7169811320754716,"bias":-1.3849932282651217E-18},{"epoch":82,"weights":[[-0.21283537602788252,-0.008304016030405485,-0.021019686407960207,-0.6860806189962294,-1.3768561959324728,0.05250595549228734,0.15776138056996533,-0.010880402307109256,0.0445060866619446,-0.15348424071123024,0.002959334646508037,0.10565171959733473,0.28147828414482484],[0.1641526189680693,-0.06664242016813549,0.02832577225293299,0.32349808794947066,1.0991888147391555,0.12335034791908966,0.12463197586369439,0.043181537136276156,0.12278632213014391,-0.4145564896934653,0.09131752974459395,0.12883395451921134,-0.14181231297357735],[0.19422382518154271,0.16999753110015978,0.10709024972620654,0.5057170006608069,0.5042877945270106,-0.02057871779986634,-0.1282826651050269,0.11039480268821228,0.039899584479693065,0.7189166014195608,-0.01837362219243021,-0.08407423929104194,-0.028449763489528393]],"accuracy_validation":0.7169811320754716,"mse_training":0.848,"accuracy_training":0.576,"mse_validation":0.5660377358490566,"bias":-1.3165228883109337E-18},{"epoch":81,"weights":[[-0.2121705255427082,-0.008054811604351713,-0.02095788632951759,-0.6803471179110834,-1.3808719028304801,0.05190455033544072,0.15655816047564725,-0.010741185846447218,0.0440436234067312,-0.15201000106874993,0.0029790388062472324,0.10480315188799194,0.2527558563820782],[0.16224246793599265,-0.0660619556623572,0.027920331550889153,0.3170659772833167,1.0845865839167135,0.12201615731927688,0.12322144100366367,0.043141070927794505,0.12199383978003597,-0.4096252744462582,0.09060804678099739,0.12711807632573197,-0.17929801449673632],[0.19546912572844496,0.16916786216832774,0.10743389034980778,0.5064156102418148,0.5229057322474601,-0.018643122043206947,-0.12566891015067802,0.11029605243603194,0.04115453008501441,0.7125111465298728,-0.017683843388572807,-0.0815097933882199,0.037758365796377216]],"accuracy_validation":0.5283018867924528,"mse_training":1.12,"accuracy_training":0.44,"mse_validation":0.9433962264150944,"bias":-1.2994366040027591E-18},{"epoch":80,"weights":[[-0.21265620722873174,-0.007850432951583454,-0.021144673381841703,-0.6779835238347351,-1.3829653570107427,0.0511540189107252,0.15525859936467504,-0.010679443324372583,0.04377231170022417,-0.1509033489359641,0.0028891143980574814,0.10388003124450386,0.24583936453128627],[0.16526604711310872,-0.06425745111847513,0.028494607952473404,0.32020642374708824,1.0974228794358423,0.12162499656992594,0.12252921251833031,0.043199497280919055,0.12171692971628717,-0.4024741026561491,0.0900680315583056,0.12649608640036253,-0.0969757765870183],[0.19293122823735237,0.16715897897167742,0.10704640100054766,0.5009115697016949,0.512162890908594,-0.017501429869140463,-0.12367712055437238,0.11017588356083273,0.04170275185527027,0.7042533226069784,-0.017053903757691263,-0.07996468281936239,-0.037647380262548935]],"accuracy_validation":0.5094339622641509,"mse_training":0.448,"accuracy_training":0.776,"mse_validation":0.9811320754716981,"bias":-1.2442753489525602E-18},{"epoch":79,"weights":[[-0.2115222450569975,-0.007263955170105299,-0.021041968732851312,-0.6733033560285069,-1.3867805766476902,0.05068289093830499,0.15427004786694176,-0.010512813705208443,0.04352316640098027,-0.14873668589210232,0.0029151136233141832,0.10322582849980735,0.262629912382455],[0.1642322029403126,-0.06360286118504659,0.028143733393590924,0.31515491563180253,1.0923472109664627,0.12043254857215313,0.1209276963906855,0.04307377864207485,0.12119384126063994,-0.3978193028966072,0.08940187397423631,0.12499914664314102,-0.17693367299266152],[0.19283111023841426,0.16591791125677074,0.10729457091043973,0.501282910010752,0.5210537790149213,-0.015837853898947447,-0.12108705292899428,0.11013497258051283,0.04247498561016142,0.6974318598035755,-0.016413745398878726,-0.07781354031744438,0.02551996829192551]],"accuracy_validation":0.6226415094339622,"mse_training":1.072,"accuracy_training":0.464,"mse_validation":0.7547169811320755,"bias":-1.3090808332600679E-18},{"epoch":78,"weights":[[-0.21045490883418472,-0.006894908131809614,-0.020800758115797548,-0.6660760018010169,-1.3860309245811078,0.050239969391420516,0.15303918358806234,-0.01033645213768595,0.043387282356970786,-0.14570454126443239,0.0028668487313134113,0.10239522868664486,0.23975347915517448],[0.1659136907550992,-0.06190329627611275,0.028390836164736307,0.3157397699050149,1.0982478755076008,0.11973585605486081,0.11996960486638031,0.04311841553265812,0.12086359672347115,-0.39161748630699955,0.08876428675583438,0.12385319031916969,-0.09283859278171733],[0.19008228620081494,0.16384929930954117,0.10680625752224057,0.493470701510049,0.514403462407202,-0.01469823983477065,-0.11889809712580965,0.10991397412240705,0.042941114191339703,0.6881978985862972,-0.015727893288476024,-0.07583698418031051,-0.035698678691738345]],"accuracy_validation":0.4716981132075472,"mse_training":0.496,"accuracy_training":0.752,"mse_validation":1.0566037735849056,"bias":-1.167153094866376E-18},{"epoch":77,"weights":[[-0.20981054847879815,-0.00628597579257198,-0.020786188324246124,-0.6622944359099412,-1.3908488525590954,0.04957949654856217,0.15188241740982866,-0.010205913603323999,0.043114408821386445,-0.14399596387924526,0.0028382871074634844,0.1017230698470967,0.2619415997454646],[0.16783811168599783,-0.06052433528217686,0.02860368783139012,0.31607479690999374,1.113894022351458,0.11902095595705117,0.11870881727524894,0.04310437485612184,0.1206548194852904,-0.38582200048998666,0.08831251525583388,0.1228718186257116,-0.11198948009402973],[0.18751350491452973,0.16186140597636767,0.10657883606403533,0.4893541086139941,0.5035752435413323,-0.013322866894102676,-0.11648054335644457,0.1097974762645814,0.0434227649651048,0.6806938353840973,-0.015247560164625638,-0.07418345364730423,-0.03873591196971608]],"accuracy_validation":0.5660377358490566,"mse_training":0.464,"accuracy_training":0.768,"mse_validation":0.8679245283018868,"bias":-1.1666749760049561E-18},{"epoch":76,"weights":[[-0.210031931520512,-0.006070550503720396,-0.020930927813546548,-0.6591835126720792,-1.3964043444864715,0.048933219612274925,0.15065877584570142,-0.010122787507292305,0.042720208122497196,-0.14258782759900346,0.002759451242000966,0.10073541382584196,0.24066552337285887],[0.16773258383792924,-0.05935785590181872,0.0286313048242573,0.3154392392409649,1.105309660871057,0.11813837908415321,0.11765655541383223,0.0430944360677236,0.1201781664356353,-0.3806199647917168,0.08771131655401936,0.12164710077272767,-0.15298695092717918],[0.1878404158043122,0.16047950130715793,0.10669595856046857,0.4868787430451611,0.517715096949109,-0.011794013084917513,-0.11420463993090063,0.10972428895694798,0.044293618713649195,0.6740836634055858,-0.01456752559734861,-0.07197107977306556,0.02353763523603912]],"accuracy_validation":0.5471698113207547,"mse_training":1.12,"accuracy_training":0.44,"mse_validation":0.9056603773584906,"bias":-1.1789631906939963E-18},{"epoch":75,"weights":[[-0.20933451854828994,-0.0056499269978379195,-0.02079947553968314,-0.6532803206025051,-1.3965345502389628,0.0484884050512592,0.14961201302536642,-0.00998768444730797,0.0424489169165134,-0.1404887320529361,0.0027230705842831247,0.100046195113101,0.24426629272379463],[0.16677996608729648,-0.05841538261638862,0.028422711094266046,0.3123059020662438,1.0961364701982999,0.11695903023325378,0.11627520963435076,0.04304173582109486,0.11962355308841009,-0.37582994816318854,0.08698577711732246,0.12004604717001999,-0.17586868074221235],[0.18809562058272294,0.1591164045158454,0.10677310001659643,0.48410888815030795,0.5270184933743582,-0.010169849673002392,-0.11177653133108417,0.10964188614359231,0.04511952326685821,0.6671945512309901,-0.013805605502933893,-0.06968080745761696,0.04281859570013639]],"accuracy_validation":0.5283018867924528,"mse_training":1.28,"accuracy_training":0.36,"mse_validation":0.9433962264150944,"bias":-1.3057277748439827E-18},{"epoch":74,"weights":[[-0.2077673650277554,-0.004828164155741076,-0.02067586107908872,-0.6474204461719462,-1.3892878081702862,0.04825720356897503,0.14871229970576177,-0.009840958081559468,0.04239616995876687,-0.13793014209346743,0.0027815560170671833,0.09944620783952496,0.2879932924971759],[0.16740729076211353,-0.05716204140844535,0.02863642697139635,0.31172888079810934,1.0906314239962474,0.11614629304165816,0.1153211602650222,0.04300823922523386,0.11906668475183853,-0.36968305376719,0.08627997161696917,0.11899485056668589,-0.1621098939043589],[0.18590114238737132,0.15704130046580528,0.10643576967887172,0.4788260349878831,0.5252767975077338,-0.00912591099912262,-0.10992276864215099,0.1095286563737048,0.04572913856117637,0.6584890668755231,-0.013158285435364701,-0.06802962358070684,-0.014667190911098346]],"accuracy_validation":0.6415094339622641,"mse_training":0.992,"accuracy_training":0.504,"mse_validation":0.7169811320754716,"bias":-1.2627144716829196E-18},{"epoch":73,"weights":[[-0.20813106591468827,-0.004656811531347084,-0.020790149843499237,-0.6439092646972385,-1.397159884301648,0.0475105310181998,0.14751453541419893,-0.009772191397316709,0.04196199308052167,-0.13717293209469397,0.0027531008762039346,0.09870061597765346,0.2660049015632786],[0.1693232958762877,-0.0555377777445732,0.028978982443902488,0.311890102729324,1.108961281401079,0.11573446212870872,0.11472396943340975,0.04299146287970058,0.11895633708802451,-0.36385436292594675,0.0858018818291042,0.11817915740280022,-0.11287679312705538],[0.18434883816013006,0.1552456841775391,0.10620750297077612,0.47515363158196067,0.5148190162342644,-0.007967407535397954,-0.1081278135189757,0.10947666603499527,0.04627366310323554,0.6519031660355066,-0.01265174050663647,-0.06646833855494969,-0.04191190075450464]],"accuracy_validation":0.5660377358490566,"mse_training":0.464,"accuracy_training":0.768,"mse_validation":0.8679245283018868,"bias":-1.2894001080271578E-18},{"epoch":72,"weights":[[-0.20866665824650193,-0.004492661288896009,-0.020982145913454285,-0.6416364399127934,-1.40055381308456,0.046720282237110146,0.14617375385255524,-0.009711849827259316,0.04162798066463488,-0.1361112657377049,0.0026633666426106894,0.09777538025484243,0.2557524816907931],[0.17211485121243764,-0.0535549709231303,0.029420181088852748,0.3153766178143203,1.1205538044694472,0.1152802017497501,0.113787353223175,0.04308901582452671,0.11868267768149625,-0.3572221861371725,0.08532987528363344,0.11734297535622985,-0.09964990978347693],[0.1820928751557938,0.15309872711364522,0.10595830039578093,0.46939429171251923,0.5066204219488089,-0.00672289837534968,-0.10585041574709729,0.1093187715201117,0.04688133492565061,0.6442093228897433,-0.012089999727572446,-0.0647069207855683,-0.04488636422559755]],"accuracy_validation":0.4528301886792453,"mse_training":0.528,"accuracy_training":0.736,"mse_validation":1.0943396226415094,"bias":-1.3403108160485501E-18},{"epoch":71,"weights":[[-0.2074896031024128,-0.003913963927066969,-0.020825594146703076,-0.6349450118825407,-1.3918152730370599,0.046194997801258714,0.14490552391131714,-0.009555534025933505,0.04143175738115291,-0.13417228918893906,0.0027024095240687877,0.0970113544904115,0.24993842280313947],[0.17179825956524733,-0.052219388407163135,0.029394535681044835,0.3128613389179706,1.1069765160777822,0.11432902613431045,0.11284536799427151,0.04306073661637794,0.11815392590906239,-0.35138984341825674,0.08451339064379364,0.11605163630579768,-0.09014377891884763],[0.18123241165889498,0.15118444723584898,0.10582739403683764,0.4652181425786161,0.5114591702929732,-0.0052464383240586315,-0.10364020057695565,0.10919073492693467,0.04760630998156643,0.6364380036220617,-0.011312557969190772,-0.06265155597070518,-0.04857843620257324]],"accuracy_validation":0.4716981132075472,"mse_training":0.512,"accuracy_training":0.744,"mse_validation":1.0566037735849056,"bias":-1.2508099413856355E-18},{"epoch":70,"weights":[[-0.20568140005978916,-0.0031854434028705937,-0.020526948552951424,-0.6274059541077793,-1.3802371789507606,0.04586683687732399,0.1437862865401885,-0.009354183569668105,0.041174273291937125,-0.13132266434415008,0.002706213462658305,0.0962639928980834,0.2940358936869249],[0.17083472790498516,-0.050839211487165255,0.02922001372832655,0.30948573801269474,1.0889484212861464,0.11304462881160877,0.11137121831057725,0.04304394498338844,0.11734098297413528,-0.3458495567207195,0.08367383381214202,0.11434464935496276,-0.15466173636806085],[0.18038774027653348,0.14907574979165464,0.10570327039580428,0.46105468570913055,0.5179091709983107,-0.0036338800774222057,-0.10104681352213267,0.10900617610365874,0.048676737005709333,0.6280480920797353,-0.010476805076128694,-0.06019720742754223,-0.028157949637145394]],"accuracy_validation":0.6037735849056604,"mse_training":0.976,"accuracy_training":0.512,"mse_validation":0.7924528301886793,"bias":-1.2017658099480075E-18},{"epoch":69,"weights":[[-0.2048046888517304,-0.0027500472778658274,-0.020496783297744143,-0.6213560695730049,-1.3810703330053917,0.045415807332184505,0.14273003207528112,-0.009231411169199425,0.04090060327249811,-0.12974962679978905,0.002712868191427554,0.09557142784554302,0.24898078453979466],[0.168727325336245,-0.0502404712107492,0.02889410803771325,0.3039401436577543,1.070524841914164,0.11180141792457823,0.11017825640748426,0.04299337020953949,0.11675251027475649,-0.3414495603731879,0.08297849965859416,0.11285477613921657,-0.16683706563667766],[0.18161843163721483,0.14804161339023372,0.1059990108312103,0.4605503955292965,0.5371659044249255,-0.0019396396452521234,-0.09879759715413225,0.10893397847703905,0.04953887972452712,0.622075058187843,-0.009788125651350085,-0.05801476915925568,0.02907248877860174]],"accuracy_validation":0.5660377358490566,"mse_training":1.12,"accuracy_training":0.44,"mse_validation":0.8679245283018868,"bias":-1.2144166201657485E-18},{"epoch":68,"weights":[[-0.20402449800542444,-0.002311791870391343,-0.020349108977400592,-0.615302755638903,-1.380537638675989,0.044975877744851435,0.14169211639770662,-0.009092411686582154,0.040639816930689424,-0.12761117554191934,0.0026821036301629443,0.09490778548971968,0.25692249973857606],[0.16812817339084515,-0.049232746195029126,0.028687392756590765,0.30079359045141457,1.0618748921140624,0.11068808696968614,0.10887442216416073,0.04297195534931797,0.11619458413664069,-0.3364037401004408,0.08228456795852142,0.11129442720022205,-0.17642155598846382],[0.18143739273630874,0.14659563296703923,0.10605805179198925,0.4576436348015346,0.545283159895625,-3.8637910302699173E-4,-0.09645584723323422,0.1088163938546433,0.050357592204451594,0.6148907866572264,-0.00906342939001271,-0.0557907778644378,0.030715263931606368]],"accuracy_validation":0.5660377358490566,"mse_training":1.072,"accuracy_training":0.464,"mse_validation":0.8679245283018868,"bias":-1.0679628235462037E-18},{"epoch":67,"weights":[[-0.20450476909794213,-0.002138025790336564,-0.0205335190866053,-0.6130575849566668,-1.3830875356481858,0.04420617728686331,0.14038816605037924,-0.009031156064862406,0.0403137244318798,-0.12646167916289505,0.0025919256740302684,0.09398350959823544,0.2575233864172209],[0.17069601088118666,-0.04747220379740023,0.02901420402862784,0.30209956168952723,1.075019793190662,0.11017095015679183,0.10786303407423511,0.042948337103433605,0.11606934773505206,-0.3299721206182206,0.08175512120613895,0.11059804689179714,-0.10284545487569871],[0.1793498263384849,0.14466132448935556,0.10591565062915687,0.4540924928811853,0.5346881557912228,9.004581678554169E-4,-0.09414050879598118,0.10877875647880791,0.050808921104849816,0.6073096707959825,-0.008443804681497611,-0.05417012166452869,-0.04346172385980368]],"accuracy_validation":0.5471698113207547,"mse_training":0.48,"accuracy_training":0.76,"mse_validation":0.9056603773584906,"bias":-1.026412405774166E-18},{"epoch":66,"weights":[[-0.20479674872055892,-0.0019501381843776673,-0.02068756879689124,-0.6105311976083527,-1.384375369933143,0.043496010039680344,0.13914681257175024,-0.008967015956883923,0.04001995922734535,-0.12524999320645094,0.0025176157440808073,0.09310411305947552,0.26624556868827876],[0.17302573604594051,-0.04575023095610764,0.02943187704474921,0.30523201014907786,1.0867035356158201,0.10968485650519166,0.10702328440615448,0.04297601521821517,0.11583759218990339,-0.324041541556955,0.0813327985491289,0.10989056190790288,-0.11080701731678098],[0.17731208079634786,0.142751464042104,0.1056520273233215,0.4484336570733206,0.5242922476510219,0.0020967190666385453,-0.09205940564927159,0.10868693825604785,0.0513344418545329,0.6001674057782728,-0.007947172094538052,-0.05258324014187453,-0.04422234368977948]],"accuracy_validation":0.5471698113207547,"mse_training":0.496,"accuracy_training":0.752,"mse_validation":0.9056603773584906,"bias":-1.0338899326292103E-18},{"epoch":65,"weights":[[-0.2041878203679262,-0.0016783822008637872,-0.0206054144059152,-0.6048252327891014,-1.3861871785574913,0.04299843315342244,0.13808793004787995,-0.008851326733703025,0.03963281851810036,-0.12362365328105317,0.002524183193062847,0.0924156459870909,0.2492772678101344],[0.17328259043057787,-0.04422376370181737,0.029518063259368954,0.3039531184353397,1.087729045743513,0.10867274675394878,0.10575416109688056,0.04297599748642456,0.11551295784337559,-0.3179807648683534,0.08059543032056365,0.108523191591071,-0.0942056921248996],[0.1764462980590778,0.14095324080429986,0.10548368671772572,0.44400658396780773,0.5250785461476779,0.0036064057041393124,-0.08973139981612743,0.10857126676465759,0.05204621691030567,0.5924802891642738,-0.007216371314954807,-0.050527402752658095,-0.04385536800351636]],"accuracy_validation":0.4716981132075472,"mse_training":0.528,"accuracy_training":0.736,"mse_validation":1.0566037735849056,"bias":-9.600823794516703E-19},{"epoch":64,"weights":[[-0.20317753913187553,-9.239192221138581E-4,-0.02052915069401765,-0.5996391275994465,-1.379499737086627,0.04240265438391028,0.136856401102266,-0.008718963829181725,0.03953719766757393,-0.12161402781614146,0.0025185750316318875,0.091782478080513,0.2655605301254798],[0.17478623822422418,-0.042805308477606434,0.029799702915163272,0.3052557058108351,1.0860998309229095,0.10816687303918725,0.1050391547642934,0.04299734775923467,0.11510687262359777,-0.3124003857354279,0.08009455661931501,0.10764169825959212,-0.11095834990027731],[0.17393236902938092,0.138780322601339,0.10512578335003385,0.4375178914026573,0.5200203194974171,0.004708058188413014,-0.08778486453792626,0.10841755358732613,0.052547922980609924,0.5848902845664359,-0.006709889452275184,-0.04901274151460131,-0.043385972543484114]],"accuracy_validation":0.5471698113207547,"mse_training":0.496,"accuracy_training":0.752,"mse_validation":0.9056603773584906,"bias":-1.0649659861679283E-18},{"epoch":63,"weights":[[-0.20330613551283253,-4.7660619776887807E-4,-0.02060998863682208,-0.5958712747536137,-1.387054747197987,0.041652000505857954,0.13561893232980404,-0.008626843378792557,0.039150525539472854,-0.12054936522990095,0.0024858656084080634,0.09100914307512686,0.25616428754019815],[0.17595543907478692,-0.04140847885046654,0.030009966176095984,0.3060477162058092,1.0909151670917534,0.10749644835680858,0.10403543272227744,0.0429999061640977,0.11488523289113341,-0.3065114801084152,0.07954561822217164,0.10655224283675789,-0.15407062394792354],[0.17289176455977517,0.13693617994985416,0.1049963580319056,0.43295802816185014,0.522759993439932,0.0061291367488440565,-0.08554367372344827,0.10832287473207398,0.053156234841175445,0.577936716353183,-0.006128241631907889,-0.04714995108638098,0.009122544089443775]],"accuracy_validation":0.6226415094339622,"mse_training":1.024,"accuracy_training":0.488,"mse_validation":0.7547169811320755,"bias":-1.0812239855984684E-18},{"epoch":62,"weights":[[-0.202407859560453,-7.220864208585783E-5,-0.02043586582315817,-0.589375353090872,-1.3857706797307356,0.041235252850785484,0.13468392531602255,-0.008488805467694155,0.0388721188595278,-0.11884749048640768,0.0024891741997103796,0.09041745659412677,0.25674789365341993],[0.17499167779010594,-0.040656334953908344,0.029786686024667972,0.303028056563965,1.088895151355152,0.10640012855924083,0.10263123062251046,0.04295295207988338,0.11456256047157175,-0.3020173951508473,0.07894399402539055,0.10509247580337927,-0.17944865664488097],[0.17295724989207667,0.13577963849761301,0.1050455153696697,0.42948176614095224,0.5234959417092825,0.007642204201484258,-0.08320446460989969,0.10823179090518992,0.05375731394068213,0.5717407566521219,-0.005529926026429159,-0.04509849757200227,0.0339169706731794]],"accuracy_validation":0.5660377358490566,"mse_training":1.072,"accuracy_training":0.464,"mse_validation":0.8679245283018868,"bias":-1.1297966442748213E-18},{"epoch":61,"weights":[[-0.2014013610439685,1.8692360158893196E-4,-0.020250578460592118,-0.5838864931289367,-1.3841016136094364,0.040771440555650455,0.13365280015154676,-0.008344332546716867,0.038459323786597235,-0.11660095125423442,0.002546457997505565,0.08985685809335149,0.25966645083339307],[0.1739865116406062,-0.039782523389552446,0.029435505803569628,0.29824965613533305,1.0842001040569451,0.10538246457968085,0.10137563497295507,0.04283210064484203,0.1143090313356053,-0.297643279374275,0.07825862821050043,0.10372772933211923,-0.18001671027244703],[0.17295591752509187,0.13464669468958237,0.105211408228202,0.4287713066076488,0.5265219228861903,0.009123680476179305,-0.0809177437958685,0.10820816941925401,0.05442363814957916,0.5651201016433764,-0.004901844009334191,-0.043173152599967,0.03156646712077227]],"accuracy_validation":0.6226415094339622,"mse_training":1.072,"accuracy_training":0.464,"mse_validation":0.7547169811320755,"bias":-1.1796726791717544E-18},{"epoch":60,"weights":[[-0.20160774275567528,2.061227241588738E-4,-0.020373569906465598,-0.5810463656495488,-1.3856352613311032,0.04017824465055983,0.1325423726067747,-0.008258823163082529,0.03819946468745302,-0.11502244655221426,0.0025047052740842035,0.0889837830426085,0.24306153384088788],[0.17629246685565864,-0.03803203250561934,0.029867485259875166,0.3007129938327706,1.0969030166320064,0.10501292863016441,0.10072620355548693,0.04284630666288447,0.1142084908997486,-0.29182206360649166,0.07776189546875419,0.10324542432858183,-0.09524903867952224],[0.1708563440217462,0.13287700468307934,0.10490242021776996,0.42346784143082356,0.515352658032796,0.010086412330786346,-0.07915788483362829,0.10810845401757725,0.05478403768458008,0.5577203811735734,-0.004363358544166586,-0.04181777254568665,-0.03659628747964737]],"accuracy_validation":0.4716981132075472,"mse_training":0.496,"accuracy_training":0.752,"mse_validation":1.0566037735849056,"bias":-1.2115743746307888E-18},{"epoch":59,"weights":[[-0.2010945650765954,7.895107390487918E-4,-0.02038645353673149,-0.5775074982932947,-1.3915038394278894,0.039498472038202066,0.1313781493143102,-0.008134739093680298,0.03790689722110425,-0.11341794121987273,0.002470801179873873,0.08829690155501965,0.25832845838330476],[0.1783449568625616,-0.03664290744896837,0.030109273210386252,0.3012862773771969,1.1129449613548144,0.104314907077622,0.09947267900788617,0.042838574065747384,0.11400618162822035,-0.28589970026662187,0.07731683204207337,0.1022741747568094,-0.11208577204018572],[0.16829067633576342,0.1309044916115385,0.1046735158975248,0.4193556905301431,0.5051792914067742,0.011464206495686522,-0.07674013699356293,0.10799210254531201,0.055278914422457144,0.5501935125013621,-0.0038843910232754515,-0.040159641486325386,-0.035026478661400864]],"accuracy_validation":0.5660377358490566,"mse_training":0.464,"accuracy_training":0.768,"mse_validation":0.8679245283018868,"bias":-1.2708456426016668E-18},{"epoch":58,"weights":[[-0.2005827054483859,0.0011904387598054185,-0.020285248452259416,-0.5717798845762792,-1.3932095615039626,0.03901251602068355,0.13029580319529438,-0.008002360623636679,0.03761125219235521,-0.11141526183544188,0.002422684984825685,0.08757032169076459,0.24889809859025985],[0.1795989383246591,-0.03507241529633033,0.030364026955061435,0.3024860346320146,1.118509547026897,0.10349047149557097,0.09830937808082649,0.04288590447592689,0.11370881837762258,-0.28031811235992893,0.07678373875358288,0.10109620246804792,-0.0940357920276432],[0.1665248352454564,0.12893307143814386,0.10431755706837753,0.4124283195583094,0.5013204278107656,0.012774598095256065,-0.07449448994748743,0.10781239366508893,0.055871922701803946,0.5426092452102385,-0.0033031815397367675,-0.03825508933330877,-0.04364609888089842]],"accuracy_validation":0.4716981132075472,"mse_training":0.512,"accuracy_training":0.744,"mse_validation":1.0566037735849056,"bias":-1.1882899821371033E-18},{"epoch":57,"weights":[[-0.19807479223370925,0.0018144145739347002,-0.019700074399679152,-0.5618156973004214,-1.38067953453058,0.03875551697276333,0.12919326914973642,-0.007761834308928914,0.037624058040457785,-0.10793636600518593,0.00249608823986646,0.08717674108634119,0.24337331189827602],[0.18143828838301979,-0.03351794503890826,0.03068304616570484,0.30335702747025806,1.1254581015154859,0.102711896342075,0.09726955849012646,0.04295200822889752,0.11314817953787332,-0.27423959639182566,0.07625235450668687,0.09994288671688256,-0.10936171050480833],[0.16217757197241903,0.12675462536659246,0.10341336380515385,0.4015931394442082,0.48184184634879546,0.013810172296672286,-0.07235213631122946,0.10750576359741046,0.05641975569345069,0.5330518334118792,-0.002845200547881459,-0.03670819297772006,-0.022795393711749323]],"accuracy_validation":0.5849056603773585,"mse_training":0.448,"accuracy_training":0.776,"mse_validation":0.8301886792452831,"bias":-1.021797436358897E-18},{"epoch":56,"weights":[[-0.19672707378223747,0.0024322015617559566,-0.019510292652721112,-0.5548465036758271,-1.3707950025687488,0.038244734831446706,0.12792371146328296,-0.007598028282993768,0.03743591954195811,-0.10582666439194664,0.002539205773139639,0.08643020310884648,0.24287609867632148],[0.17949765654309865,-0.03262968949938684,0.030331222809454255,0.2990620424344784,1.1049812035121969,0.10162535654215803,0.09615409779907469,0.04285769337497554,0.11257203918223387,-0.2698591278276355,0.07549283366121157,0.09841671579217091,-0.16141103581266492],[0.16277048536086833,0.12524858283924972,0.10357540541444643,0.3989189308553936,0.4924342123902525,0.015407494237905887,-0.06996711793372425,0.10743627242539723,0.05718403454758983,0.52656166323445,-0.0021287972356793935,-0.0344354840755137,0.029751144818061875]],"accuracy_validation":0.5660377358490566,"mse_training":1.12,"accuracy_training":0.44,"mse_validation":0.8679245283018868,"bias":-9.14720651214936E-19},{"epoch":55,"weights":[[-0.19514911597044682,0.0027962874214408936,-0.019183691094942033,-0.5473479141238896,-1.3717410965026962,0.03790154689146889,0.12683357615471424,-0.007401632850351579,0.03722708105914799,-0.10329405765995482,0.0026278759274375968,0.08577997823145284,0.24565294109526864],[0.1815479316963279,-0.031127043886405935,0.030690573512644374,0.29992649795379256,1.1202234448332418,0.10125370308764176,0.09552514783728129,0.042855812223897796,0.11245743863871624,-0.26399993945645084,0.07493525489700133,0.09750529187149905,-0.11076668113415573],[0.15914225239584842,0.12338185136658386,0.10288945315347726,0.3905558857841422,0.4781380650031551,0.01612233563239996,-0.068248032663362,0.10724175814383277,0.05750747357391754,0.5181698681312733,-0.001659888625767123,-0.03287383527744818,-0.02367005227939449]],"accuracy_validation":0.5660377358490566,"mse_training":0.448,"accuracy_training":0.776,"mse_validation":0.8679245283018868,"bias":-9.192543827150702E-19},{"epoch":54,"weights":[[-0.19330957903998605,0.003148832498302514,-0.018799639096767053,-0.5389153737302264,-1.364356055935606,0.037621664746099535,0.12568257833221086,-0.00716515679431514,0.037079667603717455,-0.10033884361927259,0.0026528944409641244,0.08503969066063587,0.2434982987268811],[0.18277547342715694,-0.029501931558955613,0.03085684185480278,0.30042628956051465,1.1223494040266344,0.10037184689222381,0.09428672571283515,0.0429239301455979,0.11209325804021222,-0.25836143837938436,0.07439360737410287,0.0962471328466635,-0.10882167967785471],[0.15607517373455868,0.12140419396227191,0.10233913281314388,0.3816235537837566,0.46862706524267167,0.017284073973187278,-0.06585861271641257,0.10693716416609624,0.05801906762785209,0.5095761530135247,-0.001143259616395226,-0.03087538868179571,-0.0234604113673081]],"accuracy_validation":0.5660377358490566,"mse_training":0.416,"accuracy_training":0.792,"mse_validation":0.8679245283018868,"bias":-9.023961999978717E-19},{"epoch":53,"weights":[[-0.19274785879644643,0.0035935536100905733,-0.018844092812292126,-0.5349104978527682,-1.3606236561001546,0.036912983048334826,0.1243020627588867,-0.0070695593123757585,0.036795713665681434,-0.09858860229376624,0.0026356342227911935,0.08431586257379198,0.24720497089910032],[0.18495287430098897,-0.027600601258036914,0.03132118867587851,0.3036249479612615,1.1240826150984062,0.09995407401909015,0.09353655861650752,0.043022093369567325,0.11181378105581218,-0.25204688659306423,0.07384522772630343,0.09530988462365521,-0.11233180862796477],[0.15333605261718705,0.11905814254956516,0.1019192397075932,0.37442001950555176,0.46316145433544814,0.018410528544085664,-0.06372793004676076,0.10674340346018743,0.05858249855028815,0.5015113599016979,-5.776197504228687E-4,-0.029214312371943548,-0.023656954589417425]],"accuracy_validation":0.5471698113207547,"mse_training":0.432,"accuracy_training":0.784,"mse_validation":0.9056603773584906,"bias":-9.341548849647518E-19},{"epoch":52,"weights":[[-0.19214856913111256,0.004072259408681222,-0.018879691976805557,-0.5308136065029273,-1.3564105874053884,0.03622027751308651,0.12293240343901568,-0.006973007491879163,0.03653472356858966,-0.09682221478131471,0.00261806769019675,0.08360537807753167,0.25350670215235704],[0.18727635469007692,-0.02567747050310414,0.03182233373044387,0.30705040639450676,1.1261781600053302,0.09952238227015914,0.09275341324189852,0.04313069019202831,0.11148571926474093,-0.24553262613319793,0.07329845354158543,0.09435608399551498,-0.11179382317145665],[0.15041328256276526,0.11665630599604172,0.10145369381754128,0.3668976697224657,0.4568528407337575,0.019534925828265028,-0.061575125352280734,0.10653825481722987,0.05917155043845118,0.4932307119293803,-1.3279033110360258E-5,-0.02755002724754304,-0.030496671299182335]],"accuracy_validation":0.5283018867924528,"mse_training":0.544,"accuracy_training":0.728,"mse_validation":0.9433962264150944,"bias":-8.542014485448353E-19},{"epoch":51,"weights":[[-0.19249469461778412,0.0043950263153670075,-0.018924783715710956,-0.527237881514218,-1.3544261252693919,0.035477924692266835,0.12160500672281362,-0.006882434429226193,0.03629068777340804,-0.09590737977656758,0.002561216858497648,0.08272984019459094,0.2434590750885599],[0.18972762506924648,-0.02375406938124091,0.03230173621776745,0.3108145761027044,1.1368668214790287,0.09905041761013988,0.09181800304809808,0.04317198462660433,0.11126744851204033,-0.23908928735446056,0.07279264228682479,0.09357892166551661,-0.10566745012513627],[0.14830813767026724,0.11441013796749272,0.10101938306912309,0.35955777502555836,0.4441797171240622,0.020749243309103972,-0.05931231844227817,0.10640638732000089,0.05963385698633345,0.4858725381458958,5.493830533493441E-4,-0.025897327034603942,-0.02657541728170565]],"accuracy_validation":0.4528301886792453,"mse_training":0.528,"accuracy_training":0.736,"mse_validation":1.0943396226415094,"bias":-8.80849681627315E-19},{"epoch":50,"weights":[[-0.19198130104685066,0.004753360754316311,-0.01882640163340034,-0.5216323483599793,-1.34932076625164,0.03494262098408144,0.12045040826007118,-0.006749198880552432,0.03609734444823023,-0.0943027119352772,0.0025504116529453656,0.08184399439834027,0.2506438441200095],[0.18802629884368618,-0.022830898030040864,0.032046111949202816,0.3067333855508198,1.1168471415272527,0.09789779177829709,0.09064750947942818,0.04305616702834458,0.11056487256105081,-0.23406192269830914,0.0719872697689749,0.09214187752226087,-0.18448805231830306],[0.1494960703248941,0.11312863217734341,0.10117662525537709,0.35803343242320407,0.4590940380580878,0.022437172849132162,-0.056987226410865795,0.10638896936958692,0.06052977626250079,0.47924050564845394,0.0013655607767514984,-0.023574437095097576,0.04506041588001166]],"accuracy_validation":0.5660377358490566,"mse_training":1.12,"accuracy_training":0.44,"mse_validation":0.8679245283018868,"bias":-8.838163270236828E-19},{"epoch":49,"weights":[[-0.1907530022786052,0.005384814573951297,-0.01864428517027606,-0.5147697049662168,-1.3403250848729453,0.03440258744200574,0.11914323748031216,-0.006584651267736388,0.03590186122629686,-0.09210738145600132,0.0025717494777502585,0.08106341720554992,0.2422250718340918],[0.1865452398394528,-0.021985420806317463,0.031752353294960414,0.30169410050497275,1.0976173295715335,0.09678469992805115,0.08959054385649876,0.042979037105186635,0.10992651909119959,-0.2288738612894161,0.0711654031152758,0.09064502341309418,-0.17743964370885584],[0.14974883056088203,0.11165170113398509,0.1012882674464952,0.3562100740752885,0.46932816863511173,0.024090298241453756,-0.05462309000817731,0.10630155167992882,0.06136361295428543,0.47185711376028516,0.0021660896056456993,-0.021297005793140582,0.04643077955648217]],"accuracy_validation":0.5283018867924528,"mse_training":1.136,"accuracy_training":0.432,"mse_validation":0.9433962264150944,"bias":-8.656305926658461E-19},{"epoch":48,"weights":[[-0.1903265447811157,0.005749518679770452,-0.018561290024652188,-0.5092370985042132,-1.3367284231459158,0.03383412154112198,0.11793650456872733,-0.006447484822357844,0.03566605099226862,-0.09048372985375132,0.002548737204710218,0.08013089136390082,0.2382902921176191],[0.18566166345055912,-0.02102702749036153,0.03156798665023419,0.29808838238663476,1.0854394180625495,0.09570578863668762,0.0884819312797048,0.04288949807213155,0.10940362054017538,-0.2235046366498398,0.0704127703072832,0.08938246956916647,-0.17510984696533574],[0.1502059494522862,0.11032860371221,0.1013896389455975,0.3542831857316227,0.47790941841706636,0.02573767543370107,-0.052307744519798555,0.10625392426760541,0.062122321739337925,0.46486423751845884,0.0029417346866783215,-0.019101926107563814,0.04803576252943485]],"accuracy_validation":0.5283018867924528,"mse_training":1.2,"accuracy_training":0.4,"mse_validation":0.9433962264150944,"bias":-8.481164095380419E-19},{"epoch":47,"weights":[[-0.1904839517980442,0.006071783403305944,-0.018572099175887948,-0.5054644887084024,-1.3333874340102254,0.033125496630402776,0.11665659771958724,-0.006352527840930049,0.03542923016065065,-0.08946091669252197,0.0025067946778603127,0.07929356072053109,0.24591076328312234],[0.18856003229648005,-0.019152607574030325,0.03206703407767446,0.3012560846242419,1.1008408903074118,0.09527255936546185,0.08768374708956643,0.042902500341987,0.1092870227658819,-0.21641744293900564,0.06986714681347365,0.08879163523908344,-0.10637894120074384],[0.14746498762329374,0.10813191907234333,0.10090140066939304,0.34734287369820505,0.45916695703651345,0.02687952961564605,-0.05022965348052012,0.10614596501632215,0.0624757403452494,0.4567542306463953,0.0035293007073377786,-0.01767376113411104,-0.028315614400660327]],"accuracy_validation":0.49056603773584906,"mse_training":0.544,"accuracy_training":0.728,"mse_validation":1.0188679245283019,"bias":-7.847757529250162E-19},{"epoch":46,"weights":[[-0.19095778683878592,0.006249413349648015,-0.018755712006237532,-0.5032058024481878,-1.3358802595312986,0.03235703184754976,0.11535367319357169,-0.006290844082730363,0.035106390965494894,-0.08830891974449474,0.0024167542400315226,0.07836978259535446,0.24635129183618493],[0.19151089753289738,-0.017448094098142786,0.032531700424588084,0.3043038144306836,1.1120956338326713,0.09467849785005424,0.08679563835612772,0.04294452166029426,0.1088898285771572,-0.20963564524616457,0.06942022209761298,0.08806687673583884,-0.11450367000467847],[0.14498795742761816,0.10624977565011379,0.10062034715282903,0.34203645763154855,0.4504050390323272,0.02824205591390666,-0.04803862022106589,0.10604225993981518,0.06319577372912986,0.4488204360055268,0.004066265861027243,-0.016025224505689765,-0.020631414149788252]],"accuracy_validation":0.5660377358490566,"mse_training":0.464,"accuracy_training":0.768,"mse_validation":0.8679245283018868,"bias":-7.599931622241048E-19},{"epoch":45,"weights":[[-0.19043541576809345,0.00664796851489447,-0.01865230863156833,-0.4974823437503056,-1.3374263046515207,0.03187205419793402,0.11427433432639945,-0.006158463709852639,0.03481444279723103,-0.08630262504339893,0.002369906860372127,0.07764849752449414,0.2383064387235878],[0.19283211184154295,-0.01588084748417189,0.032786576195019596,0.30558949171401245,1.118005983329588,0.09386742494265932,0.08562688470723327,0.0429957482020635,0.10861618368009036,-0.204072185273602,0.06889262372473268,0.08691400079774596,-0.09925746515350582],[0.14314437204828015,0.10428397387089638,0.10026206800772826,0.3350273216503375,0.4460407346556333,0.029538106470917307,-0.045790527704999154,0.10585865302516821,0.06376136679446057,0.44125068133186807,0.004640711613566947,-0.014151063496736543,-0.027832765888363545]],"accuracy_validation":0.4716981132075472,"mse_training":0.528,"accuracy_training":0.736,"mse_validation":1.0566037735849056,"bias":-6.60001406656243E-19},{"epoch":44,"weights":[[-0.1890895514016417,0.00714098935652643,-0.018431108436487258,-0.49047204997904537,-1.3352479410128781,0.03137869458807804,0.11309941032631961,-0.00599281666563284,0.03442652235683744,-0.08381865230004455,0.0023908021373491403,0.07692974848979059,0.23135525720545083],[0.18974906288343232,-0.015074807391437723,0.032154820370996415,0.29898859198735417,1.0969239835561533,0.09238921548500631,0.08404111850502428,0.042857789427799345,0.10808206161744349,-0.20034946396320988,0.06800147383303452,0.08507458750896152,-0.17707421513989563],[0.14488155663993907,0.1029849129365303,0.1006726236366704,0.3346179276057356,0.46494437079042517,0.03150967553842629,-0.0430298375027103,0.10583096475521253,0.06468340929750102,0.4350439872781212,0.005510966228288051,-0.011592901173248606,0.056935165616163186]],"accuracy_validation":0.5094339622641509,"mse_training":1.328,"accuracy_training":0.336,"mse_validation":0.9811320754716981,"bias":-5.815071306758131E-19},{"epoch":43,"weights":[[-0.18729304013410703,0.007981271633415313,-0.018082514920512348,-0.48225301759312106,-1.3304585364507537,0.03090221917569407,0.1119367577482329,-0.0057806322703103956,0.03415517320433168,-0.08089703205942857,0.0024008314488079088,0.07623842051868175,0.2333222863810887],[0.18822883636797172,-0.014324314408284937,0.03181227511564819,0.2945802210422986,1.0836502952695108,0.09135275977131081,0.08289023072005551,0.04276972647578788,0.10766109572013621,-0.19629904903370998,0.06732118554457511,0.08365187945239644,-0.1756864400709154],[0.14460527188786498,0.10139413767648861,0.10066657537604366,0.330807266164867,0.47342865451494437,0.033022606664505676,-0.040716297139654835,0.10570684331190155,0.06537572434731409,0.42807195210800525,0.006181225205288709,-0.009478865145574727,0.053580361371545114]],"accuracy_validation":0.5283018867924528,"mse_training":1.312,"accuracy_training":0.344,"mse_validation":0.9433962264150944,"bias":-6.127307467706045E-19},{"epoch":42,"weights":[[-0.1855383119217222,0.008823968540340135,-0.017737509047232685,-0.474075462054983,-1.3259840200192312,0.030416225858715347,0.1107626867371393,-0.0055685722245899,0.033881020737234625,-0.07795523946377443,0.0024042036447610086,0.07553606037114217,0.23274283703600004],[0.18662294413004873,-0.013583705273134012,0.03146196397227359,0.2900953939332449,1.0702141751984844,0.09030393296297103,0.08173382191577185,0.04267236631844355,0.10724717735520149,-0.1923657271360402,0.06663842148852937,0.08223196104432753,-0.1733574485056777],[0.14445643591340313,0.0998108316344129,0.1006718806461386,0.32711453773578275,0.4823902581544479,0.03455742678982413,-0.03838581732427754,0.10559214342352541,0.0660637951793459,0.4211968376146812,0.006860617065381338,-0.0073565865899663215,0.051830819151396035]],"accuracy_validation":0.5283018867924528,"mse_training":1.312,"accuracy_training":0.344,"mse_validation":0.9433962264150944,"bias":-5.726241227438936E-19},{"epoch":41,"weights":[[-0.18196381646728546,0.010271753697389769,-0.01711340023039549,-0.46295155645732455,-1.2991251747437695,0.030058606552434027,0.10919577764248263,-0.00526617970104706,0.034109099358871874,-0.07460374043404418,0.00249452425049558,0.07498494616089703,0.23446452739310825],[0.1890209044091956,-0.012178570828021157,0.03195350893248406,0.2925612828187758,1.0729004789607575,0.08988890915215647,0.08093924035118326,0.04274780061032885,0.10665750420779374,-0.18591090436602195,0.06614024716585272,0.08135365204593893,-0.1032135554998391],[0.1384839801798196,0.09695791203225046,0.09955622686909096,0.31352474325259355,0.45284510911671294,0.03533006990692,-0.03602432666503226,0.10521431660809735,0.06642538970511641,0.4113905158149328,0.007268470782323403,-0.005927163381332608,-0.020034764211550815]],"accuracy_validation":0.5660377358490566,"mse_training":0.416,"accuracy_training":0.792,"mse_validation":0.8679245283018868,"bias":-5.733100977865598E-19},{"epoch":40,"weights":[[-0.18055547313316683,0.010919558020087317,-0.016905369298097644,-0.45585131598079837,-1.2888478654983957,0.029547105917218444,0.10791281451395075,-0.005097431426480967,0.03392552635079692,-0.07235611714106742,0.002532087596205589,0.074237315325306,0.23427309923576303],[0.18738910275320184,-0.011295306346708086,0.03167306036818458,0.28885120009326454,1.0496973193084593,0.08873646571781126,0.07973024869773075,0.0427177424238709,0.10600044240641747,-0.18136765804669425,0.06541062065681008,0.07978134006127151,-0.1683397097538049],[0.13870743850169479,0.09542684322823983,0.0996286445010926,0.31013458550157863,0.46577095952363756,0.03699401397648079,-0.03353237188304779,0.10507562651998918,0.06726602451456767,0.4045996462026283,0.00796053394565601,-0.0036072205610741936,0.0452828181997602]],"accuracy_validation":0.5283018867924528,"mse_training":1.136,"accuracy_training":0.432,"mse_validation":0.9433962264150944,"bias":-6.470854051723737E-19},{"epoch":39,"weights":[[-0.17931668493529498,0.011393058254741049,-0.01670336841541669,-0.4490061217476238,-1.2873465198582792,0.029043426882589356,0.10673577831744101,-0.004936012901113677,0.03353384280081471,-0.06996235688694036,0.0025486540036531048,0.07350632362032884,0.22393145830112055],[0.18494215556568513,-0.010507482171602753,0.031020645381892867,0.2810743126349249,1.032851242441582,0.08729453910100693,0.07806980142466502,0.04256028769010326,0.10555353045313867,-0.17717332045693757,0.06455147302646506,0.07804735994300072,-0.16428179412317578],[0.13991559749133964,0.09416551881848079,0.10007905860470333,0.3110662787267436,0.48111569075039884,0.03893961962791423,-0.030694888413472347,0.10507166272838953,0.06810462001782872,0.3980115483587444,0.008803115168553494,-0.0011422487378262396,0.051566543503773495]],"accuracy_validation":0.5094339622641509,"mse_training":1.328,"accuracy_training":0.336,"mse_validation":0.9811320754716981,"bias":-6.626871122641758E-19},{"epoch":38,"weights":[[-0.17757914664064595,0.01223267179250719,-0.01636123181604042,-0.4408546059754024,-1.2830067565245813,0.028555123768193347,0.10556006117704471,-0.004724437457196425,0.033257903827836555,-0.06702972953244432,0.002550931929432765,0.07280126560003013,0.22245385935408732],[0.18335093494047733,-0.009766843938621006,0.03066765338431009,0.27657717247523905,1.019231717566052,0.086247501598502,0.07691520997483296,0.042465521866034084,0.10513476059233808,-0.17320210125736168,0.06386897055651052,0.07662487016797444,-0.16224541272540666],[0.1397692798218983,0.09258526704773289,0.1000899140029098,0.30741190311420813,0.49039545229223114,0.04047496024481514,-0.02836457982324402,0.10495485310854143,0.06879932885160744,0.3911077018046723,0.009483339712728339,9.852990574987126E-4,0.05100776105303753]],"accuracy_validation":0.5094339622641509,"mse_training":1.328,"accuracy_training":0.336,"mse_validation":0.9811320754716981,"bias":-6.247286973187233E-19},{"epoch":37,"weights":[[-0.1767136023308883,0.01271084395855729,-0.016244374879788026,-0.43476025211499086,-1.280263456091542,0.028056394502930817,0.10443409603309821,-0.004581012858024002,0.032946942362791005,-0.06522426252579736,0.0025833997552582575,0.07200245688472018,0.22944212975124834],[0.18264415471261458,-0.008643155167767664,0.030536151682183776,0.27346218539962486,1.0125767095707299,0.08509588790492281,0.07566490221283129,0.04240872419859009,0.10453374413803422,-0.16874632944348655,0.06314980514214759,0.07525369541521758,-0.1653951347215275],[0.1396105157400034,0.09098340611082947,0.10010455876878373,0.3044325363294108,0.4943071598545142,0.04212530320365687,-0.025988306917295843,0.10486822617681299,0.06971130677095687,0.38484646298415004,0.010170037301265769,0.003155282525565503,0.047169212651997305]],"accuracy_validation":0.5283018867924528,"mse_training":1.248,"accuracy_training":0.376,"mse_validation":0.9433962264150944,"bias":-6.193313445330028E-19},{"epoch":36,"weights":[[-0.17490723294456695,0.013249196050249306,-0.016066578996166477,-0.42862516110315085,-1.275594708666426,0.027889065490422537,0.10364006981875458,-0.004443056394217199,0.032841684925129074,-0.062776639663635,0.002687993391756819,0.07155477520187618,0.23659666973225346],[0.18098602148425683,-0.0079457698165972,0.03011105720714114,0.26749956584505624,0.9987484496997967,0.08386452746764067,0.07424230709130605,0.04225915969644656,0.1039825712823776,-0.1642422683389594,0.06234650922844241,0.0737351442516834,-0.1671336317726044],[0.13946227958203988,0.08974766866796705,0.10035185736020484,0.3042600648721392,0.5034666723003313,0.04352399265344731,-0.023771685581426994,0.10487983421514976,0.07036773706427539,0.37789477901746055,0.010868739578472411,0.005121515371943613,0.041753169722069036]],"accuracy_validation":0.5471698113207547,"mse_training":1.12,"accuracy_training":0.44,"mse_validation":0.9056603773584906,"bias":-5.858843775033844E-19},{"epoch":35,"weights":[[-0.17439489639588412,0.013570746377361383,-0.015976031979457163,-0.4230588213342082,-1.2710924139728432,0.027391737684779528,0.10255434557973732,-0.004321563534313183,0.03267844086334344,-0.06135476343706845,0.002701175187144161,0.07070618142161315,0.22763829820770498],[0.17976831357814235,-0.0069862810321505205,0.029878165993057752,0.26350175729246034,0.9835760034089118,0.08268669146026174,0.0729859920678829,0.04217722589305067,0.10336679566662994,-0.15873919398770672,0.061526165706629554,0.07234651281087415,-0.16554842430217542],[0.14016765093947156,0.08846662955640829,0.10049420155757896,0.3026915336557925,0.5141368238976325,0.04519915646646921,-0.021429646318986542,0.1048402751586416,0.07114675674180872,0.37096982843964116,0.011675901304897932,0.007358740593015883,0.049126333776188386]],"accuracy_validation":0.5283018867924528,"mse_training":1.312,"accuracy_training":0.344,"mse_validation":0.9433962264150944,"bias":-5.246126258282595E-19},{"epoch":34,"weights":[[-0.17310501168119483,0.01405415717438611,-0.015764836645077974,-0.41613537075497964,-1.2692803855984864,0.026893058469851093,0.10137841103027581,-0.004158142993625226,0.03228818152418187,-0.05891738207008158,0.002719699697178964,0.06998116470391588,0.21893548282116243],[0.17748302960947013,-0.006188754367070754,0.02927108689761931,0.256139768030606,0.9673323084420526,0.08131768159844559,0.07143683763195557,0.04202423047051649,0.1029511584880911,-0.15446662463674118,0.06065779211810773,0.07066224699678336,-0.15286544541476862],[0.1411630501934546,0.08718569209430382,0.10089008531863823,0.3031300723384184,0.5285684904901344,0.04706684554321378,-0.018704557333597743,0.10482985004048785,0.0719526532595091,0.3642598777216884,0.012525750383384951,0.009768023124803916,0.04514617027532422]],"accuracy_validation":0.5094339622641509,"mse_training":1.328,"accuracy_training":0.336,"mse_validation":0.9811320754716981,"bias":-5.382177302026566E-19},{"epoch":33,"weights":[[-0.17151802252565035,0.014983439195528947,-0.01548404741519752,-0.40826837736469,-1.2582673973624077,0.026372242552963776,0.10010507718537562,-0.003954803730700225,0.032203530748815656,-0.05650463401044824,0.0027400743077501894,0.06922994748590829,0.21818517278746336],[0.17636469546878025,-0.005488814230899552,0.02901945869121599,0.2522821054506128,0.9491317998338478,0.08035097614943613,0.07044060644199285,0.04194961497863416,0.10237128802015852,-0.14985018209166773,0.059995311635904915,0.06934782836656014,-0.14263398476628347],[0.14069439517859986,0.08555646993698975,0.10086092429516119,0.2991207415281219,0.5357560108622602,0.04855436690911061,-0.016434992298734828,0.10470112626944524,0.07261717450280787,0.35723068711698147,0.013167856255016541,0.0118336589730347,0.03566501966053818]],"accuracy_validation":0.5283018867924528,"mse_training":1.264,"accuracy_training":0.368,"mse_validation":0.9433962264150944,"bias":-4.754516587017244E-19},{"epoch":32,"weights":[[-0.17034867634831657,0.015279295839251078,-0.01544932627389855,-0.40341654731853177,-1.2546468104797495,0.02624998261163184,0.09947549203883578,-0.003875603907601898,0.03208683898406761,-0.05509082803443797,0.002866057606684861,0.06882024897865344,0.2363738737927713],[0.17615308257787426,-0.004590326368248328,0.029099415696371905,0.25069862494654244,0.9481329838437621,0.07932116468285139,0.06920706626836409,0.04198489240617646,0.10166913324685974,-0.14488751912625059,0.059385165815977976,0.06801307413478011,-0.15203931315828573],[0.13973666189217213,0.08436212543061634,0.1007462461487063,0.29585239198603397,0.5331342399696878,0.04970643831702732,-0.014571866978566241,0.10458664901880459,0.07343602104085471,0.35085421817555384,0.01365201877600877,0.013578111712069558,0.026881647047232768]],"accuracy_validation":0.6226415094339622,"mse_training":1.072,"accuracy_training":0.464,"mse_validation":0.7547169811320755,"bias":-3.383023406243387E-19},{"epoch":31,"weights":[[-0.16832108610970528,0.015437985690887793,-0.015158212706421762,-0.39637051902770365,-1.2438332938572658,0.026025980841958292,0.09839817327008,-0.0036629205585134825,0.032044539300362544,-0.052786657155442715,0.0029780837787710263,0.06814862204526688,0.22330666652555586],[0.17820569443677026,-0.0029415680170461578,0.029441550494946567,0.2526866693156992,0.9596823592730688,0.078782748618122,0.06834132117087796,0.04197143821325876,0.10153435079139216,-0.13861236008399258,0.05879380080149278,0.0673646153188647,-0.08119530911213987],[0.1356564597946648,0.08255467722777754,0.1001129977826549,0.2868183193260493,0.5107713479178971,0.05046885615143025,-0.012628803112324359,0.10438741986263385,0.07361310318002738,0.34227488825430047,0.01413135761840781,0.01489819746137154,-0.030895149731697658]],"accuracy_validation":0.4716981132075472,"mse_training":0.528,"accuracy_training":0.736,"mse_validation":1.0566037735849056,"bias":-3.137841809624325E-19},{"epoch":30,"weights":[[-0.1655602293446466,0.016202771560898492,-0.014751787281926922,-0.3876311947354577,-1.2321003862713256,0.026010248758590628,0.09753495997429455,-0.0034149237328522093,0.03222445796488897,-0.050089558160660734,0.003120129266160584,0.06769779311521397,0.21335777102819425],[0.17629984973731536,-0.002592658438102322,0.02918028695234741,0.2478531724928916,0.9452706253340124,0.07756633520704619,0.06703362352321716,0.04188105985397505,0.10070773832007203,-0.13398235123311045,0.05805211794744388,0.06585586980636154,-0.1563141672431117],[0.13480144772906102,0.08144098177882303,0.09996783590075922,0.2829124918566112,0.5134501742710131,0.05170100164587368,-0.010457892168878085,0.10422980139625634,0.07425979698682113,0.33494778040863626,0.01473099498506712,0.016857771903927645,0.05417260389663593]],"accuracy_validation":0.4716981132075472,"mse_training":1.376,"accuracy_training":0.312,"mse_validation":1.0566037735849056,"bias":-2.536914745602256E-19},{"epoch":29,"weights":[[-0.1614577302668504,0.017493224136736908,-0.014019179554040036,-0.37488198185345634,-1.2106044215184484,0.025931505827652065,0.09632866579603136,-0.0030872666496896267,0.032413327886194665,-0.04709411156355382,0.003361798956557018,0.06722289091593833,0.20989676523686918],[0.17572983861772604,-0.001997706031712439,0.029079547883600412,0.24473352486861988,0.9402897112616755,0.07651182198488089,0.06584527608487806,0.041836912702942285,0.10004747483247783,-0.128911621607573,0.05740447998781917,0.06452542418030227,-0.15534629464680613],[0.1312689597708542,0.07955557679659471,0.09933596724161932,0.2732829265988814,0.49693512359047254,0.05283425779897749,-0.008063250552275757,0.10394629146412651,0.07473119055310963,0.3268816041859917,0.015136963254295404,0.018663119729262552,0.056665737091655316]],"accuracy_validation":0.4716981132075472,"mse_training":1.376,"accuracy_training":0.312,"mse_validation":1.0566037735849056,"bias":-3.130441179342845E-19},{"epoch":28,"weights":[[-0.16100680122010208,0.01812771878333982,-0.0139739704740249,-0.37007337567136034,-1.2072480827559795,0.02539686137445652,0.09519810614962687,-0.0029848218504802027,0.03223723984475325,-0.04584948480799308,0.0033695407165579097,0.0665872941763963,0.22607346990982818],[0.1782168498814875,-2.511381171849572E-4,0.02956817333428446,0.24619207445164465,0.9533679602921614,0.07591894410594681,0.06487175835970495,0.04185691377250857,0.0996909853188936,-0.12166668482508228,0.05676656810229802,0.06362295032971269,-0.08464154847444642],[0.12833101946034442,0.07717451423546434,0.09880213271092014,0.2670157708337608,0.4805005357975181,0.05396178013110718,-0.005959173180698192,0.10382384559535085,0.07526376810813525,0.3183920406479403,0.015767133379815647,0.020201190319394192,-0.030215713753663373]],"accuracy_validation":0.4716981132075472,"mse_training":0.544,"accuracy_training":0.728,"mse_validation":1.0566037735849056,"bias":-2.4558375757785626E-19},{"epoch":27,"weights":[[-0.16088292383464103,0.018407024329681623,-0.013913713084577176,-0.36553475960361304,-1.2102911643763916,0.0246826877167352,0.09391610373865152,-0.002877370591234935,0.03180216685590776,-0.044715253329556844,0.003375409604110692,0.06583614397636911,0.22890252202112915],[0.18050880880298092,0.0015485702290085398,0.029945959517584178,0.24769939488156173,0.9604148773747213,0.07528737661802166,0.06371045571030307,0.04197232398135025,0.09914024002160506,-0.1148026135679629,0.05621096530262611,0.06248139734497755,-0.08757577538127971],[0.12591518315339006,0.075095500342929,0.09836408913817271,0.2609698343360966,0.47649670033537006,0.05530752127675363,-0.0035158681203209413,0.10360098412726396,0.07624958639426921,0.3103937379123845,0.01631686729193475,0.022093893504156473,-0.03011053895813122]],"accuracy_validation":0.49056603773584906,"mse_training":0.56,"accuracy_training":0.72,"mse_validation":1.0188679245283019,"bias":-2.9762278817026564E-19},{"epoch":26,"weights":[[-0.15936185544520673,0.018851055780900985,-0.013793275857905735,-0.3598445117356247,-1.207839782195153,0.024496360075133554,0.09314292145525872,-0.0027543764514317425,0.03167978984685216,-0.0426001798858879,0.003482490920038976,0.06539408097950855,0.22585563445911644],[0.1790831369384652,0.002367427631467833,0.029739657247882433,0.2444352242116577,0.9455721720480165,0.07415314948496764,0.06242438087857868,0.041963883499183396,0.09843937946421044,-0.11045437487589478,0.05550497854920728,0.06089469711351436,-0.15366546209720164],[0.12581978662847149,0.07383261148925031,0.09844995418120299,0.2585437571380124,0.48888802348083604,0.05662807605140932,-0.001456611005203768,0.10348643046962759,0.0770728239607194,0.30393042577664736,0.016915772729425273,0.02412265673248023,0.039026035319803504]],"accuracy_validation":0.5660377358490566,"mse_training":1.12,"accuracy_training":0.44,"mse_validation":0.8679245283018868,"bias":-3.1397792122737938E-19},{"epoch":25,"weights":[[-0.157933617834296,0.019314445709238483,-0.013687460573464575,-0.35422051260965864,-1.2057747319534753,0.024296522239104144,0.09235210794445455,-0.002633019169743306,0.03156328073530866,-0.04050728200357923,0.003575752168352123,0.06493104880437693,0.22119520816470856],[0.17744257273440628,0.0029741160158354525,0.029386270473189206,0.2391123370988861,0.9359622157882368,0.07296100174796574,0.06119451467383657,0.041859991001653454,0.09787008788864171,-0.10575709281248469,0.05472131481827835,0.05945868648289548,-0.14891577380923224],[0.1260321132216197,0.07276253317654524,0.09869752567145507,0.2582426451248181,0.4964329294989382,0.05802006162444062,5.640687103424771E-4,0.10346896568546918,0.07775862464783158,0.2971402458309286,0.01760617521204104,0.026021699538230733,0.03893677332624202]],"accuracy_validation":0.5471698113207547,"mse_training":1.12,"accuracy_training":0.44,"mse_validation":0.9056603773584906,"bias":-3.961348834444528E-19},{"epoch":24,"weights":[[-0.15616355301029958,0.01994247702817311,-0.013441486223695329,-0.3470309250423041,-1.1911746899340998,0.0238005444219436,0.09106210507989108,-0.0024630270979284124,0.031619292659945765,-0.03771810986077201,0.0036247449795186668,0.06428904341018123,0.2635066749538213],[0.17826087356886208,0.004818537947923937,0.02948296017852675,0.23854141563414605,0.9295883213415855,0.07220685946183432,0.05999264420608107,0.041818800866968625,0.09732629495123675,-0.09889748424827374,0.05393746755924206,0.0581272377497421,-0.12723675200044193],[0.12344374756316763,0.07029007992552219,0.09835486161634832,0.25162397902220357,0.48820678192621414,0.05927018172773255,0.003055942042661407,0.1033401637483391,0.07824640566059943,0.2874914651239104,0.018341029659910756,0.02799515366557982,-0.02505371527166085]],"accuracy_validation":0.5660377358490566,"mse_training":1.008,"accuracy_training":0.496,"mse_validation":0.8679245283018868,"bias":-2.7423595566487847E-19},{"epoch":23,"weights":[[-0.1560977373297035,0.02008957278746571,-0.013412830620177079,-0.3416617821029003,-1.1912496169450653,0.023166369450386876,0.08987507779739329,-0.002340555547671311,0.031262980179044754,-0.03660465189933206,0.0035968718809451334,0.06333906819939897,0.2109817944900062],[0.17728365824603728,0.005907543393617052,0.029269607143162915,0.23503356773420492,0.9148512575124106,0.07105013343754672,0.05871706912259148,0.04178114763946311,0.09684672129286272,-0.09317431406857071,0.05321821541289009,0.05675969826180442,-0.14400844573735874],[0.12435514720539624,0.06905397872053652,0.0985395590481939,0.24976268398274107,0.5030187727663548,0.061061082723576895,0.005518544408648713,0.10325534542558751,0.0790822917998745,0.28065483698276716,0.01908815490483623,0.030312668364299782,0.04424285892907123]],"accuracy_validation":0.5283018867924528,"mse_training":1.312,"accuracy_training":0.344,"mse_validation":0.9433962264150944,"bias":-2.0762356445103987E-19},{"epoch":22,"weights":[[-0.15446509069241135,0.020666271693834,-0.0132533389251668,-0.33554970642904325,-1.1799104628760855,0.022770889949301175,0.08867231982566269,-0.0022021063358615882,0.03129912211555935,-0.033354645338325016,0.0035931274620364683,0.06266849846290107,0.2593049842590783],[0.17900874168076525,0.008048650921823029,0.029669668344699557,0.23695603260783035,0.9157398133376936,0.07021865854015641,0.05749736488021428,0.0418228715479361,0.09615156233437956,-0.08701427300713264,0.0525652337005874,0.05551744446630064,-0.12680341594265393],[0.12099741713337626,0.06633617228596221,0.09798000615164695,0.24172814343525878,0.49079106287209184,0.0622880371220529,0.007941006622756503,0.10307517230530475,0.07974130882184301,0.27124478936032204,0.019744881036047584,0.03222549189630147,-0.021285360634705527]],"accuracy_validation":0.5849056603773585,"mse_training":1.008,"accuracy_training":0.496,"mse_validation":0.8301886792452831,"bias":-1.7305167500461504E-19},{"epoch":21,"weights":[[-0.15232081232156544,0.02107586143508392,-0.012977125680202707,-0.3278782205589567,-1.17236540407085,0.022614077780741423,0.0878205859355691,-0.0020105780331616686,0.03113862895293017,-0.031582373571213546,0.0037210656993346327,0.06228181858212292,0.20313237499335646],[0.17700601631811833,0.008680558333576904,0.029341909835645896,0.2311438213843441,0.8992917418988572,0.06896638719408288,0.05607377189128925,0.041767261317490596,0.09535598622194448,-0.0819449084061724,0.05180352415230165,0.05384224050803334,-0.14329995559228198],[0.12085586412517726,0.06529467513295843,0.09803155141573652,0.2398688687886588,0.49969407550569345,0.06369712063668621,0.010216333501775149,0.10293925423305034,0.08069737809690732,0.26440315299225015,0.02037865234703514,0.0342873757353469,0.05138378828064431]],"accuracy_validation":0.4716981132075472,"mse_training":1.36,"accuracy_training":0.32,"mse_validation":1.0566037735849056,"bias":-2.3558529995522147E-19},{"epoch":20,"weights":[[-0.1482541188627787,0.02183453236315272,-0.012300252680638037,-0.3165180447792523,-1.147119817208748,0.022563273478100665,0.08654390432960461,-0.0017065083461469534,0.03129883871299675,-0.027657353760859982,0.003939962700767157,0.06178808543957514,0.20065959096656216],[0.17538543873038503,0.009681603672573017,0.029101997873878658,0.22647755833762803,0.8814802977973143,0.06778878221758426,0.055047502781505296,0.041658850513874156,0.09462019468503503,-0.07715583546615302,0.05093029245441968,0.052449541690405534,-0.14636914659622324],[0.11840974825412375,0.0635349588658935,0.09759459037793905,0.2331749560556704,0.4922599327451344,0.06492552991582558,0.012519284217523569,0.10274359534965215,0.08127295987375022,0.2556890602418772,0.02103298704348459,0.036173807695522475,0.056925763311379954]],"accuracy_validation":0.4716981132075472,"mse_training":1.376,"accuracy_training":0.312,"mse_validation":1.0566037735849056,"bias":-1.5597571582673098E-19},{"epoch":19,"weights":[[-0.14636689961104285,0.02273800736765856,-0.01206505095438933,-0.30976625055098544,-1.13792390666066,0.022221032315437064,0.08553512416238511,-0.0015232263232964878,0.031256466668534745,-0.025291506902472588,0.004034819269283233,0.06125198436351884,0.2011053850520391],[0.17457976466551287,0.01042629691253074,0.028950072535889267,0.22354744777355676,0.8657250118853586,0.06697578308695218,0.05419131748636239,0.041587607226574,0.0940667638808468,-0.0723034094858455,0.05023377532129931,0.05125905542431746,-0.13697926657680956],[0.11732820306725998,0.06188679062142998,0.09751131398967976,0.22935327239147488,0.4988193081090024,0.0660807702091213,0.014384249679885955,0.10263155661410184,0.08186876272240047,0.2484707874031824,0.021634647608088864,0.03790039503766683,0.047090089206489494]],"accuracy_validation":0.5094339622641509,"mse_training":1.328,"accuracy_training":0.336,"mse_validation":0.9811320754716981,"bias":-1.345194155482117E-19},{"epoch":18,"weights":[[-0.14196936600525406,0.023540066185054068,-0.01132307403017099,-0.2978175490982536,-1.11417535999836,0.02227244700883557,0.08449433705618961,-0.0012148100389831203,0.03132471016743096,-0.0214329499366984,0.00427084536289068,0.06092692745380345,0.19486761218541065],[0.17215666732020757,0.011223486489919353,0.028506888450943305,0.2167208072863818,0.8442815767515636,0.06558907805568288,0.05280537842748901,0.041494821398273735,0.09325660439797477,-0.06753555527643527,0.04934377958025321,0.04951372460582959,-0.1418536249161182],[0.11535376680677632,0.060287542226645854,0.09721252115040745,0.224231211425918,0.49651419658049695,0.06741606054699209,0.016810975844954824,0.10241592615808874,0.08261067870637626,0.23984437622799812,0.02228861725552753,0.0399707827658701,0.05820222041242656]],"accuracy_validation":0.4528301886792453,"mse_training":1.424,"accuracy_training":0.288,"mse_validation":1.0943396226415094,"bias":-2.0420218127215862E-19},{"epoch":17,"weights":[[-0.13928989524289645,0.024551914544446173,-0.010976444794561925,-0.2893799608334761,-1.0952089249022383,0.022087253947157454,0.08346665631687242,-9.682791715062632E-4,0.031477198087340355,-0.018927443732312255,0.004472188771896028,0.0604296759771618,0.19770257352448],[0.17104878779703503,0.01164730773293998,0.02830322866341249,0.21248386054307333,0.8247231762878185,0.06454875506796623,0.051936608909044744,0.04138724767134654,0.09247075643418855,-0.06247026419723774,0.04863727651364869,0.04823027539722221,-0.13783207749769563],[0.11378217556759117,0.05885187262423312,0.09706955170232924,0.220030569904449,0.4971061619481207,0.06864157659638688,0.018707426102716265,0.1022769690175391,0.08324403875025303,0.23227357894441464,0.022793776913126684,0.04175148345111915,0.05134571165493476]],"accuracy_validation":0.49056603773584906,"mse_training":1.36,"accuracy_training":0.32,"mse_validation":1.0188679245283019,"bias":-1.828394128261044E-19},{"epoch":16,"weights":[[-0.13507771556722645,0.025481590481526623,-0.01026879495139385,-0.27777650408952953,-1.0677958934881626,0.02201220580535319,0.08225003468366847,-6.623441519644827E-4,0.0315197923550805,-0.01576184944716964,0.004722407165375039,0.06004526011076447,0.18736320372401732],[0.1717521711975886,0.013198696842936493,0.02853117974993617,0.21202780435290883,0.8223488271784324,0.06387844397839651,0.05123345632579308,0.04135046406655106,0.09220486626024574,-0.056230231817035375,0.04788604390912688,0.04731039260631456,-0.047906507603975676],[0.10886661249136764,0.05637080757715615,0.09613395077263749,0.20888316935066703,0.4720674796434321,0.06938693582776087,0.020627200319171864,0.10200781760279283,0.08346733465645567,0.22286795227906972,0.023294791124169493,0.04305578210842411,-0.02824048843832233]],"accuracy_validation":0.5094339622641509,"mse_training":0.576,"accuracy_training":0.712,"mse_validation":0.9811320754716981,"bias":-2.13545577738622E-19},{"epoch":15,"weights":[[-0.1293586977252244,0.026938231096664177,-0.009159461848800994,-0.26184129548795726,-1.0263615392148,0.021938125245634762,0.08094556152619142,-2.2521268784205244E-4,0.031838875016797094,-0.011332527855343569,0.004950166258741085,0.059699283730807545,0.18289047324790034],[0.1677462217904688,0.013213300977151168,0.027817173682717487,0.20369025961495954,0.7840562588211492,0.06245745229474772,0.049910804659022236,0.041178263946370024,0.0911453607215886,-0.05202479796819216,0.04700188273024997,0.045345565253291614,-0.13523406419852607],[0.10715354405648529,0.054899562827803915,0.09573862373726326,0.20128550548704388,0.4689256937273518,0.07088200807112807,0.023254325143419716,0.10174288625885142,0.08420775753339621,0.21423319683840064,0.02395119320968038,0.04536658584140399,0.06355979863234514]],"accuracy_validation":0.4339622641509434,"mse_training":1.504,"accuracy_training":0.248,"mse_validation":1.1320754716981132,"bias":-2.824553189880214E-19},{"epoch":14,"weights":[[-0.12320509044683146,0.028615049030822428,-0.008151746849225934,-0.24718597830507896,-0.9802840674973542,0.022099188615140916,0.07984076943386945,1.7491541097488942E-4,0.03230856635542094,-0.007396121047524391,0.005242012185382087,0.05975437557987937,0.1834038579039169],[0.1653955595865135,0.013947552507821481,0.02746045448815892,0.19679785049715073,0.7568664593909926,0.06142459517550352,0.048734512500713374,0.041072925888953164,0.08995890290401018,-0.04719947419268197,0.046240973915391434,0.043555275432320455,-0.13263710560982164],[0.10335059898204772,0.05248849336297536,0.09508762793224673,0.19352259742197447,0.45003802144006266,0.07175380182086614,0.025535409394050496,0.1014480962174514,0.0849245240123508,0.2054714662550712,0.024420256097897913,0.04710178381330332,0.060449455387624335]],"accuracy_validation":0.4716981132075472,"mse_training":1.424,"accuracy_training":0.288,"mse_validation":1.0566037735849056,"bias":-1.6679127804437343E-19},{"epoch":13,"weights":[[-0.11839015197804656,0.029542268315943494,-0.007190574567402009,-0.23207702375526393,-0.9390295788979253,0.022153680732017737,0.07864132814230997,5.688359900584193E-4,0.032709840635084954,-0.004432608175326723,0.005567294490807492,0.05954643315105908,0.17077143318421822],[0.16802271084042933,0.01574545728909887,0.027781700497491995,0.19697942171481575,0.761287476777259,0.06081264723535625,0.04768722319192022,0.041055578904738224,0.08954742591470685,-0.04028895360374531,0.04570179842558225,0.04269823952397523,-0.03297949234232492],[0.0959085092593469,0.0497633692965769,0.09380520964108971,0.17823207165449442,0.40436251545436763,0.07231125764413661,0.027782139994403116,0.10107152262258286,0.08493472672199014,0.19559743279393701,0.024634149282281664,0.04816676215046884,-0.026575733160173726]],"accuracy_validation":0.5094339622641509,"mse_training":0.576,"accuracy_training":0.712,"mse_validation":0.9811320754716981,"bias":-2.0931010690291257E-19},{"epoch":12,"weights":[[-0.11250233166441026,0.030917548712932928,-0.006045952761008412,-0.21724522055484694,-0.9000674149489385,0.02230304590817022,0.07777861286709539,9.451859274063156E-4,0.03310286129198595,7.50670009627367E-4,0.005825326352878698,0.0596298324536668,0.16866457160297693],[0.16663142563697492,0.016693501203461778,0.027513174899930277,0.19356664922966738,0.7483471594097709,0.05968282846068191,0.0462313601079103,0.04102637543263562,0.08892522534698133,-0.03634670491843297,0.04508589769578749,0.041089415179134316,-0.12629620575457484],[0.09141197414916494,0.04744004498522455,0.09292911343225779,0.16681304093922578,0.3783406688728687,0.07329171124265849,0.030100718353627525,0.10072437615733758,0.08516390663281462,0.1864719059236707,0.02499201815000523,0.049692187192702054,0.06884784183331748]],"accuracy_validation":0.4339622641509434,"mse_training":1.52,"accuracy_training":0.24,"mse_validation":1.1320754716981132,"bias":-1.8872829235211536E-19},{"epoch":11,"weights":[[-0.10988227895541959,0.031551857412150774,-0.005762632394215287,-0.20954967587236567,-0.8857364166283812,0.022193618358571802,0.07680850578035733,0.0011130698486370182,0.03314613735234956,0.004183489775000519,0.0059221274577675835,0.05931380020176421,0.1731510627448345],[0.1637019457316345,0.0172828577753517,0.027039212954329813,0.18559037071674253,0.721176447411841,0.058351933936931034,0.04507069863790539,0.04091126979972215,0.08794970902697608,-0.032387223645173206,0.044241480742697965,0.03930081401168912,-0.11863036159175241],[0.09172140134551458,0.046216379714116775,0.09311975501106516,0.16709377476966922,0.39118038255024123,0.07473203331600779,0.03223148691037043,0.10067159786902038,0.08609614689245629,0.17907960488503802,0.025739633998205856,0.05179682061204986,0.05669550652863761]],"accuracy_validation":0.49056603773584906,"mse_training":1.36,"accuracy_training":0.32,"mse_validation":1.0188679245283019,"bias":-1.3462792720869784E-19},{"epoch":10,"weights":[[-0.10538055755095621,0.032665749285605526,-0.005099763807739734,-0.19771308236921667,-0.8600513448881669,0.022330725868923006,0.07629977889599865,0.001403225789452723,0.03344749626724217,0.007009989848883425,0.006211903266412826,0.05939647748826086,0.16897828271692805],[0.15886802569785105,0.01720434431779565,0.026147952999521096,0.17307447033596957,0.6829804869153252,0.05672487510721983,0.04337923620936997,0.04069204145687793,0.08660314599518892,-0.027459368203511386,0.043197305501887155,0.03692174126070998,-0.11142549859333417],[0.09205359997483466,0.045181001298218074,0.09334814637939831,0.1677730816472932,0.40369127130654264,0.07622198463536778,0.03443167622326455,0.10060067027104892,0.08714135100935085,0.17132524936949342,0.026494033430371402,0.054093216076532356,0.05366342355812584]],"accuracy_validation":0.49056603773584906,"mse_training":1.36,"accuracy_training":0.32,"mse_validation":1.0188679245283019,"bias":-3.893714738946579E-20},{"epoch":9,"weights":[[-0.10004534288371121,0.03422035021890215,-0.004145218083418638,-0.18241042305392888,-0.8192453725458894,0.02247307053577834,0.07564992861335504,0.0017557475111100798,0.033955108176503906,0.00940977268431376,0.006591486447552207,0.05948131888207745,0.17042986007558253],[0.1550753620922958,0.017367943024415886,0.02541047127506827,0.1623255858869335,0.6447520318178658,0.05529627741804469,0.04200100952292746,0.040478446146722885,0.0854214188522937,-0.02165307875112267,0.04210577710017833,0.034946890994202805,-0.052356679794165153],[0.09051104891314472,0.04346280165830123,0.09313108237953004,0.16321930678104143,0.401113754061725,0.07750823765768755,0.036459753192350584,0.10046174385954663,0.08781546624298434,0.1631191770816744,0.027205978650940835,0.05598322494922294,-0.0068569725996977275]],"accuracy_validation":0.6415094339622641,"mse_training":0.624,"accuracy_training":0.688,"mse_validation":0.7169811320754716,"bias":5.490388719562256E-20},{"epoch":8,"weights":[[-0.09393724114014045,0.03545632088147848,-0.0030674895674391513,-0.16725209707682623,-0.7817195103682641,0.022955105319316996,0.07531999379005178,0.002140171396112178,0.034624617385595184,0.012441516878717996,0.006979940710218267,0.05970768437067148,0.1468619286038943],[0.15070620984938293,0.01798435961627844,0.024482632120463997,0.15100797981247496,0.606285314491076,0.05320361529073229,0.039497784903557216,0.040221759432577935,0.08397198590958994,-0.015858758579085638,0.04103466371599921,0.03244091572619887,-0.049072589102978244],[0.08877209941248687,0.04161041440386233,0.09298119301815486,0.1593785868783973,0.4020546092108898,0.0791188650014612,0.03929291263502408,0.10033400668868954,0.08859538997659687,0.15429311271523322,0.02788863777245388,0.058262834728632834,0.0134268681808036]],"accuracy_validation":0.6037735849056604,"mse_training":1.056,"accuracy_training":0.472,"mse_validation":0.7924528301886793,"bias":1.1398161407787438E-19},{"epoch":7,"weights":[[-0.08844236805924449,0.037166767090586535,-0.0023319189878757696,-0.1544123326943183,-0.7467912196640204,0.02308585839578754,0.07462827732190748,0.0024696142392570375,0.03509110884792545,0.01364091475253813,0.00735033207403387,0.059829703888493874,0.1192646462140148],[0.14611681979950417,0.01802010427931464,0.023638544157905474,0.14030423487180826,0.5728224328822842,0.051288142351185236,0.03746545288490578,0.03992383460423628,0.08271482963211375,-0.010792755276344127,0.040013821119170324,0.030244232621484866,-0.05760810944107287],[0.08786661638146956,0.03986422353171806,0.09308971040114995,0.15724256743655596,0.400589200115438,0.08090358486453766,0.04201696112181984,0.10030248867388632,0.0893860547917428,0.14802771153867164,0.028539089005467155,0.06033749831552446,0.049559670908777664]],"accuracy_validation":0.41509433962264153,"mse_training":1.584,"accuracy_training":0.208,"mse_validation":1.169811320754717,"bias":7.865001730877157E-20},{"epoch":6,"weights":[[-0.07921370477713285,0.03970056847977897,-5.194490273070627E-4,-0.13022324817672273,-0.6751873266335308,0.023449683303472375,0.07354816407168935,0.0031055605532117215,0.03597058131526767,0.017748763977560464,0.008040114362319465,0.060089856363160304,0.12152414046699295],[0.13957893628521606,0.017723510582465248,0.022203525370798505,0.12397685463344342,0.5166770669748904,0.0492283468386514,0.03531063372734554,0.039573555899686856,0.0811385237982567,-0.0063656286826330065,0.03873548395957115,0.02762018949852276,-0.08501555123249203],[0.085175836613646,0.03762701583937502,0.09271225922768818,0.14938086315732518,0.3851306729923427,0.08259955546938658,0.04525189352959819,0.10001682106448108,0.09008288815825763,0.13949273571993834,0.02912764387678073,0.06270138896382009,0.07470761844721871]],"accuracy_validation":0.41509433962264153,"mse_training":1.584,"accuracy_training":0.208,"mse_validation":1.169811320754717,"bias":1.433840372897067E-20},{"epoch":5,"weights":[[-0.06877783153986401,0.04180179644813664,0.001119331798171039,-0.10910224449094004,-0.5965337944098799,0.023876855454474228,0.07242193489981562,0.003723794964168088,0.03642985111265959,0.023534218865759838,0.008769405642675017,0.06026499079444292,0.16602884845917093],[0.1352701742173857,0.018264639718177513,0.021548428629299968,0.11538698181121784,0.48011347557805134,0.047964785735407,0.034184501148761835,0.03927530977757697,0.08023153722910331,-0.002568143287190548,0.03776536865444706,0.02589785491352185,-0.08362893004662296],[0.07904872544420746,0.03498465873530508,0.09172857514370861,0.13684973229376804,0.3430407321655308,0.08343594442162913,0.04750425528005563,0.09969683277563453,0.0905306049300191,0.1299097954362966,0.029368467901549254,0.06424858911753846,0.028816289269171683]],"accuracy_validation":0.6037735849056604,"mse_training":1.04,"accuracy_training":0.48,"mse_validation":0.7924528301886793,"bias":1.550247012653207E-20},{"epoch":4,"weights":[[-0.060948493859502906,0.04397063698205078,0.0026184632485271135,-0.0890779892698747,-0.5433516625759132,0.02412567370551077,0.07135063599148514,0.004259146624564706,0.03669339371637499,0.027263400127396635,0.00929718494156834,0.06047621811511506,0.08248190525320306],[0.13013110153406435,0.018717470709711383,0.020672889269027658,0.10472335903829162,0.4358360837806348,0.04613573869789979,0.03206978795142181,0.039017587878843595,0.07877101207609766,0.002372399050246797,0.036649160848656985,0.02330012572943463,-0.041799486517415066],[0.07635846044716779,0.032362987209857065,0.09110498305362477,0.12748909984562873,0.33413599212898054,0.08501617320809982,0.05069026738572616,0.09941920301397125,0.09172758747930941,0.12124007183722252,0.029956896408445993,0.06663509098095358,0.07053378894593158]],"accuracy_validation":0.41509433962264153,"mse_training":1.584,"accuracy_training":0.208,"mse_validation":1.169811320754717,"bias":1.2644077970533486E-20},{"epoch":3,"weights":[[-0.0508500241762708,0.04659997972163129,0.0045537824698065246,-0.06411963109198286,-0.4683935508845105,0.024593500480858666,0.07029817669754075,0.004940335140414356,0.037531722496578206,0.03154887660797364,0.010090181791130802,0.06110672699560603,0.08057161239998127],[0.12517231542013782,0.018700482803718502,0.019521646052757247,0.09061484328300087,0.3908123805294091,0.04451953217309593,0.030301149112540823,0.03865131359828822,0.07764873681209941,0.008031249268075583,0.03542404030339464,0.020790345016350815,0.0026346204152034487],[0.07121877687786217,0.029750632376269456,0.09032090704861577,0.11663925742302761,0.304201583688804,0.08616455295755578,0.05351136551855156,0.09910428877867702,0.09201153396310446,0.11129574513881675,0.03038902010414586,0.06851436281354648,0.02800997486653479]],"accuracy_validation":0.41509433962264153,"mse_training":1.584,"accuracy_training":0.208,"mse_validation":1.169811320754717,"bias":2.6055998362925868E-20},{"epoch":2,"weights":[[-0.035072743509517945,0.05079698069035274,0.00754918368299169,-0.029370194363009142,-0.34695360058484587,0.02596962084871752,0.07007384891116757,0.005799386822908301,0.039185249825664105,0.037871105220603614,0.011235427725867785,0.06304081249092418,0.06661077620602565],[0.11758049929635907,0.018286461289672415,0.017899836753943715,0.0726659950673094,0.32533858829621115,0.042454240192727664,0.027987609643422288,0.038201024536792874,0.07610085438173234,0.012579218070668651,0.03402696949463932,0.017593451244563903,-0.008635049030163383],[0.06303331233488804,0.025967652921594114,0.08894731513424413,0.09983866890974531,0.24823542562233752,0.08685372457006522,0.056049232774043285,0.09869552615767842,0.0919058890643856,0.1004255477235937,0.03064084497816421,0.06977717109001536,0.0532404805058572]],"accuracy_validation":0.41509433962264153,"mse_training":1.584,"accuracy_training":0.208,"mse_validation":1.169811320754717,"bias":4.301397041364356E-20},{"epoch":1,"weights":[[-0.016944743098766712,0.055438530896598934,0.011050758836098249,0.010610475182508792,-0.2190186118886277,0.027714065280877276,0.070344992719526,0.006757564306659593,0.04086875924565088,0.04481418952844236,0.012506424419580721,0.06552688918793262,0.049102126677312216],[0.10900985236555694,0.01782969772569417,0.01609673501899393,0.051754035233124385,0.2628427524750615,0.0402795812943034,0.025626428053924823,0.03772011165496153,0.07474019138126471,0.01695033146662602,0.032593284509616176,0.014259453604915377,-0.004044161760959678],[0.05347595885493888,0.02178286627932614,0.08724884171608735,0.08076995919841233,0.18279627274726887,0.08728393903632974,0.058139270555182296,0.09821826155575847,0.09158304264486633,0.0891113500197976,0.030803533269474402,0.07062509203265543,0.0661582427653669]],"accuracy_validation":0.41509433962264153,"mse_training":1.584,"accuracy_training":0.208,"mse_validation":1.169811320754717,"bias":1.4385068648832865E-19},{"epoch":0,"weights":[[-2.5398330068518785E-5,0.05941938925483518,0.014360066877244471,0.05002003915771929,-0.0913420695944848,0.02922022551570321,0.0699591853498356,0.00764527858208351,0.04252331428335981,0.05144255903647278,0.013664346492641071,0.06749980343751072,0.021627853012845567],[0.10033235284913652,0.017564844617179356,0.014243743853106281,0.030111183170719563,0.18912681872277165,0.038069747030908076,0.02358444509952038,0.037297470271433944,0.07308904962684078,0.02108854314483108,0.03118712602520112,0.010990669738911893,-0.002830377716239673],[0.045234113602661115,0.01806686102960473,0.08579252484082876,0.06300324728560659,0.1288356642054156,0.08798761306489918,0.06056706087927718,0.09775318866386219,0.09157962936158137,0.07834476883356206,0.031051769680829063,0.0719209616490808,0.0924187323851135]],"accuracy_validation":0.41509433962264153,"mse_training":1.584,"accuracy_training":0.208,"mse_validation":1.169811320754717,"bias":7.627253985918858E-20}]