[{"epoch":99,"weights":[[-3.6137634639410603,-0.9636455918855661,-0.6122869752838677,-11.671716149583828,-15.656301692171104,0.3466864590624652,1.3972561161057206,-0.17530498077478246,0.18247987413586317,-1.8145312344386177,-0.13088608701385862,0.29779148010346773,2.187089772462378],[1.8697261007720516,-1.6118274309233276,0.18287649072415357,6.669401985974606,10.764561368521171,1.175116321202257,1.883170645810995,-0.02487387888601744,1.1677144108334103,-4.90132775023617,0.8703487735375502,2.0404258976031593,-1.6453771549305434],[1.9229280533438255,2.69958946878198,0.5439629810103248,5.195214925024639,5.02293457799786,-1.4022854932976656,-3.135689287930695,0.3751509589536689,-1.1510325438659044,6.843494986610507,-0.5728347323063063,-2.1835811762462094,-0.4196000967129472]],"accuracy_validation":0.7924528301886793,"mse_training":0.8,"accuracy_training":0.6,"mse_validation":0.41509433962264153,"bias":2.861045741779524E-18},{"epoch":98,"weights":[[-3.6001033342207363,-0.9573455742599065,-0.6110469457145616,-11.59801585566755,-15.669300710243554,0.34004648042861446,1.379216134043155,-0.17327497629704344,0.1771098887788125,-1.810611204695451,-0.1307700716035757,0.29026151599154343,2.3920960386538663],[1.8771465750171732,-1.587207400136539,0.18553659464497077,6.649702858746743,10.816565026440074,1.166156424297254,1.8650207294120702,-0.023223861437345675,1.156854470748258,-4.839647623264851,0.8632728192503683,2.024065993674362,-1.6463591024595017],[1.9018474493783804,2.6686694203695307,0.5400628475202018,5.141213758336226,4.9839299381514035,-1.3866856177588123,-3.099499389469205,0.3714709370272583,-1.1348026184237012,6.777894829896019,-0.5658747934294075,-2.159691308205488,-0.6236244153754767]],"accuracy_validation":0.7924528301886793,"mse_training":0.608,"accuracy_training":0.696,"mse_validation":0.41509433962264153,"bias":2.708804471286461E-18},{"epoch":97,"weights":[[-3.580243692193477,-0.9539393396943093,-0.6082781029983514,-11.540737535629097,-15.55809376440202,0.33950009827054856,1.374330812424583,-0.17252762071805341,0.17821986531851922,-1.8047034070777959,-0.1288562102706308,0.2888861686298688,3.139902515135752],[1.8653168968970388,-1.5694036446873703,0.1842377449451266,6.603524477027463,10.72635778290318,1.1572028019068086,1.8492260486005034,-0.022631218172007705,1.1508344902988115,-4.78560544978554,0.8550389556450402,2.0054313368971943,-2.1771674532198206],[1.893817485471256,2.6474594303547634,0.538592854503836,5.1301138200170575,4.962930235846767,-1.3771856132103009,-3.078819387039066,0.37013093818293036,-1.1298926145139618,6.717944858799054,-0.5595547911570243,-2.139681304066645,-0.840622541097042]],"accuracy_validation":0.6226415094339622,"mse_training":0.976,"accuracy_training":0.512,"mse_validation":0.7547169811320755,"bias":2.4843903579319015E-18},{"epoch":96,"weights":[[-3.567708502102138,-0.9471975030184712,-0.6064365420776154,-11.475704496304513,-15.51313866450517,0.3354268880414034,1.3636941338830733,-0.1717287856328962,0.17753404949729354,-1.7953574565966788,-0.12853181535740052,0.28427310509005965,3.0595312956580285],[1.8436830105013897,-1.5627373310765422,0.1811384184988113,6.524719537234979,10.684432856318749,1.1502592436011065,1.8373605492843057,-0.022880231969903696,1.143001188284252,-4.751401199422296,0.8479644994801813,1.9890221448013414,-2.0956464920210274],[1.902916181775566,2.634051280068096,0.5398506200294153,5.143885720484956,4.959900062534348,-1.3661688446754534,-3.056317209181357,0.3695811168956691,-1.1213734966781768,6.674394657954695,-0.5528047299053958,-2.118659048430982,-0.8417722828181115]],"accuracy_validation":0.7169811320754716,"mse_training":0.912,"accuracy_training":0.544,"mse_validation":0.5660377358490566,"bias":2.2701368502742988E-18},{"epoch":95,"weights":[[-3.5692671005851087,-0.9473888042600435,-0.6061899607827277,-11.41543613226578,-15.662261125003884,0.32907239798949844,1.350443597944265,-0.17070388772418704,0.1737069574785235,-1.8062706202218939,-0.12768316247176392,0.27978216079228013,2.384362852373059],[1.8368773650921484,-1.548499093712349,0.1814958181714508,6.470721855889567,10.645295616606198,1.139935082563232,1.8207462436919926,-0.022218526649294138,1.13340815431588,-4.69324897408039,0.840206491283036,1.9710454407561508,-1.5610884788156567],[1.9112804256677773,2.6200043439454737,0.5392466390618883,5.137615037791636,5.148159762745613,-1.3494901935856738,-3.026452367650234,0.3678945136663504,-1.1079533706910347,6.627155596238003,-0.5458953745938875,-2.096191400088011,-0.7011618527385114]],"accuracy_validation":0.8113207547169812,"mse_training":0.56,"accuracy_training":0.72,"mse_validation":0.37735849056603776,"bias":2.3605265146977394E-18},{"epoch":94,"weights":[[-3.5546571164220686,-0.9434888054801297,-0.6053899628363383,-11.355336150385869,-15.68226121922836,0.3247223943896402,1.3378035941028057,-0.16927388803826857,0.1707169547242696,-1.8030306266243261,-0.12655716382473078,0.2748421569508208,2.3513622459539953],[1.8358658931914982,-1.5298603793056769,0.18371394814632527,6.443915855105178,10.698761321761662,1.1307687394895143,1.8039210770015588,-0.021225290046047313,1.1238198548411629,-4.638218604294603,0.8330717114414586,1.9546254025642988,-1.7362396615577933],[1.897681913405387,2.5974656307588857,0.5362285111406243,5.104321056696118,5.1146941518146285,-1.335973846912098,-2.99698719711834,0.3654712773771851,-1.0953750684620638,6.568885232854648,-0.5398865933993435,-2.074831358054698,-0.49301006357731103]],"accuracy_validation":0.7735849056603774,"mse_training":0.816,"accuracy_training":0.592,"mse_validation":0.4528301886792453,"bias":2.8586581257555068E-18},{"epoch":93,"weights":[[-3.5541311725901323,-0.937808114341531,-0.6044885805476539,-11.295625911203828,-15.757213095148858,0.3178737971561689,1.3220550890204452,-0.16786373957029865,0.1658182294996639,-1.7962192699507233,-0.12653067234476154,0.2666638259367191,2.0677103750468993],[1.8292548344293142,-1.510725058063821,0.1826261979013116,6.3936885619348995,10.677989673441859,1.1194108732321122,1.784879755010467,-0.020695170632602348,1.1122608956735205,-4.595729774014264,0.8253238475164525,1.9361171151888696,-1.93860630572046],[1.903767028335634,2.5726496183784295,0.5364148790969536,5.094838110684356,5.210417676054929,-1.3177673834212247,-2.9621973700448874,0.36353100949577033,-1.0789173840698156,6.519585045900705,-0.5321652209543069,-2.0481447396651657,-0.00699154850754613]],"accuracy_validation":0.37735849056603776,"mse_training":1.264,"accuracy_training":0.368,"mse_validation":1.2452830188679245,"bias":2.7302697861895277E-18},{"epoch":92,"weights":[[-3.529281171404382,-0.9285481139791848,-0.601018580325115,-11.199425909376128,-15.718213086642155,0.31533379732962935,1.3095350891236255,-0.1655737395315438,0.16373822960407455,-1.7859392692978449,-0.1249746722869794,0.26510382614288946,2.4777104394103318],[1.8248095404386955,-1.4892657146480865,0.18517516229941786,6.357279746712167,10.732954669015733,1.1090898530147082,1.765889317119316,-0.019765374444792563,1.103569997750764,-4.5370243579223075,0.8168776212108905,1.9143564121196397,-1.5578511571050555],[1.8833623211405015,2.541930274600347,0.5303959144763086,5.035046924079388,5.116452671974354,-1.3049063633772808,-2.9306869322569162,0.3603112132692058,-1.0681464862514694,6.450599629155869,-0.525274994706527,-2.024824036802104,-0.7977467614863821]],"accuracy_validation":0.8113207547169812,"mse_training":0.576,"accuracy_training":0.712,"mse_validation":0.37735849056603776,"bias":2.805867023069462E-18},{"epoch":91,"weights":[[-3.5163912689957346,-0.9310881417250726,-0.5981585970825326,-11.118826039177431,-15.756213848967294,0.3123637777564163,1.2970350709239713,-0.16348374159188192,0.16226822101933205,-1.7824193052850856,-0.12358867826196025,0.25924380327313556,2.4957030221928145],[1.827066737466994,-1.465826617161183,0.1872093661425844,6.33325870494836,10.81067050193098,1.0981941219629165,1.7464938594077872,-0.018681795280292467,1.092039082328312,-4.47955301417701,0.8095323110003617,1.896655062840873,-1.6805127752268865],[1.8682152217035557,2.5210312048593293,0.5255017273905597,4.978468095644502,5.076737601384243,-1.2910406127522762,-2.8987914563457324,0.35713763616504385,-1.0551455622442754,6.389608321397811,-0.5193156785210177,-2.001262664653582,-0.6930777261470334]],"accuracy_validation":0.8113207547169812,"mse_training":0.624,"accuracy_training":0.688,"mse_validation":0.37735849056603776,"bias":2.4961804915896478E-18},{"epoch":90,"weights":[[-3.4914175041559075,-0.9260952814074197,-0.5936686364446275,-11.024699820190508,-15.63523823774959,0.3092773166703399,1.2868326425387862,-0.16196197375000973,0.16159123588932717,-1.7703611728998558,-0.12121760606441952,0.2572443280796291,3.0263667732459787],[1.8196202158077772,-1.448258498659077,0.18709542813161478,6.287271375222808,10.762016766619878,1.0896914777186515,1.730777561545288,-0.01758144232037435,1.0833575598756064,-4.434608731848873,0.8023005771095849,1.8807709348316002,-2.0443325288405267],[1.8506879785229462,2.4984702260395695,0.5211257047636241,4.930329206383134,5.004415725477646,-1.279451507421935,-2.872872730098048,0.35451551536325376,-1.045787054661565,6.332605906684446,-0.5144550168277817,-1.9833790614508027,-0.8599217235865557]],"accuracy_validation":0.7547169811320755,"mse_training":0.816,"accuracy_training":0.592,"mse_validation":0.49056603773584906,"bias":2.309479679962566E-18},{"epoch":89,"weights":[[-3.4695646035117758,-0.9168577145704799,-0.5889715938803916,-10.917225092823397,-15.595353846602167,0.3038643592345764,1.2710792414876582,-0.15981232326514536,0.15913885649782653,-1.7549064166268913,-0.12007316543964028,0.2520601070122213,3.077406950911806],[1.7973238647883978,-1.4390392287425535,0.18401608902378958,6.210868446408527,10.691400689002212,1.0799181410728407,1.7196099522275095,-0.018049446922671995,1.0764032928584322,-4.406713636921591,0.795866964730618,1.8652975964029468,-2.2300660648333146],[1.8511314288981946,2.480013389286105,0.5195080013072132,4.899257407830307,5.0351474119478885,-1.2642652133403605,-2.845951719729141,0.3528338694806871,-1.0363804082528902,6.2892560554841985,-0.5091658450735943,-1.9627215019547413,-0.7252283652595933]],"accuracy_validation":0.5660377358490566,"mse_training":0.944,"accuracy_training":0.528,"mse_validation":0.8679245283018868,"bias":2.73835731469896E-18},{"epoch":88,"weights":[[-3.4497064022655444,-0.9095441073501334,-0.5865983533275456,-10.83011537129572,-15.603830181182225,0.29940926114841027,1.252775490772956,-0.15726866384591282,0.156216668330847,-1.7300191630271016,-0.12086407014534914,0.24345506431532563,2.476083612236049],[1.7814075697315397,-1.4261361815939162,0.18113606240417696,6.132370149412314,10.650282442403922,1.0710757676920222,1.7060360034580333,-0.018530312900081867,1.0687921405635559,-4.351435211238732,0.7871855394585376,1.846041760973536,-1.5437322005836882],[1.8471895227088206,2.4597967349171204,0.5200147873739799,4.890645983298844,5.084741993126238,-1.2509677418733758,-2.8140740202449623,0.3507710760388645,-1.025847067791034,6.20909037620155,-0.49969351509580523,-1.9348606238284347,-0.8102388908334616]],"accuracy_validation":0.8113207547169812,"mse_training":0.56,"accuracy_training":0.72,"mse_validation":0.37735849056603776,"bias":2.956601818781714E-18},{"epoch":87,"weights":[[-3.4341037340175893,-0.906432433128643,-0.5836610695864548,-10.751723265627858,-15.582767690202818,0.29546161093124285,1.2398245795568406,-0.15526523537778558,0.15486658046787732,-1.7160339158884979,-0.12016095379879121,0.23746065882711093,2.507031396601398],[1.7626309635152024,-1.4053884929833595,0.17823521554492322,6.0562148469439965,10.493536428670057,1.0586708794147661,1.6847243163013743,-0.01789316772265699,1.0560873420577508,-4.296548261901555,0.7780548347200158,1.8243549859719355,-1.6297815777322366],[1.8503634606772035,2.4359373720850717,0.5199783504921428,4.888409180099302,5.220425515880696,-1.2346152033789521,-2.779811421872187,0.34813050239331234,-1.0117921814222597,6.140218179725768,-0.4912659267038411,-1.9071794433386193,-0.7551372980502605]],"accuracy_validation":0.8113207547169812,"mse_training":0.608,"accuracy_training":0.696,"mse_validation":0.37735849056603776,"bias":2.98865924546991E-18},{"epoch":86,"weights":[[-3.431733657112384,-0.9069624181138174,-0.584261056158562,-10.708723152711483,-15.640767116465577,0.2895916208190548,1.2266645835852086,-0.15419523153252526,0.1511165862052497,-1.7151138725530253,-0.12008494934317221,0.23107066847077942,2.052035638594839],[1.7666638064681683,-1.3835223786562383,0.18014836297932338,6.020750913861344,10.548278489734074,1.050542338778368,1.6705344346494158,-0.017204241778543787,1.0477720651580766,-4.240459794009123,0.7711068406426406,1.807916237010788,-1.6107716450620444],[1.8439605408190325,2.4146012427431236,0.5186651896298499,4.880873000265583,5.2236828810794425,-1.2206166726303662,-2.7524615442485962,0.346371572603939,-0.9997269102599579,6.083209668497863,-0.48439393708208506,-1.8843507040211402,-0.3191514727138929]],"accuracy_validation":0.6037735849056604,"mse_training":1.008,"accuracy_training":0.496,"mse_validation":0.7924528301886793,"bias":2.811838207292242E-18},{"epoch":85,"weights":[[-3.4157092268379112,-0.9021044095052367,-0.5818899710248265,-10.62329088335855,-15.634216617427626,0.28340163506766075,1.208842554774038,-0.1520349074388305,0.14572767134107054,-1.707413092893428,-0.11943105351373948,0.22407167862648864,2.3799675980435913],[1.7739840402492328,-1.3589131129960634,0.18279241932765938,6.000918313190947,10.599489200040226,1.0415663951268976,1.652373305665902,-0.015558425014113447,1.036907171562963,-4.178825179168998,0.7640231056037177,1.7915436873058348,-1.6153234480205985],[1.8206158767634948,2.3851339684743667,0.5136500481477784,4.81527333158305,5.165921671735338,-1.2054507432275021,-2.716478386453912,0.34256543174581394,-0.9834731018006643,6.01387427399814,-0.47796409787259475,-1.860979164471896,-0.6425316292040898]],"accuracy_validation":0.8113207547169812,"mse_training":0.592,"accuracy_training":0.704,"mse_validation":0.37735849056603776,"bias":2.952311071228086E-18},{"epoch":84,"weights":[[-3.3982415154169976,-0.8967411613654547,-0.5797772895555601,-10.56764087603563,-15.52152843271031,0.2811008887584831,1.201562684761069,-0.15137869595895861,0.1460547854074497,-1.6981559262464283,-0.11818028500066631,0.22111064898201038,3.0550581496095095],[1.7645463288278418,-1.3430663611359805,0.1821497378583091,5.956368305867591,10.507801015318606,1.034367141435973,1.6389731756787675,-0.014874636493991672,1.0316700574965116,-4.128132345816169,0.756452337090615,1.774494716950194,-2.0734139996120837],[1.812585876763972,2.3639239684745004,0.5121800481478623,4.804173331583492,5.144921671739644,-1.1959507432274001,-2.6957983864538075,0.3412254317458203,-0.9785631018005924,5.953924273998313,-0.4716440978725648,-1.840969164471777,-0.8595316291785228]],"accuracy_validation":0.660377358490566,"mse_training":0.96,"accuracy_training":0.52,"mse_validation":0.6792452830188679,"bias":3.0579731843284334E-18},{"epoch":83,"weights":[[-3.388441515417008,-0.8904511613654583,-0.5780172895555625,-10.484640876035645,-15.586528432710393,0.2741708887584812,1.184192684761067,-0.14961869595895874,0.14129478540744825,-1.6965559262464325,-0.11762428500066714,0.2148106489820075,2.417058149608884],[1.7580541877231715,-1.3274981195314253,0.18248023819049206,5.90510661141696,10.561468785483234,1.0237595353363944,1.622446996981313,-0.014477491415556501,1.020405069609093,-4.073970807675652,0.7495906263638857,1.7569772277301703,-1.6551238213835853],[1.809278017868652,2.342065726869947,0.5100895478156817,4.772435026034139,5.1562539015750986,-1.1784131371278197,-2.66190220775635,0.3390682866673854,-0.9625381139131718,5.898162735857799,-0.4653383871458347,-1.8171516752517507,-0.6398218074063952]],"accuracy_validation":0.7924528301886793,"mse_training":0.592,"accuracy_training":0.704,"mse_validation":0.41509433962264153,"bias":3.495519880877307E-18},{"epoch":82,"weights":[[-3.3738315154028413,-0.8865511613635177,-0.5772172895527028,-10.424540876015827,-15.606528432601106,0.26982088876149424,1.1715526847641005,-0.14818869595858075,0.13830478540924593,-1.693315926241836,-0.11649828499939041,0.20987064898548016,2.384058150543458],[1.769539230497294,-1.3058967395372973,0.18631637078119906,5.899008997378459,10.617983629530443,1.0152216202072932,1.6072889246061821,-0.01294081119058557,1.012426053759304,-4.013197564799424,0.7431324073098919,1.7423270935478836,-1.8487324682232504],[1.7831829750803625,2.3165643468738764,0.5054534152221152,4.718432640052826,5.119739057418601,-1.1655252220017318,-2.6341041353842516,0.33610160644203657,-0.9515690980651802,5.834149492976975,-0.4600061680931178,-1.7975615410729366,-0.4132131615013037]],"accuracy_validation":0.6037735849056604,"mse_training":0.848,"accuracy_training":0.576,"mse_validation":0.7924528301886793,"bias":3.638329236473275E-18},{"epoch":81,"weights":[[-3.3616615154062925,-0.8808811613639096,-0.5747272895533754,-10.348140876020965,-15.594528432627703,0.26219088876081187,1.154652684763351,-0.14569869595866805,0.1347447854087104,-1.6752959262431293,-0.11709228499969405,0.2009206489847318,2.1470581503342983],[1.7771846532615676,-1.2794253868257328,0.18927905842283213,5.887332632323377,10.62709217308686,1.0096860219098076,1.5925728446572527,-0.011580581196044111,1.004798400500668,-3.9525121002354022,0.7361779438864968,1.7274607048294235,-1.6192103666924718],[1.7633675523195402,2.284422994162704,0.5000007275811545,4.653709005113048,5.09863051388878,-1.1523596237035638,-2.6024880554345717,0.3322513764475825,-0.9403814448060088,5.755444028414249,-0.4524577046694191,-1.7737451523537275,-0.4057352628229194]],"accuracy_validation":0.7735849056603774,"mse_training":0.848,"accuracy_training":0.576,"mse_validation":0.4528301886792453,"bias":3.7725617277699976E-18},{"epoch":80,"weights":[[-3.348353144418969,-0.8763413959017391,-0.5728676573358199,-10.267444530654867,-15.606540765713861,0.2554706214773117,1.1365824578089325,-0.14363875178794794,0.1288446008978756,-1.6700562631168427,-0.11654647817376794,0.1935501947106387,2.349979479708736],[1.7846044825726897,-1.2548054052481104,0.19193903113718805,5.867632405338326,10.6790908227931,1.000725994639899,1.5744228256340402,-0.009930588350042228,0.9939383921108488,-3.8908321789105424,0.7291019306605535,1.711100683361186,-1.6202164497490745],[1.7426393520210943,2.2552632471229095,0.4954811226492429,4.592712886732005,5.058644197268696,-1.1366793291501551,-2.566267809456941,0.3285414394308606,-0.9236212519053545,5.688524443963106,-0.4459274982694017,-1.7500146766113969,-0.6076505091407537]],"accuracy_validation":0.8113207547169812,"mse_training":0.608,"accuracy_training":0.696,"mse_validation":0.37735849056603776,"bias":3.689945754477153E-18},{"epoch":79,"weights":[[-3.3298732231596366,-0.8730414068177506,-0.5702776732086644,-10.211744640364998,-15.50354137431967,0.2546106047315689,1.1313624409484113,-0.14291875387707267,0.12971459088877685,-1.6647062886944393,-0.11475048524522607,0.19184017540586673,3.044974296513149],[1.774154560346575,-1.2368953946063064,0.19081904684051965,5.823032514101398,10.597091422674982,0.9920860111774106,1.5589628422871513,-0.009310586274956333,0.9881584019678729,-3.836232153672905,0.7209859376713197,1.6928007024261569,-2.098211317941265],[1.7346093529878768,2.234053247397116,0.4940111228187559,4.581612887679067,5.037644205992626,-1.1271793289419239,-2.5455878092495303,0.3272014394448995,-0.9187112517532798,5.62857444430307,-0.4396074982087094,-1.7300046763715962,-0.8246504577529753]],"accuracy_validation":0.6226415094339622,"mse_training":0.976,"accuracy_training":0.512,"mse_validation":0.7547169811320755,"bias":3.785416517984421E-18},{"epoch":78,"weights":[[-3.3200732231596373,-0.866751406817751,-0.5685176732086649,-10.128744640365,-15.568541374319679,0.24768060473156875,1.113992440948411,-0.14115875387707263,0.1249545908887768,-1.6631062886944399,-0.11419448524522614,0.18554017540586648,2.406974296513103],[1.7678125983921487,-1.2212955841778448,0.19117874063569743,5.772029409422136,10.652078915709929,0.9814956761776948,1.5424525239477491,-0.008910628279792748,0.9769082309884322,-3.781942904471345,0.7141297615935113,1.6753001553241276,-1.6742923872710542],[1.7311513149423035,2.2121634369686527,0.49189142902357835,4.549615992358332,5.04765671295768,-1.1096589939422075,-2.5117074909101276,0.3250414814497359,-0.9027010807738391,5.5726851951015135,-0.43330732213090084,-1.7062041292695669,-0.6105693884231399]],"accuracy_validation":0.7924528301886793,"mse_training":0.608,"accuracy_training":0.696,"mse_validation":0.41509433962264153,"bias":3.854821893210977E-18},{"epoch":77,"weights":[[-3.3161220236124036,-0.8627098131651805,-0.568145736184554,-10.07292808764087,-15.636465654071577,0.24040254176107734,1.0989046685402788,-0.1396785249571704,0.12249614931921415,-1.650212854856348,-0.11470746390496725,0.17607294007699456,2.0726029508759947],[1.7734241851134986,-1.2031058426919736,0.19389009918933606,5.7446333790025985,10.723015040202233,0.9753794996944682,1.528538837010982,-0.00787219280166627,0.9670940681134649,-3.738606849221693,0.7092476352648632,1.6616150836305708,-1.5846293815379031],[1.7215885286737196,2.18993210183021,0.4888081334458288,4.521195470053742,5.04464486821728,-1.0962647544884896,-2.482706031565228,0.32252281705170727,-0.8904284763293092,5.5164557060137716,-0.4279122171425116,-1.683051822247138,-0.36586104851918155]],"accuracy_validation":0.7735849056603774,"mse_training":0.896,"accuracy_training":0.552,"mse_validation":0.4528301886792453,"bias":4.1399270335582104E-18},{"epoch":76,"weights":[[-3.297785925743038,-0.8554402495637248,-0.5656565010969022,-10.014333608163161,-15.517503035448666,0.2369017060702233,1.0902838913998554,-0.1385286663591681,0.12215576487535763,-1.6369643832982677,-0.11388181803097557,0.17242208914954976,3.022253544645304],[1.758896118168225,-1.183812020972507,0.19335190476185452,5.7107007463655135,10.714555736751722,0.9651920027885071,1.50820006069461,-0.007480176144605846,0.9572709668762239,-3.691744153972449,0.7003601105412833,1.64147787390655,-2.077560807357582],[1.7177804977496276,2.1633687165092863,0.48685709278565864,4.496533623213121,4.934141553044882,-1.082576421891674,-2.4537464781084313,0.3209809417966445,-0.8802649906482117,5.456344539206452,-0.41985033829292323,-1.6592637615956727,-0.8225802164688121]],"accuracy_validation":0.7169811320754716,"mse_training":0.896,"accuracy_training":0.552,"mse_validation":0.5660377358490566,"bias":3.882735286151287E-18},{"epoch":75,"weights":[[-3.2878297718721634,-0.8504292166622877,-0.5642438644211225,-9.930338349297404,-15.597354510849987,0.22891434274600345,1.0709494235770025,-0.13665426384293947,0.11601765892814443,-1.6343483455548393,-0.11368079142010964,0.16500448876861776,2.3788819930575937],[1.7567461180101418,-1.1663620209897831,0.19336190473669027,5.657100746156092,10.721555735500944,0.9555420027633884,1.4925900606771645,-0.006550176151235444,0.9464709668685759,-3.633544155044833,0.6930541105290905,1.6243978738868332,-1.6385608130001783],[1.7099743440368358,2.140907683625124,0.4854344561350429,4.466138364556786,5.006993029696981,-1.0649390585423355,-2.4188020102681325,0.3181765392870456,-0.8633268846933505,5.39552850253541,-0.41274536489159647,-1.634766161195024,-0.618208659238504]],"accuracy_validation":0.7924528301886793,"mse_training":0.64,"accuracy_training":0.68,"mse_validation":0.41509433962264153,"bias":3.892948628049145E-18},{"epoch":74,"weights":[[-3.259013928179668,-0.8433358210448771,-0.5599497348954549,-9.839786682840824,-15.484918096937102,0.22599477365745735,1.0565659308836306,-0.1345150074418812,0.11368816804660326,-1.618643178529543,-0.11241531960040334,0.161228021597449,3.0927373050933786],[1.7513961179923927,-1.1441320209940646,0.19374190473400962,5.617900746131955,10.6875557353624,0.9451920027612614,1.4739300606762822,-0.0053801761519076206,0.9349709668676477,-3.5817641550552763,0.6854081105281361,1.6064078738852714,-2.1095608138414814],[1.686508500362089,2.1115842880119944,0.48076032661205564,4.414786698124346,4.9285566159226395,-1.0516694894516625,-2.3857585175738785,0.31486728288665955,-0.8494973938108811,5.32804333552056,-0.40636483671034834,-1.6129996940222933,-0.8610639704329845]],"accuracy_validation":0.7169811320754716,"mse_training":0.944,"accuracy_training":0.528,"mse_validation":0.5660377358490566,"bias":3.795917419637942E-18},{"epoch":73,"weights":[[-3.236967929095224,-0.8365620491498656,-0.5553221991920836,-9.733041873564169,-15.415513885769087,0.2214876848567035,1.043309280898872,-0.13279281336193094,0.11227098647808353,-1.6054272304908137,-0.11081955594462695,0.15795674710856553,2.983074808902269],[1.7314150228674556,-1.1333025213450127,0.19099642540188974,5.535747175705526,10.595356258021312,0.9351587803370796,1.458797264749945,-0.004981745577710514,0.9240372445376663,-3.5493459759009056,0.6786400421836228,1.5893436462408583,-2.046872020441663],[1.684443596402582,2.09398101646793,0.4788782702408043,4.390195459274119,4.95135188209571,-1.0371291782267262,-2.357369071662782,0.3127466582325124,-0.8371464899123799,5.282409208327463,-0.40119253202161137,-1.5926641918889968,-0.8140902676416916]],"accuracy_validation":0.7169811320754716,"mse_training":0.928,"accuracy_training":0.536,"mse_validation":0.5660377358490566,"bias":3.8154242583552895E-18},{"epoch":72,"weights":[[-3.2267545741789845,-0.8315144176720047,-0.5538650780587722,-9.648666474788595,-15.49362642328508,0.21354480599001532,1.0240259702021806,-0.1309131535916304,0.10616867029897535,-1.6027323339363064,-0.11059507389251706,0.150602638180656,2.354140485804383],[1.7292650229124849,-1.115852521341593,0.19100642541229362,5.482147175789647,10.602356258373023,0.92550878034747,1.4431872647593436,-0.004051745576254162,0.9132372445450752,-3.4911459768904236,0.671334042187874,1.5722636462515533,-1.6078720184170292],[1.6763802414413127,2.0714833849866485,0.47741114909708887,4.3594200604144255,5.022464419259989,-1.0195362993704282,-2.322475760975489,0.30993699846075556,-0.8202441737406806,5.221514312762476,-0.3941110140779724,-1.5682300829717823,-0.6241559465684382]],"accuracy_validation":0.7924528301886793,"mse_training":0.608,"accuracy_training":0.696,"mse_validation":0.41509433962264153,"bias":4.067384698439145E-18},{"epoch":71,"weights":[[-3.2115545321366445,-0.8283244116895649,-0.5519450707872987,-9.569966412650544,-15.50462613903656,0.20772481326148912,1.0066859785643756,-0.12895315273227434,0.10182867614920652,-1.5919923210459672,-0.11014907005846714,0.14346264855903243,2.3371428457281835],[1.736685023041681,-1.0912325213331988,0.1936664254406408,5.462447176027608,10.65435625936963,0.9165487803755937,1.4250372647821892,-0.0024017455715094204,0.9023772445614818,-3.429465977855671,0.6642580422003292,1.555903646277804,-1.6088720134870824],[1.6537601992697766,2.043673378995814,0.47283114179726804,4.300419998038419,4.9814641340148595,-1.0047563066700258,-2.2869857693605296,0.30632699759665494,-0.8050441796073184,5.149094300837388,-0.3874810179244774,-1.5447300933764092,-0.6061583114221835]],"accuracy_validation":0.7924528301886793,"mse_training":0.608,"accuracy_training":0.696,"mse_validation":0.41509433962264153,"bias":3.743828889992641E-18},{"epoch":70,"weights":[[-3.193074532135726,-0.8250244116892986,-0.5493550707871461,-9.514266412649064,-15.401626139029922,0.20686481326163972,1.001465978564497,-0.12823315273224567,0.10269867614935005,-1.5866423210458773,-0.10835307005839567,0.14175264855926675,3.0321428457703856],[1.7265473773835383,-1.0732430350532152,0.19260913938632127,5.418381946107037,10.574932878843288,0.9079488881315563,1.4095918494207278,-0.0017671609329800969,0.8966205799831325,-3.374730340717344,0.6561631899261996,1.5376549355899727,-2.073016606882204],[1.6454178449270014,2.022383892715563,0.4712984278514351,4.288785227957511,4.957887514534566,-0.9952964144261387,-2.2663203539991894,0.304972412958097,-0.8001575150291127,5.0890086636989755,-0.3811821656504189,-1.5247713826888123,-0.8370137180692631]],"accuracy_validation":0.7169811320754716,"mse_training":0.928,"accuracy_training":0.536,"mse_validation":0.5660377358490566,"bias":3.6179015469964746E-18},{"epoch":69,"weights":[[-3.169564532135725,-0.8202744116892989,-0.5441550707871463,-9.406766412649064,-15.338626139029925,0.20389481326163977,0.9903659785644972,-0.12643315273224556,0.10187867614935005,-1.5771923220458774,-0.10616707005839567,0.1398426485592667,2.9741428457703853],[1.7020835775435479,-1.0612342814032298,0.18912638577950722,5.329679564927458,10.424651147949822,0.8954033713509149,1.3914325307943478,-0.0014358911133069325,0.8832192568516326,-3.3300046804822454,0.6478888670546258,1.5158062827083865,-2.1922186995295676],[1.6463716447669914,2.005625139065577,0.4695811814582494,4.269987609137092,5.045169245428034,-0.9797808976454973,-2.237061035372809,0.3028411431384238,-0.7859361918976129,5.034833004463881,-0.37509384277884483,-1.5010127298072262,-0.6598116254218993]],"accuracy_validation":0.5094339622641509,"mse_training":0.928,"accuracy_training":0.536,"mse_validation":0.9811320754716981,"bias":3.660188234435042E-18},{"epoch":68,"weights":[[-3.1352836124380987,-0.8093752559580029,-0.5366085181309318,-9.280237427449038,-15.20104803504729,0.2017234428023578,0.9737035154306907,-0.12328433103982456,0.10102288058248422,-1.546606524032489,-0.10500410414808035,0.1349918672559869,2.9480264547983452],[1.6860036499320925,-1.0457042584502028,0.1858763987758719,5.256679674333465,10.345651808859376,0.8820733794979905,1.3715225354313156,-0.00138588939008273,0.8702792635903729,-3.2881546321667665,0.6395928709037245,1.4953862945278518,-2.0152136588514256],[1.6281706526808208,1.9791959603812537,0.4652846158056704,4.21645851453106,4.986590480535842,-0.9642795353332909,-2.20048857687597,0.2996423197227786,-0.7721404030694874,4.962397158135015,-0.3679608125382589,-1.4757419603234119,-0.8107002751280012]],"accuracy_validation":0.6792452830188679,"mse_training":0.944,"accuracy_training":0.528,"mse_validation":0.6415094339622641,"bias":3.666516426819337E-18},{"epoch":67,"weights":[[-3.125054116015283,-0.8043253276148195,-0.5351486052276149,-9.19583817172978,-15.279051439735795,0.1937833557056752,0.9544234152695056,-0.12140434133306888,0.09492281050924428,-1.5439066784311546,-0.10477815007178588,0.12764174294526695,2.319998187965832],[1.6838308550498398,-1.0282567110641159,0.1858827559228538,5.203049377338065,10.352471469601051,0.8724197366449725,1.3559099926477736,-4.5684518815186474E-4,0.8594781454869712,-3.2299650026741205,0.6322851035789928,1.4783034271336444,-1.5770251855138828],[1.6201139511402576,1.9566984846519833,0.4638183457553712,4.185689555807204,5.057774224482671,-0.9466858053835903,-2.165595933931243,0.2968332858140921,-0.7552392148928458,4.901507683041037,-0.36087899928982176,-1.4513089686184844,-0.6208604816330295]],"accuracy_validation":0.8113207547169812,"mse_training":0.608,"accuracy_training":0.696,"mse_validation":0.37735849056603776,"bias":3.786816810769396E-18},{"epoch":66,"weights":[[-3.10985329937637,-0.8011352114106975,-0.5332284639850359,-9.117136964747736,-15.29004591843497,0.18796349694825448,0.9370835776984717,-0.11944432464076404,0.09058292414531943,-1.5331664280465822,-0.1043320755984259,0.12050194453694835,2.303044027602927],[1.6911277460432257,-1.0036499569698916,0.18852308185692337,5.183185751443198,10.403497505941134,0.8634400625790424,1.3377462597601688,0.0011879928044505991,0.8486121069122793,-3.168341006584566,0.6251995587351257,1.4619279411114519,-1.5824080219836065],[1.5976162435079584,1.928901614353637,0.45925787857872247,4.126851974720031,5.0177426668417615,-0.9318862725602394,-2.1300923634726048,0.29322843112918484,-0.7400332899542291,4.829143436566913,-0.3542395289193146,-1.427793684187973,-0.5985234848003992]],"accuracy_validation":0.8113207547169812,"mse_training":0.592,"accuracy_training":0.704,"mse_validation":0.37735849056603776,"bias":4.053377637594437E-18},{"epoch":65,"weights":[[-3.094653299376411,-0.7979452114107024,-0.5313084639850439,-9.038436964747804,-15.30104591843525,0.18214349694824652,0.9197435776984679,-0.11748432464076555,0.08624292414531178,-1.522426428046619,-0.10388607559842751,0.1133619445369428,2.2860440276010547],[1.698520211858631,-0.9790329195163597,0.19117868161435286,5.163449155359046,10.455279672214642,0.8544756623385711,1.3195931883067498,0.0028368382860416096,0.8377507563407743,-3.106673533028269,0.6181214239655309,1.445564477555391,-1.5843882746511748],[1.5750237776925935,1.9010945769001104,0.4546822788213007,4.067888570804257,4.976960500568534,-0.91710187231976,-2.094599292019182,0.2896195856475954,-0.7248319393827165,4.756735963010656,-0.3476073941497181,-1.4042902206319066,-0.5795432321309574]],"accuracy_validation":0.8113207547169812,"mse_training":0.608,"accuracy_training":0.696,"mse_validation":0.37735849056603776,"bias":4.1872504388402584E-18},{"epoch":64,"weights":[[-3.065233646786115,-0.7907652521114218,-0.5268785293969144,-8.946537570413271,-15.184048292643851,0.17932342911371668,0.9054435459615966,-0.11532433748087309,0.08398285873344513,-1.506586742992633,-0.10255008940760231,0.10975189705276679,3.0290280380330064],[1.6930557535987172,-0.9568152350512698,0.19154038996970477,5.12409702643904,10.420374148666134,0.8441073708056868,1.3009204205378218,0.0040020390294138505,0.8262451419669621,-3.0549456008681672,0.6104665498839956,1.4275600797411112,-2.059463178449626],[1.5510685833622113,1.87169693313574,0.449890635877819,4.015341305389734,4.894868398325644,-0.9039135129523459,-2.061626492513384,0.28629439774433074,-0.7110662595970375,4.689168345796572,-0.3412885062590078,-1.3826757753334504,-0.8474523387644568]],"accuracy_validation":0.7169811320754716,"mse_training":0.96,"accuracy_training":0.52,"mse_validation":0.5660377358490566,"bias":4.242897332820187E-18},{"epoch":63,"weights":[[-3.024107131786071,-0.7792730772098807,-0.5197780279089416,-8.823189127743621,-14.990946322183984,0.1787230938949053,0.8939011070994587,-0.11277644112419842,0.08480080259559358,-1.489817460935725,-0.09985940438571737,0.11026850974424102,3.1349640719524827],[1.6549118829054141,-0.9501358528517088,0.18781198971897148,5.01807108683587,10.213354096817737,0.8328894714733763,1.285994589376267,0.0033943970467964287,0.8119981724176255,-3.022921397243088,0.602856785272266,1.4065060780538556,-1.8029581767916136],[1.5480859390554698,1.853525376034638,0.4465185346405796,3.998018802323254,4.908786479714173,-0.892095278401224,-2.0351582224896902,0.28435414337027354,-0.6976372339098491,4.640374860114587,-0.33636942666916325,-1.362138386337669,-1.2098933743419455]],"accuracy_validation":0.6226415094339622,"mse_training":0.928,"accuracy_training":0.536,"mse_validation":0.7547169811320755,"bias":3.905181519567409E-18},{"epoch":62,"weights":[[-3.0250271317874744,-0.7788530772100668,-0.5218880279091946,-8.772989127745785,-15.179946322194336,0.17071309389462636,0.8788611070991541,-0.11146644112422636,0.08004080259540133,-1.4902974609362438,-0.10033340438582765,0.10262850974388177,2.18396407185771],[1.6328755078186794,-0.9345853106877519,0.18663589831375907,4.954209880442827,10.10794010273167,0.8215712239653451,1.2629629721803939,0.0039062676486770085,0.8014607329412579,-2.9662705349090404,0.5934917686614872,1.3835087608013399,-1.7988781323581131],[1.5710423141436074,1.837554833870868,0.44980462604604493,4.011680008718459,5.203200473810596,-0.8727670308929137,-1.9970866052935108,0.2825322727684209,-0.6823397944332892,4.584203997781061,-0.326530410058274,-1.3315010690847942,-0.26297341868067325]],"accuracy_validation":0.5283018867924528,"mse_training":0.96,"accuracy_training":0.52,"mse_validation":0.9433962264150944,"bias":4.016861313741115E-18},{"epoch":61,"weights":[[-3.010984554603119,-0.7723873670574696,-0.5190742455427039,-8.68455753671787,-15.177295547149857,0.1650870179731609,0.8623382408520518,-0.10940101241100886,0.0753065011411153,-1.486215341922445,-0.09939540570373076,0.09697901539825987,2.2467499886670974],[1.6403907647334062,-0.911351179971335,0.1896498117352179,4.933720108585041,10.171340029139964,0.8126457874620132,1.2451016829171884,0.005441454226297409,0.7907871686259305,-2.9060527084404155,0.5863358904935575,1.3666875729403245,-1.5841433698256338],[1.5494844800445244,1.807854993001854,0.44397693025809526,3.9437381895483306,5.137149772357822,-0.8582155184681164,-1.9627024497832026,0.278931657477583,-0.6669319286636758,4.5199040522986405,-0.3203125305724412,-1.3090303868781568,-0.5404940980225396]],"accuracy_validation":0.7924528301886793,"mse_training":0.688,"accuracy_training":0.656,"mse_validation":0.41509433962264153,"bias":3.9725791161678936E-18},{"epoch":60,"weights":[[-2.997834554603663,-0.7678273670575471,-0.5173542455427982,-8.613457536718672,-15.187295547153537,0.15967701797306677,0.8481282408519436,-0.10783101241101997,0.0713765011410396,-1.4856753419226119,-0.09802940570378038,0.09206901539812555,2.273749988636555],[1.647567756315662,-0.8891514285941902,0.19288928268528913,4.918915789735418,10.213316847810695,0.8037652646110499,1.2269812475926014,0.007041380477043545,0.7814067982195073,-2.8387535657660097,0.5786496183553324,1.349606854401124,-1.602253482713265],[1.529157488462812,1.781095241624787,0.4390174593081183,3.8874425083987574,5.105172953690766,-0.8439249956170589,-1.9303720144585075,0.27576173122684794,-0.6536215582571769,4.452064909624406,-0.3139922584341664,-1.2870396683388217,-0.5493839851043655]],"accuracy_validation":0.7924528301886793,"mse_training":0.656,"accuracy_training":0.672,"mse_validation":0.41509433962264153,"bias":3.8196716128655366E-18},{"epoch":59,"weights":[[-2.983224554430581,-0.7639273670327362,-0.5165542455038735,-8.55335753633239,-15.207295545846137,0.15532701800159188,0.8354882408758632,-0.10640101240507724,0.06838650116094777,-1.482435341883984,-0.0969034056835751,0.087129015445816,2.240749996986097],[1.6416736296103605,-0.8722987473725584,0.1952996915365622,4.8817024423882875,10.282087919366363,0.7959220890677302,1.2123852251381362,0.007735080660069733,0.7727360521308708,-2.7979218723701815,0.5721439122144715,1.3349748497883327,-1.4948328956651402],[1.5204416149950315,1.7603425603783445,0.43580705041792045,3.86455585535961,5.056401880827697,-0.8317318201022643,-1.9031359920279614,0.27363803103787904,-0.6419608121884486,4.407993216189953,-0.30861255231351087,-1.2674676637737206,-0.6238045805020321]],"accuracy_validation":0.7735849056603774,"mse_training":0.624,"accuracy_training":0.688,"mse_validation":0.4528301886792453,"bias":3.834299620970756E-18},{"epoch":58,"weights":[[-2.957907613875077,-0.7535664252048521,-0.5126630380307915,-8.457049422119757,-15.148240968036298,0.1492088775135565,0.8189199265125691,-0.10409089648788379,0.06446755407964615,-1.4761915745652998,-0.09509699031266786,0.08272068175986012,2.293464821992202],[1.6528108536746953,-0.8530131469647132,0.19847986240748647,4.869009366489969,10.454638081742255,0.7898381916788931,1.199120338496116,0.008783039120276094,0.7667662308587306,-2.737157495742948,0.566105971126779,1.322007095397949,-1.6156358445106895],[1.4839874503751924,1.7306960181426152,0.42873567207391416,3.780940817045299,4.824797140641962,-0.8195297822253916,-1.8733027910226472,0.2702799566604792,-0.6320720438350069,4.340985072244039,-0.3043810265967255,-1.2500915756973807,-0.555716456662586]],"accuracy_validation":0.7924528301886793,"mse_training":0.608,"accuracy_training":0.696,"mse_validation":0.41509433962264153,"bias":3.675752881226863E-18},{"epoch":57,"weights":[[-2.9152776136815257,-0.7480664251771815,-0.5052630379973035,-8.349449421833487,-14.892240966726208,0.15273887754699536,0.8152699265509677,-0.10222089648393425,0.06932755410651004,-1.4601215745058742,-0.09128099029504508,0.08716068180750212,3.0984648328482143],[1.634466249212355,-0.8331594848500293,0.19910061945592789,4.826082908811744,10.32751086087977,0.7777347250131897,1.1775267653536796,0.009733749768499495,0.7544298871788666,-2.6852443536457864,0.5577598342632719,1.300279166900902,-1.824707476902951],[1.459702054643982,1.7053423560002612,0.42071491499198505,3.716267274437258,4.69592436019436,-0.810956315593127,-1.8480592179186093,0.2674592460083064,-0.6245957001820067,4.273001930087455,-0.29985088975084107,-1.2328036472479753,-1.1516448351263366]],"accuracy_validation":0.6226415094339622,"mse_training":0.928,"accuracy_training":0.536,"mse_validation":0.7547169811320755,"bias":3.6005415855075756E-18},{"epoch":56,"weights":[[-2.9059876136815253,-0.7413264251771816,-0.5050130379973038,-8.274949421833487,-14.998240966726208,0.14570887754699535,0.7989399265509679,-0.10042089648393425,0.06570755410651004,-1.4578915745058745,-0.09103499029504508,0.08073068180750213,2.128464832848214],[1.6329762589483126,-0.8079794842185997,0.20108062158913526,4.7944829267306845,10.388510935968668,0.7668547271293318,1.1572567670687788,0.010383750126878324,0.745609888407594,-2.6108343510176746,0.5480438352018832,1.2781791688719855,-1.4017071065781608],[1.4519020449080238,1.6734223553688323,0.41848491285877787,3.673367256518317,4.740924285105461,-0.7930463177092688,-1.8114592196337083,0.26500924564992756,-0.6121557014107343,4.196361927459345,-0.29038089068945216,-1.2042736492190589,-0.6046452054511274]],"accuracy_validation":0.7735849056603774,"mse_training":0.56,"accuracy_training":0.72,"mse_validation":0.4528301886792453,"bias":3.454471617222351E-18},{"epoch":55,"weights":[[-2.8878776140583957,-0.7368764252032942,-0.5023430380430514,-8.209849422154171,-14.941240968806163,0.14245887745243677,0.7889899265488012,-0.09899089649967094,0.0659075539850956,-1.4471815753181674,-0.09033899025700358,0.07705068185162016,2.903464817028305],[1.6216841686468766,-0.7911372409251216,0.20130915750395353,4.751775395757818,10.36808024188384,0.758611080416336,1.1396812235092622,0.011091765239318077,0.7351310855967028,-2.5736441293698715,0.5414043704071306,1.2631549784940466,-2.0104797814346074],[1.4450841355863304,1.6521301121014675,0.4155863769897073,3.650974787811868,4.704354981270248,-0.7815526709017144,-1.783933676072025,0.2628712305532244,-0.6018768984784286,4.148461706623839,-0.2844374259327409,-1.185569458885238,-0.7708725147747706]],"accuracy_validation":0.7169811320754716,"mse_training":0.896,"accuracy_training":0.552,"mse_validation":0.5660377358490566,"bias":3.501749457229371E-18},{"epoch":54,"weights":[[-2.876561199400743,-0.7312383382952875,-0.5014903507981546,-8.137723518197177,-15.015814832336341,0.1365981749754147,0.7731977229092151,-0.09736895951571721,0.06209404288134067,-1.442868984922468,-0.09001640451156087,0.07073622614784893,2.2081862794833094],[1.6192157225065693,-0.7732255253120078,0.20203525900470795,4.695766732462501,10.409761591961086,0.7501682683329973,1.125910792023553,0.011692398401091642,0.7253649942459742,-2.522641171345914,0.5341199689368685,1.247426793749335,-1.3684563376764538],[1.4362361670689843,1.6285803095803468,0.41400758824405604,3.6348575471501903,4.737247494723176,-0.7672491563413537,-1.7543710409467295,0.2606486604074971,-0.588297296023945,4.093146158204187,-0.27747561020792166,-1.163526818436755,-0.7176174209879288]],"accuracy_validation":0.7358490566037735,"mse_training":0.736,"accuracy_training":0.632,"mse_validation":0.5283018867924528,"bias":3.526263656211422E-18},{"epoch":53,"weights":[[-2.8744917955845226,-0.7329648934967345,-0.5022148145147658,-8.090938922980614,-15.109947219087417,0.13036724963966972,0.761322075698563,-0.0963362060971261,0.05934957916472944,-1.4406489954098556,-0.08969423574062323,0.06492357841282752,2.2315395932005733],[1.6082681360075735,-0.752602455772125,0.20207291979106812,4.6568363646376145,10.3675544102909,0.7407918279917284,1.105612430350651,0.012530805849051141,0.7142975818013126,-2.4740586420768618,0.5260098412782817,1.2299470450214482,-1.5858947990781829],[1.4451143497517591,1.6096837952419116,0.4146943911743072,3.627003319758513,4.87358706314444,-0.7516417906643398,-1.7221970320631754,0.25877749954094653,-0.5744854198626722,4.0423436394225245,-0.26968765132027217,-1.1402344219738465,-0.5235322733034632]],"accuracy_validation":0.7735849056603774,"mse_training":0.624,"accuracy_training":0.688,"mse_validation":0.4528301886792453,"bias":3.7132013232114074E-18},{"epoch":52,"weights":[[-2.8668817688573975,-0.7340748895492334,-0.5026848083470947,-8.0511388612487,-15.137947014121094,0.12725725390967577,0.7520020795832952,-0.09556620519045485,0.05868958192148773,-1.4299489923535886,-0.08914823229452044,0.0589535863655423,2.049540892799057],[1.595514585592822,-0.7358512276520751,0.20350406558222262,4.623746166172259,10.27659788849301,0.7306925020117384,1.0867126739904494,0.013281047962677657,0.7043178651736068,-2.4273136739514225,0.5184941299303787,1.2120578667731692,-1.7906604830270374],[1.4502578734393858,1.59404256317436,0.41373323921548183,3.620293456491956,4.992543379976008,-0.7384324689543559,-1.6939772795877062,0.25725725652064874,-0.5638457059917248,3.9848986682408176,-0.2627179434184716,-1.1163752516782823,-0.1367678889530921]],"accuracy_validation":0.5094339622641509,"mse_training":1.072,"accuracy_training":0.464,"mse_validation":0.9811320754716981,"bias":3.593109252707152E-18},{"epoch":51,"weights":[[-2.8324017691609895,-0.7269848896325702,-0.496514808404584,-7.93323886176324,-14.944947016606319,0.12498725387178225,0.7398520795635614,-0.09285620520018707,0.05855958188891136,-1.4133589925751355,-0.0866222323130105,0.05821358632984852,2.159540876660762],[1.5772731430792528,-0.7151608776750911,0.20330476336047107,4.563769276848751,10.129200249891243,0.7194268454139084,1.066887988354181,0.013823249646901337,0.6924567473015755,-2.373342386874262,0.5097473005423008,1.1915565565789168,-1.4167223064781258],[1.4340193162565473,1.5662622132807134,0.40776254149472274,3.5623703463300007,4.946941021062993,-0.7248968123186326,-1.6620025939317042,0.2540050548461572,-0.5518545880871173,3.9143373813852045,-0.25649711401190356,-1.095133941448336,-0.6207060493637099]],"accuracy_validation":0.7547169811320755,"mse_training":0.608,"accuracy_training":0.696,"mse_validation":0.49056603773584906,"bias":3.725669948041035E-18},{"epoch":50,"weights":[[-2.8152817691609875,-0.7236248896325701,-0.4937248084045837,-7.857538861763239,-14.90994701660631,0.12170725387178254,0.7265220795635619,-0.09103620520018704,0.057019581888911514,-1.400898992575135,-0.08578623231301039,0.05175358632984885,1.8855408766608917],[1.5856832786940076,-0.6896273897823763,0.20682922243682716,4.555959816127407,10.166399782209675,0.7096574845084972,1.0507746669596982,0.01526099139791534,0.6817800242433267,-2.3115522560045836,0.502669435186312,1.175033565998557,-1.6551057355334224],[1.4084891806417907,1.537368725387999,0.4014480824183666,3.4944798070513423,4.874741488744553,-0.7118474514132216,-1.6325592725372218,0.2507473130951432,-0.5396378650288687,3.840087250515526,-0.2502552486559148,-1.0721509508679767,-0.108322620308543]],"accuracy_validation":0.4528301886792453,"mse_training":1.152,"accuracy_training":0.424,"mse_validation":1.0943396226415094,"bias":3.761426067448909E-18},{"epoch":49,"weights":[[-2.7775445672282206,-0.7119889298196359,-0.48584642309234405,-7.721928775647449,-14.7360219360819,0.11985994860335941,0.7127327773796222,-0.08808142395761373,0.05560156264054201,-1.3795816388528515,-0.0828443710985723,0.05053939953726236,2.3377425505109017],[1.5871557203409175,-0.6678921617125212,0.20817359853011058,4.523885405759642,10.2168554795302,0.6985167499486583,1.0295151860559766,0.01677672041800134,0.6693196845631336,-2.2615731950085327,0.4949614167763471,1.1556625386013588,-1.6848760498377766],[1.3692795370621138,1.5039975375052104,0.3922253210128438,3.3909441313033133,4.650360710899614,-0.6988594115849598,-1.5975104894495602,0.2462768028324838,-0.525759506100306,3.7687908357971915,-0.2454890914603881,-1.0515657366781916,-0.5307539798541995]],"accuracy_validation":0.8113207547169812,"mse_training":0.688,"accuracy_training":0.656,"mse_validation":0.37735849056603776,"bias":3.710015512737318E-18},{"epoch":48,"weights":[[-2.7500121516663465,-0.7083186309765036,-0.48151600639851766,-7.631926192304919,-14.659002885093834,0.1190805052413661,0.7041633546727994,-0.08617136614944786,0.05510189786714147,-1.3713904917710458,-0.07960819244394474,0.050619884659265216,2.1369893936886353],[1.5805712052279859,-0.6456521147872416,0.20840558420559377,4.487854431071482,10.157604209238507,0.6855875957678286,1.0071788300728757,0.01806987316925578,0.6577540834735283,-2.1934859047101245,0.4850095275510462,1.1338166123052713,-1.540601043864135],[1.348331636613171,1.4780871917367986,0.3876629186435344,3.3369725226489413,4.632592930203239,-0.6851508140421368,-1.5666047107596364,0.2430735922730634,-0.5136942402373,3.692512398416978,-0.23877338088971478,-1.0298002955041068,-0.4742758290055741]],"accuracy_validation":0.7735849056603774,"mse_training":0.672,"accuracy_training":0.664,"mse_validation":0.4528301886792453,"bias":4.0513349198853596E-18},{"epoch":47,"weights":[[-2.7336504537242834,-0.7024088335655416,-0.47820474473409624,-7.550310648219833,-14.624505144366273,0.1157373829103522,0.6922671486976747,-0.08455467632308132,0.054114804554803164,-1.3546571821305342,-0.07818449549836032,0.046913510423173106,2.3073910797037827],[1.5846908386436738,-0.6238221702172181,0.21056551747780924,4.47015388133632,10.210601478047755,0.6754775355076693,0.986568785107994,0.01951986295207989,0.6460240444356977,-2.1445460329032957,0.4775834983440708,1.116946533323594,-1.6836155137349471],[1.3278503052554205,1.4503474497558135,0.3821917237068977,3.2730575282990166,4.545097920666429,-0.671697631450964,-1.5340984598196303,0.24000691266387272,-0.5009771078871311,3.6268392169696386,-0.23277104862832387,-1.0092238422863375,-0.5016630451499086]],"accuracy_validation":0.8113207547169812,"mse_training":0.688,"accuracy_training":0.656,"mse_validation":0.37735849056603776,"bias":4.040461503129862E-18},{"epoch":46,"weights":[[-2.7195378460969466,-0.6998273968387505,-0.475599566331621,-7.477418257379859,-14.637955071109714,0.1118435609947391,0.6803870616808897,-0.0829204994583193,0.05082108129352414,-1.3516614292426192,-0.0760251940634561,0.043056059562511746,2.161817919442321],[1.5900659189282875,-0.5980840754221537,0.2129927636529367,4.456427846177641,10.261501492885639,0.6641046959444261,0.9653077228369958,0.02097930285431058,0.6356610592987549,-2.072051520080283,0.4682970805262413,1.0968947218043106,-1.597327340136193],[1.3083626173434697,1.422027918233958,0.3771592991292952,3.213891172617719,4.507647832571982,-0.6564309699721077,-1.5009573105318474,0.2369132958968799,-0.4873203994889095,3.5513489512587113,-0.22564393224539855,-0.9853145799063928,-0.44237805848720047]],"accuracy_validation":0.7924528301886793,"mse_training":0.64,"accuracy_training":0.68,"mse_validation":0.41509433962264153,"bias":3.9710800361226674E-18},{"epoch":45,"weights":[[-2.6921678460969467,-0.6912773968387506,-0.471369566331621,-7.39311825737986,-14.519955071109715,0.10943356099473912,0.6692170616808898,-0.0811504994583193,0.04897108129352414,-1.3460214292426191,-0.07376919406345611,0.04167605956251173,2.9488179194423205],[1.5940611145936077,-0.5769850355614519,0.21570951992139253,4.442100598839955,10.275387313725986,0.6551114781764172,0.9505451148959129,0.02221875790713349,0.6277691909230408,-2.0202955163238676,0.46165965328828523,1.0819417246132632,-2.1058904497641038],[1.2769974216781492,1.392378878373257,0.3702125428608395,3.143918419955405,4.375762011731638,-0.6450277522040988,-1.4750247025907641,0.23390384084405685,-0.4775785311131954,3.4939529475022963,-0.22126250500744252,-0.9689815827153454,-0.7208149488592888]],"accuracy_validation":0.5849056603773585,"mse_training":1.024,"accuracy_training":0.488,"mse_validation":0.8301886792452831,"bias":3.859426127911975E-18},{"epoch":44,"weights":[[-2.6641453263595496,-0.686568796825254,-0.4677609018835975,-7.310429679863903,-14.443005447192958,0.10918274677664724,0.6622767629389938,-0.07980078062715525,0.04936070640174068,-1.336007229349284,-0.07183352795145194,0.04177510475999228,3.2005426082896324],[1.56344113677937,-0.5653850331940034,0.21129952342348676,4.35240062791771,10.03438749082337,0.6402814816820888,0.9296751174068348,0.022398758841431866,0.6163891918656932,-1.9745555067335345,0.45226365505084865,1.0596417273964993,-2.1708896724448667],[1.27959487975499,1.376070275992312,0.371013874910722,3.150929813361692,4.539812210717495,-0.6299469414916785,-1.4472144063597905,0.2323741210785944,-0.4665881571640646,3.4381987380186274,-0.2138021728820101,-0.9467806306960622,-0.9075404150258358]],"accuracy_validation":0.5660377358490566,"mse_training":1.088,"accuracy_training":0.456,"mse_validation":0.8679245283018868,"bias":3.978674461181431E-18},{"epoch":43,"weights":[[-2.660963068116957,-0.6825216593466757,-0.4675198509131478,-7.236446153347223,-14.568655272364797,0.10002379769514746,0.6415949714352357,-0.07806483823267936,0.0422800064645287,-1.335468093189575,-0.07225024656124954,0.03268533192930004,2.1769382326228635],[1.5744811342937024,-0.5425750335916063,0.21428952300022222,4.331600624317973,10.131387470893047,0.6328014813108199,0.9132851171630877,0.02406875874494653,0.6074191916975347,-1.9021955091277962,0.4451176548692706,1.0433417270914442,-1.5468897734267948],[1.2653726239980645,1.349213138911337,0.36778282436353715,3.0977462904447486,4.5684620558196585,-0.6133079920389098,-1.410142614612285,0.22896817878060377,-0.45053745705869425,3.36529960425318,-0.20623945409063432,-0.9213908575603147,-0.5079359383771386]],"accuracy_validation":0.7924528301886793,"mse_training":0.672,"accuracy_training":0.664,"mse_validation":0.41509433962264153,"bias":3.928179318563689E-18},{"epoch":42,"weights":[[-2.6457630680727724,-0.6793316593403885,-0.4655998509055058,-7.15774615328192,-14.579655272066066,0.09420379770278947,0.624254971444024,-0.07610483823177623,0.03794000647067703,-1.324728093176028,-0.07180424655722013,0.02554533194020723,2.159938235103035],[1.5819011341428342,-0.5179550336080092,0.2169495229760886,4.3119006241170945,10.183387469699749,0.6238414812867333,0.8951351171463097,0.025718758738629683,0.5965591916900822,-1.84051551019651,0.438041654857597,1.026981727072475,-1.5478897788167516],[1.2427526241047477,1.321403138921453,0.36320282438002893,3.0387462905803244,4.527462056714225,-0.5985279920224652,-1.374652614604295,0.2253581787860174,-0.4353374570573903,3.2928796053083476,-0.19960945408299,-0.8978908575522523,-0.48993593546735215]],"accuracy_validation":0.7924528301886793,"mse_training":0.672,"accuracy_training":0.664,"mse_validation":0.41509433962264153,"bias":3.81327623488392E-18},{"epoch":41,"weights":[[-2.6305630680770586,-0.6761416593409199,-0.4636798509062454,-7.07904615328651,-14.590655272099875,0.08838379770180241,0.6069149714430007,-0.07414483823187887,0.03360000647008237,-1.3139880931780654,-0.07135824655753709,0.018405331939346938,2.1429382346653396],[1.5893211341232918,-0.49333503361200665,0.21960952297275063,4.292200624085881,10.235387469548243,0.6148814812841843,0.8769851171452678,0.0273687587378382,0.5856991916889085,-1.7788355112062708,0.4309656548563363,1.0106217270704378,-1.5488897794446825],[1.2201326241285761,1.2935931389259818,0.35862282438410653,2.9797462906161276,4.4864620568995415,-0.583747992018929,-1.3391626146022295,0.22174817878691147,-0.4201374570556221,3.2204596063201456,-0.1929794540814123,-0.8743908575493544,-0.471935934401724]],"accuracy_validation":0.7735849056603774,"mse_training":0.672,"accuracy_training":0.664,"mse_validation":0.4528301886792453,"bias":3.731591085277296E-18},{"epoch":40,"weights":[[-2.603633068076402,-0.6659116593408309,-0.45928985090613134,-6.976546153285743,-14.519655272094717,0.08286379770197823,0.58912497144316,-0.0715648382318679,0.030610006470181923,-1.2986480931777094,-0.0701422465574978,0.012815331939504477,2.140938234732919],[1.5951215615732481,-0.4681650007074932,0.2229995783942297,4.280401113088672,10.293390012524307,0.6048015784581584,0.8575752208517319,0.028908767213598977,0.5742292660364797,-1.7114353394176967,0.4228496913778828,0.9920418307694666,-1.6068734139701344],[1.1874021966779633,1.2581931060213796,0.35084276896251354,2.88904580161257,4.357459513918315,-0.5681480891930789,-1.3019627183088525,0.21762817031113968,-0.405677531403293,3.137719434531216,-0.18607949060299794,-0.8502209612485409,-0.41195229994385174]],"accuracy_validation":0.7924528301886793,"mse_training":0.656,"accuracy_training":0.672,"mse_validation":0.41509433962264153,"bias":3.509546480359338E-18},{"epoch":39,"weights":[[-2.5762630680763965,-0.6573616593408294,-0.4550598509061302,-6.892246153285734,-14.40165527209467,0.08045379770197902,0.5779549714431605,-0.06979483823186772,0.028760006470182595,-1.2930080931777048,-0.06788624655749743,0.011435331939505237,2.9279382347332223],[1.5962137689503406,-0.4490821896911757,0.22444617484983473,4.2543358013652846,10.274210665354534,0.5950242251160743,0.842381006381033,0.029844834424253362,0.5660609613290071,-1.649782360266208,0.4153452208414892,0.9745576124224146,-2.090615702435563],[1.1589399893008647,1.230560295005061,0.34516617250690756,2.830811113335946,4.258638861088041,-0.5559607358509956,-1.2755985038381539,0.214922103100485,-0.3956592266958209,3.0704264553797236,-0.1808310200666047,-0.8313567429014895,-0.7152100114787253]],"accuracy_validation":0.6792452830188679,"mse_training":1.008,"accuracy_training":0.496,"mse_validation":0.6415094339622641,"bias":3.598751105173082E-18},{"epoch":38,"weights":[[-2.5752230650952908,-0.6590316583966147,-0.45623985037074805,-6.842246148783661,-14.538655244838903,0.07581379803781056,0.5674649716329775,-0.06912483816129415,0.026430006747608002,-1.2979880911797608,-0.06741024639931623,0.006375332426215384,1.9499384428018156],[1.5822422676724146,-0.438984434841434,0.22216484867108774,4.184243815763392,10.15705802869538,0.5850278207723577,0.8263144005991181,0.03025089435557108,0.5574249068562928,-1.596012298347843,0.40760955811814087,0.9555029576292529,-1.785569885525069],[1.1718714875976854,1.2221325392111042,0.34862749815027266,2.8509030944357625,4.512791470491428,-0.5413243318431105,-1.2490418982460563,0.2138460430985937,-0.384693172500532,3.0216363914634146,-0.17357135750143757,-0.8072420885950379,-0.04225603645781273]],"accuracy_validation":0.4716981132075472,"mse_training":1.104,"accuracy_training":0.448,"mse_validation":1.0566037735849056,"bias":3.472850252633803E-18},{"epoch":37,"weights":[[-2.5407428974832564,-0.651941628692657,-0.45006982101060916,-6.724345912046589,-14.345654167470224,0.07354381793914283,0.5553149799454274,-0.066414832953726,0.026300021431773075,-1.2813979764169936,-0.06488423905292197,0.0056353526874833955,2.0599462582641825],[1.5644583146915787,-0.4180712957554442,0.2220683271486424,4.125469267802419,10.013201046954359,0.5738312144180694,0.806557661004931,0.030811367032287047,0.5456271127715618,-1.542027063502985,0.39889481861376663,0.9351265088493176,-1.408679052842251],[1.155175272966487,1.1941293704211566,0.3425539903125793,2.791777405659665,4.463647374863767,-0.5278577453901545,-1.2171351669643193,0.2105755652143095,-0.3727653930999663,2.9510610418557883,-0.16738262534345766,-0.7861256600763707,-0.5291546846029985]],"accuracy_validation":0.7358490566037735,"mse_training":0.608,"accuracy_training":0.696,"mse_validation":0.5283018867924528,"bias":2.953873613493271E-18},{"epoch":36,"weights":[[-2.524802897483257,-0.6513916286926574,-0.4467398210106095,-6.645945912046592,-14.300654167470238,0.07121381793914253,0.5455449799454272,-0.06500483295372603,0.02643002143177281,-1.2751079764169944,-0.06297823905292206,0.0028353526874830793,2.2579462582640657],[1.5670042421254717,-0.39471961219899754,0.22479093715053472,4.113382495393442,10.061839466914764,0.5646735108131252,0.7891199218905464,0.032033094207591234,0.5372486814198527,-1.4857767969449098,0.3919213632411787,0.9178848674843019,-1.6317444206972471],[1.136689345532595,1.1702276868647106,0.33650138031068744,2.725464178068644,4.370008954903378,-0.51637004178521,-1.1899274278499343,0.2079438380390053,-0.3645169617482571,2.8885207752977142,-0.1623151699708697,-0.7660840187113547,-0.5040893167478858]],"accuracy_validation":0.7924528301886793,"mse_training":0.688,"accuracy_training":0.656,"mse_validation":0.41509433962264153,"bias":2.7501981280680035E-18},{"epoch":35,"weights":[[-2.502209083073484,-0.6414181299440971,-0.4433196015372212,-6.553660400183094,-14.260018315328695,0.06462403741253106,0.5284347323398239,-0.06275035247050743,0.022132061644453416,-1.2697007691687143,-0.06141994151240831,-0.0022451522459536345,2.1574811237183713],[1.5703424654040812,-0.3777798920266181,0.22894049923345558,4.087779094794832,10.220822524952004,0.5583231548841419,0.7768095609502323,0.03274303100050201,0.5296484205038596,-1.4389872823241299,0.38605520959386624,0.905614433556241,-1.3948570771836282],[1.1107573078442126,1.143314467943771,0.3289315987543784,2.658782066803757,4.170390044724591,-0.503429905329615,-1.1605068193040167,0.20497942076287584,-0.3526187410449446,2.836324053428655,-0.15800731386407096,-0.748733079849857,-0.6405115257158104]],"accuracy_validation":0.7358490566037735,"mse_training":0.784,"accuracy_training":0.608,"mse_validation":0.5283018867924528,"bias":2.418128201333837E-18},{"epoch":34,"weights":[[-2.458678876130856,-0.635021887214453,-0.4353298675274919,-6.445101675065309,-14.031671178914575,0.06650523942861866,0.5196166417968607,-0.060149147968349595,0.02490793410407054,-1.2387445736221974,-0.05914033832731703,-0.0033525538391616693,3.0630730009523575],[1.5483338334544114,-0.3576433215045629,0.2276453224523961,4.033530484462247,10.11462786987072,0.5432667923087744,0.7571921960779653,0.03344214873744913,0.5174142247104979,-1.3908165910344727,0.37664756828775653,0.8839878094195525,-2.145657505155233],[1.089235732851254,1.116781654692072,0.3222370415257087,2.604471952018556,4.048237563391755,-0.49025474477033504,-1.1320713638887865,0.20167909852377086,-0.3431604177112003,2.7571971665924817,-0.1508792757430526,-0.7259990541199605,-0.7953029749781918]],"accuracy_validation":0.6226415094339622,"mse_training":1.008,"accuracy_training":0.496,"mse_validation":0.7547169811320755,"bias":2.2175765202366076E-18},{"epoch":33,"weights":[[-2.4350088779557892,-0.6262118876584113,-0.4311698678535724,-6.3379016780111925,-14.005671191518328,0.06242523916421812,0.5045466416928058,-0.057839148030009085,0.022427933932841614,-1.2248345747759022,-0.057774338402656764,-0.007912554061044588,2.0080729119093603],[1.5226582623508484,-0.34299419401545533,0.2271502910958575,3.9689547451513563,9.99628634332524,0.5312817874329929,0.7370440482475006,0.03426439145361688,0.5075636647096694,-1.3320303833825706,0.36727965244521416,0.8618201055136544,-1.5108579077674482],[1.0912413057797512,1.093322527646922,0.318572073208328,2.5618476942753294,4.140579102540986,-0.474189739630153,-1.0968532159542672,0.19854685586926252,-0.33082985753914274,2.684500960094285,-0.14287735982517055,-0.6992713499921795,-0.3751024833229798]],"accuracy_validation":0.7735849056603774,"mse_training":0.656,"accuracy_training":0.672,"mse_validation":0.4528301886792453,"bias":2.1506333708318366E-18},{"epoch":32,"weights":[[-2.3986076707334685,-0.6153280596166281,-0.4260361262526477,-6.228757728358525,-13.842957540134615,0.05920012436680107,0.4906850577376491,-0.05534593388610667,0.020876259474108046,-1.2066170537284064,-0.055373972161167254,-0.01190252929051806,2.0150146956875044],[1.5090446635171615,-0.32948234629046086,0.22782810551998942,3.9190683111805478,9.906393507835979,0.52258217832539,0.7205840440187916,0.03501520062861179,0.49935440138381626,-1.2815369389982492,0.35994655609762916,0.8445681677520818,-1.4982045024860506],[1.0684536973911172,1.0689268518801445,0.31276051718327136,2.5025901785934694,4.0677582866465345,-0.4622650157251328,-1.0665316277704016,0.19530283255036512,-0.32106891975455604,2.6157899946624683,-0.13794462971907506,-0.6780294370011334,-0.3946976723825202]],"accuracy_validation":0.7735849056603774,"mse_training":0.672,"accuracy_training":0.664,"mse_validation":0.4528301886792453,"bias":1.548728899447051E-18},{"epoch":31,"weights":[[-2.3693632002355853,-0.6070475036290994,-0.42146537360269787,-6.127549861511477,-13.732925013581038,0.05808087323193453,0.4801256628834818,-0.05310582042296376,0.02213683814103458,-1.1817363161964174,-0.053347612857538584,-0.013891269841792165,2.0002019129488366],[1.5008647126578907,-0.3118123322448018,0.22785811370804662,3.876968388994584,9.852393864073655,0.5129021865145423,0.7017940507320912,0.03596520214439427,0.4879444090418539,-1.2382969347694255,0.35232055990590966,0.8272481802410389,-1.4712021935447719],[1.0473891777525046,1.0429762818469566,0.3081597563452645,2.4434822339323836,4.011725403855283,-0.45146577277941863,-1.0371822396295338,0.19211271757143972,-0.31091950607952007,2.5476692529016556,-0.1323449928309842,-0.6587207089388162,-0.40688719858513045]],"accuracy_validation":0.7547169811320755,"mse_training":0.64,"accuracy_training":0.68,"mse_validation":0.49056603773584906,"bias":1.785692317453789E-18},{"epoch":30,"weights":[[-2.3415632002360387,-0.5997375036291559,-0.41753537360277493,-6.041849861511952,-13.627925013584615,0.054660873231830144,0.4670456628833736,-0.05121582042297461,0.018946838140973175,-1.1749963161966381,-0.05142161285757197,-0.0163212698418816,2.7972019129015964],[1.492468058551745,-0.29860772301148253,0.2285446640621384,3.8306600308139416,9.874668045923467,0.504885024409533,0.6887828559652082,0.03655361437717656,0.47916864257163694,-1.2015127650571455,0.3461770620526222,0.8141445035834624,-2.0229994710322448],[1.027985831859104,1.022461672613694,0.30354320599124984,2.4040905921134987,3.884451222009048,-0.4400286106743049,-1.0110910448625425,0.18963430533866824,-0.2989537396092418,2.5041450831895973,-0.1281274949776633,-0.6431870322811503,-0.6520899210504171]],"accuracy_validation":0.660377358490566,"mse_training":1.008,"accuracy_training":0.496,"mse_validation":0.6792452830188679,"bias":1.8854545239973914E-18},{"epoch":29,"weights":[[-2.301460832276627,-0.5901357767788478,-0.410368763879636,-5.923754159534571,-13.46553884228312,0.055646039074539196,0.4585860989547958,-0.04887261396766583,0.019917190911807155,-1.1603654524192604,-0.04796879106206331,-0.013621681532054217,2.762494353842638],[1.4619579208671762,-0.2846477517623486,0.22373463736438898,3.7400597939856675,9.686666840067954,0.4893750084844891,0.6677428413234325,0.03664361179521517,0.4651286290158203,-1.1548428813137184,0.3357310568856144,0.7901144877608508,-1.9810046374734007],[1.0183936015842603,0.9988999745142512,0.3011866229658605,2.3765951269643906,3.9100662565630655,-0.42550376059197015,-0.9815914662921893,0.1872011014653208,-0.28588407882425915,2.442844335668793,-0.12113431160616418,-0.621856604768366,-0.6593771955503022]],"accuracy_validation":0.660377358490566,"mse_training":1.024,"accuracy_training":0.488,"mse_validation":0.6792452830188679,"bias":1.8185407106730014E-18},{"epoch":28,"weights":[[-2.2630608322767967,-0.5807457767788708,-0.40348876387966554,-5.80865415953477,-13.315538842284456,0.056346039074493724,0.4498960989547545,-0.04657261396766866,0.0206671909117814,-1.1460154524193527,-0.04465279106207348,-0.011401681532094966,2.6564943538251553],[1.431455071247132,-0.27068693598314264,0.21892598232598517,3.6494722653522658,9.498715245816648,0.4738664236896692,0.6467034909460185,0.03673388042447178,0.45108999680545253,-1.1081663842277234,0.3252853416369413,0.7660854702836838,-1.938673507275499],[1.010496451204474,0.9755491587350681,0.2991152780042941,2.3520826555979903,3.948017850815706,-0.4106951757971047,-0.9518621159147342,0.18481083283606692,-0.27259544661386564,2.381817838582891,-0.11400459635748102,-0.6000475872911581,-0.5957083257307215]],"accuracy_validation":0.5471698113207547,"mse_training":1.024,"accuracy_training":0.488,"mse_validation":0.9056603773584906,"bias":1.7039485951410726E-18},{"epoch":27,"weights":[[-2.215160832241828,-0.5668157767725656,-0.39529876387254315,-5.664554159485407,-13.113538842015233,0.05331603908197077,0.4332560989634078,-0.0428526139668693,0.018417190919317084,-1.1225854524041443,-0.0416367910593486,-0.01227168152367724,1.8354943570053879],[1.3880550548244621,-0.25915693814702623,0.21361597838959231,3.5404722315468575,9.19171511946451,0.45797642526040616,0.6261134945631726,0.036243879371669514,0.4372999948079556,-1.0629963895653163,0.3146093390594173,0.7400754669316375,-1.4236744515578958],[1.0059964675921742,0.9500891608926462,0.29623528193356474,2.316982689354034,4.05301797689862,-0.3917751773753186,-0.9146321195405414,0.1815808338880697,-0.25655544462390434,2.313217843905276,-0.106344593782682,-0.5731675839475296,-0.2897073846285573]],"accuracy_validation":0.7735849056603774,"mse_training":0.768,"accuracy_training":0.616,"mse_validation":0.4528301886792453,"bias":1.1728869903250604E-18},{"epoch":26,"weights":[[-2.173486329764716,-0.5605164212594369,-0.3897897987652597,-5.557663743957801,-12.951576407698207,0.05218496743254214,0.42136559569601073,-0.040022817157846814,0.019116157086034025,-1.0916004235479069,-0.040221010203865745,-0.01548243409225605,2.221241479225002],[1.3687629214996708,-0.23879737484175537,0.21269553223385626,3.4744689123081542,9.10769681795102,0.4463860043435073,0.6050331150551065,0.03656381486211048,0.4256497356957743,-1.0154870824800502,0.30561317927980847,0.7204050314018479,-1.4447878368883238],[0.9836140984398545,0.9234302420742465,0.29164676298201747,2.2760955930651297,3.9750738440950864,-0.3790536848089909,-0.8816612367650781,0.1784311015886062,-0.24560415167843996,2.234723507963772,-0.09876421485855617,-0.5502863958491614,-0.6543411215177429]],"accuracy_validation":0.6792452830188679,"mse_training":0.768,"accuracy_training":0.616,"mse_validation":0.6415094339622641,"bias":8.397106811912117E-19},{"epoch":25,"weights":[[-2.131226319404397,-0.5537864198735172,-0.3839097969779534,-5.45056373093167,-12.779576328935555,0.05256496926528851,0.4082455977332374,-0.03704281683976688,0.018026158577980785,-1.0595804216397475,-0.03868500927234585,-0.01857243191870952,2.219242228984939],[1.3367329111308088,-0.21946737622852328,0.20865553044471694,3.3776688992696657,8.959696739118902,0.43155600250926407,0.5845931130161228,0.03581381454374577,0.4137597342023568,-0.971077085391412,0.29571717834747135,0.6957850292268069,-1.3877885871578433],[0.9733840984483975,0.8973702420750943,0.2898067629838506,2.2657955930774873,3.9510738441645525,-0.3646036848074939,-0.848101236763321,0.17620110158889093,-0.23262415167696926,2.1582935089669744,-0.09040421485773903,-0.5225763958476668,-0.70934112100816]],"accuracy_validation":0.6792452830188679,"mse_training":0.8,"accuracy_training":0.6,"mse_validation":0.6415094339622641,"bias":8.93864334629365E-19},{"epoch":24,"weights":[[-2.083155135379544,-0.540941555121764,-0.3743768328259711,-5.290331367763859,-12.540099823330072,0.05039432755278267,0.3919485023054881,-0.03323973154130759,0.018981762210656637,-1.0292636055771187,-0.03607571565510255,-0.02180390177019966,1.8065705547360382],[1.3196408168529006,-0.20214533418542185,0.20650249264331064,3.3106812002164183,8.837009291272729,0.4197120578427999,0.5683129645506513,0.03628537660077339,0.40164525553362024,-0.9184500096774337,0.28688050691994044,0.6754972142820084,-1.2785356263043826],[0.9424050087014527,0.8672033352802395,0.2824268366332748,2.1725509289629232,3.8342847864052496,-0.35058909842852387,-0.8155239928701002,0.17192645423340397,-0.22146527664090873,2.0753496171903665,-0.08417683704745152,-0.49905711105137834,-0.40592240761271925]],"accuracy_validation":0.7547169811320755,"mse_training":0.64,"accuracy_training":0.68,"mse_validation":0.49056603773584906,"bias":8.104910926337808E-19},{"epoch":23,"weights":[[-2.016080172065751,-0.5231528230986988,-0.3619455978677699,-5.109981191650608,-12.123929512181586,0.05093112825796134,0.37783337169296227,-0.029091502894320515,0.021882837204420545,-0.9902658098603324,-0.03287946396718297,-0.020788952400804483,1.791073710346982],[1.3007508869126208,-0.18708532111699036,0.2047025076764061,3.242581318434343,8.713009860165382,0.4056820711891555,0.5472029787256296,0.03655537884364491,0.3886052669021594,-0.8681199895534447,0.2789645131558186,0.6542972284864722,-1.3275323365477576],[0.8942199753279403,0.8343545901887427,0.27179558664197806,2.0603006346317465,3.5421139063641114,-0.33709591248005794,-0.7802988764325527,0.1675082233435453,-0.21132636300321192,1.986021801349591,-0.07945709497124942,-0.4788720746252377,-0.3414288529802876]],"accuracy_validation":0.7547169811320755,"mse_training":0.672,"accuracy_training":0.664,"mse_validation":0.49056603773584906,"bias":1.08214770769784E-18},{"epoch":22,"weights":[[-1.9779502788820422,-0.5120028355191979,-0.3551256227087679,-4.978281375658001,-11.923930377016328,0.0481311030489487,0.36296334482788306,-0.02617150556242771,0.021982814295500322,-0.968045834241312,-0.03068347279953778,-0.02530898239400928,1.7340674540956589],[1.2902766398352024,-0.1717428231612362,0.2053250769430117,3.1975770579259333,8.700491349509415,0.39531919932263465,0.5294462983183297,0.037439750991971,0.3760629145593124,-0.8218335451122678,0.27197185203197694,0.6365578888144614,-1.3041122354693908],[0.8665643292216497,0.8078621046534877,0.2643530422163706,1.9736050791475492,3.354633281854823,-0.3239330154045244,-0.7476721691601738,0.16370385386332625,-0.1988839877514449,1.9175153812893941,-0.07466042501505306,-0.45661270496002243,-0.30784269780733153]],"accuracy_validation":0.7547169811320755,"mse_training":0.656,"accuracy_training":0.672,"mse_validation":0.49056603773584906,"bias":1.3690446131069203E-18},{"epoch":21,"weights":[[-1.9129394686926722,-0.4932778796253756,-0.3438138340444058,-4.826459578854552,-11.511333123478565,0.04833531601240395,0.35054107693518305,-0.022533577947136233,0.02119734007174191,-0.9409055514560005,-0.026309740692237762,-0.023155043141741872,2.4335649518060603],[1.2447293570403055,-0.15673607912203064,0.19967844641789273,3.0980102285706437,8.343691043718543,0.37909138353220884,0.5084272516972503,0.03694100709930942,0.36294570939677323,-0.7841390985076628,0.2611268593251784,0.6101812298249487,-1.7821554696173552],[0.8471008018271764,0.7741304047204598,0.25868788407712756,1.9213501116993885,3.298836334107932,-0.30790941257755367,-0.7142308546463944,0.1605646701406962,-0.18498130836514734,1.8526806518994778,-0.0681891644155546,-0.43238998522277755,-0.5292969613697684]],"accuracy_validation":0.49056603773584906,"mse_training":1.072,"accuracy_training":0.464,"mse_validation":1.0188679245283019,"bias":1.0866259732879524E-18},{"epoch":20,"weights":[[-1.8642594687229597,-0.4749278796335905,-0.3349338340493543,-4.684959578902883,-11.223333123713301,0.04574531600895179,0.3374210769339171,-0.020103577948125964,0.021717340068750764,-0.915165552465214,-0.024073740693618638,-0.02382504314560838,2.4835649498962544],[1.2148381585076977,-0.1460153221683877,0.1949394802366946,2.995544527008182,8.112841723691124,0.3668378354706948,0.49139454660012627,0.03704901121521124,0.3509448284598583,-0.7462823655789688,0.25257580871631724,0.5904074355306015,-1.468899248257597],[0.8283120003900722,0.7450596477750316,0.25454685026327445,1.8823158133101798,3.241685654370089,-0.2930658645125874,-0.6840781495480043,0.158026666025784,-0.17350042742524122,1.789083919979997,-0.06187411380531285,-0.41194619092456386,-0.8925531808197199]],"accuracy_validation":0.6037735849056604,"mse_training":0.96,"accuracy_training":0.52,"mse_validation":0.7924528301886793,"bias":1.214893471298135E-18},{"epoch":19,"weights":[[-1.8276503382929947,-0.46155807354941,-0.3298440103726454,-4.563961357095075,-11.110339756581192,0.041125174986959896,0.31931101497122216,-0.017263618292223032,0.017687250835940558,-0.8917160561067676,-0.02303779076298387,-0.029945175338319117,1.813506025723839],[1.2080792501048518,-0.1280505554547603,0.19536767679611966,2.931978451831589,8.077234895371717,0.3580327491033367,0.4752203138697252,0.03779986391481064,0.3426894286488681,-0.6843062791372163,0.24435442586035916,0.5710548874349575,-1.2192944062906352],[0.798461778362953,0.7137250749772238,0.24902883002714069,1.8248836666789647,3.1642991155573856,-0.2796406371232374,-0.6497938548549087,0.15443585367028162,-0.1612149383814408,1.7036583371797982,-0.05468868087998951,-0.3864735106362092,-0.4720990986142667]],"accuracy_validation":0.7358490566037735,"mse_training":0.752,"accuracy_training":0.624,"mse_validation":0.5283018867924528,"bias":1.2852908522232476E-18},{"epoch":18,"weights":[[-1.7599892584568206,-0.442520783859521,-0.3196035321414379,-4.414641070535804,-10.73595992582203,0.04225825187064289,0.3063728483545709,-0.013706216945286669,0.018704476796390822,-0.8490689030381321,-0.019979411339485255,-0.030946530492225056,2.6028635266937217],[1.1749981904324538,-0.1115778429660896,0.19266720179076546,2.8552581921281655,7.855855224128091,0.34249967544155,0.4514384827313333,0.038092463413926386,0.3285722036802942,-0.6435034240234279,0.23484604799861242,0.5480062451261642,-1.8156511870690581],[0.7638817581991769,0.6782150727986643,0.2414888268012873,1.7522836398231165,3.0112989560418453,-0.26524064034513356,-0.6130738570998662,0.15058585282422945,-0.14811493937331718,1.6202083289973739,-0.048238682441741364,-0.3624235131735102,-0.6650998188057243]],"accuracy_validation":0.4528301886792453,"mse_training":1.2,"accuracy_training":0.4,"mse_validation":1.0943396226415094,"bias":1.2062105717854569E-18},{"epoch":17,"weights":[[-1.7115833883660505,-0.423794840876645,-0.3111499829513551,-4.265381873948933,-10.548050040739145,0.03967139461019392,0.28748466318384797,-0.009891963848612748,0.014639140907639663,-0.8195978682003745,-0.01796650683296571,-0.03496232778765572,1.7024909657206098],[1.1323782164814766,-0.09884599588879113,0.1883000185771433,2.7586651843964756,7.654822171865131,0.32761401360498726,0.4322944786006855,0.03762768371740018,0.31727580332761934,-0.5981077947605757,0.22365162056831234,0.523188086739633,-1.4280143873237363],[0.7580958620593846,0.6467572827384901,0.2374024608248266,1.6996174509679371,3.0244221232219193,-0.24776812124812167,-0.5750416677984955,0.14723637942408166,-0.13275320313189118,1.5453416648967644,-0.039057159517960786,-0.3335895574915484,-0.15236405757793403]],"accuracy_validation":0.6226415094339622,"mse_training":0.832,"accuracy_training":0.584,"mse_validation":0.7547169811320755,"bias":1.2040508424698248E-18},{"epoch":16,"weights":[[-1.64702073625843,-0.40363594461109564,-0.2988917992490711,-4.092509688563711,-10.204136932715246,0.03800418862154085,0.2705932490103349,-0.005486151845635625,0.015388079245155,-0.7785254160421052,-0.015615510019549658,-0.03775815311498159,1.5770760254114369],[1.1110753738727643,-0.08161067269672234,0.1849111504560108,2.681406637777213,7.404138051836323,0.31472155437501675,0.4113651197483943,0.0383797445506254,0.3033566337327471,-0.5439621053333841,0.2149060777503292,0.5015008899941616,-1.2917997012169207],[0.7148360525604763,0.6093630632808721,0.22853314524367502,1.6040038122019764,2.93119313522683,-0.23320845602949816,-0.5372208947726914,0.1420785065878792,-0.11958297187453436,1.4501235233113041,-0.03266261351339364,-0.3091065354187513,-0.16316380337557768]],"accuracy_validation":0.6037735849056604,"mse_training":0.848,"accuracy_training":0.576,"mse_validation":0.7924528301886793,"bias":1.4839128930735137E-18},{"epoch":15,"weights":[[-1.5822139624857858,-0.38085740894905973,-0.28748051829748233,-3.9263429202597475,-9.871265928743751,0.0352156502948973,0.2518203153923832,-0.0010453360277257317,0.014703682965130103,-0.7322683322636908,-0.013722063456675532,-0.04254079818258832,1.4830442965972357],[1.0872514490741712,-0.06575581484090007,0.18361389971526984,2.6222882593756527,7.192227932622259,0.30223442064914446,0.39071014993877673,0.039424983503342,0.28988277010913677,-0.5017768352614638,0.20704103249670333,0.4823348447530467,-1.17341535521326],[0.6738532035864261,0.570729669763014,0.21841911503282693,1.4969554222995736,2.8102322504694017,-0.21793278397698237,-0.4977929913451225,0.1365924518172526,-0.10542471197089928,1.36168116946097,-0.026691014822641863,-0.2851578451100299,-0.18751642056503837]],"accuracy_validation":0.7735849056603774,"mse_training":0.768,"accuracy_training":0.616,"mse_validation":0.4528301886792453,"bias":1.4246472225174107E-18},{"epoch":14,"weights":[[-1.5520043896756943,-0.37144547134539857,-0.28389018385780046,-3.833292856570295,-9.769010015118614,0.030560049006339112,0.2384621971441259,8.723664788103565E-4,0.012891997657812057,-0.7167653844216448,-0.011972669431913663,-0.04651435868203545,1.5781677344005125],[1.076960713518791,-0.05109262838159173,0.1843085961204046,2.5590408029190566,7.144007413169248,0.2943293694341433,0.3761511312362761,0.04033160395669097,0.28110372230314723,-0.45982928786732735,0.20015712907587943,0.46662054780787354,-1.0548805265892547],[0.6539343663317144,0.5466545457000445,0.21413408418801025,1.4671528150667175,2.756196856297273,-0.205372131473423,-0.46987585439436447,0.13376812885736744,-0.0948339788575918,1.3042306742247876,-0.021556505426579834,-0.26546998766540963,-0.4011746869923203]],"accuracy_validation":0.7547169811320755,"mse_training":0.752,"accuracy_training":0.624,"mse_validation":0.49056603773584906,"bias":1.6099565607507472E-18},{"epoch":13,"weights":[[-1.4858343410349377,-0.352735466587518,-0.27382017379147877,-3.673592785398319,-9.407009629767247,0.030370058522163443,0.2236222075643657,0.004422367933706952,0.013102005836708099,-0.6744153673337808,-0.009096664752639105,-0.0491443496380672,1.5851704004026579],[1.0453706648780345,-0.03429263313947208,0.18177858605408284,2.4719407317470807,6.9350070278178775,0.280119359918319,0.35427112081603623,0.04063160250179437,0.26779371412425124,-0.41872930595519176,0.19083112439660488,0.4452005387639053,-0.8688831925914005],[0.6193543663317144,0.5111445457000444,0.20659408418801017,1.3945528150667172,2.6031968562972736,-0.1909721314734231,-0.43315585439436427,0.1299181288573674,-0.0817339788575918,1.220780675224787,-0.015106505426579845,-0.24141998766540976,-0.5941746869923207]],"accuracy_validation":0.7169811320754716,"mse_training":0.768,"accuracy_training":0.616,"mse_validation":0.5660377358490566,"bias":1.5519651225097302E-18},{"epoch":12,"weights":[[-1.4212765144026958,-0.3363954220158184,-0.26262090982457736,-3.4916652595968487,-9.059960483811711,0.031085531840687988,0.21079436026553414,0.008016088760916064,0.015845150500614538,-0.6356102770947398,-0.005500747942220387,-0.048560216646376456,1.4031019629138832],[0.9984575048940324,-0.02570087601289525,0.17584362922441765,2.354424400835157,6.601441992089375,0.26427606496255696,0.3342772652981411,0.040857614010220394,0.255785404776615,-0.38181553474609986,0.1810301387906138,0.42088050108572034,-1.1002040544475091],[0.6017096996834751,0.48621274400176806,0.20132977705077404,1.3301416201771696,2.5897127460702407,-0.17584430983618562,-0.40033415157763746,0.12609839652173213,-0.07246881417386208,1.1450618137766537,-0.008901436631007483,-0.21768408297891545,-0.18078538764743624]],"accuracy_validation":0.7735849056603774,"mse_training":0.768,"accuracy_training":0.616,"mse_validation":0.4528301886792453,"bias":1.7173937754077029E-18},{"epoch":11,"weights":[[-1.3695082226341784,-0.3152324565817155,-0.2545293712478158,-3.344362205031464,-8.807534760601248,0.025523911254073686,0.19151362633320942,0.011690751139366205,0.012777769464208746,-0.6043299726306247,-0.0034008958585339372,-0.05418230106664535,1.3127526039518163],[0.9717618605649191,-0.014445352360829073,0.17501837043876228,2.294625832085983,6.490262157700226,0.2530349080593827,0.3176014220708977,0.04094232618832448,0.2457639562327741,-0.3440344296635509,0.1730981550837079,0.40331420996559136,-1.0427492608391864],[0.576637052244071,0.4537942549155989,0.19406349725966776,1.2426371343609584,2.4484668572489303,-0.15904153234639706,-0.36437757441806923,0.12233902196517785,-0.05937998459361559,1.07600040422999,-0.0030693050077880376,-0.19449570743851746,-0.14789082229369266]],"accuracy_validation":0.7735849056603774,"mse_training":0.736,"accuracy_training":0.632,"mse_validation":0.4528301886792453,"bias":1.496491977768761E-18},{"epoch":10,"weights":[[-1.3203082226435907,-0.2976524565831577,-0.2452893712495646,-3.20296220504321,-8.499534760682439,0.022173911252335615,0.17516362633153615,0.014460751139158153,0.01075776946337958,-0.5797099736340017,-4.208958592435358E-4,-0.05726230106904177,1.5247526030812888],[0.9512438539768425,0.002916785152747613,0.17261561371206824,2.218705131067539,6.304428398334303,0.24077872331892117,0.29915582586645606,0.04191634273837722,0.23540806575943415,-0.3008915125466049,0.16512991557929355,0.3828344940093101,-1.552800861321014],[0.5479550588415605,0.4188521174034644,0.1872262539881105,1.1771578353911476,2.3263006166960434,-0.14343534760419743,-0.32958197821195406,0.11859500541533312,-0.0470040941194465,1.0082374881164209,0.0019189344973359515,-0.17093599147983968,0.15016077905866165]],"accuracy_validation":0.5094339622641509,"mse_training":0.944,"accuracy_training":0.528,"mse_validation":0.9811320754716981,"bias":1.4123431828483573E-18},{"epoch":9,"weights":[[-1.2349891141266272,-0.26869574685275305,-0.23070659274289593,-2.9796610232808054,-8.02818183733204,0.019971765884028693,0.15768419584129656,0.018884992184135536,0.010496985072280932,-0.5421457223673866,0.00406063926268645,-0.05505176459601091,1.2642826650258634],[0.8951192957499894,0.004379655825417121,0.1650820909132137,2.073597268085722,5.920041817723525,0.22744965596913067,0.28414398977515604,0.041231988333133913,0.22354795778787598,-0.272747770959987,0.15561788507735017,0.3598426182928243,-1.0685243152427852],[0.5187605085514508,0.38843253700039027,0.18017699828029632,1.098964516610559,2.2393342739564233,-0.12790413488610008,-0.29709071163041423,0.114855118775599,-0.03488320175678974,0.9425294952631879,0.006949429877349388,-0.15015465223638472,-0.0736458289641404]],"accuracy_validation":0.6226415094339622,"mse_training":0.864,"accuracy_training":0.568,"mse_validation":0.7547169811320755,"bias":1.73764252974398E-18},{"epoch":8,"weights":[[-1.159518888968048,-0.246113998059724,-0.21626831818180986,-2.780269631284266,-7.582905756807384,0.022157144027096325,0.1457094306563278,0.023342529966035547,0.013471490799127133,-0.5015696036515114,0.008300065429542702,-0.054656235091182004,1.6278104319941664],[0.8691157322227913,0.026387606115711563,0.16032333854842576,1.9713011343554765,5.709745339599419,0.2127336517557278,0.2608181253370371,0.04132438258496647,0.21062307612094744,-0.20323520230064795,0.1442381635153406,0.33512618010906114,-0.6201869216156095],[0.4692938469200703,0.34384283791706677,0.17049747608399818,1.0018692583442648,2.0043546715558755,-0.11537350881576489,-0.2617900820073263,0.11030518674186639,-0.024932825816707485,0.8324408078879729,0.01408972527250269,-0.12583374355745053,-0.8855109895596199]],"accuracy_validation":0.6792452830188679,"mse_training":0.816,"accuracy_training":0.592,"mse_validation":0.6415094339622641,"bias":1.4801471554842041E-18},{"epoch":7,"weights":[[-1.0643537228303714,-0.20924370678087248,-0.19624175991623824,-2.5064026702234146,-6.9880121117642755,0.02228447763455834,0.12330908464511083,0.029681577159889137,0.01387051008635665,-0.44652707496242355,0.012739181378960043,-0.05337809224227487,1.2345036762584067],[0.8132984838333454,0.02665424843404559,0.15043055321413767,1.8185607890882354,5.346899991921668,0.19697808774632478,0.24089555478578398,0.03993319668821811,0.19758236182494174,-0.17294350932274077,0.13402233486615314,0.3075629995200259,-1.1458728713605568],[0.4299459291718411,0.306705904319881,0.16036370315271467,0.8807426425506563,1.7723063741905172,-0.09974527841382388,-0.2194671654448562,0.10535732544476106,-0.012291130807931316,0.7471065862209776,0.01986643797227283,-0.09954870581732252,0.03348171592108651]],"accuracy_validation":0.5283018867924528,"mse_training":0.88,"accuracy_training":0.56,"mse_validation":0.9433962264150944,"bias":9.48500878511339E-19},{"epoch":6,"weights":[[-1.0021455173162732,-0.19129318088546768,-0.1852686974183969,-2.3404344717949064,-6.6363774796890835,0.021529492980987743,0.10797034250401463,0.033613692612082385,0.015463676131818913,-0.410941644413283,0.015398140132476928,-0.05484683433894332,1.2379727436542152],[0.7706035719527292,0.03808232289469912,0.14517619030798104,1.7177810545719514,5.0162066305203385,0.1828522963394164,0.22131358374514376,0.03962095541333999,0.18557853509021527,-0.12618460400251894,0.12308312442289228,0.2849809708173012,-1.4825935997510182],[0.4104326355383597,0.2773273039638224,0.15464500356102998,0.8155541786384326,1.7513651035166526,-0.08486450235334483,-0.18454645226311983,0.10173745126744592,-0.0018804701186671492,0.664762250351615,0.028146689662016718,-0.07549793501792933,0.3667333769157398]],"accuracy_validation":0.4716981132075472,"mse_training":1.12,"accuracy_training":0.44,"mse_validation":1.0566037735849056,"bias":9.118858564821434E-19},{"epoch":5,"weights":[[-0.9288252862251472,-0.16995315718922577,-0.16981865884264508,-2.121134104396234,-6.28537558760648,0.020519520166891517,0.08863035315522601,0.038913702348508654,0.016743701849370535,-0.3658915057966747,0.01916815078610908,-0.05634680586791192,1.1759844995873436],[0.7406328637020773,0.05029327044938311,0.13853863357171076,1.6056663054252909,4.845423202639843,0.17061215869829421,0.2071020279198747,0.03920528326718296,0.1762000282307445,-0.08201406535276427,0.11365183859541651,0.26376407889917286,-0.9111315752359888],[0.3670831126978853,0.24377633271289645,0.14583252172154842,0.70836856038642,1.5711466393145443,-0.07161439189812636,-0.15099490708906219,0.09685311367717662,0.006218011023251958,0.5755415730852516,0.0338079648358603,-0.052781071570832394,-0.14274040353241846]],"accuracy_validation":0.6792452830188679,"mse_training":0.96,"accuracy_training":0.52,"mse_validation":0.6415094339622641,"bias":5.168916686006565E-19},{"epoch":4,"weights":[[-0.8263646599827323,-0.14269897001003554,-0.15020135620891714,-1.875334821569601,-5.662947803888029,0.024389976852011584,0.07521945587414298,0.044221235543970075,0.019401829195600913,-0.3103236964765906,0.02561962393284483,-0.051554532426034395,1.2630892615976905],[0.6739596379912984,0.06071797030194925,0.12711568861112474,1.4393135373161408,4.388250189562966,0.15075924786245623,0.18115903105584077,0.038158327469698314,0.15898037815700541,-0.046334785473776625,0.10072215087803862,0.2331284794778807,-0.46089322733617044],[0.3312957121662495,0.20609744568114016,0.13763816404840648,0.6289220456689377,1.40589186867297,-0.05563193774740844,-0.11164101294394534,0.09259253627919978,0.020779533750760616,0.48429448388618,0.040286179406502455,-0.026937745591417685,-0.6800835134425843]],"accuracy_validation":0.660377358490566,"mse_training":0.864,"accuracy_training":0.568,"mse_validation":0.6792452830188679,"bias":5.402614444484083E-19},{"epoch":3,"weights":[[-0.7026146599828863,-0.10405897001005512,-0.12777135620894503,-1.5618348215698337,-4.98694780388934,0.02886997685197804,0.05958945587411148,0.050421235543967796,0.023711829195573134,-0.2517336974766612,0.03359962393283375,-0.043974532426068746,0.7920892615849985],[0.5892679454415966,0.0608877508973574,0.11329539016637162,1.2510104711028542,3.8742354717394334,0.1310689753101797,0.15560874623870885,0.037468281135807635,0.14445015875242198,-0.025045066202576925,0.08729200642532442,0.20055807610049198,-0.9079402425955299],[0.2922374047161053,0.16728766508575163,0.1290284624931874,0.5037251118824565,1.2439065864978154,-0.04042166519509839,-0.07046072812678204,0.0870825826130927,0.030999753155371734,0.4044147656150513,0.045736323859227795,-0.0019473422139946463,0.23796350182946668]],"accuracy_validation":0.3584905660377358,"mse_training":1.28,"accuracy_training":0.36,"mse_validation":1.2830188679245282,"bias":4.993860262432027E-19},{"epoch":2,"weights":[[-0.581364576063181,-0.07391896018867858,-0.10263134006071649,-1.273234669844507,-4.138947278418067,0.034929995389717,0.04587947448060379,0.057021236690467644,0.028551840961377677,-0.19011367685374664,0.04106963189402063,-0.03576451335312601,0.834091396000341],[0.5117778691304378,0.06637774189462194,0.10037537523406581,1.0809103294901528,3.298235006462359,0.11078895798836354,0.13009872848095463,0.03573828030833703,0.12719014735982143,-0.001625084364325213,0.07478199905404065,0.16952805798463694,-0.8809421061369909],[0.24847739710755906,0.13165766426711056,0.11680846127726466,0.38522510176983127,0.9719065263036192,-0.026201666411021188,-0.031240728975520205,0.08221258229406342,0.043419752782167705,0.31937476315388535,0.050776323269324686,0.020872656828917625,0.16896323095558474]],"accuracy_validation":0.5094339622641509,"mse_training":0.928,"accuracy_training":0.536,"mse_validation":0.9811320754716981,"bias":3.1018776570944887E-19},{"epoch":1,"weights":[[-0.3781852400338472,-0.021954793641136183,-0.06595483024884845,-0.8479089844650637,-2.764317281164236,0.04610341962664502,0.033155191119665674,0.0663812852516959,0.03809206742376894,-0.0987246713868951,0.05339576043439112,-0.01738107407781256,0.6124901847719347],[0.34467412084715593,0.05600788551131104,0.07098444906429204,0.7290615371406232,2.028246612607166,0.08184180295510046,0.1014171360208139,0.03066400074861483,0.1025367000787655,0.004611022541399739,0.054502913080692515,0.12370175979370202,-0.8895882445349472],[0.21240180936150704,0.09006335410287906,0.10952287763517038,0.31174820873991715,0.8672649229049813,-0.00842793561468616,0.010165146845558626,0.07792681329255735,0.058532973600832365,0.2217496507813091,0.05872928070230237,0.04831551574453903,0.3992105805819469]],"accuracy_validation":0.24528301886792453,"mse_training":1.44,"accuracy_training":0.28,"mse_validation":1.509433962264151,"bias":9.594333764526308E-20},{"epoch":0,"weights":[[-0.20289193560693114,0.026342641809956546,-0.03255301581204477,-0.45607761416873943,-1.6030843815515228,0.05809887114835754,0.02221672653880178,0.07469956588786074,0.04811175124752732,-0.007941624246529565,0.06319172654352062,-0.004069869284251536,1.000679679729505],[0.21409076989176012,0.04575043498439105,0.04870262736585079,0.44523008752245496,1.177013268906172,0.056936337991536176,0.07436558950017844,0.027745719193081383,0.08326700082279986,0.007427963854563027,0.038336943845201345,0.0839005432380699,-0.740780021255373],[0.1676918558899868,0.05202336917870633,0.09840288489680794,0.20374828806176146,0.5572653669932623,0.004482077827165616,0.048155157947058005,0.07252681421192594,0.06778298903303963,0.12814966232778027,0.06509928382866405,0.07480552750661015,-0.13778713765519857]],"accuracy_validation":0.3018867924528302,"mse_training":1.312,"accuracy_training":0.344,"mse_validation":1.3962264150943395,"bias":-1.7172720803617355E-19}]