[{"epoch":999,"weights":[[-0.021740434348429972,-0.007497147582448677,-0.0028562094199536645,-0.07303855769210972,-0.05206082210080909,0.002994880252923426,0.011264194876019935,-0.0018481375426593798,0.0017715315990825384,-0.021059671979595917,9.649422561069019E-5,0.004922678394880114,0.01000876711804637],[0.015546028060539126,-0.019136784929546437,0.0012515651481234777,0.03745984230303642,0.044759077640581596,0.013491135306923255,0.021193469626323937,1.4632171788415854E-4,0.010314946840079893,-0.05770717285851184,0.008884698705666614,0.020948230943178787,-0.006974844731302684],[0.00812620020808771,0.0278756671433395,0.0028690844406423503,0.03706820706257538,0.009093506075184365,-0.014913756181494073,-0.030746124107482294,0.0029265965936515464,-0.010754993358902797,0.0804239994768646,-0.007419219397658796,-0.024225253176416068,-0.0012581432774383338]],"accuracy_validation":0.7735849056603774,"mse_training":0.432,"accuracy_training":0.784,"mse_validation":0.4528301886792453,"bias":3.0162949977876695E-20},{"epoch":998,"weights":[[-0.02172895060475262,-0.0074926086701171644,-0.002855309297552602,-0.07298931332185363,-0.05207421720455653,0.002992004596130951,0.0112541111368974,-0.001846673367704027,0.001769651630367928,-0.02104430593032192,9.669451308355327E-5,0.004917173949673211,0.010009041064686967],[0.015536341140706079,-0.019117655846003064,0.0012520265277374011,0.03743465021661985,0.04476557046551962,0.013480123361079082,0.02117522937429004,1.4669363554091616E-4,0.01030656738931689,-0.0576553426932699,0.008877288584478036,0.020930703487189013,-0.006975370336712865],[0.008124403384243403,0.027851999147464616,0.002867722938627362,0.03704415477873582,0.00910040835399376,-0.01489986857885742,-0.030717800116325848,0.002924760501039435,-0.01074473393942519,0.08035680326234863,-0.007412009563943077,-0.024202221275219378,-0.0012578916186687615]],"accuracy_validation":0.7735849056603774,"mse_training":0.432,"accuracy_training":0.784,"mse_validation":0.4528301886792453,"bias":3.0840456057001626E-20},{"epoch":997,"weights":[[-0.02171746255874692,-0.007488066910459046,-0.0028544081777494537,-0.07294005297467125,-0.05208760840173084,0.002989128480932447,0.011244025538474941,-0.0018452087539739023,0.0017677716219617393,-0.021028934403970058,9.689472768744597E-5,0.004911668751821154,0.01000931405223932],[0.015526654473573017,-0.019098524271473172,0.001252487788001971,0.037409455217680576,0.044772059173296824,0.013469109533299436,0.021156985733427832,1.4706569198098807E-4,0.010298186537193001,-0.05760349814799646,0.008869877202396046,0.020913172610209772,-0.006975895471635776],[0.00812260200537076,0.027828325813276586,0.0028663605585596444,0.037020089430492766,0.009107310843390903,-0.01488597863587927,-0.030689470877041165,0.0029229238308692393,-0.01073447307889512,0.0802895871907233,-0.007404798396464986,-0.02417918520038808,-0.0012576394712982028]],"accuracy_validation":0.7735849056603774,"mse_training":0.432,"accuracy_training":0.784,"mse_validation":0.4528301886792453,"bias":3.212554564545566E-20},{"epoch":996,"weights":[[-0.021705970203779817,-0.0074835223010412365,-0.0028535060593030946,-0.07289077663680259,-0.05210099565193685,0.0029862519076773574,0.011233938080110074,-0.0018437437011031028,0.0017658915744314793,-0.02101355739625432,9.709486971827208E-5,0.004906162801566146,0.010009586075334418],[0.015516968058611975,-0.01907939020554045,0.0012529489288211756,0.03738425730614854,0.044778543737752634,0.013458093822921834,0.02113873870255578,1.474378872873383E-4,0.010289804283065739,-0.05755163921774771,0.008862464558948261,0.020895638311133734,-0.006976420132634258],[0.008120796065364701,0.027804647137926054,0.0028649972992940815,0.036996011004156115,0.00911421352914111,-0.014872086352246572,-0.030661136387804273,0.002921086582692088,-0.010724210777237581,0.0802223512527588,-0.007397585895048018,-0.024156144951057043,-0.0012573868333948226]],"accuracy_validation":0.7735849056603774,"mse_training":0.432,"accuracy_training":0.784,"mse_validation":0.4528301886792453,"bias":3.092421745108972E-20},{"epoch":995,"weights":[[-0.02169447353319555,-0.00747897483942443,-0.0028526029409682917,-0.07284148429444748,-0.05211437891462031,0.0029833748767172973,0.011223848761160208,-0.0018422782087247074,0.0017640114883467832,-0.020998174902877913,9.729493947334032E-5,0.00490065609915269,0.010009857128582624],[0.015507281895284906,-0.019060253647790633,0.001253409950097176,0.03735905648193703,0.04478502413262765,0.013447076229282257,0.0211204882804912,1.4781022154268088E-4,0.01028142062629124,-0.05749976589758196,0.008855050653661376,0.020878100588851825,-0.006976944316257285],[0.008118985558107474,0.027780963118559435,0.0028636331596832835,0.03697191948601259,0.009121116396949519,-0.014858191727646937,-0.030632796646789837,0.002919248756058349,-0.010713947034378392,0.08015509543921662,-0.007390372059516193,-0.02413310052636166,-0.0012571337030199985]],"accuracy_validation":0.7735849056603774,"mse_training":0.432,"accuracy_training":0.784,"mse_validation":0.4528301886792453,"bias":3.1110529124101877E-20},{"epoch":994,"weights":[[-0.02168297254031549,-0.007474424523163059,-0.002851698821495692,-0.07279217593376583,-0.05212775814906708,0.002980497388406076,0.011213757580982657,-0.0018408122764707834,0.0017621313642794195,-0.02098278691953324,9.749493725137048E-5,0.004895148644827583,0.010010127206573575],[0.015497595983043634,-0.01904111459781154,0.0012538708517302985,0.03733385274494254,0.044791500331563164,0.013436056751715178,0.02110223446605014,1.481826948294765E-4,0.010273035566224345,-0.05744787818255954,0.008847635486061168,0.020860559442253165,-0.006977468019039921],[0.008117170477468667,0.027757273752318967,0.0028622681385775586,0.03694781486232541,0.009128019432460832,-0.014844294761768627,-0.03060445165217125,0.0029174103505176297,-0.010703681850244123,0.08008781974084953,-0.007383156889694012,-0.024110051925437893,-0.0012568800782283174]],"accuracy_validation":0.7735849056603774,"mse_training":0.432,"accuracy_training":0.784,"mse_validation":0.4528301886792453,"bias":3.19843045955669E-20},{"epoch":993,"weights":[[-0.021671467218438108,-0.007469871349805257,-0.0028507936996317886,-0.0727428515408771,-0.05214113331440284,0.0029776194430996866,0.011203664538934646,-0.0018393459039723762,0.0017602512028032948,-0.020967393441901846,9.769486335249829E-5,0.004889640438839926,0.010010396303876125],[0.015487910321329759,-0.01902197305519303,0.001254331633619029,0.0373086460950448,0.04479797230810067,0.01342503538955355,0.02108397725804744,1.4855530722993198E-4,0.010264649102218528,-0.057395976067742965,0.00884021905567252,0.020843014870225145,-0.006977991237503245],[0.008115350817305156,0.027733579036342628,0.002860902234824927,0.03692369711933447,0.009134922621259084,-0.014830395454300609,-0.030576101402120536,0.0029155713656187684,-0.010693415224762191,0.08002052414840156,-0.007375940385406499,-0.024086999147422208,-0.001256625957067542]],"accuracy_validation":0.7735849056603774,"mse_training":0.448,"accuracy_training":0.776,"mse_validation":0.4528301886792453,"bias":3.2056822474313135E-20},{"epoch":992,"weights":[[-0.02165995756083887,-0.007465315316892845,-0.0028498875741189327,-0.07269351110186037,-0.05215450436959214,0.0029747410411563335,0.01119356963437329,-0.0018378790908595089,0.0017583710044944696,-0.020951994465654395,9.789471807828156E-5,0.004884131481441148,0.010010664415038248],[0.015478224909574631,-0.019002829019527,0.0012547922956600021,0.03728343653210643,0.0448044400356816,0.013414012142128777,0.021065716655296697,1.4892805882599775E-4,0.010256261233625925,-0.057344059548196796,0.008832801362019402,0.020825466871653354,-0.006978513968154303],[0.008113526571461036,0.02770987896776418,0.002859535447271095,0.03689956624325609,0.009141825948867468,-0.014816493804932485,-0.030547745894808416,0.002913731800909835,-0.01068314715786076,0.07995320865260788,-0.007368722546479157,-0.024063942191451627,-0.0012563713375785969]],"accuracy_validation":0.7735849056603774,"mse_training":0.448,"accuracy_training":0.776,"mse_validation":0.4528301886792453,"bias":3.2927653659253496E-20},{"epoch":991,"weights":[[-0.02164844356077013,-0.0074607564219613025,-0.0028489804436952868,-0.07264415460275407,-0.05216787127343795,0.0029718621829364295,0.011183472866655608,-0.0018364118367611762,0.0017564907699311586,-0.02093658998645058,9.809450173170505E-5,0.0048786217728850004,0.01001093153458694],[0.015468539747199299,-0.018983682490407435,0.0012552528377479887,0.037258224055973274,0.044810903487646825,0.013402987008770722,0.021047452656610205,1.4930094969936643E-4,0.010247871959797315,-0.05729212861898783,0.00882538240462485,0.02080791544542156,-0.006979036207486059],[0.008111697733767636,0.027686173543713114,0.0028581677747594593,0.036875422220282984,0.009148729400748021,-0.014802589813354528,-0.030519385128404245,0.0029118916559381313,-0.010672877649468839,0.0798858732441952,-0.007361503372738023,-0.024040881056663688,-0.0012561162177955386]],"accuracy_validation":0.7735849056603774,"mse_training":0.448,"accuracy_training":0.776,"mse_validation":0.4528301886792453,"bias":3.200094371078277E-20},{"epoch":990,"weights":[[-0.021636925211461083,-0.007456194662539766,-0.002848072307094829,-0.07259478202955587,-0.052181233984580876,0.0029689828688026086,0.01117337423513852,-0.0018349441413053357,0.0017546104996937436,-0.020921179999939133,9.829421461718648E-5,0.004873111313427568,0.010011197657028174],[0.015458854833614442,-0.018964533467430433,0.0012557132597758895,0.037233008666473846,0.04481736263723634,0.013391959988807716,0.02102918526079912,1.4967397993147103E-4,0.01023948128008211,-0.05724018327518499,0.008817962183010992,0.020790360590411797,-0.006979557951977313],[0.008109864298043432,0.0276624627613146,0.0028567992161311027,0.03685126503658429,0.00915563296230146,-0.014788683479257695,-0.03049101910107606,0.0029100509302501863,-0.01066260669951621,0.07981851791388099,-0.007354282864009639,-0.02401781574219649,-0.0012558605957455175]],"accuracy_validation":0.7735849056603774,"mse_training":0.448,"accuracy_training":0.776,"mse_validation":0.4528301886792453,"bias":3.045694833760508E-20},{"epoch":989,"weights":[[-0.021625402506117587,-0.007451630036150957,-0.002847163163047327,-0.0725453933682226,-0.05219459246149874,0.0029661030991197323,0.01116327373917885,-0.0018334760041189137,0.001752730194364783,-0.02090576450175779,9.849385704058201E-5,0.004867600103327302,0.010011462776846797],[0.015449170168220349,-0.018945381950194178,0.0012561735616347198,0.03720779036341949,0.044823817457588754,0.0133809310815665,0.021010914466673265,1.5004714960348303E-4,0.010231089193828332,-0.0571882235118595,0.008810540696699008,0.02077280230550425,-0.0069800791980926665],[0.00810802625809403,0.02763874661768955,0.0028554297702247673,0.03682709467830541,0.009162536618866903,-0.014774774802333605,-0.030462647810990517,0.0029082096233917516,-0.010652334307933487,0.07975114265237417,-0.007347061020121057,-0.023994746247188645,-0.0012556044694487837]],"accuracy_validation":0.7735849056603774,"mse_training":0.448,"accuracy_training":0.776,"mse_validation":0.4528301886792453,"bias":3.183087304750124E-20},{"epoch":988,"weights":[[-0.02161387543792216,-0.007447062540311205,-0.002846253010278321,-0.07249598860466987,-0.05220794666250574,0.0029632228742549047,0.011153171378133313,-0.0018320074248277928,0.0017508498545290158,-0.020890343487533106,9.86934293091918E-5,0.004862088142844987,0.010011726888506435],[0.01543948575040683,-0.01892622793829897,0.0012566337432136046,0.03718256914660421,0.04483026792174098,0.013369900286372288,0.02099264027304125,1.5042045879631063E-4,0.010222695700382683,-0.05713624932408469,0.008803117945209174,0.020755240589577246,-0.0069805999422824505],[0.008106183607712142,0.027615025109954602,0.002854059435876875,0.03680291113156792,0.009169440355721658,-0.014760863782274562,-0.03043427125631299,0.002906367734907802,-0.010642060474652075,0.0796837474503746,-0.007339837840899828,-0.02397167257077934,-0.0012553478369186427]],"accuracy_validation":0.7735849056603774,"mse_training":0.448,"accuracy_training":0.776,"mse_validation":0.4528301886792453,"bias":3.2298464033505836E-20},{"epoch":987,"weights":[[-0.021602344000033892,-0.007442492172530392,-0.002845341847509115,-0.07244656772477198,-0.05222129654575185,0.0029603421945774717,0.011143067151358519,-0.0018305384030568098,0.0017489694807733761,-0.020874916952880622,9.889293173176584E-5,0.0048565754322437895,0.010011989986449445],[0.015429801579553178,-0.018907071431347237,0.001257093804399768,0.03715734501580459,0.044836714002627745,0.013358867602548678,0.020974362678710425,1.5079390759059722E-4,0.01021430079909043,-0.0570842607069361,0.008795693928060806,0.02073767544150736,-0.006981120180982667],[0.008104336340677505,0.02759129823522206,0.0028526882119215024,0.03677871438246967,0.009176344158080971,-0.014746950418773516,-0.03040588943520738,0.0029045252643425355,-0.010631785199604171,0.0796163322985735,-0.007332613326174043,-0.02394859471210829,-0.0012550906961614253]],"accuracy_validation":0.7735849056603774,"mse_training":0.448,"accuracy_training":0.776,"mse_validation":0.4528301886792453,"bias":3.246631377639965E-20},{"epoch":986,"weights":[[-0.02159080818558825,-0.007437918930311931,-0.002844429673456743,-0.0723971307143619,-0.052234642069222216,0.002957461060459034,0.01113296105821099,-0.0018290689384297544,0.0017470890736869956,-0.020859484893404688,9.909236461850941E-5,0.004851061971789239,0.010012252065096774],[0.015420117655028109,-0.0188879124289435,0.0012575537450785208,0.03713211797077961,0.044843155673081246,0.013347833029417727,0.020956081682486877,1.5116749606671907E-4,0.01020590448929547,-0.05703225765549154,0.008788268644772307,0.020720106860169344,-0.006981639910614939],[0.008102484450756895,0.02756756599059987,0.0028513160971903803,0.03675450441708454,0.009183248011097817,-0.014733034711524115,-0.0303775023458363,0.00290268221123936,-0.010621508482722839,0.07954889718765301,-0.007325387475772287,-0.023925512670315698,-0.0012548330451764918]],"accuracy_validation":0.7735849056603774,"mse_training":0.448,"accuracy_training":0.776,"mse_validation":0.4528301886792453,"bias":3.211910650099061E-20},{"epoch":985,"weights":[[-0.021579267987697045,-0.007433342811152755,-0.002843516486833977,-0.07234767755923077,-0.05224798319073646,0.0029545794722734566,0.011122853098047126,-0.001827599030569361,0.0017452086338612162,-0.02084404730469844,9.929172828108857E-5,0.00484554776174925,0.010012513118847939],[0.015410433976189726,-0.018868750930694504,0.00125801356513325,0.03710688801127071,0.04484959290583068,0.013336796566299887,0.020937797283175397,1.515412243047839E-4,0.010197506770340337,-0.05698024016483115,0.008780842094861116,0.02070253484443601,-0.006982159127586434],[0.008100627931704038,0.027543828373191668,0.0028499430905128825,0.03673028122146231,0.009190151899862628,-0.014719116660220674,-0.030349109986360978,0.0029008385751409017,-0.010611230323941914,0.07948144210828632,-0.007318160289523674,-0.023902426444542386,-0.0012545748819561599]],"accuracy_validation":0.7735849056603774,"mse_training":0.448,"accuracy_training":0.776,"mse_validation":0.4528301886792453,"bias":3.1058712730586523E-20},{"epoch":984,"weights":[[-0.02156772339944837,-0.007428763812543277,-0.0028426022863492825,-0.0722982082451282,-0.05226131986794808,0.002951697430396879,0.011112743270223234,-0.0018261286790973044,0.0017433281618895956,-0.02082860418234372,9.949102303263645E-5,0.004840032802394142,0.010012773142080903],[0.015400750542385478,-0.018849586936209035,0.001258473264445413,0.03708165513700161,0.044856025673501845,0.013325758212514001,0.020919509479579546,1.5191509238462878E-4,0.010189107641566117,-0.056928208230037275,0.00877341427784373,0.020684959393178413,-0.00698267782828982],[0.008098766777259606,0.027520085380096735,0.002848569190716028,0.03670604478162888,0.009197055809403084,-0.014705196264558209,-0.03032071235494124,0.0028989943555890033,-0.010600950723196069,0.0794139670511378,-0.007310931767257831,-0.023879336033929693,-0.0012543162044857342]],"accuracy_validation":0.7735849056603774,"mse_training":0.448,"accuracy_training":0.776,"mse_validation":0.4528301886792453,"bias":3.0505740823498686E-20},{"epoch":983,"weights":[[-0.021556174413906472,-0.007424181931967375,-0.0028416870707068196,-0.07224872275776166,-0.05227465205834372,0.002948814935207722,0.011102631574095526,-0.0018246578836341983,0.001741447658367921,-0.020813155521911143,9.969024918775839E-5,0.00483451709399662,0.010013032129151991],[0.015391067352952034,-0.01883042044509814,0.0012589328428945215,0.037056419347678046,0.04486245394861673,0.013314717967377317,0.02090121827050157,1.5228910038581875E-4,0.010180707102312518,-0.05687616184619464,0.00876598519323569,0.020667380505265703,-0.006983196009103198],[0.008096900981151152,0.0274963370084099,0.002847194396624457,0.0366817950835859,0.009203959724683837,-0.01469127352423237,-0.030292309449735565,0.0028971495521247087,-0.010590669680420797,0.07934647200686251,-0.007303701908804908,-0.023856241437619483,-0.00125405701074344]],"accuracy_validation":0.7735849056603774,"mse_training":0.448,"accuracy_training":0.776,"mse_validation":0.4528301886792453,"bias":3.094709242286322E-20},{"epoch":982,"weights":[[-0.021544621024111667,-0.007419597166902365,-0.002840770838606418,-0.07219922108279649,-0.05228797971924253,0.0029459319870867033,0.011092518009020077,-0.0018231866437995908,0.0017395671238942107,-0.02079770131895993,9.98894070625381E-5,0.004829000636831819,0.010013290074395822],[0.0153813844072153,-0.018811251456974987,0.0012593923003581364,0.03703118064298792,0.04486887770359308,0.01330367583020549,0.020882923654742425,1.5266324838764426E-4,0.01017230515191784,-0.05682410100839017,0.008758554840551585,0.020649798179565207,-0.006983713666390048],[0.00809503053709308,0.027472583255221755,0.0028458187070604427,0.03665753211331085,0.0092108636306063,-0.014677348438939527,-0.03026390126890099,0.0028953041642882753,-0.010580387195552403,0.07927895696610684,-0.007296470713995579,-0.02383314265475421,-0.0012537972987004251]],"accuracy_validation":0.7735849056603774,"mse_training":0.448,"accuracy_training":0.776,"mse_validation":0.4528301886792453,"bias":3.212744638738925E-20},{"epoch":981,"weights":[[-0.021533063223080226,-0.007415009514818955,-0.002839853588743564,-0.0721497032058558,-0.05230130280779566,0.002943048586416833,0.01108240257435286,-0.0018217149592119567,0.0017376865590687327,-0.020782241569037904,1.0008849697454341E-4,0.004823483431177295,0.01001354697212522],[0.015371701704490327,-0.01879207997145496,0.0012598516367118553,0.037005939022601055,0.044875296910744045,0.013292631800312529,0.020864625631101856,1.5303753646912001E-4,0.010163901789718943,-0.05677202571171328,0.008751123219305037,0.020632212414942334,-0.006984230796499152],[0.008093155438786612,0.027448824117618325,0.0028444421208438696,0.03663325585675701,0.009217767512008429,-0.014663421008376696,-0.030235487810593223,0.0028934581916191635,-0.010570103268528024,0.07921142191950792,-0.0072892381826610425,-0.02381003968447679,-0.001253537066320714]],"accuracy_validation":0.7735849056603774,"mse_training":0.448,"accuracy_training":0.776,"mse_validation":0.4528301886792453,"bias":3.195840571617159E-20},{"epoch":980,"weights":[[-0.02152150100380431,-0.007410418973181244,-0.002838935319809374,-0.07210016911252017,-0.05231462128098524,0.0029401647335834317,0.01107228526944977,-0.001820242829488698,0.0017358059644940011,-0.020766776267681482,1.0028751924283193E-4,0.004817965477313036,0.010013802816631112],[0.015362019244081272,-0.018772905988155668,0.0012603108518293017,0.03698069448616916,0.044881711542277665,0.013281585877010829,0.020846324198378244,1.534119647089825E-4,0.010155497015051286,-0.05671993595125559,0.008743690329008713,0.02061462321026062,-0.006984747395764563],[0.008091275679919756,0.027425059592681305,0.0028430646367922367,0.036608966299853316,0.0092246713536644,-0.014649491232241607,-0.030207069072966494,0.00289161163365604,-0.010559817899285624,0.07914386685769378,-0.007282004314633002,-0.023786932525930823,-0.0012532763115611961]],"accuracy_validation":0.7735849056603774,"mse_training":0.448,"accuracy_training":0.776,"mse_validation":0.4528301886792453,"bias":3.1147149746543395E-20},{"epoch":979,"weights":[[-0.021509934359251866,-0.007405825539446691,-0.0028380160304905884,-0.07205061878832757,-0.05232793509562401,0.002937280428974138,0.011062166093666555,-0.0018187702542461323,0.001733925340774796,-0.02075130541041561,1.0048647418795703E-4,0.004812446775521456,0.010014057602182444],[0.015352337025281331,-0.01875372950669688,0.0012607699455821117,0.03695544703332565,0.04488812157029642,0.013270538059611167,0.020828019355368682,1.5378653318568882E-4,0.010147090827248875,-0.05666783172211124,0.0087362561691743,0.020597030564381703,-0.006985263460505494],[0.008089391254167237,0.027401289677487953,0.0028416862537206417,0.03658466342850413,0.009231575140284456,-0.014635559110232649,-0.03017864505417374,0.002889764489936771,-0.010549531087764007,0.07907629177128354,-0.007274769109743714,-0.02376382117826032,-0.001253015032371599]],"accuracy_validation":0.7735849056603774,"mse_training":0.448,"accuracy_training":0.776,"mse_validation":0.4528301886792453,"bias":3.2142670957583203E-20},{"epoch":978,"weights":[[-0.021498363282366477,-0.007401229211066077,-0.0028370957194695447,-0.07200105221877291,-0.05234124420835465,0.002934395672978921,0.011052045046358887,-0.0018172972330994977,0.0017320446885181657,-0.02073582899275368,1.0068536213197346E-4,0.004806927326087446,0.010014311323026126],[0.015342655047372712,-0.018734550526700578,0.0012612289178399313,0.036930196663685626,0.04489452696679686,0.013259488347422646,0.020809711100868985,1.5416124197741366E-4,0.010138683225644308,-0.05661571301937672,0.00872882073931253,0.02057943447616531,-0.006985778987026313],[0.008087502155190454,0.027377514369111042,0.00284030697044178,0.03656034722858952,0.009238478856514583,-0.014621624642048916,-0.03015021575236636,0.002887916759998413,-0.010539242833902809,0.07900869665088701,-0.0072675325678259505,-0.023740705640609917,-0.0012527532266944587]],"accuracy_validation":0.7735849056603774,"mse_training":0.448,"accuracy_training":0.776,"mse_validation":0.4528301886792453,"bias":3.083248547696791E-20},{"epoch":977,"weights":[[-0.02148678776606736,-0.00739662998548349,-0.002836174385424169,-0.07195146938930838,-0.05235454857564883,0.002931510465990086,0.011041922126882294,-0.0018158237656629417,0.001730164008333439,-0.02072034701019746,1.008841833984437E-4,0.004801407129298347,0.010014563973386894],[0.01533297330962655,-0.018715369047791027,0.0012616877684703985,0.03690494337684568,0.0449009277036693,0.013248436739752732,0.02079139943367364,1.5453609116204892E-4,0.010130274209568715,-0.05656357983815087,0.008721384038933128,0.020561834944469313,-0.006986293971616442],[0.008085608376637484,0.027353733664618934,0.002838926785765936,0.03653601768596492,0.009245382486936354,-0.014607687827390163,-0.03012178116569445,0.002886068443377219,-0.010528953137642492,0.07894108148710496,-0.007260294688713011,-0.023717585912124813,-0.001252490892465094]],"accuracy_validation":0.7735849056603774,"mse_training":0.448,"accuracy_training":0.776,"mse_validation":0.4528301886792453,"bias":3.0097530235228405E-20},{"epoch":976,"weights":[[-0.0214752078032492,-0.007392027860136295,-0.0028352520270279393,-0.07190187028534291,-0.052367848153806865,0.0029286248084022777,0.011031797334592194,-0.0018143498515495184,0.0017282833008322302,-0.020704859458237194,1.010829383124434E-4,0.004795886185443968,0.010014815547467271],[0.015323291811302852,-0.018696185069594726,0.001262146497339138,0.03687968717238386,0.044907323752697154,0.01323738323590724,0.020773084352575848,1.5491108081720062E-4,0.010121863778351801,-0.05651143217353507,0.008713946067544847,0.0205442319681496,-0.0069868084105503174],[0.008083709912143012,0.02732994756107543,0.00283754569850097,0.03651167478646123,0.009252286016066561,-0.014593748665956856,-0.030093341292306577,0.0028842195396086416,-0.010518661998924365,0.07887344627052888,-0.007253055472238731,-0.023694461991950716,-0.0012522280276115883]],"accuracy_validation":0.7735849056603774,"mse_training":0.448,"accuracy_training":0.776,"mse_validation":0.4528301886792453,"bias":3.12211296041566E-20},{"epoch":975,"weights":[[-0.021463623386782066,-0.0073874228324551094,-0.002834328642949897,-0.07185225489224188,-0.05238114289895681,0.0029257387006125044,0.011021670668843941,-0.0018128754903711803,0.0017264025666284565,-0.020689366332351394,1.0128162720056776E-4,0.00479036449481661,0.010015066039447436],[0.015313610551650446,-0.018676998591740407,0.0012626051043097442,0.03685442804985951,0.04491371508555655,0.013226327835190295,0.020754765856367485,1.552862110201872E-4,0.010113451931321777,-0.056459270020633015,0.008706506824655458,0.020526625546060148,-0.006987322300087304],[0.008081806755328262,0.027306156055539932,0.0028361637074523216,0.03648731851588458,0.00925918942835711,-0.014579807157450133,-0.03006489613034995,0.0028823700482273184,-0.010508369417690577,0.07880579099174106,-0.00724581491823748,-0.023671333879233897,-0.001251964630054766]],"accuracy_validation":0.7735849056603774,"mse_training":0.448,"accuracy_training":0.776,"mse_validation":0.4528301886792453,"bias":3.104110460967895E-20},{"epoch":974,"weights":[[-0.02145203450951132,-0.007382814899863777,-0.002833404231854603,-0.07180262319532726,-0.05239443276705382,0.0029228521430201345,0.011011542128992717,-0.001811400681738785,0.0017245218063383359,-0.02067386762800681,1.014802503909371E-4,0.004784842057711055,0.01001531544348516],[0.015303929529906944,-0.018657809613859083,0.0012630635892437753,0.0368291660088132,0.04492010167381606,0.01321527053690436,0.020736443943839094,1.5566148184803781E-4,0.01010503866780543,-0.05640709337455109,0.008699066309771769,0.020509015677053013,-0.006987835636471649],[0.008079898899801019,0.027282359145067273,0.0028347808114229964,0.03646294886001631,0.009266092708194644,-0.014565863301571837,-0.030036445677970328,0.002880519968767072,-0.010498075393884107,0.07873811564131453,-0.007238573026544144,-0.0236482015731212,-0.001251700697708147]],"accuracy_validation":0.7735849056603774,"mse_training":0.448,"accuracy_training":0.776,"mse_validation":0.4528301886792453,"bias":3.1147830761033E-20},{"epoch":973,"weights":[[-0.021440441164257553,-0.007378204059779323,-0.002832478792402128,-0.07175297517987733,-0.05240771771387958,0.002919965136026911,0.01100141171439361,-0.001809925425262078,0.0017226410205804048,-0.02065836334065856,1.0167880821320319E-4,0.004779318874424603,0.010015563753715729],[0.015294248745298625,-0.018638618135584036,0.0012635219520007457,0.03680390104876662,0.044926483488936145,0.013204211340350231,0.020718118613779906,1.5603689337749042E-4,0.01009662398712805,-0.05635490223039797,0.008691624522399527,0.02049140235997831,-0.006988348415932428],[0.008077986339155544,0.027258556826707782,0.0028333970092135527,0.03643856580461301,0.009272995839900365,-0.014551917098024478,-0.030007989933312027,0.00287866930076091,-0.010487779927448792,0.07867042020981324,-0.007231329796994169,-0.023625065072760045,-0.0012514362284779413]],"accuracy_validation":0.7735849056603774,"mse_training":0.448,"accuracy_training":0.776,"mse_validation":0.4528301886792453,"bias":3.137240630040441E-20},{"epoch":972,"weights":[[-0.02142884334381635,-0.007373590309611956,-0.002831552323248042,-0.07170331083112652,-0.05242099769504142,0.0029170776800369587,0.010991279424401597,-0.0018084497205496958,0.0017207602099755246,-0.020642853465749837,1.0187730099855495E-4,0.00477379494525705,0.010015810964251828],[0.015284568197040457,-0.01861942415655085,0.0012639801924381052,0.03677863316922248,0.04493286050226858,0.013193150244826993,0.020699789864977818,1.5641244568498982E-4,0.010088207888613462,-0.05630269658328499,0.008684181462043533,0.02047378559368415,-0.006988860634683447],[0.008076069066972533,0.027234749097507234,0.0028320122996221097,0.036414169335406255,0.009279898807729758,-0.014537968546511276,-0.02997952889451792,0.002876818043741029,-0.010477483018329329,0.07860270468779153,-0.0072240852294235235,-0.02360192437729835,-0.0012511712202630141]],"accuracy_validation":0.7735849056603774,"mse_training":0.448,"accuracy_training":0.776,"mse_validation":0.4528301886792453,"bias":2.956202414751293E-20},{"epoch":971,"weights":[[-0.021417241040958435,-0.007368973646765022,-0.002830624823043382,-0.0716536301342649,-0.052434272665971726,0.0029141897754567945,0.010981145258371518,-0.0018069735672091582,0.0017188793751468886,-0.02062733799871201,1.0207572907972513E-4,0.004768270270510719,0.010016057069183442],[0.015274887884335979,-0.018600227676397418,0.0012644383104112363,0.03675336236966436,0.04493923268505625,0.013182087249632022,0.020681457696219395,1.5678813884668547E-4,0.010079790371584003,-0.05625047642832588,0.008676737128207547,0.02045616537701675,-0.006989372288923208],[0.008074147076819088,0.027210935954506844,0.0028306266814443156,0.03638975943810271,0.009286801595872361,-0.014524017646736132,-0.0299510625597294,0.002874966197238796,-0.010467184666471233,0.07853496906579457,-0.007216839323668712,-0.02357877948588462,-0.001250905670954868]],"accuracy_validation":0.7735849056603774,"mse_training":0.448,"accuracy_training":0.776,"mse_validation":0.4528301886792453,"bias":2.9101156909043644E-20},{"epoch":970,"weights":[[-0.021405634248429315,-0.007364354068634987,-0.0028296962904346443,-0.07160393307443834,-0.05244754258192726,0.002911301422695345,0.010971009215658118,-0.001805496964846866,0.0017169985167200335,-0.0206118169349645,1.0227409279099557E-4,0.00476274485049047,0.010016302062577812],[0.015265207806377266,-0.018581028694763923,0.0012648963057734417,0.036728088649556574,0.04494560000843261,0.013171022354061007,0.02066312210628984,1.5716397293842946E-4,0.010071371435360525,-0.056198241760637056,0.008669291520394353,0.020438541708820288,-0.006989883374834842],[0.008072220362248677,0.027187117394743304,0.0028292401534733714,0.036365336098383994,0.00929370418845148,-0.014510064398403667,-0.02992259092708647,0.0028731137607847595,-0.010456884871820902,0.07846721333435822,-0.0072095920795667914,-0.023555630397667924,-0.0012506395784376027]],"accuracy_validation":0.7735849056603774,"mse_training":0.448,"accuracy_training":0.776,"mse_validation":0.4528301886792453,"bias":2.788321162231849E-20},{"epoch":969,"weights":[[-0.021394022958949353,-0.007359731572611408,-0.0028287667240637603,-0.0715542196367485,-0.052460807397988404,0.0029084126221639345,0.010960871295616006,-0.0018040199130680912,0.0017151176353228492,-0.020596290269914837,1.024723924682039E-4,0.004757218685503702,0.010016545938479308],[0.015255527962344894,-0.018561827211292896,0.0012653541783759316,0.03670281200834426,0.044951962443421284,0.013159955557407918,0.020644783093973038,1.57539948035775E-4,0.010062951079262387,-0.0561459925753374,0.008661844638105688,0.020420914587937013,-0.006990393888586037],[0.008070288916801076,0.027163293415248705,0.002827852714499999,0.03634089930190649,0.009300606569523967,-0.014496108801219171,-0.029894113994727568,0.0028712607339086405,-0.010446583634325574,0.07839943748400893,-0.007202343496955338,-0.023532477111797862,-0.0012503729405878967]],"accuracy_validation":0.7735849056603774,"mse_training":0.448,"accuracy_training":0.776,"mse_validation":0.4528301886792453,"bias":2.874200985721018E-20},{"epoch":968,"weights":[[-0.02138240716521357,-0.007355106156076884,-0.0028278361225680814,-0.07150448980625214,-0.052474067069058494,0.0029055233742763184,0.010950731497599708,-0.0018025424114769789,0.0017132367315855852,-0.02058075799895847,1.0267062844874953E-4,0.004751691775860368,0.01001678869090934],[0.015245848351407824,-0.018542623225629187,0.0012658119280678126,0.036677532445452916,0.04495831996093539,0.01314888685896498,0.020626440658051495,1.5791606421397422E-4,0.010054529302607439,-0.05609372886754851,0.008654396480842302,0.02040328401320713,-0.006990903826328973],[0.008068352734002363,0.027139464013050493,0.0028264643633124408,0.03631644903430152,0.009307508723079914,-0.01448215085488863,-0.029865631760789713,0.0028694071161393317,-0.010436280953933364,0.07833164150526366,-0.007195093575672496,-0.023509319627424672,-0.0012501057552749904]],"accuracy_validation":0.7735849056603774,"mse_training":0.448,"accuracy_training":0.776,"mse_validation":0.4528301886792453,"bias":2.72705459153059E-20},{"epoch":967,"weights":[[-0.021370786859891577,-0.007350477816407066,-0.0028269044845803575,-0.07145474356796132,-0.05248732154986307,0.0029026336794486835,0.010940589820963569,-0.0018010644596765395,0.0017113558061408666,-0.020565220117478862,1.0286880107159978E-4,0.004746164121872988,0.01001703031386628],[0.01523616897272338,-0.018523416737420036,0.001266269554696078,0.03665224996028859,0.04496467253177742,0.013137816258022718,0.02060809479730639,1.5829232154797584E-4,0.010046106104712026,-0.05604145063239447,0.00864694704810389,0.02038564998346888,-0.006991413184200264],[0.008066411807364804,0.027115629185171533,0.002825075098696451,0.03629198528117493,0.009314410633042471,-0.014468190559118733,-0.029837144223408454,0.002867552907004893,-0.010425976830593231,0.07826382538863001,-0.007187842315556947,-0.023486157943699047,-0.0012498380203606462]],"accuracy_validation":0.7735849056603774,"mse_training":0.448,"accuracy_training":0.776,"mse_validation":0.4528301886792453,"bias":2.7348903239190514E-20},{"epoch":966,"weights":[[-0.02135916203562749,-0.007345846550970608,-0.002825971808728722,-0.07140498090684295,-0.05250057079494923,0.0028997435380996527,0.010930446265061856,-0.0017995860572686474,0.0017094748596236944,-0.020549676620847335,1.0306691067729599E-4,0.004740635723856653,0.01001727080132536],[0.0152264898254372,-0.018504207746314998,0.0012667270581055952,0.03662696455223779,0.04497102012663855,0.013126743753869888,0.020589745510517534,1.586687201124236E-4,0.010037681484890962,-0.05598915786500211,0.008639496339389166,0.020368012497558464,-0.006991921958320875],[0.0080644661303869,0.02709178892863003,0.0028236849194352956,0.03626750802810736,0.00932131228326753,-0.014454227913616889,-0.029808651380717883,0.0028656981060325502,-0.010415671264255012,0.07819598912460611,-0.007180589716447915,-0.02346299205977231,-0.0012495697336991185]],"accuracy_validation":0.7735849056603774,"mse_training":0.448,"accuracy_training":0.776,"mse_validation":0.4528301886792453,"bias":2.83088456783138E-20},{"epoch":965,"weights":[[-0.021347532685039833,-0.007341212357129127,-0.0028250380936366655,-0.07135520180781889,-0.05251381475868488,0.0028968529506502995,0.010920300829248698,-0.0017981072038540256,0.0017075938926714627,-0.02053412750442303,1.0326495760796007E-4,0.0047351065821290336,0.010017510147238604],[0.015216810908683156,-0.018484996251966045,0.0012671844381390992,0.036601676220667,0.04497736271609828,0.013115669345793517,0.020571392796463344,1.59045259981654E-4,0.01002925544245756,-0.0559368505605008,0.00863204435419575,0.020350371554310114,-0.006992430144796079],[0.00806251569655328,0.027067943240439596,0.002822293824309737,0.03624301726065406,0.009328213657543478,-0.014440262918091154,-0.029780153230850547,0.002863842712748699,-0.010405364254869397,0.07812813270368049,-0.00717333577818517,-0.023439821974796337,-0.001249300893137142]],"accuracy_validation":0.7735849056603774,"mse_training":0.448,"accuracy_training":0.776,"mse_validation":0.4528301886792453,"bias":2.843818252716185E-20},{"epoch":964,"weights":[[-0.021335898800721398,-0.007336575232237207,-0.002824103337923027,-0.07130540625576548,-0.05252705339525798,0.00289396191752416,0.010910153512878114,-0.0017966278990322539,0.001705712905923961,-0.020518572763552935,1.034629422073003E-4,0.0047295766970104096,0.010017748345534679],[0.01520713222158329,-0.018465782254027497,0.001267641694637173,0.03657638496492299,0.044983700270623934,0.013104593033078836,0.020553036653920925,1.5942194122969445E-4,0.01002082797672359,-0.0558845287140227,0.00862459109202027,0.020332727152555984,-0.006992937739715383],[0.00806056049933469,0.027044092117609126,0.0028209018120980275,0.03621851296434461,0.00933511473959096,-0.014426295572250345,-0.029751649771937515,0.0028619867266788906,-0.010395055802387929,0.0780602561163323,-0.00716608050060903,-0.02341664768792358,-0.0012490314965139112]],"accuracy_validation":0.7735849056603774,"mse_training":0.448,"accuracy_training":0.776,"mse_validation":0.4528301886792453,"bias":2.807970124322484E-20},{"epoch":963,"weights":[[-0.021324260375239122,-0.007331935173642338,-0.002823167540201971,-0.07125559423551352,-0.05254028665867593,0.0028910704391472376,0.010900004315303977,-0.0017951481424017582,0.0017038319000233933,-0.020503012393571777,1.0366086482061812E-4,0.0047240460688236455,0.010017985390118857],[0.015197453763247779,-0.018446565752156086,0.001268098827438244,0.036551090784332566,0.0449900327605702,0.013093514815009352,0.02053467708166593,1.5979876393026044E-4,0.010012399086999291,-0.0558321923207026,0.008617136552358287,0.02031507929112617,-0.006993444739152452],[0.008058600532187923,0.02702023555714284,0.002819508881575901,0.03619399512468309,0.00934201551306259,-0.014412325875803952,-0.02972314100210841,0.0028601301473478277,-0.010384745906763065,0.07799235935303099,-0.007158823883560366,-0.023393469198307013,-0.001248761541661024]],"accuracy_validation":0.7735849056603774,"mse_training":0.448,"accuracy_training":0.776,"mse_validation":0.4528301886792453,"bias":2.9031956011318884E-20},{"epoch":962,"weights":[[-0.02131261740113408,-0.007327292178684911,-0.00282223069908296,-0.07120576573184816,-0.05255351450276459,0.002888178515948019,0.010889853235880044,-0.0017936679335598062,0.0017019508756143781,-0.020487446389801916,1.0385872579481393E-4,0.004718514697894239,0.010018221274872905],[0.01518777553277486,-0.01842734674601095,0.0012685558363785645,0.03652579367820228,0.04499636015617875,0.013082434690866776,0.020516314078472698,1.60175728156755E-4,0.01000396877259335,-0.05577984137567798,0.00860968073470433,0.020297427968848803,-0.006993951139165044],[0.008056635788555798,0.02699637355604028,0.0028181150315165697,0.03616946372714801,0.009348915961542697,-0.01439835382846215,-0.029694626919491228,0.002858272974279382,-0.010374434567948114,0.07792444240423661,-0.007151565926880609,-0.02337028650510024,-0.0012484910264024683]],"accuracy_validation":0.7735849056603774,"mse_training":0.448,"accuracy_training":0.776,"mse_validation":0.4528301886792453,"bias":2.7789748312852506E-20},{"epoch":961,"weights":[[-0.021300969870921276,-0.007322646244698193,-0.002821292813170745,-0.0711559207295084,-0.05256673688116787,0.0028852861483574773,0.010879700273959939,-0.0017921872721025033,0.0017000698333439626,-0.020471874747553413,1.0405652547839397E-4,0.004712982584550303,0.010018455993654972],[0.01517809752925073,-0.01840812523525368,0.001269012721292211,0.03650049364581861,0.04500268242757764,0.013071352659931031,0.020497947643114144,1.605528339822654E-4,0.009995537032812916,-0.05572747587408917,0.008602223638551884,0.02027977318454989,-0.006994456935794965],[0.008054666261867112,0.026972506111296285,0.002816720260690707,0.03614491875719196,0.009355816068547086,-0.014384379429935864,-0.029666107522212548,0.002856415206996568,-0.010364121785897261,0.07785650526039924,-0.007144306630411733,-0.023347099607457372,-0.001248219948554618]],"accuracy_validation":0.7735849056603774,"mse_training":0.448,"accuracy_training":0.776,"mse_validation":0.4528301886792453,"bias":2.736821897851962E-20},{"epoch":960,"weights":[[-0.02128931777708962,-0.007317997369008257,-0.0028203538810653464,-0.07110605921318727,-0.05257995374734685,0.0028823933368090837,0.010869545428897162,-0.001790706157624786,0.0016981887738616323,-0.020456297462123917,1.0425426422147617E-4,0.004707449729122592,0.010018689540299526],[0.015168419751749575,-0.01838890121954825,0.0012694694820110644,0.036475190686447556,0.045008999544780964,0.013060268721480238,0.020479577774361768,1.6093008147956145E-4,0.009987103866963555,-0.0556750958110791,0.00859476526339334,0.020262114937053363,-0.0069949621250679685],[0.008052691945536601,0.026948633219900934,0.002815324567866454,0.036120360200241876,0.009362715817522727,-0.014370402679936679,-0.0296375828083974,0.002854556845021554,-0.010353807560565576,0.07778854791195976,-0.007137045993996272,-0.023323908504533156,-0.0012479483059261642]],"accuracy_validation":0.7735849056603774,"mse_training":0.448,"accuracy_training":0.776,"mse_validation":0.4528301886792453,"bias":2.731539800392886E-20},{"epoch":959,"weights":[[-0.021277661112101765,-0.007313345548934012,-0.002819413901362028,-0.07105618116753128,-0.05259316505457897,0.0028795000817388224,0.010859388700045089,-0.001789224589720417,0.0016963076978193203,-0.020440714528798632,1.0445194237579682E-4,0.004701916131944511,0.010018921908617234],[0.015158742199333436,-0.01836967469856116,0.0012699261183648,0.03644988479933472,0.0450153114776883,0.013049182874790746,0.020461204470985726,1.6130747072109344E-4,0.00997866927434929,-0.0556227011817937,0.008587305608720066,0.020244453225181154,-0.006995466702993708],[0.008050712832964872,0.026924754878839576,0.0028139279518094,0.03609578804169866,0.009369615191847524,-0.014356423578176921,-0.029609052776169292,0.0028526978878756523,-0.010343491891908996,0.07772057034934901,-0.007129784017477326,-0.02330071319548285,-0.0012476760963181228]],"accuracy_validation":0.7735849056603774,"mse_training":0.448,"accuracy_training":0.776,"mse_validation":0.4528301886792453,"bias":2.7249932521501466E-20},{"epoch":958,"weights":[[-0.021265999868394007,-0.007308690781787123,-0.0028184728726512826,-0.07100628657714048,-0.0526063707559575,0.0028766063835851934,0.01084923008675697,-0.0017877425679819878,0.0016944266058714166,-0.020425125942850224,1.0464956029471707E-4,0.004696381793352131,0.010019153092394874],[0.01514906487105216,-0.01835044567196129,0.0012703826301808778,0.036424575983705104,0.045021618196084294,0.013038095119137083,0.02044282773175476,1.6168500177898997E-4,0.00997023325427255,-0.055570291981381505,0.008579844674022353,0.020226788047753002,-0.006995970665565677],[0.008048728917538394,0.02690087108509281,0.0028125304112825793,0.03607120226693739,0.00937651417483004,-0.01434244212436962,-0.0295805174236502,0.0028508383350793268,-0.010333174779884371,0.07765257256298846,-0.007122520700698537,-0.023277513679462295,-0.001247403317523799]],"accuracy_validation":0.7735849056603774,"mse_training":0.448,"accuracy_training":0.776,"mse_validation":0.4528301886792453,"bias":2.6621330736619226E-20},{"epoch":957,"weights":[[-0.021254334038376246,-0.007304033064872027,-0.002817530793518815,-0.07095637542656819,-0.052619570804390565,0.0028737122427892284,0.010839069588385894,-0.0017862600920009006,0.0016925454986747791,-0.020409531699538828,1.0484711833322921E-4,0.0046908467136841684,0.010019383085395248],[0.015139387765943365,-0.018331214139420026,0.0012708390172845292,0.03639926423876314,0.04502791966963811,0.013027005453791929,0.020424447555436178,1.6206267472505603E-4,0.009961795806034221,-0.05551786820499395,0.00857238245878942,0.020209119403586596,-0.006996474008761112],[0.008046740192629423,0.026876981835636454,0.0028111319450464575,0.03604660286130706,0.009383412749709236,-0.014328458318228505,-0.02955197674896053,0.0028489781861521742,-0.010322856224449407,0.07758455454328941,-0.007115256043504121,-0.023254309955627935,-0.0012471299673287443]],"accuracy_validation":0.7735849056603774,"mse_training":0.448,"accuracy_training":0.776,"mse_validation":0.4528301886792453,"bias":2.6462713652850488E-20},{"epoch":956,"weights":[[-0.021242663614431764,-0.007299372395485862,-0.0028165876625455086,-0.07090644770032073,-0.052632765152600514,0.0028708176597945024,0.010828907204284855,-0.0017847771613673732,0.0016906643768887443,-0.020393931794111933,1.0504461684796341E-4,0.00468531089328204,0.010019611881357072],[0.015129710883032345,-0.01831198010061126,0.0012712952794987453,0.03637394956369229,0.04503421586790312,0.013015913878026157,0.02040606394079588,1.6244048963077033E-4,0.009953356928933578,-0.055465429847785255,0.008564918962509412,0.020191447291497563,-0.006996976728540945],[0.008044746651595979,0.026853087127441527,0.0028097325518589376,0.03602198981013042,0.009390310899654196,-0.014314472159468019,-0.029523430750219175,0.002847117440612935,-0.010312536225562734,0.07751651628065387,-0.0071079900457388535,-0.023231102023136777,-0.0012468560435107351]],"accuracy_validation":0.7735849056603774,"mse_training":0.448,"accuracy_training":0.776,"mse_validation":0.4528301886792453,"bias":2.578739800092716E-20},{"epoch":955,"weights":[[-0.021230988588917223,-0.0072947087709184675,-0.0028156434783074206,-0.07085650338285733,-0.05264595375312315,0.0028679226350471327,0.010818742933806686,-0.0017832937756704326,0.0016887832411751316,-0.02037832622180436,1.0524205619719389E-4,0.004679774332489854,0.010019839473994875],[0.015120034221332021,-0.01829274355521134,0.0012717514166442668,0.03634863195765518,0.04504050676031613,0.01300482039110882,0.02038767688659835,1.6281844656728414E-4,0.00994491662226831,-0.05541297690491257,0.008557454184669381,0.020173771710299323,-0.006997478820849729],[0.008042748287781778,0.02682918695747421,0.0028083322304753326,0.03599736309870416,0.009397208607763826,-0.01430048364780332,-0.029494879425543487,0.002845256097979479,-0.010302214783183855,0.07744845776547367,-0.007100722707248058,-0.023207889881146367,-0.0012465815438397704]],"accuracy_validation":0.7735849056603774,"mse_training":0.448,"accuracy_training":0.776,"mse_validation":0.4528301886792453,"bias":2.4355741219412063E-20},{"epoch":954,"weights":[[-0.021219308954162543,-0.007290042188452343,-0.002814698239375762,-0.07080654245859001,-0.052659136558307014,0.0028650271689958018,0.010808576776304098,-0.001781809934497909,0.0016869020921982602,-0.020362714977838283,1.0543943674084572E-4,0.0046742370316544095,0.010020065856998944],[0.01511035777984286,-0.01827350450289916,0.0012722074285395693,0.03632331141979337,0.04504679231619721,0.012993724992307096,0.020369286391606647,1.6319654560541824E-4,0.009936474885334482,-0.05536050937153596,0.008549988124755326,0.02015609265880326,-0.00699798028161556],[0.008040745094516232,0.026805281322695888,0.00280693097964837,0.03597272271229866,0.009404105857066653,-0.014286492782950258,-0.029466322773049218,0.002843394157768822,-0.010291891897273158,0.07738037898813091,-0.007093454027877651,-0.023184673528814873,-0.0012463064660779971]],"accuracy_validation":0.7735849056603774,"mse_training":0.448,"accuracy_training":0.776,"mse_validation":0.4528301886792453,"bias":2.2756222836541877E-20},{"epoch":953,"weights":[[-0.021207624702470666,-0.007285372645362621,-0.002813751944316864,-0.07075656491188324,-0.05267231352031268,0.002862131262091761,0.010798408731129673,-0.0017803256374364265,0.0016850209306249555,-0.02034709805742307,1.0563675884050144E-4,0.004668698991125227,0.010020291024035162],[0.01510068155755288,-0.018254262943356105,0.0012726633150008544,0.036297987949227256,0.045053072504749006,0.01298262768088631,0.020350892454582416,1.6357478681566117E-4,0.009928031717426584,-0.055308027242818254,0.008542520782252103,0.02013841013581856,-0.006998481106750037],[0.008038737065114349,0.02678137022006313,0.002805528798128187,0.035948068636157925,0.00941100263052049,-0.014272499564625426,-0.029437760790850552,0.0028415316194970986,-0.010281567567791946,0.07731227993899803,-0.007086184007474092,-0.023161452965300994,-0.0012460308079797397]],"accuracy_validation":0.7735849056603774,"mse_training":0.448,"accuracy_training":0.776,"mse_validation":0.4528301886792453,"bias":2.1501523096169452E-20},{"epoch":952,"weights":[[-0.021195935826117656,-0.00728070013891703,-0.0028128045916921704,-0.07070657072705348,-0.05268548459111172,0.0028592349147888406,0.010788238797635847,-0.001778840884071406,0.0016831397571245607,-0.020331475455755227,1.0583402285940746E-4,0.004663160211254549,0.01002051496874495],[0.01509100555343749,-0.018235018876266166,0.001273119075842037,0.036272661545055894,0.045059347295056396,0.012971528456109932,0.02033249507428584,1.639531702681668E-4,0.009919587117837468,-0.05525553051392547,0.00853505215664353,0.02012072414015229,-0.006998981292148148],[0.008036724192876717,0.0267574536465276,0.0028041256846623123,0.03592340085549951,0.009417898911012183,-0.01425850399254613,-0.029409193477060138,0.002839668482679576,-0.010271241794702426,0.07724416060843738,-0.00707891264588442,-0.023138228189764066,-0.001245754567291417]],"accuracy_validation":0.7735849056603774,"mse_training":0.448,"accuracy_training":0.776,"mse_validation":0.4528301886792453,"bias":2.2409960849902005E-20},{"epoch":951,"weights":[[-0.021184242317352397,-0.007276024666375884,-0.002811856180058211,-0.07065655988836964,-0.052698649722486376,0.0028563381275434657,0.010778066975174916,-0.0017773556739870578,0.0016812585723689447,-0.020315847168018437,1.0603122916248089E-4,0.004657620692397348,0.01002073768474518],[0.015081329766459501,-0.018215772301315797,0.001273574710874727,0.03624733220635709,0.04506561665608589,0.012960427317239556,0.0203140942494757,1.6433169603275293E-4,0.009911141085858369,-0.05520301918002628,0.008527582247412282,0.02010303467060936,-0.006999480833688243],[0.008034706471089482,0.026733531599036103,0.002802721637995663,0.03589871935551443,0.009424794681357346,-0.01424450606643038,-0.029380620829789053,0.00283780474683064,-0.010260914577967703,0.07717602098680146,-0.007071639942956247,-0.023114999201363916,-0.0012454777417515459]],"accuracy_validation":0.7735849056603774,"mse_training":0.448,"accuracy_training":0.776,"mse_validation":0.4528301886792453,"bias":2.2708916046437718E-20},{"epoch":950,"weights":[[-0.021172544168396635,-0.007271346224992037,-0.002810906707966585,-0.07060653238005227,-0.05271180886602828,0.0028534409008146616,0.010767893263099031,-0.0017758700067663704,0.0016793773770325145,-0.020300213189383475,1.0622837811631602E-4,0.004652080434911367,0.010020959165628018],[0.015071654195569006,-0.018196523218194083,0.0012740302199082288,0.03622199993218699,0.04507188055668512,0.012949324263534893,0.02029568997890926,1.6471036417889775E-4,0.009902693620778875,-0.055150493236292515,0.008520111054039948,0.02008534172599249,-0.006999979727231924],[0.008032683893024235,0.026709604074530532,0.002801316656870537,0.03587402412136719,0.009431689924300064,-0.014230505785996902,-0.02935204284714673,0.002835940411463811,-0.01025058591755179,0.07710786106443274,-0.007064365898537751,-0.023091765999261035,-0.0012452003290907118]],"accuracy_validation":0.7735849056603774,"mse_training":0.448,"accuracy_training":0.776,"mse_validation":0.4528301886792453,"bias":2.2973454600260602E-20},{"epoch":949,"weights":[[-0.021160841371444777,-0.007266664812010843,-0.002809956173963941,-0.0705564881862737,-0.05272496197313819,0.002850543235064066,0.010757717660760223,-0.001774383881991113,0.0016774961717922264,-0.020284573515008075,1.064254700891915E-4,0.004646539439157076,0.010021179404960901],[0.015061978839703368,-0.018177271626592665,0.0012744856027495218,0.0361966647215801,0.04507813896558242,0.01293821929425376,0.020277282261342414,1.6508917477573898E-4,0.009894244721886972,-0.05509795267789895,0.008512638576007007,0.020067645305102223,-0.00700047796862399],[0.008030656451938012,0.02668567106994791,0.0027999107400266,0.035849315138195545,0.009438584622512633,-0.014216503150965159,-0.029323459527241063,0.0028340754760917144,-0.010240255813419615,0.07703968083166372,-0.0070570905124776855,-0.023068528582616477,-0.001244922327031524]],"accuracy_validation":0.7735849056603774,"mse_training":0.448,"accuracy_training":0.776,"mse_validation":0.4528301886792453,"bias":2.1592431754266468E-20},{"epoch":948,"weights":[[-0.021149133918663812,-0.007261980424670152,-0.0028090045765919516,-0.07050642729115773,-0.05273810899502481,0.002847645130755938,0.010747540167510372,-0.001772897299241828,0.001675614957327589,-0.020268928140036984,1.0662250545107631E-4,0.00464099770549774,0.010021398396286373],[0.015052303697787114,-0.01815801752620573,0.0012749408592032455,0.036171326573549246,0.045084391851386435,0.01292711240865205,0.02025887109552949,1.6546812789207065E-4,0.009885794388468998,-0.055045397500023324,0.008505164812792804,0.02004994540673694,-0.00700097555369239],[0.00802862414107328,0.026661732582220307,0.002798503886200888,0.03582459239111049,0.009445478758595287,-0.014202498161055323,-0.02929487086817832,0.002832209940226094,-0.01022992426553699,0.07697148027881698,-0.007049813784625374,-0.023045286950591853,-0.001244643733288604]],"accuracy_validation":0.7735849056603774,"mse_training":0.448,"accuracy_training":0.776,"mse_validation":0.4528301886792453,"bias":2.255347364215531E-20},{"epoch":947,"weights":[[-0.021137421802193156,-0.007257293060200263,-0.0028080519143873013,-0.07045634967877944,-0.0527512498827043,0.002844746588357169,0.010737360782701214,-0.0017714102580978235,0.001673733734320685,-0.020253277059601858,1.0681948457363723E-4,0.004635455234299387,0.010021616133122035],[0.015042628768731898,-0.01813876091673014,0.0012753959890716962,0.03614598548708524,0.04509063918258534,0.01291600360598378,0.020240456480223493,1.6584722359634172E-4,0.009877342619809592,-0.05499282769784654,0.0084976897638756,0.020032242029692806,-0.007001472478248097],[0.008026586953657827,0.026637788608274798,0.002797096094127787,0.035799855865196226,0.009452372315075891,-0.014188490815988284,-0.029266276868063143,0.0028303438033778178,-0.010219591273870681,0.07690325939620503,-0.007042535714830726,-0.02302204110234938,-0.0012443645455685434]],"accuracy_validation":0.7735849056603774,"mse_training":0.448,"accuracy_training":0.776,"mse_validation":0.4528301886792453,"bias":2.2182947549708383E-20},{"epoch":946,"weights":[[-0.021125705014144597,-0.007252602715823898,-0.0028070981858816526,-0.07040625533316487,-0.0527643845869993,0.0028418476083372974,0.010727179505684328,-0.0017699227581371715,0.0016718525034561734,-0.020237620268821213,1.0701640783024524E-4,0.004629912025930841,0.01002183260896038],[0.015032954051436419,-0.018119501797865315,0.0012758509921548052,0.03612064146115698,0.045096880927546504,0.012904892885501033,0.020222038414175882,1.6622646195665308E-4,0.009868889415191772,-0.05494024326655248,0.008490213428732482,0.02001453517276378,-0.007001968738085089],[0.008024544882904756,0.026613839145033593,0.0027956873625390294,0.03577510554550992,0.009459265274409694,-0.014174481115485667,-0.029237677524998635,0.002828477065056854,-0.010209256838388352,0.07683501817413035,-0.007035256302944221,-0.02299879103705184,-0.0012440847615699023]],"accuracy_validation":0.7735849056603774,"mse_training":0.448,"accuracy_training":0.776,"mse_validation":0.4528301886792453,"bias":2.1145516842504365E-20},{"epoch":945,"weights":[[-0.021113983546602186,-0.007247909388756166,-0.0028061433896016375,-0.070356144238291,-0.052777513058538256,0.00283894819116851,0.010716996335811167,-0.001768434798936702,0.0016699712654212973,-0.020221957762800346,1.0721327559598271E-4,0.00462436808076374,0.010022047817268774],[0.015023279544786348,-0.01810024016931332,0.001276305868250133,0.03609529449471116,0.045103117054516126,0.012893780246453948,0.020203616896136582,1.6660584304075603E-4,0.009860434773896871,-0.054887644201328085,0.008482735806839451,0.019996824834741626,-0.0070024643289802475],[0.008022497922012393,0.026589884189413878,0.002794277690163689,0.035750341417081874,0.009466157618979025,-0.01416046905926981,-0.029209072837086195,0.0028266097247722816,-0.010198920959058586,0.0767667566028851,-0.007027975548816925,-0.022975536753862602,-0.001243804378983133]],"accuracy_validation":0.7735849056603774,"mse_training":0.448,"accuracy_training":0.776,"mse_validation":0.4528301886792453,"bias":2.233867625112697E-20},{"epoch":944,"weights":[[-0.021102257391622067,-0.007243213076204546,-0.0028051875240688324,-0.07030601637808546,-0.052790635247754535,0.002836048337325665,0.010706811272433052,-0.0017669463800719957,0.001668090020905906,-0.02020628953663133,1.074100882476497E-4,0.004618823399172527,0.01002226175148928],[0.0150136052476543,-0.01808097603077888,0.001276760617152854,0.0360699445866722,0.04510934753161843,0.01288266568809075,0.02018519192485414,1.6698536691604925E-4,0.009851978695204561,-0.054835030497363504,0.00847525689767134,0.01997911101441588,-0.007002959246693285],[0.008020446064164338,0.02656592373832778,0.0027928670757281656,0.03572556346491529,0.00947304933109299,-0.01414645464706377,-0.029180462802425637,0.0028247417820322835,-0.010188583635850889,0.07669847467275144,-0.007020693452300488,-0.022952278251945627,-0.0012435233954905987]],"accuracy_validation":0.7735849056603774,"mse_training":0.448,"accuracy_training":0.776,"mse_validation":0.4528301886792453,"bias":2.261172918013564E-20},{"epoch":943,"weights":[[-0.021090526541232404,-0.007238513775368837,-0.0028042305877997403,-0.07025587173642625,-0.05280375110488573,0.0028331480472862922,0.010696624314901112,-0.001765457501117379,0.001666208770602458,-0.020190615585392924,1.0760684616377127E-4,0.004613277981534487,0.010022474405038598],[0.015003931158899699,-0.01806170938196936,0.0012772152386557438,0.03604459173594217,0.045115572326855334,0.012871549209657695,0.020166763499075566,1.6736503364957712E-4,0.009843521178392827,-0.05478240214985194,0.008467776700701852,0.01996139371057376,-0.007003453486966678],[0.008018389302529285,0.026541957788682537,0.002791455517956185,0.035700771673986054,0.009479940392987251,-0.014132437878591341,-0.02915184741911514,0.0028228732363441414,-0.0101782448687357,0.0766301723740015,-0.007013410013247125,-0.022929015530465478,-0.001243241808766516]],"accuracy_validation":0.7735849056603774,"mse_training":0.448,"accuracy_training":0.776,"mse_validation":0.4528301886792453,"bias":2.1728302615269615E-20},{"epoch":942,"weights":[[-0.021078790987433264,-0.007233811483441139,-0.002803272579305763,-0.07020571029714155,-0.05281686057997277,0.0028302473215306113,0.010686435462566375,-0.0017639681616459237,0.0016643275152060269,-0.02017493590415058,1.0780354972460462E-4,0.004607731828229723,0.010022685771307943],[0.014994257277368793,-0.01804244022259481,0.0012776697325491651,0.036019235941400635,0.04512179140810596,0.012860430810399087,0.02014833161754637,1.6774484330802684E-4,0.009835062222737943,-0.054729759153989734,0.008460295215403552,0.01994367292200034,-0.007003947045525593],[0.008016327630261076,0.026517986337380287,0.0027900430155687835,0.03567596602924298,0.009486830786823683,-0.014118418753577047,-0.029123226685251215,0.002821004087214237,-0.0101679046576844,0.07656184969689694,-0.0070061252315096615,-0.022905748588587266,-0.0012429596164769369]],"accuracy_validation":0.7735849056603774,"mse_training":0.448,"accuracy_training":0.776,"mse_validation":0.4528301886792453,"bias":2.2353057176505452E-20},{"epoch":941,"weights":[[-0.021067050722196525,-0.007229106197605831,-0.002802313497093183,-0.07015553204400976,-0.052829963622859265,0.002827346160541536,0.010676244714779683,-0.0017624783612294375,0.0016624462554143214,-0.020159250487956207,1.0800019931214547E-4,0.004602184939641192,0.01002289584366296],[0.01498458360189451,-0.018023168552367932,0.001278124098621062,0.03599387720190442,0.04512800474312601,0.01284931048955726,0.020129896279010604,1.6812479595772748E-4,0.00982660182751452,-0.054677101504976476,0.008452812441247846,0.01992594864747834,-0.007004439918077822],[0.008014261040498608,0.02649400938131809,0.002788629567284309,0.035651146515607426,0.00949372049469009,-0.014104397271746144,-0.029094600598928724,0.002819134334148049,-0.010157563002669264,0.07649350663168926,-0.0069988391069414875,-0.02288247742547675,-0.001242676816279721]],"accuracy_validation":0.7735849056603774,"mse_training":0.448,"accuracy_training":0.776,"mse_validation":0.4528301886792453,"bias":2.3474096811867036E-20},{"epoch":940,"weights":[[-0.02105530573746567,-0.007224397915039513,-0.002801353339663142,-0.07010533696075902,-0.05284306018319049,0.0028244445648046906,0.010666052070891753,-0.0017609880994384553,0.0016605649919276897,-0.02014355933184837,1.0819679531013542E-4,0.004596637316154723,0.010023104615443593],[0.014974910131296433,-0.018003894371004157,0.001278578336656936,0.035968515516287734,0.04513421229954736,0.012838188246372563,0.020111457482210732,1.6850489166464586E-4,0.00981813999199542,-0.0546244291980149,0.008445328377704968,0.019908220885788273,-0.007004932100313684],[0.00801218952636582,0.026470026917388,0.0027872151718183968,0.0356263131179734,0.00950060949859994,-0.014090373432824608,-0.029065969158240935,0.002817263976650148,-0.01014721990366353,0.07642514316861987,-0.006991551639396601,-0.022859202040300234,-0.0012423934058244982]],"accuracy_validation":0.7735849056603774,"mse_training":0.448,"accuracy_training":0.776,"mse_validation":0.4528301886792453,"bias":2.2417699342908092E-20},{"epoch":939,"weights":[[-0.021043556025155757,-0.007219686632910992,-0.002800392105511621,-0.07005512503106698,-0.05285615021041278,0.0028215425348084213,0.01065585753025313,-0.0017594973758422404,0.0016586837254491372,-0.020127862430852038,1.0839333810406901E-4,0.004591088958159017,0.010023312079964023],[0.014965236864380758,-0.017984617678221633,0.001279032446439843,0.0359431508833617,0.04514041404487747,0.01282706408008337,0.020093015225887825,1.6888513049438534E-4,0.009809676715451816,-0.05457174222831092,0.008437843024244013,0.019890489635708344,-0.007005423587905962],[0.008010113080971607,0.02644603894247695,0.002785799827883972,0.03560146582120734,0.009507497780492102,-0.014076347236539145,-0.02903733236127939,0.002815393014224193,-0.010136875360641366,0.0763567592979196,-0.006984262828729584,-0.022835922432224584,-0.0012421093827526392]],"accuracy_validation":0.7735849056603774,"mse_training":0.448,"accuracy_training":0.776,"mse_validation":0.4528301886792453,"bias":2.3282528452384214E-20},{"epoch":938,"weights":[[-0.021031801577153335,-0.007214972348381254,-0.0027994297931294245,-0.07000489623856072,-0.05286923365377255,0.0028186400710438026,0.01064566109221423,-0.001758006190008777,0.0016568024566843236,-0.020112159779978635,1.0858982808120055E-4,0.00458553986604565,0.010023518230512498],[0.014955563799940164,-0.017965338473741193,0.0012794864277503768,0.03591778330191461,0.045146609946498835,0.012815937989926049,0.02007456950878132,1.6926551251218315E-4,0.009801211997153156,-0.054519040591073785,0.008430356380332897,0.01987275489601448,-0.007005914376509842],[0.008008031697409785,0.026422045453466766,0.0027843835341912412,0.035576604610148194,0.009514385322230472,-0.0140623186826172,-0.02900869020613398,0.0028135214463729298,-0.010126529373577898,0.07628835500980911,-0.0069769726747956,-0.022812638600417347,-0.0012418247446972434]],"accuracy_validation":0.7735849056603774,"mse_training":0.448,"accuracy_training":0.776,"mse_validation":0.4528301886792453,"bias":2.2697382845827893E-20},{"epoch":937,"weights":[[-0.02102004238531623,-0.0072102550586034195,-0.0027984664010021437,-0.06995465056681649,-0.052882310462315604,0.0028157371740046484,0.010635462756125287,-0.0017565145415047623,0.001654921186341588,-0.020096451374225922,1.087862656305515E-4,0.00457999004020911,0.010023723060351306],[0.01494589093675378,-0.01794605675728643,0.0012799402803666529,0.035892412770711396,0.045152799971668586,0.012804809975134945,0.020056120329629227,1.6964603778290825E-4,0.00979274583636716,-0.05446632428151607,0.008422868445438362,0.019855016665480278,-0.007006404461762804],[0.008005945368759062,0.02639804644723417,0.0027829662894476846,0.03555172946960716,0.009521272105603747,-0.014048287770786948,-0.02898004269089293,0.0028116492725981912,-0.010116181942449164,0.07621993029449858,-0.006969681177450409,-0.0227893505440466,-0.001241539489283078]],"accuracy_validation":0.7735849056603774,"mse_training":0.448,"accuracy_training":0.776,"mse_validation":0.4528301886792453,"bias":2.2992380704434044E-20},{"epoch":936,"weights":[[-0.02100827844147345,-0.007205534760722727,-0.0027975019276101436,-0.06990438799935941,-0.05289538058488623,0.0028128338441875287,0.010625262521336401,-0.0017550224298956052,0.0016530399151319564,-0.020080737208577983,1.0898265114291749E-4,0.0045744394810467905,0.01002392656271659],[0.014936218273587097,-0.017926772528583695,0.0012803940040643032,0.03586703928849382,0.04515898408751786,0.012793680034942424,0.020037667687167953,1.7002670637105877E-4,0.009784278232359809,-0.05441359329485349,0.008415379219025968,0.01983727494287703,-0.0070068938392845925],[0.008003854088082978,0.026374041920650758,0.0027815480923580336,0.035526840384367625,0.009528158112325111,-0.014034254500777296,-0.028951389813642807,0.0028097764924008826,-0.010105833067232164,0.07615148514218797,-0.0069623883365503795,-0.022766058262281032,-0.0012412536141265822]],"accuracy_validation":0.7735849056603774,"mse_training":0.448,"accuracy_training":0.776,"mse_validation":0.4528301886792453,"bias":2.3854667021002507E-20},{"epoch":935,"weights":[[-0.02099650973742512,-0.007200811451876497,-0.0027965363714285494,-0.06985410851966341,-0.05290844397012643,0.0028099300820917743,0.010615060387197502,-0.0017535298547454185,0.0016511586437691459,-0.020065017278005134,1.091789850108752E-4,0.0045688881889590005,0.010024128730818309],[0.014926545809191925,-0.01790748578736212,0.0012808475986164543,0.03584166285398015,0.04516516226105118,0.012782548168578793,0.020019211580132416,1.704075183407598E-4,0.009775809184395315,-0.05436084762630509,0.008407888700560097,0.019819529726973706,-0.007007382504677075],[0.00800175784842982,0.02635003187058296,0.0027801289416242874,0.03550193733918529,0.00953504332403196,-0.014020218872317906,-0.028922731572468396,0.0028079031052809923,-0.010095482747904854,0.07608301954306675,-0.0069550941519524664,-0.02274276175428994,-0.001240967116835812]],"accuracy_validation":0.7735849056603774,"mse_training":0.448,"accuracy_training":0.776,"mse_validation":0.4528301886792453,"bias":2.4889382140577622E-20},{"epoch":934,"weights":[[-0.020984736264942322,-0.007196085129194063,-0.002795569730927212,-0.06980381211115104,-0.05292150056647502,0.0028070258882194935,0.010604856353058372,-0.0017520368156170127,0.0016492773729695816,-0.020049291577463886,1.0937526762879008E-4,0.004563336164348991,0.010024329557840092],[0.014916873542306308,-0.017888196533353568,0.0012813010637937206,0.03581628346586518,0.045171334459146166,0.012771414375272329,0.020000752007256026,1.7078847375576065E-4,0.009767338691736155,-0.05430808727109334,0.008400396889503935,0.01980178101653695,-0.007007870453524236],[0.00799965664283265,0.026326016293891984,0.0027787088359456803,0.03547702031878784,0.009541927722285558,-0.014006180885139155,-0.028894067965452862,0.002806029110737585,-0.010085130984446139,0.07601453348731382,-0.006947798623514229,-0.022719461019243162,-0.0012406799950104282]],"accuracy_validation":0.7735849056603774,"mse_training":0.448,"accuracy_training":0.776,"mse_validation":0.4528301886792453,"bias":2.5407757833967765E-20},{"epoch":933,"weights":[[-0.02097295801576701,-0.007191355789796816,-0.002794602004570685,-0.06975349875719297,-0.052934550322166936,0.002804121263075585,0.010594650418268636,-0.0017505433120718927,0.0016473961034524072,-0.020033560101896875,1.0957149939282318E-4,0.004557783407622956,0.010024529036939138],[0.01490720147165445,-0.01786890476629274,0.001281754399364188,0.035790901122819956,0.04517750064855289,0.012760278654249254,0.019982288967270556,1.7116957267943313E-4,0.009758866753643047,-0.054255312224444074,0.00839290378531949,0.01978402881033102,-0.007008357681392065],[0.007997550464309201,0.026301995187433945,0.002777287774018687,0.03545208930787498,0.009548811288570797,-0.013992140538972166,-0.028865398990677617,0.0028041545082687943,-0.010074777776835865,0.0759460269650975,-0.006940501751093822,-0.022696156056311204,-0.0012403922462416483]],"accuracy_validation":0.7735849056603774,"mse_training":0.448,"accuracy_training":0.776,"mse_validation":0.4528301886792453,"bias":2.416434226651866E-20},{"epoch":932,"weights":[[-0.02096117498161181,-0.007186623430798089,-0.002793633190818218,-0.06970316844110802,-0.05294759318523229,0.002801216207167733,0.010584442582177738,-0.0017490493436702489,0.001645514835939495,-0.020017822846232814,1.0976768070093867E-4,0.0045522299191900475,0.010024727161246123],[0.01489752959594665,-0.01784961048591716,0.0012822076050934008,0.03576551582349174,0.04518366079589316,0.012749141004733748,0.019963822458906263,1.7155081517476842E-4,0.00975039336937495,-0.05420252248158641,0.008385409387467556,0.019766273107117843,-0.00700884418382846],[0.007995439305861819,0.026277968548059645,0.0027758657545370073,0.03542714429111827,0.009555694004295848,-0.013978097833548806,-0.028836724646222417,0.0028022792973718146,-0.010064423125054836,0.07587749996657576,-0.006933203534550001,-0.022672846864665124,-0.0012401038681122334]],"accuracy_validation":0.7735849056603774,"mse_training":0.448,"accuracy_training":0.776,"mse_validation":0.4528301886792453,"bias":2.355508671415169E-20},{"epoch":931,"weights":[[-0.020949387154159997,-0.007181888049303189,-0.0027926632881237175,-0.06965282114616286,-0.05296062910349542,0.0027983107210064456,0.010574232844134982,-0.001747554909970958,0.0016436335711554565,-0.020002079805386493,1.0996381195291073E-4,0.004546675699462381,0.010024923923865064],[0.014887857913879195,-0.017830313691967154,0.0012826606807443495,0.0357401275665038,0.04518981486766026,0.01273800142594791,0.019945352480891847,1.7193220130437494E-4,0.009741918538188999,-0.05414971803775298,0.008377913695407713,0.019748513905656993,-0.007009329956363184],[0.007993323160477458,0.026253936372614726,0.0027744427761915596,0.03540218525316108,0.009562575850791918,-0.01396405276860168,-0.028808044930165262,0.0028004034775429144,-0.010054067029084847,0.075808952481896,-0.006925903973742133,-0.02264953344347661,-0.0012398148581964435]],"accuracy_validation":0.7735849056603774,"mse_training":0.448,"accuracy_training":0.776,"mse_validation":0.4528301886792453,"bias":2.3959278978120178E-20},{"epoch":930,"weights":[[-0.02093759452506534,-0.0071771496424093174,-0.002791692294935733,-0.06960245685557194,-0.05297365802457433,0.0027954048051050443,0.010564021203489503,-0.0017460600105315687,0.001641752309827655,-0.019986330974258556,1.1015989355033163E-4,0.004541120748855072,0.010025119317873228],[0.014878186424134408,-0.017811014384185832,0.0012831136260774562,0.03571473635045532,0.04519596283021823,0.012726859917111765,0.01992687903195445,1.7231373113047607E-4,0.009733442259340565,-0.054096898888179756,0.008370416708598342,0.019730751204705622,-0.007009814994507769],[0.007991202021127589,0.026229898657939538,0.002773018837670471,0.03537721217861855,0.009569456809312883,-0.013950005343864128,-0.028779359840582396,0.002798527048277423,-0.010043709488908618,0.07574038450119494,-0.006918603068530185,-0.02262621579191793,-0.0012395252140600214]],"accuracy_validation":0.7735849056603774,"mse_training":0.448,"accuracy_training":0.776,"mse_validation":0.4528301886792453,"bias":2.5282303784149938E-20},{"epoch":929,"weights":[[-0.02092579708595194,-0.007172408207205572,-0.002790720209697438,-0.06955207555249682,-0.05298667989587961,0.00279249845997968,0.01055380765959027,-0.0017445646449083044,0.001639871052686217,-0.01997057634773561,1.1035592589661831E-4,0.00453556506778621,0.010025313336321031],[0.01486851512538042,-0.01779171256231925,0.0012835664408505614,0.03568934217392131,0.04520210464980135,0.012715716477443254,0.019908402110819668,1.7269540471490777E-4,0.009724964532083253,-0.054044065028106304,0.008362918426496608,0.0197129850030185,-0.007010299293755442],[0.007989075880768193,0.0262058554008692,0.0027715939376590725,0.03535222505207742,0.009576336861035031,-0.013935955559070255,-0.028750669375548366,0.0027966500090697262,-0.01003335050450986,0.07567179601459856,-0.006911300818774731,-0.02260289390916196,-0.0012392349332601502]],"accuracy_validation":0.7735849056603774,"mse_training":0.448,"accuracy_training":0.776,"mse_validation":0.4528301886792453,"bias":2.4600914905994783E-20},{"epoch":928,"weights":[[-0.020913994828414197,-0.007167663740772893,-0.002789747030846595,-0.06950167722004644,-0.05299969466461357,0.0027895916861493536,0.010543592211786098,-0.001743068812656053,0.001637989800464042,-0.019954815920690084,1.1055190939702025E-4,0.00453000865667691,0.010025505972231894],[0.014858844016271194,-0.01777240822611628,0.0012840191248189086,0.03566394503545234,0.04520824029251365,0.01270457110615821,0.019889921716211446,1.7307722211911533E-4,0.009716485355668826,-0.05399121645277562,0.00835541884855843,0.01969521529934799,-0.007010782849581032],[0.007986944732339674,0.026181806598233544,0.00277016807483988,0.03532722385809602,0.009583215987056732,-0.013921903413954877,-0.02872197353313599,0.0027947723594132687,-0.010022990075873248,0.07560318701222238,-0.006903997224336957,-0.022579567794382163,-0.0012389440133454205]],"accuracy_validation":0.7735849056603774,"mse_training":0.448,"accuracy_training":0.776,"mse_validation":0.4528301886792453,"bias":2.605155030772607E-20},{"epoch":927,"weights":[[-0.020902187744016545,-0.007162916240184025,-0.002788772756815546,-0.06945126184127673,-0.05301270227776964,0.0027866844841359212,0.010533374859425623,-0.0017415725133283631,0.001636108553896812,-0.01993904968798021,1.1074784445862677E-4,0.004524451515951291,0.010025697218602185],[0.014849173095446432,-0.017753101375328654,0.0012844716777351355,0.03563854493357453,0.045214369724328275,0.012693423802470351,0.019871437846852216,1.7345918340415142E-4,0.009708004729347238,-0.0539383531574341,0.008347917974238525,0.019677442092444066,-0.007011265657440915],[0.00798480856876681,0.026157752246857072,0.0027687412478926018,0.03530220858120416,0.009590094168398174,-0.013907848908253584,-0.028693272311416263,0.0027928940988005387,-0.010012628202984443,0.07553455748417096,-0.006896692285078659,-0.022556237446752617,-0.0012386524518558132]],"accuracy_validation":0.7735849056603774,"mse_training":0.448,"accuracy_training":0.776,"mse_validation":0.4528301886792453,"bias":2.807930991400319E-20},{"epoch":926,"weights":[[-0.020890375824293497,-0.007158165702503509,-0.0027877973860311795,-0.06940082939919032,-0.05302570268213118,0.0027837768544641023,0.01052315560185729,-0.0017400757464774313,0.0016342273137230088,-0.01992327764444992,1.1094373149037471E-4,0.004518893646036525,0.010025887068401046],[0.014839502361531483,-0.017733792009711067,0.0012849240993492582,0.035613141866789315,0.045220492911087026,0.012682274565591295,0.019852950501462782,1.738412886306746E-4,0.009699522652366644,-0.053885475137331856,0.00834041580299037,0.01965966538105428,-0.007011747712772925],[0.007982667382958721,0.026133692343558956,0.002767313455494111,0.03527717920590288,0.009596971386001006,-0.013893792041702702,-0.028664565708458475,0.002791015226723085,-0.010002264885830036,0.07546590742053845,-0.006889386000862246,-0.02253290286544805,-0.0012383602463226656]],"accuracy_validation":0.7735849056603774,"mse_training":0.448,"accuracy_training":0.776,"mse_validation":0.4528301886792453,"bias":2.8795765956174646E-20},{"epoch":925,"weights":[[-0.020878559060749435,-0.007153412124787632,-0.002786820916914914,-0.06935037987673622,-0.0530386958242709,0.0027808687976614978,0.010512934438429418,-0.0017385785116541112,0.0016323460806839207,-0.019907499784928843,1.1113957090305548E-4,0.004513335047362819,0.010026075514570337],[0.014829831813137299,-0.017714480129021094,0.0012853763894086518,0.035587735833573414,0.045226609818499686,0.012671123394730513,0.019834459678762358,1.7422353785894495E-4,0.00969103912397335,-0.05383258238772243,0.008332912334266203,0.01964188516392368,-0.007012229010996255],[0.007980521167808837,0.02610962688515307,0.0027658846963184523,0.035252135716664655,0.009603847620728035,-0.01387973281403931,-0.02863585372233019,0.0027891357426714967,-0.009991900124397662,0.07539723681140784,-0.006882078371550741,-0.02250956404964374,-0.0012380673942686245]],"accuracy_validation":0.7735849056603774,"mse_training":0.448,"accuracy_training":0.776,"mse_validation":0.4528301886792453,"bias":2.958939686423636E-20},{"epoch":924,"weights":[[-0.020866737444858455,-0.007148655504084383,-0.002785843347882679,-0.0692999132568099,-0.05305168165054972,0.0027779603142585978,0.010502711368490137,-0.0017370808084078964,0.0016304648555236572,-0.01989171610423214,1.1133536310932313E-4,0.004507775720363435,0.010026262550024494],[0.014820161448860348,-0.017695165733019207,0.001285828547658045,0.03556232683237862,0.04523272041214353,0.012659970289095332,0.01981596537746853,1.7460593114882277E-4,0.009682554143411836,-0.053779674903862935,0.00832540756751699,0.019624101439794883,-0.007012709547511393],[0.007978369916194798,0.02608555586844792,0.002764454969036822,0.03522707809793316,0.00961072285336298,-0.013865671225001226,-0.02860713635109709,0.0027872556461354036,-0.009981533918675883,0.07532854564685164,-0.006874769397007785,-0.02248622099851555,-0.0012377738932076328]],"accuracy_validation":0.7735849056603774,"mse_training":0.448,"accuracy_training":0.776,"mse_validation":0.4528301886792453,"bias":3.0222833513181553E-20},{"epoch":923,"weights":[[-0.0208549109680643,-0.007143895837433441,-0.0027848646773448735,-0.06924942952225287,-0.0530646601071161,0.0027750514047888,0.010492486391387404,-0.0017355826362869145,0.0016285836389891579,-0.019875926597160597,1.1153110852370162E-4,0.004502215665474708,0.010026448167650397],[0.014810491267282533,-0.01767584882146886,0.0012862805738395,0.035536914861631665,0.045238824657462755,0.01264881524789094,0.01979746759629733,1.7498846855976567E-4,0.009674067709924726,-0.05372675268101423,0.008317901502192464,0.01960631420740809,-0.007013189317700041],[0.007976213620978424,0.02606147929024662,0.00276302427231756,0.035202006334123084,0.009617597064610085,-0.013851607274327035,-0.02857841359282316,0.002785374936603479,-0.009971166268654276,0.07525983391693135,-0.006867459077097644,-0.02246287371124001,-0.0012374797406448977]],"accuracy_validation":0.7735849056603774,"mse_training":0.448,"accuracy_training":0.776,"mse_validation":0.4528301886792453,"bias":3.1279124255989134E-20},{"epoch":922,"weights":[[-0.020843079621780163,-0.007139133121866125,-0.0027838849037063657,-0.06919892865585237,-0.05307763113990514,0.0027721420697884107,0.010482259506469013,-0.0017340839948379277,0.0016267024318302025,-0.019860131258500377,1.1172680756259261E-4,0.004496654883136072,0.010026632360307331],[0.01480082126697114,-0.01765652939413643,0.0012867324676923998,0.03551149991973408,0.045244922519768,0.012637658270320339,0.019778966333963137,1.7537115015082603E-4,0.009665579822752792,-0.05367381571444069,0.008310394137741116,0.019588523465500964,-0.007013668316925033],[0.007974052275005689,0.02603739714734687,0.0027615926048261516,0.035176920409620116,0.009624470235093833,-0.013837540961756049,-0.028549685445570558,0.0027834936135634303,-0.009960797174323377,0.0751911016116976,-0.006860147411685182,-0.022439522186994253,-0.0012371849340768292]],"accuracy_validation":0.7735849056603774,"mse_training":0.448,"accuracy_training":0.776,"mse_validation":0.4528301886792453,"bias":3.169194439755835E-20},{"epoch":921,"weights":[[-0.020831243397388694,-0.007134367354405371,-0.0027829040253664564,-0.0691484106403412,-0.053090594694637484,0.002769232309796664,0.010472030713082553,-0.0017325848836063184,0.0016248212347994278,-0.019844330083023175,1.1192246064428296E-4,0.004491093373790028,0.010026815120826763],[0.014791151446478731,-0.01763720745079128,0.0012871842289534396,0.03548608200506206,0.04525101396423555,0.0126264993555844,0.01976046158917866,1.757539759806485E-4,0.009657090481134932,-0.05362086399941033,0.008302885473610147,0.019570729212808734,-0.007014146540530249],[0.007971885871106634,0.026013309436540972,0.0027601599652252065,0.035151820308780946,0.00963134234535864,-0.013823472287028361,-0.028520951907399644,0.0027816116765020022,-0.009950426635674752,0.07512234872119004,-0.006852834400635907,-0.022416166424956,-0.0012368894709910627]],"accuracy_validation":0.7735849056603774,"mse_training":0.448,"accuracy_training":0.776,"mse_validation":0.4528301886792453,"bias":3.0656634660854245E-20},{"epoch":920,"weights":[[-0.02081940228624175,-0.007129598532065683,-0.002781922040718862,-0.06909787545839753,-0.05310355071681877,0.0027663221253557326,0.010461800010575477,-0.0017310853021360964,0.0016229400486523372,-0.019828523065485975,1.1211806818895259E-4,0.004485531137882211,0.010026996442012331],[0.014781481804343093,-0.017617882991205785,0.0012876358573566035,0.035460661115966324,0.045257098955906926,0.012615338502881768,0.019741953360655116,1.761369461074679E-4,0.009648599684308212,-0.05356789753119491,0.008295375509245504,0.01955293144806408,-0.007014623983840513],[0.007969714402095325,0.025989216154615778,0.0027587263521744493,0.035126706015933026,0.009638213375868544,-0.013809401249884803,-0.028492212976368985,0.0027797291249049582,-0.009940054652700925,0.07505357523543753,-0.006845520043815937,-0.022392806424303538,-0.0012365933488663711]],"accuracy_validation":0.7735849056603774,"mse_training":0.448,"accuracy_training":0.776,"mse_validation":0.4528301886792453,"bias":3.2061271091351957E-20},{"epoch":919,"weights":[[-0.020807556279660272,-0.007124826651853122,-0.0027809389481516806,-0.06904732309264495,-0.05311649915173854,0.002763411517010746,0.010451567398295022,-0.0017295852499698778,0.0016210588741473117,-0.01981271020063111,1.123136306186823E-4,0.004479968175861377,0.010027176316639682],[0.014771812339087153,-0.017598556015155285,0.0012880873526331577,0.03543523725077194,0.045263177459688365,0.012604175711408915,0.019723441647101925,1.7652006058910562E-4,0.00964010743150777,-0.05351491630506997,0.008287864244091859,0.019535130169997264,-0.007015100642161551],[0.00796753786076981,0.025965117298352706,0.0027572917643307136,0.03510157751537469,0.009645083307006874,-0.013795327850066964,-0.02846346865053536,0.0027778459582571058,-0.009929681225395443,0.07498478114445774,-0.006838204341092027,-0.02236944218421588,-0.0012362965651726723]],"accuracy_validation":0.7735849056603774,"mse_training":0.448,"accuracy_training":0.776,"mse_validation":0.4528301886792453,"bias":3.272912607707587E-20},{"epoch":918,"weights":[[-0.02079570536893428,-0.0071200517107652345,-0.002779954746047383,-0.06899675352565138,-0.053129439944469295,0.0027605004853097893,0.010441332875588289,-0.0017280847266488942,0.0016191777120456198,-0.019796891483186106,1.12509148357461E-4,0.0044744044881793975,0.010027354737456326],[0.014762143049218898,-0.017579226522418143,0.0012885387145116283,0.03540981040777829,0.04526924944035005,0.01259301098036009,0.01970492644722695,1.769033194829676E-4,0.00963161372196687,-0.053461920316314616,0.0082803516775926,0.019517325377335883,-0.0070155765107798845],[0.007965356239912073,0.02594101286452766,0.0027558562003479436,0.035076434791374775,0.009651952119075926,-0.013781252087317186,-0.02843471892795366,0.00277596217604226,-0.009919306353752844,0.07491596643825743,-0.00683088729233155,-0.022346073703872545,-0.0012359991173709849]],"accuracy_validation":0.7735849056603774,"mse_training":0.464,"accuracy_training":0.768,"mse_validation":0.4528301886792453,"bias":3.2135686323900036E-20},{"epoch":917,"weights":[[-0.0207838495453226,-0.007115273705791054,-0.0027789694327827715,-0.0689461667399298,-0.053142373039865645,0.0027575890308039275,0.01043109644180215,-0.0017265837317129707,0.0016172965631114354,-0.019781066907863687,1.1270462183119431E-4,0.004468840075291328,0.010027531697181583],[0.014752473933231335,-0.01755989451277578,0.0012889899427177957,0.03538438058525878,0.045275314862525666,0.01258184430892734,0.019686407759736416,1.772867228460417E-4,0.009623118554916878,-0.053408909560211854,0.008272837809189831,0.019499517068805133,-0.0070160515849627255],[0.007963169532287963,0.025916902849911095,0.0027544196588771643,0.035051277828172724,0.009658819792296686,-0.013767173961378571,-0.02840596380667699,0.00277407777774326,-0.009908930037768672,0.07484713110683226,-0.006823568897402512,-0.02232270098245373,-0.0012357010029133873]],"accuracy_validation":0.7735849056603774,"mse_training":0.464,"accuracy_training":0.768,"mse_validation":0.4528301886792453,"bias":3.1039098835659746E-20},{"epoch":916,"weights":[[-0.020771988800052793,-0.007110492633911051,-0.002777983006728972,-0.0688955627179375,-0.05315529838256362,0.0027546771540472087,0.010420858096283335,-0.001725082264700533,0.0016154154281118455,-0.01976523646936164,1.12900051467712E-4,0.004463274937655354,0.010027707188506426],[0.01474280498960234,-0.017540559986012616,0.001289441036974676,0.03535894778146079,0.045281373690711814,0.012570675696300486,0.01966788558333485,1.776702707348954E-4,0.009614621929587248,-0.05335588403204847,0.008265322638324352,0.019481705243127586,-0.007016525859957947],[0.007960977730647148,0.025892787251267934,0.0027529821385664888,0.03502610660997843,0.009665686306808453,-0.013753093471994993,-0.028377203284756607,0.0027721927628419694,-0.009898552277439462,0.07477827514016688,-0.006816249156173549,-0.02229932401914017,-0.0012354022192430049]],"accuracy_validation":0.7735849056603774,"mse_training":0.464,"accuracy_training":0.768,"mse_validation":0.4528301886792453,"bias":3.213515608127504E-20},{"epoch":915,"weights":[[-0.02076012312432105,-0.00710570849209709,-0.002776995466251407,-0.0688449414420759,-0.05316821591697929,0.0027517648555966845,0.010410617838378391,-0.0017235803251485957,0.001613534307816861,-0.01974940016236285,1.1309543769677551E-4,0.004457709075732855,0.010027881204093368],[0.014733136216794653,-0.017521222941916197,0.0012898919970025066,0.03533351199460546,0.04528742588926737,0.012559505141667085,0.019649359916725142,1.7805396320567254E-4,0.009606123845205532,-0.05330284372711497,0.008257806164435671,0.01946388989902325,-0.007016999330993937],[0.007958780827723059,0.02586866606535754,0.002751543638061096,0.035000921120972125,0.009672551642668545,-0.01373901061891107,-0.028348437360241913,0.002770307130819256,-0.009888173072762768,0.07470939852823463,-0.006808928068513923,-0.022275942813113323,-0.001235102763793951]],"accuracy_validation":0.7735849056603774,"mse_training":0.464,"accuracy_training":0.768,"mse_validation":0.4528301886792453,"bias":3.268838209824704E-20},{"epoch":914,"weights":[[-0.020748252509291975,-0.0071009212773124036,-0.0027760068097097594,-0.06879430289469031,-0.053181125587308316,0.0027488521360124166,0.010400375667433648,-0.0017220779125927566,0.0016116532029994322,-0.01973355798153518,1.1329078095008666E-4,0.004452142489988393,0.010028053736576356],[0.01472346761325578,-0.017501883380277115,0.0012903428225187275,0.035308073222887544,0.04529347142241297,0.012548332644212479,0.01963083075860845,1.7843780031409075E-4,0.00959762430099735,-0.053249788640705814,0.008250288386961974,0.01944607103520961,-0.007017471993279557],[0.007956578816232863,0.025844539288933762,0.002750104156003228,0.034975721345304404,0.009679415779851996,-0.013724925401872196,-0.028319666031180486,0.002768420881155,-0.009877792423737158,0.07464050126099778,-0.006801605634293544,-0.022252557363555213,-0.0012348026339913162]],"accuracy_validation":0.7735849056603774,"mse_training":0.464,"accuracy_training":0.768,"mse_validation":0.4528301886792453,"bias":3.437414368174077E-20},{"epoch":913,"weights":[[-0.020736376946098593,-0.007096130986511559,-0.002775017035457968,-0.06874364705806987,-0.0531940273375248,0.0027459389958574944,0.010390131582795281,-0.001720575026567194,0.0016097721144354598,-0.019717709921531407,1.1348608166129507E-4,0.004446575180889738,0.010028224778560645],[0.014713799177417882,-0.017482541300889033,0.0012907935132379753,0.03528263146447541,0.045299510254230305,0.01253715820311971,0.019612298107684327,1.7882178211543913E-4,0.00958912329618637,-0.05319671876811923,0.008242769305340169,0.019428248650401516,-0.007017943842004033],[0.007954371688877387,0.02582040691874485,0.0027486636910321826,0.03495050726709598,0.009686278698251184,-0.013710837820624497,-0.028290889295618026,0.0027665340133280875,-0.009867410330362206,0.07457158332840741,-0.006794281853382955,-0.02222916766964845,-0.0012345018272511307]],"accuracy_validation":0.7735849056603774,"mse_training":0.464,"accuracy_training":0.768,"mse_validation":0.4528301886792453,"bias":3.483004900120502E-20},{"epoch":912,"weights":[[-0.02072449642584208,-0.00709133761664041,-0.002774026141844178,-0.06869297391444695,-0.05320692111138042,0.0027430254356980406,0.010379885583809253,-0.0017190716666046545,0.0016078910429038074,-0.019701855976989133,1.1368134026600635E-4,0.004441007148907875,0.01002839432262268],[0.014704130907697732,-0.017463196703548785,0.00129124406887206,0.03525718671751071,0.04530554234866153,0.012525981817569566,0.019593761962650648,1.7920590866457548E-4,0.009580620829994354,-0.05314363410465739,0.00823524891900583,0.019410422743311232,-0.007018414872336871],[0.00795215943834105,0.025796268951533457,0.002747222241784306,0.03492527887043773,0.009693140377675538,-0.013696747874914903,-0.028262107151598315,0.0027646465268164095,-0.00985702679263853,0.07450264472040333,-0.006786956725653321,-0.022205773730576285,-0.0012342003409803268]],"accuracy_validation":0.7735849056603774,"mse_training":0.464,"accuracy_training":0.768,"mse_validation":0.4528301886792453,"bias":3.542871833579722E-20},{"epoch":911,"weights":[[-0.020712610939591775,-0.00708654116463608,-0.0027730341272107395,-0.06864228344599729,-0.053219806852403385,0.0027401114561032276,0.01036963766982137,-0.0017175678322364505,0.0016060099891863121,-0.019685996142530835,1.1387655720179025E-4,0.0044354383945170075,0.010028562361309971],[0.014694462802496654,-0.017443849588056264,0.0012916944891299565,0.03523173898010841,0.04531156766950882,0.012514803486740557,0.019575222322203534,1.795901800159234E-4,0.009572116901641076,-0.0530905346456264,0.008227727227393199,0.019392593312648473,-0.007018885079427789],[0.007949942057291824,0.025772125384036615,0.0027457798068929694,0.034900036139390446,0.009700000797851199,-0.013682655564491096,-0.028233319597163332,0.002762758421096858,-0.009846641810567752,0.07443368542691406,-0.00677963025097646,-0.022182375545522652,-0.0012338981725767105]],"accuracy_validation":0.7735849056603774,"mse_training":0.464,"accuracy_training":0.768,"mse_validation":0.4528301886792453,"bias":3.6391549157270663E-20},{"epoch":910,"weights":[[-0.020700720478384855,-0.0070817416274269055,-0.0027720409898941718,-0.06859157563483967,-0.05323268450389773,0.0027371970576452968,0.010359387840177217,-0.0017160635229924554,0.0016041289540677977,-0.019670130412763637,1.140717329081885E-4,0.004429868918194586,0.010028728887140997],[0.014684794860200367,-0.01742449995421456,0.0012921447737177846,0.035206288250356356,0.04531758618043364,0.012503623209808887,0.019556679185037437,1.7997459622346942E-4,0.009563611510344355,-0.0530374203863362,0.008220204229935184,0.019374760357120286,-0.007019354458406601],[0.007947719538381194,0.02574797621298574,0.0027443363849885727,0.03487477905798481,0.009706859938420721,-0.013668560889101502,-0.028204526630353142,0.002760869695645316,-0.00983625538415251,0.07436470543785671,-0.006772302429224845,-0.022158973113672018,-0.0012335953194289166]],"accuracy_validation":0.7735849056603774,"mse_training":0.464,"accuracy_training":0.768,"mse_validation":0.4528301886792453,"bias":3.7272439705492593E-20},{"epoch":909,"weights":[[-0.020688825033226395,-0.0070769390019324065,-0.0027710467282251404,-0.06854085046303533,-0.05324555400894221,0.0027342822408995627,0.010349136094222208,-0.001714558738401097,0.00160224793833609,-0.01965425878227938,1.1426686782672299E-4,0.004424298720421334,0.010028893892605037],[0.014675127079178998,-0.01740514780182991,0.0012925949223387982,0.03518083452631542,0.04532359784495613,0.012492440985948454,0.01953813254984515,1.8035915734076097E-4,0.009555104655320048,-0.05298429132210092,0.008212679926063386,0.019356923875430993,-0.007019823004383158],[0.007945491874244088,0.02572382143510661,0.0027428919746985293,0.03484950761022141,0.009713717778942673,-0.01365446384849533,-0.028175728249205837,0.0027589803499366633,-0.009825867513396484,0.07429570474313715,-0.006764973260271564,-0.022135566434209514,-0.0012332917789164004]],"accuracy_validation":0.7735849056603774,"mse_training":0.464,"accuracy_training":0.768,"mse_validation":0.4528301886792453,"bias":3.6837532332790764E-20},{"epoch":908,"weights":[[-0.0206769245950891,-0.007072133285063264,-0.0027700513405284313,-0.0684901079125881,-0.053258415310389357,0.00273136700644442,0.010338882431301552,-0.0017130534779893477,0.0016003669427820252,-0.01963838124565448,1.1446196240090386E-4,0.004418727801681237,0.010029057370162102],[0.01466545945778692,-0.017385793130711712,0.001293044934693364,0.03515537780601914,0.04532960262645455,0.012481256814330837,0.019519582415317677,1.8074386342090294E-4,0.00954659633578203,-0.05293114744823846,0.008205154315208015,0.0193390838662824,-0.00702029071244724],[0.007943259057498826,0.025699661047119272,0.002741446574647256,0.034824221780070407,0.009720574298891347,-0.013640364442422564,-0.028146924451757715,0.00275709038344477,-0.00981547819830439,0.07422668333264983,-0.006757642743990376,-0.022112155506320855,-0.0012329875484093818]],"accuracy_validation":0.7735849056603774,"mse_training":0.464,"accuracy_training":0.768,"mse_validation":0.4528301886792453,"bias":3.4370767408413025E-20},{"epoch":907,"weights":[[-0.020665019154913183,-0.007067324473721256,-0.0027690548251229317,-0.06843934796544401,-0.05327126835086454,0.0027284513548613714,0.010328626850760279,-0.0017115477412827224,0.0015984859681994637,-0.019622497797449876,1.1465701707623822E-4,0.0044131561624615664,0.010029219312242769],[0.014655791994362753,-0.01736643594067257,0.0012934948104789544,0.03512991808747384,0.04533560048816465,0.012470070694125283,0.01950102878014434,1.8112871451655502E-4,0.00953808655094216,-0.052877988760070896,0.008197627396797984,0.019321240328373648,-0.007020757577668478],[0.007941021080747093,0.02567549504573813,0.002740000183456166,0.034798921551471663,0.009727429477656441,-0.013626262670633956,-0.02811811523604311,0.002755199795642494,-0.009805087438881956,0.07415764119627766,-0.006750310880255684,-0.022088740329192398,-0.001232682625268814]],"accuracy_validation":0.7735849056603774,"mse_training":0.464,"accuracy_training":0.768,"mse_validation":0.4528301886792453,"bias":3.4622395486053894E-20},{"epoch":906,"weights":[[-0.020653108703606367,-0.007062512564799254,-0.002768057180321595,-0.06838857060349104,-0.0532841130727652,0.0027255352867350336,0.010318369351943217,-0.001710041527805271,0.001596605015385306,-0.019606608432211008,1.1485203230023789E-4,0.004407583803252881,0.01002937971124809],[0.01464612468722921,-0.017347076231528265,0.0012939445493901265,0.03510445536865804,0.045341591393179045,0.012458882624498697,0.019482471643012738,1.815137106799295E-4,0.009529575300010338,-0.05282481525292434,0.008190099170260817,0.019303393260401123,-0.007021223595096256],[0.00793877793657382,0.025651323427671832,0.002738552799743658,0.03477360690833454,0.009734283294542708,-0.013612158532881028,-0.028089300600094447,0.002753308586001669,-0.009794695235135967,0.07408857832389225,-0.0067429776689425175,-0.02206532090201121,-0.0012323770068463672]],"accuracy_validation":0.7735849056603774,"mse_training":0.464,"accuracy_training":0.768,"mse_validation":0.4528301886792453,"bias":3.3158913982644546E-20},{"epoch":905,"weights":[[-0.020641193232043588,-0.007057697555181148,-0.0027670584044314226,-0.06833777580855883,-0.05329694941825962,0.0027226188026531514,0.010308109934194983,-0.0017085348370795676,0.0015947240851395,-0.019590713144467715,1.150470085224277E-4,0.00440201072454907,0.010029538559549453],[0.014636457534693045,-0.017327714003097846,0.0012943941511185065,0.035078989647522714,0.04534757530444659,0.012447692604615628,0.019463911002608743,1.8189885196278753E-4,0.009521062582194427,-0.05277162692212893,0.008182569635022688,0.019285542661058586,-0.007021688759759625],[0.007936529617547185,0.025627146189623293,0.002737104422125107,0.03474827783453775,0.00974113572876961,-0.013598052028916084,-0.0280604805419422,0.0027514167539931067,-0.009784301587074247,0.0740194947053536,-0.006735643109926579,-0.02204189722396484,-0.0012320706904843759]],"accuracy_validation":0.7735849056603774,"mse_training":0.464,"accuracy_training":0.768,"mse_validation":0.4528301886792453,"bias":3.4029702815937567E-20},{"epoch":904,"weights":[[-0.020629272731066885,-0.007052879441741836,-0.0027660584957534358,-0.06828696356241877,-0.05330977732928607,0.002719701903206603,0.010297848596860002,-0.001707027668626713,0.001592843178265055,-0.01957481192873415,1.1524194619435383E-4,0.004396436926847335,0.010029695849488466],[0.014626790535045,-0.01730834925520357,0.0012948436153527789,0.03505352092199092,0.04535355218477168,0.012436500633638261,0.01944534685761647,1.82284138416437E-4,0.00951254839670029,-0.05271842376301902,0.0081750387905084,0.01926768852903706,-0.007022153066667201],[0.007934276116218542,0.025602963328289714,0.0027356550492128504,0.034722934313929435,0.009747986759470997,-0.013583943158492179,-0.02803165505961493,0.002749524299086606,-0.009773906494705673,0.07395039033051012,-0.006728307203084215,-0.022018469294241574,-0.0012317636735158094]],"accuracy_validation":0.7735849056603774,"mse_training":0.464,"accuracy_training":0.768,"mse_validation":0.4528301886792453,"bias":3.537192647074983E-20},{"epoch":903,"weights":[[-0.020617347191485374,-0.007048058221347189,-0.002765057452582656,-0.06823613384678295,-0.053322596747551965,0.0027167845889894265,0.010287585339282505,-0.0017055200219663238,0.0015909622955680592,-0.01955890477950873,1.1543684576959258E-4,0.004390862410648229,0.010029851573376825],[0.014617123686559666,-0.01728898198767096,0.0012952929417786652,0.03502804918995767,0.04535952199681385,0.01242530671072641,0.019426779206718255,1.826695700917297E-4,0.009504032742731754,-0.05266520577093298,0.008167506636141377,0.019249830863024876,-0.007022616510807114],[0.007932017425122352,0.02557877484036249,0.002734204679616179,0.03469757633032685,0.00975483636569472,-0.013569831921363145,-0.02800282415113924,0.0027476312207509227,-0.009763509958040142,0.07388126518919863,-0.006720969948292442,-0.02199503711203027,-0.001231455953264248]],"accuracy_validation":0.7735849056603774,"mse_training":0.464,"accuracy_training":0.768,"mse_validation":0.4528301886792453,"bias":3.5707864819828585E-20},{"epoch":902,"weights":[[-0.020605416604074948,-0.007043233890853991,-0.002764055273208066,-0.06818528664330473,-0.05333540761453271,0.0027138668605988197,0.010277320160806529,-0.0017040118966165233,0.0015890814378576867,-0.01954299169127415,1.1563170770375822E-4,0.004385287176455653,0.010030005723496176],[0.014607456987495444,-0.017269612200328823,0.0012957421300789128,0.03500257444928986,0.04536548470308689,0.012414110835037493,0.019408208048594743,1.8305514703905804E-4,0.009495515619490608,-0.05261197294121338,0.008159973171343685,0.019231969661707603,-0.007023079087146871],[0.007929753536776147,0.025554580722527163,0.002732753311941339,0.03467220386751646,0.009761684526402374,-0.013555718317283609,-0.027973987814539775,0.002745737518453796,-0.009753111977088617,0.07381211927124443,-0.0067136313454289175,-0.021971600676520438,-0.0012311475270438408]],"accuracy_validation":0.7735849056603774,"mse_training":0.464,"accuracy_training":0.768,"mse_validation":0.4528301886792453,"bias":3.4639773213999854E-20},{"epoch":901,"weights":[[-0.02059348095957825,-0.007038406447109916,-0.002763051955912595,-0.06813442193357826,-0.0533482098714708,0.0027109487186351665,0.010267053060775898,-0.0017025032920939373,0.0015872006059462157,-0.019527072658497124,1.1582653245451173E-4,0.004379711224776877,0.01003015829209803],[0.014597790436094436,-0.017250239893009254,0.0012961911799332798,0.034977096697826025,0.04537144026595845,0.012402913005726495,0.019389633381924783,1.8344086930835278E-4,